-82 30 105 53 -64 -25 -39 -57 -82 52 96 1 80 -3 -38 68 3 -49 -91 61 -69 61 -97 -115 -16 123 82 49 82 93 66 -88 57 -102 73 -89 110 -121 40 -9 60 95 -96 -113 -43 -53 -106 -43 73 12 -12 -111 70 -21 105 57 25 -16 -27 17 90 -6 -52 -2 79 48 -39 -94 58 25 69 -62 60 -94 -103 -66 -50 118 -59 10 46 25 78 -94 99 59 -125 18 -40 54 -96 -38 117 -74 81 -97 -15 77 -60 -57 42 -125 83 37 127 -47 61 114 -58 -108 120 -108 68 -59 -67 -24 -26 -92 30 31 -10 12 -55 117 -97 -14 20 -4 18 -75 98 -47 -50 -69 -5 -14 103 -122 84 -92 69 -120 62 -8 -118 29 72 99 107 19 88 -29 -1 91 42 113 22 87 83 -120 -127 -38 5 -78 -109 -62 50 44 -77 58 64 -113 126 -91 80 -107 20 104 12 45 -22 -66 14 -73 -79 42 8 -8 -69 -35 127 86 86 124 69 77 -60 29 -107 -44 -1 -73 -74 -66 -35 89 -64 -82 65 -53 1 113 112 119 -127 76 6 123 76 40 63 -122 110 -65 -86 -35 -105 -9 72 -55 -89 17 109 60 99 -7 -127 94 -2 20 -114 -36 -97 -103 -45 -23 3 -18 71 53 -96 -11 109 35 119 12 -125 -28 84 -9 119 -25 -19 -110 51 23 65 -90 30 47 73 4 75 -71 -8 2 -63 -114 6 -105 84 67 23 3 -97 -123 -45 37 25 -85 50 -59 113 -42 75 63 -81 -46 -39 85 -121 -120 -7 35 -115 91 15 85 -24 100 -98 -101 78 -7 9 113 -31 76 -40 -93 -82 91 -36 123 14 0 122 15 -66 126 -101 53 11 73 -26 83 52 98 41 122 54 -35 66 73 58 16 105 3 -66 -115 -106 -113 -89 89 44 -72 -16 -5 -70 21 57 -39 28 71 88 24 -78 97 35 118 -56 -97 60 -77 -118 58 102 104 27 54 86 118 34 1 -20 -10 106 19 -33 -48 -84 -109 -4 -112 -15 -86 118 -105 -5 20 16 82 -56 96 55 -86 -42 -15 46 -17 2 62 -16 94 -23 -16 -86 -109 -63 46 124 60 80 65 -35 -75 -49 -96 -24 42 37 -7 126 113 -8 -52 14 -75 -68 -57 16 26 -124 -46 46 52 -67 36 15 26 29 -37 16 67 -65 50 0 29 -88 -75 -26 -44 -3 -46 -21 72 118 -114 -75 101 -99 -84 47 -122 82 -124 -124 -84 -41 -54 35 63 -74 32 9 2 14 71 64 16 104 65 -17 -82 -18 60 111 48 7 108 -122 74 56 -104 -88 -22 -64 -118 103 -91 -88 33 6 -53 -11 58 24 -51 -92 8 -24 -37 -89 -92 98 -23 -17 95 -85 -125 -9 97 -61 -115 -69 -49 32 -112 -91 10 3 -47 26 -46 -83 20 -122 -72 93 21 88 119 -99 55 21 -44 88 38 -81 -65 -97 -19 84 13 28 119 -82 86 70 114 -9 9 -27 68 -120 -21 -23 -4 125 95 -18 47 35 19 -97 -19 -12 0 0 38 -84 89 108 -103 35 82 28 68 -80 -43 8 28 -68 -87 -56 -102 -84 -75 74 -69 -81 -64 75 43 36 -16 22 66 -40 -48 104 77 -101 -109 -33 103 57 -73 -122 38 92 -60 -49 105 55 87 -16 72 84 3 18 -49 54 11 49 -2 -66 23 -62 25 6 -66 -40 -87 -107 3 -42 -58 110 69 -50 -82 22 -110 7 102 -106 120 110 119 -62 -24 -37 -55 16 55 12 44 10 94 -68 -60 -48 125 77 77 112 -19 92 96 18 -99 -14 121 88 32 -81 48 39 62 -32 -107 71 69 -100 -68 -75 12 50 -125 24 -67 -15 -46 121 -101 61 112 101 57 -68 -48 27 37 54 -71 -119 -38 -48 -98 -36 99 12 43 112 95 -20 29 57 -78 -114 70 -89 -45 37 -30 -112 105 -114 -19 28 -88 -46 -49 -115 -110 -7 -101 120 -10 -115 93 122 -43 3 -59 125 -2 -33 28 -91 -51 113 20 90 -12 -100 -38 -94 -8 -105 -97 27 -88 75 11 27 106 -65 11 111 -15 -44 50 -105 -20 94 90 8 -4 -45 76 -10 28 95 -74 -7 -60 -95 69 26 -77 111 122 -77 100 106 106 48 21 54 -39 -50 -85 -29 101 -75 90 -1 -20 -40 68 -38 -86 48 6 -79 -89 126 15 -64 94 84 71 53 -39 35 -35 42 23 76 -78 -101 -21 -5 117 -87 39 -21 -58 -46 -56 83 71 -55 109 -32 83 101 -6 67 45 -49 21 -77 101 -90 -79 -71 -17 -56 103 -124 91 -54 -61 51 46 -68 -6 21 26 -36 -119 81 -13 86 -104 9 56 -64 34 -17 -27 30 -110 -12 12 87 -31 67 -115 117 113 61 -41 -9 -92 -52 22 9 3 53 -105 -31 -125 40 -110 -9 118 -27 76 -120 -28 22 18 37 -38 -49 -95 125 57 -42 68 47 85 65 -71 -108 -69 -69 -79 -85 -106 122 -103 6 104 97 88 -6 17 -33 -100 87 44 97 -24 98 -41 -37 -55 0 -35 -26 110 127 109 -18 24 -45 -83 -107 -114 -124 112 -2 79 -106 69 125 71 122 35 -48 116 -7 -22 -48 -92 105 38 -34 16 -82 -107 -115 53 51 34 80 -101 -90 -90 -115 -86 0 80 -48 -35 67 -113 39 23 