-122 86 31 -84 40 103 -52 -38 19 79 55 -2 74 67 61 100 83 49 -38 66 10 -96 114 -126 5 74 -19 51 -126 106 -97 -50 -78 -112 103 0 -87 -92 11 -88 -120 105 46 71 80 -48 127 -127 66 85 109 -99 -10 70 -127 -83 -47 -90 56 81 -84 114 111 67 -120 -104 -108 -58 -92 -21 -28 56 60 -120 -38 -47 39 -94 -32 51 114 -75 -41 3 -116 97 127 -94 91 39 -63 -107 -103 -64 67 28 -125 43 -113 -16 35 -34 93 -127 -14 -79 -25 37 23 4 82 74 33 -93 -10 26 -25 -37 -18 -119 56 -118 -69 -43 -22 -88 6 -118 74 45 99 -103 -65 -41 -51 37 -53 27 -4 -21 68 -102 32 -109 102 105 88 85 -34 -16 -57 8 9 91 82 89 -36 -59 -18 42 -7 -60 45 -98 -46 114 114 81 -2 53 45 -49 -48 29 115 34 75 -52 -119 -125 -50 -6 -12 84 -27 -59 29 -93 -57 13 -115 -20 43 -85 -44 14 -62 50 -18 95 28 -88 -90 82 112 -37 41 -91 -122 21 80 24 12 -32 -92 29 85 29 -99 -22 98 -62 6 46 -108 -19 116 -10 17 -76 90 -48 -8 -100 -59 -32 -41 62 123 -101 44 -4 73 52 11 -10 78 42 -111 24 62 -114 -75 51 -24 86 109 -12 -25 -90 21 -65 10 85 -122 56 59 -104 64 117 122 -23 -118 61 17 -73 126 65 39 122 44 115 56 -41 14 83 18 -109 -64 98 108 94 61 41 -80 -4 -94 -95 49 50 -10 -65 66 39 18 -34 -81 48 80 84 -95 27 36 -69 -87 -5 31 83 86 32 -71 42 57 -25 -120 -72 94 -122 -38 99 22 30 -58 -89 -77 -118 20 -61 -70 32 11 7 100 47 -55 80 -17 -78 -17 -30 0 9 87 51 124 43 78 61 -77 125 61 27 -120 -104 -32 -43 -45 -31 50 -66 7 -90 -10 -36 -100 101 87 -115 -30 7 58 -115 -5 23 88 58 85 127 -63 95 106 -11 -80 115 113 25 59 11 34 -25 41 -18 90 -64 94 22 -100 -23 -88 28 -112 11 -98 104 68 64 -35 97 -59 -6 43 9 -14 -104 -10 18 53 -11 99 22 -18 -111 7 38 25 -101 -109 52 110 40 65 43 -106 -101 39 -92 51 125 -66 79 -37 -90 53 -39 45 106 -94 81 14 -52 76 90 -104 11 19 14 17 -28 8 -124 -32 -33 36 -102 52 8 -43 69 103 75 61 -41 12 -123 83 -65 23 20 67 -4 106 -90 -100 -118 -92 -21 -121 105 74 89 93 -79 83 103 78 99 -71 103 52 41 97 -13 -91 -25 126 67 -58 -19 56 4 82 76 19 -42 -110 -57 -65 -17 116 -63 -53 -72 -57 -56 -39 84 59 28 119 9 -85 -114 75 -50 82 -42 35 70 -99 -78 61 45 13 17 70 -1 78 -83 95 -55 -93 83 -77 3 -37 78 -111 -67 -105 59 56 52 26 -56 -89 104 75 -22 -90 84 -16 -98 114 66 -85 -110 -55 119 -3 88 -68 3 47 102 -48 49 -110 -8 110 33 77 -107 -53 121 -113 -98 61 -90 112 -2 1 127 23 91 -122 -34 33 98 -99 79 65 -70 100 126 -51 113 -22 -96 -42 -90 -116 1 -8 -69 126 -84 -42 -56 29 116 6 64 -59 -125 2 101 -93 -100 -104 75 90 -6 -75 -83 69 43 -114 86 77 117 -116 -99 24 11 69 -117 -59 -29 6 96 -45 -28 -2 121 -3 66 104 -14 -122 -46 62 -30 43 -125 -115 66 34 -116 -108 123 23 94 16 -86 -30 -127 -89 26 25 -2 127 41 6 -81 -93 54 113 -96 -82 -15 -44 124 -74 -70 -101 -10 -2 14 60 8 4 -25 8 48 126 -28 116 -56 103 -54 -56 -92 -38 13 103 26 3 12 -84 -86 -20 -38 -68 46 -80 32 -77 46 -25 -40 -95 90 -68 -105 93 -101 1 -81 -49 78 -2 52 -123 -66 -53 -52 -14 64 -12 -107 -14 79 -71 59 -14 -88 -24 62 -5 -89 125 -63 -81 -101 88 -123 55 75 -80 122 109 77 -4 97 -95 -82 75 -25 88 -31 -83 89 -105 -10 -75 2 99 -79 74 -62 -95 41 -32 -98 -25 -39 -110 -112 -9 90 -21 -3 -118 83 -19 34 -114 -10 107 -3 -43 100 52 17 74 -43 2 -97 2 48 36 13 27 -63 -45 -30 127 4 -92 118 114 73 18 114 101 -61 -86 47 53 -105 81 -20 115 120 -5 73 -72 117 -22 -95 -120 106 75 -71 66 -32 -127 78 80 -51 103 98 -40 -92 65 -127 13 60 51 -64 -11 87 -65 17 -58 -98 -58 121 -125 55 87 -91 103 112 57 -99 -125 40 -95 -106 109 102 -41 69 -25 61 -36 -35 -53 43 114 104 -41 117 -34 18 -121 -91 7 -61 -68 33 45 124 45 -40 0 71 39 94 39 -100 3 45 24 -56 -54 -75 60 67 -50 33 55 -39 105 -64 -84 122 -88 44 45 -122 77 82 -74 -49 13 27 88 54 -113 118 56 65 44 11 13 73 111 -40 -26 -42 56 44 -93 -71 -93 106 113 -72 -39 54 -58 -121 -30 13 88 -82 -40 45 79 -91 -80 -61 50 87 -45 83 47 -42 54 104 -110 99 -8 -19 118 32 -99 68 79 -31 -51 89 -71 95 -111 -54 -67 -94 118 71 125 118 -109 95 67 32 -30 60 -95 -27 105 115 76 -123 -46 -79 113 -98 -78 58 86 93 -48 123 100 -41 11 33 -14 -67 -91 -115 -1 -115 -74 117 -31 -92 -126 3 -16 115 -121 -47 -11 65 72 31 4 97 -113 17 -36 123 -72 -73 -57 117 44 23 -85 42 -7 -17 0 -89 -122 25 95 -95 -40 -104 -99 -86 10 -84 -98 21 -127 37 29 84 -54 -42 -105 -56 5 105 5 -92 -60 -127 83 92 52 -86 109 52 -62 58 -109 -9 87 1 -1 108 -24 -70 21 -68 -91 107 102 -10 -46 -87 113 -88 54 -96 -98 -38 24 -103 119 -125 62 -36 26 -124 19 115 116 -81 -70 31 4 78 -31 -19 -88 9 -82 51 -85 122 -85 15 -75 -43 -14 -104 85 -96 -68 110 37 70 -91 -86 -100 -14 -110 83 121 -71 22 74 -44 43 -59 106 2 -81 51 -98 92 21 124 -124 104 -20 35 70 -24 51 -95 -74 -96 -5 -73 -71 61 101 44 -100 111 -117 73 34 -64 77 126 105 12 -96 12 78 -11 -77 -9 75 -57 -114 -29 -47 -52 -120 24 26 120 -101 4 48 92 91 110 -34 48 126 -102 121 56 -127 19 -10 89 54 -33 119 -55 10 79 96 -25 60 18 -65 -113 15 -117 11 -16 -74 -105 -27 8 75 57 36 114 67 65 79 116 -102 -12 -33 87 32 77 -104 118 118 31 113 -125 -38 -112 -98 11 -17 -20 -107 73 46 -17 32 65 -79 -92 3 -118 -112 51 56 10 106 4 -25 37 27 47 -102 -1 12 49 -47 -4 70 92 74 -120 -62 44 -89 76 -93 -87 42 -2 -16 -75 -53 112 -74 -118 43 -4 -66 36 -3 74 -2 -96 127 -14 82 18 -73 9 22 -99 86 -103 -22 -110 -68 78 -2 19 -35 -28 -62 110 -93 -104 -23 79 -12 82 -70 -123 -73 60 118 -46 34 -38 124 -77 -47 -6 26 31 73 -55 -81 43 117 47 22 33 -123 81 11 109 11 -26 -46 39 -40 -32 120 -118 1 81 -119 84 -40 -73 66 52 -8 -30 119 -76 -39 -37 -46 37 -83 -45 -26 -29 -25 -102 46 75 52 -79 86 107 23 -123 -28 7 50 -54 -39 33 81 96 -90 114 -13 89 -112 12 -27 -60 -55 48 86 -73 53 34 -44 75 58 -106 22 19 -35 -97 5 -74 44 101 -118 -80 107 -58 118 -36 -116 127 28 6 -15 25 -61 110 4 -114 3 -53 -25 -123 -75 81 32 87 -45 -113 -19 -46 -24 -87 -126 -39 23 -35 -55 17 -23 38 45 55 66 73 -80 18 -69 -21 45 -68 -66 -60 77 45 -50 -21 65 -76 -20 120 -33 -21 46 -89 -98 -79 119 -92 -96 46 91 -109 -45 -42 -49 32 -113 91 11 -12 -8 119 14 110 17 30 -93 -100 119 69 16 15 95 5 -100 114 -60 125 11 -88 -35 8 -22 -24 73 80 -55 -42 -122 -8 93 -42 8 25 -118 109 26 -56 87 -94 -93 72 -81 -21 16 -44 -42 -30 -23 12 -19 48 -16 -62 106 17 8 -90 126 -81 -13 -91 75 69 -124 31 -10 -25 122 106 5 -25 87 -89 64 77 -68 50 102 -97 81 -104 50 -59 -25 109 51 -97 60 -63 -61 44 69 126 31 -120 -3 -14 -22 -6 88 99 0 33 -74 -16 113 -50 71 -69 -57 -116 1 -88 120 3 -5 -2 -112 -73 -11 -66 -12 -114 -99 75 95 -1 93 126 -59 -67 -20 89 82 -12 -89 -76 7 80 36 -5 27 116 93 -105 -24 70 12 24 48 -22 47 102 -1 -22 94 68 -119 107 51 77 -23 62 -51 23 -32 -72 97 -54 -80 103 11 49 -94 -63 39 -4 34 91 -105 -92 4 91 -72 -78 -9 0 -96 -58 0 3 -43 -71 11 75 -35 115 9 -117 -118 -77 -19 99 48 -51 28 51 116 -90 69 31 -102 -40 -73 89 110 75 -61 -1 89 0 -113 -37 -25 18 71 89 -76 -125 17 64 5 16 -48 -15 30 68 -110 1 74 103 -44 -75 -52 61 -109 65 -94 30 -104 24 61 45 10 -83 59 107 122 121 22 -61 -87 -103 32 -82 -106 -40 -88 121 -58 41 -112 -73 -3 120 111 66 -91 12 -74 123 -103 -60 74 -50 99 -75 97 -27 27 12 94 101 90 -81 102 91 57 98 -81 -14 -111 -45 -110 -72 -86 97 15 73 74 48 -66 56 -32 -8 -35 -91 78 95 2 -35 -96 -79 -119 -33 -39 -107 -1 24 -86 -51 51 52 -60 61 -104 -16 -127 8 59 -15 -107 -83 50 -74 -92 -40 -33 -82 -9 83 56 27 10 84 32 -18 66 64 -51 -65 -17 116 -102 -124 -99 21 -17 79 -57 60 98 17 -81 -11 -24 97 -108 38 127 1 70 -33 2 38 30 -39 17 55 -69 34 99 -78 -61 54 85 -81 -70 100 36 50 71 -114 -21 46 84 53 11 15 4 -27 58 56 107 48 73 25 -29 14 85 65 -17 0 70 69 124 -85 -36 -68 102 36 -117 72 -32 -89 -37 -92 -63 -3 97 -44 78 33 -119 69 106 -12 53 27 123 -59 81 51 -34 -90 14 -43 67 123 77 83 -97 -112 52 -113 99 81 38 32 82 83 -41 16 -57 12 -127 -73 72 -105 -58 123 75 -112 91 76 -88 -17 -39 11 -11 -10 92 104 71 70 -67 -105 -87 98 -78 -43 -8 -53 78 -103 -120 56 -101 -120 35 -64 -21 -110 -57 13 52 52 69 13 14 59 -87 -54 54 -22 84 22 -119 115 -30 50 -40 61 -33 5 97 5 77 13 -94 -74 107 -112 80 -7 -28 3 -86 -8 75 76 -69 -104 34 -41 -24 -40 127 94 -89 11 120 -30 63 113 -56 126 -72 -11 0 56 64 -94 92 -84 89 -34 -26 55 -100 -109 -108 20 -26 84 50 9 -38 7 94 -93 -27 -81 -96 102 107 -28 23 23 -54 68 84 67 -25 115 10 -94 67 21 -56 -49 79 -93 -123 -20 -59 71 46 103 -122 -10 -93 68 -110 31 115 90 4 56 106 -81 25 -1 -91 84 21 -24 -82 -122 4 -97 -74 -29 -47 -95 -122 75 -92 36 4 110 13 57 81 51 78 111 95 34 -45 -47 58 -47 -88 84 1 45 -3 66 -125 -68 -59 -75 27 -103 -29 -3 -8 -26 86 -76 -100 -44 22 -86 86 -21 74 1 -14 76 40 -37 -46 -23 107 22 59 -38 -25 83 -107 2 -25 115 -99 36 110 -108 110 -78 5 -77 -29 80 54 84 40 61 57 55 78 -109 23 -77 7 -78 -115 118 88 -42 121 31 121 -78 -125 -90 -73 59 -51 -60 -94 107 115 -55 -51 -59 -78 -57 -11 83 -82 34 85 -124 55 117 49 65 -122 -70 -124 -95 -125 93 93 -63 19 -99 113 -45 95 -101 96 -1 6 -81 -49 -30 -85 -11 81 -41 -47 -37 -113 9 -3 59 -51 67 56 126 124 15 59 72 -19 -52 -65 -58 -2 -2 -77 -111 24 -40 102 51 -72 -68 108 -11 -99 -121 38 -64 -40 73 16 -10 5 63 22 47 25 -37 -15 -124 98 -113 122 53 3 82 -50 -104 -104 116 89 124 -45 -29 98 -2 87 -45 -118 -122 58 13 96 88 -41 53 88 -43 -66 15 -87 26 -43 -45 -81 -95 99 -51 31 -34 -110 2 30 -21 -11 104 -67 2 122 55 117 -54 -83 55 82 -73 4 108 113 0 113 -11 -50 -48 91 -19 37 102 103 -25 125 -58 -39 59 -117 -109 -73 -26 90 26 -81 -123 41 36 47 -121 22 45 50 96 35 43 116 -18 -110 -39 1 85 -20 75 83 102 28 67 -5 -76 -23 107 58 45 43 -70 -26 -18 103 -87 -39 -97 -85 55 -71 67 108 106 64 -7 -82 -87 -37 123 -42 42 63 -56 9 -74 -97 -4 -40 123 5 97 64 64 -50 20 35 17 -121 14 -41 -44 -112 104 -15 81 125 105 -78 58 -85 69 60 84 109 35 -40 -55 -116 4 63 54 43 -117 76 86 -82 91 -125 68 109 121 18 35 -20 39 87 121 66 -60 -22 8 -23 12 14 -114 28 39 -66 -64 115 -62 125 125 47 108 -124 -19 -99 -20 -94 -18 -26 33 35 25 101 121 -78 75 15 105 -47 61 41 25 20 -21 -89 -6 -56 63 102 121 50 49 123 -87 -91 123 32 -87 -11 -94 -38 18 -4 7 42 -97 -98 92 61 -50 89 -111 -100 74 73 67 -32 58 16 -32 -116 -67 70 73 -83 -79 -105 74 -81 116 -98 -5 95 -3 -91 120 -51 -38 98 -15 127 -6 43 -118 -84 -24 10 8 -33 -107 -48 -63 -126 98 39 81 16 -48 -88 -4 112 1 87 -101 -22 -113 85 -114 -80 111 -81 -111 -59 76 -51 -7 85 -101 92 24 9 51 -116 39 -25 -32 43 -8 -46 -109 75 -21 77 41 13 -92 -82 25 59 -57 70 121 -21 9 -117 66 101 28 -34 73 -96 79 70 -100 -20 -43 -96 -104 22 126 79 103 37 -80 110 -122 21 79 107 22 22 46 -88 12 -21 64 -93 58 -117 88 32 -104 113 -116 13 -29 -35 117 -17 67 -72 109 73 -74 80 -2 -70 92 30 -25 -14 -84 100 -80 53 110 17 63 -1 -73 85 -86 -79 -60 -81 -95 78 -119 -124 -34 106 -85 -57 -6 -36 116 -93 57 112 -42 21 -69 -121 5 119 -23 -67 92 122 -21 -75 -15 -74 -100 -110 -22 2 -51 111 -56 99 -59 -62 -6 18 -91 -119 -6 60 5 65 -108 83 86 93 -33 -59 125 -48 -112 -104 40 -106 38 -102 -69 -36 -30 -49 103 61 8 29 55 82 -113 -24 -124 -80 -15 -53 70 89 14 19 -54 75 -33 80 -122 -15 -65 71 96 105 63 -112 89 -13 -105 109 -41 -97 109 86 92 109 18 33 -29 -77 6 107 43 -70 122 0 2 121 -34 -50 -109 -79 80 121 29 -20 -3 69 8 -106 56 -109 92 -39 -70 118 2 46 -6 21 -102 68 32 113 -110 82 43 -88 31 31 96 85 19 -35 -34 115 67 101 -61 -57 57 58 78 18 -114 -26 -114 -64 -127 124 -106 -10 81 37 114 -41 -114 -8 75 -124 -75 -120 -64 -123 -98 -103 -96 -103 36 -58 -88 124 91 112 101 37 51 -27 -33 -75 -31 -59 -125 -115 -60 32 107 88 -8 104 -32 78 30 94 81 89 -2 55 -14 4 52 126 -56 61 52 35 -3 34 20 -60 -115 -80 6 -89 119 65 -37 55 -20 121 -3 50 -78 -11 114 37 62 -21 -4 -62 -99 117 99 -114 -28 -9 -75 71 -124 107 -47 -42 12 99 50 -19 65 121 93 -81 -57 -86 -59 111 108 96 70 91 -122 21 -32 -46 -62 -19 -87 -37 -107 -67 36 6 46 -1 60 -10 76 -29 38 78 -112 -102 -45 89 36 96 115 -53 85 33 -34 77 59 47 -63 40 -66 39 -10 35 95 -108 -40 45 -41 -15 126 -41 -50 -103 -23 59 42 -116 72 -5 -88 -61 104 87 -48 33 -36 118 12 79 56 -85 47 97 -74 47 30 -25 32 -54 115 87 9 -51 80 48 104 107 -46 71 81 57 51 -116 87 -52 127 104 83 -51 8 6 15 -93 18 11 -64 -72 89 -96 -96 68 -22 33 10 -73 78 107 -66 120 112 -106 -77 -101 38 87 -51 24 -23 -54 -7 -44 46 -9 87 -12 -31 -82 116 -58 -70 -109 87 -95 14 100 82 -13 62 7 39 44 -116 122 106 65 100 65 -63 107 -75 -12 34 80 -37 54 125 -31 -59 -14 -42 -114 123 -92 33 61 -106 125 -29 50 79 47 114 -62 -101 -2 -52 109 -75 115 73 96 4 16 -38 37 -27 6 32 -121 17 -8 -85 -69 -21 -119 -34 40 22 -93 -53 3 -43 71 44 -103 39 -65 80 30 -22 7 99 -64 -96 64 43 2 13 59 -70 -49 6 -95 -35 73 72 92 -63 4 -112 122 69 88 112 53 -29 35 102 -31 -28 86 -112 57 -27 44 -58 110 53 95 68 -127 -100 79 104 -14 10 -54 57 -84 105 -115 106 35 126 -18 -33 -19 -84 -20 18 -53 110 -103 -12 -87 101 68 -28 77 -39 70 -87 -24 -41 101 68 13 -40 -83 57 126 -44 31 -24 -104 -55 -51 48 118 82 -103 -25 -33 93 113 -55 -87 100 -94 73 50 -93 -63 1 55 -120 84 11 -36 109 98 1 -60 81 -84 9 95 50 115 93 -25 79 -19 91 106 -104 -14 104 -27 10 -102 -100 -39 -127 -102 -96 31 -21 -16 -83 -56 94 -101 46 105 -106 -38 96 30 17 -103 -116 -126 25 -45 -38 -91 106 -40 44 18 -5 118 -61 -95 11 46 -19 123 47 120 61 48 105 -77 -88 99 10 59 91 81 -55 -4 -79 51 66 -80 -77 -117 -34 107 -49 -95 53 -21 115 -38 -115 121 -96 -25 127 59 125 -63 104 -15 122 -36 74 91 116 100 14 -127 50 -101 116 20 -125 97 86 21 29 -126 78 20 -71 -16 -79 -6 48 -124 -59 8 -80 99 -70 37 118 -90 61 36 -25 -101 -50 35 -83 31 121 127 13 -22 -77 36 -119 87 114 -29 -42 -9 -112 -114 75 -87 -108 61 -107 26 -71 -76 69 91 -70 -123 40 -76 -59 -61 -37 -10 -79 0 -5 -60 -27 92 -28 65 -42 122 46 -66 -101 -68 -76 -74 35 -73 -62 -59 -71 82 -44 33 25 71 -123 -86 95 4 -79 -32 82 -113 -113 118 0 95 19 -87 -58 -10 -50 -36 39 -84 -117 71 -97 76 -107 6 96 -36 116 -123 -109 5 -26 -66 109 119 39 121 -41 80 98 19 -24 -124 -13 9 92 -42 -18 -115 95 107 -26 -59 -93 18 63 -30 -111 -102 115 -36 -100 80 109 107 -65 26 52 -53 -108 -55 22 -66 71 -126 -125 -3 -76 -10 51 61 19 100 -117 -92 102 -26 32 -77 -91 51 106 74 -126 -114 -47 -7 -8 -90 109 -76 -122 47 -118 -91 66 7 -21 -66 121 -94 123 -62 118 61 -34 -81 33 13 39 -23 -101 -52 90 48 -1 -124 51 68 35 21 -13 -10 29 -78 120 68 -37 -85 12 109 -117 43 56 118 29 -22 -36 -27 100 -19 -53 -82 -85 -7 -118 -51 0 20 -30 18 90 -63 93 -15 -74 -86 -75 126 47 -25 34 -88 68 -76 -10 121 -72 117 -72 34 44 -65 -49 55 -69 3 -86 63 -26 -117 -100 127 -28 118 -99 101 12 67 -79 36 72 -107 -13 120 40 -6 50 24 111 31 110 -97 117 -7 -52 16 40 -70 89 -56 -52 35 -63 126 2 116 -48 108 -117 45 19 52 -84 7 5 92 24 109 -43 -71 120 41 -55 94 104 -95 22 14 76 -41 68 78 102 38 1 -49 101 59 -124 41 25 106 -11 127 -99 -124 114 6 59 58 4 -38 -20 -98 -41 96 -47 90 26 -59 122 2 -81 48 87 98 -123 -1 78 79 73 10 -64 33 86 -107 -7 108 -31 -36 -88 28 -62 3 -34 -64 104 109 25 -52 -17 -101 86 -75 -126 -10 -37 -98 33 -40 -25 -87 76 -76 -5 79 -103 -109 61 43 108 -64 124 -107 -14 28 83 -3 -44 -95 73 104 -66 -116 8 20 -60 -82 -1 50 65 -101 78 -14 -6 116 -124 100 -83 47 -48 -45 55 -32 -47 25 -38 69 -27 -50 -85 -127 -48 124 26 -10 -15 -71 45 -122 -13 -88 75 -24 40 -46 -82 106 66 -64 107 18 120 73 25 -122 100 11 38 -101 -105 -102 0 28 -54 -7 -87 47 -25 15 -63 25 -56 -73 120 -79 69 -80 -91 86 -1 -3 51 -107 59 74 -66 113 -33 64 84 67 -12 93 -114 -63 121 -110 8 88 79 3 90 -88 35 92 -101 52 8 38 -20 -70 26 103 -90 64 71 109 30 -45 79 -5 -93 -50 52 18 46 -126 -112 107 -28 -20 46 -69 -86 -64 -107 65 