33 16 -79 64 -60 27 -114 -98 32 117 -2 86 -23 -55 -74 -123 66 -63 57 72 -53 -75 91 50 11 -36 -2 79 -88 111 54 -49 25 -126 -110 51 -17 28 -60 80 90 -60 -29 -115 -105 -4 27 103 -16 -89 32 108 6 20 -77 -126 -82 62 62 -80 -116 -109 125 -30 69 -67 -25 -71 81 -21 -78 60 -63 92 43 -117 66 -7 -67 54 -122 -111 73 48 -6 -104 32 86 127 9 -61 87 93 -43 22 50 -101 -100 -35 -39 -79 83 43 57 -56 -111 57 66 -27 102 106 8 -99 -45 3 -106 -43 -101 14 -105 -90 122 -83 52 -81 26 24 115 -96 56 -6 -119 -41 -53 18 38 108 114 70 -58 -70 43 64 96 -36 -55 18 -60 43 87 88 -15 -95 -53 123 -121 -81 98 93 -92 108 -14 -115 -13 -38 -14 113 -80 -103 -86 97 -49 -75 112 93 46 92 108 38 50 -74 -65 -37 -4 -86 -42 98 -10 -44 -87 15 -124 110 45 6 119 -51 -38 54 -61 -122 -41 22 -75 -78 35 69 -124 98 110 96 96 25 77 78 59 -53 83 -31 106 -102 81 -14 -91 107 69 57 -77 -37 -6 -111 1 -31 -107 -14 -93 -21 -106 -68 32 66 79 42 60 -37 -10 -3 -52 25 -13 -69 -3 48 -17 13 -70 45 5 32 -122 -14 -82 85 67 24 121 76 -46 -56 -116 62 -114 2 -48 60 100 95 -102 -3 26 -108 -10 18 -86 79 13 -24 38 -78 21 -127 106 118 -55 89 -28 123 26 -96 82 -5 -112 -90 5 -54 -125 44 113 -28 -15 -90 -123 81 -68 59 -8 91 -22 -20 49 -11 -51 68 23 105 92 90 70 -43 -81 -28 27 -56 31 67 5 13 88 -51 108 59 117 -53 -55 30 88 -116 -127 -79 8 -10 23 -57 -52 -13 10 -50 85 -65 53 11 -8 74 62 -95 -122 -20 37 94 -102 -51 -31 -13 117 -66 -56 82 70 -37 97 -106 81 14 10 -81 -21 -4 26 46 100 -50 67 -52 61 -113 -40 -14 32 -20 19 82 8 -60 -42 -125 22 -30 -94 -53 -68 102 -53 -61 38 -70 -4 39 -44 108 109 -14 -74 -27 66 27 -68 78 37 93 -53 -49 -5 127 -9 40 -107 -113 -57 -20 123 10 -2 -122 -119 -53 47 -74 -88 28 -9 -88 -78 -47 14 -99 4 4 -51 80 -88 24 -47 16 -62 -123 51 33 26 -91 98 50 -1 89 -91 97 64 69 -110 -113 127 -10 -86 98 -14 -47 41 87 -50 -45 -124 30 101 -95 -49 -32 116 98 -6 35 84 0 94 35 44 -94 55 50 -96 -55 -83 -76 40 