29 -78 -117 61 -57 -73 -89 -3 -35 -56 -42 -24 88 0 -25 57 -93 95 41 42 -16 4 30 79 21 22 -45 58 60 -94 -120 -86 -86 60 -6 22 124 116 -14 123 -52 -97 -40 -66 32 -34 -101 52 -33 -54 50 35 -2 -80 -25 -97 -95 83 107 117 43 -96 -70 77 -82 -82 -24 119 -48 57 121 -107 -6 -68 73 -18 71 47 8 -117 124 66 -39 25 -42 21 -10 -76 -6 82 -105 10 33 2 105 -57 -89 100 -34 -35 70 -50 10 74 -99 -80 106 -65 -44 -101 -113 48 -49 -5 -38 -113 -69 -26 48 7 75 124 -34 -120 18 120 -61 6 -7 -104 69 60 25 88 103 99 96 -12 75 -10 114 -40 -96 -7 -78 126 -10 -67 82 -38 -34 17 -6 -24 -125 69 -42 76 30 36 95 9 -100 -81 90 -17 92 -99 53 57 106 39 79 85 70 125 -61 -88 84 -50 -91 -54 -2 -78 -110 -76 -22 82 30 -79 62 -83 62 -46 -112 -60 85 -59 80 -93 21 -37 60 36 -72 -26 -93 -41 -109 -26 -79 -98 38 77 34 -2 -113 106 -93 -107 54 24 -39 86 7 101 84 -1 -99 -109 1 -9 -20 -23 -94 -11 -111 -34 97 66 90 -20 34 2 56 79 83 78 -48 -114 42 -7 -117 -65 125 -37 108 97 53 35 63 -81 -78 27 48 -46 -21 83 107 -61 -107 121 -58 -99 -34 121 54 92 31 -53 64 119 21 -35 -96 111 0 -36 -88 91 66 76 13 -92 -10 95 46 -70 83 0 63 -72 49 -51 29 -64 -69 118 70 63 73 -95 37 19 -101 -76 113 29 -39 119 11 -36 62 -40 108 49 -14 -22 -4 -77 -70 62 -83 79 -92 -110 0 86 34 84 106 -113 -33 38 114 120 111 23 -52 -61 -50 126 78 -105 26 40 57 -46 -44 -46 -81 -27 -116 21 -74 39 -127 86 0 54 -12 66 -17 51 101 -65 -47 -119 66 -127 90 118 -50 70 60 77 -26 90 98 127 -119 -112 31 55 -21 -85 29 21 -103 -102 -85 -105 74 58 -124 123 35 -85 -17 92 37 -89 -15 -2 8 26 7 -107 -18 99 120 19 -71 105 -67 -127 83 -76 -11 26 -43 -20 84 17 71 -47 10 122 -40 -6 -28 46 43 -100 -81 25 7 -11 -16 -98 71 -49 -22 -24 102 -13 -114 -37 -26 -74 -55 50 20 127 74 30 3 87 -40 -82 -98 -57 -125 -5 -35 -116 -35 -68 100 -91 -45 -94 30 -15 -8 53 -36 -24 -100 -50 -88 -71 -65 86 41 115 72 -20 -122 -29 55 35 126 -92 -87 95 102 78 -68 101 96 -28 -127 31 12 125 121 17 -125 104 105 -56 36 55 19 12 23 -39 -116 66 -28 -89 6 -38 -112 -119 -10 -111 75 -123 113 -87 -89 96 7 -50 30 9 -34 -85 39 15 29 -100 -5 63 -84 16 13 -76 -52 2 -33 -56 32 78 9 -86 42 -51 -126 59 94 19 90 62 -54 -47 -74 8 45 84 -75 20 85 -62 23 -17 120 125 -32 -78 80 11 -124 115 -93 -116 -102 80 -57 40 -75 -79 99 -80 111 56 46 122 -3 53 -15 70 -98 85 -105 -17 115 7 107 -90 -70 26 10 47 110 84 79 -102 -20 110 18 99 -71 37 12 78 24 124 -20 -54 46 -80 -25 71 71 -29 91 36 61 -73 -3 -33 59 -33 12 -8 -57 0 118 38 97 116 -26 -28 -113 35 95 127 -112 91 -40 114 20 -66 56 44 -22 88 -40 7 -72 -46 -108 77 47 -10 -36 -2 -88 3 127 20 71 80 122 -119 -89 59 -91 -60 -72 78 -93 -34 -63 -37 -51 -91 -77 10 10 -102 38 96 -46 -116 -124 -20 51 115 20 121 114 -49 13 127 -81 15 77 95 -24 -24 -33 -68 -74 -3 59 -111 119 85 -76 -26 -27 6 -72 -16 -95 -24 67 114 113 -101 -36 44 94 18 -31 -11 -106 -44 -85 127 -85 123 -90 -29 111 -63 -86 -124 99 -81 120 -5 -75 115 63 115 -39 -82 76 121 -15 -32 88 -76 -91 -96 -103 95 -120 -96 -7 122 -86 65 -82 1 -52 70 -73 85 -87 36 -65 36 -58 118 69 -65 -89 -98 106 -70 74 50 -3 -30 11 107 -119 -18 -106 -55 -120 68 61 -121 -75 115 -39 -21 90 23 37 -70 -51 -51 81 23 22 -63 -107 -20 15 59 79 7 37 -10 -111 -112 74 -44 104 -4 126 -123 104 83 82 51 102 21 -59 -11 -62 -46 35 -2 -6 66 -118 110 -83 32 -52 -70 81 -120 -70 -67 -47 -72 -88 -35 85 71 108 -88 97 -39 85 31 -31 -4 -13 -8 -108 -29 -1 125 59 97 -53 -104 51 -83 -6 -18 -89 -19 -86 -16 -98 -77 74 -66 -73 44 -20 70 -126 -126 -30 -24 19 -76 -79 19 104 -33 -76 -64 96 119 -107 7 55 59 110 25 1 93 0 86 29 57 -34 100 -111 -68 79 52 42 -125 -114 82 74 -99 34 93 43 73 96 -57 -42 79 -70 -41 13 -58 11 -78 -98 -27 51 22 -120 19 98 124 113 -14 64 -32 54 83 -87 -43 116 53 98 -118 58 41 -12 127 -99 -24 42 99 -63 -113 -111 10 -21 45 -115 -125 -81 61 13 10 -109 -15 -82 100 -116 -78 21 98 43 61 -47 -58 -24 -83 -68 29 -95 -94 -78 37 -93 54 -66 -38 -98 41 105 72 -32 116 -90 -66 75 88 -45 -21 -64 -10 26 -70 -20 -94 -81 116 72 -39 91 -99 56 11 79 97 30 -111 -69 -52 -95 46 -101 -118 47 12 -79 109 -114 13 -117 87 116 -32 49 -85 14 62 -45 -97 105 75 21 4 53 66 -2 52 -82 -103 92 16 96 62 -73 -90 78 -89 57 -34 45 -41 -30 -26 -24 71 -29 25 -10 65 23 109 97 -103 106 118 -65 -31 100 14 52 -36 98 -63 87 -48 1 12 52 98 -48 121 -115 115 -24 110 75 -48 66 35 87 -114 48 -84 52 116 6 -24 -110 120 8 115 21 2 93 79 -21 54 52 94 99 46 -6 -61 83 4 -24 -20 -21 126 30 -124 -106 -84 -35 10 61 55 69 40 -113 125 -81 -10 -39 74 126 -90 8 94 -61 -78 101 -17 64 43 -55 103 -58 -120 -81 -92 -2 -41 50 -56 -31 -102 44 30 105 31 -93 -18 -34 89 -114 5 -90 61 111 -3 -7 -8 -24 60 41 21 8 50 94 -106 -70 -96 84 -112 -38 100 -38 97 -70 95 81 -118 20 25 18 45 85 -11 -118 -30 73 37 97 25 -69 16 -112 120 -98 -124 -66 -42 -102 56 15 16 122 -34 -30 -64 42 90 -98 -98 54 -10 36 -65 15 -66 11 -86 -51 96 55 26 -100 27 -94 89 -51 106 1 77 -17 -53 -48 -106 67 73 21 -50 -99 15 126 21 46 91 -96 107 -56 108 -111 13 64 -91 -95 28 -113 112 31 36 21 -12 109 -111 -85 4 -83 69 -19 -110 34 51 110 -82 7 112 114 -11 118 85 126 21 -6 26 86 99 78 16 -15 -122 110 -25 -68 4 -125 -111 48 82 83 46 -80 -99 -104 96 -28 -22 -99 -104 -91 103 -66 -10 106 53 -41 -126 82 85 -111 -105 -71 70 -88 115 -82 117 13 1 -46 -85 22 -58 -96 16 -6 81 42 -22 31 11 48 -39 -17 2 36 113 -84 50 31 -51 48 112 -103 -35 120 67 65 91 14 79 48 -26 -28 64 -111 65 65 82 -118 -48 26 -83 -14 17 -5 -43 42 124 55 60 -83 101 -115 -127 77 103 -7 65 -85 -38 -109 -81 27 -85 -75 -39 98 -68 -26 -104 -119 0 -14 -93 -44 92 -82 98 42 90 22 66 -63 -96 -32 -117 -2 -90 41 -18 -77 59 -21 96 -79 -121 -22 -67 -7 12 70 -3 77 46 -22 -94 107 21 7 -55 79 109 -30 -92 -2 30 97 95 -73 83 -51 -30 -119 40 -66 -36 -115 57 0 -43 -107 62 126 -54 -104 -119 41 -29 73 -24 102 45 70 11 -8 -47 1 3 113 112 80 -71 22 -102 -119 -125 92 -36 12 -68 38 -30 -40 54 116 113 57 81 -38 -59 -4 -107 96 -44 -69 9 -38 -107 52 -38 100 115 -113 82 -47 -19 -15 -127 3 8 58 -15 78 5 -23 -41 42 22 70 -2 89 93 -4 65 14 -109 105 22 -56 59 79 21 7 27 -115 7 121 103 103 -7 -63 -97 106 -18 123 14 101 46 79 -100 71 54 -105 100 13 17 92 -1 -5 24 -62 -85 -23 42 71 -9 -7 2 -35 -8 -65 14 -110 -25 -52 -100 91 46 61 -13 105 -81 85 -117 22 -46 103 -107 42 -3 -37 58 6 -112 -42 115 35 19 53 68 113 57 -109 -79 110 1 -94 67 -16 10 36 -86 19 -92 92 112 41 61 -12 -5 -51 107 73 -22 -1 -81 -2 -52 10 45 89 113 -38 -92 -117 85 83 29 -112 -6 -55 -1 18 12 110 -26 -28 36 -23 -5 79 -40 -10 -109 -107 -55 11 -10 -25 -106 -72 86 23 99 12 55 96 -34 -103 113 30 -42 19 114 79 102 -23 49 14 9 -124 -69 16 96 -57 42 0 -18 115 -86 -108 99 -87 -94 23 2 110 -91 -31 -54 -104 36 -86 107 115 7 82 -60 97 24 -56 12 102 -120 46 120 98 71 -104 -85 -54 34 90 -93 -6 -50 -44 127 -112 -126 49 16 58 -62 73 26 -7 100 96 -67 125 52 -41 15 8 -54 86 91 -56 -12 -61 -95 -15 -11 -30 38 102 18 13 2 -117 -50 -78 -30 -18 7 -13 2 100 79 -48 101 73 -110 23 36 75 -108 63 -27 27 67 -87 34 -51 76 -94 -27 -4 44 -56 125 99 -107 -30 -19 111 43 -80 -90 123 -85 -4 -114 -64 -38 -61 80 -121 -47 93 76 68 -21 5 -19 -50 117 -111 67 98 -117 -35 50 114 56 89 55 -109 85 -127 100 -72 -19 -24 63 24 3 -84 66 -61 26 -63 55 -124 36 43 -77 13 -94 -105 116 -115 -102 -80 24 -80 -108 -32 -56 -123 -102 -58 -62 -49 5 -26 113 68 -34 -94 -58 -115 73 102 112 -9 77 57 -82 73 5 83 117 6 9 9 -85 25 119 -32 43 -24 -79 -21 44 83 76 -108 -29 -114 117 6 -48 -31 104 -22 45 119 7 -91 -121 -41 -7 -98 61 -105 -126 69 -111 1 -96 82 -45 -97 32 -53 49 -88 104 -125 -70 -20 -63 109 -17 -126 -117 -67 -63 64 -76 -96 23 108 16 15 93 119 -59 58 31 -87 -6 26 -32 21 68 -111 -111 -2 -57 105 80 -106 71 34 -10 -27 35 17 95 119 41 105 60 53 41 43 68 -103 -125 86 110 -44 -51 -101 -28 83 25 57 -113 31 95 -97 -50 101 78 -8 81 -115 92 -48 -37 104 -13 69 97 -93 -101 93 94 -3 1 -19 71 -9 -113 81 22 -108 68 126 4 -77 9 126 -97 -71 -108 -93 -62 -98 -109 -83 114 28 -126 10 -10 109 96 45 15 -7 -26 110 72 -69 11 -44 106 -32 -82 3 -121 125 77 -101 88 83 27 -82 71 -55 55 -66 105 109 -29 74 63 0 109 -98 58 21 -88 101 85 116 74 -71 -30 -31 37 127 102 94 79 -57 123 57 46 118 4 51 80 -125 92 -90 80 37 113 -50 -62 11 32 -117 -29 -127 -2 -88 -58 -1 124 -69 40 119 -117 92 -112 38 18 -30 87 53 109 -69 -61 77 -26 -98 -32 122 -10 29 -30 -25 74 -29 -90 -102 36 -67 93 -49 3 115 -59 41 -65 -27 -72 -77 112 94 -62 109 59 -1 -48 -84 -87 96 -85 1 -33 -83 17 -3 38 70 117 -71 31 87 -11 -100 100 94 -90 95 26 0 -113 -75 -126 -76 118 -7 76 110 67 2 113 -2 -113 112 63 0 23 100 10 -97 -103 59 -32 24 15 5 5 -7 -103 4 -117 -55 4 88 -6 -81 60 -13 66 -68 115 -100 61 -26 45 -100 60 31 -28 9 113 -75 -24 -50 91 116 125 -89 -73 22 106 99 -108 -96 -61 4 -113 -81 -115 0 67 -80 -72 21 59 0 103 115 -38 -100 3 114 -42 -19 -3 -125 -16 3 -115 -10 -27 22 91 -14 -89 109 16 39 -32 50 96 84 28 -40 -21 91 37 -22 101 -95 81 13 -105 -27 82 68 -82 5 -60 83 -95 -84 -13 26 112 19 47 47 -25 97 124 81 -16 -84 -51 -31 -24 23 50 -17 -58 120 -30 79 126 -33 57 -5 -55 -26 20 54 -12 -60 -7 -64 41 -126 -90 50 91 -105 -103 21 73 86 -83 -65 -71 -47 107 -109 -65 -16 -98 95 -32 -72 64 48 7 -86 92 -122 104 21 -89 21 -124 120 -39 -108 -3 -63 116 87 13 -116 83 -78 -57 14 -72 46 24 -13 -86 92 17 97 125 46 98 70 108 -32 115 -99 43 -56 103 17 -3 -36 -14 -55 -71 -55 1 71 -126 -23 42 36 -80 101 122 107 -46 101 -56 32 13 -121 -53 -106 -42 32 -97 -92 -63 -102 107 -118 52 -65 -87 100 48 -30 -20 50 119 69 17 -14 -89 106 18 36 -76 64 -84 7 -86 -38 -12 13 -34 -111 -115 -36 5 -3 -105 -36 121 24 31 -122 -16 -25 -24 -30 54 41 45 -22 52 47 30 118 -86 -22 81 106 19 -31 91 -124 105 110 26 -6 -6 30 -96 64 -80 -16 79 64 -20 -7 126 -39 -9 57 36 92 -16 116 0 -9 -126 60 21 57 53 -110 -56 43 2 31 31 7 -18 -54 75 54 93 56 31 -70 -1 48 14 108 124 70 88 -27 42 -73 81 -54 -125 -79 93 44 46 82 -100 68 103 -8 115 21 16 42 5 -83 18 -47 14 109 -8 78 -81 -120 70 -72 -122 -22 120 -33 71 -37 -69 49 35 -110 -95 -70 60 19 -39 126 -49 57 -11 -43 49 -105 -102 41 -105 37 117 57 47 35 118 -103 79 69 -48 -87 -61 88 71 56 -91 10 -47 71 -8 49 -18 -41 -49 -17 -19 41 125 -74 -15 20 82 16 122 -13 -123 -55 -115 50 96 78 8 87 104 -124 23 -46 49 -27 -1 -79 -64 67 0 -7 35 -40 97 -26 107 -13 -40 -40 37 -52 92 -30 20 79 34 -2 76 -118 -36 -79 118 -84 -71 41 -109 -83 -35 30 99 -23 45 23 44 3 83 15 -64 -55 -62 -124 115 -75 -17 -119 -49 124 -114 68 15 -24 105 77 9 -10 17 -19 113 -85 -32 16 93 67 -79 -24 -99 -1 33 -68 -124 -103 -66 125 -6 80 5 -32 105 47 54 -120 44 -113 -40 -123 96 -41 23 98 109 -39 36 -47 4 -51 28 -89 -98 75 -89 -68 -27 15 -121 -28 41 67 25 55 52 79 29 89 115 11 23 21 -125 76 61 -60 -117 -86 93 -120 117 -59 59 5 -72 -67 30 -103 89 93 -120 -19 111 7 -87 117 -95 -5 -49 36 -60 -74 23 2 -44 -27 31 -45 8 -52 113 116 34 -70 -70 -38 32 82 -46 50 -38 39 46 9 -62 -44 27 -11 120 120 -103 30 -8 -47 -43 -99 -84 72 -116 -9 8 -98 18 61 -21 6 -124 -32 29 80 -79 13 2 -111 -8 114 111 54 -11 42 -36 -17 -55 112 -120 -6 -102 54 30 -2 -39 -2 83 9 -59 44 -46 -51 -32 -102 -26 -73 -57 -117 82 75 -48 -112 -34 91 -124 -10 -18 -8 -79 -103 -120 27 85 100 93 -73 16 -61 -18 -31 -19 -120 14 -73 7 78 -58 89 -108 89 98 74 -6 82 -98 109 100 84 -15 22 -43 -31 122 -45 -21 3 -63 -65 43 36 93 -60 -6 32 -109 -10 18 116 -8 -127 -71 93 39 -115 25 13 92 -7 -41 -3 -110 -28 -58 55 84 80 -106 -127 -68 -9 17 -35 -97 77 -48 117 2 -57 -111 -117 -22 36 -79 73 -55 -124 -71 49 -56 105 69 -33 -14 -126 -115 -28 -37 -79 -41 -63 -90 -109 -108 45 -81 25 95 25 71 5 53 91 27 79 124 35 70 -70 -31 88 90 -73 56 23 102 43 -116 -122 -59 4 -11 -49 -66 -47 12 102 83 -101 -2 85 2 -54 -79 -24 -68 76 8 85 -28 -23 -88 -2 -91 64 123 80 -81 72 55 -40 -24 -11 55 -64 -79 -61 -11 -118 -90 -40 -57 84 62 27 -61 123 -20 23 -40 -106 -7 91 17 -30 -74 11 -74 -102 -113 125 56 -125 -75 -90 -110 7 -90 -58 84 -114 78 -111 -38 22 -11 122 -36 87 -63 119 -69 -97 -81 -85 -124 -98 -29 79 -99 -100 126 110 30 8 120 30 80 60 -18 -37 -76 21 -39 37 -54 -86 47 127 -113 41 0 -78 81 114 126 -85 108 -92 21 -91 -60 19 56 71 48 71 33 -95 76 -34 -15 2 127 45 -59 68 -2 118 -114 -123 10 -99 90 -48 -42 39 -127 51 -58 -41 4 38 72 -56 62 107 -62 62 -83 -12 99 96 -17 70 -3 16 -37 18 -102 -57 -5 53 -34 -37 -58 34 -99 6 -97 -66 8 64 66 -79 -86 -76 56 65 -78 88 52 -66 27 64 -77 -92 -101 -90 -32 -65 36 33 -56 23 108 95 -101 -96 68 58 73 -51 -1 97 -75 -98 -50 -72 -99 28 27 34 -36 -89 -43 -113 -41 -31 -119 95 110 102 50 1 5 -84 81 24 39 -35 -87 -59 36 -27 47 50 4 70 -18 112 24 -62 -59 117 -72 12 -8 -71 40 44 -105 17 58 -99 -34 -61 26 -25 86 105 -59 93 82 127 92 63 -66 64 67 -76 8 -29 27 91 -107 -53 -94 -16 -99 83 76 104 38 58 -93 -29 114 -122 57 -108 -86 -79 -74 46 46 37 57 72 38 -88 -37 -39 56 -47 51 103 -75 -119 -4 -89 -82 9 110 -82 124 -11 58 27 -78 -94 52 -123 -64 -87 -16 -121 94 30 77 56 -73 87 1 28 -19 74 59 51 32 121 69 -81 60 108 -79 106 -118 -126 53 29 12 5 22 88 -15 58 -3 80 -40 37 86 -97 -7 91 25 3 69 -107 -78 8 22 17 89 -82 105 -34 108 -9 25 0 12 90 -103 -76 -108 83 -31 -116 61 -115 93 -114 -37 85 -116 39 0 22 8 112 58 -30 -29 -122 112 111 48 115 -79 -89 84 -63 -40 94 -19 24 -98 114 -8 60 74 -22 3 45 -10 35 -75 47 -17 -101 64 83 72 -106 107 104 66 -127 101 -36 -42 -16 84 117 89 -95 41 15 49 81 -113 -75 -106 83 85 -78 121 48 -78 -33 45 67 111 28 72 -55 34 38 -127 -52 -12 8 112 52 123 106 126 -115 -52 -8 79 43 -122 27 -17 82 -23 -15 -122 -36 -82 103 -70 -22 0 61 -3 61 83 -3 3 5 -58 86 38 102 1 -78 90 -98 -52 96 76 111 -7 -34 -79 52 68 55 -53 91 -104 34 21 115 -33 -25 78 -81 56 113 57 4 -26 86 57 31 -61 46 -96 117 -100 76 -75 62 -70 88 71 10 127 -15 114 54 64 30 -107 -96 -21 -46 43 -57 105 -38 43 -24 20 -14 111 94 93 -13 -3 -43 86 79 -24 52 115 -105 -89 -1 -28 -26 -101 -37 19 -118 -10 21 -52 -68 -7 -120 33 26 -109 42 103 -92 -26 -120 86 -122 101 50 29 102 33 19 -94 -117 44 -13 71 -100 -45 121 -31 47 97 59 120 -58 -43 97 12 -1 -105 -95 -72 -38 -74 -116 -74 -82 -82 -108 66 84 -40 62 7 6 83 75 103 99 8 -89 -6 0 88 -123 64 8 -73 97 -68 -50 69 33 -55 21 111 46 27 47 -58 26 -22 113 86 85 71 -54 109 113 -122 -104 110 -44 -55 70 -11 13 88 115 46 -23 114 89 -43 71 -26 23 -41 47 126 -72 -71 115 17 76 88 86 -78 97 -8 47 5 39 52 -117 -70 -114 8 -118 62 -115 -6 98 110 -40 57 30 -36 -18 48 17 13 -66 -19 96 83 120 50 98 -3 -118 77 -14 3 -15 53 -45 122 109 -46 101 106 -67 -62 78 7 -58 -103 -110 -70 79 -89 59 61 -118 121 95 29 -101 -1 42 69 -32 121 73 88 96 117 -28 65 -54 109 88 14 16 106 -30 94 -118 -126 -112 33 -63 -76 0 12 -9 63 -106 116 -38 -27 45 -60 19 -51 72 44 -33 -10 -59 -116 3 104 53 -91 63 95 -85 58 -24 -86 -14 93 -11 -45 -113 -1 63 125 52 60 99 -86 1 25 107 -43 81 -118 -118 -22 23 -50 -52 -80 -36 -31 -76 116 7 -19 -73 114 84 43 80 44 -109 99 82 -16 -126 55 -9 23 29 -60 -44 -108 28 115 -54 -4 22 83 -18 124 -107 82 108 -26 -33 0 -44 -108 23 7 -5 109 -50 -19 78 33 29 120 -41 -50 -2 48 -45 117 103 126 -126 11 68 34 79 64 -110 113 -75 -22 41 -32 49 34 113 -47 70 -66 -115 49 94 -47 47 -107 84 -72 46 -33 -75 -127 -112 13 84 8 -102 -59 -99 -83 -104 -31 57 -62 -109 -44 53 34 -19 -2 -23 -115 80 81 -113 39 63 97 3 126 -110 -49 -123 -109 9 -43 65 -58 82 -38 27 32 