-20 77 126 -19 -113 121 -118 -72 114 -75 -81 -31 -68 -10 -97 69 -113 -75 117 -98 111 17 91 55 104 -79 -84 100 72 5 75 15 72 95 -56 68 117 -105 -27 -67 22 95 23 67 63 -26 -36 -61 94 51 -4 -27 30 -54 -83 -59 104 127 -48 -79 100 -85 64 -44 94 32 46 50 -101 -58 -33 8 -49 94 -9 -43 6 -19 -55 54 -16 32 113 -125 -108 108 -57 -87 117 18 -13 76 -95 115 125 -120 -98 -28 -24 -39 36 -35 3 -72 -72 -100 -75 52 -6 124 -103 35 -115 -77 -118 42 -94 -33 -68 -50 -102 -118 56 32 86 -98 98 -39 -4 114 -34 58 101 -111 -39 -43 105 9 50 -99 -79 -115 27 5 -75 39 -34 124 -29 82 115 -33 53 82 32 -33 -106 -118 -115 11 43 118 -120 57 72 73 30 -10 49 -77 -36 -80 -55 94 70 44 85 -36 -91 -90 110 22 -96 126 49 62 34 -61 17 -94 25 -90 94 34 -19 -45 57 11 -125 -34 -9 105 88 25 -70 78 -120 -103 53 124 13 -123 54 39 93 -11 74 46 88 -70 -55 -76 40 -5 -73 -28 -13 0 14 -2 -14 10 34 -56 47 -10 13 -59 -109 -90 114 96 -96 -123 -26 -110 119 32 59 119 18 90 -51 -10 80 -15 81 104 -3 -40 -17 53 109 73 60 -104 104 84 15 -125 61 -34 -71 -102 73 -121 97 57 77 7 -86 24 -27 -25 -95 -85 -101 91 22 55 84 95 106 67 87 -45 83 123 -25 -25 -107 -47 12 23 68 -88 -77 -22 -3 -24 50 -22 7 -108 -88 103 86 75 -84 -23 -24 61 -16 50 40 -46 -33 88 57 1 -31 -94 91 -47 -111 -79 104 12 82 -10 16 64 -111 -32 6 77 -53 -74 4 16 -79 33 -80 -2 -88 -94 -81 86 105 79 -62 -116 -81 89 12 -121 29 120 58 -36 -116 12 -45 110 38 13 108 35 49 -46 36 60 -7 -62 18 89 82 120 -9 73 -10 -67 -121 80 -117 -53 -37 77 63 120 -26 -50 99 69 -88 56 81 104 70 22 -104 75 127 60 6 116 -17 100 -72 71 -27 50 -119 -38 55 -25 -68 127 16 59 26 70 94 -54 -19 -11 -127 -114 -52 100 -31 47 -93 109 -57 125 -121 77 -64 85 -35 -106 -86 -123 62 13 85 77 -66 -53 127 -99 -70 111 -67 -102 72 -97 -26 127 127 16 53 42 -36 27 -114 -77 -78 -45 115 -11 116 45 60 -35 -80 3 -59 -19 66 39 -98 -25 -66 122 -118 -41 -79 40 44 -126 -58 -15 82 61 52 10 -114 -99 64 22 -17 -22 86 121 47 99 -26 -75 -80 33 -124 -98 -68 53 -22 -65 -1 -1 -28 -74 -111 -65 -89 22 10 92 105 -100 -72 -25 -58 -56 -6 -29 -10 11 103 -52 -111 -64 19 -52 80 108 -18 97 51 -109 -81 65 52 -84 103 -40 -29 18 -81 -13 4 0 11 5 -56 15 -77 58 58 101 101 -31 -18 106 -11 -17 -21 26 82 -108 78 43 58 91 -103 -66 25 -103 -74 -23 60 -116 3 42 -114 -23 93 -64 59 -50 -101 -8 114 92 -60 -8 70 -104 46 -61 -126 45 -71 103 79 78 -118 65 105 -46 125 -61 34 -22 -127 -1 113 -118 -58 -5 41 -118 -4 29 36 -21 47 -6 41 -42 104 -6 -97 -35 31 -108 87 48 52 -74 116 -102 -90 -11 99 55 -82 84 -20 -23 -26 114 7 -25 26 37 -55 91 84 -123 -40 -64 -30 43 7 27 57 81 101 -67 -108 -63 54 86 110 58 39 -127 71 41 -50 24 -27 45 11 -91 -69 24 45 0 -101 -118 122 122 64 -41 73 -121 -111 119 -84 115 19 -47 -70 33 71 -43 90 -77 -102 -71 -40 25 -51 37 76 83 -13 125 122 28 -61 98 10 -21 15 54 113 -120 -75 -96 35 79 -27 8 83 86 62 104 -82 56 11 36 50 -76 -46 108 113 -127 -26 -18 -7 58 80 -15 -52 8 -6 -63 79 110 50 -116 91 50 -37 -68 80 14 42 1 9 52 66 -71 33 -80 5 21 -73 127 -121 -63 -30 -71 -45 -78 9 -122 -123 -86 113 84 -31 106 -60 -31 -75 123 -69 113 -17 -15 54 -20 -78 -109 94 73 -55 -65 -34 25 75 57 -74 -17 -67 27 117 -56 -80 39 88 62 56 75 86 -80 85 92 46 96 -39 -58 118 -108 -76 43 -77 -125 -80 44 -121 -73 2 72 -27 -10 -60 49 -31 -37 69 -41 -14 -58 25 -81 -9 -14 -74 -84 117 7 7 -37 23 94 25 10 -106 -10 11 -87 45 61 65 61 35 -70 -43 -110 16 57 117 -61 -122 -9 3 -5 -113 24 55 -102 54 -107 -38 -44 75 -10 -61 -26 -123 48 39 71 79 -95 -47 105 -55 87 57 74 12 -80 -118 111 -113 -19 -43 3 35 113 108 -107 -104 -17 27 -22 -88 -28 -43 -86 104 30 -95 76 104 112 122 -36 -49 112 -10 47 62 58 23 -116 104 60 -30 -68 126 19 -106 46 -30 54 -16 -10 66 -98 -112 -42 26 102 -98 49 69 68 -68 35 50 -22 -78 74 -102 109 -81 58 -106 47 -108 65 -15 21 -41 100 -28 0 90 36 -126 13 27 43 -104 -93 -60 -124 -23 -89 109 -92 -110 -12 -95 -63 121 61 6 114 -124 -5 -103 -20 -7 100 -89 8 -58 1 2 97 -38 28 125 -31 -122 29 -105 -78 -72 -22 -108 70 -90 57 -70 70 56 76 -11 -11 -111 -107 -12 6 -66 -120 -33 -116 108 -125 36 -90 105 -27 -120 -106 -32 0 -92 116 -27 -20 -43 -116 112 6 43 103 24 91 -101 106 -27 120 33 -43 -101 82 -9 -115 112 -60 6 -94 -23 90 -73 -20 85 -35 123 75 -117 75 59 38 54 -20 116 87 27 -119 121 -111 -81 -101 120 101 3 -3 100 9 -12 -8 92 -121 -78 -95 97 -16 -39 -50 -59 -75 97 -104 -85 -9 -23 86 98 25 80 95 72 -32 23 -3 30 83 -38 -29 -33 39 13 120 -58 -96 16 57 94 -104 -108 118 120 -60 4 -32 89 -83 -72 -42 -4 -90 8 -67 -68 -5 16 109 52 20 -115 -99 -27 98 47 -41 -8 24 -92 81 -101 -50 -72 -99 92 -30 40 1 10 11 -49 -90 126 -94 44 -27 -12 -57 75 -41 113 -88 67 -104 64 -5 -121 -2 -27 -81 -49 -54 -6 70 -19 -125 -73 41 -61 -92 80 -22 57 109 -103 73 25 122 96 82 -32 -28 18 91 25 68 19 81 -127 -47 90 60 -47 -29 -99 16 61 37 7 46 -110 -67 78 74 -91 94 -43 74 30 69 42 -127 120 13 14 -91 126 39 93 15 -41 26 117 113 -54 116 25 51 -53 43 126 -6 -96 115 40 37 10 -53 -61 -81 100 92 -47 1 11 87 -82 -34 109 -34 90 91 78 66 -77 22 -80 -9 51 -94 29 -53 -3 -6 -125 70 117 40 -17 -16 99 -87 12 -100 -118 -84 -110 65 -18 -58 9 -16 94 79 2 27 -79 -77 -56 31 -26 -70 97 -36 -127 -20 99 0 103 49 60 -53 27 -11 -68 76 -123 123 -77 42 -116 -4 44 58 -17 124 35 -117 13 74 -55 40 -45 98 105 -66 -47 -80 -121 -35 36 123 -100 108 115 80 11 -71 53 -27 62 -54 114 -16 86 22 -28 109 -75 112 79 33 15 -41 42 -77 -8 -38 -54 -51 14 35 47 95 72 37 -40 3 -69 117 -125 -17 46 70 57 59 -36 -25 30 -67 115 94 -39 -110 -18 117 41 47 34 -125 -47 3 -48 -78 -39 -88 -84 71 21 120 -112 127 124 -111 -111 96 47 -33 95 -119 76 93 -94 71 -5 113 -57 -123 32 124 96 -114 -36 95 -114 -101 16 -36 42 124 -25 -13 55 -2 -57 22 -38 -119 -5 116 -80 32 -114 3 -126 59 11 14 103 -83 121 97 100 12 117 -25 106 -23 -116 97 -13 23 -55 16 103 -66 -121 56 -126 -112 -17 -69 -48 55 -61 -96 5 84 -92 35 59 50 97 -117 -95 26 -36 -108 36 114 62 -47 36 117 -13 23 -7 62 -43 114 111 -78 75 -45 -7 -34 -6 -120 102 3 123 87 96 -56 -96 123 84 69 -53 98 120 -78 11 97 -99 23 116 -91 66 -82 106 114 91 -104 20 62 -7 -121 5 84 -16 102 -124 68 -44 60 39 -78 117 -90 35 -63 -96 103 95 -111 -24 33 34 -49 64 -54 113 -36 -79 66 73 115 -127 53 69 -73 122 117 59 -123 -7 -114 91 121 -22 -56 -12 6 68 -92 -90 1 -17 16 3 25 56 -43 -36 106 -57 -92 -42 -52 107 126 9 89 39 -4 -82 43 16 -12 100 -101 17 -38 -72 -20 -44 -46 -6 -41 -113 -100 -98 -114 -54 -4 -52 -85 66 -13 -115 -74 -17 14 10 50 -112 125 -116 126 -116 -41 -54 -115 -39 -80 105 -108 -100 -92 124 79 -96 -14 -116 75 120 20 -123 -68 -13 110 -34 49 -113 63 -105 24 62 -82 -5 100 78 -108 -82 106 -31 -125 -69 6 10 63 -72 72 -76 -60 -5 66 113 30 -92 48 -6 40 113 59 -38 -67 98 47 53 -102 -81 -84 69 125 -57 -28 -118 10 -35 9 -59 -103 -18 27 124 -72 71 -124 -91 93 -100 66 30 34 78 94 -40 9 80 -95 -44 43 -7 -56 7 87 -53 18 -19 -121 16 -123 -41 -119 32 -127 19 -68 105 116 52 59 -13 116 65 -72 -69 114 46 78 25 -103 9 -15 61 72 -91 113 126 16 123 62 -100 16 126 -116 -50 -68 -63 -21 116 -26 66 2 68 -97 -114 -83 -51 94 35 -70 80 -82 -65 82 28 111 -62 -10 -48 -73 -28 7 100 15 -13 53 -117 51 -99 -96 68 98 -36 3 79 20 90 -105 54 111 6 92 -126 89 -116 14 -83 -10 -24 58 5 -23 -96 81 -101 -63 -95 21 83 -20 -84 71 22 50 14 75 57 111 46 -3 126 -36 27 -56 -36 -97 51 117 -52 -54 80 91 43 -31 -11 19 -83 89 -100 -100 39 98 -53 -45 -123 105 -99 13 -91 98 60 114 -25 -106 -58 -5 -88 -39 -112 -117 -122 -93 31 -72 -91 115 -99 8 118 -62 3 22 -109 -96 24 -62 -35 -77 16 -103 91 -124 -63 11 10 31 93 -48 -122 105 -9 91 30 0 66 -29 -86 -62 -77 -52 117 -9 -35 124 57 18 -111 7 9 -38 76 1 25 -100 -90 -55 99 60 42 -40 -121 47 23 46 -124 43 -4 -41 -59 -87 -81 -68 -92 99 -101 -41 -120 -75 -66 -58 76 29 -57 95 -125 71 -28 -53 3 -101 -116 -81 106 -105 -113 -15 -23 91 98 -121 -82 26 46 -126 -101 102 118 127 -14 -79 -94 22 40 -117 33 -120 68 45 4 61 -79 -116 -1 -37 -42 52 6 -1 -110 -114 33 -103 -101 -117 -59 69 34 -125 -127 -43 -75 -32 111 -23 64 -120 6 54 3 9 -9 76 -35 -38 63 94 14 84 19 83 -4 42 10 76 27 -36 33 -53 33 -64 -2 -86 80 -74 -111 7 -14 60 54 3 -42 84 -95 87 63 62 -30 -12 97 -40 -32 -4 43 91 -9 99 61 38 -118 -46 10 -44 72 84 -120 -98 74 -3 -14 50 23 117 -42 99 113 43 -51 -85 -41 -101 -61 -71 90 35 -127 -22 -29 -53 12 -21 -98 -122 96 -63 69 85 -117 -42 119 15 118 -14 73 -19 -83 34 95 -116 22 -31 51 59 5 77 -95 -4 119 14 101 -31 72 108 -7 -48 -112 112 32 44 103 -110 64 13 83 -73 -53 3 83 29 -17 109 -123 -104 84 -109 -8 -41 -124 25 15 -19 30 87 31 125 95 6 41 -126 82 101 10 -70 -96 118 55 66 -70 91 -14 -5 -19 23 118 124 -49 88 -59 123 -126 -120 95 49 5 10 59 33 -76 -80 85 74 62 -52 -17 94 4 -52 -37 35 -11 3 -30 59 32 -80 47 74 41 -99 106 125 -92 56 78 116 47 42 25 -76 25 -82 65 52 -28 33 -53 123 -67 54 46 75 26 74 -63 -112 -4 9 -111 36 -50 -63 -66 55 -4 109 -83 16 106 85 -45 107 -111 49 -6 78 107 6 99 61 -16 -121 -14 15 -66 -81 -91 122 -52 102 -62 -61 -71 -59 -34 59 -68 125 35 -85 -5 42 20 -54 -8 -49 1 -12 39 104 -80 -20 -39 102 -79 92 2 -34 -72 98 -11 67 -122 -118 -34 -99 -44 62 37 -41 -109 54 67 -110 -115 2 65 -6 -110 -69 -11 -81 39 -16 -38 16 124 -38 -80 16 -28 -91 -14 -13 -77 -14 63 -53 -27 -102 3 67 122 -43 51 120 -8 -65 -16 118 42 -123 -89 -87 27 75 98 53 -59 -111 53 -82 -54 99 -115 -71 -56 -26 -72 -65 -20 -3 56 102 104 -19 -97 105 4 -35 25 105 -90 93 81 28 -127 49 51 36 -11 13 121 32 22 -2 36 30 -112 -71 62 55 -53 -74 110 23 58 87 -63 31 -82 73 114 40 83 107 60 -86 -78 -26 -104 -25 -39 82 -44 -92 8 -85 -37 109 73 -70 22 34 -13 69 -67 37 36 -9 31 -114 -127 127 89 34 -64 -63 78 5 -101 76 46 -60 -2 -98 -5 46 -12 -32 -62 52 64 93 80 113 -64 -34 61 -53 108 -103 76 124 -95 -95 -118 84 92 -10 -33 -79 118 40 -13 -47 -19 -66 -33 85 50 51 122 4 10 105 -61 111 -47 -8 43 -125 41 112 35 -23 66 -118 87 123 96 95 18 -100 120 10 -86 60 17 60 126 74 -79 -72 -92 -43 -23 -21 -116 -105 64 -84 53 75 48 -77 66 -81 81 -23 -120 -7 -3 92 -93 -67 1 -47 51 -119 87 -16 -45 -126 103 -26 -33 22 -19 107 20 -68 -28 95 -16 63 10 98 83 104 -104 36 124 69 55 -28 89 6 -79 81 34 76 -111 30 -101 -71 92 -120 64 -12 102 85 -45 -102 30 73 -44 126 115 -87 -43 34 -77 -61 48 125 -117 -41 82 -40 -118 48 -79 31 18 44 -38 87 116 126 -16 89 -71 -55 95 -63 -2 -18 -50 -86 0 -106 -110 113 -125 -57 -38 10 51 116 -66 54 -71 111 33 63 -97 -91 -31 75 -9 -49 32 111 7 59 -115 29 112 -123 103 -112 -21 -106 33 -6 2 112 -71 39 -109 -21 99 124 60 117 -91 117 -86 22 -13 -105 -11 102 -81 -37 -116 53 74 55 -56 87 101 52 30 103 -9 67 116 113 -41 -39 -42 11 -28 -31 4 -64 -121 87 6 -127 -80 -42 62 123 -8 57 -34 92 -87 -46 126 47 -95 4 -50 81 98 96 -67 -32 -119 14 -94 39 -69 51 17 -125 21 37 -22 94 39 85 -65 -94 -6 -12 -12 -45 38 -99 14 -21 -97 -101 -54 93 50 33 -24 -88 -95 -35 -11 -85 119 -34 31 7 26 -120 -126 122 -33 -5 -67 125 81 -127 61 -106 91 18 -38 34 4 -12 -94 -24 104 -73 73 120 15 -50 -96 119 122 -71 -43 53 61 68 63 53 40 23 104 112 -127 -123 -24 57 116 64 117 -5 28 117 -72 -84 69 4 77 51 36 -100 18 51 -66 109 87 -27 24 74 99 120 120 60 -81 92 10 -8 47 115 -18 84 59 -125 92 -21 46 -120 117 -120 73 111 -51 93 61 90 -30 120 48 -7 5 87 13 111 108 69 -35 -55 7 -28 -11 -61 -64 56 117 -83 -64 -102 66 -76 -28 68 -47 17 16 21 24 -13 61 -16 10 -115 -57 77 -21 -108 -98 86 96 -82 39 -80 -90 74 -110 45 30 106 11 36 -67 40 22 -114 28 91 1 -25 -27 -117 -86 -60 -123 -83 120 -115 90 46 43 12 -56 -100 55 97 -84 -22 92 -4 48 -10 -12 50 -113 80 16 72 82 -7 -105 31 96 94 14 -45 -51 -42 -28 98 2 100 -50 -60 106 91 -11 14 121 -32 -93 60 76 98 103 91 6 -115 -99 -92 125 -50 116 86 93 117 17 126 75 55 6 11 -44 116 -31 92 -42 -115 -114 27 -93 -33 125 -63 -84 -73 -55 112 -116 127 -8 93 19 -61 6 94 86 -32 80 75 23 25 107 -78 36 -23 9 -91 28 -37 -88 -73 83 93 -80 51 -80 -86 -45 -39 37 -107 54 -6 49 -5 -67 -62 -106 22 -78 65 36 11 -50 72 44 -16 66 83 102 91 36 21 124 69 8 51 -24 36 -98 125 -116 -53 77 81 39 -36 33 4 -5 -72 -8 102 -64 -24 -110 119 -76 -22 72 69 79 50 -7 15 89 -56 70 113 -91 -66 -27 -12 -32 -114 67 -26 80 -121 -47 -104 76 33 111 -17 91 27 89 60 -125 108 106 88 -26 56 -74 -45 22 -113 -123 114 12 97 -65 122 97 -111 34 82 106 3 21 -76 -100 121 -107 3 -40 -27 81 99 101 -92 -36 44 52 32 29 -122 14 74 -2 69 102 48 -50 -67 14 -14 115 -6 126 36 93 -115 104 119 -63 -84 -96 18 -98 25 93 50 29 -86 89 113 65 -22 -72 2 -85 -73 -70 -81 -68 -35 47 56 57 -108 -48 -49 117 -57 27 34 -91 107 109 -67 91 -25 60 -90 119 -104 -25 -91 65 121 75 -101 95 -37 -78 14 -32 -16 23 41 105 127 -45 -104 -50 38 79 -77 74 105 -108 -47 -85 117 120 118 80 -125 17 -36 47 61 -2 95 55 120 56 -38 -30 -91 113 -41 -75 -57 39 62 -1 -11 113 -105 -2 58 -84 -47 115 -11 93 55 119 -3 -69 91 -23 22 14 124 54 77 96 108 52 -8 56 -26 -93 -6 -67 -57 80 86 -48 -2 -29 -54 80 50 96 106 -79 28 -96 36 67 -73 -82 -73 -124 -29 -110 15 109 4 52 49 78 43 61 -9 101 42 107 -42 119 72 -34 117 -43 44 -20 -122 83 4 -40 4 71 -83 10 77 -10 30 -58 -4 20 -118 117 -48 -4 124 -23 107 35 -6 -37 -74 -32 21 55 53 -120 -77 6 67 127 25 -31 -121 7 44 -126 -17 -114 -88 103 53 -23 -8 111 81 115 15 -101 10 38 19 -88 -5 -106 -13 -49 -37 -104 -18 18 -78 -127 -72 56 -108 18 -77 -96 -42 48 54 101 53 -30 21 47 -63 116 -90 122 52 -52 -96 1 61 26 -33 -73 77 69 87 -14 -2 -10 0 -83 103 -69 -104 -72 11 -23 86 50 -49 80 4 97 33 -80 39 82 -91 106 -60 56 -72 -10 65 -119 55 120 -9 -10 105 112 -83 53 -32 -90 -119 75 -69 46 -77 -35 -34 -49 -101 72 -125 -11 127 -13 49 -26 -4 40 88 77 41 -80 108 -20 25 78 116 -114 -71 -110 122 -89 109 86 46 24 -81 28 -14 111 65 27 -78 3 -84 5 -48 86 -3 -92 -125 -25 -126 49 127 -65 122 124 24 -33 -59 -71 -127 88 80 49 -1 119 92 -74 65 112 -34 89 100 115 81 -37 -116 -4 -95 -92 -124 93 -117 -111 65 -44 82 -105 127 -54 -82 -112 92 -5 -74 82 31 -97 39 -109 112 27 74 -11 111 -69 -7 -72 94 40 6 7 103 4 3 58 -96 -53 28 114 45 75 -7 66 -107 117 16 15 -80 -85 23 -1 43 52 -74 89 67 -28 -59 -125 -57 -121 77 26 50 51 23 96 -119 -53 58 10 15 114 -55 -59 69 124 -73 -103 -38 70 -71 25 -29 103 -83 116 -33 93 -70 -100 2 37 13 29 -18 26 100 -103 -98 57 -96 102 -36 -106 28 -37 17 -96 20 -42 -48 122 -2 48 -86 -85 126 -37 -47 -46 51 6 16 97 -106 -116 -44 30 1 -38 23 15 89 -78 -53 -17 -81 125 51 28 -55 40 -94 -16 62 -13 -28 3 -14 -8 54 -15 -107 23 -40 84 21 121 -89 -32 125 -106 -112 91 -106 -83 -33 -30 -49 112 120 -30 -123 76 36 83 -80 78 -54 67 -30 113 68 8 -9 -13 95 -36 -109 -40 42 -88 -11 -114 116 104 -1 84 92 -89 -49 44 64 116 -14 94 -69 29 -40 -30 -32 -71 -97 104 -23 -96 -90 -57 37 -113 -95 -101 -74 9 103 -46 13 2 -31 110 -106 -59 -56 14 24 -50 -117 -96 33 -110 -14 -82 -93 -124 -69 42 29 -52 18 -105 93 125 2 28 53 73 -118 -48 -95 60 -103 -72 -44 -100 -26 -106 -89 -71 5 44 -69 -7 121 -107 117 -33 118 -40 -2 44 114 -27 -83 -99 -93 121 9 -61 33 92 -81 -100 -107 -30 -99 -28 -71 -21 54 -42 57 41 32 -65 54 122 -19 56 1 102 91 106 -36 -86 -23 -60 -56 115 110 -88 -32 -111 29 -24 -46 111 -86 26 -102 -64 -92 14 -43 8 107 -24 34 -48 -108 -73 43 79 73 37 -21 -49 -124 -76 64 -37 -121 87 -85 42 96 -109 123 60 123 -48 -4 104 51 -12 -4 48 -34 -3 -82 -21 47 -30 99 -23 73 3 31 -22 88 27 -100 9 -72 24 89 124 -101 -70 112 -123 -1 17 9 13 123 -88 -102 -108 -29 -106 96 9 -53 -38 -50 73 -66 28 -48 -127 -79 -75 55 -18 95 48 -14 