-25 92 41 -97 56 122 -76 -44 -68 -85 87 -121 39 -127 52 77 -61 71 61 48 -90 -118 61 83 -72 14 -47 -26 70 43 -10 -60 -20 64 -95 6 48 48 -45 46 -31 119 -71 -118 -36 -70 82 -29 -61 -94 -77 56 -39 102 -52 -20 117 -103 69 115 53 38 -17 30 -100 -15 41 -31 53 -20 -100 68 49 120 -95 16 -103 125 -59 -39 112 103 -99 -126 59 -94 -94 -62 -30 37 -52 43 103 -27 -53 98 57 -77 93 13 -98 69 90 66 82 -38 -64 118 -1 -9 -100 52 -14 43 -2 -23 59 102 95 -59 -20 -125 45 35 -12 119 -6 17 122 17 30 -68 -123 18 118 89 104 6 16 -80 -94 8 -120 114 38 98 -105 111 -32 -61 -68 73 86 119 -119 -125 -53 31 84 116 -54 -53 67 50 41 62 96 42 -39 26 -86 -92 -5 -28 107 -11 23 67 -73 54 68 6 43 35 -76 -4 -2 -101 -13 -109 -93 83 3 26 85 -45 66 -124 -55 -65 123 16 -59 119 8 15 121 38 71 -26 -67 -90 -25 -102 107 -66 -40 -49 -124 -101 -115 74 17 106 -2 87 -21 -18 -42 -50 -70 29 10 105 30 -51 -27 31 126 4 -22 70 95 -10 20 37 -11 114 -124 23 89 88 -36 96 -46 -110 110 116 -94 -78 66 -44 -8 -56 -127 111 -60 97 -116 -64 -52 -120 -105 -11 109 -54 49 -8 -100 105 -94 -86 49 35 100 -86 -12 82 -34 113 83 -13 -71 -63 -22 67 -61 -88 -20 22 121 49 1 -25 -118 73 59 46 25 -59 -5 109 -111 -36 -28 46 -89 -82 -91 84 52 98 107 -73 79 -127 35 116 43 92 -46 6 61 -11 76 95 15 -121 45 -115 30 -67 -54 48 -4 -121 -118 123 54 122 -1 -77 23 73 -105 34 -5 31 -43 -35 61 42 -93 118 92 -3 80 36 -99 -113 -53 -99 78 78 22 -88 -57 58 -25 -44 -36 25 2 -60 -118 -107 -56 -82 -18 5 58 -66 -48 31 -114 68 118 -19 -23 61 74 -120 14 -121 -108 -90 -73 -95 -124 48 118 104 75 -86 94 73 101 -56 88 25 13 -42 1 -33 -69 78 10 -14 -13 -10 25 109 104 -49 -20 107 87 -102 -113 96 34 -52 -67 74 -52 -111 -23 19 126 -123 2 -26 52 76 -31 117 -78 125 60 -101 67 86 -95 -1 -102 -50 81 -76 -24 -14 -72 25 -79 -28 -3 -56 -97 -31 71 68 49 120 46 5 -65 102 69 50 -122 34 -33 -47 21 -10 -49 -106 -126 -88 -118 56 23 -8 -101 -101 25 18 81 -8 28 -65 48 86 -11 15 56 61 125 58 -26 22 -86 30 35 16 42 68 124 120 -61 31 -27 65 21 -50 73 76 -45 9 -83 -62 122 -44 -23 -56 -31 43 118 -113 12 124 -114 25 -126 54 -110 -111 -47 -79 -51 103 -31 -99 -77 -26 -47 43 71 -34 -75 -62 79 102 -79 -28 -38 3 30 76 -18 -91 -42 -26 -11 -86 27 61 -63 61 -35 -103 -102 121 -124 45 114 -49 -8 53 -65 -89 -17 -41 -18 29 109 43 30 120 -11 101 61 53 -47 -23 -16 36 11 -41 -18 108 107 -71 40 -10 72 43 100 116 -78 0 -18 43 -68 49 -23 13 66 -85 103 -60 -127 45 111 -109 75 107 37 -97 12 58 93 14 90 63 85 69 -41 -77 1 81 -67 35 -70 111 -29 -120 12 39 -91 -34 120 -41 -19 -92 -117 44 -93 -77 111 42 -100 1 -16 123 -113 -113 -110 62 21 18 47 73 61 -72 68 95 106 102 117 47 1 -81 -121 -48 44 -64 -66 -109 113 -119 -48 -1 45 40 62 -58 125 -101 -112 65 -9 -71 -42 117 -12 -81 -66 -6 16 -49 -66 -26 -54 -70 27 -22 57 93 92 50 -31 117 -105 -30 -19 -103 -4 20 64 103 102 -34 23 -50 -56 105 75 66 59 -71 31 -3 127 -43 47 17 2 114 107 -8 120 97 -101 91 -88 58 62 -18 98 -43 -84 6 -113 61 -90 10 112 73 -50 27 104 -63 -16 -116 -113 23 -105 101 101 10 23 10 -118 -116 49 -120 -6 -104 -1 -108 12 70 122 -116 18 83 -63 -58 -103 -80 -7 56 -68 126 -111 -26 -24 -69 26 -61 98 52 83 -35 -38 -102 -33 -96 -37 21 48 122 20 -24 41 39 -107 120 121 64 76 -15 82 56 -70 -72 -117 -19 -66 -95 53 -84 -85 42 -11 -91 -73 -106 -104 21 -104 70 99 117 6 -118 -97 127 -79 43 68 -109 110 -15 -62 -102 -4 -118 39 64 74 -20 -6 -62 -21 5 94 33 -37 -124 -114 39 116 -70 -74 83 -100 48 -36 2 91 13 -41 -23 119 86 85 -100 66 124 45 124 -1 -113 34 -71 -85 -39 112 -87 97 -37 -48 -74 -4 -3 11 97 -115 116 -30 102 85 73 -44 127 80 1 -58 20 -42 -81 49 -66 24 -84 -57 -14 2 -123 -96 45 28 -15 49 -115 34 72 -75 -97 55 -65 112 -65 -43 118 -2 -29 -74 -2 116 109 38 -7 115 11 -87 -50 -76 28 127 -5 -99 -17 -79 70 62 -31 -121 97 63 1 -6 -3 -22 42 -98 -126 -2 -20 121 -28 -65 -117 -21 -49 12 117 -50 -84 125 -85 93 -126 3 -30 -15 109 -22 99 46 -7 77 73 -80 -23 4 -127 97 -120 49 -123 47 95 52 105 63 -26 80 -76 -126 -120 -105 -64 -17 -45 -75 -112 -36 -53 31 -27 70 68 -15 68 75 -76 68 37 83 -75 100 119 -33 90 -72 -36 -113 93 81 91 -32 53 -1 -92 68 34 107 61 121 74 -15 9 -36 21 -87 -33 78 41 23 30 -48 -7 -81 52 1 93 106 28 40 74 10 -38 -67 118 -22 -59 63 -65 31 26 12 -46 85 124 -119 -88 67 -24 86 -18 45 -42 -81 83 -19 -64 34 -36 -78 -125 -122 22 77 -122 -112 -113 -5 -71 77 -32 42 75 114 -95 -86 14 1 67 -29 -36 -81 40 30 22 -56 70 118 118 -22 53 108 101 -10 83 119 43 36 117 -120 -31 65 -69 16 46 -89 -91 30 -34 59 -68 -5 -94 65 -51 96 86 113 64 -82 87 10 -91 55 -60 72 -78 -125 -22 43 -122 51 -26 -71 40 -56 -38 92 13 58 -5 25 -103 -70 -70 31 -52 18 -56 7 -65 56 -59 -93 -70 30 -50 -13 -93 -67 -46 10 -119 -116 84 -64 -19 -3 -25 -33 -21 -78 45 36 -61 107 -23 86 89 -61 61 81 9 117 127 -92 5 73 60 76 -54 -5 49 -83 26 -113 -48 107 116 88 -12 23 -29 16 -118 58 34 -88 -106 -82 58 -107 44 -110 -70 -24 -41 36 41 113 -92 -36 34 89 -39 120 -27 -36 -23 38 -121 -91 -8 80 32 29 -68 -20 111 116 -26 84 69 -66 100 120 -85 51 99 -25 -54 60 84 122 115 28 -10 -92 -77 -78 51 18 -88 69 123 -93 121 64 -38 80 -16 23 107 98 -30 -73 -85 -10 -75 -120 -118 64 53 20 -47 -117 59 -124 -114 -59 -25 -119 -52 -42 106 71 99 -48 51 126 -27 23 -5 -56 13 100 39 101 62 -75 -71 126 -36 -26 -106 31 -114 34 -7 67 96 -17 74 3 116 126 -60 22 22 -61 78 56 -53 107 -45 -29 44 -110 -108 -45 101 68 11 41 -114 39 -68 119 -59 -115 94 -97 55 -10 21 4 91 -1 -52 -38 71 -55 124 42 43 -73 61 54 -13 -41 35 -29 -25 74 96 118 -63 -27 72 88 -36 -87 109 67 63 -40 -81 99 7 -23 -64 43 44 -115 21 -63 -8 -91 -110 79 47 -31 34 -95 -49 122 -19 3 87 -113 -2 52 49 101 111 56 78 42 -46 -28 -102 -116 91 -50 -94 -94 89 60 -1 -2 35 -121 -3 84 4 5 -8 -49 43 34 45 95 78 24 -15 78 29 -39 -119 85 -96 -61 59 -35 -25 -36 -127 -62 54 -22 10 39 72 -64 86 -125 -68 -95 70 -106 104 61 -9 35 121 10 -36 -53 44 -49 83 38 -85 -12 96 -68 118 -83 -66 57 61 97 -108 32 41 -92 101 -28 38 116 -56 75 -89 93 -117 -107 87 -20 -95 -12 83 -80 52 -27 -49 40 111 50 -109 17 71 -92 -100 68 -6 -106 60 -9 38 85 3 74 -27 -101 97 47 68 -114 -46 -71 -79 -17 100 104 51 23 -9 93 -90 66 -11 -32 -92 93 17 41 -4 -14 -75 -91 -78 -45 86 -127 81 13 77 -117 -106 89 -14 1 -13 67 -66 81 -6 63 72 -25 -40 -65 -69 -53 -118 22 43 65 -34 60 123 3 39 -30 78 40 -4 70 106 -51 23 -7 -10 59 36 -28 -47 125 106 114 -102 -110 -14 -3 -68 -41 22 82 125 101 77 74 127 50 19 -89 41 124 -71 -120 -112 -88 -65 83 -94 -92 -99 48 -4 12 96 116 -70 96 -118 -31 -44 -76 -19 93 -79 -9 93 83 -97 112 32 22 -117 -28 34 -53 -49 -34 -50 64 24 -12 -29 110 -67 -43 67 -15 59 -17 -110 15 -98 32 78 36 118 -98 -122 44 86 124 75 93 -79 -12 59 24 101 -29 -96 -22 90 -99 -89 122 -100 -3 -62 -39 -118 100 35 53 -106 -121 -20 104 124 104 39 37 -39 -103 -16 -39 49 -83 -1 -74 -125 -58 52 91 44 -79 -6 61 -73 -90 126 39 51 80 39 -96 -93 93 -107 -65 -26 -56 -116 -102 -47 96 85 -117 -2 119 -53 -6 -42 66 43 -116 115 14 33 77 -69 -106 -115 39 -56 -8 34 -85 -83 -25 59 -50 13 51 50 41 1 -83 29 30 -88 106 89 116 -25 30 -47 -78 95 105 -10 119 21 43 -62 -78 -83 118 32 109 -71 102 56 23 -13 -12 23 32 -127 86 -119 -74 87 -47 -24 108 -59 22 42 12 -21 -94 109 -17 15 -75 26 -113 30 125 -46 89 -86 78 -107 126 15 -13 4 -17 78 111 -72 -44 -104 82 -94 88 -69 116 -32 -24 -32 101 -3 -23 76 60 49 84 -33 -114 -24 95 15 -29 75 -120 -88 -115 101 -92 56 -85 -8 -78 82 49 102 38 20 1 -110 8 111 85 -40 16 -78 4 -86 100 -75 24 89 113 4 26 36 87 0 -28 67 -78 -123 -101 -52 117 20 -67 56 16 -7 117 -54 7 61 107 51 65 -31 -1 87 67 40 100 120 66 116 -66 44 -101 -58 -93 99 -116 -15 -59 -98 -97 73 -115 -32 -126 36 -22 33 72 63 -94 105 84 -36 -30 127 92 0 -17 54 -60 14 