68 -125 -43 82 -100 14 50 122 -117 -11 40 26 60 14 74 105 -52 114 120 34 -8 67 -104 60 41 -27 -70 -113 -42 83 -14 -114 46 -30 72 69 16 19 30 96 -119 -121 111 119 -13 54 24 -71 -60 48 -81 127 6 101 25 30 -63 -39 80 61 19 -15 25 113 -67 -52 8 9 -102 79 107 -79 -14 34 -73 -93 -118 95 124 30 -58 120 115 73 73 -92 -99 25 -19 16 -124 13 -65 96 78 105 -49 49 66 -104 -46 -65 114 14 -61 125 -104 71 124 -76 -48 -34 -74 106 -121 -30 78 -27 5 -19 -13 121 -44 -93 2 -113 21 -93 10 -104 103 -20 -51 81 115 -49 -83 -126 87 14 -96 47 56 0 48 15 -126 90 -122 73 -101 -16 0 -79 97 90 -3 15 59 36 78 6 96 105 62 -51 112 -39 -96 -30 57 23 -127 -20 25 104 -57 -110 108 62 74 -46 43 -11 104 122 102 78 21 -33 40 -88 13 111 55 -38 65 -39 108 101 13 9 42 6 12 35 -98 30 -1 95 92 75 58 122 -65 58 -84 -19 -38 -8 -115 -76 -3 21 -28 71 71 78 77 8 -28 -113 50 -121 18 15 -49 -123 -127 -77 60 -20 22 105 -126 -18 93 115 -94 -63 -70 -106 -81 90 13 -79 -6 -63 97 -89 24 -16 97 -33 71 -12 -25 -35 111 97 100 10 -43 27 82 -67 -83 75 -72 87 61 22 -77 99 111 72 104 -108 -56 -42 95 69 33 103 114 6 30 63 -86 -92 56 37 -110 -100 10 -126 41 98 -85 -39 82 -35 -52 4 54 -26 11 -12 56 -39 -63 54 93 60 -54 -76 -27 -40 125 -126 -71 -43 -127 -13 83 -95 -78 115 71 -6 19 126 -55 35 -89 24 -114 21 -34 3 -53 -109 6 -127 113 -114 42 75 125 5 31 32 -91 7 -104 87 -92 8 -21 -13 32 -65 -40 -91 -48 -49 -84 107 -79 26 18 -18 -80 -113 -54 -41 34 -6 25 -114 124 73 127 53 -27 100 -89 -70 101 -109 6 -35 124 60 32 -39 63 -21 -44 113 -86 51 -107 -25 -37 94 45 59 92 -46 2 63 -88 -93 67 31 23 35 65 -94 4 -23 6 120 -20 121 49 -93 -110 -3 -125 23 73 -104 92 -52 97 -103 95 43 118 64 -95 127 91 -35 -125 -119 -17 -30 125 -22 -40 -29 -20 -65 -31 99 -67 -123 -62 -49 -107 97 -74 -56 95 77 -65 -57 -106 -65 125 -117 92 89 32 21 72 -56 -83 58 -11 1 -43 102 61 -91 -54 44 -57 -117 -113 49 9 -60 -119 -25 25 -23 29 53 