41 -3 94 -4 -114 70 -124 -119 44 119 -121 -75 87 -8 -33 3 40 12 -76 -110 -74 67 116 -125 -34 -23 76 35 -55 -82 -37 -49 -65 118 125 9 -104 78 -7 -108 -23 -110 -39 -63 40 71 -18 106 88 35 117 72 35 -64 -16 94 -83 -121 10 -62 -115 -74 120 -72 -64 -3 -96 -124 15 -10 117 108 0 -112 51 -23 -13 31 4 88 19 46 -88 49 -92 116 123 -84 -116 -18 107 -40 6 61 -78 -28 20 -20 61 -10 -49 39 -13 115 -78 -69 59 -82 25 -47 97 83 -4 103 44 -46 -31 61 -121 33 -104 -116 -108 11 -86 -87 13 -87 32 57 5 12 33 88 -97 104 65 -16 126 -87 122 -16 15 122 -57 3 -12 -46 112 103 -81 -37 123 -101 16 -112 -78 106 107 -80 -103 -91 -85 -66 102 -9 -45 -57 12 100 -86 31 119 -63 -8 107 -34 -9 -28 -115 38 54 -19 58 -66 -89 89 -3 78 -48 122 3 5 -75 40 -113 -82 -124 -111 -122 18 85 -35 -47 -112 40 50 -120 16 16 15 41 -77 78 32 22 121 -106 -76 125 -98 -69 38 103 88 -38 -121 -87 -27 -114 99 54 -112 3 82 38 -121 -23 -93 121 -99 -112 125 81 37 -117 -119 104 111 -112 5 -92 -89 -42 -107 94 -78 -121 -3 69 6 -91 -71 -51 -68 100 -97 41 -79 31 61 111 53 -52 84 33 -120 -34 -98 -2 -115 -21 31 107 9 -73 -10 80 -3 7 37 44 -58 -72 -14 127 51 8 10 109 20 100 27 4 26 -4 -49 85 -116 31 -82 5 -39 -83 48 22 103 -32 1 85 -44 55 -6 -20 108 27 33 -86 32 86 75 4 35 -50 -49 83 -26 -125 -29 -62 -1 24 -89 -89 50 99 109 34 -43 100 -126 -124 -120 -96 76 117 49 96 -102 111 88 -118 76 -115 -103 -44 116 14 -109 -45 -108 -75 -40 -117 -41 71 -99 -123 -96 19 -51 91 -68 -118 0 121 12 113 64 -9 102 -73 118 94 -1 -93 18 -30 -43 -8 -18 -93 -42 -55 -110 -120 -84 44 -111 78 -87 69 21 91 57 -37 62 2 -99 28 -39 41 -57 102 -10 56 115 25 78 94 19 36 -55 8 86 -77 9 -75 -71 -106 113 112 105 -24 37 -16 -13 74 6 114 -22 112 -73 30 93 105 -84 -88 28 -67 -127 -45 109 -70 115 -89 95 -127 -41 -49 -55 48 -113 114 -58 -98 -126 -7 -26 -109 -97 -104 25 -120 -48 98 34 6 -19 87 -85 5 -104 -23 127 9 -81 -101 -26 -47 24 -56 -104 94 80 -76 -5 -40 43 -13 73 66 -116 -38 52 73 -10 -119 37 -75 16 -65 -21 83 -110 65 87 65 6 -53 -107 49 66 106 -107 72 7 127 92 -16 -57 44 115 101 21 -70 -118 101 3 -38 -89 -110 5 -84 -110 -93 109 -64 -1 117 -105 70 -95 36 34 46 -45 -63 106 120 81 -59 -79 -70 20 -47 1 -100 35 -15 14 45 -39 -72 -47 54 126 -46 124 -74 113 -20 123 -70 -114 25 47 110 -19 -45 -123 -94 -77 2 -27 33 -104 -21 -19 117 7 -1 109 -36 123 40 37 7 -102 85 123 64 48 -82 94 -84 -84 92 -70 109 27 -27 94 -61 -54 -113 -25 -105 -35 5 122 51 64 -8 -118 28 77 -76 49 23 123 123 -41 -10 89 126 -31 39 -59 65 -114 40 -8 -49 64 100 -67 -84 -124 -58 96 47 -42 -67 -16 5 -74 62 41 -94 52 -105 17 -54 -51 47 -6 -83 -84 24 -127 50 -6 -9 84 -54 -120 96 -15 93 -109 -70 110 64 92 39 -24 -64 -105 -1 115 75 -93 -18 -53 -107 102 -65 -109 -115 -42 -78 105 -122 26 -99 -120 -100 43 58 -5 -113 -36 77 39 -73 -116 -18 62 7 -57 104 25 67 32 -109 -26 -26 95 110 68 68 -93 -17 -52 116 -61 105 80 -41 -6 -114 116 45 -99 12 39 -16 1 64 -95 91 -55 64 26 -95 -93 -9 103 -117 6 -88 17 -106 111 91 85 8 96 16 -8 17 -96 0 -5 55 76 -32 54 100 -107 65 33 -94 16 -90 -63 116 -53 -73 -83 97 -75 -37 -3 -5 -17 105 -125 -23 -108 -68 49 17 113 -16 78 90 48 78 -37 63 -24 126 69 27 112 -63 75 20 61 -30 -50 34 -3 75 59 -69 -64 -4 74 58 -45 -35 -1 28 41 52 60 -53 54 117 43 -15 60 77 37 52 -28 48 -99 -101 25 -100 -82 -14 1 48 126 -14 -35 -124 119 -69 -14 79 -97 96 35 51 -42 -45 -77 -3 -116 -117 41 116 -108 -111 92 -57 27 127 56 100 -19 -67 64 65 -101 115 -123 -85 30 72 -63 -7 -36 -81 117 -55 44 83 32 69 46 106 -65 84 72 66 12 39 -99 -49 83 -7 -66 82 -34 -30 112 74 -88 -109 106 118 -46 76 72 -84 44 -63 -76 114 -12 -100 -80 40 -9 -4 -34 -48 -44 66 -115 -92 54 -28 42 -13 111 106 82 24 -71 109 -14 112 91 -99 22 -97 49 54 -65 46 10 -55 46 -6 60 -87 26 -52 -126 -101 101 -70 -11 89 46 39 63 94 25 127 76 -44 -27 95 -56 53 -11 -6 -118 -27 98 -123 126 -124 77 79 9 -10 -120 -99 -117 -127 -39 59 5 16 -40 -108 -109 86 36 -34 81 -17 -45 -85 -31 87 -101 -96 23 -107 92 87 70 -67 16 -3 -47 42 -112 77 -63 -62 -94 36 -127 124 26 -25 -3 103 -82 18 -125 -53 -75 34 -82 -7 76 -13 -19 -9 -1 110 -33 -82 -37 -108 -34 -64 -20 -110 58 49 -85 -93 28 52 -101 -1 -94 111 -125 -31 73 92 7 90 3 53 17 14 49 -112 -90 -92 86 -51 94 110 124 -38 -110 104 113 -95 -63 -90 -120 35 103 73 -114 -104 -61 93 -8 55 54 31 -43 124 63 -32 -72 -39 -32 90 -43 -29 -89 116 16 -109 3 -27 64 40 -22 35 45 97 -100 -12 -116 87 -104 -28 -62 32 -53 13 -121 29 35 -42 107 45 1 52 15 125 -108 89 -40 37 18 -127 -23 38 93 -9 -114 -70 -63 92 -96 -58 -119 -127 122 69 69 22 -87 55 -102 9 -127 39 -90 9 122 109 58 -19 -86 61 -55 -89 -117 -85 46 48 114 -98 -38 -64 62 -105 -50 -85 66 -87 88 120 36 -104 -123 -124 61 -16 44 -109 113 -18 -126 -33 42 -61 18 15 -51 35 50 46 33 -119 11 94 55 88 -8 -104 -16 107 -53 58 -40 43 74 41 46 -65 -4 40 -108 98 -125 -63 -116 119 102 -19 -62 42 -27 47 -34 -18 122 -104 -60 81 81 -111 108 27 6 15 104 -81 -46 -121 114 113 -61 121 3 -121 13 6 -99 -62 -22 92 17 -105 7 -40 41 51 77 23 81 -103 44 -114 97 80 -20 -9 19 -71 -33 93 17 28 -65 -62 -44 16 65 -16 -95 7 -85 -76 24 -60 -54 -90 -29 8 -93 39 127 118 79 62 -75 -40 -107 -36 86 11 11 18 -113 -1 61 -47 51 -66 -93 -62 25 -47 -26 16 67 61 88 -14 43 22 56 -32 61 101 -27 -12 -51 79 -76 43 -58 -71 118 115 50 75 44 -89 37 42 19 42 66 59 44 11 -99 93 75 9 58 -120 72 -36 75 124 4 115 65 -90 -99 120 -39 4 77 68 118 -14 49 -16 94 24 116 12 1 36 112 -121 -26 125 -10 65 -101 19 70 -39 -49 -48 -68 78 61 -125 -116 20 -41 -48 8 71 117 -107 -39 -41 112 8 -63 121 107 9 105 73 125 -70 -3 -78 -4 9 -23 63 115 36 -115 8 -44 -90 -45 -124 -55 -100 -44 116 96 10 -115 -13 -82 87 20 -36 22 121 -17 -2 69 -50 35 -89 65 -89 16 -17 108 38 -122 -73 -98 49 -114 -54 -28 19 -16 117 -108 68 51 96 -77 27 105 119 114 112 15 98 71 93 -75 39 84 -83 -64 5 72 2 9 123 76 -108 88 125 91 -14 -104 88 -114 -118 -2 -53 -10 -105 29 -106 65 -98 37 -2 -115 72 106 -73 22 20 47 -124 124 41 109 104 -14 -80 115 35 50 -61 117 5 -113 31 -20 75 -5 -87 115 -37 117 47 -8 -72 -114 -76 -50 44 -25 15 11 -100 -41 20 58 64 119 -63 113 -60 29 78 5 -68 32 126 76 81 -59 -44 85 51 29 81 19 -48 50 67 -29 -8 38 41 97 75 80 -24 -10 -66 104 -108 -22 -12 -92 -63 -64 -23 -12 -60 -25 -3 -3 32 52 -23 41 -40 8 -80 19 7 -28 -87 -81 82 -35 127 55 83 -75 -7 -53 -85 -74 -99 72 -9 -84 -69 -9 -14 59 40 114 92 93 -84 30 -89 -74 16 -119 57 -56 100 53 121 61 89 -47 79 69 -21 -72 -41 104 -105 -53 -22 106 -28 77 71 -38 -54 -88 117 -41 94 -108 18 94 46 95 -59 12 69 118 90 -59 95 -61 -89 -74 38 -55 -113 -79 44 37 -46 90 98 20 63 125 44 112 110 94 -4 -106 13 -53 50 -47 -97 -22 125 -105 4 14 104 36 -88 -13 53 63 87 11 77 92 -26 119 -48 -79 -29 -88 49 -77 -110 -125 116 -25 -119 76 35 -4 -72 -58 67 124 100 70 125 -24 -12 52 -50 -58 119 34 53 4 45 49 -30 -121 122 68 68 42 29 -37 112 -114 92 -51 -81 17 -85 -104 122 38 -122 61 40 -47 -104 55 -127 97 -27 81 109 42 -57 -10 -95 -43 -121 -57 -21 -83 -104 30 114 -82 62 85 120 -45 98 89 -78 -107 -41 58 40 -46 92 59 37 78 -34 94 -104 -14 -1 53 -11 61 -92 38 -61 22 -70 36 51 -29 3 -16 -109 105 -51 -67 -49 119 -101 -67 -119 -103 -121 -60 -65 28 8 51 -98 32 119 77 70 42 21 122 -78 -23 18 63 62 -38 59 -92 99 -63 -35 10 -83 -93 122 122 71 66 -98 -37 107 22 15 117 -111 -58 -15 -40 97 48 121 -35 -104 117 -15 -51 82 -71 98 -88 16 90 57 104 -73 28 -18 30 -62 -21 -50 25 -3 116 -88 33 7 54 -21 53 32 104 -113 62 15 73 34 -63 54 35 -114 -24 -15 -90 -114 79 -104 -90 -91 -42 -113 48 47 115 -39 39 74 -54 -2 99 9 15 -81 88 55 -100 -86 -37 -38 64 34 49 41 -37 -119 44 114 -36 34 37 41 -20 52 48 18 18 -111 -54 -123 -7 49 -123 -10 -7 -63 -49 61 -16 -1 58 38 11 76 