-114 -115 -67 -7 9 -87 -127 -1 6 -103 -75 -75 116 109 66 -38 -105 68 -64 41 88 -39 -10 103 40 -71 5 112 -21 -37 -28 99 -34 0 63 -73 39 42 59 30 -57 55 19 -119 -13 -19 28 -107 -38 -52 -8 5 -77 -78 -124 63 114 56 -20 57 -14 93 -99 95 -24 -88 -20 -65 -63 -60 44 -10 3 -95 11 -57 72 51 -4 37 -82 7 -86 -11 36 -59 -17 51 1 -69 33 -36 103 -118 -18 51 -4 93 -124 36 7 -96 84 26 -111 -60 -11 -106 110 -75 8 -14 111 49 -94 116 -103 100 43 -68 60 -70 114 -5 68 19 96 -8 25 38 10 -91 79 112 85 -60 -44 13 -6 -105 -121 -110 -114 -39 78 -87 31 -126 73 -96 24 -66 42 65 -32 14 -69 107 -16 113 -63 69 -118 107 84 68 -49 -99 -49 -122 39 23 106 98 110 -45 -62 122 -105 -40 47 2 98 20 111 -97 -101 -31 -109 -26 -7 -70 109 -62 106 -125 127 -31 24 64 77 -15 18 81 106 44 -99 12 19 52 -83 -72 -21 87 49 85 -104 -123 -32 16 82 -82 -41 -14 -4 -84 9 77 -106 -57 -77 -75 50 15 -42 -119 117 90 -15 -117 -13 -3 -90 91 27 -43 101 72 108 32 51 -119 -41 -63 80 23 -53 -112 116 29 50 54 73 10 -104 -47 -95 -122 14 -118 26 94 -48 -63 85 -118 -54 12 32 100 -28 67 74 -59 97 -23 90 -63 -124 88 -93 123 12 -21 16 55 107 -17 -111 112 95 11 113 -102 95 46 4 0 113 45 -81 -105 9 58 27 -117 -43 -38 94 49 -114 125 -84 88 11 -127 20 69 44 -40 76 29 -97 -92 -14 -80 -79 -81 -65 14 -4 -45 -114 -19 22 122 -86 124 -7 -82 -29 -12 56 1 -108 -127 127 -38 -83 49 -70 91 -26 -33 120 -16 -59 -101 83 -83 -109 7 -9 118 -93 10 93 -82 111 -118 8 92 52 -52 31 -28 9 -97 -52 70 -17 104 -23 10 -86 -91 71 -89 102 72 58 -51 -10 -4 -31 112 35 -32 85 -66 -43 29 -98 104 -1 -121 51 -44 -96 36 26 91 -77 -18 -44 24 53 -48 -32 -67 -99 -29 57 -82 -37 -19 9 -46 22 -110 -21 102 -4 -41 10 -50 102 65 25 113 32 16 -21 -122 70 -113 -93 -107 21 116 -2 58 1 -62 -106 -31 23 74 125 -79 33 68 -115 -2 -19 -77 -40 55 -110 -94 89 37 -91 51 14 -83 8 40 -116 34 -47 -29 -65 -37 -17 -78 95 114 102 -44 58 -91 113 22 -103 115 83 -93 -98 -28 -43 35 122 112 -95 -20 -100 93 12 -44 110 -88 30 -91 90 -117 125 -14 47 -102 119 -60 58 1 -118 -59 39 -24 47 50 22 -120 117 9 -27 46 127 -117 97 47 68 -12 -103 -45 33 66 94 -61 -103 -68 -105 108 30 -113 14 -74 104 46 46 -5 28 30 49 101 69 -26 77 -75 -101 -67 -71 71 -23 48 59 50 70 -100 -111 57 18 -38 80 -114 29 -48 -99 42 122 40 -73 -121 115 92 42 -101 29 -3 65 -123 -90 102 79 -124 -90 78 -66 27 -108 -97 13 -12 44 122 -14 -54 -31 16 104 -125 -36 -114 -37 -65 -70 -97 -95 -117 -67 -5 46 -81 68 28 -5 48 -105 -126 11 126 -88 -101 40 -51 67 -117 86 124 -84 102 -13 4 44 2 57 22 -94 99 38 27 5 69 -113 127 50 53 23 125 119 -89 30 85 -94 125 104 63 -85 7 11 94 -94 -43 40 -92 23 4 50 122 -101 120 98 80 70 -66 36 -82 73 71 -62 75 92 81 -125 98 99 15 -52 78 88 -115 118 -50 -15 -48 -44 60 83 -106 -40 -46 -50 13 -59 59 -12 -89 41 -16 75 28 -113 -79 -35 -27 -7 -115 -55 10 -44 90 -37 -65 -16 -102 92 -69 -89 -2 30 27 36 35 -115 83 -122 56 -74 -2 -115 -95 8 -42 11 92 24 -121 -56 -53 -92 -114 126 74 -76 -77 97 71 62 4 -28 -59 1 -64 127 46 -39 -98 63 -122 29 -47 46 -104 49 -56 -44 84 -8 16 87 -14 -14 -112 1 -125 57 15 1 24 32 116 -75 -11 -38 -36 67 -121 -121 85 -121 30 90 -19 -50 -94 -5 -74 -11 120 21 -68 20 51 -14 -79 -87 70 -47 -3 10 -90 -58 -67 -9 55 72 -10 26 8 73 -119 92 16 -60 32 -126 -44 -16 -17 119 52 36 -102 -47 37 -28 -36 -33 -63 -94 79 -74 96 -16 47 -95 -100 -29 12 114 97 -20 -82 23 -89 42 84 12 -99 103 -14 80 -48 -109 117 -87 -118 -93 -92 57 -107 94 -57 27 -68 86 76 -3 103 -86 32 75 -55 -88 -66 -42 -126 112 -91 -86 46 40 60 109 104 -41 49 65 -52 66 15 123 94 11 -60 -53 43 -95 -120 66 -36 72 -127 68 -106 -80 -27 -91 67 30 81 36 -2 -23 125 -79 124 59 -113 -32 -46 31 112 86 80 81 -74 67 -44 -107 -39 61 80 -25 -21 -86 86 -87 -1 -104 105 -64 6 79 42 -109 39 87 -88 -46 78 94 -43 -107 3 111 19 -28 74 -5 93 -39 81 11 -19 -38 0 -70 65 -52 -86 -4 18 80 -100 