-83 -59 -103 -42 110 13 10 35 40 18 104 -43 53 -39 107 -3 -9 -74 -42 80 -66 -44 -58 117 92 81 -69 -16 -57 107 -124 -48 84 -78 -10 114 -61 -94 -62 -74 51 36 23 26 38 -114 2 102 4 -59 -39 31 -88 82 89 -91 -73 37 36 -119 126 -15 84 -13 90 -90 127 -114 43 31 -74 100 -101 -107 -123 27 -126 -88 -126 -69 126 -72 37 113 53 69 -93 77 103 87 -98 97 -43 -103 -42 -76 55 71 -23 114 15 -120 -21 100 -26 67 -78 -108 102 74 -71 121 -102 84 -19 41 -62 22 99 -11 68 14 31 112 15 62 5 33 33 -8 -65 -23 94 -103 -55 5 117 -84 37 119 -117 -51 -118 31 -78 -20 15 -19 65 73 -112 -10 -50 69 88 6 -123 -119 -110 -98 103 -9 -95 45 -119 -103 -111 31 -97 -38 -28 19 -106 -79 -106 43 33 85 -53 -62 21 44 -64 49 -105 -49 -5 -27 39 -44 28 -7 -116 102 73 -106 -120 -121 75 -11 -43 -77 -116 121 73 109 -18 68 -31 48 84 -21 -21 -90 107 113 11 -1 127 61 67 104 92 -115 59 -100 26 65 -71 -92 104 -17 -118 -124 56 46 -45 29 27 -12 98 -57 -92 126 -81 125 73 89 100 77 80 -97 -117 -91 98 -35 -87 16 108 -55 91 -125 111 -127 29 -103 -125 29 -34 18 -124 104 -98 -116 -23 -115 -66 -32 -77 -18 127 13 55 11 -106 -102 -14 -68 66 118 113 24 80 -56 115 -91 122 -118 -11 -43 64 -95 -93 -29 -68 77 107 50 -77 31 -82 -114 -24 -26 12 -55 -42 103 92 -68 9 -74 -57 125 -61 -110 -83 -101 -80 107 -37 -89 -120 58 93 -11 83 124 24 -16 -39 119 -17 -125 -75 -80 115 39 30 -5 -74 41 118 7 76 23 -21 -103 45 -63 101 -79 2 -123 -74 50 4 -8 -97 -92 17 91 -35 -93 33 17 -35 -20 -86 -26 71 114 29 78 29 38 -53 65 -46 77 -84 70 86 34 -46 94 9 73 72 -91 21 -117 -28 84 46 -44 62 98 90 17 74 56 109 80 6 -56 -123 29 89 27 101 108 109 -4 105 -21 -110 103 40 -23 82 -52 52 17 -5 -109 12 20 31 15 -85 127 -28 111 -39 -70 9 76 49 5 113 114 -50 64 -20 -23 -101 -74 -30 -17 -14 67 49 3 -98 97 -77 -58 103 119 29 101 -95 13 28 86 122 -6 27 -64 -91 109 12 70 52 58 -126 1 47 -110 66 -63 -20 -13 -35 69 -19 25 -103 115 -46 -4 67 -35 -41 97 -116 -39 -76 -89 121 53 -84 53 65 -18 20 -57 26 -11 -74 104 -105 59 110 125 -50 -33 -62 -96 -118 110 -51 -28 17 -48 -57 101 70 -46 -19 -46 22 19 34 38 122 -20 40 67 -42 -87 -86 96 37 25 112 62 111 74 36 -112 -9 14 49 7 126 10 -93 76 -32 -91 61 80 -56 -27 -87 -15 -57 53 84 110 32 29 -73 116 -78 87 54 10 -64 -50 -65 -111 76 102 -28 -124 0 -68 26 56 113 113 -105 111 3 107 64 58 -74 95 37 -15 15 -9 -80 109 -44 -8 -107 41 -61 -55 -112 -12 -54 88 -51 43 112 80 -14 104 127 -113 115 51 124 -29 -95 114 17 -49 22 -77 4 54 119 -29 -46 -6 80 -33 -49 27 22 13 -44 -122 92 121 106 -54 27 -26 -13 -57 -70 -38 -49 17 35 -24 88 -54 -114 127 -85 -5 -59 -74 -33 53 125 -110 33 50 -95 30 0 -110 91 76 -122 44 -74 -35 84 -34 0 -70 26 -32 -1 -82 36 109 32 -52 -69 -8 107 -64 -119 46 107 29 -40 110 -101 -69 -119 -73 -99 91 28 73 58 47 -49 -23 105 83 -117 -116 29 69 32 32 78 72 -24 4 123 28 27 0 -19 -30 -33 113 20 -70 -4 49 -54 95 50 115 -9 15 -84 31 35 125 5 20 118 -79 -8 2 -73 -28 -59 20 -57 19 -114 100 62 -72 72 -123 13 -8 78 5 99 -71 -67 28 62 -84 -21 55 76 -12 126 69 -103 -13 -84 -117 -64 -66 -89 92 -25 -86 113 -87 2 -43 -37 90 -51 -16 -8 11 -59 89 34 84 56 43 11 15 13 75 118 -73 -86 88 -118 -57 32 -3 3 -86 -91 126 68 97 -7 -102 -66 84 -59 -15 27 41 49 78 -79 71 -16 53 -23 28 30 -107 -78 102 -54 -21 85 70 103 -85 116 -118 75 20 13 -41 -94 -17 -29 79 -45 57 -55 -12 8 -29 111 56 -16 32 -32 -81 78 -23 -89 -116 -91 42 -37 -108 -80 -95 102 98 90 91 72 90 123 -73 -14 -32 -23 -99 -62 -116 -5 -43 30 17 -12 -19 -112 -49 54 72 -61 -48 19 -123 69 -91 -118 22 -44 -70 -76 -94 100 107 -101 7 39 73 109 64 12 -83 13 33 -107 4 -78 -56 112 15 20 113 126 -122 -15 8 42 124 101 54 49 61 87 -63 75 41 98 -124 119 41 -52 -40 47 91 41 7 -5 -16 -2 -11 104 -68 -56 69 -108 -68 48 -122 -50 23 -8 16 -28 -16 79 -91 -54 -35 68 88 40 -56 -72 -112 -72 -105 80 -82 63 91 82 20 -71 -3 86 83 36 -82 