-9 119 -28 77 76 53 -81 -68 -72 -14 -3 126 101 -28 -41 127 -55 -88 -70 42 -51 -115 -33 -20 -12 -36 -116 -119 47 20 -46 100 35 -60 84 -71 124 81 124 42 12 122 41 21 11 -120 -88 2 -5 -39 100 -106 -100 18 -17 -27 107 -30 125 32 34 -42 -16 -50 -27 -34 15 93 -34 -42 -77 59 5 -98 -39 51 -72 16 -43 -7 -34 119 -37 -76 -26 -49 -109 14 82 75 -54 1 43 -86 -89 40 -95 111 116 -118 -13 -40 13 -48 96 40 68 68 -3 -81 58 112 113 119 84 -42 -100 -27 95 -86 -89 104 51 -53 -76 -45 14 62 76 -27 89 46 -29 48 127 10 54 38 -114 30 -46 59 -64 116 50 36 -76 27 125 38 36 -106 -36 16 -123 32 19 -12 94 -73 -4 -14 -46 -58 60 46 -31 -6 3 76 -126 2 -88 96 127 122 -115 -91 -8 8 -64 -33 95 -23 66 116 -24 40 -33 -82 -71 36 18 84 -95 -77 -9 84 -6 8 100 -53 34 -41 122 19 69 77 19 76 98 -100 -10 -53 27 65 -114 -97 -98 125 -30 11 22 65 75 88 65 -102 50 -106 27 119 74 -56 -45 -96 75 53 80 -37 38 -24 109 100 6 -12 -3 18 9 -101 1 65 0 -91 -27 -6 -90 -26 -82 -105 75 -1 20 73 11 48 104 -50 -7 -43 111 103 53 53 -122 -121 -50 117 105 -106 93 -64 59 78 -72 95 -1 -79 -119 44 -77 88 -86 -115 108 70 -75 -71 44 45 -104 -102 88 -69 -64 3 -73 32 39 -125 -7 -62 -114 40 -34 -76 19 32 -96 107 66 28 -2 7 -60 -84 100 -4 -55 4 -111 -98 -95 -60 20 -44 36 104 -21 55 -59 36 71 94 95 -5 107 -42 106 86 -25 73 33 -52 68 105 -18 -7 8 -2 108 39 -64 85 -23 69 -57 -65 122 92 93 97 34 93 -40 99 -92 -33 -87 71 -60 -82 -80 26 -9 -60 75 -64 16 -87 -98 9 117 36 -93 -57 -20 2 127 -85 123 -58 -55 70 -71 42 -15 -14 81 3 20 33 -28 -118 38 -35 67 87 -7 118 55 -21 -31 75 -44 50 58 91 108 42 111 13 119 -88 -76 32 -27 93 -96 -91 -21 40 108 109 -122 59 -55 110 69 -56 -41 107 -86 -95 41 -72 98 58 107 93 54 65 -21 -85 121 -57 82 93 109 -77 39 -96 -101 -109 71 -111 -37 123 -79 -120 -57 -17 -72 -121 -125 111 38 -10 100 -99 115 -105 111 51 102 85 59 117 121 97 56 103 92 -35 -79 3 7 -93 61 13 -77 81 -91 21 -112 -101 66 -124 -61 -18 109 -71 -116 -62 -35 -73 123 -94 -117 -99 -51 -93 14 34 30 112 -7 122 30 -52 -107 104 20 118 81 -70 -87 -111 -123 85 -114 109 61 -96 -57 91 103 -93 -108 40 56 70 65 119 26 -35 11 10 96 -123 -79 -104 -54 -120 104 31 -89 -6 -17 41 -89 -53 82 41 -60 -30 73 -11 81 20 119 37 114 16 46 -16 18 76 -28 -80 64 -28 -66 24 96 -119 76 30 70 -72 -81 5 111 120 28 33 49 116 29 97 -4 119 90 87 -19 -103 -97 -35 50 57 -127 32 110 85 -77 -101 48 -78 116 69 -73 -63 -113 -32 -53 -105 24 -24 -65 -68 -1 -117 113 -101 23 121 -19 127 -10 78 37 71 20 -52 62 -73 35 -31 109 40 -86 -69 112 -23 -126 -55 -44 -67 21 -30 38 96 38 31 -66 4 19 44 -73 117 65 -108 -81 114 -46 -22 -31 -86 35 -113 -15 -44 -27 -103 -101 0 -31 -45 -42 11 -13 -9 -107 53 -32 80 -99 -102 78 -115 43 -94 41 101 -51 22 -120 -81 34 -107 40 125 82 44 -110 19 89 -41 -45 57 44 -35 23 11 -118 -32 -123 -21 1 -43 56 91 81 -127 8 115 2 20 58 -67 121 -87 19 33 6 -16 98 123 -111 -109 87 122 -89 -88 0 -107 -109 19 72 -107 -54 -55 -85 36 72 98 29 -120 -11 80 99 89 -92 -96 -3 6 26 36 46 -109 53 -7 -12 57 -94 79 -55 -113 -11 19 67 -15 5 -92 -24 107 -3 -10 -13 11 65 113 113 126 -73 62 -65 70 -68 46 107 -93 94 78 -72 30 -6 -107 63 78 -106 -35 -72 30 -107 -42 -101 112 -48 75 94 61 -73 95 32 -116 40 -90 -45 -4 -31 -71 74 117 -19 -56 82 31 -123 30 -102 -7 -18 81 78 -41 98 103 -21 116 88 -75 -96 -121 20 -36 -108 -116 -63 36 96 84 -86 9 99 -112 89 65 -44 -7 42 55 57 65 41 -121 -97 105 -124 -86 20 64 -97 -122 107 -22 17 -122 111 -40 -64 -8 46 17 47 -64 52 8 -33 18 -50 -82 31 99 114 79 -28 -125 -71 -123 45 8 94 -39 -90 -40 -87 -44 -34 61 -112 -126 29 36 -94 117 8 78 -55 -97 -66 -124 -29 46 -73 -89 43 -10 91 22 -40 21 105 116 -60 -125 -24 54 19 81 -77 -10 -13 122 -119 -112 -45 20 -57 -28 -83 -80 -118 21 -38 -84 -64 20 91 -64 0 107 -16 98 36 11 -34 -41 -83 93 -42 56 89 31 -25 23 -83 113 8 -6 -8 -126 27 -124 16 -19 73 -51 -93 -11 17 56 -33 121 -101 107 74 20 12 -17 114 110 -116 69 -104 15 -29 71 21 1 113 101 117 -62 -5 97 -59 51 61 -77 41 93 -115 -97 -110 78 -91 117 -43 -108 100 48 110 112 -90 15 -25 71 -126 -121 -54 120 -113 -54 107 -82 8 123 -76 109 49 -124 75 -62 -31 110 -14 -2 -54 -85 71 -126 85 103 -46 84 -75 -101 97 82 94 70 -81 84 17 -34 97 -84 -7 -88 89 -107 -26 77 37 67 -56 76 27 33 -126 101 -63 59 123 -38 -13 -29 32 -104 21 68 -14 -72 -120 -43 22 100 9 -106 91 -110 -118 -17 -69 -95 5 109 -2 65 -113 54 11 68 121 28 -6 7 -18 -19 96 -89 -30 30 27 -78 -98 68 -113 60 64 100 -48 61 -4 -88 122 23 -82 -63 -11 60 -103 68 -29 121 -52 -38 -67 -93 -29 -2 -3 -108 -37 -93 100 75 -24 -82 -81 -63 -75 -99 -24 -20 -105 58 120 119 1 4 63 113 25 103 23 76 44 -28 -120 109 65 -120 59 -65 72 83 -9 -72 123 -22 -28 94 46 31 -43 104 -38 57 21 73 -34 -64 83 -30 117 -24 -85 -24 75 81 36 46 19 121 120 110 -15 105 -39 120 33 27 22 -77 -83 76 32 -109 44 -75 101 -38 7 24 -26 -125 -84 -115 76 112 7 -15 82 -47 75 79 40 -46 117 10 -58 22 102 -62 12 -84 12 29 26 66 -16 58 -95 51 10 -3 99 -104 -40 -66 19 99 100 -46 -82 118 109 -24 -48 63 8 4 11 107 107 70 10 -27 -46 17 64 82 39 -54 -28 -48 36 -85 100 97 70 33 125 4 -33 -59 -68 -89 76 -95 68 -69 -81 54 -121 -116 27 -32 -3 -91 54 -109 21 124 23 115 -29 -26 74 -7 -75 16 -63 60 -60 18 -103 66 0 -78 -71 59 13 85 42 -86 1 -22 -36 95 -16 64 -70 23 -125 -107 -39 8 22 93 -6 79 -50 7 105 -42 -44 29 79 10 22 -13 -95 -37 53 2 -17 68 -87 98 -29 76 47 -97 112 -82 -5 69 -84 7 61 25 -9 -46 -64 22 85 -110 16 -30 63 -16 -84 -111 -83 -100 -96 -87 -25 75 -59 22 -71 -112 81 93 -50 16 -97 3 -111 -34 91 -72 -120 25 -6 -59 79 85 20 120 -69 99 -92 -81 66 52 84 95 -111 61 -122 -22 96 69 13 -28 95 -16 -80 -118 -51 -117 98 -42 -49 -6 111 -116 -7 82 35 -51 71 10 52 -5 39 105 34 -62 -26 108 24 -72 60 -49 -127 82 44 -68 120 72 45 17 96 59 125 64 117 20 -80 -6 -43 50 -108 108 -102 -99 -98 -75 69 -127 35 -25 -101 -72 98 51 23 15 34 36 82 -119 -83 115 -79 29 -83 -64 -78 -127 -16 -76 49 71 58 103 -38 123 88 -4 -75 -45 19 -38 41 35 -5 9 56 -125 36 -7 -109 -24 51 -67 3 -47 -103 -107 116 50 -117 -71 -50 18 -78 12 10 -25 -90 -40 -102 -11 44 105 68 -81 4 -93 -113 -22 -34 122 108 74 -57 106 55 -62 -48 45 67 28 -99 47 -15 -98 35 116 -87 -8 70 16 -85 -9 -70 37 -56 15 -46 56 -26 48 -101 123 -23 -120 62 33 31 53 57 31 -125 59 -106 -107 -94 50 54 -90 -58 -43 63 -9 -80 82 94 50 68 120 -106 23 -61 102 86 -123 -123 59 71 -85 -38 -103 118 -124 76 15 -39 -93 -55 1 93 6 68 -31 -95 -37 56 125 15 -78 -24 -122 67 14 38 -44 -36 19 57 4 39 72 58 51 -118 -63 -4 91 -29 -95 100 32 -113 121 -100 -112 -28 80 -117 25 -100 -26 36 31 41 60 -16 -38 114 59 -30 104 127 -78 -81 35 108 46 5 -118 -89 123 -39 69 96 -56 102 -85 -122 44 -60 -104 1 -91 31 -47 20 -30 -36 -4 -23 13 46 -34 27 109 30 -76 -84 -53 -51 -20 -127 116 23 113 -50 -40 54 26 -10 -113 14 -4 -39 -2 -57 -88 45 -126 8 -50 -77 -11 -95 -38 113 43 -82 80 74 8 -35 -22 67 -9 -110 117 -49 55 -55 3 16 56 -47 -3 -53 66 -11 -96 94 -32 -111 -6 -18 64 62 -117 -4 9 41 -37 70 44 -30 78 110 -113 5 91 44 120 -105 -47 -64 78 113 -52 -21 87 -28 9 -108 -104 -69 -80 -71 -118 75 94 50 93 51 83 26 -43 -45 80 65 21 -113 79 92 -121 100 -37 92 12 -86 6 126 -19 -97 -31 22 99 24 84 -76 -36 115 12 66 -101 124 4 -46 58 -23 56 -115 -111 -87 -90 4 -64 84 99 -20 28 94 -89 81 124 113 118 100 13 120 38 -33 57 -75 -118 18 82 72 -104 126 -34 -89 99 -42 115 -29 -88 0 36 83 -95 30 84 -7 -23 95 -75 56 -2 63 75 6 24 18 -126 -109 127 116 110 99 -27 -71 -18 51 -104 -95 9 -59 99 -117 -72 71 50 11 -86 -96 15 -115 59 -22 4 -80 -98 -41 -36 121 -118 13 -97 5 118 50 30 -87 7 38 26 -84 -65 85 -67 127 -90 93 55 90 110 -105 99 91 88 42 49 -12 -97 -72 -44 8 -57 119 -124 100 -102 62 62 -25 117 -73 9 -124 12 40 -11 -122 54 -114 107 55 15 109 -97 -37 -75 56 1 -22 2 -110 -96 -79 101 -124 119 124 54 67 119 -14 -63 126 -79 105 -26 99 29 -69 31 21 -81 -105 -114 49 -21 -32 91 5 92 -43 19 100 38 -97 -100 101 -91 41 26 -91 21 -109 102 55 103 -90 100 106 72 -89 66 -4 87 -63 -72 -124 41 -58 -46 123 56 -38 -26 14 11 52 81 -93 -43 -113 72 -15 -88 58 11 84 -32 53 -112 104 64 -58 32 -20 86 72 69 29 -15 -53 10 -88 121 -100 0 -122 49 -75 89 22 57 10 -95 70 123 52 86 -97 127 50 -92 113 -104 -69 -71 98 83 -75 -122 -55 40 100 -64 60 78 42 -84 61 -13 -57 92 27 -84 68 103 -54 15 30 73 117 -35 116 -67 62 46 26 -26 31 -51 -88 -44 112 -77 69 16 75 -96 -60 -57 35 49 -36 75 56 15 -27 -111 43 -43 77 -75 101 -72 7 117 103 -68 80 75 77 77 -56 -96 42 -17 -114 -126 -62 58 -17 -84 92 -22 59 19 30 36 -11 115 -73 -121 -27 61 59 90 66 122 127 -100 74 102 109 15 -62 -48 122 -9 -57 -10 118 5 -64 -16 127 -17 -51 -49 -5 26 -46 -104 93 113 -1 70 -96 -63 109 34 72 -119 -11 56 49 18 -127 97 -4 114 -103 -62 -125 -30 -32 4 -51 23 77 42 8 -42 26 -26 -46 61 -108 -85 40 -16 -58 12 28 -61 59 80 -50 81 92 68 -99 70 -88 86 108 -5 127 126 -19 -127 -69 61 -81 -81 -50 69 -112 18 2 104 -100 61 -59 -81 60 -24 100 -66 38 28 90 92 45 1 -26 -33 102 71 75 -43 -57 35 -3 -122 82 93 -75 -15 91 29 -100 48 4 -56 -72 6 49 47 -62 119 37 94 67 55 -11 40 -101 -63 36 117 125 40 51 -118 -83 -41 -86 -127 -9 122 -112 -98 -96 86 -61 107 -116 -108 -126 -110 -108 71 -54 -6 43 -63 34 -68 64 -106 -55 -108 90 -69 80 115 50 89 123 -88 6 -54 27 113 -14 93 -10 -8 -11 -88 -78 -60 44 36 40 -38 -89 -115 115 -95 37 82 -91 96 60 117 85 -59 52 43 13 86 -76 -106 -28 -70 -102 62 -89 81 79 -60 3 -86 108 -47 -47 93 -45 -121 41 -73 -72 84 122 124 -68 94 65 -34 -14 115 -96 95 12 -15 -43 80 97 -23 116 -93 -5 30 -64 -1 -65 70 38 -52 -105 -114 64 123 0 39 -61 107 107 74 57 -21 86 96 76 -80 91 98 92 -13 -69 -103 50 -118 -40 -68 -83 -6 -14 17 79 85 -81 -67 56 92 -68 -82 -79 56 82 116 41 111 101 26 -35 -68 110 119 -8 18 109 -84 -56 -102 -90 120 56 127 109 -10 108 93 110 43 -5 103 123 69 -125 -112 54 -5 -115 -87 -11 -1 -86 13 -28 3 -99 -104 71 78 -53 41 -74 -77 -74 113 -86 23 -13 96 -26 -97 -105 -121 32 -111 -109 122 -55 32 124 82 -32 74 -43 6 121 -82 -74 -119 -70 -85 56 -78 90 70 -12 119 100 -115 80 59 24 42 -20 82 -65 100 -41 -108 -88 -74 -93 118 84 -127 -60 11 96 -62 72 -35 -7 87 -118 117 35 97 -5 110 -68 91 81 64 125 -37 -54 -20 59 -102 20 52 -1 105 -124 53 19 -122 -28 72 -29 94 -93 13 85 -88 117 -115 -103 -30 48 -113 -82 -108 116 -1 28 -102 -46 2 -16 44 92 114 63 50 -91 -33 15 -118 -77 -13 91 123 -125 2 32 -49 -103 -79 48 9 23 -90 -82 5 22 116 -32 -73 -100 -75 -115 -5 -86 73 48 -21 -107 103 -65 93 -78 -28 116 57 50 11 -122 13 64 -107 -29 -46 -49 46 -95 -96 32 -63 -5 69 -106 -60 -91 -92 -125 108 4 -94 70 62 -101 48 112 -36 -112 94 3 -64 113 30 14 35 -53 -83 -40 -97 -69 116 -40 69 96 56 -81 61 -102 119 54 39 54 -16 -40 -28 -104 94 111 -37 -116 -22 -50 62 35 37 55 19 -12 -92 101 46 -53 -18 -54 104 -42 7 -28 81 88 91 102 -1 25 59 -68 -81 -80 107 126 -14 -90 -120 98 -102 -111 -86 -79 4 -10 -41 -108 -66 74 98 50 -8 -68 -119 -27 -104 3 -36 21 25 -122 42 -76 -52 -35 -98 90 94 38 -110 -6 81 -41 -56 -107 40 85 -35 -59 -27 91 -116 -46 -28 -11 90 -98 -123 100 74 -52 -55 -19 -15 28 -10 33 126 -18 -55 -30 -59 -12 -84 2 7 -48 100 49 -6 -8 90 -12 -58 56 -58 17 126 -78 58 -103 13 -80 123 105 -21 102 -59 48 -81 59 70 76 115 -99 31 0 81 115 -9 -80 -99 -90 55 -94 121 -88 -85 10 -11 -96 55 -100 29 -68 59 54 33 71 72 34 12 30 -93 -126 125 -24 66 4 -38 19 55 -62 3 2 -7 -53 -113 -86 -2 -78 22 -75 78 -62 51 -86 -125 118 95 -98 14 -111 -19 -37 87 -112 -86 -21 124 69 126 15 61 -40 94 -69 -42 61 82 -122 -47 111 -70 -116 86 46 48 76 32 -121 41 -40 105 -113 22 126 77 107 65 14 26 -45 106 48 71 84 61 70 127 36 77 27 -109 -112 -73 118 90 60 -46 123 -3 80 -116 109 -68 99 -106 -104 93 -15 5 7 116 62 -67 122 -119 -21 52 -119 -18 63 -2 -45 88 96 -102 -55 -24 61 20 -117 -125 94 -2 0 -46 2 -121 -48 -35 -45 102 4 77 56 20 -44 72 -1 104 -4 -99 -37 112 -29 -10 -127 107 -38 112 80 -41 100 -47 67 29 38 62 84 -19 6 -75 114 102 -119 79 -127 63 117 -26 -35 -13 109 -125 32 111 -63 -8 -109 -76 70 -70 -73 -38 -66 -41 101 -91 -62 29 -45 114 101 -20 42 -9 9 21 -50 113 79 80 -35 29 61 95 -110 -40 34 -34 -56 -121 18 74 -97 -124 -95 -40 -41 -111 -72 98 -40 104 -126 51 -98 92 57 29 -127 75 -107 115 16 90 14 69 -58 110 -42 -37 -50 94 -101 -92 -16 -115 -35 -58 80 -108 113 120 92 117 15 37 64 97 -13 -61 35 99 25 80 -83 43 17 40 109 -103 -94 -66 -5 91 123 120 84 -27 -23 104 -116 -76 -74 62 -3 104 62 -94 -32 14 88 96 -77 -55 -122 -69 25 -40 46 -119 -86 -75 91 16 127 69 -1 -69 50 110 -38 98 88 -127 -14 -63 44 79 -78 99 -13 50 -112 -85 24 -110 63 63 -125 98 -81 -21 108 -89 -38 107 -118 15 -80 42 -99 98 108 -100 -112 -60 -95 23 -92 49 41 -71 -123 -34 80 124 -63 -23 -47 99 -53 -41 -27 -126 79 -96 116 -91 -61 -97 -45 100 67 -20 -78 -9 -89 -108 53 31 93 37 69 -114 -44 -28 94 -61 76 -44 -122 87 57 50 -99 124 21 -27 -46 -65 72 79 -120 84 103 -111 -124 38 -72 -57 -106 75 -28 40 29 -58 4 -28 -123 -55 95 29 82 62 -70 50 -1 -105 95 27 -70 -94 -41 7 103 32 101 -105 24 65 -61 -102 105 -94 118 -111 -110 -57 -73 -81 -79 -50 109 -76 74 21 -37 -7 -20 52 -58 53 52 -21 70 77 97 -11 94 121 37 33 -48 -67 39 -91 -63 50 35 40 5 46 89 -69 106 108 -69 83 103 119 -14 -85 123 14 -12 -25 119 -106 28 -13 -88 120 65 75 87 -97 100 -54 -114 63 82 119 43 -51 -18 -3 47 36 -38 66 23 -56 -71 95 60 -103 -107 15 -61 -124 72 -4 -5 78 -48 74 -57 -85 12 -8 55 -82 58 -120 92 -52 47 -80 73 -123 -123 -75 7 79 -81 -125 41 107 -45 -112 1 -57 30 -49 -34 75 50 15 49 -93 43 -36 14 114 112 -127 114 64 -76 92 15 -79 -28 -127 -99 18 -23 -81 -33 -89 33 -53 112 65 -99 -3 -76 -104 62 24 -101 -72 -27 27 -35 46 6 114 24 17 89 -119 -29 -86 110 57 -120 90 -106 70 -79 53 -87 -17 8 -114 124 -70 20 57 3 40 -9 -91 57 -14 -21 -24 -124 -76 -123 116 41 -15 111 34 25 84 -101 48 -94 42 -10 31 17 65 -69 -63 35 -76 62 -36 67 -74 0 -109 90 -46 -61 -91 123 -92 -88 -63 86 87 81 -99 -119 -54 -96 -91 -127 20 -5 -103 -88 -17 -95 -35 98 -23 56 11 -109 -20 90 -126 63 74 -110 91 -114 -116 14 -24 56 -36 103 44 -86 105 -15 87 -27 -2 -108 56 37 -8 101 4 -112 48 -7 28 19 -78 -24 -119 121 20 33 41 -25 -18 -78 7 -124 -29 14 -63 -98 -50 117 -99 32 -61 106 -63 -56 57 -16 -34 -14 -65 112 117 69 18 -97 48 -5 99 -49 -53 49 -89 -123 74 113 106 44 -4 -2 40 81 -33 -12 68 34 -56 -26 0 29 -3 -73 -48 -92 -69 -84 -119 -9 34 11 92 -89 -22 5 64 -10 26 -104 3 -100 -100 0 -90 35 9 6 -102 -32 75 -41 70 -79 33 -48 5 -3 -100 -104 78 108 -10 -26 12 -73 -39 -117 -27 -69 -25 113 69 -34 -101 -125 94 -74 78 102 32 -40 -32 21 -72 47 26 -7 96 -23 110 -29 -81 -41 -71 66 -56 -45 -21 -94 95 15 -103 -39 -57 -115 121 -33 71 69 -44 8 -125 69 -39 -25 105 -94 -102 91 64 104 77 -102 -115 1 113 52 0 68 41 -20 117 27 -52 -74 52 -39 -11 47 -76 16 85 -37 -49 38 -93 -10 5 -101 -79 -105 -126 125 -30 41 76 121 -72 -102 -100 99 24 -34 99 65 -69 17 -39 -4 24 89 -22 9 -97 -68 38 22 -40 -89 -107 -70 101 125 15 -4 38 -100 -124 -123 25 -117 -44 103 22 114 36 -67 41 -4 26 71 -54 85 -103 -35 -30 25 27 30 -52 105 68 59 33 53 -127 -85 -96 36 100 50 42 -64 -21 72 27 13 -9 97 32 -43 41 -106 -16 127 119 -27 102 -124 89 -36 87 89 99 71 115 -94 99 -35 25 -106 -5 83 56 -117 -35 3 35 56 -90 -18 33 102 110 -19 -64 33 -57 -94 -25 95 61 -108 -38 -94 51 -16 114 -19 -24 -25 114 -69 -91 64 -69 40 19 -127 -100 -76 -103 -115 125 -52 -100 81 50 57 23 111 -121 -35 -62 -125 15 48 38 69 -50 -38 78 35 110 -43 35 -54 90 6 -11 -79 48 1 70 