46 91 90 -92 113 59 -109 2 -109 30 54 -70 -14 112 80 -41 -96 125 63 -73 63 -71 -73 -40 -89 114 110 100 68 -1 -80 53 127 126 9 46 57 124 72 -68 98 82 -101 -125 99 45 116 -29 -93 -76 -8 29 -13 29 61 -53 99 -64 -67 87 -93 123 -85 -24 -101 29 -63 -124 39 -97 80 64 -48 -123 54 -37 -65 -92 -20 101 84 -32 -79 33 107 -54 98 -69 -107 28 -43 48 -118 -64 107 81 -81 41 -102 36 -75 126 -86 5 82 19 31 -76 -106 121 0 -61 80 12 -127 10 89 38 -41 -14 -94 113 -19 57 43 -113 96 120 46 27 92 -99 80 -125 8 108 28 70 -106 32 98 -67 77 -63 -14 36 62 -118 107 111 -54 -123 -91 -1 -107 -39 58 -93 91 49 83 -79 -94 -87 54 65 -121 -124 -122 72 -70 -81 86 36 18 -122 125 -98 -36 3 -54 -116 95 76 -96 127 59 95 104 96 -70 -111 40 40 -38 -67 74 -30 86 -108 49 99 6 2 -87 -55 103 -13 -81 46 33 -8 -6 77 63 -42 110 -57 -96 -24 66 42 -34 -56 -42 -92 -84 -56 85 -11 122 4 124 85 51 -125 69 120 60 -58 50 -69 -60 -84 -93 59 70 -125 -97 -120 -9 34 105 -118 -113 57 71 -7 61 -116 -61 95 110 20 103 -81 -91 -1 -102 119 -29 -35 102 -116 -66 -63 103 107 90 -109 98 31 81 -105 -32 -107 99 117 -125 -103 75 -109 23 91 -114 46 121 -116 74 -50 -101 109 77 -32 -30 -66 -110 -88 -34 21 -95 18 90 -13 37 -89 -54 -127 -81 125 -46 3 54 87 40 106 -123 58 -102 -76 -37 -113 -3 -123 37 -107 -58 -87 50 -68 -74 62 30 21 -88 -122 1 -107 -29 122 57 -53 -38 -113 86 127 -57 126 -111 -44 -32 118 75 125 -101 -1 34 -95 43 94 -28 0 -27 52 63 -67 -63 -49 44 -107 5 49 92 -83 12 -25 106 47 -68 -123 93 -54 -55 29 -98 -54 -22 50 -47 -43 2 -49 -118 106 -53 124 55 16 44 -25 24 -97 46 -17 -21 -123 -82 91 -48 98 100 127 -61 120 89 11 -118 -38 98 -99 -78 -60 -112 -79 -44 -2 -97 -49 -102 23 -116 -126 119 84 0 55 -92 66 -59 63 -126 23 -15 -126 117 127 81 -16 -88 -39 99 -89 -52 61 9 -12 44 88 65 73 94 106 127 -106 -42 -55 -74 20 67 73 17 32 -96 31 124 23 -103 75 69 -2 120 -112 -21 -8 -58 -30 1 -50 -13 31 -115 114 118 -79 15 -60 11 -42 73 2 13 57 112 25 75 92 2 108 -19 4 46 122 16 -56 -103 -22 -31 8 102 -120 32 27 11 70 -48 -126 44 -72 -22 -61 126 103 -70 0 -38 86 -49 55 73 73 41 -119 -114 -53 16 -12 -35 -58 53 -6 -112 93 -31 -11 -61 -26 -108 -49 23 -43 -115 92 -125 -57 49 81 5 -54 -121 61 -80 118 -91 39 83 -72 -87 -73 109 -98 97 79 80 75 -15 -6 96 21 52 99 -5 -79 102 33 124 -127 -6 -102 103 73 10 104 -106 -85 -40 54 103 -32 -37 18 52 -32 -120 74 -114 55 -64 82 -2 -43 -73 -24 17 -79 4 120 -127 -121 99 85 -45 -71 -94 -95 -122 -120 -23 -99 -22 89 -30 -106 106 -32 104 89 66 -17 77 10 10 -62 47 108 -11 -82 91 -32 18 -111 74 95 -100 -71 -122 110 -92 63 97 -88 74 54 109 -11 -48 -85 84 107 -16 118 -1 46 61 118 41 -97 98 37 -107 -40 109 96 -12 -106 -116 94 -16 -3 -36 -122 -85 -115 -47 52 58 97 -53 -12 106 93 19 -96 -91 -66 -79 104 -87 -92 -10 73 -121 23 10 90 62 -110 79 23 -87 -41 58 15 -121 -79 -58 -55 -26 -84 -38 94 26 -17 28 -77 3 -32 -31 2 -79 114 -32 45 110 -125 94 17 120 40 -81 -18 62 -115 -40 -44 86 -53 14 84 19 29 114 31 107 101 109 -40 20 45 106 63 99 -35 -105 -91 108 -120 83 -116 -34 103 80 -1 94 -78 32 21 -3 122 -11 -94 14 26 -81 113 112 86 -55 -118 -42 3 35 -102 -24 28 -47 -16 92 -101 -51 -124 74 -7 -120 94 -1 -102 113 127 100 43 -18 -32 25 57 49 -35 10 -82 3 -2 -24 -69 36 78 -27 86 -18 104 40 -107 82 -56 80 -70 6 40 -110 53 -53 -101 -39 -80 -20 -70 -45 103 -23 -124 125 45 15 -9 123 96 -70 120 110 59 -4 53 81 -46 84 -127 79 -124 -107 17 -88 -29 34 -91 -62 6 26 -91 76 59 -75 124 67 -32 82 59 12 -81 -93 -39 72 126 103 -59 60 -39 86 -108 32 -102 -123 -81 -86 -76 -66 -64 -101 -15 -116 11 -80 29 -108 -69 26 125 -6 -77 -64 37 107 67 1 50 53 51 12 -1 69 86 88 -79 64 127 28 -118 -49 72 -121 60 58 -77 -113 0 29 -21 -48 49 112 -23 61 115 117 -87 86 17 -126 -26 114 -28 16 113 29 45 -36 119 -39 127 -3 -6 -14 110 95 -23 53 -105 -97 73 -117 -73 72 9 102 -123 66 72 106 51 -4 -84 12 4 22 -17 44 -82 -18 -37 11 -49 90 -44 -73 90 83 -45 33 56 -37 -78 62 79 -53 55 -60 99 93 85 62 19 81 -89 -17 -106 -107 53 112 33 -39 -62 -72 81 -52 -8 -37 -109 -14 43 127 -83 -40 -5 -123 106 50 91 -33 -12 67 -31 69 -25 45 89 -119 -121 -80 76 89 -123 -122 110 114 80 24 49 -29 -58 22 -9 58 57 26 54 6 96 -44 75 117 -85 -34 102 -30 28 -94 82 103 71 88 -9 -118 -83 -18 77 -43 60 -61 57 87 -98 118 54 -107 97 -31 3 -53 72 -111 -48 -42 30 -66 -116 78 -3 81 -123 6 98 -52 126 82 -88 -94 88 73 -3 -121 71 70 -120 64 -20 122 63 55 -94 -127 -28 -8 86 -48 26 95 82 91 98 -52 119 56 114 111 -41 -39 -54 97 -52 -11 22 -55 -61 72 -62 27 -20 -44 7 -104 9 -11 70 63 -117 31 73 -44 -82 107 -13 18 -38 -11 102 40 87 26 -26 -20 -15 60 -20 -33 -112 -107 -30 -3 -36 -55 58 -50 -8 69 -99 -89 -90 22 -76 -63 113 117 -72 96 87 -123 -89 94 85 79 55 -73 -101 76 43 72 -44 54 34 121 -114 -50 -14 93 120 -127 -8 83 -96 -60 35 35 -49 66 -38 4 -104 -52 -91 -104 120 -100 -115 0 117 -66 27 27 -46 -3 -27 115 88 89 100 114 34 -115 -100 40 107 -34 -58 -114 81 -117 -89 111 38 -11 -54 65 -7 96 56 97 39 -124 6 42 -3 -127 71 97 1 -27 -15 -114 -87 -53 119 6 17 34 -85 81 98 29 -68 -83 -7 25 69 -86 -57 -82 -15 35 -35 -78 -11 123 88 -10 98 30 -78 -5 3 91 -52 1 -75 -111 115 -50 118 -3 -45 -72 -127 -34 56 39 121 113 -106 -53 77 -47 115 -118 110 -112 101 127 41 42 0 -87 41 125 -67 -116 -69 -25 -92 -93 49 -6 -67 54 -53 -101 -91 -88 -37 -55 -110 -57 -93 81 32 -89 -108 59 35 -20 14 6 -76 -71 100 -5 -31 -85 -38 80 -11 -45 -95 -75 117 -48 125 -68 60 118 10 -29 -32 -82 27 21 -19 39 -13 92 -110 -38 121 24 -3 43 -6 48 24 82 -99 54 -56 82 -111 -104 -85 -60 -116 74 -6 -86 1 82 -70 -21 56 88 63 43 19 47 78 -68 108 58 101 -67 -35 6 -37 -25 -77 53 34 -5 92 37 56 -57 -70 -80 27 34 -3 67 100 -50 -58 86 35 12 98 39 -12 -80 -9 16 30 117 73 100 121 23 -28 89 43 63 44 -120 -10 3 -51 21 63 49 36 -66 -42 43 7 30 -22 -54 -66 79 -15 25 -66 -21 -47 -61 4 80 -87 103 5 -1 -37 -97 -68 -84 86 23 84 -23 -48 -123 -8 19 36 -13 40 -51 -10 11 35 -88 -44 31 12 -60 -126 38 -111 -65 23 13 114 -118 60 95 83 72 28 17 -119 55 -18 110 93 36 -91 -60 50 105 30 68 98 14 126 -50 -104 -93 -96 101 54 -11 -58 -34 106 -11 -27 27 -33 73 120 -57 -75 -55 105 -19 -33 67 94 -27 -109 31 51 -108 -61 23 25 -23 -1 11 -88 72 62 -48 122 -37 26 90 -102 13 8 114 51 -117 -77 -69 19 -119 -124 -60 20 26 102 -47 28 -69 -41 92 70 95 12 -73 -77 -107 -94 117 -120 -89 77 126 109 59 -60 104 87 86 -41 -90 51 -23 -39 -92 26 39 9 -19 -106 -37 -56 80 122 104 30 9 -18 -114 -2 33 35 -125 113 66 -75 90 -103 -16 -23 -47 -33 -115 1 60 -119 44 37 -11 -71 41 -35 -26 51 17 -43 78 -1 59 -5 88 -35 11 56 -85 -104 62 -54 -87 -94 -24 -44 -44 -126 86 -69 -19 -104 -110 64 123 102 -1 45 -70 25 -126 -119 80 -14 36 -71 106 -15 60 17 100 -13 118 -94 33 30 -91 -64 -22 -10 -112 98 77 -84 69 -78 66 57 -115 -121 -58 52 -106 -7 50 -119 -5 85 -49 45 79 48 -42 43 -7 -124 -127 82 -91 56 78 8 -34 46 17 15 124 107 112 105 -114 74 -22 -34 -112 -77 -121 117 -123 -42 118 125 -66 -71 -7 48 21 59 15 -91 98 -112 120 60 27 -56 -54 102 97 61 35 54 43 -82 63 76 37 -125 -98 -2 -95 106 -89 -89 4 -28 84 4 -20 40 -43 -71 -99 -21 -1 -52 8 -47 93 -115 -54 -96 91 121 -117 -63 -6 -79 -125 104 -5 53 -28 100 -126 43 32 -1 -8 -123 31 119 27 -113 60 96 -77 12 1 98 77 112 3 -95 -32 -122 82 -122 -66 10 114 63 4 -55 -42 -58 37 27 64 -39 -110 49 -116 23 -58 -22 119 -33 -17 102 11 62 -13 -2 -116 -68 39 -12 -45 -32 -4 -18 -59 -28 65 99 -91 -33 -91 -47 -68 -11 -34 -29 -113 -103 -50 -46 42 91 -100 -7 69 97 -63 67 124 -26 123 112 89 -71 -77 -84 58 13 11 78 65 27 33 -110 111 -28 -83 70 33 40 73 72 -80 -100 62 -105 -97 -9 -2 126 75 76 53 -56 -62 114 -90 25 28 -52 -17 86 92 -88 -60 -80 -107 -112 0 105 79 -26 -92 -50 -45 93 87 -54 51 94 46 91 15 -99 55 -86 -27 65 118 55 120 -14 -15 -64 116 -31 35 -41 13 -81 -21 59 90 -43 116 54 -95 -28 -8 -71 89 34 -71 98 -65 88 -82 -43 -31 -53 61 -51 93 -83 110 -76 113 57 119 18 15 0 117 9 88 -120 -112 6 36 100 -82 82 -8 0 43 -113 66 -10 -44 -57 40 -75 71 35 -101 29 -65 62 -91 -37 13 92 121 -11 29 114 -102 -64 7 35 35 -1 39 11 52 -28 -105 -53 -55 -72 74 -86 50 26 -14 -93 -65 0 -27 -28 61 53 73 -74 -127 -107 119 -40 -39 -102 -95 -10 110 74 40 -106 43 -71 -33 -78 -5 -99 62 54 28 -75 -78 27 67 -97 -61 70 -107 91 47 57 -37 -122 5 92 -116 -65 -9 85 -71 44 60 -116 30 -9 57 -3 107 31 61 -23 -51 -76 98 -42 -52 66 110 -31 127 71 -64 61 53 41 124 109 63 84 114 -43 94 -35 16 -125 -49 -118 -73 82 -46 109 66 16 -30 88 48 -86 15 -82 92 -4 -125 -120 119 -99 52 69 -35 -4 -67 109 56 58 -118 -3 -37 -82 -9 87 -70 -78 -63 16 23 -83 122 108 -119 -1 -29 18 -6 -63 -55 122 79 -3 57 43 -79 -117 20 126 -5 -80 -61 -11 -56 -116 103 -88 107 59 -100 -95 -6 12 106 -38 42 28 -74 25 -51 -38 63 43 -110 -105 -96 -47 34 -74 -43 -57 -64 117 -94 -61 25 54 -65 -3 -56 -2 96 -9 18 -71 114 52 -66 45 57 25 -42 -108 -29 -35 71 -8 -108 57 96 -72 -127 81 26 -72 -106 -18 -13 -89 -19 3 -86 -73 23 -64 -17 -84 59 13 40 -38 -26 -37 95 125 -83 59 120 -48 -81 -72 -18 -47 -61 121 100 104 -110 114 19 -114 111 20 -43 -28 -23 84 -101 79 87 56 -89 -55 26 -13 94 110 -44 -18 67 125 67 75 -36 57 69 94 -89 -74 -75 1 -45 119 -81 -85 -11 95 -6 -15 59 10 -51 -5 21 -91 109 53 90 122 -81 -72 94 -62 -48 -57 63 -93 98 -51 -5 125 50 -22 83 -11 -105 -61 82 126 -115 63 78 -114 -29 -94 51 63 -64 55 -54 71 20 98 113 2 70 54 36 99 -43 91 111 -20 -79 120 19 57 -65 56 -122 -2 74 43 -106 91 66 93 76 47 43 51 -52 -52 25 49 111 -127 46 -114 32 -26 -94 -38 -33 -115 60 -118 -72 41 -10 89 85 18 -49 113 -54 34 -52 -119 -27 64 126 -36 -94 28 -24 104 57 -77 16 3 49 -2 -40 -10 -104 -52 98 76 -1 13 -29 21 81 111 14 -2 -72 73 -112 -53 -67 -74 91 -54 -41 -23 -41 -56 20 -14 0 -91 62 -72 60 -80 -46 26 -29 -77 28 -110 75 17 34 79 107 46 -113 -63 -120 -39 -119 -96 -53 60 -27 102 -42 54 -120 -36 -50 -100 127 -90 -94 -24 98 -99 -46 -70 112 -13 112 2 -54 -47 -122 58 13 69 31 114 84 -87 92 37 -70 -31 -122 -23 45 36 -68 -68 86 -10 -87 -68 15 112 -39 -21 24 -40 -108 -75 98 115 55 -17 -39 5 -34 -34 -56 78 -78 76 53 114 8 -100 -77 -9 -13 -69 -62 -8 -120 50 -6 70 -13 -90 -101 82 65 -51 -100 64 -103 38 -24 -58 -84 89 -125 117 -68 69 56 32 -70 -93 -91 -111 121 -101 18 12 -50 -78 -45 -106 -94 101 15 6 -58 105 -54 -39 101 -42 -40 -20 71 -84 -123 -87 -106 110 -79 94 64 -102 -95 -9 -122 -91 -122 49 2 -35 93 104 7 -9 20 -86 28 -121 127 127 -26 68 -106 -27 46 86 17 -34 78 8 -126 58 -56 -74 -14 103 -12 -29 -22 13 46 -112 35 -49 -98 -22 116 33 -110 -68 31 -60 -59 102 44 124 86 -112 47 -50 105 -91 -13 -51 -26 115 -71 -122 -86 10 17 -58 -101 -98 -113 74 -56 -86 81 79 59 -63 -113 101 -7 118 -19 126 57 20 -30 -7 -115 110 -36 33 46 -28 0 -36 1 -82 -114 32 -119 -33 57 109 -48 17 115 37 16 -123 -83 -26 91 -32 -100 26 48 90 -14 -35 -83 58 75 40 56 17 -4 17 79 -91 71 96 -1 -32 -10 -59 67 -44 -41 -57 47 110 125 -116 11 67 -106 -7 11 63 75 -40 -7 -74 109 17 -43 -51 102 -78 80 45 -93 -68 60 -99 37 -19 -90 -17 26 -54 114 -71 -12 108 -22 -28 -41 -83 32 -9 48 10 54 116 78 102 -14 14 -5 41 20 40 69 84 45 -50 108 -127 -9 17 -79 -117 -68 13 -94 -18 -87 -114 -11 124 6 67 -12 -50 116 -97 55 -117 -11 -65 -39 95 -1 -23 -112 -31 -103 42 88 2 64 71 -78 104 42 5 -84 13 -16 -42 -4 95 -49 84 -101 66 -50 -39 -32 39 -93 -103 68 88 123 -93 127 123 -115 126 -119 -59 58 102 -21 11 -113 -40 111 79 28 25 -40 -77 -39 84 55 93 94 -84 83 -49 14 37 77 100 -37 104 66 -82 -91 42 80 50 -102 53 46 -60 125 -39 -8 -77 -65 17 68 55 -11 -92 -52 96 110 77 -102 13 66 -71 -112 18 79 -55 20 -99 -50 -80 -117 -121 -57 -81 117 57 -23 119 -63 90 31 77 -49 -10 -56 43 6 21 -61 -5 -1 -36 71 80 -96 20 -124 5 -62 -25 -121 113 -48 15 -49 -89 61 -28 49 -114 33 104 44 -90 66 116 -119 -73 -97 -65 -6 -117 84 -103 -45 42 -2 -122 61 103 46 -20 71 -121 41 -74 -95 56 51 5 -43 103 -34 24 -74 -119 -123 -84 -29 -43 64 -20 -11 94 57 -85 -107 -120 102 108 45 92 5 -91 71 39 29 14 23 94 121 127 -43 -38 -16 -34 100 78 -100 8 -33 55 -93 90 18 42 -56 -33 -93 -118 -104 -98 -79 -90 -39 55 102 74 -66 21 61 -20 -96 9 -13 -57 -68 11 107 -127 -64 -25 -91 127 84 87 104 -108 27 -125 -33 127 17 -25 32 50 90 16 120 10 -119 -71 35 9 -100 47 -123 -92 25 -14 39 -77 -83 107 53 -84 127 103 127 108 -104 -34 48 -34 99 -42 14 -23 -18 -101 90 -87 8 10 -102 -2 74 112 -43 -71 2 -4 97 60 -117 106 45 -36 -125 -23 96 25 16 -81 -40 -40 1 -45 -17 53 12 89 81 -119 -61 30 -27 -49 121 95 28 39 -80 43 49 -77 16 -85 32 27 -98 -34 -99 -95 -33 -25 -39 37 -97 120 68 -64 -58 -68 -49 34 -54 -60 106 45 31 -27 83 18 -113 29 35 -59 -107 81 -1 -76 98 79 48 -32 21 -75 33 -95 109 -103 81 118 53 -19 -109 -9 86 87 -107 8 112 90 -58 -28 102 126 39 35 90 38 79 -65 -122 -70 -101 93 49 -90 78 79 94 91 113 -32 86 2 7 -118 43 -33 120 52 74 -78 -103 64 -122 -117 47 -59 -4 96 -120 -4 23 117 -103 5 58 -9 10 -114 -7 -76 45 97 106 -48 -1 9 -37 -102 -112 -60 125 17 15 51 30 23 -35 32 -64 57 45 29 96 45 -46 -13 -4 -19 -24 101 52 120 97 83 119 -99 31 90 -59 -111 8 -5 126 34 121 123 94 21 34 -13 -102 94 -126 -41 -42 -27 -96 30 -71 -53 -14 -77 101 -46 -101 -74 -10 -76 -75 -14 -46 -104 83 -82 -32 -48 -48 -119 78 -21 127 -42 113 -91 71 116 -127 101 -101 -122 38 -41 27 67 72 -23 -10 18 -61 -50 -109 17 -35 3 -23 -31 -46 -39 115 -103 -112 1 -64 88 -54 67 96 -32 -41 -51 54 -5 94 94 -37 13 65 -26 -84 -114 -58 -10 105 -41 -96 16 -92 -76 -12 -48 19 -14 97 15 -12 -15 -54 5 -34 6 -76 64 68 35 -84 99 -88 -57 -124 93 89 103 -15 10 104 -7 -63 -12 -94 88 -96 -31 23 6 120 111 21 -70 106 8 99 -113 119 -36 -17 -84 40 -86 106 118 104 -106 -49 -44 33 73 108 -100 -58 -99 84 24 108 110 64 -119 -46 -91 -32 -46 -13 106 18 61 -116 -101 -28 29 -80 -72 -19 49 119 -28 98 -86 77 92 -19 -17 120 -8 -56 -102 15 -63 48 14 14 -69 -72 68 -88 9 -38 122 -7 -88 68 -39 86 119 2 124 93 23 21 108 -28 42 -79 47 95 26 108 -4 -3 0 -37 -33 -39 76 -1 51 -97 -77 -107 -80 68 89 -47 -42 119 -13 14 -115 2 -127 -36 32 -84 -100 -87 125 126 23 64 99 75 80 121 17 -67 80 21 108 52 20 24 -77 71 102 73 50 58 75 65 111 22 96 4 -63 68 84 -124 74 76 -1 50 -83 61 47 -2 -126 59 45 29 21 12 55 -117 -117 65 -5 32 -88 99 -13 -98 -113 -97 28 -99 -71 -6 -85 61 -68 -4 -124 -94 35 95 23 -101 -86 127 -82 -23 -117 -117 119 90 -106 -43 -74 -24 -110 -97 47 -16 -78 -20 31 -22 -19 -97 -121 42 125 16 20 -61 -75 -120 -72 21 -103 22 19 105 -48 73 97 -46 -125 2 -68 -19 -96 91 79 -105 -92 120 -10 12 -51 68 45 -11 -59 42 -74 44 -91 10 -20 -19 116 85 -116 123 -13 112 -86 -45 -64 -49 126 14 81 67 42 -46 -26 -119 0 37 -66 -36 -77 19 -27 -42 97 107 103 14 65 23 -5 25 64 -18 94 48 -121 75 -83 85 78 52 -54 21 79 -20 2 -87 -121 46 -41 -67 -49 -96 42 87 -125 100 42 56 43 120 30 -45 -50 4 -6 30 -110 -22 123 -122 111 34 25 57 73 -62 2 46 -124 124 -27 55 95 45 -81 -37 51 -89 -75 -36 75 -64 115 -66 64 72 -21 55 58 69 52 -94 112 95 -63 46 -36 -127 -59 123 -9 110 115 110 -53 60 71 93 -100 -40 87 -110 6 -92 -61 -26 -102 88 -107 92 93 110 116 -18 -69 -122 61 -30 55 82 119 -48 7 -46 52 9 66 -71 85 -108 -9 125 -78 -31 -74 118 38 65 52 1 70 43 49 -4 11 -36 70 -105 30 29 -53 -89 80 -60 -88 -59 -113 31 41 22 35 5 -78 77 73 9 -99 -101 62 17 52 -82 83 57 -122 -18 -30 52 -60 56 -7 -28 -10 18 -48 55 -53 45 -57 -68 29 114 -91 126 -121 -32 -19 -89 94 101 -112 -39 -124 -116 75 -105 -20 -116 6 37 -122 62 -54 20 60 -87 109 -107 -62 71 -122 -15 42 92 -73 108 101 85 -118 51 -5 32 112 108 59 -84 -88 -27 81 