-83 -35 114 35 41 -123 -73 85 93 3 -60 -99 -11 29 -78 100 -39 38 -8 63 46 112 -79 22 98 -83 123 -1 -85 -28 30 55 -113 78 111 36 -58 -114 -47 -39 96 114 89 -81 -25 -39 75 -19 -92 -57 26 38 -85 85 42 65 -34 95 -23 -105 -29 -31 64 -75 92 101 -20 124 -73 -126 105 -39 -26 -121 58 116 44 14 45 75 10 -93 9 117 70 -15 -119 75 -106 -15 -76 -11 79 -29 61 -11 -106 42 -71 50 -52 -118 72 54 82 48 123 -53 62 -33 103 116 70 -33 49 17 104 78 -18 -106 -12 43 31 -111 2 -125 -112 78 -119 72 38 32 123 74 -42 74 113 124 11 -52 37 96 2 56 46 -83 -91 -123 99 114 4 71 102 96 -46 -64 63 -107 108 111 -109 -21 -14 30 38 69 35 15 24 123 -60 117 51 4 119 23 90 -89 29 -43 -46 60 33 38 -87 -54 -42 -7 -104 -34 -4 45 -30 -6 -5 -37 108 -11 47 -104 87 -48 57 -87 -76 -56 5 -49 -62 -113 22 -18 -56 28 94 69 -22 17 32 110 25 102 -58 30 88 -98 -95 124 -41 13 18 42 61 125 -32 -106 59 -100 97 -55 -19 -97 22 -8 -102 -123 -39 -50 -127 -113 105 -10 71 24 31 40 -38 11 106 -74 93 -10 -17 -11 -7 -43 126 51 -34 102 78 -3 -22 114 -94 -12 -73 17 -42 -9 -20 59 93 -110 11 -95 49 -63 -69 13 -29 121 68 -103 -8 -77 21 -124 52 -61 -95 -36 -40 -125 119 -91 -69 -104 -115 114 -44 -31 27 -50 -102 15 -64 -43 112 -111 88 -93 91 -22 59 -72 -78 -62 122 -76 106 8 121 126 105 39 -88 77 -19 91 108 89 49 -31 15 -6 -125 -104 16 -59 114 -68 -87 53 -26 -1 -49 -93 -97 90 -38 -76 -118 -94 -58 -119 27 49 -89 -117 -123 50 -120 -12 -97 108 -69 70 30 97 -22 96 -126 -69 47 -32 107 -74 4 -74 117 88 -93 -24 65 -3 -31 -116 83 8 11 82 -91 -51 114 40 33 111 -58 -27 -50 46 37 79 -56 122 -92 76 59 79 5 8 80 -78 -96 -103 73 -41 -83 50 -49 124 -1 13 -31 -2 -74 32 -40 14 83 127 95 31 -10 -37 -36 49 -13 4 -66 81 52 -30 -23 -101 125 27 38 -60 120 82 -85 15 27 -119 -123 -111 10 69 17 -119 -73 97 -121 87 -112 -11 41 -13 -98 49 26 43 104 -43 -96 73 36 -28 -94 41 -109 -126 -83 91 -38 -89 -89 -103 -121 89 -52 -88 6 104 -120 109 71 -77 -62 -99 91 53 -95 -14 100 78 -73 -119 60 123 -4 -116 -80 26 43 102 31 83 -64 121 -31 -93 35 -89 17 -105 49 84 4 -7 39 -59 -59 -59 -119 99 -121 -67 -25 2 7 -30 -61 123 -122 127 54 81 14 49 106 -36 -12 -8 98 -94 91 -72 59 -11 87 -89 105 10 -112 -83 44 75 -58 -83 6 -42 93 -113 80 -95 -126 -90 -29 97 0 -11 -16 -6 -36 -106 -52 -37 -77 -27 105 -118 -35 -76 59 -113 112 91 113 93 -60 103 -8 72 114 123 -116 65 -67 -41 -118 123 -93 103 111 72 2 46 -25 67 -103 83 99 -114 106 38 -110 -64 0 101 103 36 91 8 126 -57 32 95 -75 -38 -84 76 61 -22 58 -59 84 -43 7 -17 -80 -86 75 -52 -10 -81 -69 35 31 -14 45 -5 118 92 -41 -33 121 47 -21 121 -53 -24 29 91 123 -7 87 -14 -54 112 66 95 67 -97 -32 -44 -109 -86 125 118 108 -122 -36 64 95 102 -111 -124 108 -58 24 -70 53 -104 41 -116 -55 -76 79 -75 72 95 -24 -79 102 -72 17 23 -93 0 -66 -121 -65 -49 84 -103 72 -24 65 32 -37 -55 -97 -18 -120 74 -126 -7 -104 -62 47 12 12 -98 -33 113 50 81 -88 -9 43 71 57 -50 -63 -5 -6 24 19 -46 -110 -46 -12 -49 -114 50 10 48 115 -31 -75 31 66 124 71 -73 90 -101 -64 -32 121 -121 -42 -71 85 -71 -47 58 -19 -103 -122 69 -11 122 -13 -104 121 -68 -77 -78 119 -88 65 -101 9 -18 58 -96 -80 38 56 -60 53 -108 48 67 -87 -106 113 -66 98 43 -18 -93 63 -17 -33 -115 -84 -100 -110 24 92 -63 37 30 24 99 -20 29 -89 -46 52 122 51 34 36 121 48 -65 119 -14 21 28 121 -92 -127 111 -28 48 -85 73 -110 1 63 -71 71 -88 -50 -1 -123 113 -68 108 81 29 -25 -127 29 57 21 84 -26 -84 32 82 -82 -116 -124 92 126 67 78 -10 49 1 -89 9 118 83 104 -15 5 -92 -9 61 48 63 23 -10 60 5 1 -22 64 119 42 -85 -108 -2 -58 -107 -50 -96 -62 -74 60 -70 -79 -120 -25 -14 -75 -7 107 32 72 71 124 -1 -90 -85 -45 -31 32 -124 -10 -120 92 -103 96 -73 -99 47 -20 -44 -36 -1 -25 -35 -70 113 -47 68 114 59 22 -75 13 118 -42 49 -17 104 -25 34 1 -101 -69 25 46 -14 -15 -30 4 3 -6 96 -83 -9 60 -2 -52 -114 65 -67 82 -69 13 56 71 20 -20 89 -33 -7 -81 -94 25 -72 -53 121 