-31 37 -28 73 81 90 -6 -126 -42 39 -25 126 -77 -90 -91 -4 117 63 93 -14 -106 53 -41 -116 -89 91 108 116 -87 -41 95 -11 118 -83 -109 3 -45 32 -87 -75 69 -16 -2 -120 37 -126 86 -122 35 93 -91 -81 78 -68 -5 -83 -120 119 123 -21 89 -57 97 -104 108 -127 100 -80 -27 97 107 73 104 -46 -28 -34 -62 -74 10 -66 37 43 -65 24 49 17 -11 -39 110 -62 123 -90 -118 -35 113 14 -54 -59 39 121 101 -21 60 -8 126 108 70 6 67 -70 125 -118 40 -100 -48 -126 -44 89 -106 114 36 94 -40 -106 -4 -69 -75 93 -96 -56 40 85 -87 7 107 -85 -80 63 -50 -100 7 -71 -75 25 84 8 -70 33 83 103 -29 -125 -54 14 104 -104 66 -58 -62 -65 66 14 -124 79 -106 -36 -11 -27 -13 -24 24 32 60 -35 -4 40 44 33 90 -117 37 7 35 126 -66 0 102 32 28 31 60 -92 -63 10 -5 18 104 68 74 -38 -104 69 63 -48 63 22 23 -61 54 -60 9 96 -79 69 -97 -120 -65 124 11 -116 100 47 -98 -112 -92 98 95 16 -78 -46 66 105 -56 -23 48 -75 -87 -31 121 125 79 -57 -66 47 33 -31 -70 -61 -118 -96 -60 25 -104 126 -46 -56 -47 -104 88 -4 77 15 -79 -23 22 122 -118 108 -23 43 114 -100 71 78 114 -30 -87 58 -81 -117 -46 10 -29 -72 100 75 -43 -102 29 26 4 50 107 -94 -111 73 -85 104 97 -74 -80 31 -104 -93 -81 95 -36 12 -63 -52 34 39 97 21 74 -31 -71 80 -82 -9 -110 -47 -26 64 -104 -77 98 35 -99 -59 -16 37 92 43 70 119 26 -95 57 53 60 -3 125 72 -71 50 -15 57 6 -84 -81 72 0 -34 82 126 48 29 -83 -118 35 -125 81 -31 99 52 61 24 68 -115 -56 109 -96 -12 62 -68 -23 -54 -4 110 -8 -53 74 -18 -46 113 22 60 15 -2 104 20 106 -5 -23 39 -33 31 127 -117 -99 -9 93 -124 82 -103 80 -88 -29 112 115 14 -17 -122 -87 120 -17 75 4 -74 -14 -107 -106 107 38 12 -63 123 8 88 9 -122 -8 36 22 44 68 126 63 100 12 50 66 -70 -107 124 -34 -10 -122 112 102 -29 -106 120 122 112 -65 -18 68 -78 -56 -17 -8 48 9 -94 -63 69 114 101 -75 34 -18 13 12 -61 107 -23 23 -41 -49 127 52 -124 41 28 15 -106 -81 95 38 91 88 46 6 -91 -110 -5 79 60 -98 43 -8 -51 97 -16 -122 14 -56 -31 -85 127 19 114 -49 -35 84 -61 60 -80 98 -59 7 69 -59 112 66 73 106 25 1 -127 18 -62 -65 111 -37 52 56 7 -88 102 -16 25 92 -53 -4 -25 7 -75 -14 -50 -45 -44 -123 -82 7 50 -116 94 87 -17 -22 11 47 81 -109 36 53 25 -122 59 -51 18 7 -21 74 58 80 89 62 -1 -39 -111 114 49 -35 92 -104 -100 -78 -116 -66 -52 -95 -37 -117 73 -9 25 15 23 117 -126 -54 -110 -18 -66 109 36 91 -40 -15 81 69 112 -59 86 -14 -35 76 30 -23 -84 -79 -13 60 41 -31 -61 -25 16 94 -36 -56 119 46 -50 -6 77 122 -25 -50 27 122 -73 98 -125 -112 102 -36 71 -28 67 43 -19 -117 -75 -99 97 50 11 116 121 1 -127 95 -59 -122 -117 54 -75 -86 50 -96 22 121 -94 -77 -83 6 34 70 67 -126 8 -48 -57 -12 28 38 -78 -70 -90 39 36 -49 59 9 93 -77 51 -71 -10 -89 -59 95 -34 -122 25 34 7 -112 -35 -109 2 81 80 -95 66 113 -17 11 21 3 98 80 -44 112 78 127 127 121 -59 -84 -46 -84 -41 -78 18 -11 21 72 -39 37 -12 -26 50 76 -82 -70 93 -34 105 -66 100 94 42 -88 -101 9 97 93 116 92 123 12 92 -93 -125 96 -44 -97 -22 54 100 -22 -109 71 52 -68 -33 45 -43 64 10 -72 -90 -94 76 84 -83 56 -22 -115 -6 -102 46 45 25 119 -51 31 -125 76 -68 44 124 -102 -82 -115 -23 26 3 -90 -77 -75 70 -26 95 -65 9 89 -29 3 -70 122 -107 -80 105 -20 -5 44 -82 18 12 100 99 47 121 -63 58 32 -56 83 -41 109 -53 -90 124 73 -76 -18 -49 26 -32 -114 -19 -6 -54 4 -18 114 -23 -66 -6 -107 -101 20 10 43 96 105 -60 -38 -55 -81 -3 70 52 -93 -67 81 -99 -89 94 101 127 -46 41 126 98 -28 -53 29 -89 -29 110 -46 -68 -51 102 95 -100 -42 103 52 -46 -50 120 -64 -53 61 -9 -28 72 106 -87 -127 112 111 100 9 -20 -60 -101 -121 -109 -67 67 -11 -48 -125 118 127 27 -59 103 86 108 -39 -91 -106 4 -69 -90 69 61 -80 -76 38 -16 65 -101 -119 -19 -73 4 -70 84 81 59 34 47 74 88 47 120 -101 89 24 -77 78 18 82 -74 -62 57 97 51 23 118 20 -83 -71 59 -90 -100 26 -91 -94 41 -59 -8 115 94 52 -121 58 -91 -105 -39 71 19 -55 -104 42 -89 61 13 -15 -63 -111 92 100 -111 -93 -72 105 -68 -11 -82 80 91 -61 -18 -120 -112 -105 -103 -29 -45 -17 -31 29 -89 102 77 -4 57 -74 121 -13 -16 -64 100 95 -59 41 7 -44 -4 25 -113 -34 93 113 26 -81 -120 -123 -126 -81 -93 112 124 -60 -46 -75 -74 -39 -84 -14 105 -2 7 6 98 -40 -101 -4 29 78 24 39 114 108 -9 -112 -78 107 16 53 26 104 115 110 -58 91 -110 -113 59 -8 21 -81 16 -106 -23 95 100 -91 -73 117 -89 80 -110 35 -102 -25 124 88 -47 37 43 -46 76 118 -120 52 87 39 102 -107 102 54 96 63 -2 123 74 103 -92 65 -50 13 -20 -32 -106 -2 52 -62 -23 69 -56 -51 -118 92 44 -127 -67 -2 124 3 -71 86 36 11 -23 -55 -62 -75 -127 69 59 -73 25 -64 -13 82 -55 127 118 -8 -14 -72 -4 -101 -91 -75 -58 -123 56 -67 -100 -114 100 43 45 -64 99 -27 -117 -30 -107 85 -82 39 -109 5 81 46 -46 38 30 -75 24 -33 68 -124 -52 -100 124 59 5 6 -44 60 -12 76 -67 119 120 -74 -10 65 -2 117 -70 54 -54 61 -74 8 64 117 20 89 -102 83 58 2 -37 3 8 -34 54 23 14 -40 54 -92 -52 6 8 98 62 -118 82 40 116 -16 109 113 66 -34 -123 -16 -116 60 -15 77 40 -124 56 -50 -100 11 -31 -21 17 44 29 -65 -109 -104 -83 -30 -109 -19 86 -78 -32 93 -9 -32 49 -34 35 -94 17 -60 43 95 21 112 28 102 62 118 -45 -19 -36 57 100 23 -57 -62 59 43 -55 -11 91 -26 -55 21 -57 66 91 -83 -62 68 -99 -17 -124 -115 52 75 -121 -59 -81 -57 102 -26 46 -105 74 99 -81 -94 -41 -113 -119 113 77 -120 -19 -109 -34 -46 -7 -45 -23 105 81 109 -30 -99 100 117 -48 68 -71 -10 -112 -9 26 109 -101 -111 44 -51 -119 -80 -17 81 7 -95 -10 94 92 -10 -33 63 16 27 96 -48 -115 49 -32 80 -64 24 34 74 99 -20 126 95 -32 -117 50 -49 -95 -83 33 46 -63 127 -83 -6 -51 -75 -1 87 -114 23 81 -93 62 -90 66 -67 -85 76 -113 56 -120 4 -52 46 -75 -88 -32 -31 79 -28 -117 -68 -107 -1 4 47 -75 -7 116 -72 -101 -16 9 92 -41 15 -96 -26 12 71 64 -64 73 101 -62 -17 125 22 72 81 -105 -20 120 112 -29 81 47 74 23 -28 -99 -106 66 94 -29 18 -34 -71 57 -26 10 67 -93 -78 78 -86 1 10 63 0 -39 112 -49 -9 58 -112 96 -40 -65 -89 -7 -84 104 -121 -73 36 64 -104 -85 25 -21 24 56 -30 -111 -60 -87 -108 119 70 49 119 -20 -15 -67 -4 -54 -88 -97 -86 -33 54 -122 -33 -76 -127 -114 76 13 88 -115 61 -54 -25 33 18 -24 -93 -25 2 -6 126 58 -87 -60 -11 49 12 -91 -43 29 85 -126 122 -19 42 -32 35 -62 -42 83 -45 79 -3 35 -80 105 -103 113 -103 116 -77 43 127 -48 112 -15 -83 32 -124 95 79 -42 52 -112 42 37 108 77 98 66 93 3 102 -37 30 107 11 -9 -104 -105 23 102 22 -50 103 -10 -96 89 42 33 78 115 91 -93 -77 82 -88 106 30 -83 115 -14 39 -123 105 34 58 18 -79 -13 -49 -64 26 63 118 30 -12 18 -15 -85 -21 -81 -39 34 -84 9 -84 111 -67 -58 96 -25 15 96 21 -28 66 -101 -62 -6 -120 6 -29 116 114 -111 105 -93 -57 -107 -56 50 118 -4 -39 59 120 -36 -31 24 -49 -83 -63 118 -43 25 -98 -80 104 -23 52 74 83 44 -86 -3 -85 -17 87 -105 -111 -51 -92 -83 -124 -111 -36 -90 55 13 51 -121 8 -36 20 -10 50 15 96 -20 -13 -79 -78 125 53 53 -14 125 -14 -75 77 -100 -50 1 -51 107 -108 12 -12 -79 -101 -89 -57 -91 13 32 31 -45 113 -29 -33 -101 116 -32 56 37 -67 42 -72 -29 59 109 -121 108 57 -27 -9 -60 36 6 -97 92 44 -7 -71 124 -111 -115 -65 41 -113 33 22 27 69 -100 0 -96 57 57 66 -5 78 100 52 -64 48 -22 -63 -74 23 -94 117 -108 7 -91 64 80 23 -95 59 6 68 -17 -6 109 -91 -85 -24 110 -105 23 21 -13 69 78 -8 -93 102 5 -66 101 -105 33 49 -106 -86 -44 95 49 47 11 19 -113 77 103 -84 -102 0 -30 81 -105 -70 -42 -4 -101 8 -37 -1 -39 61 -19 -20 -86 -25 -7 14 -6 6 39 60 5 -45 -75 64 -26 30 -23 -119 109 -89 9 -92 -86 -106 -19 -82 117 -12 122 -88 126 -110 -101 110 74 78 40 71 12 20 -103 97 63 58 86 -44 118 -92 38 -118 -37 -29 70 119 -14 -113 14 11 127 -12 -51 114 -94 -32 -20 -15 -67 -124 -97 -22 -83 14 -82 117 49 -15 -29 74 47 22 -60 -87 66 51 -82 38 -85 34 83 89 60 -54 23 117 -45 -73 35 109 0 -126 -60 73 -63 -87 15 -30 44 -25 -97 26 -6 -98 101 -34 12 103 -62 25 -115 -62 -99 -76 121 84 93 70 -43 -120 88 -70 58 -5 -16 57 14 34 68 -29 68 98 -16 -5 126 37 -113 -58 -34 -73 80 9 -127 76 -23 -28 57 48 -21 -123 13 -69 114 24 -43 59 124 -84 121 -74 -15 -28 37 -18 7 78 103 91 9 -57 115 -28 -116 113 -4 -22 110 119 -90 82 -85 76 31 -44 14 -83 94 -70 -21 26 -5 -4 -118 44 108 83 95 -52 -100 -65 115 -58 -43 81 -90 22 84 1 49 121 -32 21 -84 -13 -115 13 -100 67 -61 3 51 -33 107 -9 -10 -102 40 91 117 -14 8 -71 -121 114 52 -25 15 -74 -57 -65 -109 39 6 104 51 98 37 107 43 -24 102 -24 -118 10 23 85 -47 5 -126 113 -20 -101 5 -106 -101 -49 -48 -72 119 70 -109 -106 -100 -48 95 -72 57 -18 -59 74 104 -76 -14 107 -75 -90 -58 60 -15 -81 125 127 6 83 -124 71 37 -127 -114 -29 91 114 -8 -114 97 -117 -16 100 117 -126 53 125 -50 4 94 35 42 85 36 5 -86 35 -72 -70 -46 2 21 44 21 93 51 32 63 67 101 -88 -116 31 -32 64 110 30 -117 -92 -11 -123 -3 46 -53 -40 46 57 -77 9 -73 69 59 24 -47 66 54 -67 -80 -40 -45 103 -66 -22 -89 77 62 -45 -48 27 81 111 45 -86 -3 -101 39 30 -78 110 -118 124 -38 -17 -42 80 125 51 -97 -85 45 -55 -46 11 55 14 107 83 97 -84 -27 -6 -58 -20 -51 8 32 31 114 54 -5 83 85 97 73 86 63 50 -77 2 -126 25 -64 -37 12 -18 76 -109 96 -107 -88 52 -56 -2 -44 39 84 -110 92 -82 -60 -7 73 95 -32 -108 121 -30 56 0 -7 -72 -52 6 70 -89 -43 12 95 52 -111 -18 -16 83 19 16 92 51 122 59 -108 26 65 59 -26 19 -16 -41 54 12 -68 -99 -13 -10 -10 97 65 97 55 -33 100 117 -21 6 -73 41 43 -32 90 72 82 86 -43 -7 -115 -50 -5 44 44 -77 -23 -15 -117 -13 61 -82 -39 28 -66 37 -27 16 -124 57 49 97 21 126 -58 -79 57 -107 -117 57 97 -12 102 24 7 127 99 -103 -19 -13 -17 -73 -86 68 58 26 -9 87 110 -48 -93 5 15 -42 -46 -36 -39 -4 48 56 106 -3 -63 -73 64 101 -37 -95 -32 -73 17 -41 40 -28 -1 37 -8 -16 -9 -14 -97 85 -14 -25 42 -91 115 120 -71 -72 -113 12 56 108 -79 24 100 -95 13 -17 -104 50 -107 41 -116 115 86 -91 -51 -93 70 53 47 78 -45 -79 64 -103 -79 -39 43 -10 67 85 25 106 52 -90 126 -66 79 -69 -42 8 41 117 -41 -94 -126 39 12 -82 59 42 124 31 39 1 -50 -116 116 -69 50 -101 33 -8 -32 74 -101 69 -48 76 -94 76 -4 -67 -41 -55 90 26 -7 80 115 -77 73 -15 -54 92 -55 -11 -110 -36 -64 80 -52 -120 -13 33 126 25 20 10 -10 67 92 127 -92 57 40 96 54 -90 109 -110 59 41 -18 -111 57 102 61 50 61 -119 117 -122 110 35 64 87 -74 -88 -84 29 75 -30 37 53 -78 28 -80 75 38 47 -74 -4 55 -2 -53 69 -127 -46 126 59 -114 105 122 18 -16 -49 33 -86 -1 117 -57 -15 63 -91 115 34 9 -3 -46 -13 -74 124 34 106 -63 59 60 109 -81 91 119 -62 9 -119 -110 -71 -16 -59 -35 36 45 -55 -97 44 -107 -4 122 -67 80 56 65 -52 7 -71 -96 -35 -40 -80 106 -126 123 -46 117 44 72 72 -45 30 -97 37 53 84 -121 -102 -90 111 78 -65 -2 -38 111 27 -100 -84 -114 126 106 105 -69 34 -81 65 124 97 86 -72 124 -109 -66 91 27 37 -10 103 98 96 7 -51 70 -86 -111 -29 -56 -35 97 113 32 -82 -22 -29 88 -13 47 -59 19 115 64 -119 -70 84 126 123 11 72 -85 35 -108 18 -107 -96 -104 -122 -35 53 125 -84 124 -3 -69 125 -101 43 -64 -125 -68 66 117 -91 -81 51 -41 79 122 47 -51 -8 83 47 -93 43 -123 -23 121 -113 -44 -85 -96 33 -109 -68 -23 -104 15 -107 -23 69 78 109 -123 108 -80 -36 23 71 68 -67 70 7 101 -122 127 127 -9 -108 -64 -20 -11 -27 59 125 -87 58 7 -24 116 12 61 70 42 29 -117 -68 96 60 -50 29 -58 -10 100 104 -119 -70 48 -62 -125 -103 -103 -30 32 110 17 30 70 -11 108 -46 21 -126 119 -45 -65 84 -110 -54 96 33 -105 94 -127 38 -84 106 54 42 -24 -76 17 -58 21 110 33 -67 68 25 26 80 -44 -92 -61 99 101 5 42 98 70 47 -67 -117 46 -100 -52 -57 -13 -101 120 -9 79 22 -54 106 112 64 -60 -101 -62 28 -72 10 -51 27 25 90 82 -26 68 125 -53 107 68 41 -47 -29 0 -99 100 -58 -127 -27 43 -48 -66 -86 23 -113 -124 -36 22 -14 -12 72 60 -57 -81 45 -124 64 -43 72 93 67 -55 6 -63 81 -9 56 75 100 40 41 -46 74 -113 -81 -24 53 -3 -60 -23 127 106 -5 88 -45 107 -74 72 -48 53 -81 3 46 -119 49 -120 93 12 -54 52 13 -15 -99 58 32 98 -55 -85 -104 -102 -63 91 -30 85 -53 48 -127 -86 -37 106 67 -107 104 -114 -69 101 -91 80 106 -86 -2 -7 120 65 36 -54 -97 72 127 -99 69 78 117 91 57 -59 89 6 5 -37 84 -71 -81 107 9 -100 -63 -49 -46 -53 -13 70 -120 -70 110 -44 -111 -126 -25 -75 74 -99 32 -95 -40 89 -23 -35 71 84 -31 -52 -38 55 91 8 113 -51 -71 -53 -107 30 117 111 102 99 -112 -44 96 107 106 62 -58 -92 124 -81 -78 33 81 30 85 81 125 90 9 31 67 -2 -64 90 -110 14 97 25 -29 -94 83 -18 97 103 -76 1 -112 30 55 -2 -30 -51 0 -126 -39 -102 53 45 22 55 -10 67 -81 -93 111 -106 -18 -78 98 19 11 -32 73 -116 -115 -10 112 9 -26 -27 -31 61 127 42 -34 -10 -42 9 56 127 -82 -90 -71 -33 -78 -92 59 78 -103 60 -29 70 90 52 -82 -40 6 17 -71 -120 -111 69 51 -54 -117 111 9 -55 -57 4 5 99 53 -90 -92 126 -63 41 -27 -39 -52 -104 -25 112 -72 1 -125 106 87 80 -43 53 -36 52 -81 118 92 102 -111 -12 -111 119 24 85 -3 -41 -70 -76 -28 -117 116 -31 -2 40 99 -90 112 85 71 -30 -31 91 -121 -23 -74 126 25 17 -23 -10 96 89 -4 -88 114 56 -28 65 -103 -36 61 116 28 47 -110 59 97 115 125 18 -34 66 118 32 -117 -4 122 39 45 78 -59 95 110 -110 87 115 -93 -52 108 -39 -26 50 -60 111 -32 4 95 -119 43 74 35 -115 -73 -46 55 -43 -38 -16 57 -73 124 -78 -61 -25 -34 -8 -106 -11 -63 -49 -2 -15 -90 91 115 -69 -106 -101 -108 -70 110 111 61 5 109 108 -122 45 104 99 -117 90 11 37 87 -59 76 -84 -29 117 121 95 47 91 50 -60 126 -65 -35 83 -70 90 58 6 61 -102 -116 -122 106 127 20 -116 -3 -3 64 -104 111 -126 -95 67 44 97 -8 24 -62 -98 -15 86 -82 -41 -79 41 -75 56 -88 -84 -31 94 -34 85 1 32 -92 77 7 3 -37 105 -26 -86 -114 127 -12 75 11 108 80 -124 -78 -48 -87 115 108 21 12 -47 -76 14 125 -113 126 -88 -78 -99 74 -98 100 120 45 8 76 48 -14 122 13 17 -67 4 33 75 77 -60 56 -36 -16 -76 3 0 -83 61 52 113 89 -78 56 -118 88 78 -15 118 -84 -59 30 43 33 20 -38 106 -96 -113 -3 110 -36 -113 -53 -117 99 -105 103 27 -127 97 -60 -25 -63 7 73 -38 54 -26 -6 -20 38 -108 127 -102 -20 -59 -92 -4 -4 19 20 18 -36 62 13 -62 72 -10 -97 -6 -1 -90 9 36 -113 98 52 -125 -124 -42 20 -97 -82 -108 98 -118 113 -41 65 -116 -60 -76 98 -64 8 14 50 -97 -118 18 -75 52 5 -56 -84 86 -15 27 -18 -19 -29 99 -78 17 126 4 -1 104 -47 -41 37 90 12 123 -7 -69 -86 115 -32 -39 -96 -24 -107 -62 96 -76 79 69 -46 -115 114 -66 116 70 21 78 122 70 107 -69 14 102 7 15 -34 -9 89 72 -38 -83 -49 64 70 126 105 11 50 84 -108 -102 -60 -2 71 17 67 46 -29 -29 -104 -66 -111 -26 18 94 -80 30 -101 34 -121 52 51 105 108 36 -87 74 91 -36 27 -52 -65 56 -98 59 -78 -46 -30 -67 -14 28 -42 -57 -122 65 -124 2 1 3 109 112 -113 -117 -97 25 -120 -109 -63 -35 -29 -34 89 46 112 -121 -5 -95 -43 102 14 107 -50 -77 71 -112 -6 -20 -47 46 106 -3 -111 -57 -37 8 -1 -97 -47 25 9 -8 -125 29 -6 21 107 83 89 -5 -115 -43 9 23 -97 106 104 -124 113 2 86 1 103 -107 105 -56 -20 -62 -61 4 59 117 39 109 107 -26 -29 -69 119 -73 54 -63 37 103 121 68 64 -113 -28 23 -1 108 50 -65 55 -74 -57 -92 -79 87 -61 22 -82 10 121 -36 7 -79 94 57 -24 -14 55 -50 2 -113 -38 1 -35 -70 -65 21 -32 64 11 -79 20 114 -81 30 -71 -85 122 -11 -13 -33 113 38 -77 77 122 -32 6 92 -4 -65 30 60 67 -127 102 -103 -125 -78 -112 101 97 115 -115 102 67 53 -61 -14 115 -67 62 -90 9 95 125 -9 108 -56 95 -70 50 37 47 3 -11 -11 -88 13 114 -102 -57 -92 125 15 3 74 99 -19 -111 1 70 -103 -63 -27 -8 120 72 -15 -96 -29 -25 32 68 -107 18 -54 -25 33 -87 -100 33 28 -55 102 -70 -25 119 25 64 -23 -72 16 -102 35 116 39 19 -69 7 124 -58 -77 83 101 35 69 -112 -103 111 -58 66 104 69 -58 34 -38 70 -102 -47 77 33 85 101 -106 -45 -111 -15 3 56 125 94 108 82 -61 -83 103 92 39 115 -36 119 43 2 -99 15 -82 72 127 121 80 -69 77 95 -40 22 -104 -121 43 -30 -110 -59 -112 50 14 0 93 -96 -57 -67 -85 3 -47 -80 64 57 82 -99 -114 19 -87 -110 -102 46 24 52 59 -32 125 84 -20 -97 69 -41 16 64 68 0 -6 -102 -67 94 81 -84 -23 30 34 -71 -77 23 -61 -45 110 -22 -62 -10 32 -1 74 -6 51 34 -57 28 67 -69 30 