-58 33 -31 -26 19 32 -64 125 -95 51 -103 -84 -45 -78 112 36 104 119 -103 115 -109 17 126 84 15 56 -82 62 -48 7 57 74 -6 -58 99 29 40 -109 85 89 -58 -20 -109 14 -121 109 49 -39 61 21 73 -67 29 61 -90 -12 -82 120 -42 -1 51 38 -67 109 -4 -48 9 21 -58 80 29 85 105 -9 118 -119 47 111 -123 -37 -80 -81 -32 -69 -50 22 90 -101 -43 47 104 11 -18 34 -14 -121 -105 -50 -9 -56 -112 54 -44 45 7 123 -57 -125 112 2 -19 -122 1 -40 88 -76 66 -98 -104 76 -86 -47 42 -118 62 115 -122 47 109 -127 90 -73 84 -106 96 -107 -48 58 -8 -72 6 7 55 53 9 -73 86 20 16 -89 89 -90 -100 29 -29 84 30 -94 70 109 102 -72 -81 125 84 -81 54 110 -76 112 -95 108 14 14 36 87 -100 -70 -35 -9 108 37 36 -30 -51 -59 -89 -123 59 51 76 -119 104 102 -46 119 67 -110 -66 -102 76 -11 124 -58 69 -15 68 119 -110 42 -96 100 100 70 -105 -113 -122 78 -83 78 -3 49 96 -55 -101 33 18 114 90 -50 11 -41 53 -69 -123 84 100 -43 106 -89 -114 54 65 114 52 84 35 92 -87 -80 -86 24 -119 -28 -78 38 118 64 -32 99 22 36 119 -50 48 -80 44 -89 -101 24 -22 126 -12 -35 114 -1 23 -119 -32 12 46 -88 118 -50 -93 2 117 120 -92 78 -1 18 39 70 49 -77 -38 121 -37 64 47 -58 -11 40 -50 -109 103 -87 -38 106 -64 102 -24 -40 -85 -25 73 -124 -122 -70 -79 -116 -16 -89 -69 -5 -44 -26 33 -105 51 -51 67 -97 -85 58 63 -75 25 100 62 -103 116 -16 38 -122 -101 101 105 115 118 33 -108 73 6 -115 -39 36 24 -9 -52 72 39 -36 -90 -79 78 -70 113 102 -83 -8 -103 -123 7 -119 14 77 -109 104 83 -13 -34 115 19 63 15 63 -16 -76 -87 98 -65 -70 -84 -29 124 -92 19 37 -20 -82 -73 -123 36 -64 -64 -104 -21 2 -27 122 -54 101 -103 -34 -118 99 37 79 52 -78 -106 44 13 20 -63 92 -91 5 -100 31 13 -102 94 -10 90 35 -12 19 81 -86 22 108 32 126 79 -80 79 -40 116 65 -13 -103 -65 -113 -31 81 47 -57 21 123 55 89 106 -105 10 76 71 -69 94 -56 92 72 -5 -71 -116 -115 -6 -32 -8 -4 -126 -106 3 89 86 28 -101 -10 -114 125 90 91 113 78 -46 -82 -30 71 118 -2 -99 -60 127 -123 -63 -19 60 116 -54 -49 -42 20 -4 16 33 -76 -106 -80 -64 -51 115 -59 35 5 107 66 38 -115 -5 120 124 102 79 36 -103 0 54 -80 63 72 103 -78 110 94 9 -42 68 122 -115 56 38 -38 -34 97 -49 26 -52 76 3 75 -6 -18 98 -122 64 76 54 36 42 22 -113 -80 -24 -18 105 -14 110 21 70 -58 61 -33 -44 89 96 79 25 5 -55 9 -23 -47 77 -24 -36 127 75 13 -19 88 48 32 44 113 -118 2 50 -107 64 -60 -98 50 122 21 -20 -67 -65 106 100 55 2 8 100 40 -63 -115 -7 -110 78 -68 -109 63 -116 123 53 14 32 -14 -9 62 -90 86 -3 -82 111 -39 -17 -106 109 -94 -71 121 -59 63 46 -13 7 53 -97 -123 -112 -30 19 53 78 -65 -116 60 101 -106 80 33 98 -127 -72 8 101 -122 -54 -43 -2 5 19 122 19 -38 112 -36 -92 0 -59 89 96 -18 6 32 110 -112 -90 86 -112 -1 35 95 -14 -127 77 -98 -7 63 -72 -72 -48 -27 -85 95 -91 -14 -58 -109 118 4 127 115 -24 54 115 56 107 -85 -18 89 -108 -82 60 -110 -27 -84 43 -6 -84 41 -116 92 -39 -20 123 -44 23 -29 77 -73 18 95 110 -31 -23 99 53 15 33 42 -69 38 101 -72 -75 64 8 -60 -85 -56 112 -103 108 -69 -110 -46 -34 105 82 78 -25 -54 105 70 62 -109 96 90 64 81 57 -40 -97 -34 -107 -33 -112 -118 -82 94 100 34 -25 126 -20 -84 -60 110 -39 16 16 -81 -66 3 -27 4 -91 57 -1 56 -96 -64 -59 -102 -37 83 12 -101 74 -51 -62 103 46 78 -14 83 -66 -8 -83 -103 -21 87 -58 113 -127 70 93 6 23 -7 86 86 -102 69 -111 -87 72 -96 -87 64 -72 71 70 14 1 -4 57 -80 108 96 -54 -59 116 -114 -11 -107 71 -24 49 117 27 73 59 -127 -127 24 -6 -71 76 -60 69 29 104 125 100 105 2 -47 -67 -9 -38 53 -65 120 37 75 45 -111 -54 82 -59 106 8 99 16 -56 -31 77 -57 -121 0 91 55 48 120 13 -43 -119 61 -75 -98 -117 26 -69 -107 120 -87 -83 -39 98 -8 -70 -74 -36 114 -94 121 77 80 -52 -84 103 78 15 14 -56 -52 -64 -63 89 -124 -77 -9 126 -58 17 -51 -39 -12 112 56 -62 -97 75 -69 -27 81 -110 4 74 -29 47 -43 46 81 -24 33 61 81 22 -124 -111 18 -55 27 -112 -91 99 -98 -89 -97 89 -125 -107 -44 -107 15 -99 64 10 72 8 -84 39 81 -92 -85 -33 -76 -34 54 84 89 -127 -103 100 65 89 -67 -62 -43 -84 25 -60 -112 -56 85 88 -66 -76 -75 -113 -85 103 101 28 -92 -40 6 -75 69 -52 -116 -57 -51 -125 29 -29 39 -111 -110 81 87 87 83 -25 108 -100 113 -25 -108 -68 -17 28 75 24 -105 -37 -86 -127 -48 -123 99 57 56 93 -32 52 -16 20 67 -85 -12 95 48 89 -79 -70 -21 -78 -88 93 -30 -106 2 38 -26 61 102 42 10 57 100 76 82 -2 -33 111 -100 37 11 104 -74 79 -64 110 22 62 -46 4 -39 -54 -79 -116 -31 -52 -71 82 -95 78 -12 51 5 -125 42 -5 15 -63 110 79 -17 -125 40 50 -61 82 -63 -65 -126 124 -23 -81 27 -35 11 1 75 97 49 -32 -117 -126 -97 -46 0 -64 -17 -111 -93 -107 20 59 -106 33 116 84 66 114 57 -84 -77 51 -34 -84 -61 -86 -17 -123 43 -113 16 -98 -11 53 -119 -26 -16 122 39 -77 -18 67 25 -66 -123 -18 82 -92 -124 63 72 -101 -82 -113 21 -40 127 80 -89 21 -83 114 125 30 -107 -94 17 -61 104 -63 -65 50 -51 100 -26 87 45 99 92 -56 6 14 -99 104 -107 57 41 -35 -124 70 -65 94 -74 -114 -63 -93 -62 -23 -109 -19 75 -12 50 31 81 -94 -104 -51 19 22 -67 -18 17 -101 -6 -64 -111 -94 -48 67 -113 116 -59 44 -100 114 85 4 -41 93 7 -42 61 -58 112 -68 -100 -53 17 60 107 -55 11 -15 88 -63 6 44 -96 -41 76 121 -81 9 -76 3 7 -40 64 115 -114 -17 -117 52 -13 -54 -71 36 67 9 125 92 14 107 19 -79 43 106 -101 -88 112 -109 -62 -13 47 -8 -23 6 -97 97 46 108 49 -51 -33 -95 3 40 -13 22 91 -87 12 62 -104 -46 -91 2 -104 15 -37 -74 -94 -26 -37 -107 -2 66 63 -65 103 114 -33 -17 -62 100 94 78 -61 -17 59 -27 -82 4 -110 41 52 -103 86 106 68 -50 63 44 68 6 -125 96 -95 18 26 -2 46 -40 -86 -56 -72 7 31 112 57 -43 -125 -44 -109 107 66 -86 118 100 -110 14 118 66 -13 -121 99 3 -4 -71 35 -20 -89 26 -108 81 26 72 -50 -91 -98 -53 -127 57 62 76 -76 19 -55 79 -45 120 -78 23 -30 -15 63 125 -69 -72 -74 60 -112 -84 -88 6 125 -60 -11 -125 -92 -34 -80 -35 75 3 92 39 -106 118 -57 -109 51 -6 -61 106 -122 -54 -124 -4 104 -79 -117 117 69 -15 -75 39 27 8 -90 108 -18 -22 114 37 61 -111 56 -69 -47 19 -27 -7 18 -4 -9 39 -110 -74 83 -85 -89 -2 57 -53 119 -93 -12 -108 11 100 -75 -44 84 28 -110 106 35 63 61 -44 -123 67 73 27 -113 -49 -92 125 78 82 -93 -70 70 51 -7 66 44 -1 -45 -127 55 8 -41 -92 -115 -57 -60 7 42 -29 -6 9 -22 -76 59 4 8 106 -120 12 112 70 -89 112 -29 123 -65 -88 -89 -115 7 91 -70 53 109 -8 -14 101 91 36 -64 0 108 86 -65 -112 1 -104 -29 -18 99 88 91 -54 -115 -114 -38 -78 110 74 -118 95 -21 28 -77 -33 37 -90 -108 65 22 90 -113 -6 98 -1 73 108 126 -58 -49 59 20 -48 78 -62 31 -100 112 -93 -108 -119 37 56 -84 -91 -107 -100 85 5 -122 66 8 -22 -104 113 -57 -44 41 -48 -30 15 109 105 64 -74 74 -34 -127 1 -116 -36 -40 -21 9 -95 46 75 99 41 52 -126 83 -65 74 -100 -33 81 -14 105 -91 -98 87 71 -6 -15 68 -115 43 -81 101 91 74 -126 -60 -121 62 0 -87 -49 -101 -88 81 -122 21 19 115 -2 -47 -49 -51 -49 96 -71 -102 111 91 94 38 18 127 -120 -23 -76 93 111 96 -41 107 -36 66 83 -93 -18 55 -104 -114 -100 -64 57 20 -56 71 113 -10 -16 51 42 -104 -20 92 56 -66 -30 110 23 17 33 -2 25 118 5 -88 65 54 -29 -32 27 37 35 79 36 102 125 49 -114 -89 -10 -13 -62 -82 103 -121 63 45 -102 99 -14 -110 40 -67 102 -34 105 111 -58 -67 -68 0 6 -111 -124 28 101 -59 111 -71 33 77 126 1 123 -32 -72 -95 44 45 117 -33 58 42 -13 10 -74 113 118 -109 -80 58 41 126 -26 81 38 -43 2 -60 57 -106 113 -24 -35 -62 -110 10 -119 -82 -65 30 127 -88 -37 -91 -16 -82 -107 -68 -92 -27 79 -98 53 95 -96 -23 -66 6 -120 -123 123 31 37 101 -22 -45 11 47 101 -1 22 -87 36 28 37 -42 108 38 88 88 -30 -55 -126 -60 -96 -97 -69 13 71 -10 -80 70 64 34 99 -113 9 -99 36 -1 -84 -75 40 -19 -115 -26 -89 63 -121 29 5 70 24 -14 -17 12 -86 -63 72 -17 -98 -80 43 -86 -16 94 93 21 -94 -98 -125 113 32 -56 -28 -13 27 98 -77 38 -84 123 -118 59 95 6 -127 25 -67 -12 91 116 88 31 5 125 -31 -116 -32 -36 -110 -25 -33 -122 59 61 -35 6 21 97 -99 9 77 96 29 2 62 64 -113 -120 122 38 21 41 77 62 -101 -105 -59 -54 11 -17 -61 59 84 34 -82 119 -62 71 -29 98 -19 -14 60 8 -40 7 123 -81 41 -120 45 37 93 28 59 19 119 104 26 -38 -89 -60 -42 -110 -46 -41 -5 -29 67 96 -4 -100 70 104 -54 111 -73 -117 84 -77 -95 -52 83 -44 -124 64 77 26 10 -123 92 -78 18 107 70 88 -70 -30 37 116 12 -59 115 -66 -3 15 -67 86 50 -76 -78 49 15 44 -14 20 -58 -77 -23 100 18 92 111 -50 -10 -13 91 81 -93 -106 62 88 -7 -11 13 82 10 -50 65 48 123 -98 -30 31 -93 -37 -32 -107 -86 -12 30 -79 -43 -84 -108 63 7 22 40 55 102 20 56 -123 -53 -117 71 46 52 56 107 60 93 100 10 104 4 77 -94 -126 108 114 78 46 -121 88 33 94 -30 27 73 -12 -33 -75 -91 16 55 -59 -17 -72 -56 120 -102 -64 -110 -43 38 1 68 -68 78 59 60 -115 82 46 43 47 111 -88 113 -36 34 67 8 -116 15 83 18 4 -8 -88 -90 -29 5 -42 -115 59 -76 74 126 -40 -20 66 -8 100 -28 47 -17 100 57 -106 -53 -125 -95 61 77 -29 -89 28 2 -108 14 6 61 -118 -104 102 -110 111 49 49 -90 68 51 -8 86 -100 79 114 -32 42 106 -85 -99 -82 -8 -125 -74 54 105 -124 84 71 -119 87 -104 93 45 -97 47 -10 93 -117 22 73 113 92 86 104 -59 120 2 3 -96 17 64 83 36 -35 -36 -4 -4 -13 -13 -43 68 0 -23 -65 63 -109 -81 -72 -90 20 96 72 -97 79 -64 -110 -27 -28 74 115 -61 -101 -74 -37 63 92 116 -123 -88 16 -24 -6 127 109 -119 6 -123 -34 -52 71 -122 71 -111 47 -90 105 73 -9 -76 4 127 97 7 102 -101 -95 69 -62 36 -27 -110 109 80 -45 -20 -63 -114 -97 127 104 -63 85 121 126 62 88 -99 54 63 -109 -46 88 -21 75 127 -90 109 -101 -73 55 29 117 100 123 -87 -8 17 -39 86 -106 -111 78 -33 -55 109 -112 6 -16 84 -11 -35 5 27 -34 -25 -8 96 2 78 -64 55 -11 -10 51 20 104 81 35 59 -64 -103 -38 -102 69 12 -119 116 -15 -40 79 -98 121 -112 73 -117 -109 49 111 -59 92 72 27 61 60 -56 -125 -27 -80 -24 -110 -98 105 -126 55 -112 -60 62 26 -60 -40 22 117 119 45 28 -16 -30 115 64 19 -16 -25 64 -70 -6 -93 72 79 -41 52 -66 72 98 71 -123 8 106 4 -28 -31 -118 -14 -109 86 55 -102 34 9 85 -43 -113 51 29 23 -92 116 -103 10 21 91 73 -23 -120 126 104 -68 5 120 87 66 -90 -120 -34 -43 -88 5 113 24 -114 69 49 -3 -67 -68 98 -18 79 52 113 79 -71 -27 -86 -113 -16 -13 102 -91 42 29 23 101 18 -33 126 -52 92 56 -117 -1 -26 -66 -83 -76 71 -55 105 113 -76 -38 13 -127 125 -31 -14 -125 -54 -39 -31 -22 58 -93 -94 69 -107 -104 33 -72 -57 45 -22 114 -65 -19 -80 81 -127 -19 -63 -60 -62 122 33 -88 -42 14 -36 80 -104 -2 -85 -93 -106 -69 33 -15 119 -4 -3 -32 -80 42 -22 -72 36 -100 95 52 55 -107 -50 14 -89 -29 99 16 -116 4 102 -34 -122 -104 -53 98 88 113 -31 -100 -63 96 -19 -82 -87 114 72 49 77 -33 -73 -48 -41 38 116 36 13 -84 20 -80 -87 5 96 69 73 95 -124 -118 -115 -33 -117 32 -60 26 -58 45 -51 -56 115 122 -5 -30 -95 4 -118 64 -41 51 99 127 -7 36 75 -9 112 -83 63 119 77 75 68 -69 51 23 -118 108 12 41 -111 66 102 8 9 14 56 70 57 -39 104 -62 73 -78 85 -20 30 41 -31 -114 -51 -71 -8 110 -47 5 -53 -24 0 122 -27 81 65 104 -43 -11 20 12 87 -53 -107 -123 -45 -54 66 -1 40 91 -96 -40 -116 5 25 111 72 90 65 10 -65 -116 97 19 127 91 -106 -110 101 -107 34 39 -104 29 -99 85 -55 -99 42 -42 101 -56 -121 92 12 -71 -122 78 126 -2 -66 19 -59 13 -29 -126 3 -72 47 -31 -4 12 55 102 -8 87 70 -21 32 -27 93 69 11 78 -90 77 -59 12 -6 15 -43 57 -17 -71 -113 -70 -38 -126 -63 79 -8 47 70 119 9 18 77 115 -40 -81 30 57 100 -123 -1 -44 -95 -54 73 44 45 40 -40 11 -6 -39 25 67 -35 7 67 57 96 15 -75 -97 49 -23 2 -42 -79 6 123 96 38 -73 -34 14 -17 115 18 -20 -31 -63 22 -2 117 -33 -53 -64 99 121 110 107 -31 12 122 -95 54 -122 -1 -69 90 20 -72 -89 63 -119 113 -89 -20 104 94 -72 -27 77 -52 -44 96 -60 -48 67 -93 65 -95 -5 28 -122 8 -68 -121 10 23 -123 -46 -87 -88 100 50 57 -62 37 0 -80 -83 127 29 -83 66 -108 36 -1 -41 115 -49 -113 19 93 121 2 58 -34 8 -121 -33 -114 -102 78 40 46 -31 70 -64 125 -112 -47 37 125 -40 39 37 104 -49 -62 58 67 51 -27 30 -120 -93 107 58 112 -52 14 -23 -91 -66 22 84 58 89 49 -70 70 -39 48 -53 -74 -81 96 -52 32 -43 105 65 110 48 36 -44 78 28 117 74 -103 -72 -123 36 -19 48 17 -56 91 87 -16 -69 83 -103 79 61 -4 -104 -93 -99 -101 32 -77 -41 -15 -45 56 -41 -34 87 -64 58 -82 50 -29 -13 62 52 -3 -13 -104 84 -95 -63 94 88 -66 28 -30 27 -73 49 -68 -91 37 67 -55 -43 120 -74 102 119 17 -76 -42 55 -15 58 18 96 -98 89 51 77 122 118 26 -121 -57 -4 80 40 -14 -43 22 38 -90 -116 61 123 59 47 -60 71 18 9 74 -122 -40 49 104 -123 35 -46 -116 -118 -42 -59 -112 32 60 -51 -52 23 11 3 92 -11 -13 31 38 -119 -123 71 -12 120 55 61 13 9 79 -50 -14 69 51 -8 30 -98 -27 19 -69 -96 65 59 52 -84 106 -127 -113 -79 17 62 34 28 82 -126 10 88 118 102 -99 -71 75 21 -64 -113 11 -29 -9 62 96 -23 112 43 -17 96 114 86 -3 14 83 121 53 -103 -43 52 101 -65 -20 3 -13 -116 -98 -63 59 -97 -2 -30 -32 -122 -38 -102 -61 -32 118 20 74 -7 25 56 -105 -48 93 -50 37 -7 6 102 71 -115 36 -101 -104 85 -54 -122 41 -99 38 -40 61 87 116 125 121 12 -111 38 74 124 108 120 110 -113 -5 81 20 -111 0 6 -97 -2 42 -79 -1 83 -26 -81 -121 97 -9 116 82 -33 33 83 103 92 25 -30 -57 -117 50 93 -65 51 -64 93 121 101 52 -76 16 -66 43 15 -120 111 -53 -54 49 -44 -106 -56 -19 -65 41 -125 20 105 -123 7 101 -50 75 12 27 -79 -40 -26 -16 102 70 -43 79 123 -60 124 21 25 112 94 -7 -85 5 104 -108 -18 87 -92 -88 72 81 100 -66 16 -56 -92 44 41 -102 -1 34 77 63 -19 29 -35 -40 -1 29 13 68 -14 67 -3 -86 94 -13 94 -13 -125 125 27 15 -84 40 -124 13 36 47 79 92 35 99 -61 -56 50 33 50 -90 23 -39 76 93 121 -61 76 101 -10 -74 86 -16 -110 89 -118 51 44 -67 40 84 27 -122 -75 59 -80 -2 -98 104 -71 -84 -120 -92 21 38 -25 118 51 -31 -3 81 123 -58 -127 -88 55 -104 77 -113 15 -88 -61 8 114 -43 85 105 -44 125 74 101 103 -101 -106 -60 -6 -8 101 -64 96 83 52 58 -77 19 95 -126 51 75 63 -30 23 -18 38 -27 -4 -100 -25 16 -79 118 -108 39 94 36 32 -124 -30 121 -119 85 113 74 -100 90 -106 111 23 5 97 -96 94 66 -114 -66 -64 77 110 125 -106 -66 -19 -76 -8 -35 109 30 -51 59 107 -77 -106 -77 -14 -28 -24 62 -81 -31 76 -118 -45 95 -81 -43 -4 -25 -117 -73 -63 -32 -88 61 121 -113 33 -3 -81 76 39 -21 -72 -23 86 -64 24 17 26 -86 101 36 -115 56 -54 20 -73 59 80 -38 -97 124 4 90 89 61 -77 97 52 13 -26 70 83 110 0 -54 26 -111 -60 37 -14 -74 -88 30 -67 71 114 51 85 -74 77 76 105 12 59 -89 93 -62 17 42 117 37 -46 -36 34 -73 -5 -111 -87 -112 -98 -29 10 -117 -78 90 85 -79 -60 19 29 -109 -105 56 -125 95 -46 -51 68 -107 104 -21 -94 -74 -86 -121 -22 114 20 66 68 -43 18 8 -111 20 49 -80 27 -69 -89 -55 -79 12 99 111 -24 -21 78 -73 94 -70 -126 99 51 -2 -88 -83 -113 0 39 -55 -99 -50 60 66 -110 13 125 -115 75 -14 52 8 -93 -10 -92 14 76 -36 -14 8 13 -109 -47 101 -87 68 57 17 -61 -42 113 -82 -120 -106 46 80 25 28 27 109 -53 -53 22 -83 104 -2 -60 115 -28 5 88 -38 -89 -65 -83 80 -120 -98 101 -34 -80 13 -103 -111 -74 -11 -17 -111 55 91 44 -114 32 -8 121 -15 -25 77 -14 64 0 6 -85 -98 -95 -68 -45 88 32 -106 64 -116 -91 -109 -86 34 71 -50 6 64 10 49 -65 -36 -86 13 30 -91 -19 -34 -116 -73 -127 19 116 41 31 110 79 -124 -38 31 53 -17 85 57 97 69 48 76 -92 30 17 -22 -87 -53 78 5 -110 -79 52 -127 -73 95 -7 1 63 -53 2 -54 -32 -25 2 56 -12 105 79 5 84 -2 74 105 16 -44 13 33 -82 -115 95 37 -47 112 60 -66 -10 14 111 76 49 64 4 -118 -95 86 -127 57 72 -70 127 -39 10 -22 125 28 -116 35 123 -115 105 -24 7 78 -58 124 70 86 10 62 -92 -80 94 -61 101 16 100 -83 17 74 -72 43 25 -59 78 6 62 -68 -123 83 60 -73 55 22 99 106 -96 71 -50 54 95 43 -41 106 -93 -92 -47 -41 65 65 -63 38 84 107 109 111 -8 57 -122 104 -124 -81 49 -31 -37 -85 -49 14 -58 -2 -24 58 84 0 120 28 -74 28 109 16 98 -26 64 20 34 -123 15 111 55 11 116 34 -74 14 56 94 29 4 19 22 16 22 -40 51 -67 56 -5 43 38 -122 -91 -43 122 -95 4 -37 84 56 78 27 62 64 -6 109 -104 -78 -59 57 61 -7 67 -60 -77 80 -3 