-63 -24 -43 -71 -56 84 -115 -82 -93 96 4 -122 -113 46 116 101 -111 109 -17 -103 -86 55 -123 -82 32 11 -7 -11 -80 -124 -102 -21 71 -65 -108 -96 96 126 -111 39 -125 28 -36 51 77 -80 101 -20 -71 107 -45 100 -40 72 124 -58 -74 -84 21 67 -85 -84 72 -59 73 -90 -97 -39 45 76 -109 35 60 79 -47 -22 94 94 26 -17 95 114 81 -64 62 61 -27 35 123 103 -19 -93 18 49 -30 -114 104 -61 21 -28 -78 65 -97 -80 -57 -68 7 61 95 -93 61 -13 99 57 112 -104 -50 -61 -31 -47 107 45 -95 127 17 -63 -8 115 -23 -71 82 103 81 0 -26 -53 -69 -7 57 54 -69 57 106 -55 12 101 36 89 9 -71 100 36 -47 -127 -95 -51 -81 17 112 -94 -52 35 3 -61 70 -3 41 -38 77 114 22 122 -25 34 95 -47 91 -88 80 -123 -42 17 -95 115 65 -96 108 118 72 70 -124 -113 106 -123 -99 -65 -108 92 -50 51 -19 96 -20 -17 -7 88 118 6 62 3 93 33 -104 -14 -86 125 39 99 49 67 -54 -67 -46 -57 -127 107 -83 10 -7 7 -26 83 -29 -104 -73 -120 43 -46 -117 27 -100 -69 -23 96 22 -13 84 28 -20 -101 -76 -75 57 88 110 108 -40 -67 -76 109 -90 -49 -19 -2 -93 -71 108 -116 -122 69 12 -69 7 -64 -31 108 10 69 -90 66 -125 68 -21 -22 55 9 108 99 57 126 -58 89 76 47 46 -65 -126 53 -87 83 -53 -41 83 -91 -105 5 124 -55 28 80 59 -69 119 125 41 32 -9 -105 -84 -111 -32 -72 33 -70 -33 -125 124 75 97 15 -107 73 11 -33 -93 65 -115 -115 61 59 -1 -107 68 0 -16 -38 -17 81 -103 -47 -81 102 -61 95 -74 -109 -61 93 63 -23 -108 -93 -2 95 -110 71 -106 -75 -61 49 -120 -108 -89 -68 99 40 -29 -33 14 -69 -38 66 -27 19 -49 117 15 8 -66 57 64 62 -112 8 82 -7 85 -124 -100 118 21 -56 104 51 126 -119 -46 14 96 111 -41 -100 -39 -43 94 32 -33 67 -19 64 92 28 78 -66 -105 80 68 32 36 4 114 -90 -78 41 115 -115 -57 28 64 5 58 -67 -79 -121 -101 -6 8 -116 77 -25 -98 111 94 6 44 66 -52 -110 -49 -115 29 -127 79 17 -117 -30 97 90 34 14 -34 -38 -86 -78 -54 -119 -116 61 -10 -50 91 -4 -40 99 123 -20 -91 -100 -119 -7 -44 -105 27 -72 125 -102 22 6 -31 32 73 70 86 -106 -28 76 81 -24 -23 -82 13 -13 -58 58 -104 -108 -117 109 84 106 -119 70 -102 96 1 98 88 109 -37 -118 122 -6 -36 54 109 4 64 -4 -91 65 -59 -9 -26 117 96 68 -42 -40 11 -127 56 65 -76 85 90 82 118 101 -4 -126 -25 -48 110 -86 -116 127 51 64 -89 64 4 -105 110 -52 83 -58 -109 57 -49 -31 -70 -111 119 -107 -17 -57 -60 63 86 -111 96 -119 -62 -121 67 0 3 -124 -86 86 -101 -74 116 94 -30 11 94 73 31 86 -23 -36 -54 48 -36 -17 -16 2 -118 95 -41 34 -88 44 24 58 1 32 102 -61 -64 -85 -9 77 2 33 27 -97 113 -4 38 121 22 -58 -89 -61 52 -124 16 -113 -119 -4 -52 77 121 118 105 105 100 -89 -10 -124 55 113 -14 -59 109 19 -47 118 81 40 83 40 -12 16 -27 -88 -45 106 94 97 -116 70 38 50 -114 92 -90 83 92 -89 -127 84 32 69 -14 -86 -39 108 -58 -66 -47 -121 -59 78 -8 8 57 -5 67 111 -53 -92 -108 58 60 -49 -119 -108 -51 -115 45 56 -99 -106 39 -105 -94 75 -22 119 -52 -81 -88 -116 88 49 -49 117 34 58 -21 -95 -105 -87 19 91 -16 13 -67 -4 -60 -82 -71 -68 62 54 19 -67 47 8 -19 -123 91 123 -101 -96 -50 64 -70 -121 31 -37 -4 -119 113 -119 20 -24 -41 -86 -113 -22 -27 124 15 82 -77 -79 -106 -91 15 25 28 121 81 100 46 -117 34 -80 -63 -125 -97 -22 121 47 7 78 81 68 20 93 69 30 15 40 61 -5 -47 58 120 -15 -55 -118 -74 104 -119 -8 -68 108 93 104 -118 -47 26 34 -42 -35 102 118 50 -99 91 80 53 -41 -63 33 -122 40 112 -125 46 19 117 -64 88 78 -126 -30 93 68 -46 -61 13 19 90 87 31 1 77 5 93 16 -60 61 -18 -107 6 -42 51 -46 3 -3 1 11 -68 -16 -31 -13 -125 -102 -19 94 -26 -48 67 70 -27 -38 -10 62 -15 121 19 21 -98 -91 31 2 -74 119 59 -112 -36 -24 -102 -19 85 -39 31 -71 -25 33 -3 115 10 -91 22 -117 -110 43 -1 11 -105 44 56 77 -10 3 -21 -124 -1 -120 81 -123 108 -87 -71 0 -17 -105 -98 63 -62 -38 -43 78 -2 12 -80 -25 96 125 -93 -118 -54 -112 -28 74 -27 -12 -92 65 99 18 -90 64 88 -40 -72 78 57 -28 -104 -98 -104 -75 90 30 -37 70 69 -90 67 -92 2 11 -35 90 -106 91 -5 -108 83 -37 85 12 -2 -126 -74 50 -80 99 -109 108 -26 -80 -7 110 -82 -29 63 -126 -121 8 -12 108 113 -79 -87 32 42 103 42 -127 4 51 -37 -111 125 -97 9 -53 32 -6 -44 -35 16 25 -34 22 88 119 -101 -90 -10 126 -62 34 120 -56 95 -99 -81 62 73 65 103 -47 -107 -27 56 -42 63 -17 94 12 52 -47 55 68 114 -5 48 34 124 -27 -21 -116 79 -5 69 127 83 27 51 -88 -127 -19 -47 -117 57 0 -82 91 -32 -64 -57 43 -75 109 -94 -71 -48 18 -4 21 26 -102 47 -62 60 18 57 18 -55 17 95 -51 24 10 8 1 120 -57 68 -18 -56 -124 85 50 -17 96 -21 115 -21 -3 -43 -37 -41 -41 99 -101 -53 46 123 -7 96 -23 18 104 -53 64 15 5 55 19 80 116 4 -125 -83 98 79 -48 84 -88 11 -66 52 -107 -87 68 19 -28 -71 65 -27 99 -92 49 -91 -116 -33 62 107 -99 -103 85 -10 -22 -122 -83 47 -97 83 -58 -74 -86 -112 -22 -110 126 6 -90 48 57 -69 124 -53 -14 72 -116 89 -69 -3 -115 -80 126 -95 124 -32 114 116 77 47 -126 123 93 65 101 39 54 34 -103 -126 5 -46 72 -104 -81 39 -95 -113 -42 16 -119 -13 92 52 95 93 11 -4 -28 26 -50 59 126 101 -2 -69 -16 38 -10 117 29 -114 -118 -52 -6 109 -46 -70 -28 62 5 91 -61 35 41 34 65 -52 90 -116 -93 125 -113 -13 -80 75 -51 -42 -73 -30 38 -87 -109 -6 35 -69 -3 -65 25 124 112 -86 -10 50 -25 1 57 20 -101 -93 95 -21 44 -124 -59 16 -31 -10 68 62 124 -51 88 66 51 -25 76 -79 67 -31 -53 -46 -65 -46 99 -116 -50 62 -23 78 -95 110 -2 -99 87 1 99 69 -76 -31 -28 98 77 54 70 98 3 22 105 91 -60 -102 -4 -57 -51 112 -28 3 100 -51 49 95 -55 -61 62 -56 -76 -70 -61 63 32 -15 -71 -45 3 -90 -111 23 -121 21 -35 -80 -12 32 45 -83 -30 30 75 20 34 22 39 -52 -37 35 -5 67 11 56 -16 28 69 19 -76 95 9 -106 -74 42 -101 72 -35 15 -55 19 -83 108 83 74 62 91 -47 14 98 111 -106 -79 2 -74 108 -71 -70 33 -64 91 84 117 7 127 -118 21 -67 97 125 -126 108 -60 88 120 -62 84 109 -82 -57 40 -10 -94 23 112 -103 69 35 -29 -86 70 -93 -24 -59 -77 -123 -101 4 -69 63 -86 -58 -13 -28 108 66 103 -107 -104 -6 -13 115 -117 -2 78 31 77 -16 -88 106 48 -117 24 -120 76 0 -50 -28 -122 -28 123 64 -34 96 110 -95 -92 -46 -25 75 -108 -103 -62 -91 -77 -97 85 -102 -51 22 4 -113 -115 -43 -8 -26 -114 113 15 80 -19 -25 -39 -86 127 -95 -55 53 122 -110 -114 74 -22 42 85 -66 96 24 112 -36 -79 -57 -44 -61 43 -44 -85 -101 -99 -85 78 -31 83 116 59 91 -47 23 67 -83 123 -83 23 112 -99 -15 -52 111 119 -56 -38 -83 75 20 -12 -123 49 -31 17 -25 45 -52 -127 44 -107 74 -55 93 -123 -47 -77 123 -73 111 -106 52 90 -28 117 102 102 21 -81 75 -100 -106 -34 105 72 35 -83 55 -18 57 20 47 -79 20 49 -106 30 62 119 114 -27 45 -34 62 -18 -83 48 113 -120 56 -58 104 -109 26 50 37 37 -117 -8 54 87 -29 66 -118 85 -119 126 -92 -119 78 62 66 62 -17 -117 13 -40 -27 -52 -114 22 -30 55 26 -46 -54 -6 19 -72 -73 23 120 -20 4 -81 -64 62 55 52 -16 4 10 111 -97 92 -6 58 52 -118 -49 123 -24 123 -45 -56 87 118 -47 80 90 -118 -27 53 -119 42 65 64 81 39 -56 6 127 -92 107 114 -63 126 -114 127 -65 -49 10 -62 22 125 74 103 -123 -19 112 -96 -32 -58 -111 108 -8 28 -123 64 -88 96 14 8 -99 -53 106 105 66 -87 -56 53 -9 9 32 -94 36 -35 101 115 94 -55 -30 26 -84 -80 39 -83 94 87 42 114 -87 -25 -57 25 -67 117 47 23 -74 -110 81 107 45 86 -5 123 -64 -71 3 13 24 15 38 82 114 -23 -127 -114 101 -85 12 104 61 0 -11 -28 12 -53 -33 54 121 22 26 120 -72 -28 -101 99 -56 40 -68 -102 -35 83 97 -50 56 -85 -11 -30 -3 88 0 107 119 -22 -50 11 22 25 116 75 107 -18 11 -100 113 30 -34 -111 4 -21 117 55 123 30 115 32 -43 39 -108 52 -13 91 -40 -34 -37 -116 126 75 38 50 -27 105 -5 110 -89 -9 26 -69 74 92 -20 -55 -45 -28 47 -89 -19 92 -55 -30 105 25 47 108 33 50 1 2 7 -106 -31 119 -50 -12 -74 -25 -25 -104 -104 -104 10 -69 -19 22 -49 93 -80 -101 50 66 -57 56 -118 -33 106 1 41 -15 25 105 58 -121 104 44 -94 123 -34 -64 -123 -116 52 49 -46 -16 -111 -99 -38 -57 39 -77 -70 65 25 -9 118 103 -42 -2 22 72 105 4 -5 -51 127 -12 -47 61 -126 -92 -44 28 94 -13 -29 -63 70 64 -110 -11 76 -99 31 -13 68 43 -104 -7 -78 56 -27 -56 -13 -105 49 -39 36 96 -93 -27 -116 54 -52 24 13 -73 86 37 -62 103 3 23 16 26 62 -108 32 100 -80 16 -60 117 89 48 -76 97 13 -89 -57 88 41 -67 -125 -37 -87 -7 88 -89 61 -114 -78 -57 -51 30 -15 -112 -80 -80 -13 60 25 -112 -108 -72 88 29 -108 -21 -88 -120 116 34 20 2 -102 22 79 123 -105 -66 94 -40 62 -55 -26 15 -112 66 -103 -25 -119 48 -117 -101 -98 95 -104 16 -83 -91 93 59 66 68 110 -75 124 3 -75 -81 -70 -117 -98 -82 110 -66 22 -45 -63 114 108 -13 8 -96 -46 -77 25 52 48 -31 -27 -18 -102 46 -43 -56 28 120 -121 99 6 32 -88 -6 100 117 23 41 66 111 69 21 55 90 -77 -12 -125 -126 -71 6 -48 127 33 -43 -85 -73 -17 -68 -52 81 -90 3 -26 54 93 -34 32 -51 66 -113 55 -24 -67 1 89 -2 88 -47 -85 1 -31 97 18 117 -2 -44 90 65 110 121 102 -36 -127 -38 -82 -49 -96 -57 -17 -16 -13 -40 -29 -78 -118 6 50 73 -5 87 -31 56 76 72 -52 68 -100 -32 81 37 101 101 77 -100 -120 54 -14 57 -105 116 -124 -109 83 39 90 -115 -18 50 -126 -18 14 98 -115 44 21 47 58 95 32 -82 -126 -84 28 -11 85 91 30 83 33 -114 34 118 124 57 -45 -108 5 63 33 33 104 -105 39 -34 118 0 -77 41 -98 -121 118 23 107 44 19 106 -48 -6 -10 -5 78 -50 4 -58 -66 -48 -82 112 119 24 -23 117 -73 103 84 18 64 -79 -40 -51 20 109 80 21 -100 -42 4 -124 -116 -122 -73 14 73 -5 84 62 -5 57 -17 -46 6 -30 -116 40 58 114 -3 -85 127 -99 -84 -78 125 -106 16 115 54 52 -106 59 48 -1 -37 -48 98 -32 -61 -79 81 32 -31 -95 102 -116 11 -55 -124 -52 -5 126 61 -26 24 -7 -108 93 -109 -108 -116 -93 57 -39 40 37 88 10 -102 89 -39 81 3 114 -93 -100 -54 4 -81 -4 55 107 -24 8 -59 103 -13 -42 93 10 -112 -53 -48 -69 -25 -109 125 -125 -119 29 -92 -89 -114 5 -16 123 -7 8 -56 97 -19 51 -122 93 -13 -82 -110 -48 45 -11 -101 -41 42 59 -12 -111 -33 121 16 55 118 66 101 103 -19 -14 2 107 -104 39 -72 -83 -92 10 -47 -58 -43 73 71 105 -22 -115 -34 63 110 -46 -4 45 -88 -120 107 127 -11 -26 -91 -115 -5 57 -105 87 -21 30 13 -107 127 110 -75 -7 -125 0 86 40 -120 -56 -110 92 -84 25 98 -43 -35 -97 -12 105 79 -46 -45 84 -78 -67 93 71 -86 113 -124 77 118 -122 117 -111 42 -45 -108 81 89 101 97 -113 123 63 -13 -82 -44 45 4 40 -106 -39 8 41 55 13 99 -54 109 -52 127 87 -125 -103 -7 -121 47 -101 71 -55 -106 -122 -10 57 -88 50 89 29 38 115 -121 97 59 -31 -69 -117 87 -27 -24 21 -98 -117 -117 -1 13 118 -28 110 82 -99 79 -2 22 71 -87 -42 -104 19 42 15 103 -26 -23 -87 -8 27 -49 -103 72 74 -105 12 -100 -49 3 -84 23 116 -57 -48 85 3 -127 -43 -30 8 -34 -36 -106 46 1 2 74 66 117 -112 40 -89 90 2 -10 74 50 -62 60 61 62 106 -102 29 -67 100 60 -6 -96 39 98 -62 -93 -58 125 -27 10 6 -88 62 116 96 20 -12 -7 -15 -53 108 54 65 93 36 -20 117 88 19 94 -25 -23 -21 -106 -105 -121 -78 -42 60 33 -38 120 -71 101 -2 19 78 81 -113 -57 -12 -106 -48 -51 93 -124 -33 -24 -99 -21 -63 67 -27 -101 -55 73 66 45 75 -14 -103 2 21 51 31 32 121 -36 12 111 1 115 -109 -22 -50 -30 -59 -34 -12 -44 38 19 -86 -49 39 33 -107 96 -49 -14 103 30 50 -99 -50 -68 -106 28 -124 109 -81 -122 87 7 9 12 -110 81 43 8 -121 24 14 -62 -102 -109 -27 -70 92 28 119 88 46 125 112 81 16 41 -54 -115 103 122 24 33 -81 30 63 -60 -83 91 -106 80 -103 -127 -57 -74 121 -51 -28 -54 32 40 72 38 -37 45 -26 -55 -28 -81 -31 -52 116 -83 56 -113 94 -43 -4 -108 55 31 -16 118 -47 31 67 6 19 23 -111 74 22 123 17 -96 -51 60 8 -12 -113 -102 33 -98 -46 -30 -36 115 -104 117 -16 75 19 -24 -80 124 -14 -45 -124 12 78 -50 -21 112 21 80 0 -28 103 91 60 17 75 69 -72 68 95 -110 127 69 72 -126 67 90 -13 -47 116 -114 113 24 92 -127 -61 -82 -56 29 55 -86 6 115 89 66 -68 -23 -65 -45 -10 -19 -4 78 -6 -36 62 -64 -58 13 37 47 117 -56 89 -2 -37 75 9 50 94 -3 109 -63 -7 -58 -83 108 -65 -37 62 13 5 -47 41 80 -68 -19 95 115 95 -66 111 29 -71 12 -90 108 92 -108 -124 112 -41 -37 109 58 32 -75 -110 -105 71 91 52 -100 43 -104 -102 65 9 -43 126 24 60 -36 -74 -86 41 -30 -121 -14 72 -76 84 85 -64 61 -74 -105 -126 -74 91 -94 44 28 -62 51 49 6 115 -77 118 -60 -95 117 -98 119 3 -91 -37 8 78 81 41 -39 83 -93 -84 111 -104 31 56 77 -60 -96 85 54 -89 -10 28 40 93 -103 -73 100 107 -57 -25 -22 126 -119 87 28 106 31 -115 -54 -121 69 115 105 -110 9 49 42 -1 8 94 -93 110 1 -38 26 -75 124 -88 5 11 32 -18 103 113 -11 -69 97 70 98 83 -81 -10 32 -37 -98 -29 51 -104 64 46 52 -58 30 22 12 98 -113 60 -43 99 -19 29 117 -11 117 -7 121 37 -72 124 -69 -115 72 15 30 38 60 -97 47 -14 -23 -124 -71 38 -14 -42 -107 -76 -68 -83 44 -77 -31 -43 38 -85 -119 -29 -84 2 115 97 -100 -73 -12 -71 110 -46 104 -23 -113 73 112 -121 -76 37 13 79 -25 117 19 -64 -50 -65 52 -78 30 36 -27 -106 -86 -9 60 -37 123 -27 -43 113 -28 -75 53 -62 73 118 -92 13 101 -123 -1 112 106 -109 -50 76 2 -29 -20 -23 -38 -22 85 17 12 -64 104 108 76 -98 -123 73 45 -98 93 84 61 -49 -45 -96 23 -97 -59 112 103 -48 -120 -96 88 19 -26 -100 -67 -64 106 -117 -74 -124 4 98 87 -43 -123 97 124 -81 -115 -113 90 -60 73 63 -91 76 68 -96 31 -112 -97 -16 116 -42 4 32 48 118 7 -17 -22 -109 100 86 -76 -95 20 -13 11 15 87 -69 19 -104 -94 -2 -116 58 -107 1 127 7 102 29 -43 110 33 -102 97 -94 97 22 -13 18 -67 41 43 69 66 63 -127 34 78 35 -83 -20 9 -121 -115 87 -2 -11 -94 -6 12 -67 -66 90 119 55 -42 46 -65 -11 -112 -24 109 -29 -39 -25 -108 -91 0 -34 8 -3 51 16 -23 106 85 12 -67 -101 20 -67 -50 73 -88 -35 -13 -120 -55 -50 -110 17 -13 17 -17 20 -112 34 77 39 46 -39 10 115 81 33 -35 -2 84 -98 -51 112 81 106 -43 -82 81 78 -47 64 -127 -118 82 -78 108 37 124 20 -28 12 86 -36 23 -30 -43 53 17 -40 -106 -9 -91 26 19 -77 27 -18 71 -74 106 102 29 9 -22 -71 -114 -98 -74 -89 -62 -78 80 103 26 38 -116 15 53 3 -4 115 -77 -114 -104 -63 -89 4 -100 65 -104 -89 73 84 -48 -97 -30 115 88 77 -63 28 -33 56 43 44 1 108 72 62 -106 111 -103 20 -80 -33 -34 -77 79 27 57 -4 -114 99 -99 43 96 -107 79 -71 111 10 85 15 97 7 -81 12 -74 -55 26 36 -80 -5 3 -57 34 61 -97 17 91 10 120 124 86 97 66 96 105 -46 72 54 -83 37 -116 109 -11 -20 68 32 -98 -44 89 106 28 83 72 123 -59 -73 23 -24 -107 -101 8 97 -34 2 32 41 -30 -126 41 -61 38 47 16 -48 -86 -55 93 -103 -6 -81 -32 -117 -25 90 25 63 -77 -118 11 -89 57 -113 42 -26 -16 8 -116 125 -122 -89 56 -86 -81 -18 -97 -64 37 -99 -60 -109 99 -123 -31 94 12 98 -41 -68 -94 55 -83 -25 19 46 25 101 48 64 -106 -51 -1 8 -76 -117 -24 60 -34 -52 1 -59 -119 126 -42 3 106 28 56 25 37 -3 61 13 -108 -122 -79 -42 -67 127 -87 96 96 -120 -33 18 -83 66 -41 -6 103 38 -48 107 -3 -78 -20 62 -65 -28 -95 118 41 40 103 25 -27 21 19 -77 0 -80 -50 -126 72 -97 -40 36 -65 -57 -117 -67 65 -16 -22 -3 -60 53 -95 109 42 125 15 -96 -97 -94 -35 -61 77 109 87 -16 20 -110 -95 -102 -98 95 57 70 -102 -38 -17 101 49 24 111 -83 -50 96 -83 73 -92 89 -84 -104 -91 39 87 -91 71 107 -27 -10 -76 126 -67 -37 -55 -82 -31 67 -13 -31 -119 52 -118 -109 -57 -47 -81 67 46 -40 113 -49 83 -39 86 35 -90 86 -92 70 37 101 60 -41 9 -40 68 17 -61 -42 -67 79 50 -108 17 29 58 108 78 -82 42 118 63 0 28 -63 -120 -22 51 -25 88 -71 -52 66 85 41 -7 83 47 -8 93 115 -126 73 -8 64 -126 40 105 39 70 -60 -89 114 58 -74 -32 -77 -41 21 -117 124 76 15 90 -11 -107 -65 -121 39 113 65 25 100 -124 -28 6 41 33 -87 125 5 39 7 21 71 16 -125 38 110 -85 27 83 84 102 -50 91 -118 90 24 -111 79 124 69 -58 -33 97 -92 -47 -36 -120 -100 72 12 19 -95 -116 121 30 -90 -63 -4 22 -40 -113 -70 -26 42 57 -87 -7 9 83 92 41 79 78 0 69 58 38 72 63 -56 -97 107 -55 -23 -29 -79 38 -95 -102 -72 -114 59 84 30 -123 66 124 -122 -15 76 5 -127 -70 36 -46 -7 -9 -75 11 -112 94 -13 -3 -22 18 21 -85 -124 -34 11 -33 -16 -30 -25 117 -61 -27 -109 -41 45 -100 -22 10 -105 67 -47 84 -51 -65 59 -69 8 62 12 -2 -99 -49 113 77 -99 -26 -44 -122 50 2 17 -43 -59 96 85 6 -36 -80 33 60 62 -72 50 14 -72 14 45 15 21 76 35 -71 -115 -59 125 -57 -54 29 -126 -100 -108 -54 26 38 -127 49 116 -79 116 28 -43 -63 