17 64 41 -80 -76 -114 -60 68 -97 113 35 3 -117 -58 127 -122 48 48 -59 99 -78 42 23 -117 -54 38 -50 109 -57 -13 -93 71 -75 -92 10 48 57 44 -94 66 100 -25 -11 -8 31 -80 -24 -63 15 66 122 118 -25 -98 121 50 -126 -83 46 -84 13 47 80 -123 -91 2 -117 -48 -77 -58 88 -69 22 62 10 -55 54 36 -87 -4 -92 98 -73 -57 -77 59 -126 -112 -6 -124 -37 -56 100 -123 -50 106 -67 -21 -97 4 -103 -116 48 -98 123 -17 24 -19 -107 4 16 21 94 -97 -30 -39 48 -75 -19 -59 -103 1 -93 13 7 103 32 -63 
-43 -81 127 30 -122 58 -122 8 90 -16 111 -49 -22 89 -114 90 120 -21 22 -54 -117 -94 41 -112 -23 98 -76 -68 94 -7 127 76 -111 -108 -72 -24 86 23 -120 -108 89 -90 17 -94 -32 -113 -113 36 -40 -77 88 -61 -28 67 -20 -93 -51 -73 29 -116 -65 -118 -53 -83 0 -18 -34 -76 -90 102 -122 -78 35 -76 -54 -122 17 117 -87 40 44 -97 105 18 -94 20 96 18 53 91 29 -39 95 25 11 -44 -64 -52 57 -11 33 12 27 -87 -3 -46 -106 -121 -119 -72 -89 -50 42 -107 -117 91 0 -100 62 48 -106 -40 78 -126 -97 87 -103 -59 
49 -59 -87 -41 -123 -22 -30 -99 -59 123 78 4 -24 76 -39 -99 4 9 23 74 -32 -110 -15 71 29 44 80 18 -80 -14 -104 5 110 -66 100 -82 91 -27 104 122 -46 126 92 6 -114 -28 -85 -58 -54 32 116 7 70 46 16 123 -27 -44 -42 62 -116 1 -49 -11 -60 -52 122 -48 -46 -68 102 -49 62 38 -64 -82 -104 -124 -119 9 59 -4 -50 -84 35 -14 -3 92 9 -68 -61 -11 67 10 -121 -77 119 104 -43 9 16 54 -38 -100 106 2 25 99 123 -32 24 54 -63 51 97 -125 47 69 -34 94 -84 42 -121 -54 42 -96 -110 34 
-3 -107 119 59 -27 62 -18 127 111 -8 -43 3 57 23 45 13 -119 -107 -110 36 107 -9 77 -31 14 107 21 26 -112 91 69 30 -85 -35 -16 56 -90 -82 -65 24 -11 -40 98 -58 -97 -87 -74 -45 101 74 91 -61 37 -21 -89 60 47 -111 5 88 68 12 -77 96 18 -46 90 -66 55 -68 61 49 -4 -66 41 118 -123 -89 -80 113 -42 122 -83 -92 118 41 -113 17 -120 -71 -118 -36 109 -113 -121 0 31 -70 117 -49 114 23 -17 37 62 -25 -83 102 -40 -51 25 50 71 -62 -91 22 82 -64 -112 -8 -95 -20 24 66 -119 -69 -126 98 
-66 102 122 74 -47 -41 -117 32 -109 -22 68 -51 -90 125 101 -76 111 -85 123 107 91 85 -75 37 74 48 2 51 4 -71 39 -82 8 -96 53 111 62 -8 -110 -105 -67 54 -116 50 -51 82 -88 24 -44 -47 72 -106 123 -42 19 -84 122 -101 -30 107 28 -21 -70 -44 -27 -102 70 80 -63 -42 73 -41 -104 -87 -42 -102 46 104 -26 -108 -69 15 50 101 -33 -38 -74 24 64 -80 -120 70 90 38 -47 -47 1 -35 61 38 -80 109 -50 -97 33 -51 9 108 84 124 82 -94 -86 3 15 24 90 95 -49 -107 -98 82 87 -49 47 26 -47 101 
48 41 43 61 -98 -90 -26 -93 -7 64 118 121 -120 31 73 -57 66 14 79 105 -78 51 31 63 -43 23 -10 -115 33 34 -90 127 44 15 -56 83 -28 -68 -63 -112 22 -68 124 -36 -14 -64 127 -95 -68 -73 -74 80 112 3 -126 53 102 78 -42 13 -27 -5 118 22 -9 -81 107 7 -59 54 30 14 -81 125 -99 -78 123 15 -31 -12 87 -43 85 -107 47 36 65 64 26 -5 -106 31 17 101 46 98 -61 -113 -118 41 61 -90 54 7 -126 -37 -20 67 65 3 -54 49 -9 75 61 67 37 -53 4 121 -92 -67 42 81 -44 107 35 99 
-56 6 -78 -112 -76 -47 8 -66 11 31 -124 -4 -28 -88 32 -101 -15 -31 81 -85 -5 -102 2 -71 -97 118 -56 -60 62 58 -40 46 -14 23 -47 99 26 -15 -45 43 23 101 -59 38 33 -94 57 -29 38 -29 -84 75 83 -38 22 -66 -16 -7 -106 -2 -60 83 3 -111 -127 -120 -105 33 33 -10 -39 16 121 -69 -44 86 24 66 79 111 61 -12 -11 90 119 9 62 95 -35 48 127 -18 44 -97 -33 58 44 -122 39 10 120 111 -71 -69 20 112 -34 -18 40 50 80 38 119 -15 126 -6 -42 54 28 119 30 -76 4 -101 -121 -104 -82 -112 
42 -43 -9 -47 64 63 1 -29 -51 -90 74 3 84 -111 -104 27 -108 -95 14 103 84 120 120 -20 -107 -107 65 -33 32 58 98 65 -21 84 -75 90 -45 -97 -101 -112 -103 -10 -51 -30 114 -55 47 -117 -58 86 100 91 96 22 -83 78 56 113 110 -69 13 86 -71 -71 103 27 -75 -123 -14 -9 79 -97 -54 103 106 -94 -9 38 -88 -1 -22 12 111 31 91 88 -5 20 -110 111 70 95 97 -70 85 -76 -122 81 24 113 36 8 -9 -116 36 44 46 96 29 -111 61 49 60 -15 22 93 -79 79 -36 -117 -13 15 -45 -23 112 90 95 -55 
28 -106 -60 -3 -52 76 -78 89 15 119 -69 14 -65 103 -40 -11 -40 -127 -37 36 -45 -110 3 19 82 -82 -91 -32 40 -65 -122 -68 -105 71 -11 81 -55 11 62 -55 -13 122 -41 118 77 -107 101 -60 44 60 72 -61 96 113 77 -114 -35 -102 -113 58 -56 -12 -124 -46 -26 -91 36 -59 35 -75 41 -24 -113 -34 23 -28 24 105 9 61 -52 98 37 -42 -124 -78 91 -31 -48 -56 -45 103 -119 -115 -80 -125 28 124 -126 15 -91 65 108 39 -62 71 21 -21 -75 -89 110 -70 22 -64 59 -57 -26 118 -18 33 -17 -72 -95 -125 -47 36 -92 -76 
-80 -62 41 119 16 23 -98 -16 -91 -69 88 -67 63 44 -106 94 -118 120 21 -27 -77 -42 6 -115 -97 -50 -90 51 -102 127 81 -71 -97 -114 -111 112 66 107 43 124 -1 123 -103 37 9 -80 -21 -92 -26 -36 -86 111 21 -72 -23 28 -63 -59 -111 -31 92 79 -50 -74 -11 -47 70 16 -40 87 -73 -70 22 49 -117 -121 4 -49 -32 -39 69 -105 -1 1 118 1 -77 31 -107 19 86 18 -22 -121 -24 84 56 21 7 19 -53 37 -62 -101 58 61 -58 80 76 42 45 36 17 92 -96 -126 89 124 42 50 -13 -83 -59 51 120 -36 -38 -47 
81 -47 -105 81 -33 -66 -70 -5 33 77 36 -20 46 117 -65 27 44 -48 34 16 84 -58 97 52 -122 121 63 -89 117 -101 18 -95 -30 94 -115 34 15 -16 113 20 -94 -123 -15 -58 99 -30 -126 -5 1 25 -12 112 119 -76 -79 -68 -74 101 -115 -122 43 84 -105 41 -2 90 121 5 24 -93 -60 61 -82 44 42 -87 79 -111 -63 41 79 -18 124 79 -21 83 -52 10 54 -47 -19 -29 -65 -109 53 -44 49 -64 35 -75 -45 117 48 5 65 107 22 -75 -52 -116 94 -125 -22 28 74 -120 -9 -68 78 82 -110 -12 -36 -61 6 78 68 -101 
-13 62 102 78 60 -8 -59 64 -98 77 -60 31 30 72 -25 -38 111 -71 71 33 105 -38 -63 44 18 78 -90 -77 56 95 54 79 -85 46 33 38 -82 -88 56 -34 112 95 -65 96 40 -120 -50 -98 -11 55 57 35 48 -105 97 -6 54 -39 -36 59 -28 11 -21 96 -42 -45 10 -97 21 -52 -98 -70 41 -50 -60 55 -76 -30 9 -114 -87 -72 62 -89 -90 -26 -56 25 -116 -69 20 15 34 -5 -95 56 11 28 111 63 35 -81 -62 13 -112 -19 104 27 -126 -47 -122 118 -88 -36 62 -85 83 12 5 57 77 10 114 -20 -69 74 112 -95 
-51 -67 -62 -15 35 -99 24 -71 9 -19 116 63 124 -27 101 -81 1 82 123 91 34 -100 -29 73 9 3 120 -49 66 -59 120 -125 -126 -6 115 -46 -93 -2 -101 116 89 121 -34 84 48 -22 -34 98 -87 35 -9 124 12 -9 2 -103 -29 88 73 8 -125 -57 -109 -54 62 -11 23 -36 95 -26 63 71 -97 -92 74 -66 -117 98 110 45 -34 -101 -127 103 -9 -6 -89 -112 103 120 87 -22 -25 1 -86 35 -90 103 40 -18 81 -9 30 -33 3 34 -120 20 21 123 -75 123 -23 23 -38 41 71 26 -118 -114 -37 -42 -68 -81 63 -52 -112 -42 
-33 1 -27 0 -88 -13 9 44 -65 80 112 63 -66 -32 -102 61 78 83 -108 -3 45 -93 67 -126 36 -100 91 126 -74 89 12 -125 -63 98 -61 8 -6 84 65 104 11 -116 -102 7 -20 82 70 105 29 -25 -38 -32 -78 -42 106 -95 34 -61 -70 -47 48 -58 2 -97 38 121 -88 -31 -45 -111 -81 -27 -110 75 -41 -74 125 119 -63 118 13 104 -13 -18 -107 0 80 -109 -92 54 -127 -61 0 -83 -95 -61 -123 -95 -98 -113 98 50 11 -30 -25 -79 105 -6 -102 -32 82 -51 89 -89 16 -61 -40 -114 11 0 94 91 60 -114 66 116 -9 -66 
115 3 2 -84 -65 109 -96 67 80 111 107 -6 70 54 -126 51 -91 100 25 -85 -116 -95 117 -67 107 -48 119 19 110 -122 78 12 -1 -75 -93 -32 24 -53 103 2 -14 -113 60 -83 52 20 124 47 -41 46 -31 2 17 -13 -90 118 -105 -65 107 -61 -47 -67 -97 9 79 -114 -98 -45 123 24 -80 45 -120 -13 123 -110 -60 -23 -73 -24 17 -29 37 54 114 -96 -25 -52 -63 56 85 -123 -117 21 -13 -27 49 -42 32 -103 -110 -83 127 -97 -53 20 -90 54 -89 -80 -77 -122 16 94 -70 58 -54 -62 73 -20 -30 -23 121 108 -61 -82 88 -104 
-83 -15 3 -12 118 87 -86 116 -76 80 -38 41 28 4 -121 -124 -52 60 -100 -23 29 101 21 -60 -69 -76 11 111 114 -80 -90 68 33 -86 -107 50 37 -60 21 26 44 -46 97 19 86 102 -122 -100 -43 -91 -30 80 96 84 -117 -50 120 -101 -44 36 -101 -92 -27 62 43 -61 71 34 -42 -80 103 -109 -107 18 79 -70 48 -36 92 26 -50 -50 -59 29 -114 -72 82 127 -13 -51 -53 86 -104 33 -102 89 90 65 -51 18 -66 73 -28 -88 77 -58 42 86 11 4 -12 96 -38 29 125 81 112 -88 -81 -109 96 100 27 31 -24 -63 -120 65 
85 -65 52 -86 16 -42 -41 65 -81 -44 68 -41 -35 -125 47 -14 -73 -29 -42 14 107 -59 101 -44 110 124 -91 -11 29 49 -75 -87 108 29 -112 101 -120 36 31 127 49 -78 103 31 -121 100 -28 -13 52 55 126 4 -116 38 -11 -21 -4 -85 -105 4 -10 -5 50 -66 -86 111 121 110 -104 72 -38 114 42 -89 67 -102 48 17 -115 -70 4 67 -27 -101 -85 -84 94 -11 -4 25 13 -37 26 2 125 6 -85 -7 -124 127 23 -22 31 103 -115 -47 15 82 61 98 -19 -69 -105 90 -7 43 97 68 -70 -123 102 41 84 -50 1 -30 119 30 
-124 0 63 -51 59 24 -45 98 -11 31 -11 107 -39 -62 87 103 -27 12 15 -121 45 31 2 50 -106 -115 -101 39 -117 -9 0 32 -18 38 -58 -72 37 46 126 45 -97 3 -101 118 -35 93 -81 91 -122 -98 -13 -90 -65 24 -61 3 -46 8 -4 84 -33 -85 -76 -85 28 -88 -109 -109 20 -38 -2 117 -108 115 -61 89 -6 -102 78 -93 -102 -118 75 -115 -92 62 -51 124 -72 61 -2 30 89 42 -96 -74 108 -22 31 -47 -43 -122 -116 44 -50 0 -52 5 35 27 -31 12 -62 20 45 68 33 94 -33 -51 87 -91 -93 116 -16 111 -59 -63 
10 -11 -24 -106 -76 -80 -20 48 39 125 52 -76 -101 -48 71 63 118 87 37 -7 -109 -69 87 -22 -98 -39 -45 -60 -82 77 -125 -88 -39 -103 80 -45 86 -61 87 -36 45 -106 -85 -9 -115 42 94 -3 81 -77 52 -10 78 -22 8 52 62 -112 -101 -60 -36 92 -118 0 -57 -97 -57 -47 -10 15 -94 25 -3 74 120 64 6 20 55 -14 67 -54 -3 -51 40 -100 107 -18 -5 -127 60 -14 76 -35 36 -114 -44 45 -13 61 -20 -73 51 -112 81 -1 -95 93 35 9 7 -121 -72 -58 46 22 -121 -10 47 55 -33 107 -4 -54 16 -32 -119 77 
110 -90 -98 -52 119 22 -76 -62 -104 -92 -87 75 -88 18 -126 -40 28 -58 124 -117 -114 -114 59 -112 -63 -78 -112 -106 -78 122 63 -38 -24 -16 -88 -116 79 71 102 -98 -82 117 -121 -46 -39 -94 -110 27 -115 -76 126 93 16 37 77 10 101 -93 -7 -85 -72 24 -54 -83 -111 -77 112 88 -20 20 113 23 121 -7 -66 -114 62 10 104 -43 92 78 -127 -75 -54 12 -96 5 68 -2 61 -91 36 30 108 76 46 -126 -106 -45 110 -66 -4 5 49 23 -42 34 112 113 6 5 -11 76 -31 -103 58 93 -124 110 -37 -100 91 108 29 -63 -77 -57 
-43 -46 -48 85 48 -75 -55 -47 58 -79 -53 -24 -89 -80 126 -56 -44 -101 -64 53 -57 55 14 48 9 -83 -44 91 115 -94 48 -51 11 61 -103 -74 -100 109 -125 12 114 82 24 -51 120 -60 82 -114 -100 110 76 9 -99 84 -33 50 -121 -20 42 122 -100 119 -83 0 84 -121 -29 37 -19 -55 -89 -97 -111 -118 93 -15 12 107 -39 112 29 -75 -110 -47 -123 -90 -3 6 -121 -1 89 27 18 -61 -37 49 43 33 62 111 88 -13 -36 57 87 19 0 -7 48 -94 60 -91 -42 -60 -6 -109 25 -73 -24 87 -2 80 110 -124 112 14 -61 -43 
58 -2 66 125 -29 88 34 -71 -120 36 -52 27 108 -3 -85 -118 1 5 -5 -59 -117 -88 -111 -18 21 -19 118 29 114 93 -68 -72 -121 47 59 -29 31 31 -52 -75 126 70 -39 96 -79 85 -10 -110 -97 -13 -102 -75 2 -114 -60 6 125 -120 -24 103 32 -125 90 -46 17 -26 38 7 -50 -35 -44 35 -34 51 -69 -28 -34 -41 -53 -27 127 -36 -84 -74 38 71 120 -85 116 88 103 -126 102 -70 38 123 -67 -12 113 -106 83 63 -42 2 24 -16 -116 -125 35 -59 99 9 3 -19 58 125 120 45 -125 64 -14 7 69 16 -18 -75 37 43 
36 -14 116 2 113 -86 -32 73 73 -41 -122 17 41 -52 -122 120 64 -40 90 -71 -116 -30 -75 37 -29 90 71 118 -22 9 -43 -110 121 -99 -59 -46 20 49 50 -18 -96 -14 -23 30 107 72 91 -122 -108 11 -63 1 97 43 -95 113 42 10 -25 21 17 26 -39 83 83 29 35 -18 -80 -72 105 -7 15 22 32 -26 -49 -119 46 24 -51 -21 119 -17 -82 -3 41 -93 -40 26 91 9 -32 22 -86 -91 77 100 44 -3 116 -104 -97 -102 -75 -31 -50 113 45 -96 8 -70 -123 58 -126 36 97 40 -115 11 -47 -80 -26 -60 27 -54 17 -119 
7 42 30 60 -15 110 -115 -81 110 79 -60 103 -124 86 -113 33 5 -52 -67 -98 -117 -116 82 70 -25 62 82 -82 62 67 81 -39 -99 14 114 86 -107 13 -97 109 36 49 -125 14 -8 -118 -5 46 108 -79 -69 -12 78 -35 -35 -9 -112 123 105 88 -88 -12 -94 -81 28 -37 -94 -73 -93 76 -40 -38 28 -126 -92 121 9 -63 -13 -102 -77 -85 81 -110 17 75 127 43 -66 103 9 7 -95 66 -123 -110 2 -114 57 73 78 45 75 -112 18 42 -69 -49 -82 105 30 -125 -19 -27 -66 36 -22 -97 126 66 125 -92 -45 49 115 117 25 -96 
1 -70 25 -83 -32 -72 -5 -104 -109 -23 123 15 -63 -123 -54 80 -60 -81 112 -125 106 64 57 12 50 -52 -57 104 56 -101 -20 79 59 52 5 -46 39 -101 68 2 59 79 -119 -110 -104 -95 10 13 116 -59 -86 61 -119 -72 -118 100 -107 -51 72 -86 -111 45 -101 126 -82 125 -40 73 42 -35 -65 -77 -76 39 65 87 -123 -7 -110 119 11 17 -55 53 49 38 83 98 -120 86 -50 -83 -38 -8 -33 59 54 -66 -102 119 -43 -47 46 -15 -52 65 -116 111 71 -82 -82 113 -50 -86 122 52 -90 44 -77 126 5 23 124 117 -115 -53 -44 -45 
-119 87 70 -48 -80 99 -120 99 -41 23 -93 45 -69 94 95 -10 -108 56 -84 -96 -13 108 -109 48 97 46 -113 74 -90 123 -103 4 -3 -21 -37 97 -122 -49 -77 12 24 -22 -122 -46 115 -126 74 -9 73 77 -45 -17 31 -16 125 65 117 -37 35 103 52 72 72 102 -83 -44 34 -51 57 -63 49 32 -46 30 -26 -38 -100 -66 25 87 58 -51 3 -34 -65 -13 -71 103 25 104 26 4 -27 65 -4 116 -114 -36 -89 -49 -69 -104 124 -124 120 -112 -42 -126 46 105 -16 16 25 -45 -105 -89 -69 -127 10 66 -46 21 -70 -80 21 56 91 -58 
100 93 112 62 85 -63 61 -15 51 124 -78 15 -11 7 91 110 -26 -51 -1 63 -36 46 -79 77 -13 -38 -121 54 -65 62 17 73 -85 -79 108 54 70 -105 11 -93 -96 94 74 64 -88 -113 -68 -6 -5 100 126 -43 -83 93 111 -93 99 35 -115 111 39 -30 -100 -76 78 -78 -1 -71 90 -24 41 2 68 6 37 -30 -110 57 -55 -17 -57 -104 17 72 105 -7 -30 -13 -56 98 -32 118 -52 -51 4 80 113 16 -77 -93 -83 -92 52 19 44 -61 -118 -24 100 -41 -46 61 94 28 -73 -81 -59 -18 93 -59 41 51 -115 36 106 4 -49 -25 
-116 -29 -97 80 57 -76 -101 -109 -17 65 -81 40 -43 -68 6 10 102 -113 28 58 100 120 120 59 -27 57 -97 114 73 97 -127 26 35 -99 -24 -93 115 -80 -18 -31 27 10 113 106 31 -22 -48 -22 1 -82 -32 115 -123 28 63 -89 -29 47 -17 -30 -3 104 64 -126 105 46 37 -67 7 -118 47 79 108 86 -26 -81 83 -35 -111 -50 80 -115 -31 55 -71 98 -104 -21 28 51 -27 81 38 65 32 -43 -7 -111 87 66 -51 12 86 46 52 117 88 127 19 -106 -3 45 74 -107 -66 -111 -56 38 -9 -34 -2 45 86 -31 -62 27 -41 104 
14 121 -82 49 -17 25 69 56 -82 10 89 -35 17 -98 -13 -52 -51 116 78 21 -48 -103 54 -9 104 110 41 -104 104 -49 -32 -13 70 -102 77 69 -53 -91 -26 46 -90 -109 99 62 86 59 -122 -7 -110 45 -73 -51 -86 -87 97 77 -110 121 -68 -114 51 -79 -93 -77 22 -119 -55 109 -41 -103 -39 98 -114 -32 -45 -71 -3 -102 23 -39 112 30 10 -37 26 106 -27 -21 110 124 -5 -71 32 -59 -30 -16 110 -95 -113 -9 -24 53 -49 -80 -119 -110 79 -82 123 -74 39 117 -35 6 -9 89 104 -61 53 -76 51 29 -89 126 -56 56 -112 31 
-117 -42 104 17 66 -81 110 -22 -120 -96 -126 56 -19 51 33 -86 -9 -62 -28 -39 -64 66 -82 78 -29 -97 15 69 37 90 -99 -112 116 -126 49 -29 78 28 119 -6 -109 -78 102 -71 -55 -93 44 -11 -122 -124 -96 -109 -88 -91 1 49 -49 -39 30 -48 -120 9 -102 -64 65 -121 29 -52 17 -70 125 -47 -112 8 41 118 -99 57 120 -4 16 93 -99 -39 84 -50 29 53 101 7 10 -5 -100 -68 24 90 -66 -52 -88 13 -12 36 59 -80 -3 -17 -99 -14 -88 36 33 4 -85 -43 -78 -100 96 34 -28 75 24 -24 79 -34 -83 71 -22 -109 
-113 -126 33 45 122 -126 20 -107 -117 -122 -27 -23 85 -27 -83 82 -65 8 -19 59 94 -101 -3 -88 -72 57 21 -3 106 -24 9 127 36 0 10 -34 -32 -19 38 -2 17 -74 50 86 4 10 97 -85 25 -10 44 65 -26 -95 41 -67 -70 -29 -84 126 56 71 -89 -53 20 19 -10 -104 -12 96 -38 -9 -70 -90 123 -101 77 -106 -60 -91 -73 34 71 29 -66 115 -95 -20 122 43 -45 109 -51 106 -74 -68 82 -79 -127 113 96 -9 82 28 -19 -38 -4 122 -24 112 -115 -95 54 -59 -102 -96 -108 -93 117 -63 -51 -5 -11 -15 -113 54 -57 122 
-18 -97 29 -87 -10 84 -119 79 84 89 -39 69 -47 -63 -56 56 64 -41 18 -94 -9 114 -94 28 89 96 96 72 -124 -18 68 28 126 69 48 88 -28 101 55 77 -70 -92 -25 93 -68 -33 -52 -126 98 32 -96 57 -60 -122 -60 14 -111 -95 -86 -101 120 -7 -89 39 59 66 -14 -1 -24 -127 115 -4 10 90 4 -80 -115 25 -15 -11 43 -83 -95 -118 76 114 -49 113 -20 31 -66 -49 2 77 -47 45 99 -127 18 88 84 -65 -33 7 -93 -103 55 27 -52 -13 22 44 79 28 19 -80 84 -101 117 -31 -24 -51 113 103 -69 -48 -2 -122 
-49 -115 -110 -63 -48 -1 -8 11 -57 -2 97 -47 63 -11 42 -82 -47 -11 41 -61 -53 -112 -27 44 -16 -120 -104 -78 -53 18 124 40 45 -7 -58 -1 -83 84 94 -93 55 -80 -76 34 68 -111 74 -24 115 110 61 -112 -14 29 -71 51 -127 -76 8 -73 89 -22 -89 -103 22 69 52 -27 77 75 78 47 12 119 86 -53 30 27 13 -107 -54 20 79 21 -47 -81 49 -37 -21 19 13 65 -119 109 48 61 106 -27 114 -115 -21 67 -25 -115 -64 97 6 -66 34 -27 118 70 63 95 -102 -121 23 8 65 92 -39 -13 21 97 -34 1 17 -58 
-70 -98 19 -62 126 -125 -36 -67 89 -55 17 33 59 -55 16 -28 30 52 40 -75 -40 25 -23 119 11 -76 -26 -72 -88 65 93 105 77 49 20 -90 -80 67 -120 36 -116 36 64 -71 97 -76 98 -123 -55 18 -31 -122 -114 -35 -64 -123 117 96 3 95 11 1 -61 -98 7 123 -10 -35 -44 -83 115 -117 -7 -59 -25 -22 -119 -126 63 -6 -23 123 93 -29 113 -11 -35 103 -90 -82 -22 -111 -4 93 95 95 -5 92 -36 29 117 -84 109 -83 32 96 -65 -47 -39 -12 -85 36 -119 65 18 -62 -84 120 64 84 -87 -8 -62 -63 64 -23 -117 17 
124 76 -50 16 -37 -77 125 -47 -94 -110 -67 -34 2 114 -35 77 -77 15 -12 -100 -31 -96 114 -81 93 -70 -52 61 -34 88 -106 -108 55 -27 -66 -120 23 -5 -82 -57 61 -52 75 47 108 -35 -123 83 104 -77 20 99 98 -32 -4 -127 -4 -42 -101 -63 -37 -114 -66 -10 -7 -36 -119 -94 53 51 -28 25 58 84 -119 87 -28 -65 6 -20 -124 80 -79 123 124 62 76 -123 61 -46 -112 82 124 -45 44 -49 46 60 71 -109 38 -28 81 28 -116 -124 -72 -113 -25 -93 -80 -122 -107 -107 55 34 22 -16 -6 30 118 66 -41 56 43 70 -42 46 
33 88 -12 -24 -33 -23 29 76 123 36 34 -41 -75 -14 -102 -109 9 -51 -61 -82 26 58 6 -86 -116 -73 79 -37 -57 -69 9 113 32 -89 -14 119 -106 111 87 48 -91 0 75 -14 -82 -56 -82 30 -2 -14 -100 -6 -112 -47 -89 -26 -48 64 -110 93 -80 98 -54 -120 0 -123 78 53 -88 107 -19 -2 50 -92 87 102 110 71 -62 61 117 12 93 -58 -88 -49 -117 -33 -20 -23 93 -78 33 -63 49 109 -9 52 -32 -57 -8 44 40 -49 88 -103 -42 -124 13 -95 -82 63 -121 20 -38 50 57 116 -20 114 71 -4 -127 65 94 15 -49 -94 
56 -88 57 -70 -127 30 -109 -53 -4 21 -9 119 -95 -14 -113 105 -10 15 47 4 68 -113 55 -4 1 41 -65 4 -113 -106 -9 52 -44 -98 50 103 -116 68 -55 -124 2 109 -99 95 58 84 67 -111 59 29 -61 -81 -68 -23 -83 69 92 -20 -91 -96 -83 100 49 -93 107 125 -117 -72 -57 -121 -47 2 4 99 80 -36 -23 55 42 32 -91 -99 119 21 18 93 -96 118 -117 -32 127 -34 85 47 78 -29 98 -67 -1 -88 -88 -16 112 16 47 35 -91 66 -43 31 47 43 125 30 -33 -98 -26 54 -22 63 -39 -91 -106 61 49 40 93 32 
115 -48 -121 -74 -67 -57 127 102 2 2 19 -64 78 22 53 -66 -72 -65 -14 59 83 -4 14 33 -11 -108 -89 19 -15 -40 111 -48 111 37 110 81 -18 -101 -61 81 61 92 -4 50 115 -79 -63 -79 -69 93 85 60 -86 -78 -18 68 -100 73 -78 -106 -118 -22 92 -79 -48 71 -95 -64 71 17 -125 67 77 -10 127 -113 94 8 -63 -21 110 -87 -77 -38 45 85 -96 -97 106 11 -111 117 41 -24 70 72 27 109 -89 19 -73 -16 -33 22 -100 104 28 48 45 54 -42 -22 -32 15 -12 -32 26 -49 -33 -82 35 -44 -73 7 33 -116 35 -57 
-120 34 37 1 7 -104 -65 58 55 7 -17 99 -66 -10 52 -76 87 28 -95 -116 -87 74 -53 -101 57 56 14 -120 78 -88 -23 -121 65 -84 51 70 -113 -36 8 -19 80 -98 70 -73 64 -80 -94 81 123 -7 -64 -108 61 126 -10 70 75 78 -67 122 32 96 18 -40 102 120 -44 -39 35 -79 -69 -49 86 -6 -26 -38 16 3 -33 -36 27 70 68 87 7 1 -113 -70 -6 41 111 19 -118 -10 -71 94 4 -94 -82 -86 -108 -84 -117 39 -114 -46 22 -68 84 -81 -40 -99 125 50 -15 -16 99 -81 -36 -114 -49 -30 113 82 -23 100 -61 -102 
91 82 103 -2 83 89 62 10 -18 -53 18 -30 12 25 40 -90 70 -115 -46 -31 64 64 -112 -8 36 124 102 -1 -42 -26 -9 0 55 59 9 4 29 -106 71 58 -32 52 1 -40 102 78 124 52 8 99 -87 -39 121 -59 19 -71 -74 16 -55 -21 -13 -80 -83 -99 -12 -7 7 0 -98 -72 -82 -14 -25 -77 -59 83 -97 -50 -117 -98 -80 19 101 64 -100 -71 -50 73 118 -113 -110 104 -93 -118 30 -79 -46 85 6 113 92 -90 -17 -54 106 -88 18 12 119 -74 -83 -19 -94 30 -118 123 104 -52 41 54 -83 70 62 119 -122 57 26 33 
88 -9 57 10 -74 69 106 34 1 -88 -18 2 97 -116 110 -92 108 66 62 -82 -21 -56 -71 -123 74 49 -92 -12 -88 -94 85 -60 -127 -67 -53 91 14 -115 127 107 96 113 -77 14 -5 70 -75 -116 -69 89 -117 106 -110 97 -70 -22 -49 -60 -109 -60 6 -84 -32 118 -56 -31 61 -28 20 104 53 -44 32 61 47 48 86 -105 -60 -20 60 110 61 88 23 3 -13 -76 68 100 61 91 -81 -21 -62 70 88 -44 61 -64 -93 120 -92 86 -51 9 -9 96 -86 -58 103 -96 77 -124 7 101 -104 90 -34 -99 -56 -4 24 126 -45 53 -104 -14 
123 -79 120 -81 69 -63 109 54 -61 -122 -122 20 122 -115 -41 -106 -72 54 -55 -123 17 -110 -58 54 -9 -127 -127 2 19 20 -86 -1 -40 22 93 33 -23 90 118 -47 0 89 5 -82 -33 88 -2 -81 79 71 -13 31 38 111 -17 -64 40 -54 21 77 -71 -3 14 -17 -25 -118 -119 52 -42 109 -7 88 113 11 -69 44 58 66 -12 -53 -65 -59 4 92 1 21 -1 -7 -24 -122 -117 -73 -96 55 -19 -15 -21 87 38 105 89 -73 76 111 0 102 -45 -8 -58 86 24 -110 -85 11 -23 -40 101 106 -32 -78 -20 52 -74 122 34 -116 82 77 
111 -101 31 42 11 85 -84 57 41 47 39 -109 -8 -32 87 -34 -109 -125 -2 -89 -94 -37 -17 108 -97 -7 33 -66 44 -34 -37 114 25 28 97 -124 -52 109 -78 -113 -116 -8 -110 98 18 -64 -80 55 110 -5 -6 -110 -96 107 -36 -121 -15 -22 91 -48 -117 31 95 18 -66 -46 -86 59 83 -118 -65 -64 104 -85 -55 -83 -78 -62 1 83 48 126 -126 103 72 71 -95 28 57 103 92 25 126 -42 -70 56 121 22 29 87 -78 12 20 -78 -106 -119 -28 101 -64 62 -55 94 -81 89 58 -12 53 17 -34 26 -72 42 111 12 20 -5 -121 20 
-59 111 -10 114 -46 -9 -126 40 66 98 108 -30 87 -8 31 56 113 -114 108 -111 -122 -89 -64 -88 64 -115 -53 115 -25 -89 -2 37 -51 70 -126 18 -15 89 -65 35 -68 -93 -105 -61 -34 -40 -86 -76 78 -127 -3 65 -38 -61 31 -67 -101 117 -70 29 49 101 -2 -74 -96 65 -116 4 51 126 -90 19 101 88 -121 -88 68 97 -85 99 -88 -55 -69 26 60 -82 82 -119 -124 -47 30 67 -24 -65 -112 32 16 4 -57 55 -100 -42 5 -89 105 -61 -74 -89 30 83 3 126 -23 77 -54 -2 -94 66 31 39 77 -120 -6 116 21 -99 -78 105 
-19 -111 51 -28 -51 63 -1 89 51 -35 46 83 110 -6 104 -62 104 -121 -103 6 103 35 35 -56 33 83 -97 -47 -100 74 -88 -36 86 -83 -21 -30 45 47 -77 13 -124 52 44 -95 67 -28 -70 49 8 -56 -12 4 26 -127 -73 107 74 30 -127 0 -33 -78 27 -56 -35 73 111 3 -64 -62 126 8 -15 -7 27 40 -91 110 96 -54 -105 -43 -113 -8 -51 -87 -8 -56 -92 34 82 -98 74 -11 71 5 123 79 -125 6 17 -51 4 -106 41 -107 -62 -38 17 -49 -23 30 -126 1 65 17 -68 -83 -121 26 -123 53 -53 -93 -11 -126 40 117 
-9 44 86 -105 22 -123 109 106 89 77 -118 -117 23 24 71 -98 -2 -104 28 -47 82 -85 121 18 30 14 20 -21 39 17 -105 11 -23 -42 61 41 16 -64 86 -2 77 -120 -62 2 -1 47 -62 101 60 -56 -97 119 51 101 9 50 -107 0 88 -62 -4 -31 -87 104 6 -91 -110 -11 73 46 -90 -29 -94 7 -3 108 34 -86 -6 34 102 83 -73 -111 124 127 -56 -95 61 73 -46 -54 -5 -52 86 74 87 -76 -25 -45 14 63 -106 3 102 -101 98 105 -13 17 92 -50 70 51 122 -72 -126 -41 -26 77 -51 13 -8 -40 -31 -51 -100 57 
46 56 2 -112 116 63 99 110 126 93 110 74 48 -86 48 -102 -105 -83 -109 17 119 71 -72 88 58 76 110 119 113 -33 85 111 10 105 -30 -102 -9 -73 -83 -56 -127 98 87 81 -102 91 -125 83 -50 14 -115 -75 125 113 -93 -106 38 -47 -52 23 115 -15 57 97 3 116 12 -14 61 -51 120 -127 -13 -114 55 -72 13 74 63 23 -93 53 61 41 110 100 -67 9 -86 123 32 115 22 78 -77 90 58 76 -93 -91 89 -22 -88 98 125 -78 41 -110 -30 -9 121 -110 67 18 -75 56 -114 87 -81 -123 108 60 72 -40 -15 -121 52 44 
32 -109 -56 99 116 8 95 101 106 -82 -69 6 59 -106 38 42 100 -75 13 23 97 -97 53 -41 -81 -118 -127 -114 -121 14 30 51 -77 -127 34 26 44 -66 21 120 -43 -79 -104 122 -36 100 76 -18 -8 -92 -121 65 -26 -127 -51 -13 -24 69 0 -32 70 -4 102 0 57 117 101 -37 105 -88 -69 75 118 -38 -28 -29 121 13 -19 -95 69 27 103 -122 118 -59 69 11 108 2 96 48 47 -5 -90 86 79 -13 44 51 63 4 30 -95 -25 77 97 4 91 52 49 -82 -90 -94 -114 -119 -9 9 -5 -42 123 -47 -24 -94 31 80 36 4 
59 -68 100 -85 -88 42 -84 23 51 -90 -23 90 6 -19 25 53 -21 -52 -106 89 64 -105 -75 -87 -90 85 112 -116 -50 53 -99 56 -71 -58 1 46 11 -25 -118 -37 10 -97 -45 33 25 101 110 56 -120 -101 -113 125 21 -120 -23 127 83 110 3 89 34 -75 118 82 -111 18 94 -50 -38 93 23 18 63 75 -78 -122 -93 94 -125 -38 -10 -65 -91 124 -23 95 29 51 -85 8 105 21 5 5 -103 25 24 92 -110 69 66 55 109 101 112 116 38 -90 -3 -19 -110 62 -10 32 55 -5 18 84 14 -63 -53 -43 -24 69 116 46 7 -21 
121 -117 -95 73 -48 -82 86 -126 -27 -48 4 6 -105 -80 -32 14 -4 47 84 52 101 -109 -20 -97 -7 -74 98 107 50 -4 112 -63 -77 -105 71 -68 -94 -111 33 114 71 57 99 -50 88 114 -84 80 -33 -59 64 -58 -40 32 -121 14 -78 -8 -35 120 86 93 -79 74 -32 121 8 -21 91 -12 -119 122 54 -12 103 -57 -81 43 90 -28 -54 41 -76 113 -115 -24 -116 -19 -120 16 -86 -122 114 125 -126 -39 112 2 -124 -66 34 -125 -37 -54 72 -112 -92 -125 125 78 -54 -105 49 107 53 39 -85 -82 -116 -74 20 -127 107 76 98 17 49 54 
-103 -76 -63 -20 108 -82 -11 81 -45 70 -5 -23 81 -88 -57 26 -69 -40 -109 -105 -115 46 -54 59 -81 115 3 -68 34 65 89 52 102 -72 -119 -6 34 126 104 -115 34 -67 -101 -27 -37 90 -77 127 -1 61 80 68 45 -64 -72 -35 -54 92 -1 -67 -104 123 116 -84 96 51 -43 45 -9 1 113 10 80 -41 49 -32 -108 -9 -86 69 -54 30 -57 -34 -100 -35 93 44 26 54 -12 111 -124 123 -58 36 -80 -119 -117 50 79 -79 -97 -46 -35 -114 29 39 59 -49 -126 -2 -69 -30 -66 42 -87 -58 114 93 -29 -78 58 -22 -81 -85 11 86 
-70 -20 37 57 119 -37 40 -47 102 115 -88 75 -9 -127 -72 -10 -90 -56 -1 12 -61 -109 37 37 -7 79 101 124 -15 -34 -59 -29 119 -78 126 -26 -25 57 -101 29 114 -92 0 -10 -101 10 35 -55 -1 -4 53 84 64 -18 79 -32 114 19 -91 -46 27 -104 33 20 -45 -45 12 83 114 115 -20 -93 -63 52 77 -38 70 -48 -47 14 -121 113 75 -101 -53 84 102 -72 126 -26 120 -54 65 -30 76 -39 -4 -44 -15 80 53 -20 -127 5 -100 -42 -55 -5 -34 -2 14 17 64 -111 73 -96 81 -72 55 18 -120 -32 61 86 -64 -44 -45 113 
-65 -91 -99 -109 31 63 -126 40 -35 -28 126 29 -18 68 88 -30 46 -73 -62 -64 -98 -17 54 -72 -64 -106 28 -116 37 -7 3 -71 -14 -5 -120 -73 -14 63 -34 86 -1 -62 -96 17 -98 -79 -89 -61 71 -75 15 -98 -71 34 66 -96 12 -52 -75 83 57 62 39 -50 35 -15 30 105 -23 72 83 -53 -98 -26 -64 20 74 -78 88 62 -125 74 8 121 21 83 -11 29 39 -63 109 -123 27 82 -65 -73 27 38 -72 41 125 91 39 36 -5 74 29 21 127 -66 -18 -9 -31 -16 -32 27 -19 -127 -38 28 -21 -59 65 -115 47 48 83 -85 
-43 -16 100 -116 42 -39 -96 -116 -10 30 39 110 85 102 109 -97 112 31 17 104 -33 78 38 -15 -66 -69 -59 -115 91 -21 67 -114 25 114 -68 -95 30 117 16 19 4 -50 87 54 107 66 91 -100 -40 -3 35 57 1 66 40 36 47 -24 -114 -79 61 81 28 31 90 -92 -19 -25 118 29 -106 -23 -42 -81 -25 -40 82 -9 45 101 -106 -19 67 -116 -124 106 117 62 2 16 48 -126 -75 -95 53 57 12 68 -1 -13 -76 65 -11 -31 -28 94 -59 37 9 -112 115 -27 103 94 -14 -111 9 123 -1 118 35 -64 -6 -27 107 120 -124 85 
-47 -10 23 56 -56 -32 68 57 -80 32 35 56 13 9 -4 -41 18 -106 -10 8 -97 8 -50 -48 -123 -23 -105 122 67 -92 87 -2 12 -117 -32 99 -96 -7 -6 -117 41 60 45 61 42 -30 126 71 -8 8 -40 -41 -58 -27 79 -85 122 113 105 -58 -6 -109 -81 9 102 -79 10 -60 -33 -82 -76 40 15 -20 38 -117 -18 -15 72 -111 7 0 25 -119 109 19 -114 -104 -18 102 -45 99 40 -63 -49 41 29 5 71 -114 -82 -39 -21 -72 -116 90 45 -53 78 -94 -124 -57 -74 -63 -65 -22 15 10 -5 -101 -3 43 -118 -51 67 127 -105 31 
-45 15 -77 -4 35 111 -76 124 -7 -45 18 91 -86 51 0 111 7 81 -15 -35 -117 -108 87 -106 115 58 -2 -93 123 8 -65 -16 52 42 36 -94 2 53 71 31 55 -78 117 45 -31 -121 -21 -112 -8 15 54 57 -95 60 -30 56 -125 -100 -33 89 84 32 54 -41 2 33 -86 -116 -84 -42 94 84 -88 3 -113 123 117 -97 95 -40 -14 -4 117 -42 16 -49 110 42 -9 -124 -11 -43 35 -100 -103 -82 124 -58 -30 111 51 -120 -24 83 -2 104 115 97 7 -32 108 -121 -91 -36 22 30 97 -101 1 -46 -31 -47 -65 -81 11 120 127 123 
-80 -18 -107 -53 119 -97 -66 125 86 94 8 94 -23 -114 -1 80 -7 9 30 -61 113 25 -6 -121 110 -11 -96 105 -89 15 -124 -9 30 42 -99 -61 -17 -102 14 73 89 56 -86 38 -102 75 98 1 104 64 -42 27 88 25 -6 -76 114 107 -82 -75 49 94 -17 -47 -64 22 75 28 -106 16 44 -84 120 31 -37 81 66 5 16 105 -121 42 -96 121 102 109 -42 61 36 -50 19 -6 53 -87 -106 40 -8 17 12 125 -126 -10 -66 -42 106 125 46 -77 77 9 -124 -41 -104 44 -113 -120 31 -108 125 13 -125 -11 58 -99 -100 -98 1 -124 
42 -70 108 -43 -68 -22 27 -41 34 -85 5 41 -10 -77 110 -81 63 126 -76 -13 107 118 54 -67 11 76 113 25 66 -75 -83 -72 19 43 -86 18 29 102 -48 -77 13 -118 37 11 117 0 70 28 96 -49 63 0 116 -48 -90 -120 57 93 21 100 -19 56 51 53 4 -5 -62 115 97 21 -62 73 -55 65 46 77 53 34 75 15 101 48 3 -66 111 -121 -11 8 116 98 61 7 54 118 120 61 47 65 90 -13 22 115 88 65 -95 108 88 -112 60 111 -122 22 -59 63 27 -127 -120 -117 66 -52 57 69 119 25 60 -53 99 -67 
-19 -60 77 -92 104 -119 75 6 -91 118 -127 -125 0 13 22 -119 86 -13 94 -7 70 115 -113 -105 -125 127 59 -1 38 80 -17 2 -125 7 -52 -4 -19 -83 -21 32 -38 -72 -38 80 17 -121 74 -107 -52 36 127 -104 86 18 26 92 -86 -66 -75 29 34 -89 -11 -31 94 95 3 5 86 13 55 4 32 80 81 53 113 -113 -14 -44 5 48 0 -13 -43 -51 49 106 101 -65 75 79 -59 62 -5 -39 11 99 -29 71 -101 -119 51 -3 114 28 -24 19 89 -18 -4 25 64 25 -99 38 -28 93 -97 -77 -79 84 123 57 -111 18 -78 -83 
44 101 -92 -109 63 111 -82 6 -89 63 -62 -79 -89 70 -48 55 123 -58 17 71 11 -113 -37 -121 -11 17 31 63 2 123 109 30 -26 46 -110 -116 -114 -97 -33 30 -51 108 -99 -73 -107 -17 -60 79 69 -26 47 34 -52 -95 -59 97 -104 -67 -24 11 108 -33 -73 -59 -53 -4 -60 123 43 -1 104 31 20 -61 3 116 51 40 46 75 93 54 70 114 -82 -20 107 27 63 85 -52 97 98 78 105 110 60 39 118 17 -117 -86 7 -10 112 18 -68 -109 113 -19 -74 101 95 -24 -17 -59 121 -58 120 -110 105 17 -30 5 30 -5 20 -58 
21 -4 -19 60 9 -117 57 8 63 67 -48 116 7 92 -53 -75 -5 -33 100 104 -109 43 95 -67 8 -20 49 -38 74 -21 -87 -114 126 49 -18 8 -13 33 108 -49 32 -50 122 -19 -15 33 92 -67 84 -79 117 -53 -12 18 -17 -50 37 79 -96 -110 -110 -115 18 -12 -58 22 62 8 12 -40 7 -57 -7 -23 104 -61 -44 54 65 39 15 -67 21 104 33 -48 114 41 -111 -11 2 49 68 91 112 -7 -30 116 -98 -33 93 -25 64 -69 -87 -32 119 16 -30 116 -97 97 -53 23 31 -14 -73 93 109 91 -20 87 -31 16 90 -123 -85 -114 
123 50 -80 18 -17 -84 -126 24 111 -116 -15 -2 -103 -40 -80 123 -16 -115 -111 100 -127 -103 82 121 -1 111 89 -24 117 -84 56 79 17 -116 3 9 -14 23 -66 -77 64 38 32 106 10 40 -108 102 87 64 -76 27 -28 -62 6 50 66 -72 -48 42 -60 -112 -118 -116 -62 16 53 -73 88 -7 -25 -125 20 -61 56 -95 -100 -98 -122 120 20 64 59 119 -46 37 -7 -127 -115 23 -75 -62 -21 -38 16 -60 58 -84 8 28 98 90 27 -1 44 107 29 84 -127 -76 17 9 82 23 90 96 -75 112 -117 -115 -114 -89 20 -67 88 118 111 52 
92 66 53 42 -21 93 -109 118 -2 -34 34 -118 88 116 -121 43 -48 77 -25 -98 -124 74 -63 88 -84 -58 -99 -1 43 49 21 54 26 1 -92 85 -47 83 -28 -50 -23 -78 94 -85 -5 63 46 61 -22 -95 58 97 62 76 -39 -52 79 28 -17 103 26 74 64 -74 86 99 -3 95 -29 84 -33 -127 -21 63 -125 89 -99 -73 -74 106 120 -127 67 118 -78 -75 75 -124 -58 124 29 -78 53 77 28 98 84 34 -20 -101 -55 -62 -54 76 -35 -98 92 -113 89 12 -93 49 -79 -33 69 -69 81 -39 -39 20 95 -6 -6 -22 29 -69 18 36 
-47 -24 74 6 36 19 30 -3 0 55 -23 32 -19 -109 -118 -34 5 8 -6 -94 97 -76 -4 102 -119 48 -26 70 -25 -66 49 111 -47 75 -127 38 65 58 -18 28 77 -94 -19 -13 41 -28 -5 95 -48 -113 -103 66 7 49 31 33 -108 -78 124 96 126 -89 109 -113 -77 -77 76 114 55 -63 17 91 -74 31 12 -113 -24 -88 -52 -84 87 -24 11 127 94 87 94 118 40 -37 104 -101 12 -25 -17 -15 91 21 -101 48 -127 103 -48 -84 24 -77 -67 124 6 46 -14 57 -75 31 120 -60 71 -27 -13 -69 -109 -37 -49 -63 127 101 -69 102 
127 48 76 69 -83 116 62 93 70 127 -76 -30 17 50 67 26 83 13 80 -31 -48 94 9 86 98 57 3 -11 86 56 127 -89 3 -127 44 95 -8 -91 -78 -53 116 -103 25 78 -8 -17 69 60 52 82 -14 -103 90 -105 79 69 54 41 61 72 35 31 17 -69 -98 22 119 -103 -100 -83 118 -36 106 55 37 -97 -99 5 -119 122 106 -46 -118 69 -107 -115 99 -71 21 -62 -101 85 -91 -80 24 -80 -51 47 -54 5 -79 11 33 -103 15 126 -3 20 -69 -75 -32 5 -63 4 -22 114 -31 108 36 -110 -74 -3 9 45 84 -62 104 77 
-55 -120 -98 69 38 50 119 -59 77 95 -15 -87 -86 -102 95 61 -124 -118 112 -98 -67 -103 105 65 -80 18 119 13 -15 -118 123 121 21 -17 78 -116 -61 -126 30 -78 42 5 117 -51 52 -92 -8 81 -7 -126 -18 45 -66 78 -103 96 112 -92 -52 -44 -13 -26 -86 -24 20 -85 74 -35 4 -43 -48 -113 -123 -48 10 -26 5 1 110 -112 100 102 45 102 5 38 10 -43 -62 2 110 -68 38 -69 -105 -11 -107 -22 -79 -91 93 1 -113 -29 -3 96 -122 36 77 -70 16 64 -113 -39 110 -56 42 -85 26 -102 -15 2 -81 35 -115 -33 -37 23 
57 -2 -100 80 107 -51 117 94 57 -45 -93 44 -52 -98 -49 -25 92 -15 -24 60 93 100 -40 -112 -126 -28 -67 -53 123 11 29 96 55 102 41 -82 -71 72 -22 16 47 -38 -40 31 111 -113 -53 3 36 -76 24 -100 -58 94 111 -90 -82 23 75 -40 -73 21 -50 -19 37 125 -96 112 -14 100 -32 108 -53 90 -36 63 6 -1 30 104 113 83 -55 -10 -97 -114 27 -71 124 127 109 84 -12 -50 -23 -125 79 -27 55 109 -124 -65 -105 -41 -79 88 -53 28 61 -53 -58 -35 -11 -44 110 -124 46 74 102 114 77 35 -33 -60 71 -72 -117 -16 
28 118 -42 -90 -11 -39 104 78 -10 75 82 45 63 5 114 -75 124 -48 -17 120 98 -85 -99 -43 -86 -118 97 -110 -90 11 -83 -33 113 -65 -101 -41 104 -98 -27 65 -110 -37 56 -79 -5 -12 -70 -88 -113 -43 -17 -24 -91 -114 -51 95 -11 -3 105 -69 -126 76 -74 -93 97 10 -72 31 33 -8 126 -1 -74 -9 41 39 117 -83 53 -80 108 6 55 -21 117 92 61 19 -90 -58 120 80 -103 29 47 -75 -18 83 -56 -98 86 -34 118 -125 -117 49 -48 27 -45 3 72 -39 -7 -43 -95 -54 88 -109 -4 -33 -27 -27 52 111 -83 -49 -124 4 
-90 118 100 -98 118 -92 84 -106 -48 -121 88 99 100 -97 102 -76 41 -52 -4 17 42 46 -72 -92 -21 -45 64 47 -66 23 -74 -38 -36 77 107 9 -38 -4 8 62 62 21 119 -46 14 106 12 50 115 7 43 86 -29 -5 6 -4 -95 -94 -20 11 -44 119 36 73 -82 86 7 -126 -49 -70 113 -44 -10 -21 69 -53 34 -91 -127 -25 -41 -24 -74 127 32 37 -15 -83 -75 -38 -74 1 -126 17 -109 -78 -76 -79 -15 118 106 -73 29 122 15 118 -52 -26 70 99 52 -38 71 -17 87 3 78 81 -125 118 2 -83 -116 -53 -32 -23 76 -96 
-13 -1 12 122 -63 122 -38 -13 102 -43 52 92 -30 -123 -76 26 -5 -97 -7 -103 25 -58 109 -94 79 -100 -120 -32 32 -106 91 8 -102 14 44 114 101 29 59 101 -10 78 100 71 -72 101 -100 -18 105 116 21 -15 102 -88 84 -21 -97 41 -78 83 -83 73 71 -77 -90 57 -50 -103 105 -85 111 -80 -92 -125 -52 -96 -102 -57 -31 95 125 1 109 88 -42 108 98 108 49 -22 -62 7 -42 49 -106 -7 -110 5 -114 66 37 102 36 31 8 92 99 48 -13 -8 -52 -37 -66 -63 -93 -32 85 -3 -32 -99 28 84 104 98 -53 97 -13 83 
-23 101 67 -25 123 -49 10 -56 -108 8 113 -9 86 -49 -85 -2 19 68 41 36 -99 127 -108 -6 55 -121 61 113 -111 -33 -83 106 -104 -75 -122 56 -54 -118 67 125 44 37 93 81 -123 84 19 98 11 63 4 121 93 -50 127 -2 -107 76 -36 19 66 -50 -59 -19 -101 -98 15 -88 91 -71 -29 43 71 47 18 -113 11 123 65 65 89 -73 -49 50 106 8 40 47 116 -99 -66 79 -7 118 11 48 -18 119 108 127 7 56 70 -70 -45 -14 -4 -59 35 -102 -19 -114 -87 111 -91 -65 110 -87 -74 69 91 68 62 -7 -25 10 -101 23 
41 -109 11 -32 -100 124 36 -65 89 -17 -17 41 80 95 106 -71 42 45 -86 7 98 -62 51 -83 -95 114 -51 40 31 -86 -123 34 86 -77 -21 -81 85 4 82 -85 -22 -10 -127 -31 -95 84 73 6 -95 125 -47 -11 -32 -101 -120 99 -77 -99 -79 108 98 29 63 -104 55 -99 -50 24 -97 17 122 -122 -112 -41 76 38 127 46 -45 31 71 40 -96 121 97 -115 -85 -33 -110 122 71 22 111 21 -68 106 -55 125 -56 41 11 -34 -77 31 -89 -88 -106 36 -88 -109 72 15 -82 -32 96 19 -104 26 74 66 69 45 -81 -27 -96 79 -95 -39 
48 -78 -59 -125 41 -96 -116 -61 -21 -92 -94 -23 62 30 -111 -81 -55 -38 4 -39 -8 -93 -22 -110 42 -41 71 -92 18 5 4 -64 -86 -22 -74 51 56 100 -14 -97 22 31 -61 -106 40 53 29 -14 -20 88 -24 -34 73 56 -32 6 99 -126 -120 25 -49 40 82 -122 38 25 13 -23 100 41 95 -55 -11 109 -79 94 45 35 88 40 -75 -33 19 -23 121 83 -29 103 125 -60 93 22 37 -13 113 12 95 57 122 -20 61 25 -64 -121 95 -43 105 -46 21 -51 -26 108 -104 97 112 108 -53 73 -15 -11 32 -13 -59 -86 -7 -29 -62 -67 
-88 92 51 -68 -99 -124 -104 -109 110 104 -5 -60 -68 -60 92 -49 -66 22 -113 -14 -47 -111 72 -85 112 39 -33 29 -123 62 3 24 -74 14 -111 -96 -100 31 -42 78 77 -76 81 118 45 -1 120 -117 104 -21 36 89 62 94 9 65 -124 -123 -65 -24 -33 -35 -19 38 -52 122 -18 -67 88 126 92 -46 -62 51 112 58 85 -71 121 -101 -28 81 106 -60 -86 -4 -41 -55 -17 -88 119 -44 11 3 -96 -74 94 85 1 19 48 -15 -54 -27 105 -19 -54 37 96 -107 -73 108 -21 113 98 -38 0 -89 -59 -58 110 117 64 -27 -3 -13 40 -101 
-127 34 -32 -61 110 79 -124 21 64 90 101 122 21 71 104 -36 116 -11 -9 -119 23 33 -98 25 -91 100 121 -47 106 52 112 28 -92 122 20 -102 2 -75 43 -114 38 74 116 -101 114 -31 92 34 107 17 -25 97 84 -84 2 117 52 -82 -27 -54 -9 -25 5 95 22 120 -47 -64 20 43 -21 44 103 12 12 40 -120 33 97 -47 77 -72 -5 -110 98 126 -46 -49 96 -87 -79 -50 -7 40 -78 104 -124 -28 -95 -66 -49 -111 -74 72 87 -108 77 96 -45 47 -7 -5 10 71 -60 4 -92 -102 89 -95 111 8 83 62 -24 110 -74 -32 
-116 -117 106 75 11 -94 -80 -105 10 -98 -118 -39 9 -97 -73 -55 -44 47 123 110 -31 62 -118 18 -73 -110 -102 73 -67 14 -51 47 124 47 108 84 -31 123 -28 97 62 7 66 -115 -66 -59 110 -77 -30 -65 19 62 70 8 17 -99 120 -41 -70 -110 -111 15 -78 25 -98 -106 25 125 -39 7 77 7 58 -15 -95 -49 113 117 121 -63 50 -86 -51 113 126 -36 -13 -46 -53 -64 95 -105 -118 24 36 101 -96 -99 -14 104 -38 121 -42 91 62 77 -98 99 36 26 48 -115 87 120 90 -49 -15 105 -68 -1 121 -11 47 -10 -97 118 -14 121 
106 18 -82 23 -103 56 29 -96 -97 62 -92 15 -118 14 43 122 -92 -84 13 -70 -7 93 91 -118 71 -37 88 41 112 33 -91 -91 94 -39 82 -113 25 -80 -92 8 -68 -65 64 118 33 -112 -36 29 -93 -21 -32 -85 20 -115 112 4 -17 -81 -106 -31 -120 37 23 56 88 45 -104 120 42 65 -86 -114 -7 68 -46 -80 41 105 81 -9 -67 -68 27 15 61 -96 -103 118 114 -7 103 76 14 19 -90 99 -53 -46 114 -52 48 5 106 121 84 31 -126 -77 125 -11 3 17 126 -43 52 75 -31 -11 22 28 -6 16 100 -119 -8 -66 -91 -96 
-70 124 -19 64 -42 59 -79 11 82 116 -44 -36 18 122 -23 29 75 102 -39 47 114 125 97 -17 25 -50 97 -70 -32 -71 -8 68 76 -11 22 20 105 -91 -15 81 -114 78 43 3 -29 73 126 -103 101 -60 -34 -14 102 -28 -62 111 73 -23 -13 -26 -48 -115 49 -46 43 18 6 11 92 -102 -51 104 78 -6 71 -42 45 -116 -42 122 2 -8 -114 69 -87 112 17 32 -71 -3 -63 82 -25 106 -25 102 84 -71 -115 -121 -3 -103 25 -26 -121 70 76 -90 51 -91 107 -106 -33 59 27 -93 59 76 -115 116 114 -40 -96 125 118 104 -97 -120 
121 -120 98 -108 120 14 -90 20 -81 79 91 22 -110 11 16 -85 -115 -103 120 92 -43 -89 -62 0 -43 62 50 -39 -103 106 -118 -29 11 94 92 125 -71 -114 91 -87 7 46 -6 -72 -7 -100 -17 116 -78 -65 47 -73 -92 -108 107 33 17 127 -85 -6 20 -80 22 24 117 -64 -123 105 5 -90 36 37 -99 100 77 -87 -75 -122 -49 41 37 -94 34 -105 -115 60 -115 -107 -3 76 49 56 -22 -63 -4 -80 -9 58 36 -13 -12 73 -81 -11 61 116 -60 -113 122 116 -116 -28 124 75 85 32 107 -56 -97 -94 29 74 -98 -59 -47 -20 37 -112 
-6 -22 6 -80 -108 112 109 5 76 -88 100 -60 93 -5 67 105 10 -49 -113 89 82 2 41 74 90 6 -66 90 -91 -92 -92 -108 -29 -24 -53 -29 43 15 -73 -43 -29 -44 96 66 68 -94 73 -39 25 13 63 37 -127 37 -98 88 -121 38 2 -42 101 111 -93 -38 117 -122 -9 64 75 -87 23 -67 -33 62 -34 81 79 103 56 125 -63 -5 21 39 30 3 95 -1 -44 95 -57 123 13 110 -70 -9 34 51 -88 -3 34 -71 58 95 124 98 4 99 27 116 69 78 127 11 -3 62 -17 -42 29 95 -42 -123 114 -29 17 -29 75 104 
-120 51 90 -73 123 -111 60 91 -68 110 33 73 -105 -17 7 57 93 97 40 -15 118 110 65 91 68 -39 76 40 -92 -66 -4 -105 -101 47 119 103 -19 -71 -54 118 21 -57 7 -101 -18 2 34 -64 113 -18 -23 21 59 -78 -118 -76 -4 -117 99 14 80 111 96 -26 -39 7 56 85 -58 -3 -110 -37 -9 -10 -48 58 -29 -44 -23 36 -126 -99 -87 52 21 39 -50 60 44 -90 -41 -113 -30 67 -87 -30 -60 -69 -42 101 -80 6 -89 71 -19 78 -89 -96 91 -103 -65 25 96 -38 127 -37 121 -22 44 4 27 -95 95 38 -41 78 93 -4 
-96 -48 121 51 -75 -80 -107 47 -56 -72 74 121 -101 -91 -121 70 113 42 -50 -71 -23 -46 56 15 -69 56 -22 -86 -68 -2 36 -52 93 79 58 34 106 -39 125 -118 25 -8 -110 -18 26 31 -59 25 -106 -106 13 125 52 -98 83 -78 93 13 -40 -7 -94 -29 -94 118 -92 124 -78 -88 64 -89 -29 118 59 39 -72 48 -83 0 49 -65 4 -34 -17 20 73 -99 -108 106 -94 -117 -7 94 -97 -107 -99 -116 -51 27 33 125 -80 2 -40 13 -127 -4 88 21 61 21 104 1 -60 -77 -30 110 -17 -104 -2 -57 -82 102 -51 63 116 -61 103 85 
96 44 5 -101 -2 48 -71 -108 7 125 21 -116 112 92 88 -57 -44 -50 76 10 1 46 -20 41 71 70 70 -6 -31 51 97 -17 -83 80 57 -32 29 71 85 -125 -86 118 100 101 -66 -114 -120 97 73 -23 62 39 107 -75 -123 91 -125 127 98 36 52 22 54 72 9 102 -28 -59 97 49 -26 105 -31 29 -83 -1 -18 117 -30 38 44 25 -63 41 -6 60 119 38 -112 120 64 -98 23 93 62 -24 -125 -69 107 -106 23 58 33 -98 -1 -77 60 23 117 122 -63 50 -46 -3 34 -91 16 -66 3 -117 -77 -23 52 -90 3 14 67 64 
-127 -60 -111 -3 106 -126 74 57 -119 -123 12 -90 -1 -82 32 0 -125 -27 109 104 -70 51 32 -95 17 34 -70 54 117 2 106 -55 82 -49 -40 -104 -75 -75 -74 56 40 -44 57 -126 -11 11 -114 -105 107 -71 59 101 85 -77 91 124 -59 56 57 -90 -11 103 -103 -44 112 -109 75 -61 61 -20 58 -81 28 0 -3 -107 67 3 -30 92 59 -98 -71 46 39 -57 -73 -120 -57 -60 -59 -94 -42 19 -92 -5 -124 -93 -18 95 -21 74 -76 -16 -94 120 -89 -114 88 20 -118 -11 -52 13 127 -1 11 -111 -56 57 114 -126 101 107 17 -9 81 56 
16 96 95 -3 -12 -18 -86 -2 61 -93 -50 -20 -59 -85 -57 -63 69 -15 29 -81 -97 -108 -52 -44 -69 26 25 8 -57 -97 -86 -22 -37 -24 -51 -103 -79 -87 37 123 3 18 -126 -22 -52 119 107 33 23 25 -87 83 -48 -69 110 -58 -72 -14 101 -45 -49 -46 27 81 36 37 112 120 -119 -48 -22 48 -5 -13 6 -117 -115 -17 48 -76 -16 -73 -87 -5 90 61 18 -73 70 -7 68 -110 3 -86 57 81 -99 -62 88 -95 -7 108 125 -118 -53 51 -12 90 -103 109 113 -80 -34 117 -6 66 15 -73 90 108 113 -45 78 58 -65 -2 -58 -89 
31 -88 -90 -104 105 -94 -43 14 -110 -22 45 7 75 -111 58 -25 6 99 51 -10 -14 41 -4 121 35 51 55 -88 58 -94 95 -36 61 -14 -50 -112 100 46 -80 -55 -39 -6 -1 27 -14 103 127 -14 -14 10 21 20 78 -70 -6 6 -112 125 71 2 104 66 -73 67 -126 61 -108 10 118 -5 102 41 83 44 104 -4 73 -8 -58 17 -88 24 -21 102 -125 57 -87 94 -37 107 -121 75 -94 124 105 -49 -12 56 40 -63 -28 -26 32 -91 92 -30 -38 70 -100 -44 59 66 5 1 18 49 -44 -21 -82 -121 46 79 59 -54 -47 -16 120 -63 
-89 -92 -118 -44 -94 -62 8 -77 34 26 12 -33 114 -109 126 -2 29 18 85 -28 37 0 70 -43 67 -110 100 -110 -72 19 40 25 -39 114 -16 71 -119 -81 -91 125 83 -16 61 -127 -41 101 -93 8 32 95 126 93 -11 70 9 105 -55 68 31 -77 -107 3 -68 33 8 -45 -122 -53 -84 -51 12 -66 49 -127 -45 4 36 117 118 80 -68 110 -49 -106 87 39 -53 11 -1 116 -24 55 4 0 53 92 -54 92 96 2 36 -8 -97 -70 126 108 -98 -35 90 126 67 -104 55 29 8 78 30 -118 -23 -79 -123 -95 4 27 20 114 -18 -119 
7 -2 106 30 -7 -48 -125 105 -20 -42 44 114 -16 -71 75 -51 -108 127 37 -28 127 -76 10 112 92 -46 104 -59 -60 -100 114 73 69 -57 -99 -56 10 75 -27 -19 -22 89 -92 -119 21 30 -22 108 -19 -37 -100 65 -112 -49 -98 -71 12 4 -105 118 -60 -97 114 -103 -97 -74 -82 35 94 6 -59 127 84 -12 72 -117 39 20 102 120 86 -98 -116 22 -13 122 -98 26 -111 -127 124 24 -74 125 -57 -122 17 -90 -58 79 106 82 -101 123 10 -83 -118 48 13 41 -68 -3 72 -9 -71 -43 85 38 -74 127 -87 -107 99 112 -56 -90 -57 13 
-97 4 -64 25 125 -20 96 -85 -25 31 102 -28 -59 41 -95 61 -111 41 115 89 95 58 -14 -83 105 58 -83 103 125 109 53 -1 -58 71 83 89 -79 -90 -48 77 101 -84 -86 69 -111 -98 50 20 -99 45 -94 -33 118 -80 62 -4 92 -25 -126 44 51 7 -102 70 -91 97 34 96 70 -9 -123 -67 -49 36 112 83 -54 57 6 -119 -126 40 -95 119 -41 26 85 -13 56 -92 10 -82 -101 104 23 -30 85 -31 36 -38 -23 -104 0 44 -58 -95 -93 -76 -26 -84 -61 -70 116 -94 -10 125 -14 -47 110 -6 125 10 56 -110 26 94 117 44 
-72 -46 -69 -48 -54 108 43 -11 -48 74 -77 -97 18 -59 59 -43 -45 126 35 17 97 125 -98 -49 -18 -58 -20 -94 72 19 -40 -127 19 -82 -73 -95 89 118 -48 -61 79 82 -99 -46 -24 115 -86 29 37 -110 13 119 37 -124 89 113 9 -66 31 64 -64 -114 -27 -61 -94 -46 -73 83 -56 64 114 -95 6 6 103 -78 44 100 -74 109 -43 63 30 14 94 -42 99 -122 114 -92 -32 -115 -22 4 -36 69 81 -27 83 67 -85 94 -15 16 67 87 -126 -85 34 112 120 -9 30 95 107 -18 0 -87 -50 20 -32 94 -118 71 17 -7 -105 73 
107 -91 -28 64 89 -115 -116 13 -118 -119 9 -36 -23 36 -66 -80 114 104 -7 -113 13 46 -107 87 37 72 -79 16 -67 -78 93 117 -96 43 77 86 -6 36 -69 3 -104 119 7 -18 53 47 -34 -108 0 105 -109 109 -127 -102 -94 0 28 -4 -68 -122 64 106 -4 -110 57 54 97 -105 -21 -54 67 -5 -43 -43 74 -86 94 -125 105 -73 87 21 116 30 8 67 -49 -46 110 51 -58 113 -78 89 6 36 117 -51 -17 -101 -79 93 -31 112 12 124 46 -16 6 117 -122 19 119 -6 -49 -100 -52 48 56 5 57 95 50 14 -25 -74 115 29 
48 92 73 -7 36 82 45 -25 -53 61 -115 22 12 -96 52 34 63 0 4 -15 -111 81 -59 65 -45 -34 -31 -54 -122 -44 -35 33 -87 7 -110 79 -26 47 41 -126 23 43 -119 93 -62 -53 8 -72 105 -80 89 -9 41 110 71 -47 -60 112 -16 -45 75 -80 -31 -118 -107 59 -47 110 -70 -83 53 14 -80 23 27 14 34 -71 -102 -55 -45 61 -105 -54 99 87 -41 19 125 -5 118 -124 -118 -110 107 107 108 -23 -1 -90 -7 -73 68 51 -109 82 -11 -91 -105 -10 -99 127 63 48 15 41 -112 72 56 45 -45 4 -82 46 65 96 -121 76 
96 -92 -108 -110 87 -23 -51 -40 -23 27 -43 -84 -65 -67 102 75 53 27 102 114 43 -19 -29 -6 -69 -65 67 61 64 15 101 23 -25 -35 30 -127 16 -117 51 81 -115 -89 -40 107 -71 -65 96 -8 13 16 -94 -123 77 115 -100 -77 -98 97 -84 -53 127 36 -19 -39 -45 42 -103 -68 -109 -8 -38 -55 10 19 125 -124 -71 35 20 -82 107 -118 83 -109 -97 61 -7 120 -82 121 -124 96 -65 -39 126 -44 -94 3 -24 126 -127 22 47 -66 -1 56 -21 -12 -53 -13 -103 -38 25 -21 -107 -17 -35 48 -88 -79 6 75 -33 -125 30 -40 48 101 
-115 -15 -66 53 104 73 -90 109 -22 79 7 -30 117 -110 108 35 47 -34 -15 93 -21 -26 -89 114 14 56 -7 -13 -114 54 -16 89 37 -74 -99 87 -67 -103 -69 123 -37 86 -41 -56 2 -58 -80 -77 23 96 124 83 -22 72 21 -33 108 87 19 -18 -94 -44 4 -110 -101 67 -80 98 -110 72 -4 -94 -70 -124 -34 84 16 -113 109 -56 116 15 119 52 64 82 26 -91 58 95 101 85 48 103 121 72 48 -33 -73 -35 96 31 22 -115 -119 -109 -31 -11 58 -69 92 -110 -45 -40 -90 -14 0 -28 -66 -27 36 16 111 21 77 -113 -89 76 
38 81 14 89 3 14 -10 -74 20 -11 53 7 105 92 12 81 -66 -5 -38 -2 -34 -17 31 56 30 -97 -88 91 -58 82 -7 -9 96 119 108 -83 113 21 38 82 61 118 -74 -6 16 -65 -7 -78 -92 6 27 -47 -65 -113 117 -7 -119 34 111 83 34 107 -123 116 -72 23 -7 -87 95 -9 -40 25 80 -23 -10 -15 -15 -20 38 114 51 -19 126 -50 -95 8 69 -19 107 -115 -84 23 26 46 -32 38 100 98 104 -26 11 -93 52 86 23 12 19 69 76 -26 96 -108 77 2 46 119 117 97 -24 -54 71 95 -81 -104 -31 -80 -89 -13 
73 -53 -42 29 -125 -62 54 -67 66 -48 109 125 -101 55 -83 -25 -63 69 -86 -10 3 123 -98 77 -43 54 -16 25 -125 40 40 111 20 0 -14 7 45 97 -113 -118 32 -47 -15 -80 -59 -110 55 -67 38 -83 -97 104 90 19 -73 10 100 -55 43 111 81 -64 -69 23 58 -51 85 7 62 124 -57 117 -81 96 5 -61 41 -63 93 100 -111 49 75 127 -119 82 -8 -10 9 -4 85 87 -64 84 73 -68 94 100 -54 -71 54 123 61 87 56 -10 -104 100 87 -83 -39 15 -57 -108 -4 -37 16 -42 38 -18 -70 38 41 67 -124 -121 40 -74 
113 125 -49 -89 -127 54 -7 97 11 -94 -33 91 73 -121 61 -108 82 -118 -101 60 -74 78 5 9 -38 42 -34 -3 61 -115 -64 71 -29 41 -122 -112 -82 -87 -71 104 18 30 -26 105 -82 -67 -16 -58 74 -96 48 -1 -105 85 70 1 15 -92 2 87 -83 -14 -72 -1 116 114 60 -9 -65 -80 22 -22 98 43 9 -15 99 -26 123 125 -63 -101 100 16 -32 114 101 71 -84 75 92 7 29 -104 8 -18 -77 67 -126 -13 -117 76 5 115 106 -53 44 30 -36 124 28 102 40 96 16 48 91 -17 109 1 5 -49 16 117 81 -98 24 -67 
-7 -33 10 -78 110 3 -85 17 79 -86 108 -92 -17 66 118 3 122 38 -113 63 -97 -65 -94 -20 -41 18 -72 -33 12 53 -1 88 104 -47 -75 -73 -77 -116 78 83 88 -44 -97 97 44 -2 -86 -122 -82 -105 -37 -55 -37 -52 -112 -44 52 -45 78 -124 -51 -90 54 77 114 -7 -67 69 59 -98 -113 77 -76 45 36 -92 -4 -81 -32 19 80 -57 56 77 -63 96 41 -77 -41 -108 13 47 -51 -29 -65 -67 -63 97 62 -42 95 -72 -121 57 -84 -16 -19 107 29 -102 -119 -112 -101 -109 -71 52 -99 -56 85 8 47 -34 -16 -99 1 -45 101 -42 
-122 116 -104 -16 22 -93 13 -52 -95 68 -58 7 18 15 93 122 -120 54 -36 -114 2 1 27 52 104 119 49 -96 -29 -49 -110 -90 88 -37 49 78 -32 -58 24 -50 40 -51 0 10 108 -105 -64 26 108 -76 124 -126 51 -39 -28 10 124 -78 -27 13 106 112 48 -120 -95 -49 57 -106 -117 -25 35 -86 4 69 102 114 -8 117 101 -59 -89 64 72 -43 53 -89 81 -42 118 105 -30 83 -10 -80 64 -47 86 67 -80 63 24 -20 -78 -38 87 1 84 79 22 109 -33 57 -11 -117 -14 31 -100 -105 -114 -99 -63 -94 77 127 114 44 -120 39 
-14 90 -16 106 -47 91 -30 76 92 0 -93 -121 68 -63 121 5 80 59 15 -82 -123 102 -102 42 -43 -28 -20 -109 -26 -37 100 -87 -79 37 73 -56 -87 -34 -91 7 -37 12 -58 -59 8 -95 6 -114 91 20 -62 30 95 -25 -57 -2 78 21 -65 117 78 -43 -113 97 -77 93 -4 126 71 80 -21 55 -13 59 -16 28 -83 -56 51 -84 -23 -88 118 -70 -3 -63 -10 -16 124 -50 -125 68 11 -110 67 87 -104 48 64 -73 82 106 -84 71 123 -50 126 124 19 84 91 77 -46 -52 -63 101 -1 -24 55 -20 -47 44 -27 61 127 -66 -27 -39 
-14 -19 85 80 28 -8 62 -118 34 66 15 103 -115 -127 114 112 94 41 -73 21 40 -65 -25 -24 -19 89 99 -112 -120 80 -71 93 -2 125 -6 -35 -9 72 -13 -74 71 53 109 -61 -76 25 115 97 45 -7 111 -84 -13 86 3 48 103 24 -123 -73 21 -100 -23 76 -4 103 -30 -7 -75 -5 98 -32 86 -91 46 2 88 49 121 70 16 -124 -86 72 115 33 85 -125 -35 -19 -66 -10 41 -94 58 -96 -124 -109 -95 -57 42 -108 5 44 -124 14 119 7 29 49 -118 106 -70 10 -83 -75 -43 78 -53 13 104 123 -14 76 110 -110 -115 -74 
64 -96 -5 -81 78 -18 -47 112 97 -45 -62 -10 92 -124 82 39 -113 -78 -124 23 91 -93 126 38 0 23 125 -47 -85 91 -123 42 -89 24 66 75 15 -1 -47 102 -49 56 -1 82 17 -45 -68 -62 -79 -42 -86 -77 -25 78 16 56 101 33 -63 88 -93 -99 110 12 -103 -12 74 121 -62 25 122 0 58 -77 127 -75 29 -83 55 -70 -3 -13 -115 75 2 96 5 -89 10 111 9 -53 112 -8 103 -111 80 23 86 90 0 48 -46 123 -9 -127 -114 -69 -92 4 -59 57 116 1 26 -102 -5 -78 -38 2 -76 45 -102 -97 -121 94 -45 -45 
-100 -33 -94 -124 86 109 0 -50 14 -76 -97 101 50 88 56 -26 43 89 -79 28 32 -39 48 101 -65 35 -117 50 -44 40 124 18 -25 92 -121 39 -67 -107 16 106 64 107 32 -30 2 80 70 -16 -105 127 66 -121 7 17 -24 36 -118 -11 -82 -52 -19 6 -67 79 63 106 30 4 -82 -94 122 51 127 107 25 1 29 -71 -118 -77 52 -66 57 -47 -66 59 1 41 -121 -119 33 127 -2 -85 -98 -95 34 -59 -23 34 116 32 -55 -119 102 -43 55 -2 -75 -14 -106 88 52 -15 -42 -10 -103 5 -24 -113 93 76 -77 100 44 -53 -64 99 
63 -71 -118 -35 34 -72 -25 -16 78 -29 -80 69 -101 -3 20 49 92 124 -28 -15 -107 58 3 39 118 112 -95 6 -79 -15 101 90 88 52 64 -98 6 -57 19 -12 -75 -82 81 -45 92 101 38 -30 -79 -122 -42 -46 -26 -70 73 -92 73 -43 7 56 52 -120 49 -31 -114 -117 -22 -82 -76 94 -55 20 127 119 22 120 -112 -118 -78 -36 -78 -67 86 -36 -41 65 118 72 117 -54 79 73 111 -28 94 63 14 72 12 24 44 96 -85 62 1 96 -26 88 27 106 57 93 -84 -70 -41 40 36 -50 -117 -109 33 -36 120 -119 54 0 112 -79 
72 22 -35 13 -25 44 -96 56 48 28 -90 -126 -70 -102 -17 -113 -2 25 107 -118 81 43 -7 -51 -60 35 -48 84 -105 20 89 124 -126 51 23 -100 -73 96 95 57 43 -49 101 114 -44 -70 121 46 -116 32 56 27 -27 -11 45 -81 -123 -16 -123 -98 -33 -64 -5 -109 -117 9 83 -83 -113 26 -2 -19 -66 -95 -52 -52 -36 -6 -47 -88 124 87 -18 -85 -51 -49 -17 -105 -89 -30 121 -115 40 -21 -67 -91 27 -100 -76 61 52 47 -3 -107 -71 14 57 -44 52 -2 -13 54 -52 -18 -77 102 21 9 -10 102 -30 3 7 42 97 104 -14 -73 
7 61 98 72 -37 109 -94 121 36 54 -56 -89 14 -12 100 122 -98 -31 1 98 -76 121 -118 121 -3 46 -73 59 95 65 -66 40 39 124 115 46 16 -127 91 -8 33 -63 -49 -110 -72 123 84 -59 58 -35 -70 42 -47 -1 30 -115 -16 -24 -65 -60 98 113 17 19 -54 67 12 -5 84 -126 28 93 -120 39 70 121 -39 8 -68 125 62 71 -110 119 -48 -105 60 -53 -69 38 99 -58 -110 -114 -54 -73 55 109 16 -35 31 42 17 -53 -48 111 9 79 80 -116 120 66 -58 35 37 33 125 -50 -96 -38 104 -43 -125 -73 10 -27 -95 119 
-17 35 -3 -6 -36 13 -15 -100 4 49 4 99 95 -123 -43 102 -83 -113 -69 -99 61 110 -56 -22 18 94 -121 81 11 -107 -40 73 45 -1 -18 -7 15 -1 66 78 -44 -69 -122 -28 -16 -100 -81 86 29 -13 -82 0 41 -85 66 -124 -124 8 28 -113 95 115 30 49 64 126 85 81 -46 14 -3 122 -62 -84 80 -120 92 -92 -125 42 85 -119 -83 88 10 2 -21 87 -122 -55 -75 43 105 14 -107 117 -79 102 71 -82 18 -94 115 18 -95 -92 -107 95 35 -123 120 -113 27 -51 9 10 -103 -22 28 76 -6 95 108 -6 -117 -75 -52 58 
112 -124 -37 95 -122 34 -113 -22 92 -32 -119 92 19 34 -102 40 70 -27 115 -33 -108 9 -79 29 24 -8 -104 -44 94 -9 106 -30 -56 9 -96 45 -8 -23 109 7 -114 78 21 112 106 -70 27 -14 4 31 -105 121 50 23 -97 107 -64 90 -34 -13 -59 -105 -42 96 63 -51 65 97 81 63 81 -34 -74 90 35 -124 29 -36 -95 -63 -44 124 -94 22 8 -74 -90 37 -20 127 -113 55 53 28 124 14 -106 -71 98 23 0 -119 -14 72 98 88 31 -56 -113 127 -55 -123 51 70 61 100 -83 -63 51 2 61 -116 -4 77 81 66 96 62 
-82 32 77 46 40 18 -19 -83 36 -56 90 8 102 -91 114 -103 50 48 23 23 -14 9 -104 14 -98 -12 -103 -38 -44 -62 -41 -119 95 22 66 -70 -3 -55 31 -53 87 120 84 103 -50 -81 118 -117 -18 83 -89 -44 104 70 2 61 -126 -46 91 -20 -20 -87 107 117 -32 26 106 12 -17 -95 31 -48 -11 71 -84 84 -93 -2 76 -9 -24 -102 -55 71 43 6 9 -22 -104 92 -81 -108 -29 -101 11 112 -104 -54 -125 23 31 29 -67 50 111 28 -13 -45 75 -125 60 -38 95 16 55 2 -79 -89 81 -57 116 -88 -76 -23 -7 67 77 38 
-32 -88 11 114 -56 7 59 19 116 103 -57 59 98 -34 14 24 -111 13 55 68 36 31 17 -99 5 5 -64 112 58 37 82 -104 -92 -88 -43 -46 -10 -91 5 -90 31 95 81 -7 -73 8 -119 82 -10 -124 -98 0 -4 83 108 -78 69 17 -26 -6 -51 27 -55 -110 4 -70 32 99 -33 -4 -113 -13 -1 -42 80 67 -46 60 -13 93 -82 -44 122 76 42 95 -45 16 -108 -32 1 -101 -68 7 -90 -72 -45 -5 33 21 -120 -70 83 -91 47 93 -82 77 -113 -1 43 37 33 -125 -46 -31 -83 64 41 109 46 -40 -90 -77 45 -95 -19 30 
105 36 -59 -100 -9 127 -92 80 72 20 -28 -87 65 -101 76 -35 116 54 39 27 105 -12 0 91 -36 -77 32 -117 53 108 95 68 -115 19 49 59 -49 -22 -16 83 -39 5 77 -76 -118 56 -32 10 -120 -103 -45 -74 -62 104 -14 99 63 -123 -69 42 106 30 30 105 -113 -89 -7 100 110 -114 -78 68 97 -2 62 92 123 98 108 -8 -33 29 -96 -47 -69 -80 -18 -90 -113 -52 8 66 -83 -110 -98 74 26 97 -32 -46 -15 86 -111 99 39 102 -126 63 113 13 -54 -46 67 -96 33 34 -49 107 -27 -70 79 103 52 24 33 64 24 -96 
65 -76 21 -86 -99 60 -8 65 76 70 92 33 -69 -35 112 -111 -16 1 -9 44 -27 -44 123 -13 75 34 -78 -112 -81 -61 10 63 -75 34 125 -80 40 106 40 -79 61 -53 -31 -8 -10 -93 -92 -9 -39 -114 -11 -54 -59 11 -39 108 8 -66 21 105 -66 -31 39 43 109 -122 -72 -69 49 -105 119 45 -61 -46 103 47 -106 -27 91 -69 112 -77 124 -95 57 51 125 -50 96 76 -43 -7 126 36 86 -80 -68 105 -16 -16 21 26 -18 -36 120 -113 124 21 41 19 65 83 120 -113 76 35 73 89 89 55 -55 -19 -104 -127 -12 -80 -82 -123 
-104 -109 113 -97 2 -17 -38 -97 -32 26 -104 61 21 82 -47 -69 -36 -84 -65 -97 12 92 53 -125 -97 118 105 -65 38 22 -94 12 -36 90 119 0 86 -4 -14 -69 -73 -107 -70 42 96 76 124 118 101 -16 9 -79 18 12 -46 -61 -121 -3 -102 57 -73 -100 86 118 105 -1 64 -36 -38 -21 26 44 93 25 93 -15 66 -111 77 -9 -24 85 125 -84 43 95 -66 92 32 -34 -66 18 -14 17 47 -35 14 46 113 3 -33 93 22 76 -26 70 105 -99 -127 -67 -43 53 -50 90 88 31 -30 -20 67 87 18 88 24 -18 -35 16 -95 -34 
-9 15 28 51 -4 58 66 23 38 -103 -52 113 -123 -36 24 -92 39 43 96 -53 123 91 -9 71 -112 90 7 -21 48 89 -61 -54 -49 -122 122 8 45 69 -31 83 25 -37 -49 -103 50 74 -13 102 82 -96 -32 -82 -30 45 -108 80 -57 21 -74 67 106 114 -75 -106 -127 -110 50 -107 93 81 125 -75 35 -36 43 57 -28 -108 -22 -127 89 -92 -68 66 33 28 51 -25 23 24 19 -73 -72 47 -105 115 -88 -3 116 99 -15 -95 70 -45 98 -22 17 13 88 29 82 -13 68 60 -102 113 -11 -46 98 93 75 108 -88 -29 13 -58 -125 47 
57 93 -125 -93 -38 -37 -22 71 -27 -20 127 -72 -89 -127 -113 29 101 73 -39 -48 -1 83 -38 -116 34 87 75 96 -14 106 -28 94 -5 -96 92 57 -97 52 -101 -103 112 -21 20 87 -69 9 74 -63 -115 -57 45 63 -115 102 -44 -39 2 -59 115 64 34 -73 -100 78 -80 35 90 47 -98 88 4 -35 105 -43 6 -19 -83 -32 -101 38 -102 55 63 -91 114 -53 19 125 -69 70 105 -103 29 55 -90 -55 -20 50 26 -105 80 55 29 -76 124 108 -70 14 39 28 49 -93 -125 80 -79 54 12 58 36 -57 75 -2 112 114 -117 -122 -101 -75 
107 112 -7 47 -104 76 -97 -19 67 -87 64 -28 -56 115 -36 88 104 49 111 60 -80 34 115 17 -107 -123 3 -50 -86 74 -100 119 -123 -3 1 99 -124 37 -48 92 0 67 -72 61 127 -97 -5 -116 86 -96 -83 78 9 -12 121 67 100 -106 104 39 125 75 116 111 -64 63 -45 -82 -102 -52 -55 53 69 -4 -64 58 -105 103 109 -78 -67 72 -119 16 113 -39 -120 43 -15 -84 119 -71 9 100 -22 78 -56 -72 -48 104 -101 -91 62 -59 82 -51 -55 73 -91 74 -94 41 -56 -110 -37 40 -38 -42 -37 -121 -20 -43 -7 105 1 -94 -116 -120 
-70 -63 -15 109 28 -80 46 33 9 -78 -55 -76 -94 80 44 -76 -127 26 74 4 -9 -66 -82 32 31 121 40 -31 -92 18 122 39 -117 -114 42 9 78 109 -36 50 73 94 87 47 73 -37 63 108 31 114 -5 -50 -39 -35 -77 -127 35 58 -120 -67 -61 -119 -116 30 113 -20 -25 -80 66 -20 117 -67 -77 -27 -3 25 -51 -76 -16 -126 4 -1 -78 -5 -10 7 91 -116 35 91 -118 -87 -119 41 -31 46 25 -124 -47 24 -77 -36 15 -29 56 88 56 34 57 82 -85 -27 -96 116 -108 -15 76 38 -105 67 -23 120 105 -108 63 -3 127 -26 
7 -60 86 -86 -69 -16 -22 73 83 32 -3 34 18 108 45 -20 90 -36 -115 8 81 -8 70 98 80 33 103 11 -25 -109 -109 -104 -96 36 -17 27 37 122 -81 81 -73 94 -119 -121 -30 95 -60 90 105 79 -44 80 125 -64 -34 108 53 46 -38 38 113 -126 17 20 -66 -80 64 -83 52 -62 108 -8 -75 26 83 -20 41 -39 0 -54 -56 -27 -45 -35 -92 -81 -122 -109 46 0 -77 -32 30 95 -118 -32 -117 -38 -83 -6 50 -64 -121 116 -108 35 6 93 -66 -49 2 79 -90 67 -1 -99 -30 -15 -49 -36 46 33 41 -37 -119 29 -1 -1 
-94 -96 7 -31 22 111 -35 114 120 113 0 -122 -57 73 29 127 -1 -15 -87 -92 -35 -110 34 -34 -62 114 -22 -114 -77 -125 46 -5 43 85 -63 75 -81 57 -58 74 -57 39 105 -83 -27 30 -72 -4 54 74 -8 114 -123 -118 94 -76 -1 114 32 16 127 -106 -59 106 12 -55 76 -43 34 -7 72 110 -44 -31 -8 30 13 -83 46 39 -89 -74 -87 -57 -104 -25 99 10 80 -7 -109 57 53 -92 53 85 -115 -54 -110 -69 -83 82 -21 -5 109 -31 85 63 -46 53 -29 29 78 29 -108 -119 17 -124 35 -124 -92 17 -39 20 32 -127 107 -8 
-97 8 -49 1 -29 29 76 21 -40 -108 21 -70 91 -127 -12 83 -103 -111 -60 -89 80 84 10 29 78 -91 98 -100 -26 95 26 49 -3 18 52 -84 27 -14 111 11 -54 32 105 -31 -11 89 -28 125 -101 1 108 3 93 -64 94 27 102 7 111 -108 -119 -34 122 -114 31 -115 81 112 -97 34 73 73 21 -125 -95 -32 59 119 -80 61 -35 -123 -78 114 -64 28 27 -104 92 17 -112 -57 -84 67 -89 82 75 -101 -124 77 103 107 56 32 -122 9 -29 -11 50 116 -45 13 102 118 47 -91 -68 -14 6 121 -60 11 3 -1 12 87 -81 105 
21 76 16 84 -41 -30 -4 53 -66 88 17 7 59 -78 26 -65 67 -10 105 50 -64 7 73 -22 7 -50 -99 35 53 70 -53 -121 61 -115 -45 -110 -43 -26 -29 40 -127 -48 -59 23 94 -77 41 59 -102 -13 19 -110 -27 38 -64 55 -34 47 -110 -2 3 125 62 92 7 43 -77 -102 -89 -7 -118 24 23 -25 37 6 67 -5 -102 37 -6 -40 -77 7 120 -36 -36 105 5 46 121 18 -44 26 -100 72 -48 50 -118 -96 -126 -115 113 -87 77 -57 -22 54 96 45 -61 -99 32 67 54 -68 -80 -17 -37 -42 61 20 -8 59 -92 91 37 35 
96 -40 -26 48 122 -51 -43 15 6 -120 66 23 -59 -122 -46 -123 94 57 9 -49 40 24 124 73 9 42 39 40 95 6 1 100 10 -77 -82 -92 103 106 3 -127 29 -110 -69 -73 -74 23 28 9 73 -112 -98 -8 -72 -14 -96 -44 30 -66 74 70 31 -42 113 -39 20 53 43 -53 -83 -92 -63 100 11 30 -8 -58 -81 42 -92 5 -89 -117 -60 -62 123 122 36 87 -101 78 -25 -23 -111 41 25 40 72 39 -112 -119 -25 -68 49 106 -79 -51 -36 -60 -78 70 -17 116 5 117 -126 -22 -117 -39 -51 68 96 -57 71 -32 86 123 27 -124 
17 12 -125 -20 -64 85 -46 89 -41 62 -9 19 44 -119 52 36 34 -100 77 -72 -103 103 -50 -78 110 -115 -118 62 98 -109 -59 -110 66 -109 96 -79 -35 -39 23 -87 -19 63 79 22 -8 -66 4 -48 102 -112 -88 9 -80 -93 102 -54 -3 -45 -63 -74 89 66 53 -12 12 114 -107 127 15 -14 47 -4 -102 73 3 -41 66 -125 117 -120 87 -14 125 68 -88 90 -65 -66 -53 10 -61 84 12 25 109 -106 83 -118 82 -11 -56 54 114 58 95 -119 85 -88 0 104 122 32 -59 -118 -63 83 -56 -97 28 -122 -106 -100 77 82 104 70 49 2 
-99 -42 60 60 122 122 112 -121 -105 -16 -26 -126 -40 -96 55 -106 120 -52 122 64 -69 64 -2 29 125 117 -21 -94 16 -19 27 -75 -9 -42 89 34 88 95 80 -64 21 -85 -57 121 -8 -28 -106 -94 13 65 120 87 117 -77 -122 -34 81 -14 36 -50 -59 93 -105 75 -87 17 -84 -121 111 -75 6 -110 -108 -111 47 -62 9 93 56 93 43 77 106 98 37 123 74 76 12 60 60 84 89 -36 -59 81 115 66 -35 13 90 104 -47 -108 -55 116 -83 9 86 37 44 -107 -84 -5 -62 9 -72 -17 -91 -125 -20 92 -49 -119 43 -80 55 -23 
-62 54 18 -25 -39 -100 114 2 91 6 12 -117 -116 18 62 -118 -30 112 -88 73 123 -56 -87 49 -14 -45 -51 -10 -13 30 93 119 88 40 8 78 -91 -12 82 -88 -47 80 74 -16 30 -61 -29 -124 -102 10 -55 -39 -116 101 -126 112 99 66 -59 64 39 10 101 18 79 -28 -25 106 -4 111 -19 -119 -50 121 -85 -62 -122 -41 18 -18 -2 22 93 -98 -24 79 -114 -42 -38 50 -77 -51 -16 -113 118 -2 -31 -36 19 -27 -107 -33 71 -68 34 -113 -28 -2 -116 37 -34 112 -101 101 47 9 91 -91 41 23 -102 126 -39 -38 -103 -9 -37 -34 
-61 69 72 -84 38 -79 25 73 39 -24 -79 87 76 119 59 2 84 45 -11 -45 84 64 104 111 -99 125 -10 -60 -26 -21 67 -121 81 48 -32 -86 -117 -6 40 -61 51 77 -80 -3 69 113 -122 -112 -76 40 -28 89 81 92 33 -66 39 -8 -76 -108 -71 2 101 122 18 -13 -16 81 31 56 23 -59 91 38 -78 -12 63 98 3 53 127 122 98 6 -21 -9 5 82 -42 60 2 101 -69 47 -114 -20 87 51 -102 -87 -28 44 -69 18 -76 -88 41 113 23 -27 33 -57 102 -13 -1 124 58 109 53 47 -67 -20 106 -27 -34 -20 17 -7 
72 49 -115 -82 -90 95 85 43 -46 -27 -60 4 -43 68 99 -60 124 -7 10 90 -94 65 27 74 -75 82 -35 -41 -48 29 6 82 19 121 31 13 -21 -84 -21 83 -105 13 64 61 20 -91 86 -83 -20 -90 82 113 85 21 5 127 27 -1 -96 68 4 -121 -33 -87 -79 -41 -59 -92 -22 65 60 118 -82 6 -63 -51 -47 31 -82 -4 32 27 2 -60 -11 68 51 -65 114 127 -120 102 -33 85 -124 76 119 92 -39 -42 -103 108 65 -81 -5 3 54 -5 47 27 13 -56 -125 -1 102 -14 92 -40 32 21 -69 23 17 -35 -63 27 -37 -61 
18 -9 41 24 -107 -3 72 79 13 83 -78 -56 86 -101 30 66 42 -103 64 -3 -62 -125 -115 -85 -30 11 -123 51 67 97 -59 -34 112 55 -15 -62 8 109 79 -45 85 -29 44 -13 -19 42 -74 -123 3 -126 21 -91 124 -41 71 -115 59 29 60 75 12 -8 -24 68 79 88 28 -108 72 -43 24 125 101 -67 77 118 -1 49 75 15 26 18 29 -16 105 -59 -121 13 -11 102 32 118 -54 82 5 -43 62 -6 71 65 43 -36 -43 -8 -45 112 -86 74 95 56 109 64 95 28 69 53 114 34 -100 -93 11 -119 34 -9 -25 87 127 5 
-84 42 111 -96 22 12 28 -108 125 110 -43 79 69 -41 -1 37 67 8 -83 -26 90 -46 123 -96 -55 -6 77 40 54 -80 -6 50 -109 41 -54 66 -52 -72 23 65 84 -87 -92 3 -106 -93 124 -41 -67 79 12 -62 93 -86 -12 -37 -69 24 -38 -92 26 -47 -88 -66 38 102 -56 -13 -8 5 89 78 -65 -42 -120 -4 -61 44 90 -42 87 103 43 -69 -46 39 -103 -23 60 -115 -107 21 54 -2 14 -45 -119 75 -124 10 -90 -123 69 101 83 -11 78 -22 38 -78 111 89 -37 -87 -80 -72 33 -76 48 7 -66 43 33 87 -81 -6 98 -69 
-34 -32 -17 -25 79 -96 30 31 69 -126 -15 -28 -4 18 38 -97 -103 -73 -114 -28 44 0 -58 112 -63 -70 70 -55 4 6 100 54 -72 65 -28 -105 15 94 45 72 48 44 -110 -63 -96 -56 -79 53 102 66 -42 80 -80 111 93 75 -35 -95 -45 -83 -47 49 -74 -63 -26 104 -35 0 -118 -123 2 -69 -119 9 44 -98 71 64 -44 -97 54 -51 38 102 -31 -103 -44 -118 -68 62 91 65 26 -17 -111 -121 -61 -23 100 -55 93 35 80 12 6 -52 -119 41 23 -22 34 101 88 55 71 -24 -95 -79 -92 -68 19 -124 98 -82 -69 -89 -102 118 
-117 -8 -28 33 13 24 -14 -69 -84 -11 -49 98 23 -89 -51 115 -105 -4 -116 97 113 -102 116 -58 -89 -100 35 112 -45 67 89 -68 -67 89 65 104 -121 -66 76 21 -82 51 27 127 113 51 98 74 -127 20 14 37 32 -9 112 50 78 122 54 -70 -101 -44 -38 69 -88 63 52 -109 103 103 47 -103 102 -64 -119 27 -89 113 47 2 -115 2 -21 -42 44 48 -81 -106 93 -116 53 13 19 30 115 -85 -31 -69 2 -30 -92 -104 -56 -77 -47 51 20 -89 70 -69 -49 -11 -26 -64 18 44 -8 30 -74 86 68 -57 -113 109 17 -67 -110 -75 
-110 -114 60 -7 96 -104 -74 -28 -19 57 70 -25 -91 101 -115 4 -112 -12 110 86 94 1 114 -101 -20 45 63 113 72 -5 -76 108 -103 33 61 -97 -38 80 -105 -57 -53 75 70 -97 -22 -109 -41 31 106 -4 62 -124 63 114 -37 75 46 118 -99 -25 -109 -89 -51 91 36 -54 31 63 -86 -25 11 107 45 21 -122 -112 -29 9 -69 -74 -90 10 -93 -54 18 22 72 22 -51 -89 28 -15 5 17 -56 -4 -102 69 94 -29 61 46 -32 13 -16 -6 -47 105 117 -115 12 -122 -63 -125 79 119 32 -8 -98 -19 -36 109 -26 -120 -105 -87 52 -13 
-27 102 -117 0 -7 54 -44 -71 9 -94 -78 46 67 -126 25 24 117 72 -85 0 105 80 -12 -72 61 77 95 78 98 92 -5 -26 -77 90 -117 120 31 3 -100 -107 -22 67 -120 87 49 103 14 -53 17 -47 98 -33 53 -78 112 73 5 46 -113 -117 -78 -77 119 27 -12 -73 -7 108 99 43 122 -3 -25 -127 42 50 31 -12 50 -17 44 99 51 -70 103 -95 -65 2 -65 -74 107 -66 84 -106 80 85 20 -33 -32 -107 17 -36 89 -94 108 -72 50 -57 27 91 -111 76 -17 -97 -21 -82 -77 -39 -7 -115 62 -110 -69 124 -79 125 -23 104 
-32 -48 23 -108 -15 -59 -104 57 -9 -22 36 -73 14 -34 80 -84 -61 5 108 64 68 -34 -43 115 124 -89 -17 -49 33 42 -57 74 7 98 -86 -34 119 106 16 -7 15 -101 55 97 -38 -41 -71 110 -1 86 13 -88 -10 -14 -107 -69 -82 42 -93 -66 -83 106 28 -46 23 48 -77 -113 -2 124 -42 8 -66 -48 -14 59 92 -60 -113 -50 19 118 -85 4 94 -32 4 -33 97 43 -122 -108 -92 62 80 -9 -41 91 121 -73 -117 46 -98 -124 -82 111 -59 27 -43 -16 -6 -62 -127 27 -59 -46 23 -75 -109 -79 -79 -91 103 -86 -58 -29 -75 -95 
-116 118 -64 76 -83 -27 -28 -111 73 79 87 -100 19 -29 -102 109 -38 13 -26 -58 39 -112 81 50 -47 -80 -50 -70 20 20 -102 68 -63 15 2 37 -104 8 -93 -62 -11 -74 56 -64 99 -60 -20 53 76 43 127 -103 125 93 105 -1 -31 -113 97 108 93 122 122 3 -117 90 111 3 6 -50 103 -110 -100 112 111 -20 -19 -115 105 101 -10 -96 78 41 -71 116 -56 -75 -107 91 -6 -16 110 83 76 -90 126 -2 -87 56 -32 -36 16 -60 -76 -63 20 85 59 105 -124 42 -51 -12 119 55 -59 101 -102 108 -32 15 -85 22 75 63 27 -47 
85 55 94 94 -108 -3 58 -121 -75 77 -79 -14 -40 -31 -107 11 36 -108 -7 -62 22 17 122 59 35 123 98 -19 -34 -62 -62 51 -98 -8 76 111 -60 79 54 -89 -102 44 -93 -57 37 4 99 -117 69 9 -3 100 0 -90 74 -116 77 122 27 -87 -79 84 33 -122 -13 80 100 73 97 112 21 119 -101 -57 72 118 25 8 57 -109 -20 -39 106 -121 98 24 -127 -58 -5 -42 -17 -96 -91 -45 102 -73 67 114 62 -62 -24 43 124 -8 6 -112 77 84 11 35 -68 -80 -8 89 -92 48 -116 -94 -59 -21 -119 67 111 125 100 17 -66 90 
-12 -101 88 32 -119 19 34 -85 23 -111 -96 18 -85 124 95 -53 78 36 70 -107 -39 -78 -55 22 -61 25 100 52 -55 -88 37 12 58 -58 21 -79 51 -99 -23 63 -33 -125 -86 -42 -127 -47 -46 23 -21 12 32 -124 16 87 42 -77 -113 87 -43 -72 -68 -33 -59 -66 -22 -3 -89 33 -22 -105 24 -80 60 -29 -77 -25 0 79 105 -53 -64 87 90 115 123 54 -27 122 -14 -40 69 -73 112 87 34 -99 -73 13 101 -37 104 -33 -107 -85 50 -62 38 13 18 50 55 33 -35 31 -53 -42 -83 97 23 0 -23 -22 -56 -85 -30 -102 -101 56 
-52 16 126 -5 72 -55 23 41 -7 -112 35 0 -103 -85 -83 -48 -2 74 55 -29 92 75 67 51 -91 -102 31 -111 52 99 -29 -61 -40 72 -98 -120 -108 50 29 -24 -102 -40 48 12 47 110 -47 -31 101 53 21 -68 -71 100 -50 40 -64 -107 9 -43 -66 95 98 33 83 24 -95 -11 106 -84 -10 21 20 -51 40 118 100 61 96 43 -121 50 20 -98 15 -18 -26 -83 13 107 77 63 67 -123 36 -107 91 -37 122 14 -126 -19 -21 -88 76 -56 -125 -35 -40 -8 18 -50 127 -11 -96 -33 -4 -12 31 24 -24 28 2 41 4 83 -73 122 
-90 -30 64 98 -78 -120 -82 84 -111 -75 97 124 61 52 -65 -127 -67 52 65 -68 64 -106 -89 -46 -83 123 -85 -124 -61 17 23 -97 69 28 127 -42 52 -79 -55 -57 83 110 -63 11 -36 -52 72 -13 102 95 79 -16 -10 1 -98 70 98 -36 27 90 -25 13 103 -91 39 -9 49 -108 3 -71 59 122 -108 115 -28 -56 -75 -6 43 -102 -58 50 25 57 -72 -54 -21 -118 29 100 80 88 70 -97 -120 40 -21 113 -97 45 -10 116 20 -50 -88 -72 64 106 -37 33 50 101 -86 -10 85 -53 8 45 78 101 19 -126 -85 71 5 125 -64 87 
-107 17 -36 73 23 -84 115 33 -103 10 -11 70 107 -118 49 -7 -20 35 83 41 -60 49 16 -71 -71 65 -52 -71 -105 120 -103 -13 99 74 55 -108 -20 111 -34 -56 -44 -87 15 52 127 38 98 -108 0 91 -3 -41 35 -116 -14 -45 -33 -114 57 90 -100 -121 76 46 90 90 88 -27 -91 90 -27 109 -35 58 26 -58 -101 19 0 105 46 93 -6 -59 57 31 109 -124 -3 123 111 -109 -70 114 -5 -35 3 -51 4 33 12 -119 89 -75 -6 -40 100 -91 -21 60 -90 -30 -17 -22 35 32 46 -122 -71 95 111 -90 -81 -38 15 116 57 102 
-26 0 -54 -14 8 -101 21 4 -34 60 -63 -115 -73 -85 -53 78 -39 -54 -15 -66 16 102 84 39 -40 10 121 51 -122 4 51 43 -8 46 -44 -55 78 -97 78 63 -109 -111 14 -53 -61 -92 102 84 112 91 111 114 -72 36 -25 -80 63 -98 11 87 -96 -21 -44 -106 -29 -70 -66 -19 -122 76 -113 -36 -9 -126 25 95 -89 120 -10 -17 13 -48 2 -29 89 76 95 36 33 -4 -53 -15 -14 -126 118 53 120 122 -50 26 -127 98 48 37 64 -71 102 -51 27 69 42 96 -120 40 -109 80 -8 -124 66 -79 33 27 -69 5 -76 99 -67 -39 
-85 31 -24 -102 43 69 -36 114 25 -117 74 26 -43 27 -92 11 -46 -105 -57 -87 22 -116 -95 -26 124 87 73 -123 14 -85 47 -3 14 -92 -48 -20 -32 10 6 72 -68 125 4 22 -101 -62 68 18 -14 -45 -122 -24 40 36 103 54 -60 66 -70 -44 -98 18 -113 88 101 13 -75 -48 -120 -62 -55 76 113 115 98 -50 96 40 103 30 45 123 72 -15 62 -81 32 -41 68 -8 -9 -96 -105 71 69 -127 -19 32 66 18 -65 -11 93 25 -68 -78 -45 59 -64 74 35 93 -95 -54 -91 -112 -105 95 70 -97 -31 51 -4 40 -127 -88 -1 -78 
73 -115 -25 74 27 10 -83 -19 98 -93 -91 -67 -75 119 105 -6 -75 71 -57 -113 33 -66 31 75 40 86 -104 -78 -37 120 81 -101 -73 -55 -16 -17 -99 -60 -47 13 -110 54 81 92 -103 85 16 17 8 104 -82 71 14 -127 25 -81 -119 31 -108 -50 47 -97 109 -22 -71 -127 -14 -2 31 -68 -89 -46 11 -55 -67 96 -101 -4 -89 -55 63 -28 62 25 44 -107 -92 94 97 38 -68 -113 49 -89 32 76 33 121 72 92 87 -42 39 16 15 30 -101 68 -15 -121 60 -22 14 -40 -48 -19 10 -124 -109 106 54 -101 107 108 -56 -119 -58 -6 
-27 -38 -12 -10 109 67 34 125 -106 -55 101 -101 89 -89 -11 9 58 -54 -83 4 -24 112 33 56 54 1 44 -17 36 -59 -60 -52 75 -98 76 -26 -14 111 -81 48 68 111 -72 34 -112 44 45 -105 63 36 44 -96 1 -4 -59 -3 109 50 85 -71 -105 -118 -26 -11 83 -11 -87 29 -38 -59 9 93 75 -96 62 -2 7 -124 -70 22 43 67 75 71 -27 -7 -76 -90 87 -119 35 -16 -96 -115 123 34 96 117 88 -4 -67 -85 2 -4 -53 48 -48 14 111 25 24 -37 107 114 -38 -15 61 93 -37 -75 6 -7 26 15 52 124 -41 115 
37 67 51 -66 102 110 49 71 -12 -121 -97 -44 -117 -122 62 79 -60 -7 53 67 32 12 -99 87 5 -7 -27 113 -58 -66 62 109 55 -44 -98 -23 -29 79 114 -47 17 106 73 28 -85 115 -125 -28 -13 -105 -106 -83 -14 77 83 27 104 -44 -126 2 -118 31 -40 -5 -41 71 -81 -67 6 -6 5 10 -76 27 9 18 -108 -28 96 23 79 -99 -115 30 -103 86 -77 95 -102 -48 103 64 122 -116 103 -60 -70 39 70 77 25 -84 -32 105 127 5 -76 44 -83 82 -95 -84 -3 -79 -96 -33 -123 80 82 39 42 32 -114 10 -122 -31 38 -74 
20 27 -22 -30 10 -122 -99 105 -116 -117 88 112 -105 8 118 59 -76 25 -66 94 92 126 -16 126 114 52 73 -12 -89 116 -19 -11 -116 -83 -81 -74 -50 95 77 -111 -111 -47 2 -79 -90 127 -62 -91 15 -57 -2 -96 -38 1 -102 19 -97 -64 -90 42 47 99 -3 51 108 35 -20 -50 -85 30 -67 -25 31 91 -84 -126 69 39 108 -21 -57 98 54 110 57 36 -83 22 82 61 -38 -55 37 120 9 112 50 -13 122 62 97 56 -105 56 -31 -5 -5 -35 34 24 -7 30 -103 -6 79 -86 -40 -121 -57 12 106 95 124 -49 101 54 -83 124 
-11 111 60 -116 93 -56 -76 -50 -99 -70 124 103 15 -79 100 -71 97 36 113 -82 -40 -36 -88 -110 -20 -3 -103 3 55 -15 -32 -73 86 60 53 -53 -10 19 112 -13 0 -67 102 -69 -71 2 67 -7 2 15 -106 80 -29 31 46 -60 -107 6 -19 -77 58 46 60 62 -70 -63 12 102 29 -100 -107 -24 -20 95 66 -86 113 31 86 -117 -6 -108 -26 -17 67 36 104 1 -93 107 50 54 44 113 -69 53 -117 -106 -6 25 -126 -48 114 20 44 -70 -100 68 -112 104 -12 11 6 50 55 -44 -2 -19 63 92 87 -98 15 101 -25 -106 -122 -122 
-81 -52 -104 81 60 27 -36 -51 -1 -108 -28 -109 -5 -102 -18 -79 -99 -62 -62 -4 34 104 -7 -25 80 17 -55 84 -123 -15 -95 -46 -59 119 -26 51 108 -34 -83 -43 -71 -59 119 -39 -6 78 95 -12 -77 38 -54 40 10 53 65 60 2 115 120 84 -71 -108 35 20 22 -76 63 12 -18 -29 69 39 -76 -108 122 -27 24 -76 13 -98 -41 -43 111 30 -86 -22 9 125 23 92 -22 -13 79 -44 42 -94 -90 -26 -110 -91 115 9 122 -106 30 67 81 121 102 105 95 -81 112 114 -78 78 34 -105 -102 57 -40 44 68 -43 108 -71 -78 -6 
103 -80 79 -40 72 101 -101 -53 -46 82 -111 126 7 3 48 112 -107 -16 -64 82 31 94 -119 105 -121 -3 91 88 30 34 -126 -49 -25 107 -68 -121 -76 3 14 68 -77 55 -13 17 116 68 -67 -116 37 -67 122 21 -102 87 -14 -124 17 5 -104 49 -11 40 -19 -41 -36 -48 -62 -100 71 -71 32 -114 3 31 -89 -103 107 13 68 -15 -34 -2 -3 -11 -92 37 -115 123 110 -88 53 -51 -79 -72 -94 46 38 39 -42 -63 97 12 -79 124 111 -5 21 -110 98 54 -28 -23 -109 116 18 -113 15 84 -20 -113 11 -60 -91 38 75 -25 -18 -15 
-69 9 -74 -125 -36 106 -41 106 -6 -24 8 -4 -3 124 80 -6 -24 51 -23 124 -121 -25 -13 118 -125 103 85 -109 112 17 -63 -14 1 99 43 -10 57 -119 9 102 -34 -23 -94 -21 42 -91 -94 -5 -105 -39 -63 -64 30 97 -52 -45 72 83 53 127 -1 -91 19 75 -113 -63 -73 -40 63 -50 -91 38 68 -15 -74 36 -90 57 80 -110 -91 -26 9 -1 9 14 102 6 127 50 -107 -109 -64 11 57 -48 -99 27 6 -56 -42 -58 -60 28 55 -6 100 -64 110 -60 31 8 31 -62 -16 -53 -126 11 -40 -21 109 90 6 114 -41 21 17 54 
112 85 -82 -62 -42 29 82 74 30 -57 -89 85 71 84 -107 75 108 93 -24 77 126 91 -18 -56 77 -107 -74 6 54 19 66 55 -77 113 112 70 94 -41 -7 61 60 -34 54 -82 -75 79 70 105 -24 37 93 32 -52 12 -19 -121 -103 -107 61 27 114 121 14 -52 -125 -73 -117 17 111 112 41 -7 109 118 34 106 101 98 -40 -117 105 19 110 -49 12 95 -82 -80 -120 59 -121 33 31 -42 87 -63 104 55 107 -80 -83 112 -69 -3 34 14 -76 -18 51 -73 -100 -63 109 1 58 -126 -93 111 9 -127 7 -37 -98 40 -24 1 64 79 
89 -84 75 66 78 -118 -38 -68 -19 44 23 16 -72 62 53 41 -79 94 -81 26 -37 3 43 44 -22 -60 -26 -25 -114 -6 -92 63 82 112 -29 80 45 35 91 69 92 41 -116 -59 8 34 -75 28 94 -22 -59 101 122 13 28 104 -59 -83 -36 -52 126 93 -36 91 107 -76 61 -101 -48 -125 101 -40 12 23 -101 15 55 73 60 -126 -14 64 86 102 71 -24 52 78 -108 -65 55 62 -42 61 35 109 -72 71 -12 -3 -34 -47 -120 40 -64 49 27 99 -98 -88 -91 80 -119 1 -34 -115 1 -69 60 -13 -108 -8 -18 91 40 -13 -96 -14 
-29 32 -10 121 -94 45 116 -102 19 -125 -126 -13 122 -13 108 -23 81 -23 18 89 1 -123 -126 -52 -19 5 12 49 16 -113 99 -58 -113 40 118 125 23 23 88 56 111 -14 -32 -126 6 13 -111 0 71 -15 -69 -79 51 31 -22 -89 97 -31 -108 31 -1 -22 32 -19 -39 -27 -109 -5 86 -51 -33 34 2 123 -22 -114 -66 105 57 -74 -72 -19 4 -55 21 -61 -126 123 7 91 25 96 32 -126 -43 -79 29 -125 -105 -111 -32 55 -122 -75 0 -58 117 46 107 -88 123 62 -101 49 34 -11 -97 51 -66 27 -48 20 111 -73 -119 -105 0 64 
20 105 -4 -53 119 67 57 -42 -81 100 85 50 7 93 -1 9 77 112 95 17 65 -120 -111 71 2 -89 -9 119 101 118 -127 126 -126 -104 11 103 99 70 -123 -82 25 -90 -126 -70 -14 -94 42 -115 -113 90 -119 39 82 39 -107 72 -53 22 34 89 91 -54 -13 -101 -30 -76 44 -66 -126 48 41 -63 117 91 64 -33 40 27 58 -28 31 25 89 44 -52 -75 110 -51 87 -97 -52 -55 -119 -57 93 -25 26 53 6 -104 -115 109 -61 0 94 110 114 -58 127 2 -45 77 73 87 10 -119 77 99 94 -23 66 -52 -92 79 98 16 -28 26 
57 -72 -44 -105 95 53 -81 31 20 122 111 -53 80 -115 114 -80 82 -25 91 -124 -7 -42 114 4 -64 -26 98 -39 21 71 -119 -85 50 -87 73 52 -54 126 24 112 52 20 101 111 15 -52 12 70 -71 -24 -17 64 -17 16 -26 -32 61 11 34 97 47 100 1 96 45 111 98 52 95 -39 102 -126 16 -11 -34 -17 106 -34 -88 -58 4 -127 -112 89 71 118 -126 79 -99 30 127 93 119 79 98 81 9 115 66 -57 33 -70 127 -91 0 -114 -101 -82 -31 1 120 -88 -96 -70 123 -19 -114 39 118 -20 83 -116 112 113 25 -36 -100 -49 
-124 -21 -93 -82 -127 106 74 71 124 25 86 -92 77 -22 -32 -117 109 -101 -52 22 -92 -95 -92 -81 51 43 19 58 -11 -11 -20 8 84 70 31 120 -19 -66 -116 -66 -8 5 92 18 67 34 16 3 85 -83 -93 -87 -31 -28 34 70 110 -33 -62 118 -4 -127 89 70 -50 71 -107 105 101 34 -20 -78 -107 -107 -49 -36 -66 -29 0 43 -51 -88 2 -89 -20 46 -62 -59 -74 -89 -108 -28 90 -56 21 18 70 -2 13 -49 0 -31 -125 -90 -114 -43 50 12 -14 -45 116 8 -80 -93 -117 -34 -72 35 -87 -95 19 -23 83 -101 -124 22 -103 25 
-122 31 -32 -104 4 86 -85 -19 -31 -13 30 -52 -7 -107 116 -60 0 107 122 57 56 100 -74 114 98 70 -108 6 33 97 -19 29 27 89 -20 90 -65 -46 -28 -86 -47 -90 50 -116 121 -68 -77 -48 63 124 -84 104 119 27 88 60 -22 -43 80 2 69 -31 107 -86 -76 -9 -63 43 -95 -72 -16 -86 -5 -106 -46 44 -95 48 -26 -86 -52 -44 -111 -24 -42 -67 97 120 -51 -59 -76 40 55 -9 -59 71 -10 3 -44 107 -104 -100 -28 101 76 86 -35 -70 77 88 30 50 -34 40 114 89 76 117 -118 -79 31 -13 37 96 -94 92 -106 106 
-63 125 97 -100 -41 -115 24 104 69 39 -10 111 80 -102 -80 26 4 -75 -26 -30 -114 64 14 9 -17 51 -80 -94 -72 48 -29 -73 16 77 -75 -66 -24 22 -1 -47 15 98 110 -120 120 124 -30 -112 -56 59 -29 73 17 -56 -38 53 -49 110 46 35 -45 78 4 -85 37 -85 60 83 -87 -89 103 119 7 50 109 -123 126 -83 -10 109 102 43 52 40 11 -102 -46 -96 -22 39 -41 -24 89 -120 -28 97 -108 108 -44 -59 -124 24 126 114 31 16 -24 -69 90 -6 -4 126 -99 -73 92 10 -69 -71 10 47 -28 115 57 64 -18 89 -45 1 
-113 -63 57 -38 71 92 -104 79 85 42 -2 -23 -10 20 -70 -56 -52 45 47 24 68 -40 -120 71 -114 109 3 -94 -123 39 -106 44 5 20 102 54 84 1 107 -78 -104 115 64 -91 -73 0 -67 35 -18 45 112 -86 108 0 123 117 55 88 120 79 126 38 -122 1 -72 -127 112 -110 115 23 -35 -86 25 32 30 -9 112 38 103 -78 -59 44 -29 124 -96 -6 -42 58 98 82 38 102 36 27 -45 26 8 -113 104 47 47 92 109 -123 95 -112 66 52 40 95 64 -121 4 125 -120 -118 16 -27 105 26 -8 -95 58 86 -34 27 -59 100 
-91 -16 9 10 -82 113 -43 -91 122 -47 94 -55 -17 -33 -120 -53 -54 103 -24 -5 105 -58 2 11 -5 -50 91 -38 -1 15 89 -72 30 13 112 81 -81 -119 -102 14 -116 21 16 88 -91 68 -62 40 -94 -105 88 -35 21 106 84 -30 -54 -20 -68 103 -114 15 -91 51 99 32 81 -106 47 -115 -59 59 -89 122 -83 32 9 -62 37 12 -93 107 -32 -5 -108 106 -106 -122 126 -7 -96 87 -107 -41 110 65 54 -56 -10 -45 93 -106 87 -4 -15 14 126 121 -110 -37 -18 102 -51 -17 27 -42 -51 37 -12 -1 48 51 67 -109 -80 -67 117 75 
-62 51 -101 -79 50 69 88 -119 2 22 58 32 -45 1 -94 -40 19 93 32 -18 -82 91 -122 97 -27 11 35 -120 -10 -38 -122 -99 -77 21 97 -32 -25 65 -24 1 95 -77 -55 -99 97 -67 -98 57 -54 -103 -6 24 -94 53 45 -36 34 -55 -48 -5 -98 93 -79 -17 -112 -62 61 -34 -41 69 61 -26 -24 98 -116 -49 -80 -2 5 -74 88 -18 -104 -50 53 -98 -88 -117 -77 -42 -71 82 -100 -73 21 127 -48 77 -19 -3 -86 -15 84 102 -35 -47 58 126 65 -53 10 -56 -68 46 84 -25 -42 -86 -121 -88 15 104 43 111 71 101 -126 49 
-6 -105 117 -89 -87 90 91 -112 124 14 19 -92 98 -105 6 48 45 122 -31 51 26 -62 -6 26 -36 -59 82 99 37 -33 -87 44 -124 92 -112 14 0 -119 17 -48 -125 -36 -39 -45 48 -75 -102 68 119 76 -21 -31 91 36 -86 109 85 -28 -4 61 111 38 -22 41 -31 66 -38 78 -64 34 -10 -125 95 -113 24 -61 -111 -74 28 -39 125 104 98 92 124 -74 11 95 -79 66 -125 45 -126 -11 -125 -44 -83 3 121 -77 3 -61 -4 -39 -67 -91 2 43 33 102 100 -83 -54 75 8 97 -6 13 -60 -8 26 -37 -10 109 -64 -67 -3 -17 
-49 -86 -75 -30 15 -18 116 -37 -95 -30 20 123 -124 122 -28 -21 12 82 88 -24 35 115 -116 19 -20 -31 81 -86 -95 10 18 -55 66 -125 -104 21 -67 101 -93 59 -60 -63 89 -107 -34 20 -46 -26 87 119 -70 -106 55 -95 -79 -118 -69 -83 -18 79 66 52 98 -109 23 64 -35 -104 -16 13 115 -115 111 -97 66 -104 120 33 41 127 101 -126 -75 52 -6 -58 -75 -78 16 106 -68 -34 63 51 61 34 -18 -127 -30 -70 97 42 48 -13 77 15 -89 21 95 72 -96 -42 -30 10 45 -6 -71 -23 98 53 124 35 -6 -71 10 85 34 26 
116 102 -46 14 -108 60 70 -127 -43 -36 -23 -110 -30 -109 -124 -80 38 -96 -26 77 30 114 4 50 81 92 33 -81 -9 122 34 -2 -29 61 -57 -5 -101 -95 -28 -6 -71 -2 3 117 3 -75 34 -48 -113 -43 -1 17 -108 29 -99 -78 23 92 23 -5 53 -3 -49 75 23 -119 107 86 81 7 -37 108 26 -71 -13 122 24 47 -8 -97 14 -11 -33 76 35 -66 -121 -19 90 73 108 27 -88 17 1 108 80 109 -120 -115 18 48 -88 -73 -55 121 -100 -77 30 113 109 17 16 -32 -53 -14 -103 85 -29 -37 47 69 44 54 116 83 -91 87 
74 -113 87 101 -98 -117 -120 -47 111 -122 -115 47 -114 -29 20 56 -33 59 64 93 84 49 -3 -39 -127 96 -25 66 68 -26 -120 3 119 103 -66 30 84 -19 44 71 -43 -51 -60 20 -75 92 -102 -68 79 75 -58 -42 37 -30 6 -119 -64 73 -86 30 77 76 -94 114 105 -122 4 -120 -15 -19 -115 52 -112 -10 -127 -105 31 -97 -33 39 87 -111 -76 -14 -13 -28 -125 11 -6 -30 89 24 -23 -76 -89 -78 -69 127 44 88 51 -51 -120 54 33 -74 110 30 -96 -6 -108 -55 5 1 99 124 -50 90 -14 15 -35 42 -46 -63 40 -43 -70 18 
89 -50 -40 99 68 24 59 76 -120 -10 -13 123 -118 74 24 61 93 -81 -40 -7 102 84 75 20 -6 9 30 60 13 115 -32 -24 -20 -102 114 98 50 -80 -19 18 5 75 -7 32 126 -40 118 126 34 -9 121 125 19 -65 12 -53 -76 -40 92 111 -117 121 28 -91 -83 -121 -4 83 43 84 23 -119 39 -85 -19 116 -105 -31 -10 120 57 42 45 -66 60 26 69 -74 -101 4 103 56 -54 22 -105 -58 -59 8 -47 -16 -14 77 20 86 101 124 90 77 61 -70 10 -35 70 -89 -21 70 55 71 -60 -104 125 -111 -60 -104 36 -119 -62 75 
-17 -79 72 -114 106 -59 57 1 123 38 -90 -106 54 -106 88 -104 -70 -71 38 58 31 -27 -102 -86 81 -25 18 -115 17 42 51 -66 -1 109 100 112 34 -99 122 -79 -35 -41 -26 -25 11 100 -40 -123 122 106 74 -79 -43 17 36 -27 -4 45 -102 8 14 -88 -37 -48 -51 -113 -92 115 -112 94 -31 43 -4 -23 -31 83 49 102 65 -49 78 -8 -71 37 -39 36 -122 -37 99 77 -99 3 25 -40 -44 -119 60 8 11 6 43 5 114 17 82 117 34 117 95 -97 85 10 65 -118 -119 -69 82 56 107 -90 -24 -19 -106 91 -63 -3 -86 34 
83 16 -28 -53 -107 -77 51 21 -13 -71 -93 115 105 -100 -33 11 69 75 36 112 -45 50 88 99 -43 43 97 120 43 98 70 -23 28 -85 67 69 -41 -92 51 -7 -73 17 119 68 68 94 83 -85 51 -12 107 -83 4 110 -50 -79 -68 35 2 40 -31 10 46 54 114 39 82 -32 31 95 -25 -117 67 40 41 -75 -70 64 -43 36 -44 32 7 -104 -24 -8 -35 95 110 -24 18 103 93 -27 69 91 -86 33 100 -62 90 123 39 39 -59 120 88 58 27 -86 113 77 -34 32 38 -28 91 56 58 29 -48 -9 99 98 73 6 39 92 
-77 -84 62 124 84 52 -3 -43 6 -81 83 30 51 57 -2 -37 12 -29 -119 -12 7 108 -30 123 44 4 -56 -124 43 -99 126 -116 -39 57 -59 -122 22 33 -101 28 -70 -7 50 -48 -53 111 105 1 -69 117 6 -39 -47 -87 -73 -4 96 57 12 66 -102 99 110 35 57 10 66 -96 75 103 90 109 -103 -8 15 120 46 -87 -87 -88 -112 -25 59 -65 126 -72 30 19 93 24 124 13 86 -123 21 12 -104 -72 -101 7 97 5 -27 107 61 54 38 15 77 -48 83 -105 -62 -44 -105 -54 -95 -8 -93 83 -124 -122 42 -22 -16 35 69 14 
-16 -88 86 -7 43 106 39 34 122 -10 -3 49 13 -5 -10 -83 -98 -95 -61 56 -67 -16 -41 -32 -33 87 13 118 119 22 54 8 -19 -76 -119 0 -47 -125 16 -62 40 88 71 -122 16 -119 -80 18 -127 -52 101 91 -108 -6 -105 16 92 0 -92 -107 -106 -110 54 96 16 -55 120 118 -62 -62 -94 -103 41 -42 -106 121 -73 89 -17 -110 95 25 89 -93 -119 -102 21 -57 41 -83 -94 -32 -115 111 9 -1 90 -116 95 55 58 -21 124 35 -81 106 68 67 57 -42 57 90 -25 -75 -10 -61 104 -48 -88 -58 127 50 -88 -63 57 -33 18 -29 
34 50 127 -46 -104 86 121 23 106 -127 -114 127 -59 -29 72 -29 -45 115 -32 -71 51 -75 1 75 -110 -7 88 -83 -103 86 53 14 -125 -53 120 108 15 113 72 -7 -8 -44 117 103 -6 106 -95 -27 -127 -96 -42 85 -95 114 -71 -60 -99 54 118 -4 72 -57 -28 21 77 24 41 -31 90 14 -50 99 37 -33 21 -17 -11 -105 108 -96 -37 101 -127 89 96 52 62 95 -111 64 -98 -77 -92 -48 -33 10 -109 86 29 -111 -23 -67 31 68 -124 -101 65 -59 -68 121 92 -42 -17 -9 -36 6 82 54 28 -107 45 15 82 -111 -14 -82 101 64 
-88 126 127 110 -91 -80 106 -13 -10 67 108 39 38 -124 83 -94 -58 93 -77 -42 -104 -59 105 89 84 24 -74 -81 -43 -122 -124 37 100 -118 -56 -1 -120 43 -91 111 -47 -9 -19 32 32 55 -45 -62 70 -100 -30 -2 -6 8 0 92 44 30 105 -21 -41 115 37 -110 75 -110 30 44 32 -68 -7 94 4 -50 42 -123 90 -32 -83 -69 -51 -94 47 35 -51 45 52 79 -38 -65 -59 14 -68 71 -44 -34 33 59 -9 -104 44 80 -47 21 -120 38 105 59 -16 -106 -48 19 -125 8 123 -16 82 92 -1 -109 -43 126 47 46 -32 77 109 17 
-75 -24 42 -38 31 20 22 91 77 -57 71 -64 -90 -102 55 20 -70 108 12 26 -20 49 51 60 -79 -124 -59 -104 127 -6 1 82 23 107 -44 -84 -117 -59 -6 -59 38 -53 19 -116 -62 -99 -116 49 76 105 -31 27 -12 21 -96 -41 50 33 109 32 -76 -109 -95 -66 -7 -115 -69 65 -30 -113 -88 3 -116 -23 -43 97 -57 116 -97 45 9 -69 21 84 -13 49 106 -82 25 56 8 103 -108 41 78 -78 9 68 -98 100 -18 34 82 -23 -3 -89 -116 -109 67 77 113 45 30 51 102 38 15 -75 39 -34 -42 78 115 -109 -103 24 -100 -10 
114 41 -97 -94 -101 72 -108 71 83 126 93 -4 94 -113 -41 103 3 79 -34 123 51 -97 -25 46 69 -2 -40 -54 -62 -96 -105 85 -124 116 -54 102 121 21 78 111 89 62 15 -100 -5 -8 118 -101 -74 70 37 -100 -78 25 125 73 -114 18 -125 99 -79 56 118 115 -114 59 0 -92 -121 -110 -99 92 1 -1 104 -21 64 -55 106 -87 -49 -76 61 -8 -94 116 50 7 61 -34 82 -38 59 -125 -80 -89 -84 42 -44 94 -16 89 -57 4 -25 -7 126 -64 126 123 -17 -4 -81 59 94 -119 111 -70 -47 20 -3 68 -122 111 -112 -121 24 100 
39 -72 63 -90 -5 -15 -52 69 -81 -28 62 118 31 -67 -98 74 -102 -67 -44 -56 -1 87 -45 98 -111 -22 -59 58 94 57 -20 0 50 -12 121 -91 44 -6 122 106 57 -22 59 -62 -51 10 -43 -122 3 -47 122 -56 -6 -74 78 33 -30 -105 48 64 36 -64 68 -66 87 44 102 15 6 82 26 -15 8 -114 78 105 -107 -3 -118 36 63 90 95 99 -55 -30 -124 100 -69 107 -78 20 -121 75 56 13 116 -74 -14 49 -105 -111 44 94 -62 -110 -50 64 -126 110 -124 55 -62 -1 -100 41 24 -104 -116 126 82 102 36 107 33 70 -87 -7 
89 -47 120 -124 114 -65 37 -123 -118 -119 33 116 -55 99 33 -60 -98 45 45 107 125 46 -93 27 -96 -107 -120 14 10 -91 121 87 121 -122 -12 -93 -92 56 -46 -109 -115 55 57 78 -91 29 -50 107 -88 -99 -108 -29 -87 105 0 4 -26 48 68 -29 -95 -77 -56 96 25 90 -48 -53 113 91 -20 -1 -31 15 -32 40 -56 81 27 38 127 95 -49 -100 -58 38 -52 -15 117 51 22 -95 52 115 -72 101 36 107 116 85 102 -49 -118 31 83 46 98 -1 74 53 -93 16 70 -109 110 -91 -61 82 18 -49 80 63 -101 80 -123 -86 125 -13 
107 93 97 65 81 -106 -114 -89 72 15 103 -1 -116 123 91 65 119 -109 -45 63 3 66 -92 80 -109 0 -77 51 -82 -31 -35 -71 -1 -73 -106 74 105 -74 60 82 -111 106 -20 -12 -30 -23 -51 -11 76 119 7 -118 -119 5 -84 48 -7 100 -102 89 -40 14 50 -36 112 48 -82 -17 57 75 80 -68 79 -37 86 -29 -112 -28 -71 -16 111 -54 -87 -45 -127 88 99 -73 -95 100 -88 -72 -3 119 -27 -107 -117 -99 -85 21 95 -61 58 17 -53 -75 -14 -25 -85 18 -34 -1 -107 -78 50 -75 51 44 89 -111 102 62 -28 13 -65 -82 -42 66 
43 39 -65 -1 54 -117 -22 -47 -9 111 -126 44 110 42 86 -79 -27 -73 18 127 118 -104 -70 -44 -68 -46 19 -35 -44 64 98 33 30 28 16 92 82 36 -43 -46 -41 -103 -1 108 -33 -105 -67 -51 -17 -125 -27 -57 -42 -23 70 98 77 126 -33 30 -89 100 -61 -85 -35 -85 46 106 -117 -15 -21 -66 -107 32 -64 102 116 -40 -33 119 69 71 -40 63 -112 15 -117 53 94 127 -7 -23 47 -102 -96 -88 19 -24 24 -57 68 -20 46 -61 -18 -72 -34 46 106 64 -120 -44 -115 -17 -60 -27 37 36 101 48 -127 6 3 121 77 116 -19 45 
-89 -59 18 -106 -16 -13 58 -47 111 -85 -32 -19 56 -75 17 -93 -48 102 57 -84 -22 5 -37 -64 -97 -117 -68 -112 91 104 -40 -64 58 -73 -19 64 -45 5 -52 -78 96 96 15 -12 72 122 -7 117 18 -35 -18 -117 59 72 -106 96 -117 21 -85 51 26 -46 -116 19 -99 -35 -111 -81 77 19 -29 31 -114 -33 79 53 56 12 79 71 -107 1 8 15 15 -19 -16 -97 -92 125 33 -48 106 5 -23 -50 75 -65 -51 36 91 -35 -64 7 52 -81 -109 127 103 106 80 30 76 42 101 -33 96 -101 50 -21 92 -120 51 -39 68 -19 -18 -57 
-20 72 -110 5 -20 -37 19 -120 -14 -83 -12 41 107 -85 -86 -109 120 -91 80 81 -97 83 23 46 -84 -41 -116 84 62 -85 8 64 -53 116 104 -80 67 -123 -85 99 95 103 -85 4 56 -27 -94 -126 -119 88 74 36 -77 64 53 24 -124 106 118 91 -20 -17 -55 -51 21 5 4 -124 71 19 -119 -72 -108 50 86 82 35 69 -110 -57 102 -31 123 -53 32 -82 27 -20 -120 74 -28 2 -73 -24 85 -65 52 -82 -17 -61 -77 15 -122 66 -109 20 96 -72 32 0 87 -113 -105 24 -86 -20 17 28 0 -80 74 72 58 120 36 -58 42 18 
65 121 68 -84 -105 118 -82 -31 118 -44 58 25 65 72 -90 14 19 51 63 31 64 53 -54 -26 33 -124 66 116 28 -32 33 86 105 -10 37 118 2 -53 109 -86 -56 80 120 78 -21 -52 -66 65 -79 37 60 87 -74 34 123 122 -76 -60 101 114 -63 122 101 -22 60 -74 -28 -9 -27 2 -58 10 -58 40 -72 44 -40 7 -79 -122 55 -76 52 -52 35 -77 -29 92 -66 119 -9 13 72 -1 47 35 -65 -11 59 -48 -120 -82 35 -54 24 85 1 -54 26 46 90 -73 75 14 116 -100 92 -124 61 -100 39 2 52 -105 15 -46 117 -84 
86 37 -66 -49 118 124 -87 -28 -88 126 -67 70 9 -66 -64 -78 -74 -106 117 -92 10 -1 105 -48 -97 -121 -67 30 -98 69 42 52 -109 -29 120 75 51 -55 80 40 87 -98 86 38 -28 4 65 -88 -41 15 -32 -8 -62 104 101 71 60 -95 64 -40 39 34 111 100 68 -119 -125 115 -117 96 -16 -123 -39 46 60 40 -44 -84 17 -38 91 113 -122 -46 4 -50 72 56 -126 49 75 103 17 93 73 -59 -55 5 -32 9 -92 69 33 57 99 80 -11 96 -76 -52 -36 33 119 62 -86 -5 91 -62 -56 75 117 13 10 112 -101 -67 -50 5 
28 -26 33 55 -61 24 -58 32 82 33 65 109 74 8 -19 77 -31 82 96 71 -56 -49 16 -103 -21 -46 97 -76 94 -30 36 35 6 -96 59 -21 -120 67 -29 104 -112 57 73 21 42 92 123 -50 -57 -27 112 -69 26 -19 41 37 -75 84 98 85 24 116 22 -35 -36 -117 -18 -78 50 14 62 -27 -68 126 -16 14 -108 -25 74 118 -71 -103 33 -91 80 -86 46 -70 -79 4 -60 96 -106 45 -103 109 89 -40 123 -23 104 123 -15 35 5 -15 41 71 97 -64 2 -30 122 49 16 61 87 -26 -79 85 81 -8 -17 36 -83 77 -54 65 
12 5 -77 106 11 -9 121 27 70 -50 116 118 93 -14 108 38 -57 21 84 -106 -9 19 -100 105 99 -120 -90 -18 -110 50 73 -120 -95 54 7 8 109 43 -87 -62 69 -46 -60 118 -52 4 -10 31 -109 -102 -5 14 -21 -4 -123 75 -45 94 38 -34 -104 120 54 89 -22 26 71 118 79 15 15 104 -105 -1 91 35 -62 -126 -59 112 40 1 -15 31 -56 -124 73 -27 97 89 10 -27 -122 -121 38 54 121 63 114 -2 91 -4 -32 18 -41 -106 103 90 46 -27 -98 -116 -13 -116 78 10 83 90 -72 70 -11 -47 72 28 64 36 43 -87 
-78 -32 62 76 -91 40 -105 117 83 37 -57 -36 50 -6 89 65 -39 -33 97 -88 110 78 -77 -96 111 -55 -41 47 75 38 -107 118 112 -90 -99 122 -41 -75 111 109 30 75 -61 66 -96 2 -69 -97 -119 0 -76 122 117 104 -32 117 -15 40 -113 112 -50 9 -106 -111 120 21 3 88 -20 -22 -19 110 -26 116 -77 68 -39 -123 107 -43 -122 -92 -25 -87 -40 38 99 90 19 30 -55 -56 -127 -115 6 -82 63 13 68 94 46 -57 -74 -68 -53 89 -19 44 50 -106 -16 32 37 -6 109 -52 91 -14 67 83 -122 -33 -5 89 -19 74 -127 70 
-88 -60 -72 -35 -37 -95 30 -48 3 30 -52 112 73 -92 109 83 3 23 -83 53 36 1 -124 90 90 -40 46 21 -74 -126 14 0 118 34 64 80 47 115 -114 79 -109 -50 105 52 -124 -68 -57 46 -75 -105 -64 -3 -52 -70 83 -21 -64 19 100 -33 -112 74 -119 -66 -30 -49 78 46 33 -12 -7 -31 -15 -6 33 72 20 26 -61 -104 72 83 50 77 -14 -40 95 -11 -2 96 112 108 79 1 -11 109 35 104 30 -57 93 -124 108 27 -21 21 10 -14 101 10 8 -108 -25 77 -67 -79 97 -51 -63 41 94 64 -21 119 16 -96 61 -39 
-68 122 21 -20 108 -67 9 -67 86 60 -80 -64 -21 9 29 -79 68 8 20 -103 -61 -101 -83 108 21 54 -3 -58 -77 7 118 36 36 64 85 -81 0 67 -89 2 12 -76 -6 103 -100 -69 77 -8 -106 -69 58 -118 -83 -80 -46 77 -53 89 59 91 115 69 -76 81 50 -127 107 76 113 -88 16 -29 78 -39 -111 7 -57 126 81 24 20 -31 -66 87 107 0 -6 7 -37 78 104 -120 -121 79 22 -62 -113 -4 -14 30 -119 7 22 -43 120 -28 32 11 53 66 -105 -115 -94 124 100 -12 27 -75 -33 -14 57 -8 48 69 -26 -71 -99 105 
104 -26 73 -35 -67 57 18 -65 4 32 -62 80 -27 -24 90 100 -84 -46 35 74 120 -28 -31 -88 -87 55 9 91 -90 -13 122 96 -91 -91 -31 -123 32 -27 3 -66 11 76 -83 68 19 2 -23 108 63 55 -57 71 -84 3 120 101 -11 120 -40 -73 -93 -39 -109 70 53 68 -13 -71 -62 13 -47 -52 -95 -91 89 -96 119 104 75 12 -114 -73 31 -46 -51 -61 -90 41 108 116 -91 42 106 4 98 94 26 83 -28 -37 44 -126 57 79 -118 28 -34 70 3 -2 -86 96 90 83 8 -4 -25 -111 87 9 -4 -88 75 33 -71 118 14 -75 
-13 -71 -82 -6 -91 -26 99 122 62 -19 -64 91 -65 -12 32 39 -80 113 -29 -119 48 -119 -70 -26 -44 -80 -39 21 -92 114 87 -4 -39 -123 23 -14 -86 -127 100 68 -23 62 101 -83 -106 -3 25 -59 43 46 -39 -5 57 -19 42 94 -68 -61 -41 -19 48 118 84 120 101 49 -49 16 -107 100 105 22 125 -97 112 42 -10 -16 -73 16 77 21 -53 124 -34 -121 -71 24 -1 -118 -20 72 -74 -8 35 97 -125 -9 50 83 -106 7 1 79 -80 87 66 -102 -50 55 -46 57 -45 -107 -98 122 68 22 4 -72 -38 74 -18 -3 -113 -26 106 -98 
-120 -38 65 -66 -89 85 -112 -49 116 -114 -78 -12 -38 -18 -56 -93 0 -55 80 89 9 -91 107 4 -49 -121 73 -18 37 -34 -108 -47 -23 24 21 -21 -63 -101 127 6 -127 -19 124 32 -48 -2 87 -35 62 91 -83 74 -56 -23 103 82 -95 121 -118 73 -86 16 -12 -84 -96 79 -32 43 73 -9 16 -113 -97 -123 -53 -125 -8 -74 34 111 -103 43 -52 -12 -69 -28 -90 69 -126 -35 15 -46 36 106 -51 -70 68 -116 102 106 -51 -40 -79 62 72 -108 42 -75 123 -116 22 10 65 23 105 -65 89 -13 -42 -95 -120 -16 125 19 -63 123 -75 5 
-7 56 29 108 -109 61 -11 71 126 -59 82 123 -95 -66 110 70 -1 116 -116 -5 -9 -88 34 -26 59 37 24 -58 -10 -125 -28 -18 -74 94 -80 87 44 16 -61 37 118 68 -45 -47 -49 -65 -80 -112 -11 -12 -83 92 68 95 80 -15 30 -1 -16 88 -43 73 -126 73 -14 73 113 6 -43 76 30 -70 -120 -30 -116 -106 -22 -108 -126 106 -73 15 63 -106 39 127 7 105 126 26 -94 87 -90 53 -65 103 -80 -115 27 19 41 5 -60 23 99 79 96 29 123 -64 74 6 -83 -114 -118 61 -35 -56 -52 95 -105 118 -50 -80 43 -55 61 18 
107 92 25 -94 2 54 20 -40 -65 55 30 -40 -102 -97 -107 22 39 51 -51 -45 4 117 -37 -93 116 122 43 22 -1 20 27 -118 9 -92 -29 -98 -32 92 -75 35 -72 90 -59 124 6 -81 -54 44 89 127 -45 49 -24 -109 74 -54 -3 7 91 -31 72 -54 -65 97 43 -32 -117 -124 43 -124 3 -66 88 14 27 47 -51 36 17 106 -110 101 98 -42 116 -17 -60 42 71 27 96 40 10 -12 121 -23 -26 -24 -105 -36 -100 104 107 47 78 94 118 107 95 -22 5 -52 -1 -37 -79 19 80 -78 -29 18 28 -7 115 -119 59 -46 115 -111 
-65 -68 5 -81 15 -53 109 2 62 -114 -22 55 -33 -93 -67 108 21 -97 79 -12 -9 -102 -106 39 -71 -82 -74 54 -46 108 -42 -16 -12 57 -26 91 -72 29 -103 101 85 70 15 55 -40 94 -96 18 -111 -123 33 -69 71 -124 69 0 -126 -91 -25 -39 -52 -108 70 125 95 -105 -51 -3 -70 73 21 71 -121 -86 104 28 -33 50 127 -32 19 32 -51 105 25 119 112 -19 -108 -90 -67 0 -49 -47 9 -106 -104 -21 -11 -69 -85 -92 43 -93 67 106 12 10 -91 -118 -121 52 -63 -13 -98 13 -120 -50 -62 85 -11 71 41 11 85 -23 -58 -66 
-23 125 75 -121 65 94 -51 3 43 126 -102 -20 -70 107 -19 -50 67 -119 53 -99 44 -22 63 -71 -9 89 -44 93 0 122 -16 102 127 -4 28 -10 -79 -82 9 64 -54 -75 62 58 -123 42 86 79 -118 -53 51 108 -79 -69 -82 118 64 -63 25 -98 76 -52 36 112 100 45 37 32 0 -8 29 -48 32 -60 120 -49 -109 -81 -41 27 -90 -48 98 -43 52 8 43 -24 74 -61 -80 -78 -29 4 -56 119 -124 -62 30 106 -65 -4 120 -87 -30 -13 99 79 -107 -83 62 123 -68 120 -5 -79 -88 -75 8 85 86 -86 -82 -116 -55 60 -18 78 
-118 118 48 -76 -88 56 -116 -71 39 -27 -6 49 20 -93 46 17 38 -113 -12 14 -82 85 16 110 59 -81 -73 -57 106 5 100 -115 25 100 124 -64 127 -115 7 111 21 -66 -127 127 26 38 69 -9 -85 31 -71 99 115 -126 -56 -32 -94 -89 -63 -27 4 -68 83 97 91 -1 -121 -87 -33 111 -123 -65 -91 21 -54 38 69 -64 114 -53 33 79 100 -5 84 -103 47 114 108 -88 81 122 10 -21 118 -112 18 -70 -97 6 30 126 -113 -67 80 9 -124 101 99 -16 -21 -36 -92 118 112 -84 36 -122 104 -55 -89 -15 50 65 103 81 82 -75 
77 -49 20 28 -40 119 -103 83 -26 107 -38 87 83 72 81 -105 -39 -92 32 105 -77 -125 59 87 -38 -46 -31 115 87 -19 44 -89 -61 61 -78 -88 61 98 -56 5 -50 37 -13 121 124 101 -44 127 -42 -87 47 57 -25 -118 59 -109 109 44 -95 32 52 67 -34 -40 125 -100 7 -29 -103 -30 71 -49 -58 24 -121 50 -36 74 61 -109 -55 81 84 -5 109 -85 33 -33 45 -33 69 11 50 -17 -71 87 -62 119 -126 115 -40 78 -39 8 -79 67 -50 -50 95 -89 114 24 53 -58 -106 26 33 23 26 53 -31 43 10 44 59 -16 110 -88 
87 68 -93 -4 -62 86 -62 -29 -4 64 -59 -49 37 120 124 79 -79 -75 -78 109 58 -107 78 -22 -41 -118 -111 -102 83 -13 91 0 -68 0 -119 -46 -62 72 71 20 -78 56 72 127 -16 12 58 15 -93 14 -37 53 -113 -1 -62 53 -29 -97 14 -115 113 -71 98 -100 74 -116 -45 -84 -6 124 -28 96 127 -43 126 -80 56 -13 -48 98 -13 47 46 18 70 -69 -27 -17 102 8 -83 -58 -109 -71 -37 -58 -91 -23 44 -124 41 127 -109 -20 -59 -99 -69 -31 79 -35 124 3 106 73 88 114 47 101 -6 84 -6 23 -59 78 -11 103 83 -114 
-123 -86 -68 -35 -110 91 41 122 88 -105 -12 112 -119 40 88 -98 36 68 -62 105 -109 -26 -26 123 10 -94 -19 4 -119 -93 -93 60 97 -111 49 35 -126 57 48 -120 -31 -38 -53 -124 -48 -68 -6 40 -20 -31 -50 -11 80 -95 -31 -77 59 -93 19 34 12 18 17 56 98 125 14 -43 -61 -55 -11 -117 -6 -30 105 39 100 -59 115 -14 0 -78 3 -107 109 23 52 45 82 88 25 93 -67 -48 -127 108 58 -125 37 -71 49 -31 101 -33 94 -84 50 33 -9 -119 9 -77 -85 48 -71 91 30 72 45 67 17 61 -46 -26 -32 60 30 -56 
87 33 56 -48 -69 -100 56 -122 -44 -41 30 29 59 95 8 -87 112 45 -20 -9 105 29 77 11 88 -78 74 -78 83 11 64 117 -107 117 45 77 -9 118 82 79 -91 68 -16 101 75 -114 18 -89 -115 -17 -105 -60 37 -115 -17 -61 -104 118 -71 57 -72 3 38 113 43 -90 73 60 115 -65 110 13 -2 -107 113 55 -121 50 75 -36 42 -63 8 38 -122 -62 34 9 -95 -36 -126 -112 -58 68 -54 -44 -75 45 -26 -12 -62 88 126 115 15 -41 -1 95 -108 108 -8 31 -126 -53 25 -27 -80 -15 -55 3 68 88 117 1 -81 89 53 -24 
-87 79 -113 30 -51 53 -50 -1 -57 19 96 -117 -35 91 -45 38 -43 -113 3 4 60 8 -111 -33 -107 114 105 -26 -116 106 -9 7 -89 55 78 -64 -51 9 -33 -79 82 49 38 -33 -109 -116 -67 13 92 -85 -54 -103 -72 -68 -91 22 -57 -24 -26 13 92 62 -57 -58 -69 40 104 78 67 -68 30 -110 -124 -40 88 26 16 125 -44 22 -22 -2 -43 -119 -121 -21 -67 75 115 -121 28 124 -114 -127 -10 97 99 -21 111 -31 -42 64 -38 -79 -67 72 -126 -28 -26 -15 124 43 -75 -5 -89 8 38 70 -50 -65 -54 46 29 -80 43 -93 18 -126 
-22 114 -113 -91 -25 47 -108 -15 -115 -29 16 13 67 24 35 -110 -87 25 -109 -75 116 127 -21 -113 -46 126 -30 -77 12 -40 -66 -38 125 -11 -38 -81 -85 -20 54 -48 -13 -106 -123 -34 -71 65 13 76 5 107 -49 -64 21 -111 4 -15 35 57 77 -95 82 -12 74 57 110 -92 115 -30 -82 -102 -45 -4 45 58 -62 90 107 32 -114 -79 -88 -51 41 -24 112 18 68 111 59 106 126 -19 88 -11 19 -17 47 39 35 -32 3 46 95 64 34 -8 -123 -49 92 0 124 7 -28 -88 43 56 91 -74 -88 56 114 -113 17 -49 -93 -124 -63 115 
112 106 121 -105 -121 108 -69 3 15 121 103 46 63 -25 -112 -127 -102 61 28 -60 -26 -83 -110 -29 -7 -75 -122 -47 117 -98 76 -79 -87 127 66 17 47 37 108 12 50 -116 41 -111 -68 -16 -42 66 42 58 -25 9 -15 122 44 102 34 -108 100 86 73 79 88 79 10 121 -85 68 -89 -76 6 34 49 -30 62 60 57 67 70 32 -97 25 58 -1 -62 -46 -20 -97 -83 59 -30 -71 -58 92 21 60 -6 -30 81 -102 117 -27 -91 -19 102 -73 109 97 -11 74 -60 41 51 -83 -114 -103 70 -37 -52 -104 40 -33 -116 19 49 -43 -84 46 
-49 89 41 -127 -83 61 51 -68 -83 -112 -106 -57 105 93 -60 104 49 123 77 -11 3 -58 114 -67 -15 -40 -28 63 31 124 -58 39 -93 -113 -108 -102 -41 107 -8 106 -92 -29 -114 109 56 -98 107 -41 -23 -81 45 -100 63 -108 -43 111 -36 120 -60 117 62 78 -1 -40 113 -69 -79 -27 -105 -21 -88 84 64 44 -40 109 6 -74 -24 50 -37 -121 11 72 42 -35 -41 18 111 82 -108 -42 -109 0 -97 -28 80 -53 87 -73 31 22 97 110 28 14 69 -110 -78 104 112 105 44 94 111 39 -97 1 -95 -12 24 -46 115 109 5 -51 -92 -103 
-79 -60 29 -1 -91 -60 -114 -126 26 -91 -107 -20 49 -60 -103 -8 117 -37 -98 57 28 -38 34 123 105 -43 12 113 53 83 44 51 83 87 -94 -118 -100 75 -12 -77 85 -57 25 65 71 -24 -55 54 -121 103 -26 -59 -92 11 79 -46 -100 -46 -89 96 2 117 48 -69 59 120 97 -21 -80 -127 64 -73 49 -56 -85 66 -46 -112 62 12 55 -66 -26 -115 -71 -84 109 -123 -66 17 10 61 -69 -87 111 -91 28 -61 34 -44 79 -66 -122 -42 -73 -50 121 102 -120 -11 -52 -121 -40 -30 13 30 -117 31 31 59 -110 119 -41 -58 -49 31 115 78 
109 -11 -20 -6 45 39 113 104 89 22 -76 -59 -66 69 113 -59 123 127 52 34 11 91 22 97 -127 88 -11 28 57 4 -31 -8 -84 49 -23 27 86 -86 66 33 29 36 -108 32 100 -24 39 -102 -123 119 -111 -14 -1 -42 45 14 -94 -60 55 -57 -58 14 117 126 111 -53 54 -82 80 86 42 116 -34 -122 0 53 -123 -60 7 32 1 117 -21 87 -45 -39 115 67 20 -1 -26 88 -101 -12 -60 -126 -25 -3 -33 60 -51 -63 98 -108 110 -75 -44 104 -81 -59 81 118 5 -121 122 63 -100 105 107 -86 22 27 -57 -89 -107 -21 109 19 
-26 -82 -107 -37 -24 81 -127 25 76 1 43 -51 23 8 23 105 -124 -36 114 114 103 63 78 1 -46 2 126 121 -92 21 -116 79 83 28 -60 -116 84 20 6 -100 3 19 51 -6 101 90 20 113 -61 -53 -23 -125 -6 3 -56 -78 58 -97 -93 25 21 89 -11 -10 66 97 116 33 -76 -95 115 -4 -50 64 -118 -65 0 -26 -39 -34 18 -43 28 -13 -108 78 -117 114 76 76 4 51 -36 -7 -50 47 -48 -20 73 57 54 29 62 -55 70 29 -65 -77 -110 4 98 70 -123 -50 -60 -14 -47 -77 26 -38 -125 -31 -69 -76 -113 114 -68 94 
18 -29 -90 65 84 -105 -27 35 -51 -52 -107 1 -48 -69 13 72 118 -101 -80 127 -53 -42 -44 -50 -26 44 -58 27 -3 106 -36 -108 122 -58 -67 -125 107 102 -33 -54 113 21 -86 93 62 -7 -103 -123 33 123 -65 -71 94 -28 -7 96 10 -60 35 42 -16 26 30 80 -12 -102 72 1 -124 55 84 115 62 -42 30 -116 -52 29 127 80 75 -91 74 -47 61 -41 86 8 -124 74 37 -76 -86 -97 -4 0 15 54 -30 116 49 -12 -31 -86 111 33 85 -93 117 9 26 35 33 17 25 47 99 -106 -57 -127 -6 -90 -39 57 -127 -37 44 52 
115 -75 12 104 -16 -27 82 96 40 52 59 73 103 -87 -100 -66 106 42 -5 -28 -48 41 124 14 -121 35 -126 97 -126 28 116 47 73 -110 -27 -56 7 30 -51 -108 -7 124 -64 -86 113 48 103 90 -68 114 85 66 -26 -61 -111 58 -87 -72 -95 44 -107 -28 -48 85 -127 -55 -35 -100 17 113 -79 -87 117 114 -38 98 76 -15 72 -77 116 -33 53 53 64 -30 103 -98 2 -110 47 -38 -102 122 86 41 109 86 -76 -73 -68 120 -56 45 99 52 -123 122 -44 -90 83 68 58 -66 -39 3 -26 115 -74 -81 97 -86 23 74 45 -108 95 0 
-56 -119 108 33 113 -101 -101 -100 26 28 72 -81 -49 4 82 -61 -36 -8 -64 -17 -48 17 -56 85 -114 -78 -70 -21 -68 67 124 -85 -120 110 125 -113 40 -125 -20 17 -38 -92 15 -39 -92 -120 -111 -33 -15 115 -52 33 21 17 7 -19 -53 40 37 60 -79 31 -66 -50 84 123 71 -13 3 9 -86 -81 77 -42 73 43 70 -119 -23 19 -19 38 -53 34 -118 18 -40 75 87 101 27 45 -63 -114 -114 -71 83 86 -60 -85 83 59 -71 103 110 -123 -72 10 -71 3 -90 -32 7 -65 -35 54 -90 7 26 107 -67 19 108 25 102 -67 63 -84 
-59 -53 -33 -61 117 69 78 44 -42 63 -40 111 116 -60 -108 105 38 -58 109 -116 -22 63 32 -87 15 -125 105 -48 30 26 -15 33 74 -111 -62 35 -84 -89 4 -100 48 98 29 -106 -59 3 -67 -51 50 57 -116 105 -32 -46 33 -38 -56 62 -87 -70 -14 95 -73 -4 -21 2 -120 -110 -112 28 -14 56 114 -46 2 82 9 -30 -74 110 -50 -48 23 -126 86 -84 -68 5 -16 3 109 -19 -46 16 -16 67 -121 55 -47 57 -40 50 -58 -109 -114 -116 -36 28 2 93 127 115 -52 -63 74 81 121 -73 -55 81 21 101 -19 -18 93 -78 -10 75 
31 -23 117 101 54 -107 -123 101 72 23 65 -72 95 89 39 -59 75 14 99 -44 -90 -4 -20 -67 10 -59 -60 -44 26 56 -75 122 100 125 123 -27 100 89 -52 58 122 -63 13 73 58 -70 -24 100 127 61 93 -112 30 -74 11 -54 127 -68 17 -30 49 11 -12 51 -65 26 20 -2 11 -48 27 -86 101 126 3 30 25 116 -1 -93 87 -8 33 -56 113 29 92 -98 73 -1 -1 -78 89 1 24 -56 22 -69 -55 -1 -111 -13 115 96 -28 -68 56 20 16 114 -73 -113 75 -31 -106 -99 -94 116 19 -89 83 127 -7 -87 -16 -90 102 -93 
-79 -112 28 -61 1 -95 72 82 -45 -51 -66 104 25 16 -78 -48 -22 -45 38 65 79 59 -84 96 -109 -7 125 -20 12 31 80 -126 121 -88 124 53 84 119 -51 -78 94 -15 -14 70 21 46 -71 -2 28 43 19 120 47 84 -4 16 -5 15 -104 94 -68 22 63 107 -62 -90 92 -99 -5 107 -114 -116 116 125 -116 -127 -13 37 -119 -102 -93 109 -114 38 64 -13 -41 -124 72 -95 6 69 120 96 -73 -54 -123 -2 127 -120 54 117 -27 68 68 37 45 -61 49 -83 -10 -25 -74 2 83 -67 -108 114 110 1 40 -62 -113 12 72 93 36 41 
80 -4 7 -21 34 20 67 22 -77 -111 -76 -107 -87 -37 7 34 4 -19 7 127 125 9 36 14 77 98 -42 -124 30 -72 -94 126 29 34 68 93 -64 -95 -61 -78 -117 69 -6 -103 54 -104 72 63 -116 -110 -46 -69 91 5 -18 -32 42 118 40 61 -55 32 6 126 83 44 -48 -26 62 -12 -27 -37 -82 101 -27 -95 87 103 -19 -95 -109 -106 -33 -90 -12 -100 -5 110 -76 -122 127 -88 -38 109 110 -100 71 45 69 103 47 -46 -34 30 -13 -113 34 10 52 26 -15 -48 100 -91 -86 14 -93 39 71 118 -73 -37 -89 -85 -44 73 64 -26 
-92 88 21 -116 -23 -46 -84 29 52 -26 76 90 -122 -37 -94 38 100 -101 -60 15 31 56 18 -17 -97 93 -62 -12 -66 -69 47 47 17 -57 -123 -40 16 -67 -11 99 -25 123 -10 -68 108 -75 -44 83 77 -13 38 2 -102 99 125 113 -50 -119 77 -2 47 20 -114 -58 -118 -73 52 55 9 -3 -7 -89 84 -23 -98 116 114 -54 18 37 -54 -18 -3 -50 -14 29 108 22 -73 -61 -81 -32 -47 -57 36 -4 -80 -60 117 20 -55 -21 79 5 80 16 -37 -61 -36 -10 -57 115 75 81 33 -92 66 10 15 114 82 32 61 92 28 -51 17 -61 
