-6 68 20 -56 7 -40 51 -71 127 -41 119 36 28 -6 -117 -57 -39 -83 -126 59 -16 122 -62 -60 -70 104 30 70 -1 -55 -115 -1 -116 53 96 106 27 64 116 124 -68 116 114 -95 127 0 69 76 -12 76 -91 67 96 -10 -95 108 -110 25 112 -54 -34 -36 -8 106 -127 59 -89 28 10 45 21 5 38 1 -35 71 34 10 -22 37 -2 28 111 -32 71 -93 52 -97 -82 109 71 124 -75 -60 51 43 -115 8 -84 48 121 -15 84 -88 34 24 -3 120 4 22 -58 106 -5 -90 91 -39 -119 43 -109 -8 30 -29 6 -22 110 87 88 33 56 -88 56 126 -64 -61 55 -107 -69 114 19 77 -121 -4 -75 84 82 -59 62 38 -10 -31 109 97 -73 -27 109 -45 -4 -26 -92 18 120 115 35 -60 17 101 -117 -66 2 55 62 111 91 -88 62 -19 -104 -90 17 -70 -8 -56 -92 -119 118 -2 7 -5 -48 71 -9 81 -30 57 98 -56 -87 -78 -11 -62 61 -28 18 0 -54 56 57 28 -125 -121 113 55 101 98 43 123 25 -102 -20 -31 43 -79 10 113 -12 -85 -87 120 -8 -102 11 -82 -86 64 63 75 71 -26 122 102 110 79 80 -109 7 120 -64 -56 34 -98 124 -43 40 -127 -2 83 -70 -74 -6 26 -117 -127 73 -50 51 -7 -53 67 -115 121 -36 -66 108 -29 -40 58 96 -118 20 -42 -60 -19 -77 24 -39 45 -45 -7 -85 5 -29 -69 126 -3 -23 -126 -30 -122 -74 -80 -42 -76 -36 18 51 -78 27 48 -80 107 -32 -127 -93 -7 80 -105 -54 89 122 77 -63 -31 4 -33 -6 -79 -77 77 48 115 -25 45 89 -31 65 60 88 65 11 31 -121 46 120 98 118 -3 68 118 107 79 30 114 122 35 100 60 78 -69 -38 58 -70 103 38 89 -35 115 -55 95 -30 -106 -5 118 54 127 -115 73 85 -11 28 106 -94 82 93 -8 24 -108 -14 4 -40 -51 -1 -118 28 -91 -16 -39 -47 -105 76 -73 -34 50 -89 -114 -127 -32 -21 33 110 -76 96 1 -115 79 12 124 -84 55 -25 78 81 -71 75 -120 -38 6 -121 71 -93 -10 -57 91 120 27 -56 99 110 -98 -105 51 -46 -47 70 -66 118 -48 -37 122 -46 85 124 14 70 -127 104 96 1 51 91 -33 -13 45 103 42 -34 55 64 -12 -108 -123 -59 -112 23 -61 125 68 41 -106 -39 32 28 59 -65 -58 18 11 13 54 -42 -24 33 117 -120 95 -97 33 -25 43 -90 19 72 97 115 -93 86 -117 92 6 121 123 57 -42 
113 8 10 117 96 68 39 -53 -20 19 -32 -68 6 -8 -1 26 -97 -79 -14 -105 -6 -45 67 101 -57 -31 61 35 -62 125 14 -50 -43 -82 83 77 44 125 -123 84 -116 -74 11 -14 124 -20 2 83 -23 2 -15 -71 49 -16 -15 -69 -9 -45 -85 17 -115 -119 -1 123 -44 -32 -25 98 17 -60 -46 -19 34 60 -78 108 95 -19 106 -86 -106 -111 72 104 -95 51 90 47 -51 34 -7 75 79 2 52 15 109 -88 61 81 -97 42 88 -62 86 117 50 2 -113 -7 66 126 9 71 115 55 -19 -33 -16 -19 53 -80 -51 -96 88 -86 50 17 -11 -83 68 -98 72 -35 38 39 0 -57 -33 -41 94 -51 11 101 122 -19 96 -7 107 -28 114 -84 -93 80 103 -79 8 22 21 -92 55 -121 -62 41 44 109 -35 95 3 -48 -40 -53 -4 98 -105 -52 8 -43 -53 -71 -54 -86 -107 87 102 -74 86 49 23 23 -74 93 -82 -14 18 13 94 -3 63 95 -92 -78 123 -50 -103 -80 -75 62 -82 28 -62 -92 -94 31 -82 13 43 82 -106 43 -23 56 67 95 117 78 -42 -95 -77 90 36 4 37 59 -83 -50 19 -57 -49 13 49 -31 26 -30 -31 -101 -126 127 75 -105 8 -111 -102 -106 76 58 -101 -114 84 23 33 95 -32 -96 -28 30 89 -82 62 1 -46 33 61 70 -71 -61 69 24 -58 39 -33 -107 26 -95 -113 -63 -4 48 66 54 60 -124 -36 125 -106 20 -41 -85 -69 -20 27 92 45 77 -23 -127 -75 -123 -55 -104 -29 -66 37 -90 -12 -52 116 101 63 13 109 99 -110 43 -104 53 48 -48 -32 106 -82 18 -8 -77 -5 52 93 -49 103 -117 -59 7 104 -33 -88 36 2 -74 51 -102 -16 -94 114 40 -114 7 77 38 48 -125 -60 71 -123 -81 22 -30 93 21 98 -90 35 63 -111 -27 1 -91 -58 92 50 38 90 124 -109 13 -91 -126 -31 125 17 28 -9 -5 59 -73 -51 -11 120 -27 -27 37 80 24 -23 75 19 -120 29 41 39 -21 -107 -23 1 51 24 -115 40 -87 -123 43 -93 -94 5 -48 -75 34 -100 21 -112 20 126 -26 -56 21 -6 -99 61 -33 -81 -11 23 114 -58 94 98 74 -37 -4 59 -120 -85 33 45 34 -77 127 106 -29 -90 120 66 -81 101 -67 19 32 -58 -76 -85 -72 10 93 -11 -126 -88 -29 -77 103 56 -26 100 81 56 -97 58 -68 -87 -22 -74 -72 23 -30 77 106 -49 26 54 -9 -33 -102 51 -76 -116 100 91 110 -106 -5 126 -112 -11 78 
-28 121 -68 -59 -60 22 -49 -31 121 -63 76 54 109 108 -40 68 101 -101 -80 -99 -55 -2 -72 -36 16 -17 64 -24 12 83 -109 -100 -32 -2 49 39 -54 -96 126 85 -8 67 -124 63 67 -71 20 111 -60 66 -69 114 76 -6 -63 -24 82 109 0 -90 18 110 -86 -81 -84 -42 45 36 -31 -28 63 63 79 -50 121 -3 -49 -73 117 -13 -116 -49 76 -101 53 122 77 -127 -92 16 -62 -57 -29 -91 -71 86 64 -103 -104 -117 -96 -44 -1 106 -95 77 4 -50 -54 -103 72 94 -122 -96 -27 -47 84 -29 83 68 75 5 8 55 -63 41 -55 -6 67 105 77 -32 33 19 43 -16 -16 14 -75 -122 77 -2 -30 -97 117 -104 -62 -109 45 -16 -102 112 126 75 35 50 -126 -113 102 31 61 -124 15 62 -109 123 -17 -98 -95 -108 2 99 7 -42 -6 103 83 -37 -91 -86 95 63 -60 101 -4 -116 94 -67 3 -46 -55 -98 8 -20 -119 102 62 114 38 -95 -55 14 -127 -27 -120 85 -80 -86 4 62 34 -15 -33 -59 -15 26 -98 -48 -108 121 -14 -117 -92 -114 102 94 -82 -38 -25 -90 61 5 42 62 -13 -87 -98 -6 5 -95 15 120 -123 12 32 -3 80 28 -1 -85 -37 -96 25 97 85 50 62 -8 49 -16 -48 24 68 76 123 -109 10 86 -43 -59 -102 -75 -88 -38 -45 -82 -103 -71 40 49 77 60 -21 -77 54 0 114 -93 20 67 97 -64 94 -89 25 -81 8 -28 54 96 -8 -62 -71 46 -121 27 120 18 -90 -68 67 -40 -78 -73 -22 -48 53 -106 105 -24 2 2 6 60 44 -47 -21 17 -86 57 -29 -62 -111 -99 -23 33 57 16 3 -9 -44 -60 -58 -65 -79 26 -103 -38 78 28 5 113 -1 71 14 80 -76 76 -109 -82 -65 -71 54 118 75 -50 26 88 -114 21 73 -93 38 104 123 -91 91 -31 -124 90 65 40 21 108 -55 122 102 -19 -12 -52 58 -67 23 -96 -69 -1 -47 118 -13 -84 124 -96 -13 -84 68 111 -116 -84 -47 95 18 -98 84 -67 110 -109 46 -75 -49 -23 -42 93 66 -78 64 -123 -110 -95 108 68 -45 -29 127 42 -27 -112 21 68 -62 104 -21 -101 -28 103 -29 -125 25 56 92 -126 96 62 -21 -24 -109 61 -122 107 -50 106 74 76 89 18 114 -93 -73 -15 22 108 -55 -102 -39 117 -3 120 75 -34 -48 55 -106 -6 -87 -33 3 0 -15 -101 23 -62 -39 -117 41 61 -63 -36 33 -78 -82 -60 44 -28 127 -94 -45 -93 86 -22 108 68 -91 -110 
3 -22 68 73 -50 51 36 52 -91 -4 -117 -3 -127 116 91 -11 -35 -62 102 94 -28 58 -2 41 124 -46 -85 112 58 75 -76 11 11 -41 -41 77 -28 -2 -58 85 76 5 41 10 106 -49 123 -77 103 -90 118 23 83 101 1 -12 -33 -53 21 74 98 73 -6 -68 66 -36 65 -30 -119 -118 65 56 -97 -26 -5 31 89 -74 -101 69 -30 64 -117 -113 123 -103 -60 4 -46 -38 109 86 -116 121 -120 6 -30 -73 84 110 72 104 -87 22 -12 -83 -110 62 -29 36 22 47 -89 120 7 -62 76 -41 -111 -12 -20 -127 -82 -16 -98 25 -72 -122 18 -10 -113 69 -127 105 -81 -34 -122 120 -125 -68 89 55 126 24 -93 -56 108 56 -47 88 -10 -68 117 112 -67 -7 -89 -91 -30 29 118 -74 -99 86 -98 -44 58 -119 -20 28 3 27 67 111 -78 -60 -9 96 101 62 105 126 -126 88 -44 -18 34 -58 -32 -61 103 47 72 52 -82 -62 -75 -28 84 -95 9 -59 -99 106 61 17 44 -84 76 -96 -7 9 9 104 41 -12 88 -103 -95 -87 -86 113 -27 95 49 -41 116 -5 127 56 -21 -41 -84 87 -6 -86 91 126 105 -40 -125 68 -36 -19 -121 -59 -111 16 91 -49 98 26 11 -49 73 61 -88 108 -83 -118 50 10 -22 65 69 -57 -33 10 97 21 -16 -103 -85 -105 -66 95 -43 86 70 87 -108 -127 28 -123 4 -106 88 -106 1 -22 -50 61 43 117 -107 61 -10 114 112 -69 -10 -5 115 -76 24 -47 -50 16 120 -77 36 -5 120 -30 118 -108 64 13 -58 -116 55 96 -116 -43 -7 -4 -50 -67 -1 -23 103 39 114 8 124 3 10 117 -5 -106 -119 7 -16 -80 52 16 -105 113 117 10 32 -33 -122 1 50 5 -52 -45 42 15 111 -1 66 -30 44 -13 87 115 32 -80 86 -79 -60 -11 14 113 -80 -103 -112 59 25 71 20 -35 8 -99 84 -117 -69 113 -46 -73 -67 72 20 84 -115 119 -74 3 92 82 117 -99 36 -23 82 -48 54 -115 -44 76 48 58 91 14 -90 -64 113 -2 -86 30 31 115 39 -116 -80 -87 58 -31 -28 24 55 38 -58 -88 -67 -3 -16 -73 -25 113 -83 121 79 -55 35 101 -28 -50 117 -19 112 -110 97 -118 -77 -49 69 -15 -17 -26 2 70 103 10 7 61 125 -40 -51 -22 -36 -57 107 -93 83 -38 44 120 -110 83 89 52 15 -32 27 -3 90 33 -108 17 49 10 110 125 110 82 60 -122 -51 73 -113 98 -98 39 -17 -95 25 -79 -98 -37 
-26 -59 -66 37 -115 -125 -12 60 56 41 28 -46 -34 -35 -35 -78 -48 -40 -119 -124 85 47 93 58 14 -79 -95 15 -11 12 47 -58 81 -120 8 94 -82 -24 127 -27 89 44 53 93 -43 -85 15 71 59 110 -117 75 13 32 102 25 -38 -16 50 -72 -26 94 -11 81 -117 -90 -55 21 -122 -30 -115 -121 33 115 -51 19 -32 117 -38 68 -70 121 -52 93 -4 -63 49 -43 -77 104 -7 106 62 -24 126 -59 45 118 18 -10 -49 -35 -93 -37 53 84 -59 51 17 106 46 -66 110 -56 -67 -86 54 -46 -29 64 -65 12 69 -94 -84 -55 -45 -28 -126 -84 -85 3 35 -124 -11 -14 20 106 -48 -14 -93 -55 -67 -47 19 61 -18 -27 40 -42 -20 99 100 115 -57 116 26 60 45 -25 -108 -82 -88 -123 -120 -47 -39 14 8 -95 124 54 -90 -15 56 72 7 46 -121 -119 26 120 -20 45 4 -52 -112 -92 -57 62 -62 -52 -58 -9 106 103 -12 88 -90 115 -67 15 80 -121 -96 -2 69 -85 -94 -86 19 -105 115 -37 59 -62 -18 -19 87 42 73 -13 24 -49 9 77 90 -73 -85 -110 68 -97 75 67 127 -3 100 115 -111 -85 77 -36 23 5 -98 -109 -44 -77 82 -35 -8 4 -125 -8 117 -119 -91 76 -11 -48 -41 81 112 -116 -121 70 -113 45 -66 -53 -2 -108 -84 93 -7 -106 15 17 -103 -118 109 -105 -109 121 -17 -79 47 21 50 -27 -43 -65 103 125 -78 90 109 86 50 46 -104 -77 5 97 -95 -114 39 -55 10 44 53 -69 -12 -83 -44 90 114 42 89 -121 89 37 -55 80 -85 -110 -55 29 -36 20 89 39 -115 -83 -122 16 127 93 -9 42 -62 87 127 -85 127 16 -90 -78 -64 69 104 122 -36 -125 18 57 44 107 84 20 -86 83 -40 22 -126 60 -17 65 121 23 98 -16 23 117 82 -49 -94 14 -22 43 89 71 122 27 118 30 13 -70 -46 -51 31 -9 30 -90 -114 -101 -20 30 -50 -104 -45 -37 -67 -16 -29 55 112 50 -62 -47 51 52 45 -5 -120 -21 8 -47 -36 16 95 105 95 25 57 -15 -69 67 -90 -64 108 -19 -34 120 -42 -87 125 -106 -33 107 58 -10 -27 -44 -31 -13 -56 75 -36 5 -83 7 -100 53 -54 -37 20 -78 -89 80 98 -35 117 -70 8 42 -41 -116 -110 -106 86 -93 -92 -31 44 -62 33 52 11 113 -29 98 -111 -62 -115 -38 -67 -34 77 30 20 -25 -120 59 126 21 92 51 76 2 106 22 -20 5 -25 -75 39 -9 127 15 -90 45 
-69 33 57 -52 -97 -99 5 7 -62 -14 -92 88 -33 85 80 -28 -49 96 -11 65 100 -85 -113 -31 -96 81 -104 -114 -106 29 109 -77 -116 -114 -16 -52 22 10 103 -119 -14 -124 -55 108 -118 -86 -103 39 -119 100 -111 -122 -41 -30 78 -105 2 77 -35 77 -87 48 -56 9 64 -124 -26 -91 16 -94 56 16 -119 96 41 79 -65 -76 -1 -27 -36 -34 -1 64 -81 -124 105 69 -115 60 2 30 6 -56 -47 54 -125 -11 106 69 -32 -119 -113 76 -118 8 -82 -44 43 -101 -5 -36 -79 -92 -74 -84 -110 -9 79 -113 -113 -34 -78 -44 47 -115 -54 -15 74 -36 -96 5 -21 -97 60 57 65 121 112 55 3 48 126 -86 13 -112 112 -101 -21 2 -10 86 9 45 -30 75 -17 19 -103 16 89 -119 -37 37 4 93 -96 -108 115 -122 -81 108 65 -83 113 -23 111 47 62 103 62 -124 8 -80 -77 113 -112 -69 -28 89 -72 95 -43 -28 91 86 28 88 -6 -15 -20 82 -109 -36 126 4 -87 92 109 -48 -113 91 61 40 81 48 -2 -42 79 86 -104 120 74 5 64 102 113 41 66 69 125 95 -26 -127 -23 10 -115 96 97 -118 89 -81 -7 17 -52 -43 -82 114 -18 97 43 105 76 93 -89 115 39 37 -27 7 13 15 -71 -70 119 -30 -121 17 97 68 -29 2 -42 90 -53 -68 -81 -50 -72 -58 -59 -39 106 46 90 -84 -31 37 110 -89 104 -44 26 -4 -82 52 -121 68 -116 -122 -73 114 -118 9 112 -15 -27 92 -34 -34 124 -73 32 95 -49 115 124 67 -73 69 -111 78 -9 38 -28 -98 -25 -59 87 78 -43 37 -51 -102 58 74 -95 -102 -68 -63 -75 -44 -120 84 127 31 -51 -98 -37 59 92 69 66 -108 -113 -51 12 111 -82 -3 51 58 16 7 38 94 -21 77 19 5 18 115 -76 -107 57 -67 71 21 -70 43 104 23 127 -57 42 -6 -104 -81 -103 -102 52 119 -113 -97 -20 -18 56 -2 64 -71 97 127 -45 -72 -73 27 -118 62 125 108 117 82 -82 -126 -89 106 -112 -42 -82 -35 -101 -18 77 110 -21 -50 -26 28 -21 67 94 -98 -39 -86 7 -13 -89 104 23 67 -90 -23 -32 -90 111 -52 -110 26 -3 24 -50 -39 81 -118 124 -88 78 28 -26 50 -100 -48 61 -92 21 -26 -29 -98 6 60 103 14 84 -69 97 0 95 1 95 43 -93 98 34 -25 36 16 105 60 -96 -66 -53 -71 105 -95 25 107 -100 -4 -51 -60 -23 -125 96 107 125 -123 -47 51 -69 -36 101 -4 
-95 -13 -7 51 96 -2 -38 -56 100 -32 20 41 -77 112 15 -86 124 108 15 35 -95 22 -53 -113 -53 90 102 98 41 -49 93 -74 -43 -118 -38 98 -22 -43 -73 -27 -61 102 -67 -22 -88 107 -33 -73 -98 99 2 47 -67 48 -93 116 -25 10 58 69 106 33 -110 -38 -34 121 11 -109 72 -69 112 -71 16 -25 66 106 -92 81 -45 24 51 20 -78 38 -5 -58 -126 117 42 -17 89 -103 2 -54 40 -100 104 65 -15 59 109 -122 -89 102 -47 -86 96 52 82 41 79 -106 96 -29 11 -1 -36 2 15 -62 98 119 74 -110 -44 122 -33 56 81 -39 94 58 74 79 24 -27 -73 -55 33 56 117 -40 2 -60 -38 -7 122 -101 74 65 77 32 41 123 -53 67 -26 -41 22 104 122 95 -101 52 124 47 5 -116 -121 29 -57 -27 -117 -100 -94 -66 -70 33 13 -90 55 74 -93 -55 -59 71 -22 83 3 15 126 -59 -76 -43 127 48 -91 61 67 -118 -75 -118 -117 -93 -21 86 -113 -97 -116 -115 125 6 -76 85 5 -45 20 77 -100 11 85 -126 104 65 -49 1 -95 44 -21 100 -120 92 54 -25 -115 -91 -87 51 -52 57 -75 25 -36 -80 -48 -123 -31 76 122 38 110 77 -20 -87 67 125 20 22 -71 10 3 95 63 1 -101 -93 17 117 -105 -25 -65 69 -102 43 -66 -3 101 26 -55 -71 -58 121 -103 -3 -123 125 -8 97 -107 -59 71 -41 55 117 36 66 -77 -16 2 -38 15 113 60 71 29 105 127 91 119 88 -96 53 70 74 99 57 -127 -100 -33 -68 -10 23 -84 109 11 20 -121 -126 110 -27 20 102 41 123 -34 95 106 43 -74 -62 -10 117 49 -108 5 -45 29 86 -67 33 -90 94 25 41 -123 -122 72 113 -46 -18 -115 25 -21 -61 -42 93 43 -95 100 -21 9 7 -2 81 54 -63 78 20 13 -96 -78 -52 45 -20 84 -5 -38 44 79 -42 -122 88 115 91 -94 -102 -48 52 115 50 -26 65 -124 -108 113 -80 -65 -92 -10 36 64 -42 29 -22 -29 -47 77 37 -100 -22 127 -17 -62 43 109 -103 -20 27 -91 -53 101 123 52 98 -18 99 -123 71 94 -108 78 -103 13 -50 103 57 -20 67 -116 115 -46 50 101 125 -51 -13 45 66 -1 -34 88 59 -87 88 21 -67 2 33 81 20 102 106 -42 -19 -56 66 20 -40 -82 -93 6 -75 14 124 23 49 -105 120 -120 -19 -43 121 -115 -23 -85 22 -110 75 27 36 62 32 -103 84 2 -8 120 76 -28 35 5 -96 
41 21 39 60 -9 -65 -59 -24 -100 -113 -85 45 82 -10 -85 105 1 69 81 -90 -126 -1 -127 -69 -108 -112 -87 73 -27 127 69 102 -104 -127 -63 -95 23 75 -94 39 -102 85 41 91 -6 -108 -92 56 -105 125 -53 76 -71 84 -3 3 -86 -26 -98 19 120 -47 -24 109 -16 126 -115 46 11 -83 -24 -30 -64 -45 90 -3 -120 -122 -86 106 -73 -34 -17 -57 62 123 22 46 17 -59 -71 -115 -11 -124 42 -114 37 -93 62 -127 -109 -102 -89 79 -117 -92 -110 -115 5 -68 84 -40 -34 -124 95 26 20 117 40 25 -90 -67 -123 20 11 -82 11 24 -114 18 -103 -61 -112 -90 99 -82 -65 -122 71 -92 76 -54 -18 -126 -15 83 -12 -8 15 33 66 -117 103 -55 123 -51 -94 100 -103 -86 -66 117 50 102 -62 124 -114 -87 -74 -38 -89 75 51 -62 126 -50 -13 123 -33 97 67 77 31 -16 -112 -75 49 84 -96 104 -22 4 41 -47 -40 -125 46 -37 -95 7 -122 57 -100 -106 41 77 -30 66 67 5 123 92 120 -29 48 -127 44 -47 -108 -92 41 107 -98 -76 -127 -45 51 -38 115 127 -68 -14 15 99 -90 -42 18 45 18 26 -54 32 115 -124 -33 90 68 23 -2 10 -115 -61 -108 55 47 122 -112 -106 22 -10 28 -7 86 -41 -107 -29 106 -82 -26 61 -20 -63 22 -124 62 55 119 -50 -92 70 -61 -95 -37 -100 -47 -49 66 -35 83 31 55 -47 -112 -120 -34 72 30 53 -14 29 -74 112 123 -47 122 23 39 121 -75 105 -100 -29 -90 0 -85 -86 31 -105 37 -101 56 18 92 -115 -9 -66 107 39 78 -7 -84 8 86 -99 -42 118 110 -57 -62 5 42 -26 -19 63 -29 52 79 -125 -121 113 -59 -50 -98 -97 -115 -12 50 -15 -3 -33 -27 -114 -98 107 -14 102 98 -52 124 7 -87 113 -36 126 -86 -46 83 -66 -84 58 -41 -75 28 -53 -87 -107 -87 36 -80 -123 -15 39 -41 -92 127 39 79 119 -108 86 0 -1 -78 -23 -127 -62 -50 1 -84 -108 -75 21 115 9 -93 99 -75 25 114 87 117 62 73 64 -109 -61 85 104 118 -21 92 15 4 -122 20 -81 86 -15 5 39 104 -73 110 57 92 -80 -30 -86 -73 82 -48 98 -36 13 9 120 122 -102 -2 97 -14 -19 75 70 59 108 -60 127 45 -66 -52 -14 -105 19 -29 -18 -91 -120 -28 90 -4 34 40 -117 -20 42 75 -107 -37 80 110 -125 -88 -97 9 77 -70 14 38 123 -26 22 27 114 37 118 -1 34 111 38 108 -73 
-114 -99 -97 82 18 -2 18 102 84 -53 -71 -64 83 -73 -38 -69 -120 -8 -97 121 125 -74 -30 90 7 43 121 -96 125 64 106 50 36 30 34 -15 -26 -19 -118 -118 4 -46 30 27 -124 -112 99 54 2 94 58 18 37 42 -80 121 56 98 -72 39 -108 -13 12 88 -7 98 58 -56 -106 44 -61 73 105 108 -71 55 -97 -40 85 87 -57 75 46 -91 99 4 56 78 -119 25 -93 31 4 -86 90 -110 38 75 22 -122 23 24 43 -70 120 124 45 82 -66 -96 76 -45 29 94 -90 -73 -97 82 107 17 -73 37 -42 34 6 -46 -98 -55 112 97 -27 71 20 -104 41 -64 78 -108 -14 98 85 9 -16 -81 -122 -53 -58 108 -17 -98 84 6 -126 110 -74 37 -110 -37 59 -53 11 -5 -3 25 88 -8 -106 76 -122 75 -54 39 119 -33 -34 55 -4 50 73 116 -81 123 63 70 -15 -27 91 -116 67 -118 -117 -27 58 31 85 116 -110 -2 93 103 63 104 115 -93 12 -71 44 -123 -121 25 -15 -18 104 -53 60 -24 -119 -86 -55 -66 83 -53 21 85 -80 -57 96 -27 -18 100 96 76 -69 98 6 -49 38 79 78 -66 -8 -51 71 125 44 2 40 19 79 64 -102 -107 15 41 -63 84 90 66 -13 -92 -43 -33 -84 47 69 -18 -117 -100 -81 -111 25 -98 22 -118 -3 41 -41 66 90 -104 9 -71 -61 117 55 36 3 95 9 -124 -23 27 51 -59 6 -16 -60 18 -70 -113 68 6 73 123 16 2 -95 13 -73 76 68 -103 -113 -10 47 -30 -8 -11 -2 -18 -33 -75 -114 114 -30 51 94 88 60 116 -6 33 -1 23 26 28 -46 94 -28 -1 70 -54 -9 47 91 -63 -40 104 27 -112 100 -74 -62 -111 -124 32 -9 -69 -115 25 -9 -94 -12 -84 -81 -81 72 -28 -97 30 46 -94 -126 41 -116 -29 31 -5 82 -68 -19 -121 99 -47 -96 -47 -91 -99 99 123 27 -119 87 112 37 -96 99 100 -40 -66 42 50 -105 -27 -43 -81 -57 13 -65 -90 106 17 33 12 52 27 31 -86 60 -68 -23 84 47 -120 -118 12 -43 -10 -67 45 -98 125 -112 75 -100 66 -88 -99 -67 2 -75 -77 50 120 -41 66 -52 79 -79 -5 99 80 95 6 66 121 43 -6 -1 -80 -1 45 102 -17 48 -65 28 111 -54 30 14 -96 -32 5 103 34 91 -2 -48 -41 10 -114 36 126 117 32 103 35 120 -111 -17 -5 -16 -122 -70 5 105 -74 80 47 73 -70 78 1 48 -27 -110 96 63 9 90 -85 
-50 30 -98 80 -91 100 4 -31 124 -94 33 1 89 64 73 -19 84 -62 -95 86 11 -95 87 -106 -4 93 11 4 -126 98 98 105 91 -20 -11 55 -75 10 -103 27 -108 82 -67 56 95 -8 -91 -42 11 -64 63 85 82 -29 102 -110 86 -21 36 -5 14 48 -105 -108 81 120 7 106 -46 33 35 74 102 37 85 -45 8 92 123 52 -66 -20 18 72 99 101 106 33 -104 -25 69 -54 -75 -124 30 13 -81 82 -54 59 67 96 7 -104 -46 -27 82 102 45 -98 45 12 96 117 -1 -49 23 -59 -90 -75 77 102 0 7 45 -5 25 5 41 -60 -47 -21 -127 54 -2 -23 43 125 56 -108 -11 3 -102 118 96 -25 73 -98 73 -46 3 -56 73 102 57 121 87 117 96 -119 -98 -75 23 -87 -21 -84 117 6 7 52 54 26 124 -10 -28 83 -12 38 -32 -88 5 64 7 -95 -49 -29 -16 44 0 84 29 -33 -118 61 -108 21 -115 -8 11 -10 -110 -69 10 -1 0 101 70 11 -86 70 -4 -9 76 -124 -57 -60 -122 64 13 15 -76 -57 122 7 113 43 -110 82 -17 -13 -39 -67 82 105 -60 -90 -6 -11 27 -112 -102 56 -25 -48 126 -125 -26 -4 -66 9 -120 4 52 51 -88 -110 -28 35 -32 -23 -5 38 -42 -80 -16 -118 -98 -76 -125 -98 -98 -97 99 -77 -30 -81 -8 -62 -102 -59 -115 9 -71 -51 -34 102 -93 -117 82 -126 58 64 -13 -67 109 120 3 -59 92 55 -92 -18 -4 -67 -50 -69 66 -126 100 -35 91 97 25 10 120 -6 -26 119 76 4 -10 -79 -112 124 124 93 -73 -121 -76 -35 -45 36 -12 121 123 -59 66 -48 -123 106 -29 6 -115 109 -122 -15 -26 -33 115 58 93 38 63 81 -14 -25 -52 -64 -49 112 -59 73 -19 -28 -78 -35 91 67 13 14 -96 -13 27 -36 28 16 -84 51 55 -15 -63 -102 6 -97 40 86 -64 46 101 117 -94 68 12 110 107 34 -113 -33 -81 2 90 -38 -91 -24 61 -68 95 119 -27 31 -102 -44 80 -38 13 66 58 50 -110 100 92 109 123 31 -24 62 -102 -21 106 117 16 -78 16 -97 -114 9 -37 -62 56 -4 22 -73 -33 34 108 87 -122 -69 -87 76 -114 -17 -29 -8 96 11 -40 0 -94 -109 60 -60 -96 11 68 -43 50 92 79 -114 93 55 -102 -46 9 -89 81 -108 -71 -33 93 -62 26 123 -102 -16 -61 98 -96 75 29 74 58 124 -48 -51 15 43 38 54 102 -49 78 120 -83 78 -9 25 -101 122 -49 -14 
-1 -26 76 -41 112 117 28 -46 69 56 41 -126 75 62 -81 65 42 26 119 -19 -97 -84 -77 96 -33 -81 24 -100 30 -87 76 34 -111 67 120 -92 -81 60 -114 106 -71 47 -2 67 -27 106 -63 22 -119 58 -73 49 -13 38 -39 -99 -83 59 -51 -55 6 45 25 53 97 33 -26 -12 -90 -27 25 -71 29 124 100 61 -72 92 -68 -56 -62 41 3 -90 1 119 52 -109 103 117 -12 118 115 -11 -56 59 108 102 -43 -112 -8 116 -35 -15 -106 -43 -43 -5 -66 74 -38 -99 -54 -107 -66 -105 77 111 -44 -101 53 -12 74 61 -48 -126 -122 -46 9 -6 -98 -28 9 -94 -76 92 -43 7 -82 79 -46 81 48 -117 -3 -95 -61 57 100 59 -71 -8 -94 3 -74 -22 -114 31 -57 33 -59 -78 117 64 101 11 -42 -75 48 119 86 -97 -117 -86 99 105 7 -85 87 33 63 -103 -28 82 58 -79 -108 6 107 -114 73 -26 -18 -14 -124 -103 -51 -23 115 -17 31 57 -29 79 -71 -127 -52 78 -3 -111 86 42 -21 98 -117 -118 62 105 113 86 37 -65 33 -61 -27 -37 83 107 -32 39 -99 84 -123 -99 38 -125 20 -123 -27 -11 22 27 -97 -20 -44 -13 121 57 125 -71 -78 -86 64 -79 2 -9 -104 -48 -47 -17 -67 54 76 68 -123 88 -91 65 -92 113 84 -116 112 -3 23 -16 -14 3 -44 -32 -124 -99 112 -58 76 -79 -94 -24 -92 41 -82 124 -20 -31 -65 -26 -100 -61 -40 122 -60 -115 16 2 34 -123 41 125 -62 -13 20 64 75 -15 55 -20 122 -73 -35 18 -121 14 126 -88 87 -28 30 -49 -59 52 59 -45 -31 83 -31 -37 -54 -65 61 80 -115 -29 111 104 -102 9 98 24 50 -39 -39 -103 67 58 17 40 -90 5 39 -102 3 74 -34 -68 -48 -51 125 13 97 -47 59 -66 -30 -12 -52 -109 -89 -48 -62 100 -43 -82 87 111 35 107 -106 61 -121 67 74 -44 -64 53 -40 -71 35 -90 -125 15 102 124 24 80 -10 48 -124 -38 34 51 -125 84 72 89 81 -34 -115 2 102 23 -108 56 84 -65 78 94 -62 12 3 -6 5 72 7 53 86 65 78 87 -105 124 -112 -84 -80 -103 36 118 64 99 117 112 23 -14 96 -68 -47 -75 78 -36 -9 -4 -80 -98 47 69 -79 28 32 -33 124 -84 24 -23 -60 66 62 -54 101 -46 -63 -66 3 -63 -28 -65 18 -98 -85 -127 -18 75 -97 -3 26 85 73 -121 -79 109 118 -95 -5 -16 -12 -57 4 -64 -6 -96 -109 -28 39 -92 
105 -8 107 -17 -112 -89 -89 -116 -19 -115 -85 24 114 -85 -1 24 -28 -124 -14 126 -58 -13 -11 -50 75 88 -57 122 -125 -10 8 28 -123 98 0 3 -19 -88 -113 -81 38 -53 -55 30 122 -96 -94 -32 124 -36 41 -63 91 -40 15 76 -43 29 73 -84 63 63 31 -58 100 -25 50 81 66 -46 -2 68 43 111 49 -65 -1 -40 79 0 95 25 65 96 110 71 -63 -71 108 -44 8 -111 -84 82 28 67 -25 -40 -125 -64 -91 55 -80 83 84 84 -4 -109 25 50 -25 116 56 24 126 108 -62 106 -124 -56 2 -57 111 -28 -35 112 105 61 -55 69 36 -20 43 -96 -85 -10 109 -89 -107 -31 -107 -79 95 43 -62 -57 -23 17 79 -54 -18 -64 28 56 111 -69 8 51 98 88 -63 81 -60 114 70 101 95 -69 -48 -95 -7 62 81 -19 -46 103 -114 94 120 122 -54 12 24 75 -60 -120 -115 -103 -26 74 -38 5 -102 90 -31 103 58 31 -43 100 -121 -64 -53 25 61 -28 103 80 -97 41 -71 -25 7 54 -101 52 -126 14 41 5 105 -81 -117 -3 -37 3 -23 59 -17 18 58 -47 -13 76 77 -125 9 43 94 -108 54 -102 -63 -48 -40 -17 -94 101 -27 104 64 19 -40 -76 90 -86 40 111 58 -54 32 -49 -49 -34 20 10 -29 122 57 -102 45 -43 -53 67 18 78 -106 94 -39 -99 -125 56 -86 -39 15 -46 63 -66 86 64 -29 -118 -52 90 -8 -112 42 3 -57 -105 -126 32 22 -88 -33 45 -102 113 55 -49 -23 -25 -83 41 -45 32 -10 -4 -21 106 62 -74 105 -98 33 -10 -63 -69 -54 42 -120 -112 79 30 40 -39 47 -115 111 -28 -75 -104 74 27 47 93 100 -110 1 -58 -121 -46 -111 -60 -90 -79 92 78 -86 -98 -119 -84 121 -50 -110 70 -92 73 41 -57 55 -43 -69 -71 35 7 96 -10 -37 -4 -102 34 92 59 112 69 -11 0 122 -21 19 22 -86 -32 -46 -48 8 60 113 96 -65 101 6 -110 118 -72 -15 30 71 -101 71 -105 -63 -61 -103 -58 -72 -113 49 16 -2 43 -69 -77 -52 -53 -46 17 -41 -21 10 -32 82 108 -10 -57 58 -91 86 -121 117 -14 38 -6 -38 10 16 60 62 -92 -13 -61 -108 66 22 -116 -38 -1 1 97 -88 -40 120 -112 75 39 -16 -68 47 -32 -63 11 -12 -98 118 -20 103 -23 -16 107 -114 -13 -4 110 36 -36 76 92 67 3 -102 113 116 -41 10 -20 -28 -24 -15 -20 85 -68 -94 22 -41 -102 -95 -32 90 78 56 -55 
-59 36 83 0 25 110 -34 24 -23 -110 -95 -35 -69 116 36 -120 -15 87 75 -96 21 -48 9 1 103 30 -73 -99 42 87 119 -93 63 42 90 -4 -108 119 127 -110 112 26 99 108 -99 87 51 60 -4 -10 -43 -116 -5 4 -114 117 70 94 -54 -40 78 9 87 62 -53 47 -23 12 63 93 52 -30 -106 -108 12 14 -27 93 -12 -35 116 -102 111 100 -23 109 63 46 -92 -15 21 50 127 25 87 -98 -116 86 75 -23 -1 -39 12 98 110 -110 -75 6 -99 -99 -5 -3 -63 125 -43 -125 -56 12 -58 111 10 80 -37 54 93 -91 -5 -76 -93 -122 44 52 -15 103 -116 -110 7 103 69 46 43 -21 79 72 -41 48 77 -60 -121 -78 103 -26 23 -49 -14 102 -96 20 -124 23 -77 123 -76 -70 -4 45 -76 78 -12 32 -13 -113 101 63 5 47 74 125 -110 82 8 96 86 -34 -3 62 124 39 89 85 -50 19 -99 87 97 15 -30 33 -111 -93 57 -87 6 68 27 -126 -46 73 61 38 -99 89 68 2 52 44 8 -77 94 -24 -22 -119 30 -84 -86 49 -96 47 -127 -11 42 -54 124 -125 -26 98 -88 63 -47 7 -109 46 -116 91 11 92 -30 44 -113 3 -11 -59 -124 -33 -116 -79 -4 30 106 39 17 10 -36 -20 74 45 6 36 -8 6 -40 93 -111 -107 -13 30 49 -6 -10 112 -65 -123 -119 -66 14 1 -91 -118 -79 -46 -94 66 73 -4 -117 -86 22 -116 -24 -87 -92 -106 71 -104 11 -104 123 -123 -22 -108 35 10 124 102 -44 69 -65 -105 104 109 81 101 127 -119 -124 -51 -99 -75 71 52 125 11 28 25 -93 121 -86 127 98 -39 83 115 20 -45 44 -39 35 94 -111 -75 4 11 -64 -53 119 -46 61 -100 -41 36 -40 102 -81 -32 -11 -79 108 123 -85 29 -100 123 36 33 -121 -93 41 -100 20 -4 51 -110 -10 42 40 122 -115 -63 -6 105 126 -107 49 -127 -28 -47 116 -106 90 108 -8 -103 -7 -117 -116 -50 -87 56 -76 13 -65 5 -3 114 -126 -59 92 -123 69 -23 -78 27 -33 11 80 62 -96 -4 58 -61 -86 -113 -95 -58 110 -15 -11 17 -26 42 118 86 73 -4 -86 -103 102 -28 1 -118 0 -32 36 -18 4 91 50 39 44 -26 46 -60 -127 87 -29 53 90 -84 -31 -46 40 -116 -105 -96 -3 -22 -17 69 -25 98 -103 83 74 -113 28 -19 39 -78 -71 90 39 17 -71 -127 -93 100 49 25 -92 27 -10 21 -71 -118 -44 -40 54 22 54 -78 -85 64 
-66 -32 33 77 20 25 70 111 -17 -58 85 -93 -51 -112 37 58 -85 37 -92 -87 101 69 -121 -45 -125 -124 -15 -67 33 54 73 19 20 17 -74 57 120 114 -42 -33 -123 126 61 -19 31 94 55 -35 4 59 0 -62 -49 -7 -112 -52 -97 117 -85 -25 -53 -75 119 -48 74 117 57 -98 -36 -28 -70 -35 21 -38 -84 -90 -120 -80 7 2 49 71 16 -103 3 13 44 -13 -119 -14 -42 99 -103 118 -24 -39 -102 -4 61 12 -15 -9 69 -59 32 45 105 -16 -89 -108 -86 -44 -62 50 113 11 -5 46 -111 106 -46 -127 -54 -91 108 24 -118 -49 36 -111 58 -47 -108 -80 44 53 89 -81 92 104 -8 90 -30 125 53 -2 41 -67 32 62 74 -15 126 53 81 -28 17 109 -5 18 127 -54 -119 -21 72 22 120 -126 32 -86 79 -23 -49 -127 114 73 -46 -85 2 119 78 -112 15 3 -54 -71 65 20 48 -60 -10 -94 64 -9 -121 87 11 -74 -3 -36 -74 62 -120 -59 32 100 -26 -87 -124 93 10 60 120 104 -14 42 -121 39 127 20 -43 85 -14 64 -5 106 6 50 83 9 -33 121 78 -90 -45 -57 25 -7 -68 -46 -106 -71 -108 67 -4 -52 -59 -2 12 -100 -19 -27 -78 -84 -24 -36 -68 -44 6 -121 -84 -72 24 -33 41 49 127 -17 -22 -46 78 99 72 14 2 -76 -125 96 113 -110 3 -37 -30 52 64 100 72 38 -98 49 4 -79 -82 46 59 -1 75 103 53 29 47 8 103 82 -85 91 26 27 50 -43 -22 -58 93 30 -6 40 19 -28 -75 113 122 77 70 -81 58 112 69 51 -122 -19 103 0 -7 -65 57 63 -3 39 -114 -58 119 -43 -65 -35 10 80 56 -87 41 68 -123 83 -69 38 31 -5 30 84 36 106 89 9 -54 39 11 11 -6 -3 -12 -75 125 -117 9 5 -55 93 53 -124 -21 92 -70 76 -36 -20 105 -121 -3 -91 123 68 65 83 -12 -19 -63 -43 -92 -7 118 -47 -88 -76 -67 -46 35 -73 93 80 -96 41 -104 -13 -32 -14 78 -56 -42 81 97 -22 -71 -40 -3 56 29 -20 -104 102 -35 46 -24 109 30 44 20 3 -103 79 -110 7 92 -21 59 -71 -96 84 126 44 55 -67 -39 121 2 -101 21 31 -73 -31 -28 34 71 77 -31 0 38 22 -89 -58 -41 -102 -75 -29 45 34 7 111 2 -67 -22 126 -83 -87 -124 -36 -5 76 -53 75 122 13 -79 -34 -87 -56 -36 -77 126 9 -122 -2 48 -73 52 -79 37 43 -76 -76 84 -44 -18 -93 
6 32 -58 -102 -112 55 -110 -109 -24 -37 -17 -91 6 26 105 42 18 55 42 -46 48 -30 -39 16 52 -25 -123 -127 55 80 -20 24 86 68 -28 81 8 117 -87 32 87 61 -27 108 -25 -4 50 -18 -38 44 37 61 -65 69 120 -103 6 -41 5 98 46 21 -4 -115 -19 3 -103 -57 85 97 -105 81 110 86 -72 19 127 -49 -34 65 -102 -120 79 -2 22 33 -48 20 -60 80 63 0 2 82 -36 -56 29 41 -56 8 45 75 33 -42 -80 -83 -85 76 -56 -108 21 -11 -101 -4 -17 -119 -65 -58 -39 52 -7 15 -92 58 -56 -27 -105 16 -15 -93 95 -72 9 -66 -70 113 -24 72 110 -75 19 -57 -87 -116 -119 116 -69 -121 -62 -95 -28 73 36 125 -46 -51 -103 122 -68 -5 125 37 120 -70 31 -58 18 28 -26 24 -94 -117 -4 -83 -121 -36 85 93 43 84 38 -54 -97 -96 44 52 -75 -24 -47 -87 -27 16 23 98 -47 -40 9 -97 112 -29 10 -89 -125 -99 -57 -67 -37 13 -54 110 102 123 22 -40 61 66 69 -78 -82 -105 -126 53 -20 -92 103 -82 -99 34 107 -20 -83 -101 76 -64 87 -115 14 18 33 -42 92 -111 -43 27 8 -4 104 31 74 10 -81 -15 19 -102 1 116 -4 90 -120 121 -116 -92 -84 -39 82 -18 29 104 -19 -101 85 -33 -106 62 -10 -68 -78 -69 -39 -51 -99 21 102 76 -57 -120 66 -60 82 -17 -16 59 -72 -23 -69 -69 -123 -106 -23 -27 -12 -23 -30 -103 -103 25 106 -2 -103 -49 -90 -88 -97 47 8 -28 90 109 107 -27 -66 83 -56 111 7 -115 29 11 121 104 -53 -39 -24 21 -29 -52 99 -46 -18 93 -16 -7 77 123 122 -29 109 27 -112 61 73 -75 -22 -103 91 120 -13 50 -98 77 65 -20 3 -110 104 -114 -102 64 127 -63 -85 -112 -46 -17 -125 61 -20 63 -28 -33 -95 -1 -20 20 -11 77 -15 -69 -117 115 -76 112 -63 -25 69 -115 -95 65 -113 125 7 84 -65 -11 -30 -49 48 -121 69 15 115 -109 78 -1 74 0 116 12 39 -84 -64 6 85 54 -28 -108 38 -73 51 78 44 47 -117 -114 38 -46 66 -81 -113 70 92 0 32 -116 -6 -70 39 -63 63 67 -37 37 74 -43 115 83 -61 120 12 82 10 44 -74 102 51 -8 -75 -77 74 108 -28 -6 40 -6 84 -109 99 -11 127 -59 41 108 -113 83 126 9 120 -86 99 22 -33 48 -57 -67 -71 98 100 -65 124 80 -61 94 -12 -111 91 38 -126 8 99 82 55 55 
55 -79 -2 -21 -65 -108 -56 87 66 17 89 7 62 14 11 -29 38 38 114 -87 -97 -44 -15 89 -124 41 -111 -68 123 -91 -28 -18 -77 28 -104 -109 42 -121 -58 -95 -51 -6 -6 3 81 85 123 62 50 -13 -32 -79 38 57 54 -119 -79 96 121 88 -3 96 86 74 -52 -122 -45 52 -108 63 -53 -23 54 123 -16 29 -70 -31 82 36 -93 -103 -72 -33 33 86 -31 -37 -83 43 113 -89 97 -58 34 27 -37 55 -3 61 -82 -119 -101 0 -88 89 -27 67 70 93 49 54 71 -70 30 -77 -55 -70 -44 88 -103 82 71 80 70 -83 -70 102 -100 -46 18 -114 108 51 -5 -117 -78 -36 14 -93 -54 -16 76 -113 65 69 -48 -23 39 -48 21 -29 -17 56 67 29 32 53 33 43 125 89 -20 -62 -64 -93 -36 74 -63 -88 125 40 -2 77 33 -68 108 95 -26 93 39 88 -101 118 -116 110 93 -42 112 -81 88 -85 81 73 -76 106 -105 45 34 -39 49 116 50 -89 85 -13 29 -104 3 -60 37 82 -107 -44 -42 26 -95 -44 4 -92 115 -65 20 114 -108 -32 37 -74 116 -11 60 -67 -72 63 95 32 -2 90 63 92 72 -124 98 12 67 -76 -40 94 98 -83 106 84 87 -52 -44 -77 94 -125 -45 62 48 30 -69 -71 -3 77 -54 -121 -35 -103 21 -75 -52 10 -104 12 -1 -33 -60 0 124 62 18 -74 -51 7 23 -56 9 -25 126 31 39 -64 -27 92 -79 111 99 -11 99 16 54 41 87 117 50 34 -66 -13 -125 -54 96 -115 -17 58 -72 -115 87 91 66 -34 -41 71 24 -10 74 -39 -63 116 -103 -96 58 -66 -36 6 -13 5 40 7 -57 -112 -118 21 25 102 79 110 -51 58 50 105 0 -73 -18 -90 -29 114 99 103 -101 -34 70 108 -70 72 65 5 -57 6 -20 -101 -31 -38 -14 16 59 59 36 -88 57 -99 -76 61 40 83 4 -35 -65 -46 64 -2 82 79 -70 79 -9 117 44 126 33 -73 -30 61 6 126 -101 43 -107 77 -63 -77 123 -30 22 -63 115 -18 43 -44 117 36 27 -17 125 57 107 -47 -37 31 -56 38 -18 -23 38 120 -88 40 -38 64 -55 15 -30 89 40 -97 102 -60 -82 -67 -13 84 81 -42 -42 33 -99 92 64 -15 25 -63 99 -61 17 112 -64 115 -68 -40 67 126 83 47 -122 61 2 53 -11 -85 -76 93 5 70 46 28 -49 -120 107 -96 33 -1 -9 -30 103 -122 53 -76 -114 -8 -9 29 19 -7 -56 87 123 -54 44 50 -114 37 
6 46 99 -123 124 -100 -44 10 -48 13 78 30 -85 46 5 -100 -69 100 82 124 -14 114 35 100 -14 -12 75 -102 51 -41 99 54 45 -16 -58 52 -72 1 76 -16 28 -62 -83 -16 7 112 22 -53 94 112 -65 93 57 104 -41 -70 6 -89 28 -93 -113 51 -23 -13 66 -118 96 105 97 106 96 -62 -69 -75 43 54 -127 -116 9 4 -92 43 -21 127 110 35 90 -83 -114 -85 18 61 25 80 -111 65 -121 -21 111 73 -60 108 103 -5 47 -10 60 -38 -72 30 74 99 18 115 -126 97 -7 -88 -115 -80 103 29 108 -50 -77 -45 96 -112 -15 81 119 -5 -98 19 -16 -90 57 -31 -34 102 -23 -94 -10 44 -103 -50 -107 26 96 -46 126 -92 53 -42 -104 94 -102 -26 -8 -68 15 57 -127 119 63 -23 56 91 44 -32 -89 48 -42 79 -4 -28 -94 -126 106 -8 0 -62 -1 22 -81 -48 45 125 -51 19 -6 -65 32 -5 15 -63 -121 73 87 -37 107 114 32 -2 69 -34 -50 -69 85 -126 13 -87 -56 -16 -60 -109 -30 -36 -17 -27 -70 -89 -81 58 75 -77 -123 103 103 18 98 -115 -56 23 56 60 79 -68 -85 -105 -103 69 -115 16 80 107 -85 -61 -22 55 70 -79 -69 -125 -27 -112 -13 -96 39 -56 -100 -29 -53 13 -83 30 75 88 -65 28 -73 115 3 27 -46 -69 19 85 53 -52 106 72 122 4 88 -70 -107 -57 84 84 -110 41 53 88 98 92 -111 94 -71 -119 113 22 -47 41 -89 -75 51 46 -15 39 -49 -55 116 82 86 123 -70 117 35 16 -48 -38 -22 52 -19 -65 69 39 -120 46 -27 70 -58 -13 8 -118 -87 57 -89 92 -106 -16 -77 62 35 -17 -3 125 62 -103 -36 61 -2 91 23 -109 122 -84 -74 -123 51 -68 -89 -66 18 6 93 -106 42 44 -125 108 59 82 40 -90 -91 63 78 -48 -121 43 -118 104 16 -125 41 -111 36 -69 17 -45 -22 49 -90 -121 6 1 -33 -54 123 38 17 28 54 -23 67 64 -58 114 69 46 33 -3 -84 89 -90 120 12 124 8 29 37 72 13 -93 82 47 102 49 -107 -104 92 27 -28 38 13 25 -112 77 37 4 -19 -76 14 -30 -42 -17 50 -38 115 -85 6 68 23 79 64 -99 -125 -69 29 -61 -60 -91 93 -16 24 85 -4 -88 -67 119 22 -81 84 -33 -11 -5 -113 33 -48 74 105 -41 -116 94 -39 -123 -78 111 -46 -58 -30 105 98 52 -27 73 -10 112 49 6 71 2 50 -82 31 65 59 -88 69 32 
73 -49 40 32 -124 7 -21 119 81 -2 -127 -59 -109 -114 -36 -126 103 84 30 51 61 108 -85 18 13 -73 19 -106 -18 -123 19 91 -32 35 -92 94 39 -105 105 -58 -126 23 -53 116 -104 -68 -120 -100 58 -32 -95 -23 -112 -20 2 -26 -66 100 -72 84 0 43 -74 92 46 -31 28 54 43 55 75 26 121 125 5 58 119 -51 43 -85 -7 -2 110 118 69 11 22 116 -36 -4 97 74 -60 58 3 -12 22 4 11 -51 41 16 108 -117 16 -76 96 106 -126 -51 74 124 -11 -111 -18 18 39 22 -21 -116 -42 45 42 28 -69 89 -24 -124 120 11 -91 92 -118 -16 -104 -73 112 119 -1 21 -58 84 -28 -100 83 -4 -40 93 -76 54 73 -119 -59 67 30 -89 121 -46 -28 -30 42 -97 69 114 -111 -13 17 37 -125 53 -14 -126 -127 -99 115 40 -101 58 92 83 -89 -85 71 -45 12 -126 -66 118 35 -12 -50 -70 31 41 100 31 98 60 -11 -86 -90 10 -110 57 43 -106 77 -91 19 -31 -56 69 -92 86 6 -121 -40 3 -15 79 -25 -25 82 -108 -30 66 121 85 -71 -7 123 108 -52 103 -96 80 48 -117 -109 2 74 55 20 50 28 -18 -107 -91 46 97 54 -32 89 92 -39 -30 -101 26 -31 -64 114 -81 -28 -13 -54 52 -30 -111 -76 50 31 -90 32 -92 -96 53 -1 30 44 49 -86 -74 49 114 41 55 -64 -123 -109 -11 64 89 88 99 -74 -31 -110 -52 -84 -89 124 66 -44 22 -43 -4 46 -97 -8 -68 5 71 95 -104 -110 109 -115 119 -53 28 113 101 74 64 -21 45 59 -26 56 64 125 55 78 102 -116 -55 -17 81 -34 28 37 121 19 120 -115 -85 92 -33 -71 -40 16 -107 -99 -79 58 61 50 -127 -18 -93 -30 -91 102 -66 -97 -10 -22 -21 -79 -66 -70 50 36 85 94 36 -122 110 -41 67 -98 50 -121 104 -121 47 55 6 18 6 -18 -56 -73 74 -60 -111 -40 -31 122 -84 -106 48 -101 -28 118 2 109 114 -52 51 -73 -97 -100 115 127 -50 4 -43 32 1 15 1 81 -45 -24 -112 -24 -21 -49 -94 62 -105 -44 45 -100 -127 47 -30 36 98 -70 -58 -120 -26 -71 47 82 88 -121 -62 50 93 -110 -54 31 -49 32 106 5 -116 -81 75 -42 -109 120 -27 -90 0 118 83 124 124 124 84 -43 3 -92 41 51 122 117 -51 39 41 34 -4 83 -31 0 122 70 116 0 96 44 25 30 91 -71 -103 -61 35 38 40 -101 -63 117 -98 -101 -14 41 -4 
44 -68 -61 -78 -60 60 -116 48 13 -93 -65 -52 125 -20 9 -126 -90 50 -91 -126 -124 -56 102 68 29 112 -115 123 -98 115 5 106 -17 73 102 34 -48 112 -50 -57 -41 126 -58 -68 -102 30 -54 46 -58 115 91 -27 100 -74 -24 118 96 61 -69 -18 79 -126 -22 72 -110 108 -67 88 69 -50 -64 -96 23 57 85 -51 3 -123 126 -47 126 -111 122 113 73 87 7 113 -92 31 -23 -125 26 69 63 55 -76 45 -83 68 -3 -22 -46 -23 14 27 67 36 -85 -3 -127 28 126 -13 103 -100 -3 113 -24 58 -81 -74 65 -75 23 -50 -4 1 69 84 -35 -111 108 91 29 5 -60 24 30 81 -36 96 76 0 30 46 -114 -111 -6 -112 -89 95 -58 -107 17 -99 30 -37 -126 -93 -73 -67 -62 0 64 -126 -105 -67 34 21 -64 116 -125 -85 -52 124 -97 -43 -17 -67 -84 79 -88 119 59 59 -64 38 108 112 -108 107 -14 59 97 -119 -6 92 -93 -61 7 124 -87 44 0 -10 106 -112 -93 13 -56 -49 -104 11 28 -76 59 -121 -74 -88 -113 -64 -99 28 -76 102 -104 -14 3 82 73 103 -111 70 97 -63 -21 -16 -51 72 -103 123 49 16 -114 -107 80 49 82 -123 -113 12 -53 17 -95 89 -56 20 -21 86 76 -38 -8 -44 87 -107 -69 -20 22 -118 -97 -53 -14 111 121 2 27 -125 81 25 -116 33 41 107 -2 52 31 -93 -118 -76 -78 -28 -118 95 95 0 -47 -63 71 -21 38 -24 -32 -120 -62 2 118 -112 -63 34 96 -95 -38 -43 84 -79 98 -22 24 59 -29 103 -73 6 -15 -126 113 69 -96 120 -75 114 69 11 66 -36 115 99 3 -102 97 49 -76 70 36 75 -123 44 100 24 -76 -24 -83 -7 34 70 -103 -114 -78 -91 79 14 -47 -114 -94 30 104 56 -50 22 22 -72 -5 101 -35 85 -93 70 -51 44 -23 73 -83 14 -67 -77 56 119 127 -106 -119 40 -2 66 58 25 42 -22 76 54 0 -16 -2 7 -103 -18 -32 7 76 -85 88 -59 124 56 -9 54 -6 56 78 -44 -121 -36 32 -38 81 31 -38 32 -17 -78 -105 -98 -9 90 19 85 65 -80 78 -83 26 118 61 -116 103 120 -50 32 -28 -38 60 56 20 -51 41 -42 7 73 116 -106 -63 79 -83 0 -19 -101 86 -14 99 -92 -114 -7 -120 119 -94 -114 -39 95 -121 71 42 69 39 21 -48 -102 -79 -31 -83 96 -103 46 -41 -38 -62 76 -97 44 49 124 12 118 -34 -32 -47 68 -73 98 -78 -78 -102 -108 
9 117 -25 21 39 -123 32 97 6 -80 16 -47 34 67 54 -51 105 70 -47 73 -108 -107 -12 -60 -95 -69 -37 -58 96 -95 -118 -127 -64 -7 -113 -104 -2 15 -31 -74 0 84 -31 -54 -76 39 -84 -124 -62 15 97 20 -114 102 23 74 77 37 119 -62 -8 -50 86 -92 -73 117 9 35 68 -15 94 -116 -42 11 95 -64 4 6 122 -18 18 112 -87 -82 -84 -68 -13 -55 -83 121 -33 -30 -68 -64 76 40 48 -14 -37 -76 -62 -35 -123 -78 -31 -29 52 127 -77 30 -67 115 -1 -106 40 -60 97 -53 -27 0 14 -38 -90 -24 -29 -98 -1 -22 -9 53 41 74 -61 71 32 55 -94 -99 -83 -125 -64 104 49 -117 -106 -62 -74 59 -49 -60 54 -90 95 -42 -56 -123 76 -25 122 -101 -2 48 36 -25 -84 16 -55 10 79 55 22 65 -3 -87 30 4 -13 38 107 -71 107 -11 2 -97 -80 -64 -107 -8 19 26 -42 -72 30 -78 14 11 -91 38 72 -67 51 -93 -112 6 80 80 -49 -60 -98 -58 -119 82 32 21 25 -20 120 -40 21 105 91 21 -55 -77 70 -66 91 -106 -117 -52 111 -68 52 -13 -52 -111 -70 -16 14 59 -96 -7 -28 76 -15 -119 -75 126 -121 -82 46 13 28 -47 -8 79 67 -90 -52 -45 -40 -115 58 -98 35 -75 -16 -64 -15 -23 -65 -126 105 68 -16 33 27 -69 65 -125 -81 49 4 27 2 -58 81 -126 -106 24 -50 5 -108 63 -66 -83 -120 12 -80 -27 -112 1 95 43 -5 -61 -103 -85 -42 109 -119 -24 -8 -37 73 -63 -95 84 36 108 31 41 86 -92 -47 29 33 68 -11 92 -23 16 105 74 64 -70 83 50 45 -27 -123 73 -51 48 92 7 -4 52 -68 108 106 -64 -88 14 69 81 -124 -97 112 111 -52 -115 98 103 21 93 -107 -126 12 83 24 72 -11 -83 -73 2 -38 -107 -104 41 61 -114 106 49 -24 -13 -80 -114 -69 -116 93 -30 17 -8 -64 -113 60 -1 93 -108 14 4 -47 40 -68 41 109 -72 94 22 8 -49 -38 -114 -28 -72 59 -119 -31 -76 71 13 -85 115 -108 56 17 -41 -31 -107 42 67 -121 18 97 8 32 -120 -115 -83 19 -77 -73 -79 52 4 88 -111 -15 74 8 -8 89 41 -43 -74 -1 -45 98 12 101 -36 -69 109 7 -26 51 115 -4 58 -36 -68 92 -107 -3 -69 12 20 -10 10 84 -72 10 -16 47 125 40 118 54 32 62 -101 -116 70 -39 27 -88 31 -96 -32 48 11 2 -21 75 117 -22 57 -59 -35 52 -57 
-100 -94 93 -48 -92 110 -58 51 -19 72 -54 -47 -40 110 -56 -105 115 -34 -102 -100 79 -25 -49 -39 -110 -66 -66 -85 -83 -49 66 -20 -25 116 25 -21 -3 66 79 51 31 -2 -31 79 90 -24 79 80 -70 29 -116 62 95 -125 78 66 121 116 -18 87 82 98 28 -27 -47 -28 110 116 -52 72 -124 61 -43 116 110 47 -124 -66 -113 24 -106 -116 -9 -94 -18 -73 -109 8 56 12 74 -75 -42 -124 -54 42 62 12 67 -114 -73 70 9 117 -51 -11 -58 -95 -59 -29 -90 102 -96 15 114 110 -8 -28 107 82 -92 56 -48 -74 25 -107 -74 106 39 -101 72 -13 8 -99 -95 38 -68 122 -112 106 77 51 44 122 -63 88 72 -72 127 -65 -28 118 -5 -80 -14 122 12 -11 88 -70 115 98 -55 90 102 78 -121 95 127 -84 58 -31 21 -100 -87 -108 -16 119 -96 121 79 18 -5 -15 -13 -96 41 -80 121 119 39 23 126 73 107 63 -91 -108 91 -62 -59 59 21 3 88 117 -53 9 38 -29 -42 57 -33 -127 46 -15 94 -123 46 98 42 30 -64 -73 -126 53 23 -71 -124 -100 126 -85 -75 -39 115 109 -109 111 -108 -72 33 40 -13 37 108 97 -7 6 22 -101 44 98 12 -34 -126 -86 -21 88 -125 79 -65 8 -115 113 19 -70 -61 120 38 -102 25 62 117 -74 122 119 71 68 60 -100 -27 88 -68 7 116 -120 -67 98 105 42 75 70 116 62 42 -50 55 -4 -104 15 -95 -3 53 -78 51 -90 61 28 -30 -2 15 92 68 39 28 89 -67 -18 -10 5 63 66 97 120 -103 9 21 -16 -48 -116 64 4 100 109 -33 -5 -55 -54 17 -123 119 -106 15 68 -112 -116 -20 65 -7 -98 24 -112 103 40 64 92 -11 -74 98 -67 -115 61 24 -79 -76 79 -9 -120 56 55 -41 1 -69 32 69 9 47 -48 -64 -87 97 -16 -42 82 114 117 108 -39 -80 20 -35 -70 -23 -100 -47 -31 14 -109 113 82 -70 47 -10 73 -82 105 -47 100 -44 36 -125 84 -17 -79 -110 121 -27 50 120 -41 53 -36 24 -6 48 -119 -89 -31 -7 124 -36 -28 37 68 -24 -108 -31 -13 120 54 -52 -24 91 99 -90 -12 -2 30 -38 117 61 22 -116 -114 88 3 -107 -33 -21 -119 67 8 -12 -111 124 32 -125 42 38 19 -56 -43 21 -22 55 -27 -111 31 4 104 32 54 -18 13 -123 -126 19 -52 -81 20 20 36 -91 -19 -66 -50 88 96 56 87 123 6 -33 122 -37 -96 101 77 109 44 -13 27 
-14 88 119 54 6 68 95 -57 -70 -21 -46 -91 126 1 -102 -18 25 7 -125 -109 -10 -3 114 -52 49 33 93 0 105 -118 50 124 -121 -77 41 62 120 -30 -106 111 1 -80 123 91 10 -90 -49 115 -65 -35 -67 3 100 -31 -63 88 14 9 64 -90 120 -82 -87 75 -119 -66 75 103 -81 -107 -11 113 104 82 72 -45 -127 -116 62 86 106 47 -16 -106 -89 -90 -28 -89 89 110 89 -76 96 119 54 59 -89 124 -39 81 35 -112 114 -2 27 -30 5 -64 -111 11 37 -125 90 -115 62 22 66 -51 127 -71 -66 -46 -86 6 38 63 -25 61 20 7 -111 -123 87 -51 -86 -75 110 -103 -105 -11 25 -91 -33 -45 -54 102 4 -114 32 28 -69 68 123 -14 86 -36 22 -75 -70 85 79 55 -93 -65 75 19 99 -38 35 -116 -53 -70 -49 -50 98 8 -113 55 -48 -77 -17 32 87 94 13 100 -118 -95 57 -113 -59 83 95 -90 -120 -53 47 21 44 93 12 63 13 -49 -117 101 -49 -113 -15 25 -8 -8 20 -43 57 43 -111 58 -14 25 -106 -52 -47 95 -42 -38 -97 -87 -119 -123 12 73 54 126 68 0 115 -83 80 123 91 9 50 -120 -57 -34 -17 10 -31 -89 -2 -124 -13 92 -80 20 -37 110 -119 120 -45 63 -109 11 23 102 113 -87 -59 88 99 -61 67 119 -56 28 89 88 -109 118 -119 -7 -57 -16 77 41 -125 -103 -126 100 -111 -48 -85 116 -93 22 122 94 -46 -26 -106 99 12 -50 -61 6 -48 79 -10 106 -76 -96 94 -19 112 -105 -75 -18 -9 78 -110 99 -46 -122 46 93 23 -73 -75 -62 -110 116 45 70 64 72 41 77 56 -106 -81 -108 119 95 -45 -120 2 28 -34 -29 27 -86 57 -88 -49 64 -45 86 118 -104 -109 119 9 -124 -10 -10 -17 -104 116 99 47 -62 91 -30 80 102 -15 18 -88 -47 -100 82 -59 -93 -115 69 16 -123 -48 -32 94 -49 -27 38 63 -1 -97 -2 -44 -72 33 -75 104 -25 63 -101 42 -52 -120 50 -112 58 9 26 -84 -42 70 -68 -126 -53 -97 29 -123 -41 -88 110 -45 -107 91 -42 -81 -126 12 -112 -62 -30 92 -6 -63 -51 -78 -79 85 -42 -90 100 88 90 -125 112 18 -122 37 51 -22 -12 19 -36 58 31 9 16 123 -84 60 9 29 24 -5 100 -52 8 52 112 -113 78 -97 -123 -108 -39 -90 0 -95 16 -25 -15 -86 95 -41 -127 28 -16 -83 97 -66 72 -101 -82 -46 -54 19 -51 82 -121 -17 -92 -44 -43 52 59 -50 64 
32 54 -84 106 -34 62 31 97 -122 -109 98 -4 22 -3 58 16 33 -63 -88 -94 99 111 101 -105 -41 -83 122 -17 12 -18 -111 -71 -9 122 -69 -114 -30 -25 124 -14 55 82 -115 126 -46 -97 -57 16 114 59 6 -18 -93 99 -41 -16 2 -15 -85 104 -88 -41 -10 -32 -46 96 -54 9 13 -83 76 -1 36 -127 18 69 -123 22 -111 78 16 107 80 108 -4 -79 -98 -72 -60 -99 103 57 -30 67 -38 -84 39 33 45 53 67 117 24 64 -54 27 17 4 -20 24 -15 -101 61 -88 29 -16 47 -1 -62 89 59 18 60 48 122 12 -10 -35 88 26 25 -20 -30 -30 -13 36 57 -5 116 -23 -111 -2 77 -1 41 79 -69 1 33 -45 -4 97 108 -18 -104 108 -44 11 -46 110 -57 1 -8 6 -4 -106 -10 4 117 83 -78 26 56 -65 -36 -22 127 -72 120 67 18 -74 28 -94 119 -15 -26 68 -60 -10 124 -74 -124 -34 73 15 -114 20 -59 106 -101 -45 -12 13 -51 -17 2 -112 -75 -45 -92 17 -90 -105 38 -124 -121 82 89 -106 80 -89 -118 84 21 -117 -81 76 33 -85 -101 85 119 -99 -3 120 5 18 -83 51 -59 -120 122 82 59 -38 58 94 64 33 -37 -72 105 -25 -94 -85 -58 -103 -23 50 -84 -100 -3 7 124 121 -28 70 -116 -22 97 -95 -5 90 -77 -46 -44 7 69 -64 48 -116 -54 -79 -53 105 61 69 -16 36 122 114 -40 -94 -59 -16 67 -35 122 2 47 87 9 67 103 15 -67 86 -1 52 -64 85 30 9 23 106 100 64 -8 31 33 121 -100 63 76 -55 94 -84 107 -35 -28 -40 62 113 -80 94 0 -80 44 38 1 38 -101 -23 116 -103 24 122 61 -101 -26 28 -65 46 116 -43 127 1 -12 29 -29 112 -61 11 48 -117 -23 41 116 68 -61 73 66 -32 -66 -85 -65 -35 125 -89 121 -77 87 8 68 76 6 -126 1 -102 -118 -50 77 -3 -25 -28 72 109 31 118 67 -45 122 -115 -95 -76 124 -66 41 -123 -127 68 -8 112 -74 -59 23 -103 -95 37 -48 38 53 35 19 12 42 -114 -60 114 -27 -108 -124 96 -39 -126 -111 -3 -94 -17 -86 105 -41 -23 -16 7 45 45 81 -95 -126 0 104 -37 106 -58 124 20 -59 13 65 68 41 65 10 10 -39 32 -16 -48 -60 86 44 122 -2 -61 -97 -10 57 -16 -71 16 26 79 -78 -30 -69 -119 12 -105 117 -73 38 -114 -12 -63 -45 -71 84 8 -107 24 -14 -108 6 49 35 24 -35 -21 -104 90 
-89 73 -122 68 83 119 -72 112 34 39 66 -47 76 -108 -118 -48 -80 -97 -67 -67 -90 -9 -98 -100 90 -49 -17 -6 78 -115 -84 48 113 41 -59 96 94 68 90 2 -88 -84 -24 103 -4 56 117 101 11 6 5 26 -90 -127 -104 -78 -102 111 -86 74 91 109 -95 93 -73 69 123 112 -71 41 -48 -27 -121 51 -25 -31 -2 -2 10 -32 22 74 2 79 -89 -10 26 -5 -82 -40 -56 -9 10 119 -88 -125 -8 -109 -68 -72 81 63 -3 28 66 -3 -80 90 -108 -4 121 -54 -97 -109 -8 -67 -88 36 -70 -36 -84 -39 51 60 -57 -1 -37 -60 95 -110 -109 -27 -102 -20 -119 -118 85 -60 19 -65 65 108 -75 45 90 -116 79 61 -109 113 68 17 -56 114 -119 -106 29 73 120 -39 29 -48 -123 -17 117 124 55 42 -98 110 68 -10 -48 -98 26 118 -17 41 -54 97 106 57 -100 -58 -92 56 54 2 -120 -22 -4 64 -95 -18 -124 -116 -24 -47 -120 78 97 -83 124 6 -124 13 -127 18 -98 41 3 102 -29 112 79 54 -92 30 -41 37 -17 119 -23 -51 7 32 121 19 44 118 -64 -45 126 31 97 15 32 -122 -23 52 69 107 -60 -105 90 -9 -22 -25 -107 69 74 116 77 84 121 -4 -38 -58 -63 16 -75 105 89 -42 122 100 53 -93 -111 -63 -56 -87 -125 53 41 -123 -116 -47 -6 -9 -58 -125 34 -16 -79 -124 81 -38 101 65 -29 92 -87 111 7 -98 114 -73 14 -18 -85 -52 10 -23 -7 -19 105 -22 37 107 -122 -13 -28 101 -94 3 -98 76 -29 -41 -113 -16 -102 11 16 -26 -36 112 22 -97 75 65 -23 60 72 -26 9 100 -62 -54 -100 1 91 78 87 -80 -81 -113 65 4 75 -108 -104 120 64 104 -69 -35 28 -99 124 92 122 109 -93 70 54 124 -39 94 -109 -35 -14 78 -65 72 49 124 1 -75 116 -16 -87 121 -90 92 -37 63 -8 36 -2 -85 75 73 -35 -14 -40 -22 82 51 99 -10 30 -14 -59 91 -27 42 -6 -107 64 -2 62 95 -9 49 43 -124 -126 29 -77 -104 24 -76 103 -107 48 8 9 -69 12 122 84 56 -44 -122 -88 -32 94 -75 -75 -87 13 -105 83 121 99 -48 -15 74 -61 17 63 59 -116 54 67 -64 97 97 -123 89 -30 -11 42 0 -82 -117 63 112 0 -62 111 -51 -113 -79 -42 -119 65 -81 95 43 -51 66 20 77 72 -113 -42 58 37 63 23 -4 44 87 10 -78 -98 -73 -11 62 -102 20 -50 0 -105 74 -40 -105 53 -39 
-20 -93 27 -5 110 108 -96 115 28 89 16 -33 17 78 51 36 -61 22 47 50 102 -81 -119 23 -126 112 -22 102 -28 -6 -7 -1 50 -5 -47 32 81 9 -96 -29 98 -120 -103 -82 -3 32 -93 -84 34 -80 -11 -90 -118 46 71 82 65 -117 -126 117 -92 -115 126 113 -124 125 -114 0 -120 -42 -50 -36 28 15 7 120 -118 -120 -54 -114 -49 -105 28 -61 18 -41 21 -17 116 -6 -9 -9 -83 -11 -87 -125 -124 -14 -73 102 4 68 -47 -8 -16 -92 -29 -104 -123 -60 74 85 -59 -30 86 1 103 -71 88 -35 81 -109 -29 22 -87 59 33 -48 -43 -20 64 -124 99 -117 89 -115 7 79 -114 47 -121 96 -113 121 42 -121 -67 -15 -9 127 126 69 42 77 32 91 -90 48 104 -99 101 115 -113 122 -62 28 112 11 -2 93 113 60 49 -57 110 -81 -23 -32 -88 -85 -116 89 -44 -49 13 99 85 -117 -62 89 79 -4 77 97 57 -21 79 -85 98 89 -97 66 -44 5 -44 -70 8 101 20 126 -15 42 -72 -38 84 -30 38 123 83 -7 62 17 69 19 -25 24 -8 89 59 7 95 72 88 120 -49 40 68 127 -4 -70 52 51 70 -48 23 101 -87 85 62 55 83 67 108 -106 110 125 33 13 -53 105 101 -98 -120 54 37 102 48 64 61 -78 84 -117 -113 98 -34 56 -112 -54 -111 -68 -68 25 123 -91 2 -10 -14 -90 51 27 78 77 6 75 -92 57 -9 72 101 50 109 -1 -40 112 -48 -89 -119 -114 115 73 126 -83 -93 -33 56 -116 -16 -70 -40 -87 84 -58 -22 70 -102 61 -68 -63 -3 -83 -67 -68 -90 -125 67 60 -36 1 69 34 87 -4 -110 79 29 -46 37 -120 111 -107 112 94 -106 51 -41 -95 -75 -117 -37 -117 21 -33 -49 14 -54 -110 -114 71 -60 -58 77 -66 -31 -49 -7 -31 -55 74 -16 -22 98 -99 7 -100 -47 65 38 -93 68 -75 -27 -20 28 -39 28 -27 14 -115 64 108 6 -73 86 -53 -1 50 -21 -55 22 13 -5 33 -97 -103 -58 21 -71 -108 36 6 -29 -90 101 -15 18 -46 -8 79 117 -11 -58 -12 105 98 42 86 103 110 83 82 68 30 9 -27 60 -99 -67 -37 113 -39 21 -14 -56 -78 -28 39 17 97 -45 97 57 -32 18 49 -91 28 48 -117 -119 63 37 12 -93 -103 87 -99 27 -111 -104 -48 -119 53 126 -22 30 -4 21 50 -125 -53 119 -12 21 27 74 59 14 -102 -88 2 36 126 -115 -71 -41 -88 -22 112 -24 78 68 -30 
42 103 -104 -91 118 -22 83 -56 -66 11 26 -11 97 18 23 125 -58 -113 65 72 -59 -63 -101 86 -84 -82 -14 68 62 90 -43 94 -69 67 111 0 -42 110 -2 28 -11 120 99 -79 79 78 68 96 114 66 -118 44 31 51 4 107 -76 90 -8 70 8 93 16 125 103 113 48 -115 -114 18 -82 70 -73 101 -107 6 -116 -50 108 -62 62 43 -62 -74 49 105 48 -17 -64 118 -35 75 -102 67 -83 85 37 -90 93 61 60 -88 122 -72 118 36 -63 64 109 -102 -72 -69 120 86 -54 85 11 76 37 -92 -18 30 -49 -24 -34 44 -87 9 87 -101 71 -127 54 28 39 -11 -11 44 -51 -29 -75 -47 -29 -72 83 -33 -79 7 68 -79 -99 84 3 -85 19 0 64 -16 98 5 123 80 6 -71 -99 -16 -97 98 -4 42 -31 107 13 121 -70 78 -16 -8 -78 -88 -61 22 118 -123 -115 -10 70 -113 80 -53 82 -35 49 -36 -16 -62 -104 -118 -94 -118 25 -90 -28 118 123 -28 72 -5 51 124 60 107 57 23 -117 124 30 23 -105 -40 117 67 -7 53 -25 -95 -76 67 -24 -123 0 -4 11 -90 87 44 96 -82 -95 62 -84 9 -38 -113 -25 16 -117 116 -72 -12 33 -113 -98 92 -75 -105 -123 -99 -86 17 110 44 109 25 65 -106 -90 -61 51 -40 -27 -29 -52 104 -43 -104 -53 -54 -37 -112 -61 87 101 -19 66 -69 -124 -88 -67 -51 127 -89 124 -113 -6 -5 -11 -10 22 -85 -30 127 -71 -102 -35 -49 -125 -122 104 -91 -18 79 -126 -31 -59 50 109 125 112 126 -3 119 -96 24 101 -109 -38 -17 33 -21 -64 102 -114 102 33 69 -50 78 -114 110 -77 5 4 -23 47 -56 -5 82 -44 99 -60 85 -54 -108 34 58 92 58 12 112 -124 84 -54 -39 25 41 85 30 119 41 -114 -114 111 106 117 70 -48 -29 -79 -104 8 44 18 -57 51 -78 -80 87 58 91 60 15 -59 -26 74 -13 74 46 53 85 -60 86 -122 -47 -109 -106 -109 -75 116 89 17 -95 74 113 -120 -63 -59 -22 66 -117 -101 114 81 82 51 -74 -23 -107 14 -119 98 33 -50 -4 15 -125 67 -38 43 -21 -16 115 -74 118 -7 118 112 72 -13 28 -36 121 -54 -122 -78 -36 -90 -99 -76 18 -110 33 52 -30 70 -65 -55 32 -103 -11 -56 -104 3 54 -75 -3 18 -67 -87 -122 17 22 44 -122 -77 -84 -85 -109 -92 -82 -45 70 -40 -123 79 95 95 -90 -115 -49 -93 11 -67 95 56 -19 109 123 20 60 116 -18 
13 99 -41 -63 -100 111 -33 -86 -10 -104 74 -68 -89 -100 -82 -56 2 -108 85 -87 110 20 -100 -121 -56 -55 -56 77 81 5 105 -49 -41 -79 -76 22 -51 -58 -51 42 51 33 6 -34 87 57 24 18 104 34 -94 -47 -4 54 -109 63 -72 59 -13 -59 36 -102 83 73 -1 15 72 -42 101 63 72 61 -86 -14 84 -75 -5 127 -31 92 -12 75 -109 -89 82 127 -98 66 69 112 -31 100 118 108 -49 -15 -53 -94 -68 99 -103 -99 59 23 -121 111 92 126 7 -10 17 -109 6 -17 97 -118 -54 98 51 -69 -72 123 121 -77 -84 123 -12 -51 -109 30 10 -114 -6 19 -84 19 -46 -86 -50 103 -47 56 6 107 65 20 32 -127 64 37 2 85 -10 -72 20 -20 -50 71 108 83 124 81 84 -108 106 80 -117 78 19 -23 109 -43 -79 -40 40 -94 -105 118 9 101 -47 88 92 68 -6 83 21 20 8 41 84 -102 66 -13 -125 -53 75 17 -107 68 65 -52 -48 37 -35 -57 -84 124 -52 8 104 -117 116 -104 52 32 -8 114 -95 -88 -34 -3 97 -104 -38 -14 47 16 -56 61 -103 17 -45 -118 76 -97 -78 -49 33 -62 106 43 72 106 -55 -123 -21 18 92 8 -118 -14 -118 -91 13 125 -34 -3 -49 27 -68 -86 -12 -63 -62 -85 65 101 -35 -66 24 115 -106 14 82 93 12 -96 -81 -91 -7 47 -41 121 -22 127 -127 -11 -20 101 24 62 -110 -42 -51 -12 110 -41 113 -23 86 32 44 -76 55 -93 9 50 78 -100 -29 67 6 -63 -83 92 4 12 -50 -30 -63 -30 93 25 -4 50 60 -88 -30 -107 -105 115 89 -56 17 5 113 -115 75 49 83 -54 -14 105 25 7 108 -62 37 46 86 20 26 -65 66 -60 33 124 -77 60 -9 120 12 -15 -100 -91 124 -101 -61 -15 -54 103 -76 40 124 26 -3 125 110 118 53 -122 55 -46 117 17 -73 111 73 34 17 -38 97 -117 -4 71 -88 -35 88 -10 -28 97 -90 17 0 -35 108 -47 -43 -41 -2 -31 25 -39 -44 -59 39 -88 0 -85 12 23 -84 98 16 -86 -32 32 -11 -73 2 -12 67 42 -16 -66 107 65 -54 81 -48 -54 -111 47 28 54 112 11 -25 -89 -110 -40 -70 40 -46 51 46 -83 61 71 -28 -27 -14 -46 93 -58 -31 41 -114 -18 -70 -75 -33 -52 11 62 -96 22 -21 122 65 -10 -19 54 -46 102 46 123 -122 10 24 92 89 -109 31 36 -80 101 117 -8 61 -116 -35 39 96 -119 -10 -103 -74 122 119 -89 
110 -46 58 -67 -8 -68 -85 -87 20 44 77 -107 -91 81 2 -7 -115 -77 124 -75 -61 -59 122 2 -103 82 -50 24 -91 31 96 -68 118 28 51 97 -19 72 -105 0 86 99 -125 -36 59 18 -116 57 87 9 30 61 -86 104 -14 -69 -94 -109 27 46 56 -36 -4 -44 -1 -99 59 48 70 111 108 -44 -93 57 -85 -59 76 25 -108 -37 9 82 30 88 121 -77 79 -81 40 -106 5 -46 96 -83 -28 -68 -76 100 -63 -8 -94 65 69 60 -26 66 61 47 -102 -5 -115 1 -108 -8 -100 -70 81 84 66 -64 43 32 -79 -55 -110 -9 28 126 114 -111 -60 94 -70 -15 -1 -16 -124 3 62 -94 -20 -114 -79 85 116 14 126 56 -104 97 -64 -66 109 -111 82 6 45 93 27 -75 -123 113 -31 78 -126 -101 23 98 100 -24 102 -30 -2 26 -105 -70 29 13 33 78 93 -96 -76 115 -93 -96 102 -97 -17 -14 37 94 -5 38 120 -11 28 58 50 77 18 11 -88 66 90 75 84 -88 -27 26 -10 -14 0 -83 7 -121 -123 87 84 -122 -93 -59 -74 -63 75 -102 18 106 -126 124 -57 42 38 -22 -25 28 -85 -20 -22 103 5 79 -55 -104 127 27 -105 96 60 64 52 90 -6 -57 -66 -48 13 117 -116 -125 -30 -110 82 -84 -62 47 -67 -34 -16 -114 -37 -59 -117 -57 103 -58 51 -124 -77 47 -3 -25 63 -107 -72 -78 50 -47 88 42 -4 17 51 -110 105 18 -59 -117 -99 101 -25 -117 -60 122 103 -96 74 -61 17 34 -40 36 111 71 -41 -24 -127 98 -2 -108 -69 -8 86 22 -36 -52 0 -59 -92 -39 72 -40 -95 -58 -20 -39 -40 -10 -6 -63 -50 29 75 -120 -43 -47 -126 39 35 -47 125 -29 -21 91 -93 47 58 94 77 36 -115 23 -115 -92 104 -68 108 3 108 11 31 101 50 79 22 94 25 74 -5 -5 -30 -61 66 -41 66 6 102 -37 -98 6 63 -14 68 23 67 99 45 -86 91 -79 119 114 -3 -93 -67 86 -22 44 76 -55 98 27 36 31 -115 68 106 115 110 122 -103 -24 -69 120 15 -45 12 -10 16 35 78 -106 -121 -108 108 18 25 -13 125 0 -95 110 76 -125 -97 4 -94 59 -17 -11 87 -39 -2 99 -109 104 13 -47 -40 -95 -122 -88 67 -15 63 30 -80 -65 42 69 30 -55 40 -75 40 62 40 107 95 78 -28 -34 -112 65 55 25 109 -127 -70 -110 -8 33 -43 65 33 101 -65 -79 -94 60 103 -104 95 -98 -1 73 51 76 15 88 -78 58 
54 -117 31 23 98 11 68 -48 112 -115 121 108 86 75 117 74 -29 -102 98 48 -4 -96 -86 84 30 71 -54 -75 26 -80 50 41 45 -61 59 101 -19 -1 -94 -34 115 49 114 11 107 -49 12 32 60 37 -72 -5 -20 -73 118 -1 -108 -96 36 -35 18 -48 -115 -39 -29 -53 45 119 107 -118 -56 -34 3 -5 -126 85 50 112 -11 64 67 44 -16 69 -13 24 9 -92 -115 -117 13 46 100 79 115 11 101 -25 -124 -122 118 88 -40 -62 94 -121 11 -92 -17 79 -114 -117 -69 42 -76 58 5 -61 -50 45 -110 4 -61 125 82 127 101 -43 67 -81 79 -85 65 -85 -121 30 14 -79 48 63 7 91 35 7 -75 35 28 -53 126 -78 -11 -24 -44 33 66 -59 -85 -86 70 -89 -113 109 115 -86 -14 -86 -117 15 -59 -96 -121 -83 54 22 -20 71 -14 61 -37 -93 -4 94 127 14 94 102 111 -3 -110 121 -121 80 42 42 29 110 -46 5 2 101 -108 -36 -62 40 125 93 -12 77 -72 107 81 58 79 45 80 84 56 90 28 50 98 24 124 41 113 123 48 110 122 -72 -32 62 126 107 -83 -13 -47 -65 99 -47 -57 92 18 -107 -25 -73 -76 -9 74 85 -30 -2 -43 48 59 -53 20 -15 -8 26 62 32 101 73 68 -36 123 23 -105 -12 49 -30 79 107 121 -39 63 51 -56 4 -82 39 106 -35 -101 -76 -52 -55 87 56 -111 41 -76 -46 -99 -31 7 -49 9 34 26 -11 -30 53 58 21 -20 103 -113 7 -53 65 41 -126 124 -68 103 -109 -47 -46 -69 -46 -111 72 4 8 56 -52 92 -88 -63 19 -120 -93 77 91 -38 -6 19 99 18 119 -53 7 1 3 -11 103 -4 -57 57 3 106 -98 -101 71 -41 86 37 67 -36 -61 59 51 119 -107 113 73 54 -39 126 -90 87 8 -4 -78 30 11 -20 -10 37 5 75 -126 -78 126 36 -78 26 101 -98 106 -8 28 -54 44 -97 -99 -114 -113 -33 113 -103 -98 47 -16 98 28 92 106 10 -77 47 -28 -24 -77 -56 101 -46 -96 69 86 -43 36 2 -122 11 -17 62 79 76 57 78 -122 -108 80 38 108 -9 -76 -2 31 -118 -51 -90 54 -92 -66 75 -77 55 -15 -66 66 15 126 36 -95 -25 -121 24 -17 -49 -19 69 118 -90 110 -33 -99 -73 92 31 36 1 13 -70 -114 92 6 28 -73 82 48 42 83 -106 -47 -100 126 99 36 -53 -55 -41 -75 70 -73 -97 73 -43 35 -7 -90 -40 96 -68 28 113 30 -29 75 
115 -9 -125 -75 -48 -4 -100 -82 -15 -58 120 48 65 125 57 63 -59 63 -92 1 12 -88 -112 -53 71 52 -82 -89 -39 -59 76 -119 -70 29 55 64 -91 -86 -127 60 36 87 5 -119 18 39 120 -17 31 -40 -77 81 78 116 -30 28 -92 117 22 -125 -58 74 44 110 9 -16 -35 -53 -20 -46 -63 82 75 -81 125 -118 58 6 40 1 -53 19 -52 77 69 18 26 -102 -90 19 -7 -99 -27 91 -67 -32 87 -96 21 75 -40 82 63 23 39 77 42 -90 7 -43 -122 -127 12 -54 100 -18 -2 -32 -65 -8 70 49 -38 -115 60 -24 104 -11 89 -50 84 14 -55 55 104 -25 -74 -7 -123 124 105 24 -102 120 22 65 119 -102 75 -104 114 -108 94 87 -105 -7 4 -56 98 48 -37 -127 70 18 -32 -53 124 -68 27 61 104 -38 -125 -86 105 -53 11 -44 -37 87 70 72 122 112 -50 82 -54 -110 15 83 -91 121 -46 -54 30 15 -35 -104 107 34 27 116 87 29 68 -40 -122 6 72 -109 -64 83 -110 121 -74 14 -101 -10 69 10 80 86 41 90 -36 69 -111 117 -64 -17 -113 -59 -62 24 -43 -80 47 18 -25 112 38 -9 -88 98 124 34 59 -57 -68 117 -76 -51 91 -55 107 85 62 -79 101 -12 -54 92 -106 -14 122 -87 120 -80 -111 -15 -88 -43 96 -107 99 -55 99 -120 36 39 -26 -70 55 -20 -51 103 107 58 89 -98 17 -62 -82 63 -111 120 -6 -2 55 -28 32 -126 -121 5 -9 61 105 -2 83 29 18 95 87 -8 -23 -90 -98 29 -79 -8 -35 41 117 -45 42 87 -18 -1 14 -122 -50 -38 31 47 -48 60 -63 -50 86 -66 -82 -100 -24 -123 -56 -28 86 7 45 118 -95 63 104 -117 -2 -1 16 -87 -79 -40 -40 109 59 62 -55 91 -26 -58 71 97 -44 100 -79 29 -60 53 9 -126 39 96 -63 -5 22 112 14 -35 -42 17 -53 64 126 -1 37 34 28 124 -21 -77 -48 9 -15 33 80 -70 -125 -71 59 40 -84 -49 115 94 -48 49 126 -41 -87 -24 -84 -94 -11 51 -63 114 -47 -82 -11 -49 114 101 -101 -109 -96 -76 -105 -127 54 127 -45 -70 -108 39 -33 124 -15 -93 17 -78 41 -89 -57 -74 -94 -96 33 97 -26 56 62 89 -83 -116 -110 111 12 -116 106 -23 2 34 -125 3 95 -55 55 34 58 -24 -88 19 99 -82 55 -92 -31 -76 4 77 -101 -88 -54 -91 10 32 -114 71 -50 -108 28 -19 17 -114 -99 -26 111 124 -91 28 -26 -73 68 84 
54 52 114 54 -90 32 -94 7 -74 -27 37 -82 -32 -107 -106 77 126 -45 -113 -82 -7 103 86 -107 74 111 -50 -67 -16 -1 -94 -60 62 -26 102 -44 39 -64 82 75 4 126 27 -125 46 82 22 45 -99 35 39 -111 -84 -71 -105 -124 73 -20 68 -36 10 7 35 -63 -92 -95 -12 121 33 57 41 -98 24 100 -98 -97 116 15 -58 17 22 24 1 5 91 -37 -69 21 93 96 -91 99 -29 104 -6 31 -102 -14 -69 76 -64 2 -77 43 -78 26 36 -45 -47 105 123 62 -78 76 101 86 73 82 7 -58 -30 -22 87 116 47 -19 -16 -73 75 -54 -110 -85 -69 -73 81 23 -125 43 50 -21 -99 48 -44 23 -109 28 -18 61 -51 51 72 104 -61 -36 107 -7 -51 124 -34 -45 56 45 105 -125 -59 13 16 44 118 -30 -101 -53 -67 11 110 3 28 -51 -123 117 72 -14 41 97 101 25 69 11 91 -49 -32 -29 -7 -37 -49 126 -83 11 -28 115 -122 -53 48 11 -122 83 126 115 113 -114 -127 113 -7 117 -66 115 42 -40 -65 -4 -31 9 -108 -101 126 92 -38 68 90 -54 93 36 -53 105 -89 -126 -95 69 91 -70 -28 101 64 8 110 116 105 -20 -10 8 -83 -43 -48 -72 -57 -127 79 -122 58 61 -3 127 42 53 -107 -25 102 115 -70 -67 123 -98 -119 76 63 95 43 38 -43 37 -92 13 118 29 50 108 54 8 -114 -95 -61 -123 34 21 -41 -119 72 -111 93 116 48 -69 51 55 -123 91 15 83 -96 126 78 -105 -9 5 29 -113 100 -32 37 46 48 50 58 40 5 113 -69 -49 -33 47 67 -41 -102 -21 68 18 -53 -72 -59 104 -54 89 -21 -96 59 23 -71 15 -59 -99 59 -119 34 25 -101 117 4 66 64 -93 -121 111 88 -9 55 -74 119 -80 6 90 74 -1 105 -80 -78 -64 20 -116 -14 83 15 38 52 -31 -76 -90 30 39 -75 75 99 -28 -121 88 -101 -24 -2 -51 -110 -76 37 122 25 -44 47 109 -68 53 -25 104 50 6 -33 31 -101 -65 -106 116 -55 103 -123 -80 -79 45 -1 87 -17 40 32 -126 67 -53 28 -88 -37 -30 -81 -86 119 2 -27 -109 121 -46 86 -91 109 -65 -13 -72 117 -87 34 21 80 -69 81 109 64 20 79 2 44 74 111 -98 59 48 90 -36 21 -66 -119 105 111 -51 96 -84 -35 105 -97 117 -51 -48 80 21 49 -69 115 116 111 -65 -114 3 -68 -86 92 -25 -29 -37 -2 -18 -62 -28 -80 15 -80 -77 12 92 76 58 
62 -121 84 11 -43 -57 -41 -29 82 -77 -42 71 58 32 -43 -41 -120 80 28 -101 -8 62 37 77 46 -55 -68 -60 102 91 -88 56 8 26 -113 104 -24 58 -19 127 85 49 -52 116 -71 -23 37 47 18 -38 94 90 90 90 22 11 -112 93 -46 -107 49 109 93 8 86 -70 -34 99 28 16 -23 -46 -107 71 46 102 -51 72 -111 -72 -50 10 -73 -98 -7 -94 50 -72 -30 100 -10 66 -101 -117 121 -60 48 2 -31 -48 100 -76 -49 -46 -96 -20 -44 27 -36 90 -48 -76 106 2 43 -96 -8 3 125 -91 -120 -81 96 -100 57 -32 -52 -92 68 -117 57 -28 42 10 -126 47 90 86 126 18 -24 108 -115 -29 1 -66 98 20 -8 27 -81 125 -25 -101 98 6 62 76 -23 58 -80 98 79 100 -127 -47 -121 -13 66 -18 108 -64 38 -72 -121 -17 61 -79 101 -111 -115 80 15 67 -26 70 63 101 97 -1 -122 -37 -121 -83 23 51 33 -104 116 72 -28 2 -117 -45 41 71 -117 -46 87 45 30 93 127 -52 87 -30 21 28 -79 -66 20 50 -1 2 -19 -103 115 -97 44 -28 -2 -94 -126 -72 83 -84 74 -13 4 -92 -94 -89 -41 54 19 64 -110 -66 44 5 48 -110 -96 -42 -29 110 43 -25 121 20 38 70 -14 47 22 72 -38 60 -54 -35 -14 -43 12 -17 -68 56 113 48 112 -103 -99 29 6 -122 17 -36 -6 -72 111 -69 118 109 -52 -111 18 -82 -11 -56 -27 108 21 -118 -127 7 -104 75 11 -96 19 -77 81 -34 45 105 122 -82 29 82 52 9 -24 -37 -10 90 121 17 -125 -81 53 -94 -40 -55 19 67 58 86 43 25 125 -69 -83 -58 100 -49 -75 90 -67 95 71 88 38 119 -109 -1 -43 -47 109 25 29 -71 -34 -56 -40 79 -122 106 -8 -114 -105 -97 -23 -48 55 -118 -61 11 -18 -76 -119 70 -83 76 -77 80 75 -96 10 -100 -118 67 63 -104 44 -3 36 -101 -7 83 -107 82 117 45 48 61 66 37 31 -22 114 35 -46 -35 35 47 27 -92 -91 -89 -58 55 -28 34 -10 -59 82 -29 52 -7 115 9 10 -119 -101 -28 -73 51 31 105 -40 -22 72 -16 9 -10 10 -69 118 -64 -75 -93 -51 111 -48 -13 56 -26 -80 -23 -85 -103 -28 -62 -34 4 64 -65 16 41 117 74 113 52 102 114 -28 29 105 -86 33 -7 -66 76 -3 12 25 -67 -85 63 -110 -117 116 72 125 -26 -127 114 70 75 127 -63 121 41 59 -48 -24 -32 22 75 33 -127 17 -2 
23 -1 -74 -33 54 -75 72 -89 -58 -89 45 -27 -36 71 64 -67 -86 6 52 -54 43 -21 56 -76 -118 70 -101 60 103 -121 104 86 97 78 1 -39 -111 83 62 -74 61 -86 28 28 98 -76 89 106 98 -3 118 30 19 -115 -83 -111 109 100 123 9 -109 56 -26 -66 -38 117 -125 30 -105 71 60 59 17 -22 92 -115 -103 -58 119 -123 77 -83 111 -37 124 -112 -53 25 78 125 92 84 19 -47 119 -34 53 -19 39 -42 -13 -41 119 -79 80 -61 70 70 118 -72 4 74 121 25 79 -86 105 -101 -83 -65 -10 1 -70 105 -3 94 5 -122 -105 124 -17 80 -98 53 125 11 0 -127 8 -45 -99 -97 -35 104 -29 -7 37 -55 -33 50 96 -104 -102 114 44 -8 -63 -120 -41 33 -104 121 98 112 -109 42 -77 81 121 72 -94 -105 40 92 99 92 -45 -41 -110 -17 86 122 -5 -5 -122 52 64 -69 103 41 -33 14 -15 -23 -4 23 59 -95 -127 126 -74 105 42 6 88 -108 -82 -71 -63 -89 -54 5 93 -50 127 -62 57 107 126 112 -37 -98 -114 36 18 -91 -121 16 -8 66 28 46 115 -52 -111 84 -119 -97 2 93 36 -28 -115 79 -19 40 117 72 -81 100 58 46 -126 -35 -55 12 -12 30 -37 23 4 76 -86 127 -34 -20 17 -7 -61 -36 -66 47 99 -49 -65 -26 53 75 29 73 -60 98 -59 24 104 72 -31 -44 119 6 4 -11 -87 68 80 57 59 -127 -50 -40 35 73 -57 -61 -99 -116 -105 -105 90 -88 -80 61 124 106 3 -23 -62 95 -97 95 -30 6 51 33 -73 -90 -111 -124 110 -15 -95 1 -13 -112 -96 70 -62 -43 103 -52 72 -35 60 -20 -79 -73 41 25 -108 102 107 14 69 30 -75 74 77 -66 -90 122 94 61 106 33 -17 -63 -27 -73 -101 97 -59 -10 72 75 8 -83 -104 -75 -122 -70 119 -119 -86 -14 -104 -9 96 127 36 20 -30 21 -29 -98 117 124 8 26 112 110 89 -90 -110 124 23 -120 57 -99 -29 -91 -95 -57 96 -89 82 -120 -94 11 -108 25 -78 -86 -93 -102 15 36 28 -87 91 103 24 -99 5 -72 124 40 -44 -64 125 52 108 61 -113 -23 52 53 23 -117 -113 101 -13 -47 -10 106 -81 8 117 96 -49 -3 -57 -25 -112 4 81 105 57 105 36 32 115 108 -26 124 -58 -41 -78 38 115 67 -82 53 123 69 102 -45 75 98 38 -84 -22 61 14 -48 61 100 -29 -42 41 -81 50 -122 -6 -27 96 -49 -9 -19 30 -77 82 -5 
-95 117 9 100 -20 -18 117 124 29 95 107 -112 -124 64 -69 -71 97 34 -67 34 85 9 -61 67 -104 51 33 -72 60 99 8 85 56 67 126 18 98 -92 -98 96 -32 -71 -32 62 3 -16 -111 -90 21 6 83 92 -9 88 64 59 36 -98 66 -81 55 98 66 -55 95 -76 88 -97 84 52 -69 33 -112 31 105 -80 84 86 -66 -85 37 100 127 26 26 -11 -46 -16 97 94 -67 -112 -12 -105 -29 -34 -107 -62 -107 59 41 -66 91 -116 2 50 4 -37 47 -101 -74 -63 18 85 67 117 37 46 -109 112 -28 -107 -110 13 36 -98 60 23 -61 6 70 101 53 99 65 46 -31 72 -22 -58 89 43 12 126 -1 -21 111 -4 -125 79 -97 -38 12 97 -110 20 -37 -102 50 -16 -25 -40 1 -119 -59 12 -50 -25 -7 113 35 69 115 110 60 -90 79 -123 33 54 112 11 -69 63 -117 79 -69 -19 62 37 -22 126 -102 -45 -49 87 -87 88 -83 21 47 104 109 29 25 96 -92 105 -74 -13 50 22 102 -78 20 -114 -62 56 119 -122 123 -102 -78 -12 54 89 40 51 57 117 -79 -47 109 0 106 80 28 71 36 91 3 -37 56 -115 18 71 -122 -90 54 41 2 -110 -8 77 -32 45 59 23 -37 -104 92 -83 104 5 -45 -60 -58 87 62 -41 -23 -10 -15 113 39 -35 -89 -58 -44 124 99 3 -71 -38 77 -48 -52 -118 -78 59 -75 -94 84 31 13 -45 -21 11 -58 -27 8 47 -95 -15 40 -76 93 -36 -36 118 -41 -61 95 65 97 -104 -107 116 -104 121 -62 84 -25 -60 -69 -109 98 -126 -77 -107 39 98 -99 -18 -59 -66 -116 77 -21 35 -106 -68 -74 109 -119 47 32 25 23 -30 -127 -87 -116 26 5 104 -98 18 84 34 -119 -87 85 -73 -14 107 -110 81 101 -78 63 26 -21 84 13 103 103 114 -19 -67 -105 55 23 65 76 39 60 -101 108 95 56 33 -88 91 7 24 57 83 42 -72 33 17 28 36 90 -87 -110 89 -27 -48 114 -76 -49 36 75 33 42 -14 -25 88 -108 26 98 120 -101 73 -36 -127 -95 32 52 58 0 112 14 116 -55 -46 -25 102 -40 -100 75 89 68 97 14 -10 75 -7 65 25 102 -83 -16 66 45 -60 -126 123 -113 73 -119 -114 -95 26 -94 78 110 58 -99 62 -104 -87 54 -49 -15 106 20 27 -112 -57 49 -36 -31 -37 106 -114 127 11 37 31 65 50 67 -14 -18 30 -1 -80 117 -50 -70 118 -56 -9 -15 -74 21 -105 108 -48 
-118 -109 -44 18 -69 104 124 48 93 20 14 -88 50 -97 -118 -43 44 -90 -82 -32 -91 -94 -66 -57 -8 -6 -97 -119 60 -44 -39 -92 -50 -37 2 -118 19 25 113 -78 -68 -84 87 100 85 49 -108 35 23 -36 57 90 -120 -48 47 -7 -15 113 -33 -95 -19 30 22 -103 -113 -85 10 -61 60 -83 -44 -77 122 32 -32 96 -64 31 -27 66 -35 -16 -28 116 119 11 -10 112 87 77 -46 124 -79 72 -26 -61 119 102 117 -10 -45 73 58 -83 21 -75 -28 77 24 -71 -122 -113 81 79 114 20 2 43 -76 50 64 -48 -5 84 -20 96 -27 -60 -104 -127 -107 32 -51 38 112 -124 -127 -47 57 16 -10 -19 80 -9 110 102 65 -108 -75 -20 72 88 -67 126 36 -5 8 53 -28 -25 66 -60 73 93 -90 123 -5 20 -104 -12 26 110 -42 72 -15 76 -38 -122 57 -84 -4 88 113 -16 115 -86 -68 68 22 83 3 -10 87 -95 83 -39 -119 67 32 -28 81 -126 -44 -70 15 -5 107 18 -47 85 95 101 -22 109 -13 -99 30 104 -62 -89 -77 26 -56 79 120 30 -47 25 -28 13 27 -121 37 27 38 96 -125 -19 -126 32 90 32 52 -16 110 -117 -102 118 25 3 71 8 45 65 107 -20 -32 54 45 45 -126 -43 -127 -81 46 15 28 -94 -52 -97 -39 17 113 79 21 -13 117 -11 9 -83 -36 -20 108 42 42 -11 11 25 -23 63 11 42 102 52 115 -89 32 99 58 -16 37 66 -120 -79 25 2 3 -42 125 21 -47 -20 63 77 -127 8 -12 -112 -58 -56 -2 36 -123 105 -107 -12 49 -31 8 102 -38 -99 104 -6 -32 38 -82 66 -15 50 112 91 21 64 47 -28 22 -97 -122 50 -123 -117 -102 60 -56 -91 47 64 13 -54 -6 62 -95 -83 97 35 36 69 -42 111 76 45 105 99 -110 84 -81 -80 14 27 -91 112 103 105 21 -127 96 42 74 -74 -23 -112 -50 87 98 -83 -49 61 83 -123 51 105 74 66 -16 36 23 75 30 103 39 57 10 9 -71 109 -69 95 5 -34 -113 -1 72 45 -103 -118 -42 -55 102 29 -83 -57 23 42 -21 -107 71 103 113 -20 -122 -8 -127 -112 -98 -80 13 -37 18 -80 58 39 43 12 -63 -4 18 48 28 -125 20 18 -23 -79 125 -45 -14 -24 22 82 -72 112 64 9 68 79 -100 32 120 -78 -64 -87 -78 99 74 -8 5 -92 -17 -99 -113 -68 -61 101 -75 124 -81 57 19 115 100 -28 75 -110 98 -107 96 1 -5 -84 -88 69 
39 -33 116 55 56 -61 9 -23 -99 -105 35 -93 -58 10 -33 -33 93 44 -119 33 -83 86 106 120 80 12 -103 -110 -120 -34 -98 -54 123 116 5 125 43 84 -53 -121 -113 126 111 118 32 83 -22 81 -78 -101 -107 118 20 87 53 86 -26 99 -46 -76 8 -11 65 9 -54 -59 -30 -56 100 62 52 102 -31 -84 -111 -50 68 17 -65 66 74 49 22 -1 -91 115 -118 -38 -61 121 -59 89 26 -42 -33 -90 -10 -63 -47 -105 19 -74 16 46 36 20 -30 100 68 3 -42 -127 -79 64 -89 -72 55 50 4 -80 18 -33 86 120 127 101 -109 -78 -120 50 -124 -81 -58 -71 -122 98 77 -108 -25 -43 24 26 54 109 -32 -66 -72 -10 -107 42 56 123 1 76 108 90 -75 102 -4 -88 43 -95 -8 -55 127 -52 -73 26 8 -80 69 40 96 -82 80 25 -82 -3 -8 -109 -114 -88 82 -74 -77 -89 -38 -68 -28 116 105 55 4 108 -93 -43 -74 -61 70 115 9 -71 66 37 84 -20 42 46 80 23 99 -89 -62 -97 -117 0 23 -73 -48 37 -35 -104 -124 8 -59 -85 77 -93 52 -83 98 -92 -46 67 -40 72 -33 -103 61 67 64 -65 -61 -72 118 -44 13 -80 50 21 -55 15 -37 -36 -4 -53 -48 -53 -119 -64 110 42 -109 106 -34 -42 88 0 110 -113 -57 74 -25 10 5 -50 89 -56 -105 -101 -12 -59 -63 -102 -108 -37 104 31 64 64 -119 7 117 5 11 46 -33 -108 -113 -116 25 -18 -45 54 -123 -30 -85 -77 57 -93 91 -106 -101 98 72 -107 -92 -31 -26 -111 74 10 -96 46 0 -16 27 78 5 -97 12 36 -16 99 32 18 -98 60 -81 24 -121 11 -17 -59 -101 69 64 104 -66 108 -5 -58 2 -109 -102 9 62 85 -116 24 -119 -20 -2 20 4 35 37 21 -106 -92 -66 124 35 118 59 -43 -100 52 -52 125 24 108 -103 20 -72 -82 -107 78 42 -123 -5 110 108 125 -95 -91 4 72 -30 92 -38 78 -119 104 113 123 -17 -116 -70 102 -15 -28 -58 20 89 -35 -1 -110 95 -125 -34 -52 98 99 2 -47 -112 64 -72 71 -27 -88 8 26 -39 45 104 77 17 58 111 95 49 -72 80 -32 -31 -22 54 33 117 -117 90 113 -89 62 119 62 -65 -2 68 108 -84 113 120 -84 97 -49 118 -91 -83 -103 126 59 29 50 -5 -3 19 -105 -62 -40 -31 13 45 36 -100 0 118 -102 -54 52 13 -31 -51 97 -70 91 55 -77 -29 -50 69 -58 -84 25 118 -10 -30 88 -13 -31 
1 -100 -54 -27 -105 -75 -57 -38 -100 81 -102 -66 -78 77 -14 -44 -33 -89 34 62 -3 -63 -13 5 37 13 -58 101 5 -29 80 63 11 118 -1 -6 66 -23 116 -25 -23 53 -118 -83 93 47 -30 8 44 -14 5 -32 10 89 4 121 25 -24 5 -27 120 27 -63 126 -8 -125 -20 28 30 6 -4 -106 -27 -68 -21 -38 49 -98 123 6 -39 -19 -100 -111 6 11 97 -10 17 -60 -70 111 14 -38 23 126 11 -7 76 16 78 -55 -108 -49 26 21 -27 37 -39 97 -71 0 20 56 124 -88 86 -39 -34 10 28 -9 -119 7 -67 2 -87 27 -114 -85 15 -18 -104 -102 87 -18 90 24 -50 -21 58 -109 -76 92 -59 73 112 -71 -58 -13 16 -40 50 -46 106 88 -82 123 -6 102 10 0 -96 95 43 -111 106 2 -99 -117 -7 74 82 52 52 118 -81 -64 28 70 -45 39 72 -63 -106 89 29 -2 86 -17 -33 54 17 53 -20 75 96 85 68 -9 93 -57 30 -22 93 -77 49 46 118 -6 -89 -97 -96 94 -48 -71 20 16 -75 -57 -15 78 123 -64 -27 62 120 -103 -113 -75 -101 44 115 -50 71 -7 86 -113 36 -26 -77 19 80 121 -19 -26 -60 -31 -114 41 -10 33 -80 5 -100 98 -76 82 56 68 22 -63 67 120 -80 17 -104 -124 122 -27 -87 -38 -20 -50 17 -2 -93 -47 -10 -12 90 98 -31 34 72 35 -96 -18 -49 -124 -117 54 -85 -100 16 -3 -116 127 -20 -113 -114 2 59 17 10 -7 -113 -81 100 -48 104 -61 121 50 56 85 35 -75 19 64 -25 -65 86 5 106 8 -96 -73 -14 -92 11 74 33 12 56 77 -113 -42 91 6 93 73 98 92 48 -94 16 10 70 14 110 -104 -25 111 -18 75 106 -108 -21 -101 121 -23 98 -9 27 -97 52 86 13 -1 55 62 26 23 118 -127 53 -39 -81 -48 -113 -31 108 121 -97 45 -123 57 40 -26 95 41 -50 5 -60 111 87 -89 -79 83 46 -118 -15 -58 -110 -100 13 108 -116 69 99 -35 -12 -42 -84 104 -22 -74 -38 -27 47 30 -89 106 16 -92 7 -44 -52 -104 97 -37 82 -33 70 -42 96 56 -64 118 -74 -116 -82 -118 -118 -109 -31 -116 85 71 -8 -93 -10 -111 -125 28 -124 107 -25 -89 120 -111 116 -10 83 101 -49 -83 127 -99 91 -7 -52 -52 -9 -120 -96 -1 -103 -126 -15 -38 -127 -84 -32 118 -9 -1 14 -104 -16 -84 -35 -5 -125 70 17 -32 -84 88 69 61 -105 -114 -33 106 82 55 -14 -71 114 -64 
64 52 -42 6 112 -27 30 -122 112 25 77 50 -1 95 116 -36 -24 101 -86 73 -122 110 -90 102 36 52 88 1 -17 10 27 105 59 20 37 93 23 85 92 91 68 47 -88 -3 -103 -96 32 -126 -25 -64 74 60 -14 5 -51 21 -87 -15 -50 -89 -50 40 -88 9 1 -112 -114 15 -77 104 104 -2 69 8 30 58 -92 47 36 48 1 63 -20 114 80 -107 -5 -66 -32 -92 -108 -72 40 -16 -46 126 -35 -105 38 -66 -27 100 74 -106 65 116 -108 -67 61 -73 114 56 37 -38 -75 45 74 104 78 -33 -1 -104 -48 -96 96 111 -94 -104 -9 35 63 76 14 -24 118 69 32 -120 97 -55 -9 28 -121 -118 -122 -112 -42 12 50 -15 -50 12 -87 122 22 17 -51 -8 -95 -101 -106 -78 -82 55 -101 114 -45 96 -67 45 20 46 114 27 24 -94 33 -89 107 -46 90 58 65 125 -52 66 -78 118 96 -111 -102 100 -119 62 12 16 -109 -43 122 -25 32 -90 -40 -46 -53 21 -36 101 -111 93 -103 -2 127 107 -47 -55 -4 -98 -114 40 -15 -77 -30 119 122 -99 -96 19 -56 -12 -86 -74 -60 -68 -3 95 72 -28 74 -117 67 -108 -71 6 77 45 -91 -32 -11 -46 45 -31 119 109 85 66 12 75 67 21 -14 -26 110 119 -27 -52 -77 31 49 98 63 -66 -107 46 108 -55 11 -73 122 20 -43 -9 -107 -38 40 5 -88 50 -73 67 109 -56 -37 16 -75 -5 -99 -32 -40 -23 -33 -70 -64 115 -25 24 58 101 125 -68 -74 -12 61 16 123 -106 -71 99 110 92 39 -1 88 -39 33 -88 -102 -107 -91 -104 -71 20 -32 -23 -57 51 -69 54 -20 -91 -78 122 -57 47 -54 -71 61 -16 109 50 -125 -113 108 -23 -28 -125 76 -101 28 7 64 -30 16 -81 -125 72 -95 3 -124 38 113 77 113 -115 123 35 -92 -97 -127 -42 -45 -72 104 -45 42 75 18 66 103 -68 -2 -85 88 76 -97 89 -90 87 -22 -48 12 -16 -103 1 110 78 -13 13 86 -108 -95 -49 116 -123 -81 -96 27 70 -16 98 -97 36 -45 -62 -25 -121 126 78 -122 -124 68 67 25 -70 -9 55 51 92 78 -123 38 92 -116 40 -106 25 -113 -20 -81 -21 -111 -88 -117 103 49 63 -120 -74 -65 -94 103 105 -11 -24 -21 -32 -14 -57 121 -114 54 -118 121 127 56 -21 103 -85 -95 113 81 85 37 7 60 123 6 -52 -68 -22 46 111 -66 17 -40 41 103 113 -87 12 126 -66 -59 12 68 -106 -66 54 -91 95 77 -35 
65 -110 -120 61 96 66 90 81 89 -96 69 45 -67 -80 -107 -11 -56 48 -18 63 30 -37 65 -86 2 -27 -121 -79 -9 107 62 -2 35 -42 -5 57 -98 96 10 -101 100 2 -49 13 119 -50 107 94 -2 -58 -102 68 -21 -20 46 15 43 85 86 118 124 59 36 48 -66 113 59 -127 71 -78 10 52 -78 104 108 -123 -47 60 99 -33 105 104 91 115 -34 -42 114 -86 -91 124 99 49 -18 -117 -101 -61 -14 -119 -124 -7 -92 30 -96 22 12 -59 98 9 120 84 0 95 -117 80 100 120 -14 -43 -46 117 -100 73 122 -47 76 99 -73 101 101 122 67 -93 -74 76 -11 -114 -97 113 -99 65 -18 -121 93 -31 -57 -72 -122 -35 -105 -84 19 -121 46 -74 -85 -33 35 -52 45 -24 123 -1 -31 -105 38 29 21 21 -9 -84 45 -91 34 93 -80 11 25 -54 88 34 122 93 -6 22 9 -105 -3 16 69 110 114 38 -66 -15 24 73 127 -39 88 -118 -47 -6 43 -117 -121 25 1 73 -30 -54 53 -35 95 -15 -78 73 8 17 -17 50 8 -67 42 -42 94 -27 -34 -70 49 -91 39 -25 90 11 -27 90 97 36 44 116 -28 6 41 -84 84 43 -116 40 55 32 -66 -47 -49 61 -87 68 -95 -105 17 88 96 -25 70 -83 -101 68 -37 -91 91 -67 124 85 21 94 69 124 -36 -13 121 120 -33 9 106 11 114 -98 103 -80 115 17 31 -90 -120 -23 -42 -107 113 -28 -11 61 27 38 127 8 95 -57 56 -103 79 14 -34 109 -114 46 -124 79 -72 -31 2 -121 114 -5 -39 0 96 -44 74 59 61 8 72 10 105 -82 26 -22 -59 19 31 23 75 -14 -50 34 73 15 59 49 83 93 98 101 102 94 -52 -7 -6 92 -34 67 -39 32 -121 -49 -87 -42 5 64 -91 127 -108 -48 -90 -89 103 -25 20 34 120 32 91 56 55 -25 21 114 117 114 113 81 96 113 -118 -109 88 -109 -59 73 79 51 110 24 42 54 85 91 117 88 80 -11 -95 39 -34 -70 122 -5 25 11 104 -68 76 66 69 37 -19 -5 24 11 41 -36 -90 -1 -125 96 8 -56 -102 -117 -31 43 -28 -36 -12 6 73 101 15 -49 97 -12 31 13 44 -122 44 -10 29 -66 54 -75 -75 124 -118 20 -47 117 -99 -49 17 33 -62 33 88 23 96 101 86 -76 52 -90 14 -12 -29 59 41 -14 -92 -74 48 -7 18 108 78 -85 87 -7 -65 82 30 -106 78 -108 -69 -51 79 -7 -89 11 -62 22 -48 -109 
-20 21 14 -4 98 -110 -115 64 26 114 -47 -112 85 -74 17 -30 -22 69 127 20 -1 116 9 -87 -114 74 -19 5 117 31 23 81 117 81 5 16 -24 2 -63 119 101 -115 17 -16 108 -70 62 23 -72 126 -31 -3 -117 -21 -92 -115 -19 5 -17 -45 61 -62 119 -46 -90 52 -73 -78 93 120 127 -42 107 72 -62 -41 111 -60 -31 16 99 -49 88 -113 77 -54 57 -79 75 10 123 -66 -56 27 -9 -4 72 -80 86 -39 32 -65 -36 31 1 2 71 -104 -12 -98 -74 50 55 -42 -109 -79 111 -123 77 -38 100 123 108 -5 -47 -95 89 24 84 1 31 -95 91 125 -32 -97 -99 93 29 51 56 -24 58 17 114 -23 25 -42 -21 -115 -72 61 -16 -45 66 -29 -108 -19 -103 -105 24 -36 34 -27 35 57 56 -67 122 -113 -30 -79 125 -14 52 -76 26 34 -112 3 -93 -55 -42 92 -109 -87 -5 -46 124 -9 65 115 7 -4 -33 99 85 -38 60 70 35 44 61 -69 -119 -125 60 118 51 53 51 -106 93 -88 -65 -64 83 100 -86 -117 11 -122 -9 55 33 42 17 41 -17 -84 69 -38 5 98 -107 13 31 -20 112 -17 89 90 42 24 -64 -110 -116 66 -86 -89 -18 -93 -65 25 -65 84 76 -107 -111 -40 65 -1 42 -58 25 125 12 -56 -24 -91 85 121 -30 8 36 0 50 54 119 30 -31 -10 -105 -91 -122 12 50 63 33 69 27 115 -41 71 -15 -111 68 124 -121 -72 -1 -94 -71 33 53 -105 108 -12 -15 81 -17 -4 -94 -53 -32 -82 87 -58 4 -100 -78 -11 -111 108 -62 -122 93 111 -93 77 -16 -84 -31 -98 107 -70 103 -89 -10 44 -25 79 64 113 92 -95 83 -106 123 5 -97 -62 95 -105 -18 84 -100 62 74 38 -57 -54 -81 -67 108 -37 -30 -95 -59 61 -111 40 -125 35 71 98 -117 33 83 113 81 -24 -1 31 24 80 8 86 79 68 -18 -24 -27 117 -46 -102 107 10 -95 -43 -88 113 -89 69 -116 69 -119 66 8 -56 -113 111 106 93 69 84 -57 -22 -25 -55 78 39 -103 8 -66 45 30 -22 -103 15 -35 -117 24 15 -29 59 20 -114 45 -72 -4 33 -80 -24 -31 -48 -67 -61 -64 59 -57 49 105 -85 58 -111 -32 90 63 -7 -7 -47 49 -53 95 -112 127 -44 41 105 53 -102 9 -60 60 66 -25 3 47 -63 82 -126 -61 77 57 -40 -59 -35 34 -81 102 -95 116 -32 -50 -94 -106 33 -72 72 101 -120 62 -87 19 70 -83 -100 126 48 -16 33 
-48 -52 -11 95 60 100 77 -117 -33 57 17 -23 63 -56 -1 2 -119 44 -78 126 -10 -90 -32 23 54 87 -69 70 -48 -32 119 -60 65 76 -9 -29 76 -57 68 -10 -26 66 -80 57 1 80 45 -65 -116 35 31 -64 -127 -83 85 116 89 57 -65 21 102 122 -27 -26 -25 -10 -111 97 -111 77 20 51 7 45 14 78 -91 -55 40 53 -62 101 -14 47 112 -13 111 46 -5 100 -77 102 66 60 63 -81 101 -21 -65 42 83 78 1 -85 -99 -92 14 65 -76 -56 7 -17 97 54 84 -68 -46 28 -28 -23 -118 82 35 20 -25 -59 103 79 -7 -68 -27 -92 41 78 -113 -79 -64 -117 27 5 -111 62 -11 -9 -98 39 87 80 -64 32 2 -14 91 29 117 -54 -50 -91 13 -68 -68 -50 91 -19 25 39 106 -44 21 6 116 -89 111 -38 -84 122 91 -21 72 1 -124 6 -63 -88 -109 127 103 -92 85 -43 -124 20 27 -9 -87 -106 34 -79 -106 -44 -9 -35 -122 -62 -68 112 -110 -85 -44 71 70 -125 1 17 34 -75 63 -48 -41 -40 -92 76 76 -11 -71 -57 -105 63 -48 -61 -21 117 -6 -115 -111 91 78 96 50 -20 115 -42 -112 -112 1 30 104 89 121 -120 -21 125 52 -104 0 -94 127 85 -113 -37 -71 66 -33 -123 24 -62 -82 -56 91 -113 -118 68 12 -84 -12 118 -13 31 56 99 -15 0 82 115 80 87 114 -25 96 59 -115 -22 30 -26 75 -64 -44 6 119 -55 -52 42 -8 2 4 -124 -14 -30 -92 -38 -2 -54 66 76 7 -18 -50 -103 -56 -57 89 118 -69 -2 -75 -81 35 87 106 -8 104 -45 -32 -59 123 -105 -21 -101 -64 -81 -5 -32 34 20 -103 -105 16 32 44 -100 54 -114 -87 -91 -55 -10 -60 105 -31 -92 -33 -37 -7 108 -50 -89 68 125 -94 114 127 91 -72 116 -70 -93 -116 8 -88 -11 91 -105 -109 -44 -15 -92 97 74 15 -24 -27 -31 -124 82 -60 114 95 14 2 -19 -16 114 64 -89 -101 -22 -42 68 44 -33 62 -59 107 23 -3 54 -23 -73 55 123 64 75 -123 94 23 85 -69 71 -77 -37 55 -78 -97 -89 127 4 86 20 67 31 -107 -75 106 -6 14 49 118 58 -12 -40 -94 -26 62 -19 -126 119 51 76 91 -108 -117 -84 -107 46 53 -65 68 120 -78 124 -70 85 54 38 -51 26 -16 -48 54 32 2 25 48 110 49 -57 -74 1 -119 -77 -61 -75 -56 -109 3 -98 -48 24 9 46 -114 1 103 22 70 -18 93 -27 -57 98 32 102 
-38 56 -80 87 -48 -61 -3 72 24 -99 -124 13 -50 -96 104 125 -107 -116 22 -121 26 27 -10 72 -91 -20 -52 -23 73 -81 7 -60 116 -86 -73 98 83 -62 -43 119 -121 -41 -116 13 -87 -35 65 -122 14 -55 119 126 112 -40 -74 -110 -92 -88 75 -113 -35 62 -45 110 -7 65 -86 -124 6 25 64 -25 60 -44 -67 68 43 -72 -78 63 5 -18 86 -41 -42 -76 110 17 -90 55 -108 67 -3 37 125 -123 -100 -75 75 -69 60 78 -91 -98 -113 -67 -110 -40 64 60 86 -20 -6 -105 -102 53 -29 -105 -25 -15 64 20 13 -75 -76 -97 6 89 24 74 -19 -15 -32 -76 -69 7 -43 7 -32 -38 -108 71 64 93 -123 -77 -33 93 59 -49 -82 8 -82 37 -70 14 -7 119 8 90 -114 -57 101 -49 -28 42 74 -49 97 -10 105 110 -108 -3 30 17 -4 78 82 52 127 3 49 -117 39 -66 -107 99 19 38 -121 17 60 -119 -113 48 -123 -73 -111 55 -125 -30 31 113 117 -6 -124 18 -100 -93 -17 -112 98 -93 95 30 36 97 93 -68 -36 -118 -44 -7 -31 127 -110 101 3 42 -8 -60 57 -16 29 -22 108 -69 -36 -2 -60 72 116 33 -126 -98 76 72 84 -54 -87 114 -17 72 -108 -80 -36 -7 -21 100 -21 -55 -107 -95 33 85 28 70 80 -18 105 -7 12 -113 96 113 110 32 -28 1 -3 74 89 -39 9 -21 126 -91 -41 50 -24 -8 -76 -98 6 22 5 112 -28 -66 -38 112 11 112 76 20 -122 111 -73 -27 89 81 -95 -8 -52 -1 -38 95 -62 119 -47 -14 58 -108 -99 -87 -3 -28 -66 105 -8 76 -86 68 105 72 103 -76 -92 1 -86 95 -91 74 -2 85 47 8 -31 106 -87 -57 -96 57 -3 -8 -84 -31 -84 89 117 -69 -90 40 -59 56 -119 -96 -91 -35 -90 121 -22 -18 126 72 -17 -15 -28 -36 37 35 80 -64 -16 -116 -3 112 -37 -80 -111 -75 -17 56 1 -107 71 -50 118 79 51 -79 108 -6 92 -35 -66 -58 -127 -87 99 -127 57 86 -118 50 -101 -115 -125 -27 -97 -71 -120 -110 -37 -126 15 0 -64 50 31 -110 -111 -70 -87 -98 -74 -72 76 92 -7 54 20 93 97 -114 -55 -119 -120 8 -52 -4 -102 127 112 100 56 -50 35 92 65 73 85 22 53 -19 -2 55 44 -105 -107 -106 -87 34 32 80 124 -40 105 74 -40 -47 1 12 48 -68 -73 -101 -47 80 -63 -82 -98 -9 12 21 -50 -106 -40 15 33 -51 121 -1 -59 108 106 66 94 96 79 -110 
105 -111 93 126 16 -115 -39 -110 -109 -74 -50 -59 -122 -71 56 43 25 -111 67 -57 82 -83 23 24 -91 -84 -104 91 -44 7 -4 -9 20 64 -7 118 98 63 -35 -125 -16 -36 25 -10 30 16 13 14 -17 34 69 102 -34 -125 -22 123 -35 42 -109 -121 -89 115 97 31 -88 71 -63 -101 62 73 -117 41 -116 58 26 24 -37 -116 -108 107 -73 -21 9 -105 68 -82 28 25 70 -87 3 -6 -87 -17 -96 -35 -6 66 -27 44 51 -55 96 27 77 23 19 54 27 -113 5 -32 17 12 -57 -92 -55 -74 -42 -86 24 103 45 49 -44 -70 -10 -76 101 70 71 12 45 -98 -122 102 127 6 -117 10 106 31 86 -54 26 -115 -60 10 -55 18 -127 -8 32 64 46 125 20 121 64 41 -53 -2 -28 -89 -104 -122 14 36 28 -118 -90 106 58 15 -42 31 44 -89 77 -104 -3 56 -111 -34 13 0 -125 4 -33 106 -50 -93 -126 -32 76 -2 74 49 -108 91 -76 48 7 108 -93 -54 -9 91 101 31 47 -50 -7 96 43 -103 -97 -81 -24 -89 -65 -58 67 40 4 98 72 6 -42 -84 -86 80 108 -36 62 9 25 58 -58 98 -110 92 -86 72 -41 104 94 98 49 112 -40 61 63 68 -32 4 -2 21 -89 123 -111 68 -109 27 -38 -65 -80 -39 6 -87 91 -75 69 3 -90 -44 -119 -22 127 57 42 -126 33 -97 -22 -10 -31 -48 -47 -109 -96 107 32 80 121 52 24 -48 -32 119 -92 31 -90 41 109 54 -54 -37 -75 109 33 100 -36 1 66 -27 97 99 -41 105 125 36 -11 -69 106 -118 83 -125 81 111 116 70 -57 -17 0 23 -6 -44 -27 42 -67 -47 -107 114 66 -38 64 -106 16 -107 -91 -32 -88 4 98 -81 5 -68 -29 98 60 -24 -80 16 -14 90 -50 -15 109 23 -100 45 -100 -118 83 2 -71 -32 25 2 82 66 108 113 62 78 -7 -47 -35 -74 70 -9 126 53 127 -103 107 -10 117 -62 82 12 98 -19 -112 116 3 122 -29 79 33 111 3 51 -16 -55 -68 -24 85 87 -17 4 -6 116 75 107 -14 -5 -117 -49 58 70 85 113 64 -83 95 80 -36 -3 -78 108 -48 16 29 33 30 -6 77 17 41 -13 -96 -107 -118 -103 76 -13 94 -121 115 -64 10 64 -63 -29 -108 33 126 -77 105 -35 -82 -104 -72 -93 -114 81 22 102 93 -32 -33 93 -62 -96 -83 88 -70 -55 -123 -101 -93 -11 62 124 31 -10 -26 -101 91 105 55 -60 -59 15 90 109 -106 75 108 -18 
34 -52 18 56 -35 1 -49 106 -89 42 108 -51 -75 -106 77 125 6 -79 -9 -60 -39 55 43 84 13 -83 -84 98 77 -70 -18 -116 62 -93 93 -96 98 -109 -119 39 -16 72 -55 -50 33 16 120 -39 124 -91 73 -91 -36 -114 73 78 60 -25 7 50 -106 -16 76 -69 -33 1 12 105 101 -103 126 107 -10 4 -20 -45 57 -57 -5 -60 77 -36 -75 26 -44 38 -30 113 -88 -62 14 88 -49 -42 -8 -3 -114 3 -103 43 55 65 80 32 66 13 -88 -57 2 63 -72 55 80 -31 -73 -110 -13 -50 127 -48 112 -96 -70 72 100 -7 -17 -49 -32 99 69 -119 -8 -93 81 50 118 24 -81 41 -23 7 84 106 65 9 40 92 27 -93 -57 -126 -120 84 -82 109 16 92 -27 -78 114 35 84 -13 127 82 78 10 -66 -83 -27 -11 -67 -85 -46 -75 -126 -27 59 -22 112 60 -43 -83 -37 15 97 -98 108 -63 -64 -89 -120 125 67 60 -21 36 -119 65 -43 -6 118 -77 -46 103 42 -22 -105 -101 14 -71 56 -5 -31 101 -75 -99 -55 77 -34 -72 78 -87 -9 10 -13 -23 10 -54 42 -11 -26 -86 -63 -106 -30 -79 -99 47 -39 74 117 -29 85 126 34 65 -84 50 0 1 -9 -68 45 -122 99 69 94 -118 -35 65 -95 7 110 97 100 -85 -65 56 103 -124 -78 72 13 93 111 95 -14 -63 36 122 -63 -64 29 -58 -74 -88 -59 -115 -123 -71 -22 47 23 50 110 -74 121 67 8 -29 -63 39 -113 -87 -62 59 74 -58 -91 -3 -51 41 -82 49 61 -37 -60 3 3 14 21 9 -58 -114 52 33 47 -112 -53 33 5 92 -109 23 -80 -107 -54 -17 26 -57 73 109 77 -73 -23 -36 34 -58 116 -64 123 10 -60 24 51 -47 90 -28 -104 95 -3 -114 -17 -109 -116 82 83 67 28 45 58 48 100 116 -71 -2 -117 -28 2 -68 92 116 106 83 92 30 80 -15 80 -111 78 48 99 -45 120 98 56 54 -109 104 -55 -88 67 -89 -55 -39 -37 -18 -57 77 47 92 -79 -37 66 -18 66 -72 13 -20 98 -96 64 -64 -80 -101 111 58 76 26 10 -79 -32 40 -37 56 -38 -121 -5 -38 -43 -4 71 -22 -118 -7 7 -126 68 -114 -27 23 106 88 31 46 -18 53 -49 -114 59 -115 -62 -35 106 27 86 0 109 1 -105 -116 -125 20 107 -10 -44 -65 -79 -41 -58 44 39 15 99 75 44 50 26 54 105 72 -82 115 -70 -44 85 98 63 84 83 -25 110 63 -40 46 -111 -119 -64 -73 
-112 113 -94 42 30 54 113 98 -8 -70 -118 -96 22 -43 109 -5 -106 -87 33 115 -109 -44 -30 66 5 -3 115 -74 14 -20 27 -51 -73 -18 112 -40 14 54 -89 -62 -54 -44 -19 1 -42 116 4 54 95 80 -94 -23 -55 -30 -29 88 32 -50 17 122 11 84 29 85 103 -106 13 52 -32 -52 -110 -5 127 -108 28 104 -25 -51 77 57 64 -37 -85 -109 84 -119 21 27 8 22 -100 -15 -17 1 -25 51 -68 50 20 -86 -71 -21 -58 -113 -34 75 21 98 51 58 -125 66 19 25 -99 -78 -23 -87 -52 -66 2 117 -92 -88 52 22 82 -57 23 90 15 -84 -72 -55 -16 69 -101 58 28 -98 18 63 53 122 28 86 82 65 48 121 123 100 -31 -48 0 -80 -32 -31 119 -116 44 -93 97 53 -61 -55 42 -66 101 -113 22 -13 61 71 80 -118 60 94 -104 46 121 -71 12 63 75 -116 -30 -68 -91 69 10 86 4 -82 5 -50 -52 -58 -51 -114 -44 41 -98 -27 -56 -73 -20 60 -85 81 -69 -79 60 -60 -114 -73 -72 85 -42 87 -79 -119 -52 -123 68 40 -1 71 77 -23 74 48 70 -16 -95 37 -115 -60 -87 -40 84 86 -120 107 -22 117 -19 -60 26 -35 -37 71 46 41 2 85 -70 117 52 38 14 -9 26 37 -124 44 -78 -120 114 -21 119 86 -117 109 102 -6 -57 108 -37 -8 86 -26 112 -21 -97 22 8 74 80 45 12 112 -83 63 -102 -3 90 -108 -113 74 -125 47 -66 43 -54 -104 -57 -56 6 76 -32 -84 -127 -49 106 83 -87 -50 108 98 -50 -64 -69 -81 77 -83 20 -44 103 28 -114 -125 83 103 -95 101 -7 49 -109 119 5 -54 -91 115 120 -121 51 -78 26 91 61 83 28 -1 123 -101 21 -23 101 3 26 -76 -22 77 58 -84 -11 62 97 -63 -97 -48 126 116 59 -70 -86 -22 23 19 32 70 30 -95 73 -41 -33 126 -18 -78 34 -99 -12 92 22 -6 2 -69 55 12 -62 -88 95 -2 6 -55 -35 103 -123 122 -18 -79 -92 43 126 92 -22 -34 -40 -40 -1 -59 20 -46 -118 -52 -28 -113 -10 88 -101 -37 53 91 -105 -122 10 -100 97 31 6 2 -16 53 113 105 62 47 -11 51 -87 -117 -92 18 -79 -126 -122 -55 125 116 59 -53 -126 7 -116 -67 82 0 -48 68 -85 22 -51 -107 52 -10 -58 50 -14 104 -48 45 27 42 -29 -68 -89 99 76 -37 -11 -42 -16 -62 46 67 -120 -104 -112 3 -116 90 58 -14 54 28 32 -55 -14 -91 -72 115 
41 -104 -111 -13 22 -57 -50 125 33 4 36 96 117 -103 -115 -64 42 46 -70 90 22 -25 95 59 -69 37 41 115 93 53 -121 -91 31 90 45 -19 -70 -71 57 -16 46 -18 -42 9 78 -42 -6 -37 -2 95 38 -3 -55 99 115 22 8 -72 -68 10 -75 45 -33 56 91 105 75 -2 116 -95 -125 -104 79 86 115 78 89 26 -85 -48 63 11 10 103 31 93 -91 -125 -1 87 -105 61 93 -37 -8 -121 43 -112 33 23 115 -77 20 -110 -50 -39 -117 61 -73 -32 101 17 23 -125 -83 98 7 84 51 99 57 21 71 30 64 -48 65 -92 6 45 -115 5 75 -9 20 11 -117 -81 -4 1 89 56 61 38 100 -89 -96 -105 -16 -45 16 -74 44 -77 -73 28 -85 -16 -58 -126 70 -127 -99 -124 -102 108 -32 -6 -22 -10 -25 124 -70 -33 -69 -83 -44 40 83 -67 -28 45 26 -99 6 37 -20 25 68 -80 -42 8 -58 -74 113 -29 91 79 106 -37 -66 -105 31 46 -25 58 126 54 -62 64 -88 47 18 83 111 -126 105 101 127 55 12 40 -36 -30 -98 26 -15 51 -100 115 39 93 107 -54 -72 -35 24 -70 -114 77 3 79 66 33 -87 -94 -113 -29 -36 34 14 48 -87 -41 32 33 17 -67 125 113 -48 -118 -25 5 74 -119 -32 62 16 -112 -82 -93 -58 -61 23 -65 15 -91 -100 67 -87 -74 -82 -69 -106 13 12 110 23 -97 11 -68 79 -63 -77 -44 -12 5 114 98 57 -114 -96 83 91 -14 -10 12 88 80 -26 63 -25 -84 -90 119 -54 33 -13 -119 -52 -40 -74 95 104 98 -28 -37 54 -87 80 -119 -7 -38 -40 -19 -74 -12 -113 -93 43 61 -98 -28 -68 -14 41 50 117 80 -69 -41 53 -1 -63 32 -114 -123 95 112 -16 -36 36 97 -118 -59 105 57 -19 -20 15 42 123 -68 -2 -68 18 -3 35 96 -11 60 46 46 41 52 38 -67 -43 -118 85 68 91 92 -6 -55 -84 -80 -123 -37 -27 -71 -16 106 78 28 -77 -31 -73 -45 -19 23 57 61 88 -19 84 -107 -3 13 -111 97 101 89 37 -108 -26 -95 119 -67 -122 113 49 113 -80 78 87 -68 37 61 84 -92 -15 -22 -42 -91 -87 -61 -103 -69 33 -19 -68 -12 -29 -114 -8 4 94 -25 15 -14 -121 46 125 -100 83 7 -66 92 29 121 57 -100 67 -63 17 82 -90 -104 82 48 90 106 -110 25 -104 127 98 -30 22 -81 76 79 109 58 -82 71 21 -94 40 17 71 -111 26 76 68 -84 -122 49 92 -106 
9 -86 -112 -36 -115 17 -4 -98 -17 98 -25 24 127 -27 39 68 -108 41 -75 -46 70 -116 126 -37 116 -61 4 -6 126 18 -78 53 97 2 116 -38 93 105 49 -23 -79 -41 20 45 -111 17 70 91 -34 37 43 -117 6 -15 45 -56 -45 41 -62 44 -8 4 -42 -89 -61 99 -58 113 -10 -118 57 -39 -46 -100 -66 90 -116 -64 111 -36 -76 88 0 17 48 18 -37 -106 -57 -95 -61 65 105 92 -24 91 103 57 12 -28 31 111 -15 -79 -83 -63 24 48 92 53 41 -58 123 -88 49 -49 102 -54 5 -76 -116 80 -7 -40 112 111 -77 88 -127 -27 -97 2 96 -119 94 54 -127 -115 -102 114 48 23 96 39 57 -45 -73 -76 93 -23 -96 59 -11 -48 -10 -115 -103 125 -7 -91 -83 -7 -109 33 42 60 -61 27 125 10 -102 -28 -56 94 -78 -60 71 13 -61 -29 7 71 -88 -125 -79 21 -2 -75 -51 -38 71 -123 -29 107 7 -124 125 14 106 14 32 76 -70 -101 -61 91 -73 -83 -97 118 103 -35 55 14 -71 25 31 26 38 33 -114 -34 -127 84 -81 73 43 -63 126 38 -22 -58 113 123 70 -113 123 37 -10 69 -90 9 -29 116 111 23 -113 -20 -83 109 -7 66 88 69 93 -48 40 -117 56 -126 91 51 3 13 -93 -25 8 77 124 -18 -80 124 60 11 73 -30 -8 74 -54 63 -75 -48 -112 50 30 100 -22 43 -32 -72 29 34 52 90 100 -36 79 126 107 -27 86 -58 -65 9 -121 68 4 9 3 -99 -11 50 108 -103 30 -70 -110 -106 1 6 -72 1 71 38 11 40 -40 66 -26 -57 87 50 82 -75 -43 -4 -84 75 20 -13 -70 -49 -77 -16 -21 -25 -104 32 96 -9 -71 0 3 44 -106 87 -95 -79 41 -42 15 95 108 -14 -96 101 -13 122 -26 47 -42 -39 -87 35 -79 84 72 -88 -18 116 -59 42 46 -54 118 56 -41 -127 -49 30 -59 19 -57 -82 48 -93 -80 54 62 -18 36 23 -111 64 -37 44 62 -53 -72 79 2 16 -118 19 -77 11 -2 81 -90 -16 -60 -14 -26 -91 66 -102 111 13 -51 -42 -9 62 -15 -34 -62 108 -33 57 -43 47 91 -55 79 -110 0 5 42 92 -75 -9 11 9 45 -104 -89 -37 -34 17 120 -44 30 20 -63 32 118 -83 71 -30 -80 -36 46 72 -75 25 42 38 43 -9 102 9 43 113 -57 -38 -52 124 65 87 -9 91 114 23 -69 75 48 86 -71 62 73 12 33 -54 -75 -74 43 -70 101 115 -25 -14 -102 -67 
-120 86 -68 51 -60 72 73 -46 -15 54 36 -101 -26 123 -23 -30 121 -95 -15 102 -75 9 -125 93 -48 -126 -31 55 81 -21 14 99 -122 -91 -17 -21 109 -39 82 26 78 102 17 3 -93 127 29 83 103 13 -23 -7 52 71 53 58 101 62 45 62 45 -86 88 -106 -16 -15 102 -62 -13 95 -85 9 119 -71 58 3 6 34 -30 95 -75 -100 104 60 111 34 -64 -73 -112 -37 14 30 -47 -34 -50 64 -104 25 -10 96 -112 83 91 -81 -1 -92 -73 -70 -46 15 122 121 0 84 -10 -92 72 107 95 -84 40 -33 -69 51 117 109 106 7 -66 120 -9 -87 119 28 -85 54 44 -5 -124 -77 59 57 -97 27 -50 97 17 69 106 -101 -13 88 106 -104 -121 15 9 124 -100 -127 64 14 -67 -30 102 -72 0 40 -31 91 -28 -76 9 86 -29 -99 97 -56 -16 90 0 51 -10 -81 81 -70 50 -107 38 -96 -116 -123 -64 9 -2 -93 -117 -15 -53 3 -29 -45 -96 -30 -19 -127 122 -40 -81 -88 -18 -124 -70 -11 -2 16 -61 86 -43 -23 103 -111 48 -38 -41 -48 87 61 87 57 5 -118 -71 -51 106 -118 -10 51 42 -67 -49 -93 73 -86 30 -60 15 -2 107 -24 116 -3 32 70 -69 121 67 -109 -59 -119 124 -65 36 85 -107 -62 94 69 -64 -44 -63 47 -118 84 102 -34 115 -36 -18 34 39 83 16 40 68 123 5 -109 68 -75 -8 -39 -105 -58 114 0 -75 -97 -81 89 6 125 -52 -105 -39 117 66 -122 55 -1 47 98 -54 22 -90 51 -20 118 -124 41 -67 32 -22 70 6 -88 96 -115 -113 -40 -57 -99 104 -61 -114 28 118 -21 -44 -101 -81 120 45 -102 -101 115 50 57 85 84 -3 -80 48 74 107 105 107 -40 -60 52 56 -10 115 101 68 62 56 -117 -56 30 -13 81 -50 37 -115 -73 -124 64 103 32 -17 17 -127 -12 -38 -61 -109 21 118 -51 48 66 -124 -22 70 -69 -32 65 -7 -111 -28 -53 -68 22 48 -69 88 44 54 34 57 23 105 79 62 104 53 80 -35 -110 83 -112 -16 42 31 -102 121 -69 -91 -57 -119 115 105 127 -85 104 -96 61 -19 -119 96 48 88 74 -24 -116 49 78 7 -110 25 -98 -87 43 72 6 -100 -11 126 -91 -125 -66 93 10 -115 -81 87 -34 28 -34 58 -46 -32 -84 32 120 -117 21 48 2 -90 -32 -116 20 119 84 -84 84 -19 -26 102 -113 -123 85 -103 -96 -83 126 -89 -24 -27 -108 64 99 95 90 -25 -83 35 72 105 -111 
-66 -123 -108 -33 -39 30 110 -35 44 -48 -18 -34 78 34 69 -124 76 52 5 18 -113 110 -52 98 89 -40 116 -19 14 -108 -122 40 26 -127 -82 -29 23 -79 -120 -109 60 91 110 -122 45 -103 -72 116 -47 11 -117 39 -125 -55 115 64 -83 -119 -10 24 -47 121 51 29 14 121 -66 -8 -76 -102 39 46 -123 100 32 -66 84 56 -25 14 0 -56 -109 -78 3 13 -89 93 -13 86 -91 -83 -85 -25 25 -67 -119 -59 118 -32 -47 57 31 -114 -75 88 -29 119 10 93 61 -97 -6 -11 106 3 122 -25 30 -23 -115 2 67 28 94 98 62 -30 74 -31 51 106 14 -60 -46 -54 -59 48 127 106 86 0 47 99 -121 -60 -110 -4 6 -99 -84 6 -11 -106 -14 64 36 22 -92 -13 95 -51 30 -88 -40 -1 -66 6 40 17 -20 -2 33 -100 -90 65 -127 15 -122 -29 -49 -124 -50 104 97 55 -1 -43 18 39 -59 46 -77 -49 -87 26 -104 -87 -61 48 116 4 -54 70 74 -15 -126 0 -19 124 92 -88 78 -95 -123 66 81 25 62 -6 -40 100 -64 -100 34 -67 59 20 -35 -97 11 -87 -70 86 -46 33 -21 -108 72 -106 83 58 -119 -122 -95 43 66 -48 -57 82 59 108 113 -73 80 -68 -102 -79 57 93 53 -35 -84 -91 -35 90 43 -83 11 74 -97 -99 31 43 32 -64 83 85 109 -99 -121 79 74 -77 69 -2 92 4 26 -112 -116 19 108 -45 -31 81 47 72 -22 -4 28 -21 56 -95 -83 -90 -71 -94 -51 29 114 95 -60 39 40 33 -108 61 -76 30 -47 -16 110 87 -94 -124 -32 -89 47 29 -71 100 -121 77 53 -39 -113 86 35 -73 -6 108 -28 -81 68 70 40 69 -50 -4 -43 36 71 115 71 77 30 -11 46 -4 -54 -98 50 2 -65 -73 7 -56 -90 18 -82 -48 -65 -55 70 32 81 -104 -12 -111 -47 79 74 -69 86 95 -75 -121 -34 83 12 -44 55 79 19 52 35 70 -10 -108 90 -85 43 32 -127 -61 -111 -44 -108 18 113 126 -18 -30 -99 13 -4 -97 23 -35 -52 80 102 -99 -27 14 3 70 45 100 47 -43 -3 26 71 34 -43 -99 -19 -71 116 -61 -62 -88 -125 12 46 76 91 20 83 -114 18 -21 74 -75 61 63 -65 72 -17 -12 -71 -14 33 76 -28 -112 84 84 68 123 -86 -65 103 77 -36 57 -57 -8 38 -99 -74 -65 -110 -22 25 -6 -86 -122 -125 112 -15 9 29 103 88 34 -41 -57 27 116 71 26 -80 14 103 44 -44 -56 58 39 
-61 -25 72 -62 -63 -76 96 12 6 -83 27 71 -55 18 15 -87 28 94 -47 -60 31 42 77 70 96 -49 21 -110 40 -71 -7 -26 72 73 -59 91 35 67 11 -95 -76 100 -60 7 -73 -6 10 50 83 68 -119 48 -85 91 -100 3 -114 124 -22 22 124 -21 -84 7 117 25 -16 24 -66 11 59 -125 27 -127 -103 69 -68 124 -83 99 0 -4 32 -114 122 -28 -119 46 110 -1 61 -22 -22 -8 91 -73 -120 -3 15 90 65 -89 -119 -100 50 -1 46 26 73 90 92 100 -14 87 99 -26 -42 -94 91 16 121 -106 -125 -80 -14 -66 88 86 122 -99 -68 -61 102 -38 -4 2 86 95 -104 60 91 -9 113 32 -10 -99 -125 102 -17 -120 -33 88 -65 -102 -104 -91 -87 -65 42 -65 116 124 121 -41 -111 41 -21 58 85 -105 -83 104 35 -24 -19 88 -2 46 -57 69 -21 53 120 -119 -126 -30 26 -45 -91 -60 60 32 -45 1 -46 85 58 43 -30 63 -123 -66 105 -38 52 -114 -63 -8 -89 63 -41 -52 117 33 -33 -2 113 -32 -91 119 73 -84 -109 -49 -21 -13 -33 2 -88 98 11 37 -27 -38 -2 52 -104 -73 -72 -103 57 40 95 127 55 114 -44 -62 -71 120 -59 90 22 -10 -65 76 -70 42 116 64 -116 31 -5 -68 79 -121 19 25 103 -111 -19 87 63 75 67 74 21 73 -50 108 -99 14 -25 51 2 102 -110 -75 -59 49 44 -86 -27 -101 -105 27 72 -38 -103 -61 54 -78 67 73 -83 -100 -88 -121 -107 -39 62 24 -111 52 -2 47 -88 -77 40 108 30 -103 -1 54 57 -87 -62 -52 -46 -17 -43 -34 89 -57 67 126 85 120 -46 30 107 -62 102 96 -58 -78 -27 11 6 77 -124 78 -69 -114 114 105 -82 -101 14 -94 -45 11 16 22 -56 2 96 8 118 -111 30 54 121 125 68 21 -112 -40 14 52 46 127 -60 89 44 -36 1 14 -110 -10 -30 -85 36 67 -49 43 39 17 48 -10 -25 81 -62 8 114 -91 106 -119 121 24 127 62 22 -2 116 52 28 -7 97 -21 -21 31 32 -108 -122 -61 13 47 -127 118 -29 -87 49 -53 53 119 119 -84 -89 -32 37 110 118 26 53 81 8 -33 -62 -72 -125 -45 -6 -71 -4 -2 -15 75 -84 -119 5 -7 -124 -37 -74 -20 3 41 36 -4 110 0 11 65 70 43 -99 92 123 127 42 -42 32 -54 39 -116 -12 3 52 -110 96 119 74 -93 40 -45 -20 -15 -126 -74 58 -43 48 -126 14 -78 50 -56 -24 85 -55 70 
37 3 -99 -19 105 113 102 63 -124 -48 40 -114 -15 -100 -73 26 13 87 -42 93 123 106 123 -67 -114 14 -14 -125 -98 27 -31 73 -88 -46 25 -9 84 -94 -117 38 85 -94 -22 -62 73 -93 -45 -41 75 -55 -28 4 95 84 -99 -56 -52 56 82 82 98 8 -31 -101 -41 -2 31 -43 -98 -120 -26 28 44 99 122 -50 33 105 -107 -108 57 80 -30 -122 31 20 98 -105 -86 38 -72 69 89 -64 -115 -126 -119 -34 99 50 59 -117 23 -16 -46 -9 91 -21 81 88 57 -98 -61 123 93 39 43 90 85 -92 40 -1 -87 -33 93 55 -11 -85 -69 -61 -113 12 120 -75 -108 40 25 117 -86 -5 92 -117 -87 -44 -88 126 -33 74 -110 -117 71 36 -11 -108 -77 -70 116 122 -115 -39 87 -80 126 -123 -36 113 122 -37 -78 46 -37 -30 -33 -50 -77 -49 -64 -60 102 71 -2 69 -110 -117 103 -126 109 111 13 -109 100 -119 -6 -116 76 73 108 11 12 9 -16 98 -25 -116 -95 14 -47 7 -53 -78 -44 -66 66 -43 -35 -121 -68 60 -109 -108 -92 51 -8 97 -53 55 -86 73 -72 66 2 14 -112 -90 116 97 -94 -90 -90 99 -53 23 -32 -110 14 49 3 10 85 100 59 -51 -127 18 -81 31 41 93 -50 -57 -84 83 -102 97 15 36 45 125 104 -42 -36 104 -66 -43 99 -95 -86 -2 12 120 -50 -41 -117 44 14 -2 -64 73 80 49 -70 27 26 5 55 -90 89 101 -122 -72 -31 -22 -127 104 44 -117 7 -86 -126 -43 -38 -113 -33 86 64 71 56 19 22 14 18 92 75 -46 -117 -34 -95 -115 -34 -98 3 116 91 114 39 28 100 67 -17 -113 127 122 55 5 -45 -79 113 118 -121 74 64 31 21 79 19 124 25 -56 -48 20 -62 -100 41 -108 22 -51 -102 47 -8 -114 23 -114 -42 110 30 42 69 -99 -33 68 -93 90 20 46 69 -97 119 90 87 2 105 -111 -65 -3 -122 99 -30 67 -33 94 40 -90 -125 -42 -118 -78 17 21 26 -64 -85 106 122 -61 31 126 75 -12 -114 -100 123 84 -91 64 76 127 -101 69 99 -112 5 -31 26 -72 -60 53 -113 -122 -107 50 80 118 18 -104 -57 63 -76 113 -52 40 100 88 -54 70 -54 -56 -102 60 91 43 -117 -102 -51 -42 -89 47 -127 0 11 -26 -31 -79 72 111 -120 -58 -105 91 24 -18 -120 -41 -78 127 -75 -45 -34 106 -73 23 -110 -120 52 -22 -13 -6 -116 -127 -99 7 26 -126 115 116 -21 -13 90 80 118 -60 21 -107 
59 91 12 3 -69 87 -60 52 -115 -104 78 63 41 21 73 102 -46 74 116 37 -62 -77 44 111 -22 43 -86 46 -68 121 -75 96 108 9 -24 -103 88 -28 -54 31 -23 43 -73 -17 34 65 -13 -42 9 -43 -66 50 57 57 67 -91 -111 47 41 107 -8 -47 -5 -92 102 -93 -99 96 -51 -80 27 -79 9 -89 -22 -121 63 -52 115 -94 72 -114 108 59 42 22 72 118 24 -52 -30 -5 -74 -36 85 -1 49 -51 84 -125 28 74 -74 -51 -50 69 79 -22 82 11 -99 53 125 -12 -6 37 -112 70 -111 -93 -99 120 -50 57 14 120 116 42 -104 -103 6 -102 47 -10 -103 30 88 75 -113 -90 -76 105 31 -50 -112 -25 -68 -99 -78 125 -69 11 69 113 -84 -26 -92 122 97 113 97 -38 0 -104 74 -62 -72 -104 12 64 72 98 29 51 -11 -5 -64 -18 -12 78 87 -114 52 -76 39 84 68 47 39 -79 71 -30 96 109 12 -61 1 77 122 -106 -30 75 12 121 41 -117 58 111 -53 15 73 8 39 -82 91 74 71 -67 28 100 -64 -44 84 10 82 -75 25 -97 -49 -19 -121 126 -60 -42 -45 64 124 40 85 -127 -14 -95 56 80 101 71 50 22 -9 77 -42 27 77 23 97 -48 106 5 35 -48 -121 83 116 -30 22 -36 96 -45 124 114 -5 -126 -85 -51 44 -11 47 22 -91 13 -100 -52 10 -123 -80 38 66 -67 -73 -38 8 -2 -41 68 10 69 -67 -28 -108 105 -3 57 -94 55 82 100 24 -34 -29 -64 -27 -12 -124 40 -60 36 41 -44 63 60 -127 119 76 36 -74 109 -122 20 -25 10 -101 93 121 92 -23 -29 -9 -17 -10 47 21 -102 -127 -79 -2 50 -108 -74 60 -123 -110 -24 -89 32 116 107 -49 115 89 -120 -91 -107 116 -18 -23 -22 -34 -16 -16 47 12 56 -83 58 116 -72 -57 108 -96 -66 100 123 -38 -38 -79 -124 -62 -15 -116 43 -42 -102 -26 2 -83 45 40 110 -50 -116 -55 -110 -95 -12 63 41 69 -7 -124 -116 -25 82 -3 -81 42 -25 27 79 -60 -4 85 -82 -12 60 -85 -120 53 -118 -56 -87 65 -102 13 -75 -28 -41 57 -44 21 -69 93 -85 -67 -62 -88 -126 70 -52 67 60 -80 105 -96 61 99 45 -3 -110 -71 14 -41 -126 -92 -107 55 118 -82 97 112 -71 -28 -38 97 -110 74 -104 2 60 103 -38 -83 110 -50 12 33 76 52 79 -82 -79 -122 53 11 32 -44 90 63 -88 -36 112 -106 -125 58 -92 42 86 104 -55 53 20 -49 85 
108 -28 118 97 -115 -23 -109 118 -28 -124 18 -111 -68 -102 -4 -17 -73 -30 9 -84 -77 -7 15 108 -54 -48 -25 -59 -75 -20 45 116 50 34 31 -113 -66 65 -117 36 -41 -62 -107 -56 64 36 -3 62 39 -52 77 52 43 9 1 72 -3 48 -52 33 90 -101 117 103 101 28 -57 -16 117 98 -109 -63 112 -45 29 22 99 24 35 11 -1 89 107 -70 -38 50 99 16 58 -97 4 -118 -18 -87 -16 -36 29 102 94 -92 83 -15 -66 -30 9 61 88 83 -39 102 19 -66 105 55 -67 -28 -80 -83 -76 4 11 44 100 -96 -83 84 -51 -24 67 -73 117 -76 -26 69 -91 97 -28 -87 -63 41 71 5 -32 123 8 92 -6 -108 87 27 -52 69 -63 79 22 -102 13 18 -25 -11 95 38 23 88 110 -93 121 -52 -66 52 92 8 -45 -113 71 -54 -8 -92 -111 83 11 -85 -23 -66 126 -123 104 -19 16 101 -43 -127 -39 119 -25 -64 15 -13 -21 -8 45 88 10 89 116 -54 -35 -64 -127 -3 0 62 -68 79 82 -87 102 -15 -53 -23 121 -83 -127 64 -20 67 8 -103 115 -2 117 -23 88 103 -83 61 -37 -4 -60 -125 10 -65 57 -5 -46 5 86 2 5 37 29 8 39 -55 -48 -2 -98 -43 -103 90 54 -13 12 53 121 -120 -42 122 -74 -110 -34 -8 -125 -61 67 -105 -64 94 -84 -102 65 8 -81 26 67 -80 -41 53 20 106 58 124 -90 -27 32 -115 101 -91 -54 -60 107 -119 42 41 -125 80 -37 -87 34 -70 -47 110 -96 -107 91 -16 -96 85 -23 -33 -37 80 64 -29 -27 50 85 -81 -121 105 13 -123 -70 79 -36 -71 11 -11 27 -108 -120 -110 -114 17 -26 -91 -76 -82 127 109 -45 39 -73 83 -111 31 -125 14 37 55 -73 -55 -54 39 98 -20 -30 46 40 87 40 -29 107 123 50 11 6 99 93 92 -9 -42 -37 123 120 -23 97 32 -91 -47 -127 79 15 90 63 93 57 -44 -88 55 -107 -70 -29 7 -23 72 127 41 111 -52 124 -90 74 -125 120 -15 -119 112 115 -91 -62 -19 -48 -102 119 108 109 25 119 -69 -88 26 35 107 76 41 -75 10 -38 56 -27 109 -31 93 -101 -39 -43 44 -109 -96 -114 -24 -115 -102 -79 -87 55 -115 -109 -4 0 17 -20 33 124 -8 -50 6 -34 82 51 -125 25 -66 70 -42 123 -95 115 -85 -23 -74 121 59 91 7 -84 -127 -17 122 -49 92 -120 -32 15 -37 -30 -44 120 70 -79 -121 -39 51 -39 61 118 -21 43 -12 -50 30 
