-22 -126 27 -70 18 34 39 124 97 -8 -121 -45 42 0 68 -127 -125 70 39 -87 -52 -89 19 110 -44 11 -28 -83 75 40 100 85 66 -34 -43 -119 -122 5 -102 17 117 93 10 27 5 -91 -91 -57 73 -16 -50 -106 52 105 62 24 62 115 104 99 36 38 73 3 107 -86 -90 -16 -21 -80 62 46 83 61 -82 -52 123 -49 -97 -95 -73 44 106 -102 82 -56 -29 18 7 -75 29 60 -72 -6 -39 -77 -15 -28 -111 60 -77 92 -61 95 -95 -23 -15 50 -123 0 25 -96 33 -40 127 3 76 58 4 -59 74 100 14 72 -11 -4 -36 -17 33 -16 -105 83 54 -88 53 -38 89 -28 -125 37 -100 -59 -38 -126 -61 -108 91 18 -97 -9 44 41 -59 78 108 74 125 -98 36 -15 69 -108 -72 -15 79 63 41 33 51 -31 -29 -122 79 -64 110 55 113 53 -112 -65 35 -55 -43 16 112 -118 59 -2 45 -118 -117 67 -15 -95 -93 64 98 -78 39 -71 118 89 83 -4 -90 -15 -5 -108 -10 -124 97 -74 14 -37 22 39 -107 10 -126 115 82 116 -126 64 84 -1 -94 -84 94 95 63 71 -64 5 31 26 25 -38 -28 -74 55 56 -78 -116 80 -83 -58 50 6 98 65 -6 -67 84 -41 -98 -73 -48 -62 103 -9 9 -124 -119 93 19 62 -30 -86 117 59 67 113 -105 93 -60 20 20 -116 -34 127 -113 30 -31 73 -69 58 97 -22 13 -94 -88 117 99 101 -109 126 102 -15 93 -115 67 113 104 121 24 -53 -126 -76 41 41 -125 -50 -49 41 69 15 69 -11 -13 127 -43 -28 119 -89 -100 69 112 51 -120 -27 37 -41 -69 84 48 82 44 -98 -111 -111 48 -71 -118 -79 7 -47 -39 120 -72 99 -84 -36 -72 -84 91 -61 85 -120 10 76 -99 103 72 -121 -107 8 87 -28 54 100 64 111 52 -19 -101 61 60 -123 43 -38 -54 -67 66 -78 108 -66 110 108 -60 83 -68 72 -125 -31 113 76 15 -80 26 0 -18 4 21 -18 119 -50 51 -14 -27 -48 126 -37 60 -26 -112 63 117 95 -5 -90 -68 -104 -99 -26 100 -59 117 -113 -111 -4 75 72 -18 -88 80 -80 60 -93 85 94 -70 108 -64 -103 -7 -59 -7 102 -92 -104 10 -127 -25 -60 55 15 50 -78 -88 -42 -74 -123 -37 18 67 -44 -118 118 13 24 104 -52 -52 -54 -82 -86 48 98 -124 75 112 -4 55 -127 118 -21 103 -87 51 -61 -20 7 117 43 -24 -90 7 90 -39 -69 -44 -15 -83 -97 63 52 -8 -121 62 66 2 
106 74 111 83 14 -38 23 -2 -71 33 73 91 88 1 60 -61 7 -72 -5 99 -77 -7 -27 48 39 35 -97 -113 0 100 4 -117 -63 46 18 69 -99 -78 -60 9 10 61 -40 -113 121 -26 12 88 47 3 66 -17 -19 68 -66 -16 61 117 63 56 -73 41 -127 -126 -29 -72 70 73 26 -6 3 9 45 44 25 -24 -1 -1 61 -50 96 96 -78 10 63 51 -94 -48 -17 -72 -96 -91 124 -49 97 69 -27 -113 -108 -61 -59 102 -104 -38 -58 -85 107 61 -100 27 -36 80 -61 59 -94 -126 86 -39 113 52 -21 27 84 -117 -94 -17 33 -70 -116 -95 -25 -17 -127 122 109 -16 22 90 -60 -64 114 -10 -101 5 -5 -92 37 -78 14 114 22 -34 64 -14 -115 120 110 -74 78 119 70 79 -35 -125 -59 8 100 104 17 72 125 30 -51 50 -103 4 20 -57 42 5 105 106 81 103 119 -38 62 90 -104 -26 2 16 -53 90 -108 110 -57 51 2 -44 88 96 -99 115 55 115 46 -62 -96 14 55 -67 33 -127 -52 20 -54 97 -49 117 -52 -8 89 -118 45 -101 75 -1 122 109 53 38 -24 42 63 77 26 34 -114 -114 -46 -67 -38 49 -94 -127 14 71 41 -51 73 98 -55 67 105 79 -19 91 7 -120 -21 -117 94 -39 91 44 56 -82 49 -44 -28 -86 -34 119 81 35 43 -54 90 -96 95 -126 3 -19 58 -39 -19 -42 -61 -125 55 -53 -76 78 -103 72 -81 -54 4 -16 103 21 -111 -2 -93 117 -39 -115 85 58 -74 37 81 79 -22 58 68 72 98 55 39 91 104 93 -97 -68 88 -67 -110 25 -114 -113 -90 98 1 121 115 110 -54 97 10 105 4 -91 3 93 113 -51 -83 118 99 25 82 38 -68 80 -47 21 49 -11 50 45 38 -77 72 6 22 -25 -28 -10 -118 -11 -99 -123 -63 -78 -84 -13 -24 -48 45 20 -50 107 -108 -31 46 91 -94 -64 -9 33 -115 32 77 -23 -72 80 93 -14 21 40 88 -53 57 -64 -70 -67 -107 -8 85 -61 -100 97 16 23 -45 -91 -43 47 -102 38 -87 27 -95 -15 62 -107 -114 11 -104 -15 83 96 115 70 -53 -53 101 -87 76 -82 96 -4 50 -20 78 115 -61 52 -49 -76 19 40 121 -27 71 -98 56 41 27 -99 3 16 -110 -44 -98 103 124 -106 18 22 115 51 -99 -14 101 -51 -21 -1 -113 -22 -25 32 115 73 -4 -121 -43 -91 57 -84 -48 -49 -70 -88 32 -109 -40 105 -122 -38 -124 -107 79 -69 54 -9 42 38 26 -100 
105 -17 19 52 -120 -40 97 -22 50 -71 -30 -110 46 38 -124 0 -114 90 -68 60 -114 -27 5 118 34 40 -45 -5 45 30 122 113 -43 -104 -13 -74 72 69 -40 33 111 32 114 52 66 120 -41 -115 1 31 79 -44 -58 -27 18 125 -72 -11 -91 -121 -17 51 104 -99 -83 28 17 -49 62 -51 125 -7 -19 -103 7 -115 15 -53 76 36 -6 -103 -120 73 96 21 -38 56 -4 -18 105 -74 18 88 27 -63 11 -63 3 -10 23 -100 60 41 -26 31 3 124 -48 16 4 40 114 -59 124 -16 87 -40 -67 -20 84 -2 74 17 -64 78 17 100 112 -115 99 -35 69 -73 75 55 103 -94 -37 14 10 -84 95 -90 25 22 18 20 -3 -72 -87 75 -92 9 61 -68 91 -15 114 -1 -8 98 -98 27 75 91 83 111 -33 -28 -56 -86 119 -98 53 -49 -51 15 127 -110 -5 -38 126 118 20 93 -40 -108 72 98 73 -78 42 -26 -7 -100 -116 100 -18 111 -59 48 -61 115 74 -115 19 -100 117 -45 73 -24 27 9 33 -86 -14 -13 84 74 52 -17 -64 92 10 -7 -76 119 82 86 -71 -72 -14 37 -13 -86 -5 -20 -12 15 -27 -12 -32 -83 -24 -13 -89 41 106 -62 -94 -53 -12 -47 -12 -95 -7 -100 -95 93 -16 112 76 114 94 22 -98 82 -69 -115 -92 21 -123 48 100 -19 86 59 -19 -26 -28 -84 0 -6 59 -93 113 83 23 -110 111 75 -40 29 -36 83 115 -5 37 -127 -50 -14 -30 -39 41 38 -80 62 -3 -51 -81 62 66 68 -124 7 46 -9 -103 -41 125 62 -75 -81 43 70 -70 61 -14 -35 -71 -82 -16 -67 76 -97 -78 -109 46 -94 70 -108 108 27 13 -98 56 -39 -57 -126 -52 -86 72 112 -57 84 -86 27 102 42 -23 17 -109 68 -96 -48 92 31 -8 -85 67 37 -55 3 70 19 -104 -108 -87 111 -3 -103 34 34 -32 -116 -106 7 -105 22 61 -19 -25 -29 -11 83 -2 65 -17 94 47 -74 -69 -84 -29 41 68 -11 -26 54 -50 24 99 -95 -20 14 -45 -20 109 125 -43 -113 -52 -52 106 -13 -111 57 73 -41 78 44 38 14 35 84 -57 -57 34 -112 106 121 84 105 -102 55 120 -87 51 33 99 -67 -30 96 -33 14 -115 111 66 -67 81 29 66 101 -102 -108 -35 58 -67 -27 61 -24 117 -73 -122 40 41 77 101 55 64 36 -125 -84 22 28 53 -11 85 21 69 49 -113 -88 27 122 22 -71 -57 -20 -6 -85 76 -53 -110 -90 40 34 -100 -25 105 -18 
12 -31 -73 -53 73 89 67 95 -121 -75 83 -39 -5 -118 8 85 92 -6 48 106 9 74 43 44 108 19 104 -67 98 -21 -17 -10 91 -117 73 15 123 15 55 83 80 66 -57 125 -79 -1 -87 1 -36 56 88 85 36 -123 55 -11 -70 57 -22 -21 -32 1 -57 -52 -70 98 -31 -75 33 50 -112 -32 -1 -1 43 -5 59 27 -125 -117 22 -92 -64 20 14 -97 5 11 -13 36 -100 51 3 123 -35 111 60 122 28 1 -43 -63 -19 -69 -116 79 -90 -103 -69 109 -82 73 99 -54 -56 -28 69 99 99 -64 -29 -76 106 39 -46 -101 -32 79 -50 66 -66 59 -72 6 25 -42 -64 97 103 -81 -1 14 16 -106 -81 56 37 116 32 -100 32 126 53 122 29 54 -99 112 91 7 -70 11 -78 80 31 97 -86 -28 17 19 -5 20 -61 -37 78 88 -18 12 -32 7 -17 32 -124 -38 85 63 -58 -52 121 27 44 -46 76 -89 34 22 65 118 40 118 -119 -49 -70 -6 -12 -79 -8 -114 -110 31 96 8 83 66 -122 103 20 28 68 -50 -88 -120 -84 -114 -19 -36 96 -1 118 82 31 -65 -75 28 -52 17 -90 73 -77 45 23 -85 40 69 -7 3 106 -125 26 -20 24 -24 -86 -124 69 -114 -14 -27 41 -45 -78 -53 -88 -48 40 118 103 75 -113 -65 85 -4 93 3 -118 -10 -92 35 -75 -12 -127 31 105 -25 -41 -111 -4 107 -44 109 127 -22 20 95 81 55 2 21 115 82 -100 -79 -83 101 -65 0 -31 -117 -39 24 -84 -44 68 69 -120 25 19 -55 -96 -21 -65 -21 90 -95 100 -8 -16 125 -80 -3 -120 53 27 15 82 -39 -85 -123 -108 90 -106 1 -10 114 126 75 19 -19 -84 85 -58 -24 116 -42 30 -68 -4 -62 -79 46 -102 94 116 29 -66 -52 -25 -12 92 3 78 -23 -53 5 -55 59 -31 59 -35 -35 123 119 -64 -109 -91 89 -86 -47 19 -3 55 -53 -89 -85 113 109 -118 119 -89 69 -114 -118 -76 -41 -78 -99 -47 -124 76 -92 -94 104 -97 73 -62 64 29 12 74 23 -7 78 -103 -67 -95 -42 122 26 -126 -24 0 37 16 34 -30 -92 -107 -19 82 -62 -93 66 63 -23 -95 26 85 100 99 97 -37 28 -77 72 -116 -73 92 65 -112 84 73 51 94 -96 63 -72 117 -114 -104 -96 16 54 -6 104 -37 100 -77 91 39 -114 34 -24 127 -32 -111 119 81 106 0 4 -26 -18 19 -13 25 102 48 66 50 96 -59 29 90 -119 46 37 -58 -4 84 88 85 -96 
-33 86 98 -124 109 -28 92 103 -100 -75 46 41 -37 30 73 -88 86 92 59 43 110 -34 115 -71 -14 7 81 -125 -19 -82 -62 -85 -123 118 -47 43 94 9 101 88 66 110 39 -105 57 22 24 16 109 100 -88 -81 -36 97 106 13 14 25 76 -72 50 -69 -11 117 82 56 29 12 1 65 -127 112 1 16 66 86 94 -8 -15 35 25 -116 -13 91 -106 -19 -1 92 59 85 47 55 89 119 85 -28 -33 74 -33 -4 -90 -109 -28 5 -122 70 15 -17 -57 -109 -11 -62 19 -126 -104 -113 7 98 39 91 39 -91 -104 -121 103 -123 70 -23 28 -97 53 76 55 41 -31 79 88 110 -93 68 57 14 4 -41 -24 -89 71 -94 -15 -70 -15 80 -31 47 -115 -103 47 95 74 -12 -81 -48 89 66 -89 -83 32 -119 78 -92 -119 -101 -49 -15 -107 49 81 -19 -26 -55 -5 115 -16 -115 -22 2 -7 31 -42 86 -93 126 -43 114 105 125 5 -66 -81 -48 17 124 124 74 20 -10 48 -56 -115 -45 -124 -32 -42 -54 15 93 72 -57 -89 -38 -92 -56 -108 -116 -70 99 -114 -110 34 -12 -121 -1 1 21 -34 63 -125 2 -30 -9 74 -37 -90 -3 82 -95 -92 99 -84 55 -43 58 1 85 -33 -19 100 63 -15 89 55 -4 -2 126 -17 126 16 103 30 -112 37 111 119 78 46 38 79 -52 86 78 81 103 37 -121 -21 20 123 -54 64 -119 75 3 -100 -57 75 20 -94 -29 -60 -36 48 -12 -32 115 -79 -123 123 30 -76 -53 -3 -84 -56 -5 -97 12 -90 -118 -57 -8 52 7 -66 -40 50 68 -58 73 -34 104 56 70 -57 -72 -4 92 78 -100 17 -108 93 97 126 -60 -80 78 59 -41 10 71 -11 99 -21 107 32 -83 -40 -12 -81 -72 -59 108 -41 126 27 -56 -92 112 127 93 -105 -6 44 68 -105 69 -46 -122 -72 -38 -97 -83 -16 93 -80 -1 34 -108 66 -65 97 107 24 -98 -5 -110 -44 106 -112 41 -4 -93 -25 -112 -56 -25 -44 66 -56 25 -41 35 29 -124 -98 15 125 -13 -1 106 -39 10 62 100 -62 101 -36 105 -107 -18 -15 -80 45 -19 120 -83 -48 -16 37 -23 -101 121 19 68 39 -107 104 -71 -107 -37 13 104 83 116 -35 -10 9 49 33 70 -94 -123 -46 -109 -5 126 40 -74 -58 54 97 105 52 65 -4 10 75 -26 93 -65 -98 22 122 -35 36 62 -58 55 70 94 -109 -57 -17 -56 -12 106 -79 -29 43 -31 102 -34 -17 -55 -29 126 -101 -45 -100 -83 100 -55 
110 38 48 -110 26 56 -30 30 -33 103 -54 -40 8 -120 60 -13 112 111 -79 38 -126 -36 -23 -47 -104 -95 9 36 -37 -60 43 -127 -72 6 114 -106 98 -53 122 -71 -34 67 81 -14 -120 58 -119 -43 53 -47 -81 127 -79 -76 31 78 66 -14 -73 68 118 40 63 -66 -25 -58 -40 15 92 -20 -122 -87 62 112 5 78 44 96 -93 22 -77 101 -15 60 17 -105 -94 46 -9 26 75 84 12 -63 -78 10 52 -22 -84 78 55 -117 73 -55 -78 -31 53 99 -4 -122 -69 127 -84 109 -104 19 118 -114 -102 63 22 88 40 -117 -70 -83 99 62 -106 -50 -7 -8 1 108 -12 80 -69 -25 -123 115 94 11 -56 57 20 66 94 -34 30 -29 -92 119 16 -35 -52 -126 -59 91 -48 47 30 -107 -60 -56 24 116 -107 -102 -55 36 -101 74 -95 -15 29 117 -59 -47 -44 23 -42 -99 -121 58 -60 103 -46 -34 33 66 -28 -111 -44 -6 -44 41 99 -60 -111 -109 42 8 -80 114 -71 25 -12 9 7 -37 -11 -91 -108 -24 13 91 42 87 40 -62 -68 42 61 101 37 -84 -17 83 64 -41 44 -44 122 -53 91 -29 -58 65 71 -8 11 -29 124 114 102 -77 -20 -1 32 -9 -2 51 34 83 -65 -39 117 49 86 80 -22 -42 119 -99 -86 -31 122 91 -37 -49 35 63 45 -116 -122 -114 -68 -61 -120 -102 64 -52 1 41 -113 24 3 82 99 -118 35 111 -46 -3 60 101 28 -11 75 90 112 119 -115 -109 -61 80 -101 -44 -59 32 67 110 61 101 112 -9 44 -100 -56 -123 -37 -53 97 -57 7 124 -123 103 -9 7 76 3 73 47 119 -69 -45 95 4 -42 98 52 -14 -66 106 71 99 49 -38 -69 -74 -87 56 -104 -4 84 -5 112 -20 55 39 96 58 -124 99 8 89 -58 -48 46 62 79 -35 83 84 -13 -96 126 -61 -64 39 71 -9 75 -8 68 -59 -51 27 62 -81 124 -91 107 43 -11 45 32 2 5 6 -38 31 -54 -107 -118 38 1 119 -103 40 -13 74 -90 58 4 -107 -14 75 -97 90 -23 -12 -27 78 -73 10 -111 -69 -10 -9 -6 -98 43 -65 -19 41 125 -86 -98 -117 -109 -14 120 24 123 -121 -26 -21 47 112 43 57 -61 -22 33 -88 15 31 83 117 -67 -28 100 104 97 39 24 -57 91 11 40 -49 91 -124 -90 -32 -57 5 67 -92 25 -25 -24 5 -37 -104 34 67 -94 123 49 -73 -88 71 -22 -101 -104 88 -37 -69 -38 85 88 -32 -25 -85 83 -89 -6 -52 -90 
43 79 -75 -98 -101 80 51 18 -88 -26 94 -45 -21 71 -10 -98 29 87 -36 -88 93 -122 57 -91 -40 -3 -94 -94 -85 -79 -58 -38 -114 -89 -95 -1 -119 -47 -107 112 -47 80 9 -92 -39 -50 85 -52 13 113 -63 -85 13 15 38 -24 92 65 -104 0 -92 -125 27 -21 80 43 97 -93 47 -13 -83 -24 -110 74 -122 104 -105 -72 -2 65 -5 106 83 -110 -83 -113 -23 -50 -109 94 -8 62 -40 -86 -55 -124 -17 -25 107 59 73 68 44 3 -23 -55 120 -15 88 -40 -27 -23 -22 59 119 -122 19 19 12 -9 -60 -108 -21 86 29 77 16 22 89 112 66 78 -29 -46 86 124 -33 12 -106 -86 -113 -45 13 -56 -25 -88 71 -82 -89 111 102 77 -15 94 -26 17 116 52 -88 44 4 53 29 -59 16 89 -35 -98 98 -111 -37 -88 -89 -10 120 -39 115 -84 38 43 125 0 3 -94 -107 -75 26 -68 -48 -22 92 -93 107 124 -83 -24 107 86 92 -8 -83 68 42 -99 -86 43 -108 3 36 -81 116 75 -66 -19 34 23 28 -56 55 60 -63 59 -68 -36 -44 -47 -11 64 7 125 -97 59 69 -52 -92 -57 -36 122 -14 -96 17 109 -41 -19 83 -42 78 -105 -24 127 12 3 77 72 -43 16 92 -71 -38 -39 4 20 41 126 -116 -4 18 -5 121 -107 -42 -113 -30 11 55 -108 -20 5 127 -98 79 3 90 98 15 -81 61 -7 -111 -114 43 -53 -103 28 31 -21 -50 -35 -103 -25 -125 -68 -84 -2 126 -73 93 73 -20 94 -66 109 -56 66 -8 -114 88 -14 60 102 4 102 85 -53 -41 -49 -67 33 -124 17 73 126 67 66 -54 41 -115 13 -72 74 15 20 65 51 22 -84 95 2 60 -13 31 -63 17 28 -30 84 -57 -62 70 -50 -39 68 113 61 17 32 -47 -9 -115 40 59 91 -51 -14 -126 -50 13 7 2 -121 -79 -115 -60 25 -77 27 60 52 -106 -118 53 82 -16 116 111 1 92 71 68 -21 -46 61 122 -79 71 -123 -84 -66 -98 89 -93 87 98 -5 -19 -121 68 -100 57 -1 -9 62 67 -117 82 -115 -89 -76 101 -68 9 -11 91 99 37 -49 5 6 17 82 -95 -49 -47 -68 45 -38 -94 109 -113 61 46 -68 40 -70 114 20 -77 -59 0 115 -101 -44 -100 80 -93 73 -46 111 41 62 104 87 -20 5 62 -50 -53 4 -57 -123 109 -114 -50 -101 -96 -30 93 -55 53 -92 35 90 86 75 123 64 103 -49 -78 115 21 -4 66 59 52 -25 57 -1 66 -91 23 -39 
34 4 81 1 -2 36 56 -15 -67 76 121 64 -75 37 -51 0 -38 -95 127 -45 -114 67 119 112 99 93 -73 74 -6 -6 112 -40 56 17 -36 -84 -53 3 10 9 -104 -56 4 -95 101 92 48 115 8 92 -29 85 -58 -5 69 22 68 -61 8 -69 -45 30 121 22 -19 81 103 -41 -29 2 123 15 -28 -66 -96 44 23 40 -11 -69 -74 -119 -126 116 -14 -53 70 21 112 64 36 64 89 4 115 62 79 -59 -15 -106 -114 -85 -37 -102 -112 9 -6 -22 115 -45 -55 11 89 43 -22 50 -69 -104 61 91 -46 56 -36 86 -125 -31 -78 39 -4 115 56 -114 -87 -52 21 17 -67 -58 27 -88 39 115 -57 -34 125 25 -12 -63 125 11 -16 104 111 -30 127 37 -25 -56 -10 -67 116 115 101 83 21 -98 49 61 -102 100 73 -47 -79 -19 -74 -23 -93 -23 -68 83 28 32 87 -22 126 -24 13 114 68 106 -46 61 108 -33 -102 -36 56 77 -19 71 -53 -95 72 -101 97 -14 -111 107 -41 64 49 52 -65 -67 57 10 -90 -3 -121 -39 81 16 16 14 119 13 -104 -80 -107 -22 5 46 -67 -30 19 39 24 -29 -14 -23 -87 -56 33 13 7 81 76 50 28 40 -89 -49 -111 -30 47 -68 89 -55 -85 26 -13 -3 19 77 -12 107 32 121 -112 -57 -78 67 111 -4 -23 -31 103 -110 110 44 53 62 52 49 17 85 -97 6 -21 -19 84 40 -15 117 69 52 76 63 6 -96 -40 -123 37 65 55 48 -96 -20 121 17 -123 27 -53 -14 78 104 127 -108 9 -4 -72 -89 116 109 76 -58 -32 69 56 46 -22 -5 99 112 -29 89 71 -29 80 43 63 29 83 -43 -120 -112 -107 -12 -41 -117 -112 -126 51 -117 109 -103 111 37 -17 -35 38 26 -106 112 -30 8 -124 -22 -39 32 1 90 -12 127 73 92 -82 -99 32 112 97 -110 23 14 -11 22 -4 19 -37 -107 -34 66 111 65 -103 124 49 -48 30 41 -105 -59 26 46 16 68 63 120 -10 -13 -85 -68 -34 -43 44 -27 5 -78 21 -120 58 -37 60 -47 49 2 52 31 107 115 47 103 64 -8 23 50 108 -96 -4 -112 -118 -61 93 -82 13 4 -55 89 49 -126 -90 106 -86 -64 108 52 -44 -44 -105 -68 -80 -100 81 -52 47 -119 122 84 117 94 23 24 -2 -62 107 27 -86 31 -16 123 75 16 -15 -16 -13 -61 -102 56 -43 56 -19 89 70 21 -49 2 -10 98 79 -42 -114 54 -4 -56 -43 12 58 112 83 -6 25 108 
27 99 56 52 -122 124 -113 -92 -72 112 115 13 -109 -127 -25 -13 -125 94 90 -38 55 60 -73 127 59 121 -6 4 86 -13 67 82 7 -116 -91 -25 25 48 43 93 -102 119 -31 50 34 24 -111 -3 -40 92 -39 29 -63 -118 -13 -109 74 55 -113 58 -69 -112 -79 -36 -6 76 123 -61 52 74 -101 63 -78 -18 -49 63 -69 15 78 34 -2 36 -51 -72 48 45 65 82 100 -12 11 -25 -75 -103 -79 59 31 90 56 -85 -41 82 78 57 -96 34 101 -46 47 -106 -78 59 121 124 -98 -58 110 -5 -1 -126 67 -64 29 3 -106 -65 -3 103 -26 43 47 120 -24 -39 33 -26 -121 76 92 91 82 105 41 46 -111 -60 82 -60 87 -92 -111 -89 -32 -65 116 -100 -87 65 -2 -96 118 -29 -16 -107 -34 84 12 88 109 -87 57 67 -6 118 -31 62 -93 46 62 -105 123 52 96 -68 -95 124 55 79 91 -30 67 -72 18 -10 -93 18 -51 -77 -52 -101 -44 72 -118 -69 14 -82 -33 25 -82 -40 -29 19 -75 -55 66 67 115 -47 123 14 -17 -54 84 80 -95 -111 -34 -90 -91 -96 -101 -80 -85 -9 114 -53 112 -58 -76 91 19 -97 -110 -124 -31 -27 -6 -80 -52 117 -2 47 100 53 83 -81 108 109 -80 -25 87 -111 60 69 2 -44 -103 33 -66 -88 -3 -27 52 72 -57 -90 -20 52 110 80 104 71 79 -89 -17 -97 -119 -9 112 -9 31 51 106 76 60 -123 -38 78 23 -86 -65 83 -35 -19 8 0 -23 109 -1 51 -100 106 -25 96 44 -5 -32 40 52 -125 73 50 -94 -33 -123 -118 86 -119 -14 67 -23 -12 99 -37 1 -87 -53 -5 39 -118 -91 -30 37 -16 -98 22 -12 -15 -67 79 7 -34 25 48 95 -34 -77 104 122 -119 28 -51 74 -12 -91 -110 101 100 -26 13 -10 -68 -89 -14 43 82 45 89 84 -73 29 -68 -108 -93 -79 109 -110 -43 41 66 -27 75 -39 -122 123 -115 120 -42 12 -111 -56 121 -46 -19 97 60 112 44 120 18 97 127 -85 -42 22 -93 29 8 44 -46 -22 77 -60 -112 -48 38 -2 119 -36 -62 94 36 23 -19 -95 13 48 27 -98 -34 78 -70 -12 -49 27 25 -111 -88 49 15 51 25 24 -17 -100 77 83 91 74 -27 -22 41 -85 105 -81 -82 18 -45 -114 -9 74 -74 -115 -50 47 117 22 30 -103 -11 15 54 -36 -78 -94 -21 38 82 92 95 -20 48 -5 -82 24 85 -62 22 36 40 -120 80 -16 64 -37 -44 91 122 45 63 -61 108 
-7 18 107 -98 127 24 -20 -79 -43 -80 -88 -27 15 -31 32 11 -121 81 116 27 -30 -54 -79 14 -20 117 -49 -115 106 52 -84 -111 74 100 71 -28 -68 -1 22 -33 -73 -53 120 42 44 125 25 118 62 -119 127 121 88 -84 72 49 -39 -76 -49 62 125 -88 -88 61 35 -38 -119 -71 -107 73 -125 -95 -9 48 -91 -108 -111 39 -74 32 97 -15 39 58 93 -120 85 115 37 0 -18 14 96 20 87 116 56 -29 106 -19 16 44 -43 -3 -88 -120 70 108 60 31 59 -1 51 -26 -51 -78 94 18 -119 125 127 -30 -66 1 41 13 -6 101 -58 -28 -89 -102 -42 -16 -28 63 -52 28 -78 -42 -36 -5 -64 -2 78 108 -57 -117 95 53 36 -75 -99 -60 -96 68 -64 -113 49 -45 -53 -85 54 -100 118 51 -92 104 74 -56 71 92 84 -103 -63 -33 18 -65 104 -43 21 -33 -48 109 56 -39 118 97 -91 -116 77 106 -96 -75 50 -31 -2 -2 -6 11 -27 104 88 -69 -13 -124 -46 96 -49 21 104 39 -108 -16 91 21 -4 46 -14 99 -20 23 -84 -72 6 11 -34 -28 -88 67 106 -61 115 -83 74 -69 7 -36 7 -42 -111 57 -38 90 -101 44 -120 36 33 -10 60 -65 -12 -28 -23 17 85 -104 2 -6 115 -96 113 -3 25 6 77 -64 21 72 20 -84 -45 -22 -30 -19 20 109 86 115 -31 90 60 88 -20 -105 8 -22 -33 -19 -107 65 51 -65 122 -68 31 -122 119 -96 -44 -53 -35 19 55 111 106 -77 -112 104 126 63 -3 5 -48 -105 -108 72 -105 69 78 83 96 8 109 -73 116 104 -38 75 96 101 -103 79 9 -123 86 64 -50 -126 77 113 -99 -116 43 73 -75 53 -30 -100 -59 -104 -89 121 44 -52 21 53 -116 49 -33 78 80 117 -77 16 59 0 -35 7 -115 126 120 107 40 -47 -28 -44 42 27 -76 -19 -101 -61 77 -83 -72 0 66 23 99 38 32 -68 -6 -34 -21 25 103 99 10 -60 -54 -13 102 -68 -62 78 47 -36 102 43 89 -32 113 -114 50 -10 -118 67 26 88 64 -5 16 105 37 119 -16 -108 -83 -102 46 -111 -34 125 116 -113 -126 65 -83 -36 -122 -62 69 -41 -111 123 101 16 -36 -69 -56 -30 19 -37 57 34 -58 -78 -49 71 62 22 77 -11 100 -42 -19 -90 -83 38 -41 -125 30 -40 -75 -106 26 105 5 -50 104 -29 26 -116 -123 -103 -65 15 110 78 29 18 -49 -40 1 67 119 -12 120 -39 56 20 -108 116 42 66 -113 -11 -56 126 
-87 96 120 78 -17 -91 52 -119 -34 -46 -73 -45 -73 -56 -77 20 12 -65 60 42 -47 -56 -59 -5 37 -22 46 -53 -49 -112 123 12 82 24 -124 82 42 -49 72 6 -121 94 3 95 -47 110 -51 85 33 107 22 -62 -42 48 18 81 87 127 105 45 -116 -18 -68 -22 -103 59 -24 109 -54 16 96 -89 -107 -99 -90 120 111 -11 111 109 -30 57 -38 -15 -108 109 26 117 51 -38 97 7 -37 56 -34 -22 -36 49 78 59 -98 78 -57 127 -99 -86 47 -59 19 81 102 46 -76 74 -52 84 -56 -82 -64 5 10 110 57 54 29 -55 36 -59 31 -81 22 51 -32 -31 -96 -91 73 -125 -41 45 106 0 -73 -70 -58 -102 -113 20 -7 14 2 29 58 -2 99 77 82 23 110 -72 -64 -116 -30 23 60 77 25 54 127 79 -81 114 112 58 -9 -112 80 -38 29 -122 -115 55 -2 53 97 -48 -115 -35 9 102 -127 -62 -48 19 101 -32 -20 -25 67 -51 126 103 48 -6 11 0 -104 122 -29 53 74 -122 106 79 9 13 2 56 85 42 15 105 -125 95 64 17 -82 72 85 -36 -106 -89 -118 -20 121 100 -125 -18 -74 -2 37 115 -118 56 -10 123 -63 109 120 0 -84 -100 -74 119 -28 78 -85 -63 116 -123 15 -52 59 69 -4 -3 -93 68 97 6 -34 -89 -29 120 95 -112 -50 14 65 86 93 48 18 31 -35 -26 -117 76 -54 44 -92 -76 -24 46 -20 -23 46 -25 72 125 -105 85 -3 -54 -12 93 -34 54 31 5 -52 -62 -55 -111 -9 -52 78 8 81 -11 94 -46 -57 31 -115 -89 70 96 -72 0 78 123 -49 36 67 71 25 -124 -100 124 -24 12 -2 109 -109 20 109 -44 20 69 -47 -93 -101 -88 12 -16 10 87 112 -25 99 126 -35 114 -37 -50 -108 -47 125 20 -24 16 -65 24 -7 29 -66 66 -61 42 98 -116 82 95 -118 -24 14 47 -96 -36 -92 -70 -21 -103 -94 66 46 -9 105 87 -121 46 94 -112 -108 41 -26 -96 74 106 -15 -48 57 25 34 114 120 121 -41 21 5 21 -109 -110 28 -93 76 -6 72 31 -46 -50 108 119 127 -64 -103 26 99 102 -67 -32 44 73 108 -69 -94 -25 48 -127 -35 -88 104 60 -50 32 -62 107 24 112 20 88 100 95 23 -32 -53 -64 -42 -123 23 -71 -35 -95 42 -2 -102 112 -99 -3 -37 100 -60 -88 -14 26 -56 51 91 -46 124 51 -5 -116 60 58 36 -106 -92 -108 -93 -76 -27 59 -56 -91 91 93 100 88 125 -29 
93 114 -99 127 77 -104 -48 103 102 21 39 108 65 -52 42 43 25 -93 -48 -91 -54 9 123 34 -46 103 -61 10 49 79 -99 90 -80 -101 -41 -44 82 -120 -59 101 -93 -34 -77 -1 -3 88 -51 -25 1 88 -39 97 62 70 -112 -1 -47 -68 -68 83 -57 -59 68 -64 123 34 33 23 112 73 -15 87 126 6 5 69 120 97 -35 46 -100 -117 -88 124 11 116 77 119 -52 29 109 -106 100 -103 101 76 92 6 61 113 59 84 -93 -11 -52 93 -24 -44 -125 117 -7 -29 10 -67 101 83 -32 89 -80 73 86 106 -68 -96 8 64 74 -64 -88 54 7 -50 -112 70 -46 126 101 66 68 -106 -27 -13 112 121 -103 10 -60 37 37 -17 -73 -56 -64 -1 -125 8 48 113 -108 127 -104 -109 -126 -7 13 110 -66 -100 -127 88 88 24 -39 -18 36 -34 -115 78 -10 108 -101 -109 -95 -26 88 -22 18 10 -114 -106 -98 -15 -22 -16 18 -35 54 20 -9 -87 -46 51 -86 -87 53 127 14 62 126 -101 41 -112 -116 109 8 -71 41 64 -66 -47 118 -70 45 -20 101 -72 -69 27 -93 -114 -78 23 94 -106 -108 -21 -14 113 -77 -126 0 112 29 -41 -127 -42 110 122 -82 -20 -32 51 2 -106 -35 -71 -3 -25 -13 108 -107 98 52 -124 -16 35 -32 -73 15 -91 -69 2 -17 -78 57 110 -49 -104 68 -75 -102 -25 -17 95 -17 51 -116 -108 33 67 52 -107 -43 7 -24 -127 9 -99 -64 -25 26 100 -90 109 66 -59 -30 -62 52 102 52 47 42 -13 43 -8 -99 95 19 -112 -86 9 -11 -53 -65 25 61 45 -3 88 -110 84 -22 76 -42 -39 60 116 25 -9 -93 96 100 79 83 104 -95 32 7 119 5 -74 -37 -20 -94 71 124 -63 -120 94 42 -21 94 95 -83 41 54 75 76 69 -76 -110 30 37 120 -81 35 -16 72 62 -16 -41 22 115 112 -55 -113 -110 -41 39 -123 93 -38 58 99 121 20 24 4 36 1 60 -61 -81 -26 37 -90 41 39 -73 123 106 -18 -33 -54 -4 -49 -20 -124 51 95 77 0 -48 38 -55 -86 -94 113 28 75 51 -78 116 73 14 55 20 -22 24 -113 -59 3 -110 -92 34 -127 82 84 100 -87 102 125 -55 72 -103 29 -10 31 -107 -38 -10 -65 59 -5 -13 -85 -116 98 9 22 -127 31 82 8 -43 124 12 -105 39 82 40 -71 -52 -36 -32 -104 -93 -20 -98 92 10 22 74 -94 -96 -92 -15 100 -125 -16 -101 63 -60 -77 -20 40 121 -34 112 -105 -58 
15 -73 -6 -97 -63 106 -111 3 9 68 100 19 -93 67 -66 59 -26 -64 31 79 15 -43 106 91 -113 -45 67 -26 119 74 -4 57 -91 32 123 -14 -62 48 73 125 45 -94 56 117 100 -45 -85 -53 -36 -115 72 6 41 104 -4 -81 -114 -107 -92 89 65 16 -82 123 -29 -18 -126 -76 -10 -15 -19 -67 -57 56 14 72 56 117 122 -4 55 -45 101 16 -78 -42 21 59 67 42 -79 82 -29 50 37 -38 -51 92 -92 67 90 -18 22 3 107 -94 -36 69 -111 84 38 110 -53 -58 13 -82 -17 -89 61 76 -86 52 -28 -75 84 63 -120 -43 83 17 126 117 -4 106 -21 -47 -88 -113 -23 -18 106 -32 80 -12 45 -72 11 4 -82 10 45 -34 11 57 31 -106 -122 -14 -101 -3 8 -123 -39 -62 49 -57 15 -61 1 5 -28 42 -113 -74 127 45 110 56 -103 -29 42 -39 -93 -24 79 54 8 84 -121 76 -27 -100 110 31 -97 120 110 91 110 74 -54 -60 -74 103 -117 -125 -2 -23 60 -68 29 -115 75 44 -101 -29 -99 29 59 21 33 114 98 -52 33 31 74 90 18 -4 -82 64 -85 -15 -55 9 -25 13 22 -68 23 81 13 86 92 -25 -56 -47 69 -101 66 -47 -56 -1 -122 -113 -58 -100 -84 -112 88 -4 -86 72 117 7 10 -86 -26 107 42 -21 64 -59 82 -58 41 121 58 -62 -101 4 -39 -30 -61 -46 63 -113 -21 9 121 56 -32 121 -113 -91 -4 -62 -67 107 9 2 1 -114 -116 93 -88 109 -100 -103 25 100 -96 -87 39 -127 91 2 76 8 -98 -62 61 -24 -111 58 67 -119 -122 100 -26 100 -72 78 -86 104 11 22 -53 -88 37 96 120 113 0 18 107 -49 -110 -64 -28 67 -20 -33 -119 -37 -31 27 34 -55 -75 -87 83 74 -53 -27 -4 58 60 58 -31 10 -104 47 -58 -57 -66 -10 -27 91 -48 -125 -25 -4 -29 30 -78 -57 88 40 46 -47 18 60 -43 92 -21 75 -114 -37 -73 -38 -44 125 -94 -34 31 73 -53 -121 -89 79 -7 -13 72 60 25 98 101 21 55 11 102 75 105 -89 15 -93 -38 54 -63 61 101 -126 35 29 -50 -68 89 -64 -121 86 10 -60 36 104 24 42 95 96 -34 50 68 -63 -21 -78 -34 -94 -95 -55 76 -60 -115 -55 19 -49 -45 92 18 73 104 -83 99 -14 34 65 -17 41 30 -92 -42 12 -73 108 49 -19 -17 106 64 125 39 20 -12 43 100 2 -68 29 8 -57 -80 -120 83 30 36 55 -87 28 25 -104 -118 -8 
-65 54 126 -17 88 -101 -45 54 -95 74 83 -111 -92 73 31 -43 19 12 69 101 -113 26 0 -42 27 116 47 107 58 27 -87 27 48 -113 -31 88 48 108 69 -85 -110 36 59 53 -7 -1 56 -105 -55 -67 10 -20 50 -104 -26 51 35 -98 -4 125 -46 -12 77 -43 -92 42 -65 81 98 2 77 112 85 -49 73 -29 -99 1 23 -26 -98 121 -116 -124 -25 -127 35 97 33 -80 -4 -59 -104 -57 1 -9 -13 -108 -59 -52 76 105 24 67 25 107 64 109 -120 -82 -101 -80 -112 -78 -126 -92 -99 31 -59 -112 -102 -41 21 -50 -37 -40 83 16 -99 -110 82 13 -67 -95 90 125 -42 -66 83 15 4 59 79 29 -24 110 -93 84 26 12 65 79 -125 -77 16 11 72 74 28 125 87 47 -58 18 62 45 -67 -29 8 38 43 -94 8 96 -69 91 -90 14 -127 -82 -59 42 19 7 7 25 -15 49 12 17 -57 49 70 37 -79 17 -7 105 44 86 56 110 127 -18 66 -2 -110 -9 -49 -67 -74 59 -1 51 -52 51 -15 -13 88 -109 -96 85 -52 111 -37 17 53 -86 16 -108 89 -55 19 -91 -61 70 -11 -117 16 -83 58 36 -21 83 -93 69 -2 -14 92 45 92 -27 -61 39 -114 35 -37 109 -123 -27 63 23 80 112 36 -72 -92 -124 -100 -115 66 -81 19 -52 93 -100 -21 -120 -12 62 -42 29 33 -9 -52 -50 46 -49 -2 25 126 64 116 -48 7 -28 16 37 -90 -83 8 -61 -61 -19 26 -78 87 110 -84 -63 -119 -116 54 -20 8 -11 -8 -4 83 103 101 97 -115 43 59 3 -25 -125 18 88 37 -14 -55 78 112 102 94 -85 96 -94 14 -24 73 18 88 86 -33 -100 121 103 45 -96 10 33 71 63 44 11 33 76 45 79 101 -104 55 71 108 -28 120 -101 -58 -68 -106 -87 -42 15 -125 -107 -9 -14 -36 -25 73 96 119 17 -118 -126 92 -74 109 -21 36 -14 34 -19 -44 46 15 -50 9 -9 -57 -55 -75 -72 -59 -30 -6 119 114 87 112 41 74 69 98 -89 2 104 -30 -115 47 44 96 90 -94 62 35 -24 -73 118 -27 -13 96 -25 30 -20 -117 67 68 -38 52 -117 75 -121 -113 53 -86 -94 122 22 -5 -123 100 -53 74 34 -121 -117 37 -64 123 73 106 -96 -25 -125 -99 120 120 42 -23 -35 -27 88 32 82 -16 110 106 63 -79 99 -110 37 101 -55 -84 86 -55 -6 4 54 -110 -66 -22 26 106 -99 -78 -121 -95 80 39 -73 -62 -86 109 102 79 17 
-12 -9 87 -23 -37 1 37 -37 76 50 -95 41 -41 54 -126 54 70 -40 -94 110 -107 10 64 -14 -63 18 -1 -23 -68 -40 70 -48 36 -110 -67 -15 -93 113 99 78 65 57 8 -13 54 -22 119 -89 27 65 15 103 13 -40 36 74 105 75 -113 34 -89 -25 -86 9 61 -44 -18 54 -80 27 -117 102 62 104 -99 127 61 80 -112 48 -22 -52 -43 -87 75 -43 119 123 89 47 114 101 -20 -30 16 -31 -48 -96 33 101 -88 -68 -109 -6 59 42 -15 40 -83 -19 -82 -37 -117 -83 -58 -87 -2 -54 49 -39 -41 -122 52 18 5 -79 -123 -10 -67 -2 116 -116 66 -101 56 -48 -43 41 38 -117 -78 112 -74 -53 127 45 17 -71 -23 -99 -115 84 -40 -99 24 -79 -38 -61 51 101 -74 34 10 -12 126 -115 -39 -55 -73 2 -123 44 -55 119 44 -117 79 98 -76 -37 -94 127 74 20 -127 -107 87 56 74 45 83 82 44 -9 59 57 103 61 -118 -100 3 -93 -68 -26 83 -36 -20 -13 58 60 -49 -53 -111 -113 -44 -112 -112 -34 -43 108 42 -87 14 -116 54 -119 -59 -90 -37 82 -79 98 52 -91 -5 -88 9 -91 -110 62 -85 65 49 51 105 3 -110 -83 -61 -47 -32 -21 -76 1 -34 -32 -75 -6 -86 -58 -59 120 10 60 -12 -76 75 16 82 97 80 -102 37 -83 34 50 -116 -9 54 3 77 47 122 -101 15 48 73 -108 -27 -17 -4 -112 32 82 108 77 -20 -102 30 28 -75 -4 -55 -111 -47 64 -43 -126 102 35 -16 78 105 -28 -108 -126 38 -102 -104 -67 -127 66 20 82 -76 67 40 -14 -37 -113 30 97 -40 -70 -126 -106 -8 80 -123 44 45 -65 -125 -115 -7 -99 117 -56 -46 -59 58 -65 -27 -34 14 30 -63 -9 98 57 -44 29 -114 -30 0 -29 -17 12 118 -108 80 -25 85 81 78 -4 9 36 -108 -1 -45 -5 30 -70 35 -125 125 103 -111 113 36 -20 68 -69 -124 -68 61 56 86 -16 -22 111 -22 -7 24 -60 -31 20 109 90 -45 59 12 -125 -97 126 61 61 -40 -39 -34 -45 58 100 6 7 -110 49 17 -84 -25 -35 12 30 -91 62 94 -109 57 -86 -84 -88 -20 124 124 -47 -41 -77 40 89 -17 -58 56 -28 -35 -98 -87 -88 -61 117 106 -114 -59 62 96 -96 -22 -50 -104 -50 24 -11 -37 -30 46 86 71 75 -40 -45 84 49 82 -125 85 -83 -45 91 61 51 -37 -126 -3 38 104 -13 49 -121 77 -13 84 17 25 -44 54 65 -97 -95 -50 78 -118 -59 
-2 -80 -33 -99 -109 -4 41 -106 126 -90 2 -83 98 -46 80 26 -27 16 -84 -121 104 -5 -121 106 106 -84 -4 30 94 103 0 -45 115 88 115 22 -70 -111 16 -112 -14 66 53 -98 15 -20 11 -49 -53 -47 14 13 -30 121 -91 -57 -59 125 9 118 -8 -59 95 114 -118 -81 78 40 -93 -65 49 118 100 35 97 9 -116 -60 -9 33 96 3 108 -9 81 -67 -10 75 48 -12 118 47 -99 116 -24 95 1 -42 -89 95 -66 80 -76 -6 70 -9 12 54 -83 16 31 84 -84 82 -78 78 -15 86 -103 78 -56 1 -34 31 126 -78 40 -112 54 -93 -27 68 -7 1 77 102 -53 -1 -95 -34 86 -34 -6 -3 118 -56 71 86 -75 126 -46 -38 -56 -58 -66 14 -99 62 86 -34 127 -127 -71 -82 -90 1 -38 16 -112 93 107 -120 -34 -16 12 57 -10 103 68 21 44 4 48 -99 -76 -33 -2 56 62 3 -49 117 -91 -91 77 12 -115 -31 60 -117 54 -36 0 -117 -107 -48 -122 69 -122 -49 61 -35 24 -127 -85 82 -123 -119 -25 98 -73 67 -39 27 -45 -80 -36 48 -11 67 79 124 57 73 17 -35 -47 63 46 67 -111 -10 100 -87 -41 49 42 93 38 103 11 -35 -112 -87 6 81 75 -71 90 13 -45 2 31 -96 -91 6 13 -35 80 71 -112 -32 -108 34 -88 47 -6 -46 21 86 -34 5 -114 -40 -96 -112 0 -114 -9 109 37 -70 127 6 20 -123 68 -104 -88 -100 -17 -107 -123 -34 7 84 -27 -94 117 -69 -65 99 -87 -92 -30 -112 41 90 -3 -127 15 -58 -41 62 81 80 111 76 51 -117 -72 -51 12 -93 -109 21 69 25 -99 57 79 -120 -90 0 81 32 -22 -59 -40 -115 -25 -85 -127 -32 -45 15 28 -13 88 -86 -21 -125 -126 17 4 4 -21 -50 -33 17 53 -43 -125 27 88 -71 34 119 50 11 50 33 -91 -26 -95 -33 -7 -11 -26 -114 110 -35 114 105 34 13 99 -88 28 91 94 -20 29 99 108 -10 106 -46 -66 110 125 126 34 73 37 81 -27 -115 58 -106 4 -28 17 -121 -36 39 -97 -77 71 -58 126 90 10 32 -83 20 106 -3 110 -63 -10 -81 58 -80 -22 -95 62 -6 -105 -89 116 51 -45 40 124 69 -73 119 93 -79 1 64 52 -112 118 57 -60 -116 -75 97 116 -2 110 85 -77 52 -57 -63 -27 73 -39 -86 13 -101 59 98 -50 52 -1 88 -73 -2 -19 125 57 -52 118 -2 67 12 74 83 10 -106 -81 15 56 51 -69 73 33 -92 
-14 -104 -7 71 68 116 -114 -42 -26 -10 71 95 -104 -124 101 116 -75 106 106 -62 -6 60 121 71 -34 127 -33 -33 28 51 24 -81 74 -101 -117 116 -50 -32 -44 -17 -117 -58 54 -73 -100 -65 -1 4 -87 -6 13 -1 33 -13 -85 -61 16 102 -16 72 -68 -59 -40 100 -47 -59 -114 114 -33 -37 -109 94 54 -1 -13 -62 -16 -86 -84 -54 -15 -19 -49 4 -71 100 -53 -50 78 -79 -113 25 -13 34 -43 -118 91 -44 85 -126 -58 95 57 21 35 56 56 -15 39 -43 -34 -108 -77 -29 -62 12 74 -123 -45 105 79 -119 -71 -46 -61 25 -110 -119 -36 79 122 -35 -100 -20 -61 33 70 47 -116 -107 10 -68 89 110 -104 -2 72 20 86 88 74 -99 81 21 -80 -2 -114 27 83 28 -4 50 13 43 -83 -117 72 -58 99 76 18 18 -117 -78 -91 100 5 -98 -77 -17 -127 -60 -34 -94 122 -14 -86 -99 -100 -26 8 96 -89 120 -83 107 -118 119 107 19 -15 34 -63 -85 -36 118 -79 -44 -49 37 -103 -104 1 116 29 -107 -12 6 -96 -87 -6 97 -58 68 -2 93 72 9 86 -38 -7 62 26 -65 116 -30 31 111 59 58 5 32 -44 60 -29 33 121 -118 119 116 -10 -45 -8 124 73 6 62 -52 78 100 -30 127 -74 20 -39 -47 -93 -14 -22 16 17 -22 14 30 -26 1 114 80 64 -104 -64 -77 -2 88 -28 46 -90 123 117 24 -90 64 74 124 -89 -38 96 73 79 -115 -103 -35 -85 -58 -115 61 80 -35 -91 4 1 26 -44 35 -36 69 -110 87 -34 -30 -102 126 -69 -121 -77 110 35 127 9 79 109 109 -9 14 -69 -29 40 117 -50 116 -63 -24 90 -88 -70 98 -28 -108 34 109 55 -71 124 -76 -81 98 53 -91 65 -17 -122 -84 -104 -101 63 56 4 -7 2 69 -47 -79 -34 11 38 7 108 107 77 -99 112 69 -40 4 -6 -74 1 -85 -79 -71 122 -46 -84 -87 -69 -18 18 108 -39 36 125 5 114 -26 10 47 -95 16 -19 -48 49 -38 100 119 -61 81 25 -39 -59 49 -69 118 40 -17 -108 -16 67 127 37 58 101 67 10 123 -58 -5 -22 -46 -98 38 94 101 14 -16 -41 -117 27 18 29 -88 -5 -33 117 46 -89 36 0 -103 59 -94 -18 87 4 -68 -53 87 125 13 51 -41 4 -51 96 125 -32 1 -108 -8 -87 -121 49 58 -36 74 -99 0 50 8 -10 38 113 -98 -111 93 80 -40 -43 8 -100 33 -120 62 66 88 -5 -19 -72 112 -77 76 20 107 
24 -97 -9 -47 -47 107 -125 -110 75 -77 102 -2 -63 -77 -115 -34 79 11 -43 122 -22 -33 14 -11 -93 -12 -23 42 16 71 -4 -59 44 -60 48 -98 92 -104 62 25 -14 -103 -84 107 -31 -125 9 -46 118 25 -38 109 72 -46 -72 110 76 83 77 -67 89 -83 125 35 -81 -62 79 -48 -93 59 89 76 15 -41 -104 -116 67 -45 -111 -43 16 93 2 -34 57 12 -30 -108 -16 57 43 96 -80 58 -85 103 0 -13 59 104 -122 -51 120 -93 -51 -55 61 62 74 -74 -32 -93 107 -28 -20 -78 53 85 114 46 68 -16 -56 71 -41 -15 -44 -40 91 -120 3 -10 -35 14 42 73 -87 19 -84 16 60 -54 -55 25 58 10 49 -102 -84 -6 -43 80 77 -90 34 39 -119 -9 -112 -101 -36 -70 122 6 -91 -25 51 -94 23 25 -29 35 -83 -33 -37 55 -27 -23 -53 41 -94 28 105 21 120 26 78 10 73 55 -24 -25 -72 -102 65 89 56 24 -19 -1 65 -23 -38 -91 106 -88 47 15 117 -29 -115 -6 -126 -127 70 -115 62 -79 -68 -73 106 78 75 67 -104 1 90 68 123 114 82 101 19 95 26 13 -91 56 -96 83 32 -11 -43 113 -43 79 -5 65 12 47 56 -67 81 -38 -80 -119 -64 27 -92 92 -48 90 27 -61 -30 59 2 124 -122 35 58 -79 -115 77 -87 -78 -31 -99 104 36 -106 -107 -97 7 -29 -64 47 79 -96 122 78 122 115 -14 -49 1 11 -97 -104 -31 -36 67 -37 -78 69 69 -39 7 -5 1 32 -64 17 93 119 110 18 -2 61 82 83 -101 -87 25 -32 104 37 -76 56 115 25 41 -54 120 -39 -92 -10 -79 -20 -28 46 -97 60 -122 -114 -25 -38 63 -122 41 -81 -56 -25 53 -52 84 34 -103 102 123 118 -9 -31 51 -105 -1 -103 -17 -22 90 -52 97 120 -124 82 -13 -6 -101 27 -30 -123 -113 27 -37 -42 -75 89 49 -59 -88 -16 -71 -77 -81 28 92 -92 -111 -122 107 -71 -124 5 -26 73 1 6 -97 3 108 110 -65 -119 116 124 61 -23 -82 8 -124 28 23 127 -102 -45 17 -41 20 101 -46 -6 9 -125 -45 -17 114 -22 -53 -84 13 -34 -50 9 61 30 -34 96 -43 46 -53 -35 -38 86 30 98 -43 -108 87 78 -18 8 95 -110 74 28 -108 -111 -51 -59 73 51 110 -88 42 -106 94 -39 67 20 63 -94 113 125 20 -18 -105 -65 -24 72 -67 -79 -121 65 60 -127 53 -51 -12 119 45 6 57 -32 99 60 -123 105 -62 -127 101 -73 75 
0 110 13 73 13 -63 -117 -95 -74 -49 -21 39 -61 -25 118 -53 -127 107 -12 47 13 89 73 -7 -97 -39 5 4 36 -26 -11 -65 -20 -113 18 102 -102 103 -67 14 20 5 77 -64 -24 -91 -116 27 54 124 127 -85 -100 -80 -43 22 -94 -43 -123 27 -122 73 8 -119 -92 -9 -53 -120 60 85 -70 97 -41 -21 11 -121 -127 -72 -18 24 68 114 56 3 115 8 -67 5 85 -99 -15 -60 65 57 100 -38 25 -14 91 -25 -124 -56 11 -65 60 -18 14 -77 -109 -70 -102 -8 -12 -77 -18 -74 -100 -58 79 48 -86 101 71 28 28 -48 113 115 -68 -39 -86 121 11 -12 -27 -19 -21 -2 -89 88 -48 -110 -6 40 78 -115 101 -115 89 -39 -125 -127 -33 29 25 -104 -65 -30 -92 106 64 -49 -41 126 98 -10 19 -83 126 -51 58 -120 57 9 34 62 -17 -113 -127 38 -6 118 99 -102 96 81 -18 102 -96 -59 20 -88 -86 -66 -83 -4 -53 27 100 -108 -126 -33 -62 66 54 69 60 -31 46 -121 -43 79 1 85 29 -24 50 93 78 7 58 -120 28 0 13 24 110 -35 -48 78 63 14 -99 73 -120 -48 0 -120 56 -4 -27 38 92 113 116 79 -104 31 -88 -6 127 110 39 124 124 111 97 66 116 22 -106 -111 92 81 -6 22 -2 -57 -45 -113 9 -120 17 65 30 -94 108 44 103 4 55 -59 104 -21 -107 -30 -99 -5 82 123 81 127 114 37 7 25 4 75 -86 -48 98 105 -32 -103 107 48 -42 -18 17 -34 -70 95 -8 51 107 -57 47 120 28 -61 12 19 7 51 48 98 -74 -73 52 55 110 -70 90 4 3 62 28 60 -100 -1 -71 -42 -10 -17 40 -107 6 -80 60 -63 0 -117 12 83 -96 100 -91 -1 -124 18 -120 -107 -73 52 92 -126 -117 -120 -125 15 -93 30 -126 -51 76 -79 -68 18 -124 85 32 69 -80 -99 123 -5 -104 89 -79 36 -126 80 18 -33 -117 -110 -50 -116 44 -112 -26 21 67 3 -7 -50 114 50 26 81 -8 -52 -33 -99 90 -52 35 -30 84 26 60 -69 18 57 -94 -24 112 -88 80 -38 -123 -82 -1 -111 26 -3 117 -99 1 77 68 109 72 112 38 -107 93 -111 -83 39 5 -39 109 -86 51 18 47 -65 47 89 -109 -117 126 87 -99 30 18 -78 18 79 91 -31 77 -23 -30 119 62 87 -38 -13 95 77 74 -107 -37 -127 -2 77 46 44 -57 -46 -37 108 63 -121 -103 -95 68 -61 -121 -24 -7 -17 127 -92 125 -112 114 0 74 66 
6 19 100 45 -45 -16 -121 72 -47 -72 17 100 95 32 -100 -12 -24 -40 67 110 -14 -102 -48 -125 -57 -36 22 21 20 95 -52 52 -109 123 -29 -55 123 -3 125 -66 68 115 73 92 -113 -66 -14 100 66 -100 -78 -35 -23 -86 9 -42 -76 81 31 45 57 -120 -98 70 -57 -56 87 -126 115 -72 -12 -25 -37 -19 20 -19 87 -87 -106 -89 -119 -95 59 -80 92 29 21 -77 14 59 -56 -55 -101 -12 88 50 30 36 45 -93 76 -62 77 116 -2 24 8 122 108 -86 88 -104 23 4 12 11 102 -33 -24 99 1 -60 21 -92 -54 -70 126 63 -20 89 -18 -27 16 57 -127 -60 -99 -62 -67 -52 -39 116 123 -125 -85 45 -63 24 -45 -72 42 -45 17 107 -69 55 114 124 -115 -54 84 54 -39 72 113 -91 -11 -120 22 -73 -56 -62 95 84 92 67 -107 73 -77 -126 -113 -97 -29 66 53 100 117 -6 -71 -9 -11 -105 -96 96 109 103 27 111 -106 -24 100 -113 121 85 25 -25 87 -1 -67 15 88 66 -87 -118 -98 -86 -53 39 121 0 120 -72 -75 -113 -23 -75 -35 -125 -3 -105 112 20 46 22 79 15 -24 -98 -120 -76 -3 -123 104 -39 14 25 99 10 40 118 81 73 -11 72 -87 93 89 -31 22 122 21 -87 101 -95 -76 -54 116 35 55 -60 75 -106 58 -77 -37 -65 -75 -78 -15 126 -24 -77 76 -21 20 56 51 121 104 -68 89 -88 21 -127 -75 59 17 -110 -2 -37 -117 42 -86 50 35 -110 -122 66 44 -98 -10 74 39 -72 -35 -84 -20 90 13 108 -73 -41 10 101 1 21 28 83 -36 -96 34 -116 52 37 1 43 30 92 -94 100 -39 -31 -59 33 -109 -81 110 88 -21 13 29 71 -3 -44 88 -18 -90 -116 121 -105 -90 23 -78 75 120 -21 6 88 -58 -28 -79 34 -46 -106 99 -66 -103 82 -61 -74 93 -124 82 -5 89 -109 -24 -92 -81 9 -8 62 -95 19 123 -11 -63 -35 76 -117 18 -118 -84 -48 110 77 -95 83 -101 -31 39 3 -1 91 121 119 28 -25 -6 -36 -12 52 -41 -35 -2 96 85 -4 -43 125 63 32 -44 -106 -2 -109 -93 39 -67 55 115 28 70 -116 -39 -38 -42 -61 -20 -57 -123 49 97 76 9 85 -34 41 -71 -92 109 -111 18 99 113 119 -106 63 9 -11 -56 88 -110 -52 -3 -113 -123 -39 -103 117 66 1 109 107 25 33 120 119 93 -127 1 86 -50 -36 80 37 -33 6 67 -105 -27 40 -5 -8 1 -25 -55 66 60 -16 -20 98 
-44 -106 58 -97 -16 28 -117 -72 127 -31 13 27 35 83 1 -81 107 39 -10 -105 6 124 68 -124 94 -116 117 94 -34 110 61 1 -101 -69 121 71 -86 -54 -85 -120 115 30 84 97 -110 53 76 119 -34 1 -28 -14 -97 -3 -5 31 127 32 -25 68 103 -90 71 -3 111 -97 69 -54 -94 58 -20 14 37 -92 71 108 -8 10 -112 -122 39 26 -68 -26 -55 -92 1 -83 -116 104 -21 -11 -98 -106 -72 108 -82 -80 -79 -125 -79 -79 70 -62 48 23 52 -44 -14 -52 -59 22 -120 -64 8 -102 -16 -12 -33 70 118 -81 118 -110 -84 -26 -17 19 -55 63 62 7 -1 -118 -115 125 -90 -41 73 -47 -112 -120 -15 62 102 -84 61 51 68 123 -69 97 49 -111 88 43 91 -21 -12 59 -31 -46 39 -70 76 4 -68 34 -15 11 111 -118 -108 110 -86 92 -34 82 -119 -6 88 -24 116 57 78 -54 -40 -114 95 -89 -34 7 119 -36 43 -2 -24 -6 -83 -49 -90 54 84 116 109 24 18 48 14 106 103 47 66 51 97 -59 63 30 7 30 -111 71 18 95 127 -82 -127 79 -109 87 -100 114 7 44 100 27 100 110 39 -47 20 -17 -102 -50 99 124 98 -13 -16 125 113 93 8 70 -32 -120 -87 -117 68 -116 -13 -119 93 1 -86 3 -119 49 -9 83 -3 -59 -63 30 36 115 -19 115 63 55 125 86 77 103 -3 -110 99 -100 85 -127 123 -98 96 114 18 48 -75 90 73 99 -111 -22 87 125 64 -7 -98 -17 60 15 -78 96 -81 11 -120 -18 -111 -15 -72 -127 -94 -123 -122 -53 -114 -77 86 83 -122 10 -62 112 -90 -6 20 110 97 -10 -9 -126 42 -9 -57 -63 -95 -75 82 -94 46 -111 2 113 -111 67 77 -79 -49 71 54 -89 -72 -31 -102 55 52 54 -73 -15 10 -23 79 101 -19 -62 82 -85 -22 -90 16 -18 -106 -54 94 -30 71 97 -68 80 17 34 98 -81 37 -28 -106 -16 71 -12 10 -61 102 -60 -122 54 -36 -52 27 -20 25 80 32 20 -111 -81 117 -118 -27 -59 120 109 59 62 34 44 -106 -13 -111 -18 73 18 -48 61 -59 42 18 1 -56 -6 -88 111 -12 -4 -49 -5 -69 -72 68 37 75 51 -11 -20 -17 -29 -65 -14 -92 -61 29 78 -91 83 -71 39 -94 -45 116 -9 99 63 -69 -21 50 -20 119 49 8 17 -78 -84 -72 -63 82 -26 -11 76 59 72 -1 -73 67 56 -116 41 116 -62 -62 -88 -4 73 6 -53 -21 -32 97 70 -47 -26 -5 104 27 -18 
-20 -123 92 116 109 0 -96 117 100 46 -21 80 -71 -7 -21 -80 -101 -6 3 28 -44 71 47 -91 -124 -52 -28 42 2 -88 -7 -9 10 77 -97 -45 -96 -22 -111 -47 29 125 72 -120 78 112 81 71 -119 77 36 -13 27 37 -55 -15 -73 -42 19 115 56 17 -96 61 78 -28 -83 -126 84 22 -124 -118 85 45 -25 -5 49 -92 96 3 -34 104 -60 -74 38 -74 -66 -53 -64 49 -112 -30 47 39 83 22 -45 117 32 56 -71 -127 -75 122 -123 33 -84 -33 27 62 -11 13 47 -15 49 -107 40 114 -82 96 -18 -63 35 -21 -56 -114 59 -82 -67 58 115 -42 -117 8 92 -88 -54 68 -86 -124 -13 -2 35 -33 -116 74 -25 91 91 59 100 -82 84 17 -59 98 59 69 80 72 -67 -8 -77 -107 39 -63 -54 82 58 -95 61 -12 57 -19 51 -87 -110 108 -125 -95 -39 12 121 -60 -46 -39 43 -123 -97 -69 47 -10 60 50 107 -45 73 -80 73 -88 36 0 -10 -5 -21 118 -73 -31 99 118 -36 -114 68 -11 -107 7 116 -76 -48 39 -72 -6 68 56 -108 -123 104 -49 -73 2 56 -57 -23 -126 51 -19 68 -103 52 45 -55 124 -90 -73 97 -54 -116 122 84 126 70 53 -87 7 -85 126 -46 -37 -62 57 52 116 76 74 61 58 -38 52 34 -33 -14 -90 -57 -66 27 10 -121 96 -39 71 36 11 87 -82 5 -105 -96 -10 -101 31 -47 8 24 55 -56 89 124 -78 -117 -39 89 16 -108 49 62 24 -124 123 -102 76 97 -74 122 -67 -90 -10 6 -71 127 104 10 -36 -9 -17 30 19 52 -78 120 9 -7 0 -63 -111 45 -28 45 87 -12 35 63 -39 24 -116 -81 116 114 54 126 -104 -52 24 19 49 109 67 58 -83 12 62 -19 122 50 -119 108 -101 118 -20 -36 -6 66 3 -3 -50 -106 45 124 -119 -123 -47 -106 -64 19 -38 -127 -93 119 76 -15 10 87 119 79 114 53 -2 63 -38 -71 60 -1 -100 -113 119 97 12 44 72 -18 13 -100 -70 -49 25 8 -79 8 111 102 75 -11 39 110 -85 -88 -22 -93 26 -13 114 74 110 68 -108 -119 -78 58 40 -32 48 -51 -68 6 -50 -113 -37 -19 76 64 80 -88 -22 96 83 -95 -50 88 -119 -2 88 10 82 -65 -23 49 118 113 70 -101 -66 48 6 -65 -12 -4 70 4 -100 26 -26 28 57 -48 -7 -51 -89 74 -98 11 -95 -116 -1 -32 -67 110 -83 -126 -42 16 -36 -56 91 -25 30 24 93 -27 -123 21 96 -30 9 
-18 -51 -10 -53 -98 -109 103 98 20 47 -56 87 87 -8 65 41 76 -5 2 -23 -13 67 57 -49 79 -11 18 90 102 -22 -121 -119 -32 -88 -109 -89 -35 -67 -105 -104 61 104 12 -63 -57 -71 -111 48 -33 -52 -73 -72 10 -115 27 22 9 -42 -93 4 68 -37 -33 104 -68 -70 101 76 -60 89 -28 92 4 125 -2 -44 -113 41 55 39 -97 -87 -54 14 -93 85 -85 -87 -38 -111 -10 -42 34 89 120 88 98 27 114 18 47 -27 -57 3 18 -14 -55 0 124 30 117 -67 122 -26 36 -89 -15 42 82 116 -119 50 -27 67 -52 -93 -109 -68 17 -54 -115 56 -114 1 -79 7 59 -72 126 -110 -69 118 -68 81 124 40 90 -68 -109 61 78 35 -3 84 -83 32 120 43 -26 104 29 -93 113 -3 23 -89 20 53 79 69 119 67 -24 -44 83 -81 -69 44 36 -44 48 -86 93 9 -81 18 59 59 -48 68 124 39 106 -7 15 64 -4 103 -58 -111 -126 -77 -56 -28 47 -75 -5 80 103 -31 -54 -102 116 -25 -22 -40 56 -18 -5 -9 -56 -125 -79 31 -15 -73 -80 105 54 22 -70 13 108 43 -14 110 -102 -113 -10 -70 -81 55 -41 111 41 124 124 76 -121 -124 50 -97 -67 -22 -6 76 -18 -107 -25 102 5 -103 -39 41 -40 -48 -98 87 -41 -66 -115 93 -82 32 -113 10 120 -98 45 -127 -12 -94 73 127 -77 -67 58 -68 47 124 41 62 -113 -84 -1 52 -121 48 0 -79 -96 6 75 -86 19 66 -24 -121 -100 67 -91 82 14 -124 56 -117 75 -33 -85 -52 -27 -43 -108 -127 59 -65 18 -108 70 -89 36 -123 -105 95 83 98 -111 88 -118 122 -47 -73 -77 29 -85 85 -123 72 -107 50 124 -63 -102 -48 -47 -96 -54 -111 -121 -71 -109 61 34 93 -14 -113 109 -2 100 -102 65 104 124 92 -56 -55 26 23 -65 -78 -116 17 12 60 -5 2 -75 -8 2 -30 -74 117 -21 -80 53 -33 -100 94 -119 -41 -67 8 -72 -93 -116 -100 107 28 68 101 49 60 -35 42 -59 38 -103 126 44 -29 76 -86 -55 45 -38 102 89 39 -122 -106 69 -90 -125 -107 11 112 -43 -65 -26 -105 99 -13 32 111 10 -24 -94 -123 83 -21 45 96 80 93 -21 -30 14 42 112 126 90 64 85 -101 108 30 -15 -99 127 51 42 -46 125 57 -13 25 64 96 -29 -75 -27 -12 -58 -26 73 118 -75 80 -115 -19 91 60 89 -56 -125 113 -70 59 23 110 124 -24 45 65 88 87 -14 -15 -8 105 60 55 
68 -61 -41 -52 -83 52 -56 -24 -72 -112 116 -124 53 18 -62 -50 80 5 84 11 -37 86 -5 71 125 11 89 -69 11 36 -87 14 -41 -46 74 -31 -54 -98 -34 -14 -33 -14 -95 -50 84 -23 -15 -69 -46 -65 24 29 49 81 -79 -3 -117 73 3 -10 -103 91 -92 115 15 -40 -65 70 55 -85 -11 19 -74 87 -49 41 85 -83 106 -66 -22 -77 15 7 34 7 -78 -116 89 -34 25 82 53 46 26 25 -89 57 -77 -124 40 28 65 -100 -34 42 -124 -104 -90 118 72 -60 93 109 -32 106 8 122 -77 -15 -68 -79 -60 113 43 59 76 -74 17 4 -6 -31 83 -121 -12 114 3 -35 -51 -26 109 67 -87 34 -65 112 15 -81 -24 61 -91 -58 -37 -81 -12 80 47 -80 32 -114 -70 -126 -61 34 -39 93 -18 78 95 37 -116 11 -117 -45 86 -50 83 -34 32 80 77 4 123 60 -89 93 -118 16 61 50 -66 -11 -50 -121 27 -36 -20 -50 91 83 -109 -28 -73 -32 -20 44 -12 -98 -32 27 -26 98 -48 26 14 44 62 56 90 -67 121 -77 93 -79 -74 -48 118 33 113 -12 -23 68 -113 -60 -35 -70 39 0 45 108 -35 -113 114 6 -74 71 47 6 57 29 -86 -5 70 2 -80 -51 -64 112 19 24 83 -62 115 -88 -115 -62 0 24 68 77 -122 -43 -68 -95 17 -33 33 7 106 -78 91 53 99 -109 -54 -69 -121 18 11 45 -120 -110 97 10 -5 -43 9 -10 101 85 -16 -113 36 -12 3 61 -113 74 -54 27 125 -86 -97 -90 42 -79 -56 120 -53 -103 -51 -49 105 125 -7 -127 -90 -65 -73 -109 118 46 -56 32 117 57 -30 -98 84 32 9 108 -13 -88 54 90 -16 127 -106 -99 -90 127 79 34 -29 -120 40 -78 102 -83 -32 19 24 -70 90 106 -115 -36 -60 12 -35 -74 -75 -57 28 95 -33 74 28 60 -109 81 62 -102 51 107 -13 97 14 37 -10 68 -117 67 109 123 -92 66 -50 81 84 114 -15 -96 -6 -53 -4 -91 -17 27 -10 -77 -121 -88 118 56 -104 52 53 -75 -82 -106 10 42 123 121 -101 57 -66 44 -83 22 -125 111 -5 124 -24 110 112 88 44 86 61 121 27 102 -98 71 -22 115 -5 -25 -119 98 32 14 115 -120 -113 39 -57 84 -55 15 48 -37 -101 -90 25 -113 -113 36 113 -29 48 -83 120 112 38 110 -50 -81 117 -21 41 -57 14 43 124 23 -77 72 -69 -25 -65 88 -37 52 -94 67 88 87 40 90 91 -88 36 12 97 26 -40 79 
-99 -11 -80 -101 6 20 -95 38 25 24 -51 -29 -66 18 -45 -121 21 -58 55 -31 115 126 -11 59 -11 -33 -54 117 -29 49 96 -65 33 -4 27 -74 -29 14 -122 76 -6 70 26 73 -35 -34 27 66 -49 -80 109 5 -54 25 -83 115 -107 -28 103 50 -23 -95 12 -6 -66 -34 -17 -37 -12 62 -120 40 -107 32 28 111 -89 67 34 75 58 28 -22 77 -119 -13 99 104 68 -13 -80 32 83 29 -115 -76 -106 108 18 -108 -86 28 12 -81 45 116 61 -80 17 71 -30 -114 -126 124 -65 -56 112 43 -26 87 -85 -8 84 -75 76 90 -9 115 63 44 -93 -23 51 127 44 120 -102 -69 -15 115 92 38 72 91 -19 -86 104 94 -64 114 70 -69 63 56 -95 8 -34 -83 111 84 96 -94 27 120 -15 -30 -86 -95 -106 48 27 -78 69 -64 -73 -7 -52 -36 87 -49 81 34 123 42 7 42 41 -35 -91 86 -68 96 -36 20 61 -31 -124 43 43 -118 79 -5 7 74 58 -88 31 -66 -98 -30 -117 49 -41 -99 97 112 -21 -77 108 71 -47 99 52 107 11 -69 23 122 -108 47 77 -112 14 15 -3 -80 91 82 -23 -96 -17 78 33 56 -113 82 4 27 -105 -18 -122 -37 -14 117 112 84 53 40 -90 42 -51 61 102 -35 -107 22 -28 122 -24 53 -18 98 127 33 79 -85 -59 48 124 -43 -117 15 52 -17 69 -86 -115 -93 -65 -8 -28 95 -15 -78 105 47 31 -24 -96 123 120 120 77 40 -104 44 -76 -74 63 -86 19 -109 -46 29 1 43 -11 -28 -47 82 98 119 54 -7 106 124 89 -54 34 42 97 -6 85 28 -83 -22 -42 -62 0 -117 -122 -11 -115 -73 -117 -59 -63 25 -83 110 96 82 -85 109 -107 -67 56 53 -92 -74 112 94 -54 70 -93 -89 13 -17 -7 -15 104 120 -7 111 7 8 -44 -1 -23 102 78 53 -72 127 3 30 -105 108 30 14 -23 75 62 17 14 36 5 56 -75 -47 -9 14 -26 -33 -61 122 83 -48 24 33 -45 16 78 61 -6 -16 3 -96 102 25 17 -104 -121 -65 -30 -41 38 113 -100 -113 -84 -71 -113 -110 -72 6 55 37 66 -56 8 106 -72 14 34 51 -2 -91 43 -88 -57 -113 -31 105 97 8 22 -67 52 -54 24 -116 -20 34 -53 -43 126 -3 -48 91 53 -40 103 27 -113 35 -71 -127 115 6 75 -97 95 -76 20 0 40 70 -48 109 -106 22 52 97 -58 22 105 -67 -83 19 -85 99 94 -7 -52 105 -33 -116 52 -45 -54 -105 
81 74 5 -36 116 35 65 -74 -69 41 -83 -101 -62 -19 82 -49 88 -2 -23 114 -25 39 62 -87 75 24 6 77 32 -92 9 117 -57 114 -123 -6 84 115 -112 105 -122 -3 30 30 -107 -48 61 23 69 -75 -110 -75 12 19 78 -66 -126 -10 -12 -95 56 -115 -50 93 -1 30 9 84 18 -58 67 -117 -103 92 53 -1 -5 127 -71 -106 -66 113 33 60 48 106 119 -60 -105 -48 -22 97 -8 73 -3 115 77 22 41 -110 -39 58 -62 -20 -60 -127 -117 126 -52 64 55 119 -97 120 -66 -4 66 -63 -12 -26 -116 -27 -1 62 -106 -112 110 -61 35 60 89 -51 123 -95 4 -47 -91 107 29 76 -20 -114 -87 50 23 24 -41 11 103 -76 3 -51 -1 -103 -124 14 -42 -66 -17 76 -72 -84 71 89 92 -66 1 -86 -3 -113 -7 -122 26 -96 6 108 -85 -61 98 92 -18 -20 -8 -101 -24 -108 71 -95 38 -87 50 -8 118 -80 33 69 -107 33 -127 -30 34 -113 -31 19 -33 -89 108 -11 88 -8 5 -57 -117 97 -46 -124 -109 -39 104 36 0 16 109 91 63 24 112 72 51 73 57 94 124 39 32 69 -29 -16 -54 -39 100 -85 112 35 -91 37 -120 94 -38 -57 -48 -86 82 126 86 21 123 88 3 88 -34 -66 78 106 -126 29 -32 -65 115 -43 49 35 65 87 72 81 123 110 -89 39 -83 -80 5 -26 85 -31 73 -48 19 -39 -11 -121 67 -17 38 109 80 -116 -119 36 -123 -76 -107 100 -21 -94 -23 28 115 100 -106 74 -18 92 -40 -104 36 -126 -55 -17 122 110 -69 64 -43 -78 -6 104 -77 -59 77 73 -75 -53 68 -66 -54 -50 -115 102 11 127 -8 67 72 -110 71 -87 -74 -126 25 54 -17 111 60 -54 -13 65 66 15 34 -108 116 -91 56 121 -106 -59 89 -85 -118 112 84 30 97 -7 52 42 -25 -103 -127 32 19 -71 122 -123 -19 56 7 49 124 -47 -6 102 13 -123 -4 -81 -122 -68 29 -60 -122 -50 -16 26 -73 84 -49 -73 -34 -43 -4 -125 -85 -53 -112 -83 -58 -30 32 -67 118 -98 -25 104 61 54 54 90 113 95 80 -4 -15 -87 18 -118 -99 67 -109 83 101 -113 -39 -120 -65 -33 -76 110 -52 -98 70 123 6 36 68 110 -35 83 110 78 3 8 47 95 -52 2 2 -34 68 36 -82 0 123 4 -25 -51 10 3 108 69 70 26 0 57 -17 -49 109 63 -4 29 2 -57 -19 -124 100 52 69 -49 -41 -44 -109 -111 -66 -106 -4 60 40 109 85 31 
-91 -37 67 -125 10 85 49 12 -85 13 79 11 48 -70 -31 -11 17 99 122 114 115 -84 49 14 -76 92 125 -13 -112 -71 -26 -44 118 16 -87 -13 -16 24 25 113 -34 118 -119 -93 -46 99 -59 113 6 113 72 76 56 -115 64 1 24 104 -39 78 4 117 -34 -22 1 88 -42 -40 -89 -100 20 -23 9 85 -53 -74 59 -79 74 35 -54 113 76 -91 103 -6 -94 -121 62 91 -61 -57 -51 -61 -64 -40 70 -20 -115 59 -53 -11 21 71 -112 -11 -55 -55 83 102 -126 8 -19 -33 -65 86 58 26 32 -39 87 -80 98 -15 -34 44 11 11 -42 70 -36 -44 -22 -95 39 47 75 71 34 45 -75 55 -115 -29 72 -68 43 17 84 -16 -23 -91 54 71 27 -91 -24 -21 86 90 -37 6 58 -6 54 -69 -29 -31 39 91 99 20 -102 83 67 98 -86 -62 73 -27 47 0 119 14 -11 -104 63 -114 -81 49 -44 120 122 4 96 -98 -115 -25 41 -14 110 -100 93 -80 -127 -95 8 -42 -61 -94 -36 11 70 -109 -110 -14 120 -121 -25 -20 -54 -69 -37 114 -115 70 85 54 18 110 113 -19 -99 -37 -88 44 107 -77 53 65 -127 105 -31 -121 -110 -99 78 -17 -31 56 103 -101 -71 -98 -105 -22 -120 92 -19 -16 123 -44 -112 -3 111 -82 -122 27 -95 31 -78 -69 -96 6 15 -49 -44 7 110 -78 -110 92 -119 29 -51 -21 -52 -45 -114 -34 92 24 -10 36 -63 111 96 124 122 -77 -123 122 34 51 -37 2 -105 -15 108 -34 13 -117 -40 -29 110 84 83 -104 -97 -64 90 76 -29 20 84 83 101 -108 34 120 -102 73 -12 -127 3 48 -66 117 5 117 -103 31 -81 -12 -119 75 40 -92 101 -94 19 34 92 -126 53 116 109 -56 -62 54 123 4 127 -108 24 -27 -42 -66 -41 19 -113 43 -9 -35 20 21 17 -62 -35 92 -29 40 8 4 92 -89 88 16 -41 -65 -104 54 -69 -50 123 -46 -55 -91 60 15 -34 78 -45 92 -1 97 15 -69 43 103 -18 -45 -91 -104 -67 32 111 16 -15 -67 -50 -10 12 61 74 97 29 -18 98 4 34 -112 104 102 84 86 -2 89 4 -42 -73 68 -120 -125 -36 -36 -96 57 -6 100 91 34 -93 104 108 -69 71 113 59 70 36 125 -1 85 -42 51 89 106 30 -103 -41 -12 74 -119 -50 -61 -15 -117 -31 -23 -104 -13 -90 -82 8 10 -46 109 -18 -34 -75 -18 -87 -79 109 78 -13 91 37 37 1 57 -41 -103 100 29 -125 -73 42 80 121 57 
-7 120 52 -103 -36 -118 -103 -8 103 -8 93 53 108 63 83 -10 108 64 -30 83 -26 -25 95 -108 -101 2 -116 58 9 119 118 -3 49 -74 -4 82 43 -41 -46 56 -110 -114 8 25 44 -43 30 -21 51 -54 -65 -31 -34 -93 -28 -77 3 99 66 -103 -65 63 103 32 126 -35 -104 31 17 89 -9 -83 -95 73 112 -89 0 55 -5 -95 70 -47 56 74 86 -107 -78 41 -48 42 79 21 95 -77 -16 -18 -67 -73 54 -117 0 62 -12 15 97 -110 -43 97 21 -44 -73 112 -30 -75 -56 30 99 -12 -104 99 64 85 -107 -10 -17 -112 -82 -4 -23 -87 123 -84 -35 -97 -30 78 126 -48 6 35 16 -100 -100 -2 -34 -40 73 100 59 7 -35 117 -28 67 -72 -100 73 -69 -61 -13 84 34 16 -16 -77 58 4 109 -125 -72 122 109 -77 -41 126 52 -96 -123 75 -114 -39 -109 2 -9 -31 27 60 -41 98 -43 53 -43 7 24 55 -43 72 122 -30 -48 -48 64 -86 -113 -100 118 -17 -38 72 -39 16 -124 -56 69 -34 -4 -102 -9 -84 -88 86 86 70 121 29 101 21 71 63 -69 69 -43 63 -71 -52 104 -93 112 -44 -42 73 -37 124 29 -97 -81 -67 23 -123 -73 65 1 100 86 121 12 15 -10 -14 104 -24 3 112 117 34 36 -95 -42 73 -19 108 -77 1 -38 50 -28 41 -70 63 22 25 -59 -83 -74 -32 -23 3 -45 34 33 -105 12 30 -24 108 -41 11 -72 85 54 -73 -74 50 -85 34 -7 106 -49 -91 111 -88 39 -44 -38 -79 -50 91 -76 3 -35 -93 -99 -3 -69 -35 32 -90 8 -3 101 -107 -49 -81 61 -100 -89 -9 20 -111 98 36 68 36 -111 -64 -61 -102 22 -18 -99 91 2 -52 -24 -69 -98 102 -123 63 45 24 63 -109 10 126 -74 -39 39 -117 -23 -100 20 18 46 -100 82 -10 34 54 120 113 -28 -80 9 31 -46 -116 62 102 -44 76 10 -43 -6 -13 33 100 -42 -87 120 -82 117 -76 -106 -120 125 41 18 -126 -29 -44 87 -74 81 12 116 54 39 67 -2 87 86 -41 105 89 -19 117 -32 -95 83 -75 47 -57 46 5 84 -11 -11 114 2 -46 23 -100 99 113 93 67 84 2 -60 87 76 -13 101 -85 63 66 97 56 7 -10 -33 55 -34 -8 10 82 52 -121 104 91 -96 -90 64 -118 53 -9 82 -90 119 -121 51 29 26 -60 47 -33 -63 121 51 108 68 9 -55 86 116 16 31 31 -77 -85 118 44 -51 97 -52 -90 25 20 3 73 96 
23 -70 43 107 -115 57 46 114 43 68 -123 -72 103 -71 14 -97 -100 -45 35 -19 -117 3 -25 -26 -25 -68 -83 15 -118 97 89 -12 86 -58 20 43 -99 -17 -26 -73 43 37 12 -3 49 5 -102 -56 51 -60 30 78 -69 36 -87 67 -98 -127 35 -15 -11 54 -8 87 32 -52 -118 -67 -125 -39 -117 67 -65 59 -77 71 49 -112 80 78 -52 -63 -47 27 -78 95 122 110 -95 -77 -94 115 -42 34 -84 -50 -75 88 -60 -46 -20 109 -74 -100 -69 -25 46 14 90 106 -27 62 -93 -27 15 -104 10 -10 12 103 91 -115 56 -79 -69 -50 -77 116 -42 -64 90 54 50 90 -38 83 90 100 -93 127 -89 85 3 -96 -84 -21 -46 15 97 -48 -69 -37 79 -101 -87 -85 65 91 -106 -80 94 -110 -40 80 9 88 40 22 -28 89 29 -37 -49 -1 59 -50 65 62 28 -4 -14 -93 71 -118 37 104 -8 -123 56 -30 -25 -1 119 -12 -110 -38 -16 -71 1 116 -94 -99 -87 91 68 95 21 55 -22 80 -27 124 -84 -61 -4 54 -47 -9 -102 -111 -63 95 -110 73 -122 -56 31 -116 62 4 -64 -127 -91 -38 97 114 -75 125 -25 -76 118 61 20 109 80 78 31 -117 -11 -94 -78 65 4 73 107 35 -78 3 -21 -115 28 94 -58 12 0 34 -106 123 56 5 19 74 -126 -20 -126 76 -28 51 -83 -47 -62 36 -76 111 -2 95 -48 -117 88 -51 77 -70 97 23 100 -81 122 43 28 -62 89 -91 2 14 116 115 114 37 11 -113 -22 49 97 -6 -28 63 -109 -48 -91 120 -104 41 -83 -57 62 56 6 -87 102 113 -103 2 -62 -126 71 -113 -91 -127 49 -19 -89 101 -88 87 59 -17 24 48 70 -94 35 94 -98 -55 119 -15 -11 -123 31 86 -107 84 109 -58 -117 17 4 83 -23 84 -120 -79 -53 101 -52 127 -12 -27 -2 -34 -13 59 -108 34 -3 -43 28 28 -63 38 117 127 15 103 26 108 114 -47 17 110 -31 101 3 80 -40 26 -89 15 -78 -39 -71 -45 -92 75 70 -36 92 -97 -106 -127 100 -57 67 57 114 93 111 125 118 -18 11 21 -10 -65 65 -67 35 -26 79 -74 -120 76 -123 50 121 -20 117 -17 120 36 -79 26 125 -24 13 -23 78 118 -73 -3 -70 93 -31 125 46 34 124 78 -50 -33 22 31 36 -18 127 -104 58 104 118 98 -27 -125 90 88 69 109 -87 -73 22 -114 -65 -125 -123 13 83 122 116 45 52 -107 125 37 -124 42 -56 101 51 -45 -31 26 13 74 
-95 124 -62 59 -88 -20 -34 -14 46 -4 -59 39 35 102 -25 -18 -80 -63 -1 35 -7 -58 -77 17 -120 30 -60 32 98 -12 -41 88 -7 93 -121 108 75 121 -85 28 76 34 121 -4 63 -48 -8 49 -25 101 57 10 49 -40 -60 -75 86 40 -1 -9 78 59 -54 120 -44 57 -88 -101 52 11 -71 24 53 31 -12 28 -122 5 43 91 83 71 -79 26 17 -116 46 -65 24 3 55 -39 -107 -87 36 -47 33 -84 76 -26 -19 -116 -58 -112 103 12 -83 -65 10 90 -44 -119 -46 45 102 -53 65 36 -22 -8 110 74 -73 115 28 -104 101 -75 17 -69 -21 -26 27 110 -56 105 -64 -51 8 -35 -6 108 7 45 -45 57 -33 112 116 44 -22 -65 -123 61 96 111 6 114 -18 85 71 -22 -44 -117 117 -41 110 -43 -72 -1 -112 86 -92 -40 -81 -24 80 100 113 36 -92 97 -99 6 92 119 -112 92 -97 15 8 105 85 49 -2 -29 65 8 118 -79 126 -22 -63 30 -67 69 99 -8 10 90 7 118 -64 117 56 115 -83 38 -43 -101 54 -82 -27 4 -115 -59 80 13 -82 -12 -20 -14 26 54 -15 -41 100 -72 -75 -29 -18 -77 123 26 -41 -82 -89 99 43 -112 -55 -13 99 -95 40 -85 21 123 -103 85 -9 92 115 106 86 -92 -61 0 -95 40 68 -98 -104 -106 31 -35 -126 -124 -26 111 38 88 -78 98 86 -93 -43 32 -77 6 33 -105 0 -1 -114 -113 -80 118 -10 -66 -119 -4 106 72 -91 -101 59 -102 -13 -122 47 57 99 78 -59 -48 78 35 86 40 -36 83 -50 -25 109 120 -121 -120 98 96 18 70 -126 26 113 48 -57 78 109 108 64 -11 -127 91 80 99 -110 -98 -82 120 59 -78 -11 -78 -85 -35 -70 87 19 -106 3 99 44 39 96 79 55 101 83 -61 56 114 -110 -88 120 107 30 -108 12 14 -21 99 -40 0 -116 -60 56 40 -83 -63 -34 121 24 10 -82 21 110 99 64 -97 -38 85 -66 29 81 20 2 -44 36 -100 -118 -14 60 44 -39 -52 -38 -43 82 -100 21 30 116 63 12 91 30 122 122 -94 -18 61 -24 -93 -116 31 -99 -2 -67 1 -51 63 -93 -112 -23 -47 -72 -51 82 -1 121 -127 -56 4 119 80 -11 44 64 -71 -82 -52 -73 115 55 -15 -99 57 -56 -36 -98 108 -104 43 -115 34 34 -81 20 21 -78 86 -9 -32 -104 14 -52 -40 40 76 79 41 72 103 60 -49 -63 -69 83 117 -19 30 68 -27 20 -63 -81 7 -112 -109 -47 -118 
-113 -32 -3 -127 112 118 38 -79 29 9 66 119 22 14 27 -94 -72 57 -72 22 -59 -22 105 -34 7 15 114 93 -99 -110 -3 -6 -43 13 -104 -78 -62 74 20 -124 67 18 109 5 95 -15 -105 121 30 -55 21 25 0 -99 23 82 -38 49 44 -57 -70 -41 58 -60 120 89 104 -30 111 38 15 86 49 -126 -79 103 22 -51 -60 28 43 -90 -93 13 28 -40 -90 -32 17 -69 -6 -59 -61 -126 124 -46 70 26 -68 123 -50 42 16 -11 88 45 94 -98 -121 -123 71 28 -6 -98 13 -115 51 69 110 -71 -99 101 16 -71 -46 -59 -2 -33 61 23 -14 -64 -106 -63 -38 -47 -105 -113 61 -33 -19 94 -27 121 -108 120 34 -73 115 -26 123 41 57 71 -112 94 -23 12 8 -65 1 -26 -12 -99 70 24 -97 -23 -3 -59 97 104 85 61 7 70 -69 -122 -70 -77 -82 95 -82 98 -40 47 120 -105 -14 -36 -46 73 -60 23 -46 -42 -42 6 117 -97 -11 31 -2 -119 1 -42 -66 -70 -108 73 -92 -83 -85 73 71 -2 -108 -61 -82 80 -74 -36 35 72 10 29 108 105 117 -48 -50 -104 -63 -4 -81 39 -32 -34 -49 39 -19 -35 -83 68 -87 -98 -101 -74 105 -119 78 -49 114 -59 45 27 -54 75 91 -104 -102 -23 3 118 -33 57 -67 74 -22 -19 63 75 -89 35 114 -68 -46 10 24 -35 -73 123 -108 111 45 87 -3 -51 -4 -54 124 -92 -9 -127 110 -25 75 96 78 121 32 -44 -8 124 -38 75 65 46 102 -68 94 -54 -1 45 -126 -85 107 -82 -124 83 72 -95 -120 -40 -111 -11 79 -50 -56 -42 103 -80 -72 -30 -50 55 -44 -80 121 52 -116 107 -63 120 -117 -55 -119 -110 104 -7 42 -48 -121 68 -124 100 -30 -44 48 99 -5 53 -75 -97 -54 26 -90 95 15 113 -107 114 -2 -52 -77 127 33 -106 37 113 96 -101 52 21 112 9 -70 -70 -99 -93 22 7 27 104 -57 -20 -14 36 83 -107 -73 63 61 -33 88 -63 5 -115 23 -81 92 109 -61 107 -58 42 -99 58 40 37 127 -117 26 -30 56 -87 -68 110 114 62 20 -62 41 -72 -5 16 66 -22 -72 52 90 -102 99 88 -113 -89 -101 -33 113 62 -7 31 109 -66 -24 -23 -7 115 -74 46 15 68 -40 -77 -86 -93 60 -36 -11 -56 84 -82 89 -54 80 -41 -113 44 -31 -39 -25 -37 -58 123 127 -65 -58 112 61 119 30 -37 31 42 -38 26 -56 -67 -35 93 27 -69 -118 80 119 -106 -67 -45 62 83 -95 -127 
121 104 75 50 84 -10 -57 9 -25 -55 -127 -40 36 -114 26 47 -28 -110 -46 -84 60 93 -46 15 107 -94 -14 -94 95 -50 -70 -89 -85 -68 92 -38 -76 -123 -80 80 -114 106 -2 40 -111 113 -8 -76 -95 114 71 7 -64 100 80 -76 24 -99 -28 81 52 127 55 107 -90 -33 -27 73 11 -108 93 -97 -46 68 -22 88 14 17 80 104 40 118 -119 -21 -85 -39 113 123 46 -111 -38 -79 -79 96 42 -8 85 43 9 -24 127 53 28 -111 -1 -16 83 103 -79 106 -110 74 45 -2 -109 116 -102 -43 23 36 69 13 101 89 -73 37 -39 32 121 -88 71 -22 31 -80 -75 -111 29 10 -9 70 122 -43 0 78 52 -42 46 76 72 72 96 84 84 10 -6 87 86 -115 -10 37 86 81 -72 -20 102 -17 117 28 82 56 83 8 36 106 124 -118 -33 54 114 58 123 98 30 -84 58 86 118 93 -86 54 -1 -112 127 -81 64 -118 124 26 -62 55 -74 60 32 -45 61 -44 -71 -3 -53 106 -2 -29 -121 86 110 38 123 89 88 82 -33 115 19 58 -81 -12 116 -106 -75 38 -68 -81 76 -18 -26 9 10 94 58 76 86 35 -41 12 -97 -80 -23 118 -99 18 8 66 105 43 89 127 -66 -115 -76 -16 86 -64 -85 -8 -46 101 4 -5 58 56 64 -51 70 19 41 -46 118 22 -77 117 -42 -61 -116 23 12 68 118 92 -59 90 18 -92 -113 -20 -121 1 56 24 -86 98 -46 18 41 29 -70 -103 -91 102 14 -46 -50 -33 37 89 -58 56 83 45 -74 4 -115 44 83 0 106 -49 -85 -126 102 -48 -46 -67 -44 23 -80 -24 17 -53 -89 97 85 -42 101 34 17 68 51 -126 1 60 -115 85 28 97 37 105 -20 29 10 -88 -99 20 -29 -17 85 121 106 83 -24 -114 0 20 -72 62 -111 -123 -127 82 6 -85 -109 49 54 52 103 -18 40 36 -102 -95 -115 -34 46 99 -39 93 -69 -19 101 -81 3 87 12 -89 -56 -117 61 119 -44 30 92 40 84 -115 3 -11 122 -110 80 2 127 -78 13 34 -17 6 -35 62 -49 82 45 74 -12 -22 -23 45 -75 125 -101 109 16 -118 -42 77 54 50 110 110 45 120 -119 -14 113 -5 -66 -30 -89 -100 -18 121 -88 -92 -44 -48 99 88 22 -105 -117 105 -63 20 -103 3 -13 -30 -83 -57 3 32 39 114 -95 -62 -87 14 67 -87 11 81 -20 -114 103 -92 41 126 -35 42 -62 43 -25 19 103 -5 45 -104 30 41 127 -123 97 27 
62 -107 25 -70 -35 -47 72 102 58 -105 7 -118 -22 96 -105 119 37 47 89 -6 -31 -6 102 -33 115 89 -45 -28 59 -83 18 -8 -65 112 -77 90 30 -32 1 -58 -124 105 -29 -68 74 15 -44 40 -24 -100 -17 120 83 -73 -91 -123 -35 -48 -67 57 -21 -69 81 24 -95 92 61 44 118 -111 -91 -18 28 -72 -124 65 20 -76 -109 -56 104 79 -43 -101 -62 -120 23 -32 7 -2 23 106 77 -27 53 49 -57 -82 39 -85 23 22 95 -95 112 58 -102 -11 112 58 -56 101 -92 -52 115 -48 -69 -75 85 111 88 76 -83 71 -74 -30 81 17 119 -75 29 10 69 16 75 -124 -19 -24 -6 105 -43 38 -126 91 36 -51 -50 34 19 -96 -109 -91 -25 28 -29 -51 42 108 34 -56 111 0 -40 95 -4 -94 -38 -61 -45 -36 16 38 41 6 -1 47 -105 -48 -109 -126 -70 -96 121 28 95 62 -91 43 70 -74 -51 -3 -49 25 39 -75 -7 86 88 6 -37 -126 -6 -75 113 -118 88 -11 80 -5 7 -14 -89 -45 119 -106 104 36 -32 -50 126 -10 28 71 -86 121 -59 -54 -103 102 32 -30 -68 9 -13 -90 53 118 -38 -7 46 -89 37 37 -77 -15 -36 -64 -66 49 -68 119 18 -66 11 70 -110 40 -31 15 -10 -116 8 76 22 -63 17 102 -81 -90 49 -88 68 117 90 27 -66 61 113 -62 26 65 6 109 52 -86 -19 117 -92 58 73 118 -90 -110 -97 37 26 109 -32 44 2 -66 -31 -119 -22 109 114 -45 -99 -68 -48 71 25 -48 -14 -50 70 -49 -12 114 -35 21 80 -111 -30 -37 113 -52 103 -4 -19 15 -2 19 -84 110 -84 10 -43 0 96 -51 -97 119 -12 66 -82 70 -71 48 82 -24 22 109 -49 -69 65 -16 -65 -51 22 -78 -48 62 116 42 95 -13 -110 66 -9 -116 91 -126 -7 -98 -94 -32 -98 12 -97 -113 -112 95 45 126 -68 -1 118 -110 47 78 120 105 35 -73 -41 -79 -12 74 2 69 -51 -8 -126 -78 57 19 -58 -123 74 -126 -122 -105 -55 4 71 2 -118 58 -94 -8 -118 -89 94 121 -112 27 -104 -64 7 -48 -44 -62 -97 -56 -3 -30 65 115 27 18 114 16 49 76 80 31 85 -44 -19 54 46 0 46 -46 68 96 -31 56 -48 -70 110 -75 81 40 -110 -42 69 -32 61 51 35 107 57 108 -13 31 73 31 51 88 26 19 -74 53 95 -35 -19 15 1 -5 1 -100 -102 112 -18 -60 43 -11 76 -29 -18 -8 -123 23 40 14 96 -114 95 120 
48 -8 62 -53 64 69 114 74 57 -74 -47 -121 -39 -6 1 64 -90 -103 -26 52 71 -3 65 16 -88 -13 -101 17 91 125 22 66 43 -3 44 -46 82 37 19 -67 -5 105 101 -5 -70 47 -2 -126 122 41 117 -115 -5 -25 39 109 -89 -7 8 1 81 -122 -19 -12 -45 11 65 -3 58 -43 53 -80 -112 7 -47 -94 12 21 64 -90 -79 -45 -102 -5 72 -93 99 -44 -31 52 -72 108 50 32 115 53 76 27 -106 3 -98 71 90 -126 -92 18 -54 -31 -99 84 -110 -45 -17 78 -69 30 -58 -55 92 -118 -49 -84 -23 119 1 -81 -49 83 103 -52 -59 11 -15 -7 35 2 -15 86 47 -51 4 -51 -118 81 -102 68 55 -89 -97 99 -116 0 112 -122 86 62 22 118 -61 -81 -71 -85 -51 20 21 -26 122 -56 15 -30 -46 20 -22 -85 24 34 -63 25 -46 56 -41 -18 -99 43 93 -112 41 -82 -87 -109 92 -15 49 30 15 -106 110 -85 28 17 62 59 -12 38 65 23 67 -46 122 -34 -58 -59 -31 -81 -75 -96 -34 -59 -98 -55 2 81 98 -115 111 61 105 -94 72 72 31 89 0 -17 15 -69 -4 55 66 -20 89 125 6 95 -105 -123 -77 -97 -31 -116 44 -12 50 -4 -5 -39 120 29 -114 -49 -63 -104 -60 -94 -55 -54 -30 -67 -20 -95 -91 -9 87 -126 -88 67 -12 46 -118 7 2 -61 -73 113 -97 -86 30 65 100 54 104 69 44 102 12 113 76 40 -122 21 -106 -60 27 -34 -14 37 59 -81 12 -63 62 63 -92 80 -91 67 64 88 78 -117 -40 -22 57 -83 -78 81 -123 42 90 -34 -24 90 23 79 90 -37 -56 -43 59 -82 123 -40 42 -43 79 -103 -84 -96 -24 60 -38 127 -70 29 -72 12 -43 95 -75 -82 -13 -111 59 -66 -89 9 -93 -90 -44 112 -19 -34 -8 112 6 96 -11 83 -12 102 75 62 -9 -49 -125 -39 9 -33 -77 23 12 101 16 23 -32 13 104 -49 113 68 77 32 19 64 -112 -112 125 -109 -95 -69 114 -63 77 62 42 -60 8 47 125 55 14 81 -76 -124 -91 14 -114 -45 45 89 15 -32 19 -18 -56 29 49 2 29 76 125 -72 -102 -82 -90 -33 10 -127 -102 6 4 127 -75 -74 -115 -92 -57 88 36 101 124 -37 -3 94 2 -10 78 81 -121 75 -52 17 90 -127 55 -30 -43 -59 -21 -86 110 -80 -84 -63 76 -75 120 84 77 78 -28 -95 98 53 97 106 83 -85 31 126 26 -96 -84 -20 74 -30 85 -52 -55 73 30 -88 
81 -66 -108 81 7 -28 -86 17 -47 -37 -79 44 -103 63 71 70 -79 -125 -108 -119 34 94 -23 126 -88 107 71 101 116 62 -72 83 31 48 124 -113 2 126 -19 34 -26 -127 -50 101 21 73 75 108 -74 -81 -93 -89 24 -66 58 38 56 -91 -93 116 -80 9 -95 40 83 -72 12 -73 -2 -85 -66 14 76 31 71 108 -63 -1 -82 -120 113 -72 -43 16 110 -76 -15 -118 32 -16 11 -59 84 -51 -108 33 -120 42 -123 -37 2 -85 -7 100 1 87 -111 -92 34 -104 11 -17 -75 -9 110 -92 -40 63 65 -1 108 3 114 -84 113 -36 2 -83 -25 -88 4 5 0 77 -17 117 -31 106 112 77 -102 28 114 112 8 67 38 41 -7 53 -90 30 49 -17 114 124 -43 -100 48 47 -38 -81 64 -89 72 119 23 94 -115 -96 -101 64 -70 30 8 127 -93 -9 47 -15 31 -70 -76 63 -88 73 43 -62 107 12 106 -101 -25 -95 -31 68 92 -70 66 -90 -116 -106 -29 48 -38 -27 -61 -66 96 -83 -43 109 -50 -42 7 -84 -65 83 24 127 -24 -88 55 -32 39 -38 -117 -102 120 19 -109 120 -121 21 -78 53 104 23 86 -25 -39 -4 -5 34 79 26 115 -116 -13 -123 15 -127 2 118 66 5 101 39 116 116 -68 -42 -127 19 35 -60 -38 -94 -58 -84 -90 51 -113 -27 -24 -83 35 94 50 123 24 -55 -23 100 -125 -74 84 -89 -105 114 -14 100 94 -88 69 -14 -68 14 52 121 117 111 -108 18 -74 -77 -91 118 107 -54 -55 5 -61 -57 -100 -113 120 44 104 51 -60 91 83 77 -100 -117 -30 -127 85 -127 -119 -41 18 51 -30 -54 -10 85 -22 -99 -42 -83 114 60 42 4 3 -58 -18 -64 -91 -115 -79 -53 -53 36 -102 -17 19 89 -59 -1 -117 85 -56 73 43 -116 -105 -106 -26 74 56 123 -124 45 -122 122 114 67 110 -87 -23 -17 34 17 -103 101 96 83 84 -15 -40 81 -68 60 52 101 35 117 97 86 53 28 27 67 33 78 3 -22 -20 -87 -62 4 -111 43 -95 -24 -106 -11 -22 76 23 125 47 126 123 -51 80 116 -29 56 18 59 -37 -117 36 -83 9 29 -126 -25 47 20 -58 119 -91 17 -40 -24 -108 94 23 -85 51 89 74 -112 34 106 9 -38 -61 -105 28 0 -119 39 -78 11 -56 71 29 -90 -8 44 -29 62 70 80 35 -99 -82 40 25 -114 -75 -68 116 -18 -44 -85 -67 101 -106 43 67 -83 -11 5 -65 106 -98 -38 -71 -75 -103 3 -47 94 45 -5 
69 24 -108 16 119 -38 7 -52 50 100 113 -53 56 -44 97 30 75 120 121 53 -56 -38 115 41 -85 -22 46 80 -33 -92 -65 -56 51 115 -31 43 127 -78 67 -126 37 99 23 101 28 60 -19 10 121 -52 24 -20 11 87 -7 107 -8 -83 -38 80 10 27 -60 -79 -111 56 -92 9 -72 -116 103 43 95 20 112 -41 -104 -81 -27 84 -126 -116 -95 -1 -30 0 -47 -82 78 -4 -82 127 -98 -101 12 -67 -36 126 -88 21 12 122 -3 -40 -5 -27 124 -8 97 -43 -26 41 26 39 -12 -93 118 91 -42 62 4 -119 123 -3 -21 -115 96 -44 -26 -108 78 95 100 -44 68 -60 -22 -54 -49 89 112 96 62 -66 109 68 -89 -103 -75 79 -33 -79 12 -53 -14 -82 87 8 -19 86 -20 -27 -35 -83 21 35 -34 58 -8 -17 -31 0 93 32 -48 -85 -21 -95 -106 -44 -61 102 68 110 -64 -18 -105 -116 -6 74 -6 4 42 -58 -90 111 98 -106 -60 -93 -57 -12 -28 -106 -101 -101 49 -58 55 -97 37 105 -8 -7 -2 67 26 25 84 0 55 -71 18 120 127 -81 -46 33 -72 -76 98 -87 -56 52 48 -19 -93 -43 46 115 87 58 35 -1 -44 90 -85 -120 -41 11 -21 13 7 37 -22 -86 120 -110 107 107 -124 -77 -127 42 12 -112 44 23 -44 48 28 -36 92 -76 -45 20 104 127 120 -116 51 -97 -89 54 -45 -86 55 30 -118 28 -59 92 11 -53 10 43 -20 -71 -25 10 122 89 -17 -38 -52 11 -24 96 -90 -46 -87 -87 -52 8 56 -103 112 -15 102 -21 107 59 14 23 90 -84 57 -110 -80 -18 74 -71 106 -30 -10 22 93 -110 56 17 -114 -28 10 -31 -70 -62 -58 -7 -8 -52 124 110 80 -39 15 -120 78 74 -55 -32 76 113 -16 47 2 -76 -95 101 -65 72 14 -97 -93 70 -50 -40 29 104 -62 56 110 -25 75 37 -19 -7 -90 94 84 27 87 -4 85 -23 -95 75 31 -82 -120 -126 -71 49 24 111 26 -68 -32 -30 -35 -119 39 -66 111 -42 50 -14 95 -112 75 -70 -4 3 118 1 29 -89 -48 -64 39 -33 109 46 84 -102 -118 37 44 32 50 -6 -99 69 93 40 123 116 -122 -117 -8 105 90 78 105 2 -102 -104 78 -59 -48 -1 30 -40 61 112 -48 -123 96 114 -112 112 62 40 62 -25 45 -38 -105 22 5 94 16 61 31 -11 104 -118 -124 20 18 61 37 72 -45 -104 41 2 -52 -20 27 -44 -78 26 68 125 -119 -98 -6 -113 120 -125 51 13 
-29 63 -46 -93 -47 -47 -127 -115 -29 44 108 82 -60 46 45 -88 30 -82 0 -54 60 99 73 89 -39 -36 -80 98 -58 80 -98 90 -48 69 114 83 94 -116 -107 -127 -118 35 -86 -44 -70 -116 29 100 33 1 23 41 -66 -92 41 67 24 12 -122 -73 45 50 66 13 34 -42 55 -37 -35 77 64 72 22 -35 -74 81 -14 68 61 93 -17 -109 102 -2 94 -50 33 -38 79 -65 -89 -3 -29 -106 42 -10 -76 20 103 -47 68 54 -97 -25 -4 44 35 -50 -113 81 38 -87 -108 -89 96 127 65 125 -14 -67 -53 26 105 13 59 -115 74 114 -10 56 -90 -75 -116 -122 84 73 -119 -16 118 -31 95 -37 56 113 72 77 35 67 115 -90 -40 72 -35 -86 -123 46 42 -20 -13 -49 16 -71 -44 -51 -110 8 26 37 114 -2 34 -96 7 42 -116 40 124 -117 33 -105 -9 39 -4 -1 41 -20 -30 -42 58 38 73 -65 61 74 -76 -58 -115 -41 51 109 -79 -24 66 50 -122 29 -13 -105 -39 80 -101 -120 34 -77 -119 -30 101 -63 -115 50 44 41 96 75 126 -54 -126 -109 104 126 -119 111 93 17 103 119 106 34 -38 -114 -5 -8 67 75 -22 -96 68 74 -57 81 -29 77 96 -31 77 109 112 115 -71 -30 20 -75 -59 119 40 -117 -76 -31 -38 -9 121 75 -76 62 0 -46 61 -108 -26 -29 -109 -8 38 0 74 -103 -39 103 -18 28 -61 -98 -26 -14 96 -114 -39 -126 -37 2 -118 123 -30 -91 42 59 120 40 49 -72 -96 102 -39 -62 69 104 92 21 48 18 -15 -31 -32 -7 -107 97 -4 -34 63 -113 -117 -86 93 -16 -35 105 84 -18 82 -46 94 -36 -64 -20 94 -29 54 67 3 40 -121 -96 -113 -5 105 -100 114 -20 -20 -54 31 43 -80 44 -86 30 -56 49 -126 25 72 -84 -59 -72 -51 57 -6 -47 -20 82 -95 54 -81 -5 -118 29 -54 -106 -16 35 -80 -62 19 -108 -8 15 -101 -79 105 -56 71 10 89 81 106 -114 -85 105 67 -46 110 -25 56 -17 -95 111 -86 105 -69 -113 -33 20 -54 -55 21 82 -122 41 -65 77 46 -21 -87 108 -123 78 -3 -46 114 106 94 106 62 -78 -38 -99 -43 102 115 124 63 -28 88 -44 -43 90 -89 1 96 71 53 122 37 78 -34 46 108 78 -60 53 -23 94 -110 -46 -127 125 -107 35 -123 -113 -61 63 -37 -39 -124 98 66 123 -24 15 119 117 9 -92 -7 66 -84 47 109 38 81 -22 50 66 -45 -56 52 -52 -114 71 77 5 
3 -119 30 117 24 -98 0 -45 -119 41 -63 20 35 -122 120 -121 92 24 61 35 -56 -112 -121 -2 83 65 -67 -35 -10 39 -80 -103 121 7 -6 -123 -95 -4 -106 -86 -113 -7 93 -57 -4 -40 -9 112 108 116 20 101 9 89 -80 99 -80 56 97 -86 -58 16 3 13 -102 96 119 120 118 -98 -70 -52 -97 -79 26 113 -31 -48 -104 -119 23 -7 -90 14 69 25 38 4 56 -110 -3 -47 -124 -115 37 123 48 85 62 102 -96 -16 86 -32 -53 127 112 115 66 -14 -123 93 -15 -63 -126 75 76 62 120 -93 96 -44 9 8 11 -56 77 -58 74 4 6 -125 -15 97 80 122 -70 127 9 -102 -41 5 14 -55 -40 -53 77 4 16 35 41 -20 -96 72 -8 -35 8 -72 -22 -27 -98 39 52 -37 -74 -93 17 -3 113 1 80 -23 -45 77 -120 -18 48 -77 89 93 113 -51 97 -10 -72 121 -87 124 -114 -15 -28 -5 -9 -62 8 -14 25 -66 46 -77 99 -31 106 12 -98 106 10 21 -98 -24 -43 -70 21 109 -58 17 -108 82 79 -110 5 105 8 37 107 -28 -88 123 -4 -38 20 74 118 -114 -116 29 90 -106 114 -28 94 -19 63 52 -54 -72 57 -82 11 -43 111 -39 75 -35 -81 -68 -59 31 86 12 -39 -16 48 98 87 55 -91 79 45 124 -41 18 4 2 92 -3 -85 -82 -115 -25 -20 -63 -69 117 91 -124 115 60 -19 -71 21 118 -108 43 32 112 -13 -62 -127 -107 -87 -5 26 30 -96 20 0 0 -68 -108 56 -55 108 -8 -22 49 -23 6 -71 -115 -109 -23 110 73 36 15 -81 -56 -106 72 4 -94 -96 12 -38 109 56 70 127 45 125 2 4 78 -13 81 -51 -17 -37 -33 -28 -14 81 118 -10 -73 31 69 120 4 90 108 -119 123 106 -69 -101 -101 -6 76 98 104 -84 88 -79 -35 45 -113 105 -47 29 26 -84 124 34 11 122 -40 16 -96 -84 -125 25 -41 -22 17 -63 50 90 -82 127 86 30 33 33 28 -111 -41 28 43 -126 -27 -115 44 3 111 -67 -26 53 109 -121 -81 36 10 -89 51 -68 119 25 22 -127 126 -102 -81 79 119 95 20 -25 118 -127 -60 23 -9 113 36 -22 -106 15 18 119 37 -82 90 -34 77 34 -83 10 110 -7 -101 -1 -122 -16 -41 18 -87 -119 -117 -69 -75 29 -32 34 -33 88 53 -19 -24 -23 53 5 21 117 -38 51 -64 -43 -115 -26 -82 10 12 -13 93 -115 6 -103 90 52 5 81 4 -26 -10 -66 31 102 -4 80 -126 
-25 -29 -26 66 80 -88 97 60 83 82 111 37 -43 91 -50 49 -100 71 42 -27 -66 123 -25 -7 -40 -22 -53 39 64 35 67 -44 77 -105 100 10 -96 -68 -56 113 29 57 22 79 -71 100 10 -115 -7 66 -9 -64 6 -51 -100 6 -8 49 -35 77 -61 72 44 -83 -1 31 45 104 -20 107 102 98 48 -81 11 86 -73 -113 -83 -27 10 -68 -103 -27 109 -104 -13 36 123 9 49 47 3 67 -41 -84 97 -111 116 -50 -15 -30 -6 -78 119 -56 -56 122 89 -55 79 -13 -106 104 64 32 -58 -118 101 65 -126 31 31 -74 125 -98 76 80 39 -99 -7 115 -51 65 -92 -109 44 -91 99 -119 39 -71 -6 -60 26 42 56 7 123 120 -98 -103 101 42 114 89 94 25 -66 -38 -75 -96 65 -65 54 -5 98 -102 -71 -120 53 50 52 19 -22 -104 -98 50 -114 -98 -32 10 82 19 -52 94 -119 -21 124 -7 -108 -93 -22 58 6 89 108 -88 -101 -121 -92 -69 18 68 -10 -115 -46 -119 111 -107 16 -83 -68 -58 3 35 -36 -71 9 111 47 21 -12 -43 101 -121 58 4 -81 -67 -19 -18 64 122 57 -74 21 -46 34 -112 125 -1 -16 16 -119 60 8 -106 113 30 107 113 -51 -55 -83 44 -117 56 -12 57 62 -124 -25 32 19 117 -35 83 -96 -87 -26 -124 -63 -26 19 8 -11 -52 18 5 -75 34 -33 -81 97 61 5 -14 -14 114 -95 7 38 -48 127 -83 43 -124 87 -71 -120 -65 -42 39 33 105 63 -62 -21 -52 15 -32 -38 104 -26 40 -18 -62 4 -27 -24 18 88 -66 19 -91 -41 -70 -54 36 -6 72 -26 73 73 -111 -100 5 29 -127 -93 -67 -103 60 25 105 79 -85 -14 -66 -12 -104 106 -3 -107 45 -107 -10 45 13 92 -108 85 82 26 -43 103 44 -120 -73 15 35 45 -32 -57 75 -42 71 -30 -123 -12 -67 83 -7 -79 -58 33 -74 -96 -16 59 35 -65 74 -97 42 112 12 47 -14 40 13 -53 -112 92 50 92 9 16 84 68 23 43 -42 47 -7 -127 11 73 74 10 -81 -77 89 45 102 -105 111 7 88 81 -27 7 4 103 -82 -117 30 22 88 68 -62 76 -1 -126 54 28 -75 -27 -53 118 45 38 -106 -114 -97 51 90 25 -105 76 29 56 2 8 -83 -83 43 112 91 2 85 43 5 7 -119 -86 92 -120 40 48 -45 -70 69 -127 -96 65 18 -8 112 -102 -57 19 32 57 116 116 65 28 -118 -39 -78 -61 -106 -123 48 -85 103 -57 -13 74 94 
-32 -89 -81 -18 -80 -66 -99 76 -67 -115 -34 24 93 -92 125 -63 -108 68 -52 115 -75 -10 87 17 -75 -60 -118 -93 123 -26 -35 -87 -108 9 -106 -106 0 -95 -8 118 -33 38 64 126 18 -22 48 -104 -41 27 -96 -90 -48 88 -73 109 113 107 9 32 3 -74 -24 -77 -6 -16 120 119 -11 50 -22 125 -113 -110 106 70 -88 123 -120 18 -67 -25 119 102 -78 -60 -42 -43 93 -71 78 -91 91 83 113 -46 -112 80 -69 -99 96 69 -62 -59 -123 -34 26 84 91 -98 49 45 18 -125 -106 43 78 -77 -112 71 3 77 -52 -120 65 -12 -40 94 -62 60 -40 -17 80 74 -98 78 -27 73 -72 3 -75 -28 0 -75 31 104 74 -36 -122 93 -83 -42 7 -74 -120 2 19 -46 12 86 25 -24 81 -126 30 17 -88 53 -9 -3 76 47 106 -41 10 61 -85 -93 -64 -94 95 127 56 -86 -17 77 -34 67 29 -55 104 -85 26 23 -68 -56 68 -81 -58 8 36 73 -59 88 -101 37 -71 -41 2 79 -60 -104 27 26 -23 -62 -86 21 5 84 36 -77 -52 102 -54 15 -66 -75 30 3 1 63 27 -35 66 -100 -110 107 -113 -97 -12 49 58 27 53 -8 66 -24 32 -89 -30 76 -28 91 122 -118 -89 36 -118 -62 113 -60 74 -67 102 83 -127 51 -74 -47 -77 -121 38 70 -101 -47 61 100 90 72 -91 100 -81 -28 -116 -43 102 -95 87 56 109 81 69 -26 42 27 63 -43 44 -12 -12 4 -110 126 -43 -86 109 -37 55 75 31 75 -19 115 25 -45 -113 24 0 -9 -116 -91 -86 -40 -106 98 -7 91 76 47 52 -67 23 49 -38 -51 -113 -119 -115 33 -114 -67 54 -63 72 -48 -54 -90 3 101 -86 -6 -103 -43 -42 -47 -24 -91 -29 -57 26 34 -92 119 1 -91 62 8 126 -110 96 97 33 -102 -79 43 -105 19 109 -37 -72 -115 115 72 -30 94 -19 105 -99 90 -39 65 82 -77 33 15 20 109 97 -72 99 49 -1 81 52 71 123 -52 -74 -120 74 98 -100 55 -105 25 12 14 -75 123 41 7 6 63 -24 -103 -122 27 -78 79 -10 105 -118 -110 -54 1 -29 -122 -96 -70 -2 -7 85 2 41 37 110 -26 -83 -94 -70 56 -60 37 -60 49 0 -46 -93 24 -118 13 -31 -13 42 -123 37 -102 -28 114 20 -15 4 38 -119 94 -123 -78 81 -81 62 53 -87 4 76 27 -83 52 106 -18 34 41 93 14 120 120 -62 31 -22 41 88 23 -107 -68 -79 28 40 114 -17 -118 62 63 
-81 98 82 -34 62 -108 34 19 -31 -76 26 -82 -72 33 104 109 -31 13 71 1 87 126 -87 88 -63 -78 -123 81 113 -95 22 58 51 -43 -48 14 -125 -31 -18 37 35 -124 -85 -45 -92 12 6 6 -28 -9 22 92 94 42 -8 -91 16 -11 -21 -11 -126 81 -18 26 -69 15 -24 121 -105 68 -5 -95 -48 -98 105 44 -5 24 -27 62 77 64 -84 -57 -16 -77 -91 9 61 -96 -94 -100 6 -58 62 74 -32 -9 28 0 112 83 55 96 -86 109 -94 -8 41 27 73 -34 41 58 -39 -35 -123 54 96 123 77 -10 -88 76 -8 -40 -110 -118 119 -123 -37 20 -127 -98 -96 29 -53 -82 113 -56 -103 -92 108 76 -101 -2 -115 -64 53 86 53 15 37 114 -61 75 78 -119 86 29 109 99 80 38 -96 -84 64 19 -109 -25 -85 91 88 -68 87 -62 74 -44 -17 -69 -31 -33 -76 -80 40 39 -30 -37 115 -81 -45 -72 126 -83 68 39 2 -112 -56 38 41 41 116 -24 8 -9 50 40 93 -59 73 -81 35 -72 6 37 12 -19 -60 9 116 -59 12 16 -108 58 -63 100 108 117 -69 47 80 -88 36 -27 88 -85 118 64 -42 73 -83 -12 114 -80 36 -123 -58 78 -43 21 -22 53 -89 67 -74 68 -77 75 -96 -110 -25 45 101 52 -81 -12 -85 91 61 -52 -109 -99 -113 -75 112 -21 -95 50 99 -100 102 48 -112 74 -70 -112 -7 38 38 74 -72 74 73 -93 77 -126 -63 -125 3 75 -50 63 -114 39 -61 -5 -52 22 -113 -9 -28 18 -71 -67 -15 69 -35 17 67 -38 78 18 -112 -29 -46 8 54 -111 16 -92 -125 -116 98 -69 20 -107 -8 -86 117 111 -106 -123 -39 4 -9 25 60 123 -25 -38 -4 -19 -20 55 -122 33 40 -14 42 -37 -35 120 102 113 -84 -37 -65 -104 1 -99 75 -105 1 95 112 -112 -53 -115 14 -100 99 11 -48 15 -39 66 -62 41 -109 19 -94 -113 108 67 23 80 -120 -3 -118 -36 49 37 -32 0 60 53 -97 -83 21 -126 -3 -58 48 -105 -96 -101 -76 -119 78 -113 14 80 102 104 28 85 127 -7 -109 65 109 16 105 -51 56 -64 38 -17 65 -113 83 -34 90 -96 60 109 73 -96 115 -89 87 46 -114 -24 -23 91 -109 126 -78 -88 118 -21 31 2 34 71 -72 -44 -51 -108 122 114 -66 56 -127 -45 -99 -26 8 -56 -26 25 12 -68 -126 15 99 18 -110 -22 -46 -27 -22 -84 -44 50 -76 49 -42 -24 51 18 119 -51 26 -8 -108 31 -59 45 
39 -61 -18 29 -100 -92 44 64 -33 -36 115 33 -13 116 -68 -125 -90 -100 83 -52 -35 -85 -58 94 -75 125 10 -33 -51 77 101 -78 -118 -42 39 2 93 113 -127 123 -122 -114 72 -50 70 120 92 -119 123 56 39 92 -59 -125 67 7 70 35 -105 -42 29 -74 -11 -100 -108 56 87 87 86 105 -65 -32 50 23 30 -78 -76 -28 -108 76 -5 5 -1 109 101 -26 54 -98 -109 68 -61 35 -58 115 -112 -13 113 7 -29 65 -54 -69 24 24 100 -113 93 -27 96 -44 -28 105 -122 -102 34 31 102 82 -91 -73 102 70 105 21 23 68 96 77 -59 -85 -80 -18 -118 67 -42 -109 119 -65 -91 -74 -33 -117 -15 -88 -15 123 -126 43 -78 31 -107 -57 50 59 60 107 18 33 -51 71 -94 107 -37 14 -85 -46 28 -56 -51 94 -92 -5 3 -80 -90 -92 -1 27 22 86 76 26 81 -39 -70 80 -91 -70 -81 -109 84 4 -40 -7 59 104 28 49 -104 -33 53 -73 51 -108 -83 85 1 -125 118 123 -35 -102 -60 -61 84 84 112 -44 122 -70 -57 72 38 3 -110 67 -89 27 26 106 -125 91 65 60 -34 -39 -59 -71 -61 66 -34 103 24 -34 47 -37 15 60 -12 62 -63 -117 -27 123 121 -26 111 112 -106 -82 -44 53 20 -29 24 -8 -22 -77 -84 -85 86 -46 -50 116 50 123 -126 -116 46 0 -92 15 -63 -118 114 -117 -108 2 -80 17 -70 -62 109 -64 -46 42 81 59 -40 117 -89 90 -49 7 23 9 62 5 104 -50 -91 -111 -52 -107 57 43 108 48 -42 -107 20 80 -87 -2 -125 -104 102 0 -92 33 126 33 12 76 -59 81 98 111 87 -19 -62 -57 -16 -25 109 -21 -28 51 112 1 32 -6 -13 -30 61 -46 110 28 -114 -31 47 -65 -34 45 -100 -94 -19 121 -97 58 -61 -122 -32 -106 7 -124 -55 -82 99 80 91 -104 71 -35 106 -11 36 -27 -68 -110 -104 24 68 118 35 32 -7 45 -87 -109 -13 12 -43 14 -112 5 -105 -1 29 -9 31 68 -57 24 -10 -17 82 67 -103 21 20 -49 8 0 -125 -40 -36 37 -48 78 -70 116 103 -22 60 119 73 -28 95 14 10 -23 91 -42 -28 95 -32 -48 113 -115 8 36 -16 -43 -108 -18 -79 -69 -102 42 -116 24 -122 -126 -5 -45 73 86 -90 -20 -100 43 73 125 -22 4 -121 -120 88 47 66 -1 -112 25 -60 -45 -35 -13 -45 96 39 30 25 38 -16 -12 80 -110 35 -65 48 -114 7 99 -61 91 -104 116 -40 103 108 54 
-113 -109 -60 35 86 65 93 51 25 -9 1 4 -8 52 52 96 -99 -70 -36 -93 22 -14 115 62 -76 -1 81 -19 -111 -36 68 6 -33 123 -30 -61 -91 -41 -119 -37 23 -100 -105 -108 -126 -26 -94 -87 -98 125 102 88 66 29 97 41 -60 27 78 78 -122 -10 5 71 -88 -47 45 37 -99 73 90 -64 15 -69 -29 -114 -90 -109 -21 64 18 -55 95 59 -61 -69 96 37 29 -113 80 99 125 72 104 51 -61 -83 100 29 19 -53 -2 123 79 -38 70 -34 -16 11 96 -41 -101 -86 42 -101 -79 16 -62 115 -104 114 86 -88 73 -44 52 -98 -24 32 -43 26 25 -60 -88 -16 -4 -51 126 8 49 113 -14 94 -113 118 101 14 -81 -59 114 126 -53 90 2 -6 87 -12 22 102 -83 -30 -50 103 -76 77 -91 90 45 -22 -44 -40 121 120 119 25 125 -4 -27 85 -117 -91 -95 -67 74 -50 -14 -97 -80 79 105 -72 -120 -93 27 -76 -14 93 -65 -121 8 -28 28 -35 -97 -80 43 57 97 89 72 78 31 31 112 -105 -9 -25 52 105 110 -91 25 -112 44 -85 -99 -15 -88 114 -54 -88 -69 37 57 -22 -38 127 -54 87 -61 85 12 -10 -103 -89 43 -103 -29 80 -16 -77 27 33 82 -26 -94 85 -94 77 -77 81 -15 -67 -111 70 -111 -58 44 -65 106 -29 -4 93 48 -54 70 114 112 -21 -108 89 -28 -117 97 51 92 -127 -58 -102 56 0 -96 -51 20 69 30 -12 40 99 -24 -58 -117 108 -42 60 74 101 113 118 -83 -99 -58 55 -108 49 -123 -35 84 64 -127 119 112 -40 7 36 -111 13 -89 -54 -79 -4 56 116 -18 83 16 101 32 -97 -95 -81 14 7 -36 92 86 -104 66 -57 63 95 22 21 -22 -46 61 -76 32 1 111 27 -56 50 18 34 -20 -86 86 -54 38 -17 124 -65 -121 32 -113 19 74 20 -61 -92 52 -6 30 -59 43 58 88 -82 -18 -6 33 96 -16 -81 -119 -106 86 -127 93 -72 4 110 4 33 -104 71 89 94 -6 -5 -117 23 98 6 101 81 -65 -20 27 17 -57 -45 104 -35 120 -47 123 -66 -11 -81 -108 71 -44 -81 62 -4 -37 -65 5 -57 54 -100 -9 47 22 -117 -56 67 40 -111 -14 -36 -35 127 -88 -123 -99 -111 -56 6 66 -125 89 -58 51 83 80 85 49 88 -94 108 -13 -110 -118 -123 -122 15 16 -52 -110 20 51 -45 119 22 64 -15 -84 93 1 -33 -90 80 -11 -77 -30 -10 14 -30 19 -50 -100 -85 -80 -73 -41 -98 79 -100 
32 53 70 -51 112 114 91 -93 -119 59 -12 113 83 90 -119 -98 67 105 2 -88 16 -81 -92 12 -17 -16 -112 -9 -67 103 -84 -91 1 76 98 -74 -49 -13 -86 -40 124 -115 94 -16 -53 72 -117 -13 118 106 88 60 30 53 -82 2 35 -67 87 -31 76 -24 64 -26 70 -94 -82 121 -119 -127 -41 -56 110 21 27 121 -125 -70 -117 -73 25 81 67 -91 101 -54 -74 -126 -37 -24 -61 71 -48 21 -54 19 -1 -87 82 79 33 61 23 -21 85 -29 28 -29 -38 -48 -40 45 80 -78 -124 30 -90 -117 86 -80 79 -65 -105 82 123 11 -120 -43 -86 36 -36 94 55 107 -34 36 -66 -18 76 33 -52 -62 -74 75 -9 114 3 -53 52 4 -112 94 -116 -102 108 -78 123 91 55 -63 13 -122 -43 55 -101 -28 27 122 124 -13 116 118 119 2 -12 -121 -81 1 -90 83 115 -37 -123 -70 112 -35 16 -30 49 117 32 -119 8 -87 36 5 -42 122 -105 -113 -4 -66 44 3 100 26 -8 -122 24 2 -88 36 121 122 44 -53 -58 115 -120 -44 38 109 -47 -61 -103 12 37 30 10 119 23 -88 81 -127 34 102 -81 52 -77 38 111 -49 -41 11 -42 -12 33 126 44 1 32 76 -63 -10 -93 -106 -126 -49 72 123 40 108 -120 -119 84 -28 -65 71 -30 1 -39 -23 48 107 105 -33 14 45 72 -101 43 50 -40 29 65 69 89 -47 -111 -25 60 -122 11 110 -15 37 -119 5 121 26 -66 34 -92 33 45 -21 -81 -90 20 27 -59 -10 -85 -57 -125 -114 22 116 -94 -59 71 113 -65 10 -105 -15 -85 -10 61 111 -35 102 81 33 -110 100 -66 24 -96 -15 7 -62 16 -108 85 -93 -34 -50 66 90 -50 -9 95 -105 101 11 -97 -4 22 62 -66 103 -45 59 72 -84 -62 88 12 76 120 -7 -68 87 98 61 -78 32 38 120 95 9 106 23 -116 -23 -57 -76 -70 56 92 96 113 -70 -20 -24 -103 -102 103 10 104 -22 110 106 -86 119 52 68 -98 47 9 32 -3 -1 69 -48 -57 -3 -108 125 -80 -25 66 70 -125 45 -41 67 -25 6 80 -52 75 -11 -85 14 43 93 -92 -38 -126 -75 118 -11 106 34 -44 -88 -104 -42 56 40 37 114 -94 -92 -48 114 -101 -121 -1 -11 100 78 85 4 25 112 -33 83 122 -30 -35 82 -95 24 -95 44 122 -52 40 -14 94 -105 -127 -1 -112 98 78 -29 124 49 13 -17 30 -106 -125 -107 23 -55 -10 -86 52 52 -2 -79 -7 -99 -79 39 -50 12 
-59 -14 78 71 -74 37 -101 29 -94 -69 11 -47 86 -112 87 -70 119 82 100 70 127 -76 -95 -121 -2 91 -107 -118 24 101 54 27 -40 70 69 31 -28 86 -126 116 61 0 -85 30 29 -30 25 68 -17 -60 0 15 -59 35 -43 -86 125 -41 10 -79 121 20 -86 73 -43 -108 -32 -34 27 92 -124 92 -50 7 77 -105 115 113 47 41 36 -73 -125 78 -9 -30 -3 78 68 108 71 7 -23 81 -119 105 98 89 33 -32 -95 41 -44 13 -22 7 40 47 -63 68 -95 -108 -109 106 11 29 23 -51 9 -35 -119 126 114 32 110 -39 -54 -75 62 112 35 -48 -29 35 105 78 123 35 -125 110 -41 -40 -126 61 113 96 112 -101 80 -36 76 -73 -9 -114 80 -108 119 -17 79 38 9 56 93 -118 -1 -56 63 92 118 -59 -121 46 -80 64 -116 -26 28 8 -106 56 -120 -103 -34 -25 -29 -106 -38 34 1 79 -82 -94 -82 116 71 -66 -105 24 -4 26 -39 104 109 -109 123 68 41 -49 -13 79 122 -79 -93 -28 65 -106 -56 -82 -11 -46 -34 -107 42 -109 -61 -1 -46 -98 -33 92 122 -22 -44 -108 56 113 124 1 113 70 56 95 47 -124 -48 -119 -119 -116 3 -43 -29 -104 84 -13 -50 113 -22 -69 -33 31 7 -36 8 -88 78 50 57 -43 88 -122 -58 21 122 28 27 -76 -78 -11 -35 -99 -34 118 63 -52 -92 101 -31 -2 50 52 32 56 112 -104 -48 -73 -103 127 -80 -94 -42 80 48 1 68 40 60 -84 27 -57 15 51 -126 116 -108 73 -79 22 -69 -104 126 -22 78 15 42 115 108 36 63 -25 60 59 -72 13 122 44 33 -34 -126 123 71 -22 -42 45 12 19 -119 109 16 -103 106 82 23 -69 -45 94 1 121 -92 -84 56 102 -80 -126 -19 84 68 -97 97 -72 -51 26 -64 69 7 -68 -38 -15 91 -78 113 -48 58 -124 -26 110 121 -119 86 -86 39 -53 41 73 -35 -12 15 97 104 -107 123 -119 -91 -76 34 20 -66 -70 -38 -38 41 62 104 -95 8 -72 -7 65 99 125 86 -65 -106 39 -47 -11 -89 27 67 -14 34 67 6 -115 -66 -79 64 58 -101 89 118 88 21 -110 5 85 -94 48 92 119 15 -124 20 55 67 41 15 110 65 -8 -15 -11 118 -29 19 12 -96 -113 33 -74 87 -51 46 0 -105 81 -93 51 -88 13 -87 -26 89 0 -78 -98 89 43 -121 -3 -6 -118 118 -21 43 -50 43 33 75 -7 98 -14 0 -51 -7 62 58 117 -39 64 95 58 
-108 96 -23 -70 -78 -91 38 70 -38 -127 -59 118 -12 120 -66 39 -102 -116 -86 -49 -105 -72 59 -7 -31 87 -104 -11 76 110 120 -73 32 -36 22 -84 115 -84 29 39 45 76 113 64 87 -50 102 50 58 -20 35 -116 -3 -9 -69 126 -80 9 7 41 107 51 -126 24 -55 92 -70 45 86 20 -106 -59 -111 -64 -36 -68 122 -27 -95 102 -27 112 67 43 -42 -111 -126 10 -123 -24 -96 -59 -101 -122 109 -98 120 -73 85 121 47 67 -95 -36 -15 105 18 53 -33 -48 -126 124 109 23 22 -91 -76 43 -28 106 79 -110 -36 0 112 -94 -93 -125 -1 -45 -125 -114 -88 37 -83 -2 -3 75 -11 103 -24 122 23 -79 67 115 -116 -78 116 3 4 24 -108 64 25 23 9 -15 105 -43 95 95 -56 -44 -114 96 -37 61 33 -63 -36 -112 -110 -109 -23 92 67 51 -74 85 42 -124 -120 100 -122 98 18 -38 127 48 57 -50 95 62 66 55 -25 -65 -28 -56 114 86 99 -71 30 48 -62 49 78 37 -78 -75 58 -40 60 99 7 3 113 117 -10 35 120 -126 21 -13 5 -29 32 -6 -18 -67 107 -68 26 77 42 12 38 -87 -16 -14 117 66 46 -30 83 77 11 -112 3 -40 90 -90 -73 8 -74 -46 -101 -43 120 -88 -113 -68 -9 62 10 41 40 16 40 -6 38 32 94 -105 75 -100 50 -73 -120 49 36 104 76 -117 34 -60 -34 125 71 -89 62 -41 -92 24 41 101 113 -104 -118 26 21 18 -95 -73 -98 66 -113 72 -93 70 -63 -99 -45 109 -111 32 -67 11 22 -86 -112 -65 -92 52 14 42 -17 11 125 20 -99 -5 56 -45 16 -123 -51 30 97 110 -32 3 44 84 -8 4 75 15 -23 38 59 119 -15 -39 42 -2 -124 -91 119 19 71 -29 35 -47 -72 83 -58 -96 6 -22 42 -91 -103 77 -35 -22 -39 -75 84 47 101 -26 31 44 26 86 -9 40 -64 -92 14 115 -116 -10 127 62 102 106 25 -12 -110 -121 79 74 -77 -75 -2 54 -50 51 93 -95 47 21 47 36 114 -11 -102 -63 63 -69 116 102 72 -98 -22 -85 -126 48 57 75 -28 -77 36 -33 122 -39 43 29 -122 113 -25 -51 -47 -14 -108 20 -10 15 -75 118 83 124 16 71 60 -67 -68 -43 -86 -54 -56 23 -12 114 -78 -92 -20 -75 46 79 71 13 -75 51 -64 94 42 72 -101 88 1 -63 -9 35 -14 119 -44 74 -96 105 -90 64 110 82 -46 101 -127 -4 -91 -43 78 -58 -74 90 -16 89 1 100 
20 21 -34 -61 -112 98 122 -116 26 -113 78 -31 -107 -18 -29 -104 -74 14 94 -2 -74 -79 30 119 15 32 118 4 -36 77 79 103 -70 -122 13 70 -99 121 -81 54 76 16 73 -113 -85 -13 53 -18 95 -86 -19 27 66 65 -88 -39 -110 -107 -93 89 89 -55 37 113 -31 -6 -32 126 -34 51 -12 -55 59 -120 117 -100 -75 107 -4 90 -79 -11 18 -124 -5 -8 -102 7 92 -93 58 64 9 19 -94 1 -108 42 108 -3 -33 22 -5 90 -67 -110 118 -77 27 57 -34 -13 111 101 -66 -40 -37 80 56 -122 -50 -11 -126 119 91 -62 -102 91 -72 82 28 -77 88 -27 40 60 80 30 95 -51 86 -45 2 -41 97 28 117 3 115 91 -23 65 7 65 59 -34 -105 69 5 94 37 108 22 18 -83 -84 99 23 118 -110 -8 -59 24 84 70 66 39 104 93 -51 115 111 -21 -9 -64 -5 -93 89 -25 -91 -58 66 16 84 -25 -103 -65 -28 76 -113 101 0 87 48 -90 -2 -89 -124 35 -102 76 -14 -85 73 35 -63 69 -46 25 60 95 40 28 -92 -74 -86 11 -3 -65 -29 -31 23 8 18 7 23 -65 -68 -105 117 61 27 46 -75 0 14 127 12 -31 86 107 -81 -41 -63 46 28 104 -109 -115 82 -98 121 -82 120 69 -26 -89 -85 110 -16 125 -120 32 -24 86 -115 66 53 1 58 44 65 62 -82 106 53 21 -40 -63 78 -90 88 -78 108 -7 -30 -26 16 -97 -56 57 -24 95 -105 -67 -26 -6 5 -19 -93 -83 -124 44 -107 -123 -4 77 -29 54 -121 -31 123 90 -16 105 52 126 -48 99 24 126 90 97 19 -76 -90 54 -9 86 93 89 105 -69 55 -14 127 -83 -87 49 51 -58 108 0 6 122 121 102 83 62 -18 89 -58 -38 21 -6 117 27 93 67 97 -5 -52 -120 -20 21 -61 40 33 -29 112 -35 -12 78 -115 114 124 -1 -20 48 103 81 -58 17 -79 -76 -44 -100 6 -44 97 -27 -43 -41 -90 -21 21 -71 122 -17 7 -32 -9 78 56 71 -100 -24 120 5 99 44 -74 -35 66 63 -23 -11 50 -56 82 61 33 -33 -16 -64 106 52 6 24 -57 104 121 -27 118 86 47 -7 85 60 -102 -101 -54 -117 98 44 13 -32 -1 -88 -117 100 36 -78 52 59 -9 84 32 14 112 -68 -36 117 81 19 -59 -114 -97 -116 -82 67 26 67 43 -46 48 61 20 -83 95 98 -29 -94 -52 -99 -63 6 32 -121 109 114 -9 -10 97 83 26 56 -64 65 -93 86 -21 
-61 -85 -114 -78 14 -73 -117 45 -19 117 -14 -123 28 86 34 97 19 52 -34 70 -115 -122 -111 73 -123 37 56 -38 74 -91 4 16 -113 10 9 -76 -101 -126 47 28 -28 -3 -23 -41 90 54 22 3 -67 -15 -80 93 -33 -102 67 -59 -77 -12 -86 26 9 83 31 43 113 74 14 -29 -19 28 -43 57 -59 49 -89 85 82 121 -121 70 85 -98 -35 68 -7 108 -85 40 73 17 -7 84 29 -98 -40 -125 -108 -94 -19 90 57 4 57 -76 -74 127 -19 -96 96 48 -113 6 -30 -12 14 12 -101 -15 -29 -61 -87 63 -107 -74 92 111 6 -4 119 52 52 -21 39 -16 88 93 -38 -113 -66 2 82 -37 -53 103 -10 53 36 57 99 120 75 113 -117 -68 39 -24 71 -123 81 -70 83 -126 12 -37 18 -101 17 124 62 81 41 71 124 -26 -5 -96 -103 -120 -21 13 35 84 -30 36 111 63 22 86 108 91 100 40 110 125 -62 98 -119 112 -16 -38 24 123 -58 120 77 -22 99 100 -100 -64 -94 44 -107 -118 81 -77 -49 89 -14 56 14 64 11 -49 10 -97 101 95 -30 -23 -90 -9 -114 27 22 74 -41 -107 126 -105 -112 -62 -118 63 -26 -67 52 -48 58 -46 35 103 -20 71 -65 -56 -15 -122 7 -79 72 46 49 -124 -78 -45 -121 93 52 -34 -92 -24 69 -123 86 96 1 3 52 -106 -16 24 -112 -61 -53 -63 -42 28 125 -53 -57 29 -45 11 9 90 17 29 3 2 -93 101 -103 -4 108 71 49 56 -22 29 48 94 -68 31 -84 -116 -43 53 -29 46 110 -98 46 27 125 12 49 -91 58 40 -46 4 89 -49 -58 105 -64 -6 -39 -49 20 121 -105 14 69 55 -52 20 77 106 98 127 -91 5 37 -72 41 -36 -8 37 80 -127 -96 42 -59 52 -18 36 117 -114 92 -57 -108 23 -25 -86 120 30 -72 -117 -12 119 -50 -79 -62 31 -57 86 -121 -40 -15 84 37 -82 -89 -115 22 -54 66 82 -105 -15 48 -122 -22 -66 11 -85 -103 -29 28 69 46 -20 -59 51 73 -30 -34 48 65 -21 115 25 -116 -100 -50 68 109 -78 -18 124 121 -118 11 36 -1 -120 -89 100 -26 103 -27 94 -30 66 24 76 114 -102 54 26 -56 22 -121 86 47 35 -20 88 -32 -85 23 -64 9 41 -89 -24 61 -13 105 -59 108 -65 47 -20 -74 40 -102 19 95 -41 122 -119 -40 30 4 121 123 -83 -37 111 -29 -127 46 103 37 -82 -30 31 23 -21 60 72 95 25 56 -43 92 15 -104 36 
75 -75 95 -120 26 -92 1 46 16 45 112 12 35 -34 24 -85 53 83 116 90 -114 -33 -90 62 89 -24 52 16 -66 -27 -52 -24 -98 -105 59 -30 -100 -106 71 118 -47 57 -11 -55 -17 -67 -41 21 -117 -14 127 -45 -51 7 18 105 73 -74 -126 30 -58 67 26 -127 -123 103 -36 81 15 25 -57 69 -25 -87 116 101 35 10 -84 -33 77 11 93 -15 116 -121 -23 76 -31 65 116 -85 -86 -72 80 -51 -118 -66 72 54 -4 -37 -10 -41 114 32 49 45 29 70 -79 74 -51 32 13 -62 97 -101 -51 82 45 -112 -61 -38 109 34 51 -74 29 53 98 117 100 -125 12 117 -60 4 96 57 15 78 26 84 -67 -47 55 -101 81 23 65 -56 -69 18 -90 -100 119 -38 81 -32 37 80 0 96 -77 -45 -107 -103 -50 90 -20 -86 -7 7 -21 49 -46 91 44 72 61 84 76 -84 -118 45 20 80 -53 -70 7 62 -124 -44 -116 -8 -45 10 83 82 -34 -4 -67 70 14 125 -68 8 -9 100 -44 -39 86 -81 -15 86 34 -87 -31 120 -106 -103 -48 112 -36 100 62 89 52 104 28 95 11 -91 -72 23 -27 -62 -45 -56 -7 124 -84 6 -13 31 119 77 65 85 5 -25 57 -97 -34 -96 17 110 76 -7 50 30 24 38 9 83 -50 -34 44 -71 23 -39 117 -26 -115 -45 -116 122 102 100 -64 51 -11 90 31 -53 -20 -93 79 69 124 87 39 53 100 2 69 82 -27 -51 18 9 -108 8 -33 -107 -3 -14 -116 89 84 74 61 -43 5 74 51 -91 38 -62 31 94 54 91 52 -92 42 8 -105 38 -85 -107 -63 -38 15 -14 116 46 39 -117 64 -116 -54 120 113 83 123 -44 -52 -58 12 -2 115 52 -125 28 127 25 99 -68 -29 -40 -54 84 18 28 -59 -99 -9 24 10 1 115 -21 -89 7 -30 -113 -10 -26 14 -92 31 -28 -71 27 -55 114 -79 63 -39 37 22 -39 -15 -71 27 87 -73 95 -105 98 -93 89 125 56 -24 63 -122 113 10 -39 -24 -43 -121 9 68 -77 37 10 -123 28 -54 22 97 -52 -80 -31 82 -108 50 -88 77 -111 -86 109 -26 27 -47 108 76 9 86 66 77 100 68 123 106 70 70 -124 -84 51 -50 16 8 -75 47 -52 104 -47 -24 96 111 -97 82 -40 98 89 29 -50 98 69 103 -36 63 98 -10 -56 -74 13 -3 -74 -110 19 -95 -1 34 -92 24 81 -40 -96 -64 60 74 127 77 117 43 -3 -15 116 62 -48 122 -82 -61 -92 3 -125 
-24 34 -67 -77 -60 74 13 63 49 -24 69 110 -76 -7 -59 80 110 -81 -25 -20 72 -41 38 -100 49 -107 18 -52 34 -23 -64 -14 86 43 34 -49 25 29 97 66 -107 125 -107 -4 -37 83 -76 -76 2 21 -100 -93 -21 -69 -45 96 -39 83 -112 -31 -40 34 -88 7 -47 -122 -76 39 37 -41 -111 -59 116 64 127 -49 95 -5 -53 89 -126 -47 -93 -81 -13 -120 104 87 -14 -108 -25 -19 44 -2 67 -58 82 92 88 25 -21 111 -19 -39 29 -38 -104 7 -73 5 -56 -127 -31 -110 -17 119 9 58 -104 114 -8 -89 58 88 -117 -122 107 -68 25 14 26 -82 28 -113 -109 12 -87 -49 0 -115 -121 -71 -34 -16 -9 -92 -104 -58 99 117 -14 -8 20 71 127 108 -91 35 108 -71 28 123 -87 -44 -114 127 86 74 -117 -74 111 -70 -20 -41 69 58 11 90 29 -57 -99 -23 94 79 -88 -82 -96 -122 -78 -19 79 24 43 -3 61 -11 46 41 17 -103 -20 -49 -45 -8 -118 -72 -84 83 94 -99 3 -85 -11 -35 66 112 86 -17 -9 -61 -31 -118 120 -123 -5 -58 20 4 48 -119 -110 100 -24 -101 -105 -123 3 -46 -81 -3 -69 114 123 -18 41 -4 65 -33 113 92 -79 -61 -55 -109 -113 20 54 -29 122 -122 3 -77 -66 -27 -6 44 114 -4 42 -59 114 81 3 -97 -79 34 71 93 13 85 21 49 -90 4 -44 -73 107 50 8 44 45 -7 121 -90 -54 -32 -9 -111 9 30 56 83 71 2 96 -75 -84 24 57 -101 -78 91 -26 54 14 95 -9 -118 -77 58 -44 124 -53 -86 101 46 24 -97 -71 -78 34 86 103 62 -49 -110 -75 80 24 18 -127 -47 12 -6 -22 -122 94 116 -111 90 23 111 -86 -15 -94 -112 97 -96 121 32 -94 -16 -118 -76 10 -28 -65 -36 -67 0 -89 -20 12 117 -126 80 -105 -121 -70 -4 30 122 78 -29 -122 3 113 -26 -26 -36 -101 121 -82 -125 50 96 -78 41 36 -39 -99 -76 -82 2 79 -73 -63 72 27 -37 -81 -18 51 101 58 15 -26 -85 76 84 -6 -54 -122 -28 -112 -36 116 29 1 17 -31 -94 60 -74 58 83 -76 110 -76 39 124 -118 -36 20 93 -71 14 98 -70 -32 97 87 101 120 77 25 -52 19 -62 117 -49 -57 -24 -5 -123 37 -100 5 -63 -117 8 -10 12 -69 0 118 26 -64 113 -88 -106 -75 -112 118 98 -13 -17 -125 -18 7 93 -73 63 12 -98 3 112 -19 -40 57 102 81 61 -87 -25 -65 55 -93 105 -104 -68 -89 
66 -91 8 79 37 -100 108 -126 11 86 90 21 105 -56 86 -120 70 -41 9 -18 6 96 35 51 -64 86 -26 77 -106 -70 15 -6 49 79 -115 53 89 -64 41 3 -85 27 -80 -42 78 57 97 -2 58 33 120 12 -126 -75 -26 34 45 94 55 125 31 33 32 -88 -114 100 -102 -3 -63 124 110 -48 -3 -57 82 92 70 -49 -17 -85 5 113 83 -89 12 -38 -126 -7 -26 36 61 -52 50 -104 -64 83 -103 -81 -94 -21 20 123 -55 89 -126 -74 106 118 -67 16 50 15 54 10 -27 -32 125 33 95 115 -103 113 -2 -95 29 -97 61 -44 -97 68 -4 39 -78 12 -123 76 -98 16 5 -93 52 18 -118 79 -122 96 -94 -30 -43 -28 -35 -79 74 7 -120 21 -79 24 86 58 -57 -6 126 96 -91 11 -77 -117 -94 49 96 74 83 -39 -67 -19 95 73 69 72 -94 46 78 94 106 -55 54 -44 119 29 -73 115 -33 -98 11 -56 -101 -70 50 -10 72 51 -86 72 11 64 60 86 -35 42 105 0 -8 -118 -86 -87 100 -125 70 47 24 17 40 -127 -11 98 110 -4 2 85 -54 15 -122 118 -20 -121 86 -123 -86 -116 -39 103 94 125 65 -49 -63 -11 60 42 118 -105 -83 -67 23 -46 26 -76 -45 14 -35 -11 77 -12 76 -86 48 91 117 -78 4 25 -116 25 83 -79 68 -116 34 -122 -97 16 84 -45 10 -36 101 25 12 54 127 -74 -102 -40 37 41 -90 -70 74 -95 28 -105 4 -121 38 93 14 43 -44 8 -32 20 -79 112 -70 100 62 -53 95 -29 -81 99 -48 123 12 -88 -39 98 122 -3 -79 90 -75 -89 28 -9 -80 -8 -84 -48 -43 -31 30 88 127 -70 -97 63 -50 -24 -99 106 62 -14 -38 71 -57 -110 64 61 -110 -2 30 40 -61 -63 -18 -85 -40 -85 -106 74 81 122 57 -87 -27 -100 86 56 123 -20 25 -121 -1 -35 -68 -105 39 -63 95 -31 13 97 50 120 116 26 63 -109 59 -23 45 0 -125 -80 -3 2 0 -101 -34 26 26 -39 -44 22 -37 96 55 108 -114 -53 52 14 -126 108 5 38 28 -50 113 66 101 -16 66 28 9 37 -127 30 54 -125 89 -18 -7 16 7 -9 -39 -74 69 82 19 50 -49 50 -50 9 -71 -15 -88 11 123 85 -59 52 38 -61 -6 21 35 53 -52 -18 -104 -106 91 -83 -3 105 38 42 -46 -43 -20 14 -94 58 10 -124 96 108 -47 -86 60 -14 -34 -68 13 -118 97 35 90 -13 2 -4 62 -111 -24 10 -90 79 
-70 48 -106 -4 -58 124 111 40 120 -65 23 -90 94 13 72 44 -81 -78 -104 96 73 55 39 -94 22 -99 -95 0 -119 -48 26 30 -45 -70 104 53 -95 -65 69 114 -82 -49 -69 33 113 -66 121 70 109 40 -60 15 23 64 0 100 119 -116 -39 -98 92 -99 -64 -66 -64 -123 69 102 10 26 93 -113 67 28 -82 107 8 57 55 110 16 58 96 -25 -20 -51 -10 -94 -96 2 -114 101 85 -47 52 -102 -5 104 -54 -94 -28 91 -52 -2 -68 -75 -96 123 53 33 -80 99 49 19 2 122 89 72 -74 68 74 83 -4 -75 -70 25 -123 -118 -75 -46 -48 39 92 -63 84 93 62 -55 -119 -102 -86 123 -68 21 -64 117 -74 -35 29 115 51 -105 -36 -105 -113 94 115 121 44 90 83 109 106 -103 73 -29 -71 -114 -43 27 -19 -120 -111 -87 -122 91 -91 120 111 121 37 -17 72 45 -85 -115 -65 78 -70 64 38 -4 76 39 -29 58 34 115 21 14 90 -44 -8 -39 115 -78 11 -97 126 18 120 -96 -46 -11 -119 5 -44 34 -75 -67 -87 -44 -56 -106 77 69 -25 -122 9 -34 -36 117 111 -127 90 -124 9 -123 -110 -37 7 -114 -8 59 -58 107 -125 -31 113 119 57 -33 -69 -65 101 83 121 -61 -71 -126 -76 -16 106 70 70 -61 9 108 83 -63 99 -75 -6 -5 -44 -23 51 -123 -69 45 -25 -90 -121 -71 75 35 118 -9 -70 -97 -99 26 -72 13 -51 79 112 21 65 -2 -66 108 -82 36 52 -122 -25 -1 39 64 -7 -64 77 17 42 -78 -52 111 -5 -105 45 -7 110 74 52 -29 -14 -121 -65 -53 -123 -114 64 90 63 -72 102 -51 52 68 87 -122 4 -27 16 -9 -4 63 -104 -13 84 77 -124 -56 -26 -40 46 -71 48 121 89 -60 0 -116 107 -34 20 -19 -26 -75 -18 -20 46 -78 -110 3 -41 7 -12 127 -41 28 -107 36 -87 -94 80 -20 91 -86 -87 -43 -9 -11 -44 -62 -80 -111 110 21 -16 87 -25 74 52 37 66 49 20 90 -49 -124 63 45 108 81 12 104 66 -15 121 86 42 86 -113 -24 54 40 -101 127 -61 69 -58 73 27 4 -18 69 -121 108 -55 92 73 -16 15 100 -104 16 -41 -39 42 34 91 40 61 -107 86 -70 107 87 39 106 -45 -107 -82 119 -94 -114 90 65 -33 65 87 -70 102 39 -103 -23 0 39 -50 10 -12 98 -56 -4 -57 19 102 -61 -65 -64 -94 -104 -54 83 -1 124 -81 -28 13 -90 -44 -101 29 44 -18 23 58 -115 8 -7 
57 -27 108 92 -11 16 54 -28 93 -26 -56 -104 118 72 -83 -32 -101 92 -79 87 -70 42 -33 71 13 -72 36 -4 19 88 -90 -98 90 9 24 -36 -100 49 -12 -94 -109 116 97 -43 10 105 5 76 -22 -67 62 59 17 44 -75 123 85 -114 -1 25 -115 105 16 -105 -76 26 77 75 -49 61 -89 -123 2 -55 34 -14 -99 -91 62 -86 49 -44 32 75 -102 62 -102 -95 95 61 97 -10 3 -19 110 31 80 98 20 -86 -84 85 -27 -88 -72 68 101 -13 28 104 110 87 -121 -115 106 -51 44 28 -8 84 67 24 71 -33 -4 1 27 -71 -61 19 -103 -20 -19 -126 -123 86 115 42 -81 18 9 -81 64 -24 -53 -38 -7 61 -127 -20 4 72 -48 -6 111 -17 13 -69 -126 71 14 76 29 108 -4 117 -82 39 115 -7 -55 52 72 -83 4 -53 -56 -94 19 -77 94 -104 37 68 25 -50 -122 113 24 84 65 99 -65 -59 42 55 77 -44 -17 -91 -47 67 -111 -18 -115 81 48 124 -87 -99 -40 -24 4 -93 -127 -75 9 47 42 17 -32 -108 -70 -120 57 -26 -22 117 -63 -97 93 -41 -65 -48 -107 7 59 96 3 6 -120 -17 103 -22 -83 -119 1 -88 -68 0 65 -86 -69 -52 4 -113 -92 101 -78 23 42 52 -83 54 -84 7 -9 -80 96 114 80 -60 93 -21 -6 -24 57 -2 -20 -100 -52 -5 25 -51 81 13 41 9 -89 33 32 123 -66 125 -93 65 -53 -8 18 32 91 -22 -91 126 42 -36 65 49 100 30 50 -2 -120 -64 -72 100 -54 -119 -61 -83 8 -14 -78 -95 -6 -85 101 -69 -5 -34 103 106 -79 -89 -112 -12 -119 -122 -50 91 111 -95 17 38 -2 93 -120 59 -24 -1 -50 83 -57 -113 33 -9 98 95 108 96 66 -62 87 -34 12 9 78 65 24 12 74 42 -28 -113 -73 -25 -31 -87 38 -107 127 -36 -93 -126 -44 46 -60 -86 -11 -12 -100 -42 119 -19 3 0 -78 125 -43 5 -109 119 51 26 25 -64 -32 34 74 -13 -80 110 56 -77 86 -84 -44 -27 -78 5 88 -121 -27 -125 26 6 90 -3 -42 120 -77 -94 -115 -125 -107 -109 31 24 104 40 46 44 41 73 -123 -95 58 -44 40 -116 -87 -18 -37 -127 -13 61 53 93 41 -31 108 103 -4 -94 27 -28 48 -73 -1 124 -45 6 -112 14 118 -61 4 -25 94 30 -68 102 106 108 121 23 -29 -118 81 59 93 62 -55 -65 -23 -125 14 66 -67 -117 54 105 39 -81 -15 -18 102 -102 105 -10 -59 -121 
