114 -103 -54 -14 -23 107 26 5 120 -78 123 19 -57 7 102 -19 23 -7 -112 -122 85 -42 -116 -2 35 -41 -12 93 -102 95 9 -87 -51 44 69 56 -63 41 104 53 -4 -59 8 -54 82 -116 -76 -125 35 -17 118 -112 -60 120 29 73 65 83 -15 3 92 -22 -35 64 6 123 -41 -89 72 -39 -6 -105 -118 51 -113 -19 55 103 -94 -117 8 -81 -8 73 32 -119 14 15 -64 42 2 123 -51 -114 -27 -111 -109 -23 3 -30 -92 -11 0 -114 -115 -5 -103 -126 -76 -71 2 -66 107 1 -73 12 -65 7 -92 -32 -83 -82 -45 117 -70 34 54 60 
81 -38 -118 86 -96 39 -53 59 -23 15 -53 -113 40 -49 38 -85 -74 -106 23 97 104 44 11 -115 109 -52 113 113 4 -63 -52 52 -125 -41 -101 -108 79 26 -3 -83 7 31 -10 29 32 20 89 116 16 109 54 -62 -43 24 100 81 19 -78 -41 -55 -124 3 -50 -114 76 60 81 27 51 78 -42 -91 68 18 -113 11 -20 97 33 86 -124 -70 25 -28 6 80 38 -77 98 51 -37 -77 64 35 -46 -56 -115 109 -81 95 -74 -45 -15 -28 -55 -100 -70 99 48 80 -40 8 -99 -84 -62 -71 109 -51 118 -84 -105 -117 2 101 -3 67 122 98 
16 109 -127 105 48 -29 125 -60 8 64 -4 -72 -125 -124 -42 2 -109 -113 106 24 -61 45 88 118 -11 -6 82 123 -42 -29 -112 75 7 -56 -24 15 49 -53 87 86 -8 -81 -125 -112 -39 115 -5 70 -84 86 -39 74 -119 93 103 -113 -4 45 -82 -8 23 14 19 -79 3 -18 71 19 17 -101 14 -17 50 56 19 -93 87 -84 67 -126 -1 -53 106 9 -110 21 53 -116 76 119 -25 -1 115 -95 -42 110 -39 -119 -77 13 124 -68 -4 -56 43 111 40 -62 103 52 -34 -4 5 10 -73 -38 24 2 -116 25 124 121 -87 -45 -21 -8 30 18 
70 -32 -13 -58 -37 -122 22 79 65 -82 -43 125 -60 29 59 -22 29 44 -99 -19 64 -52 -109 28 3 -16 52 10 84 -49 -54 17 -91 -18 -59 -78 -104 -17 54 116 77 49 127 122 69 96 109 66 84 -123 17 98 3 -59 46 5 62 117 91 -54 -48 -99 -90 105 -13 92 -106 -95 29 87 4 -101 98 0 34 109 73 101 -64 126 -114 72 -62 37 -98 -54 37 53 104 -31 106 94 -94 -40 12 19 63 54 -125 -52 -42 -51 12 -44 107 69 64 55 78 94 -66 -63 -3 14 -25 -99 -36 -65 11 -82 -123 -61 -48 -1 -79 -45 -72 72 
-48 -9 6 42 -15 100 25 33 83 -114 -24 -88 87 99 -76 -103 10 81 37 99 88 37 -102 32 -114 87 34 -79 26 17 -2 21 -86 -111 19 -116 97 -79 113 110 85 120 108 -33 -21 -40 89 67 -124 76 -96 53 114 56 38 -51 63 8 93 37 18 -100 62 98 10 3 7 -40 91 9 -12 -36 76 57 -109 30 111 -91 -82 -1 10 55 -1 58 53 90 117 -91 83 59 -49 -126 -35 92 -46 77 120 -1 -86 -42 -98 -81 -30 -16 116 15 -34 32 -118 68 94 60 108 -48 -12 -89 19 109 -126 121 25 -97 -111 -126 96 -27 120 -108 
-91 65 66 95 65 100 -100 7 122 4 2 -117 -75 127 8 -92 12 -55 -32 -111 8 -3 5 -49 -113 125 115 57 -76 124 63 13 -70 98 -102 -101 122 -28 59 -33 54 -86 82 -106 126 0 -63 -15 -19 126 53 40 41 -8 55 44 17 -7 -73 77 20 -1 39 -16 -126 67 -69 -102 50 -14 -66 -86 31 -11 -19 -44 6 -81 -57 44 82 54 -29 -113 -12 -52 -82 -90 36 59 -75 -105 84 -8 -83 21 -11 -17 -90 64 -20 67 -22 -14 52 71 54 -118 -1 95 28 -108 -106 33 -41 119 -45 114 27 -115 115 16 95 127 -90 -108 81 -2 
97 46 70 -10 33 -79 23 -75 127 -112 75 -12 18 70 20 101 -25 -15 -104 112 81 -35 -41 21 9 -13 60 -12 -49 50 -67 71 -58 -48 85 57 -104 0 123 -96 3 93 -12 -62 5 52 -119 -26 -25 -98 34 -107 56 49 121 -64 41 5 36 -110 125 125 -110 75 -62 9 -83 -91 -98 -92 -63 87 -43 54 -115 25 -17 21 104 -117 41 -111 -114 -77 56 -51 78 -25 -76 101 -124 28 -77 114 123 0 -74 -58 -96 -26 -95 27 35 83 34 -107 -93 105 26 61 6 75 -46 -55 -51 0 -90 -60 -49 95 77 0 -74 -93 -55 -71 85 -111 
-121 86 -27 33 41 118 85 -122 26 81 102 88 -36 -99 -114 102 11 -76 -74 -74 -16 60 -20 99 -100 76 37 6 107 -51 72 -33 65 -31 30 -14 -69 -113 -48 82 -49 -109 -62 91 -108 -108 -97 106 -101 65 -70 26 58 106 -105 -60 71 -55 -23 30 -4 99 -73 10 99 -108 -40 -90 -46 120 88 -1 -1 -98 -71 14 -100 101 123 -63 81 41 -84 -100 82 53 -115 -126 49 88 -66 59 -115 99 -122 -35 70 -72 -53 -58 -121 -17 -16 35 -116 -83 45 -73 56 62 70 68 56 -120 61 -60 68 -6 65 -99 -88 -14 110 56 83 29 -19 -122 
122 -72 42 12 38 -45 116 -97 -46 125 -96 5 11 20 83 -30 113 -93 -11 -102 -102 50 46 -53 -124 -61 15 113 71 -35 -52 64 21 118 83 -49 -38 66 -100 -64 100 11 73 31 120 68 48 74 71 55 -51 10 109 49 -58 -114 42 88 40 -123 -125 -80 -100 59 97 -92 -75 -33 67 20 63 49 108 -104 45 67 80 95 -110 82 -15 105 97 78 -51 48 118 -26 -2 32 29 -121 -107 80 -56 -1 -74 -90 90 -23 121 111 8 86 -96 -82 -3 44 -41 83 -126 50 111 48 -77 -38 19 -53 73 17 100 77 28 120 -25 -36 91 -94 
84 28 75 118 -109 74 -35 -114 90 79 -39 -106 90 -46 6 13 44 -27 -99 116 67 102 -29 54 42 115 -101 118 -120 -52 30 54 20 72 -6 -77 -17 -61 -2 23 -109 -41 94 119 21 94 56 62 118 110 -36 -20 -38 -17 124 33 -125 -99 -64 -72 2 -115 -7 -37 103 -45 -117 91 -78 -73 112 56 -28 -86 -90 -60 -122 -105 72 -20 66 -4 66 117 80 3 89 -125 87 -62 -96 84 -87 -54 5 119 124 11 76 -32 94 43 95 95 -96 3 63 -47 0 -102 -61 44 -110 81 33 37 -105 -23 87 50 47 -107 -73 -3 -5 6 123 -7 
10 -116 123 -88 51 87 10 -114 33 -17 43 -103 -44 2 -28 7 -80 -67 2 31 -5 18 81 49 -53 -47 35 -91 -65 -113 -102 -45 93 -66 53 -24 68 -124 84 96 95 24 54 -109 -39 53 48 32 76 104 -102 -122 97 -105 -92 1 37 -102 47 -61 31 -75 63 63 -3 8 13 -108 -97 99 -30 27 38 0 -2 -1 91 56 93 -51 -83 51 -43 -84 113 -63 -25 55 -96 -18 -53 -2 3 120 68 97 74 -42 11 21 -87 -1 7 -91 79 23 -19 100 -64 109 -81 -65 -118 83 65 -109 -93 9 23 120 29 -71 114 -37 90 28 -37 -25 
-84 0 74 123 -22 -68 65 78 -126 -22 -63 72 -10 -2 9 -73 -23 -111 -67 96 82 82 53 96 115 -45 -73 -11 47 41 18 -15 118 -124 -61 -93 -4 7 84 56 82 11 -95 -115 -99 10 119 -53 -120 56 34 47 21 0 57 93 45 18 85 -121 91 8 101 2 84 -94 109 -16 28 49 80 61 -2 -38 -34 104 -17 -109 37 -86 121 66 86 120 96 -65 102 -47 -54 -24 -43 114 54 30 -45 -25 -56 -29 -115 58 -21 -87 -100 96 -43 92 119 101 -8 106 112 48 57 -70 -79 -62 1 59 98 -94 -14 78 -79 15 -30 44 -105 48 
-63 -52 -9 -5 -56 -58 -23 39 -3 -78 70 -6 58 4 -54 100 -90 100 97 -69 58 -125 22 82 -23 -103 124 -97 22 -127 72 -19 108 21 -24 110 -70 45 84 -94 -10 -26 -56 -99 2 -22 -60 83 53 -88 -46 124 -70 27 16 -27 -30 -62 -70 118 -119 35 -87 62 56 95 121 24 122 -70 101 36 26 75 37 112 44 -5 78 -81 88 -29 94 82 34 100 -46 50 19 -75 -27 -38 42 41 -52 88 -4 -51 -41 75 -73 60 93 17 -91 55 55 124 -79 -124 -87 116 -86 18 28 -62 94 -38 -79 -84 71 -62 -102 -102 94 49 -120 -27 
-7 -67 89 -56 -19 -52 -25 -86 -116 83 98 -63 73 -82 -96 15 20 125 44 -26 45 62 62 -58 39 64 29 -101 126 74 -38 82 -19 63 -127 -72 -88 38 -48 57 43 116 6 1 24 62 7 -124 9 -66 16 -119 79 31 -123 -75 13 14 114 95 53 -118 -13 -5 -126 106 78 41 -7 -118 -28 39 84 -70 43 32 104 120 125 108 -27 75 92 -33 50 -79 -108 19 126 -123 118 82 -89 78 -21 -106 61 117 -62 32 3 19 34 16 -120 30 -114 35 58 -25 -115 3 -10 -111 -52 94 58 -13 -29 -86 -36 -63 -8 66 -18 -2 -84 97 
-31 -122 70 -51 -116 96 34 -109 -78 -75 -126 -59 -95 61 74 90 -92 -102 71 -37 50 -71 110 -68 23 114 -84 6 13 6 6 -80 84 -115 -81 51 -102 2 -32 67 64 62 -52 24 59 -96 -34 -1 4 109 -92 64 -13 -91 -62 38 71 24 -127 40 63 121 98 73 26 34 -11 -34 -59 -109 -20 -125 95 18 31 -25 -75 22 4 69 -75 68 -100 -50 5 -119 91 98 21 107 -13 123 -32 112 20 6 83 -26 9 -12 69 -72 -126 -112 -108 96 -54 -101 -77 15 51 11 120 -89 -70 72 14 -78 103 69 104 18 -29 -29 -51 38 27 59 
-42 -88 -22 -4 -97 7 100 -22 77 117 44 -8 -97 75 10 -11 107 117 120 -94 -36 -14 21 60 -99 23 -114 -57 -117 -79 27 -90 45 -97 -97 -83 53 48 -18 127 68 -109 95 60 -58 27 37 -50 77 54 -100 -100 -15 111 90 29 -24 -44 -18 -101 -104 24 -61 -49 -100 -78 75 -111 -51 -78 -112 6 87 8 -10 51 -109 3 -122 54 -125 125 -45 -83 -99 12 57 91 -20 -36 -125 25 -72 -8 -109 -44 52 39 -71 103 -37 -22 -102 70 -23 58 -99 -56 97 -45 -10 43 -26 87 125 -45 73 100 -69 -5 -82 70 -71 -43 15 -40 112 115 
94 -12 -50 -107 -52 -15 45 -43 -9 56 109 70 -62 7 121 82 -8 35 -29 6 -87 6 -48 7 -1 -64 -39 127 113 15 -98 48 -31 -113 -107 110 -46 27 -115 17 92 -20 -101 83 -22 24 -93 -82 35 -12 107 28 117 73 116 -8 89 67 34 -12 -34 28 -10 58 -17 7 0 98 -102 21 73 -54 -61 127 52 64 -93 -45 -19 -123 123 -14 -87 -43 68 120 -84 -51 121 -114 107 -113 90 -36 18 49 -11 24 -89 105 -119 34 -8 127 10 -70 70 -115 45 -42 -119 -22 -72 54 -110 -42 91 -23 116 66 49 7 100 -18 -43 -35 11 81 
78 -3 80 -70 -103 96 -1 76 65 -21 -1 109 -1 -46 8 -63 10 44 78 -48 35 75 64 -94 -6 -48 110 79 17 25 69 34 -11 126 5 4 -33 -34 76 -39 -122 123 84 -61 87 108 41 -47 85 -66 -108 103 79 103 29 -25 104 66 100 -71 -84 -84 -8 -32 -86 -32 -29 -30 -127 -31 35 -78 4 -57 64 -83 -121 -20 -110 98 66 38 44 22 87 -7 15 107 90 -75 -21 60 -106 26 110 -2 -35 -34 26 -103 65 -62 -114 -49 -56 22 -52 -109 78 88 104 43 88 100 46 94 7 60 -76 114 -119 -82 65 -52 21 121 125 110 
-61 -8 125 -49 27 -76 80 62 40 -91 79 -94 26 -53 -54 49 -99 -38 -30 -67 76 -71 109 -13 36 -23 123 82 -53 114 -28 -37 -83 29 -4 -92 72 118 -126 -111 -117 70 -104 46 9 110 62 6 -64 -66 87 26 70 47 -25 -60 45 -24 -40 15 125 -113 88 76 77 -31 -37 -19 99 34 -12 -34 25 8 -5 -37 73 -96 -27 -36 42 113 14 -55 -75 -25 125 -55 -72 96 -19 -126 -67 -45 -105 -82 -67 -123 81 -42 36 -125 -30 -52 -90 8 -118 41 13 -97 -16 103 37 -58 -62 -113 -52 -27 -58 -42 -112 -81 84 -37 67 -65 104 -40 
101 72 89 23 28 59 -1 59 67 -13 -97 20 -49 -122 48 71 58 17 -62 -46 -25 -60 36 89 7 122 -54 41 -70 -50 -13 -118 20 33 73 -86 4 57 -28 57 -45 -80 -84 6 12 41 -94 -57 67 20 -95 48 -1 119 -120 97 -113 -43 -56 82 83 119 73 10 -82 113 -74 127 67 21 4 62 -36 12 -127 66 -5 -103 125 -38 91 -16 47 -39 81 -79 31 -122 -24 53 12 -10 3 67 76 -107 -7 70 48 -126 -108 -86 47 16 -61 95 -122 -72 21 114 17 102 -99 125 -15 90 70 122 121 64 99 63 115 -73 -46 0 46 -41 
-24 -11 102 -46 127 87 -74 54 -46 -65 3 56 115 65 -46 53 -14 96 -94 79 -21 37 -21 66 74 110 -80 82 -96 -57 122 -106 -98 -28 -80 -117 -6 14 83 102 8 33 -104 -98 -41 126 63 -51 94 110 -65 4 -49 1 -68 -35 -58 70 -74 38 -118 56 -55 12 -19 85 96 89 74 -28 27 -9 -120 43 69 -60 14 -106 123 100 24 25 -38 26 -118 -125 -80 102 -82 -75 0 22 4 -20 -18 32 77 -62 -15 -89 -112 77 67 108 22 -100 92 -12 -124 -119 -59 -21 118 4 68 -27 -38 -114 -96 -91 98 -48 -96 32 -61 -102 -112 -113 
-45 0 -45 -1 6 82 -42 -32 50 118 -88 -75 -75 -96 2 -33 -126 -90 37 51 123 -98 -6 -20 44 -99 40 34 47 -84 -79 35 30 41 -61 12 31 -50 -45 13 102 -41 -93 -88 -36 115 109 30 10 4 -9 76 66 18 109 -107 -27 8 -23 25 126 75 113 -106 -94 -88 -34 -33 39 63 -74 -93 114 -72 42 50 123 29 23 -75 114 35 -40 76 54 -102 123 -20 90 -65 20 127 -122 -60 -106 37 -86 -6 -84 26 -17 26 113 -53 -66 34 121 25 -32 112 106 126 80 15 16 34 -42 82 34 122 -118 118 -55 13 95 -84 -30 121 
-113 3 118 -33 41 43 19 75 -39 -54 -54 -75 72 30 88 -112 -49 70 -32 51 2 50 26 73 8 -109 -89 -122 62 80 111 -68 -127 13 49 78 103 32 61 108 71 67 50 102 -97 -21 7 -106 73 73 66 -47 27 108 -26 84 35 -1 48 96 -6 -16 102 113 -15 36 21 11 -70 -99 -66 -36 62 108 94 -106 90 66 84 102 -63 63 17 -13 106 69 15 23 -85 -2 -28 39 123 -71 -76 -115 -67 -93 -117 -78 65 56 73 108 92 127 90 66 -33 -9 93 -98 -38 -94 -97 -70 16 53 66 -88 -11 61 63 10 -41 -43 112 26 
-49 59 -33 11 98 39 0 -72 119 -99 -47 -45 -58 115 -81 120 73 63 113 120 -108 46 -20 108 -87 79 -63 121 -2 29 -75 110 12 121 -122 -78 -104 -39 -18 5 -115 37 64 41 -32 97 -29 86 -20 -75 -42 95 78 -29 65 114 -52 26 42 -83 -121 -50 -36 -120 109 -20 -30 36 -68 103 -1 -119 -19 -65 47 -25 -79 -24 20 -54 14 -58 56 -18 45 -127 -22 -32 104 -24 -126 78 -110 -38 11 3 -106 -95 37 107 4 -38 -41 -75 87 -13 -60 -2 110 -37 14 -89 -33 81 112 -11 -52 63 -81 -125 23 -29 -47 84 6 -24 -108 -120 
-101 96 -32 -36 29 39 -14 -57 71 -32 102 -99 -45 -90 127 71 105 -79 -27 64 -111 38 -63 -44 -48 -67 -59 4 -87 64 51 109 -76 -11 -76 63 -82 76 -108 13 36 10 4 -29 17 -25 48 70 20 121 104 62 72 -98 15 -19 -83 109 92 -108 97 -78 -74 -30 119 -68 44 16 21 -47 34 -29 24 83 -63 -72 18 34 -6 117 -67 -16 -112 112 -18 -86 -11 -104 78 -56 -77 115 -80 19 -85 109 74 -106 122 59 -106 108 -79 -54 97 25 7 88 78 71 68 -88 -75 24 -7 101 19 -95 -68 -41 36 10 -62 65 126 92 67 -99 
121 -35 -43 86 115 -85 11 -45 -127 55 -99 -3 -94 45 -46 -29 -24 -17 -123 -53 6 2 -70 115 -50 79 3 2 -5 -61 62 59 126 -22 -104 -72 71 124 -45 3 20 89 10 -85 -124 55 105 -105 108 -32 106 -63 51 64 16 36 -127 62 -64 62 -55 -2 -127 -127 29 29 -33 4 80 -66 -95 114 32 82 -22 115 -54 45 -85 -78 -97 53 -27 -16 95 93 16 40 -55 44 -44 -83 -27 -122 89 99 -112 44 50 108 -76 43 56 120 122 -110 100 32 -46 -76 -103 71 9 -126 -111 31 44 72 -3 127 -97 73 90 104 -52 127 -21 -62 
13 75 -19 -23 123 -85 70 -33 93 78 7 -59 69 19 61 -114 -73 124 39 -108 14 -83 21 -70 -86 32 -99 -103 -30 -84 109 -125 -88 114 -107 27 25 100 -41 -68 94 -51 -80 -49 -66 101 67 105 -28 -46 -16 65 23 107 -57 -2 -20 46 -20 109 -39 107 -1 -21 57 8 101 -74 11 32 117 -30 -68 43 29 14 98 -44 -24 18 22 -55 -32 -57 -2 -12 68 104 -125 -121 18 -6 81 30 18 103 -87 123 -92 74 -99 -122 57 -22 -123 120 98 -22 34 -11 61 -96 101 97 -44 -111 -35 56 -21 52 -88 -81 49 46 125 44 119 -65 
57 63 110 -78 35 39 -126 -78 -59 -18 -58 -28 39 3 -111 -126 -72 -19 -25 -79 68 -9 70 75 96 -56 95 68 116 106 100 79 -75 -83 114 108 107 -41 95 125 13 126 -116 -116 -60 -122 -69 63 -43 -11 63 -74 -84 125 -68 47 7 -115 33 -121 79 -110 32 -31 -98 -118 -6 -60 117 68 -94 -28 0 -79 118 -60 57 32 115 71 108 57 93 -66 -120 -106 -20 2 82 -30 117 -12 125 2 73 8 -1 -100 -32 -39 -49 -7 -41 -100 52 29 -22 -58 99 -59 77 45 124 -98 73 -92 20 -28 -127 -82 -54 -77 39 -19 41 -49 -28 -56 
111 10 86 -97 83 -47 -121 85 -91 94 99 71 -56 -111 -35 18 5 -56 -5 -112 -105 -54 -85 38 -112 -52 105 78 -112 -26 64 79 102 -35 44 77 108 6 -71 -53 -109 -38 47 95 -60 -78 -54 -71 5 119 -60 -28 -52 96 -97 -28 117 85 111 127 -57 64 21 -102 127 28 64 -60 -48 78 -47 60 18 114 -66 72 96 109 -47 -101 -64 -23 86 25 37 -116 45 37 -34 34 -14 113 -101 -30 107 110 43 77 32 11 -3 -6 45 -51 -41 30 -1 28 -59 26 -75 32 39 -21 -95 49 -5 62 90 -107 6 5 99 -55 -16 -31 -115 111 
-21 114 122 75 10 57 -34 -118 41 120 -41 124 7 -79 75 8 -44 -36 -56 -38 -40 30 56 8 32 127 -122 50 89 9 -78 32 87 -55 -32 -124 3 -31 -126 -59 -16 -116 101 61 116 41 -111 69 100 -39 66 -24 -23 107 -62 -80 106 15 33 -32 -98 118 -9 27 86 53 -33 91 -77 -127 -39 45 0 -91 -53 27 7 115 -36 -13 -124 -124 29 34 8 112 -63 44 18 -125 82 -75 -88 -63 79 -76 27 -35 -81 6 73 25 83 77 39 -37 -99 -72 -82 -74 -120 -2 108 59 -117 -15 -58 50 26 -80 -42 -17 -22 9 -125 41 76 8 
-57 15 0 5 23 110 -22 49 -103 36 19 51 -44 -9 15 104 -101 -125 -100 8 -84 58 98 38 -40 -113 13 37 84 -38 -19 -64 35 65 66 116 112 8 -112 105 51 -20 99 65 63 69 -65 -3 86 113 -77 -9 29 28 99 25 -41 -112 -122 36 115 -9 80 14 -50 -90 -55 -58 36 -94 127 -13 127 70 -72 103 -101 -57 -116 -80 -72 -50 47 97 -83 -53 -90 -115 -115 -33 -70 5 -84 123 82 -25 -67 -115 63 21 -84 -20 113 105 -50 -22 72 -85 88 112 -20 -125 45 -105 -66 -90 102 6 37 -63 96 -44 56 -28 88 49 -92 -1 
-51 90 116 94 87 -2 76 50 3 -50 -112 35 -78 63 124 -31 113 -87 -88 -119 42 -28 94 -46 -38 -104 40 62 79 -94 -84 -52 -61 12 -91 114 127 75 -107 110 -89 -79 5 -38 -79 23 76 -121 42 -96 -14 105 89 63 113 -79 44 100 63 -108 -7 -44 94 -74 70 105 -23 -125 29 -45 80 96 119 25 -5 23 -21 -18 -9 -9 81 27 -13 -99 -55 -79 -34 22 41 -6 -7 -41 -108 -36 -53 -48 24 -27 113 48 80 -96 -83 -125 25 -127 -78 -35 52 21 91 -112 63 15 -27 -97 23 82 23 45 8 -115 40 71 -62 -63 58 108 
112 -119 -48 18 -61 -53 107 -31 125 104 -7 -121 84 -110 -30 -122 93 54 34 34 54 45 34 -28 112 -78 1 -115 7 104 -78 -28 -83 -9 113 -86 23 -54 60 36 122 77 -62 6 -49 111 -99 -125 -77 -8 48 4 -114 -9 39 124 23 -121 -53 78 -106 54 -30 8 85 117 92 -95 6 -50 -66 10 93 13 95 -69 -28 -53 -44 -50 57 45 100 45 64 -8 4 102 114 -74 94 115 -76 34 -39 -1 50 37 -125 122 -64 25 30 107 -40 10 62 -6 104 -123 -116 -93 -70 60 13 -50 -21 80 50 108 32 43 6 40 25 -46 -126 -84 
-61 -37 -40 -67 115 112 87 97 -68 95 -17 23 25 -33 -55 30 -74 64 4 6 -77 -100 -9 -110 -39 -84 13 -102 23 26 75 32 76 -1 64 101 -16 -100 47 38 -107 10 92 83 -18 -1 -57 -29 -68 -111 6 -17 37 -103 18 38 45 60 124 59 -54 -36 -121 78 -45 -44 -44 -28 -61 -31 109 30 113 -13 59 -76 -65 -36 -53 -100 -49 124 75 62 -42 65 -36 93 -120 124 -39 83 78 -79 41 -87 -4 -120 41 -71 106 120 83 -37 -25 -70 80 -97 -75 -60 90 44 54 -4 67 2 34 17 26 -35 82 -62 106 108 24 60 -24 -93 
49 100 -107 -119 48 95 -14 -56 109 80 118 43 -24 -21 60 116 25 -57 -106 -93 97 -3 -76 -13 90 -113 -60 65 -24 -114 -44 126 16 46 43 82 -73 -44 78 96 56 -96 32 114 114 5 -24 111 -18 -34 101 -72 -90 108 9 8 -54 -19 -7 -67 48 -8 -27 -83 -73 24 -65 64 -65 12 -76 11 122 81 8 56 57 7 -79 -94 -55 -80 19 -41 -12 -82 80 58 70 -31 51 -28 -88 -21 6 74 -43 73 -106 95 104 -121 83 22 110 -34 26 -66 96 -88 31 -88 -93 114 8 -102 98 104 -56 -17 41 -7 -67 -18 34 59 112 5 
-106 -27 39 99 88 13 88 -122 28 -8 -7 99 -28 -23 -41 -123 -78 65 16 -100 -17 -6 -126 -93 -125 -40 31 5 61 -49 100 -57 121 -108 -46 98 15 -74 -108 65 20 -94 -84 7 -114 -20 -88 81 106 -115 -113 -107 120 -90 47 -105 95 104 44 2 -51 -96 -118 -67 44 84 26 54 4 70 48 -113 -59 -2 -114 97 -70 -47 -43 -90 79 76 -89 114 90 -70 -53 60 -108 -29 68 34 -77 111 -55 -42 -71 -68 -21 60 -20 121 -17 13 -103 -59 40 28 33 8 -29 50 20 -96 -55 47 -20 -114 -25 -13 -108 -109 -59 52 112 -3 37 77 
-38 -42 -94 -24 -24 -43 41 -91 76 -103 45 35 35 23 22 -113 8 -37 -57 -24 -5 22 -56 -36 -34 32 -9 124 82 -16 19 59 97 125 -23 10 1 3 -125 103 -72 72 -36 20 -92 -40 114 105 21 11 118 91 -88 84 0 -46 -77 34 47 90 72 -124 -34 -19 7 42 114 49 36 41 -39 109 39 33 14 -55 55 -23 -29 -77 -11 -77 -15 9 126 56 -14 -16 -60 -76 -29 -39 62 33 -8 3 33 -64 116 78 -18 -45 5 -92 -26 64 119 -21 86 55 -25 122 -100 69 -54 -55 -118 43 -100 95 26 77 -16 -45 -17 -126 34 60 
84 112 32 85 -52 89 8 -65 22 -91 9 9 40 -99 4 -80 -15 31 -33 19 -10 4 46 -36 127 21 -13 -75 116 44 -53 8 -121 123 -49 -113 -25 114 44 -78 29 31 31 -77 23 -29 48 20 115 -11 73 25 -52 75 50 -28 121 -56 -110 73 -92 -29 55 -92 -83 -51 -116 -1 16 -36 -47 37 55 -43 -55 -12 -124 97 -100 74 -16 -80 104 49 -109 -106 91 88 51 -117 89 43 -125 -37 75 18 88 62 119 -115 99 127 -6 32 -82 -107 25 -6 28 6 -125 -62 98 28 -8 63 5 77 -10 125 -34 91 29 -19 81 -20 -46 -16 
-34 107 -1 15 49 -56 -44 -62 127 -110 -20 15 -103 -30 -53 -97 -92 119 96 48 -12 -84 -109 -58 81 65 -12 39 127 -57 114 -117 -43 -117 -32 38 103 -94 33 -14 112 -49 -90 -35 -17 21 11 118 85 82 64 -58 -35 -106 -110 73 -106 -28 68 -108 61 -107 99 26 119 72 59 -45 101 48 92 76 71 56 -81 -104 127 78 -81 105 -14 -71 79 77 26 46 45 -102 109 48 113 125 58 37 -109 61 108 -71 63 -26 -105 -113 122 28 -126 -114 7 61 98 -64 84 -26 -30 -4 19 -117 96 -41 26 -84 -61 -64 -9 51 47 -16 110 -126 
106 -39 -127 123 -111 -7 -92 -61 85 -30 -52 94 41 16 -126 70 -63 -30 127 -100 76 -24 -10 -23 110 75 -38 53 94 -67 -120 24 116 125 61 -88 -47 14 -6 -40 -125 20 69 10 -94 58 -32 -107 -67 -34 63 82 -16 101 26 96 115 31 1 -96 95 42 -125 12 -104 -13 125 -114 -125 113 -46 -73 -80 -82 123 46 -54 -78 -74 -96 -43 -38 34 -105 -118 81 92 82 -121 9 -42 82 -113 -49 -11 30 -24 -7 7 -101 -66 125 113 -83 -65 74 -44 -65 94 -34 28 61 112 67 -30 -27 95 -61 -8 79 87 -110 51 62 -56 3 6 -66 
89 -69 24 109 38 83 -12 -57 83 -103 -108 53 -37 99 26 -94 -27 -41 -33 112 -83 -38 -7 -50 48 -103 -124 -113 0 30 113 -38 -37 45 51 -69 -110 93 -49 -68 -64 6 -16 -15 34 98 68 4 -55 -4 69 31 -57 99 -60 110 21 114 115 40 -62 -44 118 28 101 90 81 -120 -118 -33 112 30 33 -8 11 118 46 -71 2 115 94 -7 91 -125 53 36 119 87 67 111 -57 126 44 30 -62 -112 51 91 -7 65 -53 62 70 -72 78 44 58 3 92 -105 -76 -109 32 -31 -88 45 77 125 -125 -97 -25 62 -63 -91 79 45 103 -55 
38 110 79 -23 -36 -46 -36 123 25 121 105 -71 -121 -73 -61 -81 -122 -82 -70 -97 102 66 -41 -90 18 -124 -64 87 24 -40 27 -51 24 50 102 -1 41 -64 -37 42 38 79 -69 -63 -97 -86 -41 5 102 -49 -90 -69 -94 95 46 31 43 -36 -42 14 50 -52 -74 -36 -79 8 51 -114 -57 94 -30 9 53 80 59 -78 -121 40 64 3 15 -84 3 -29 0 -8 -4 -10 -13 -21 -109 81 37 85 110 -2 114 124 79 77 -19 -60 -98 120 20 39 -8 66 -86 127 -57 -119 45 52 66 21 30 55 -55 0 -56 -52 -12 -20 -55 -47 -29 -80 
-104 -4 34 31 14 13 -56 83 5 -28 44 -112 30 -76 -76 61 95 15 -7 97 7 14 -106 106 119 -18 -41 64 110 -119 126 -56 -17 0 -114 60 67 65 -120 -106 -64 22 4 61 64 111 -84 102 47 84 113 120 -102 -3 -115 0 48 122 33 -99 45 52 89 67 -56 -86 -90 -10 1 36 -50 -18 108 -72 -75 -37 52 -116 95 -51 41 -48 -63 -36 -89 127 126 -84 30 -82 101 115 121 -52 -92 -116 44 -12 -82 -118 -51 -120 -5 0 76 -117 -33 80 -3 -87 -38 86 116 -24 116 26 -24 -80 -77 -85 -124 33 114 107 -18 96 18 -11 
-55 49 -53 -57 113 -34 8 -60 -80 -81 60 96 -30 -107 -90 105 -32 12 -44 -78 -117 73 -113 63 124 6 -94 -65 -68 -105 -35 -55 106 -86 -43 119 -109 106 84 -79 118 -17 106 1 -10 11 47 -96 24 91 64 -104 14 -85 13 91 64 110 40 -63 -57 -4 83 31 -35 -92 25 8 95 114 112 76 -80 -60 -8 -5 -76 -21 -53 -72 82 -15 100 -34 124 -5 -109 14 73 115 49 -111 -50 83 -103 -43 118 -124 -113 88 -66 -10 -57 -8 -29 126 -62 -86 -34 -31 2 -28 -97 45 -126 -9 61 -28 -72 43 -30 99 103 -72 109 60 8 22 
-81 -21 125 57 -19 122 -94 -120 66 -98 45 -107 -84 -76 -75 -95 29 86 119 56 -55 -126 16 -23 82 -30 29 22 91 -4 -119 11 -115 112 -38 14 97 -58 -17 23 -37 -22 47 -90 66 2 41 120 -9 91 43 -22 -4 -87 13 -38 -18 -112 -50 63 -3 115 43 117 108 -77 -75 84 -116 73 96 -52 -30 -119 -20 1 -94 109 39 116 101 0 -88 39 -19 53 -97 12 105 -126 79 91 -97 -40 -82 86 73 121 67 68 -100 -77 77 -66 -36 47 9 -70 43 -48 55 -79 66 -27 28 99 -99 65 -62 -101 105 30 0 100 2 67 88 -1 
-60 5 -104 65 -77 -13 39 -118 -8 -99 -86 37 -106 59 115 -14 -76 -125 111 -118 -6 69 10 -89 -42 -33 -109 44 77 -122 -88 52 -98 -13 9 100 121 73 -26 -33 108 -94 -126 -69 -15 118 107 7 74 127 55 38 77 -5 -63 -93 31 -2 52 11 111 -113 -28 -115 -32 61 -7 -54 -30 -108 -44 -94 -12 -127 111 32 6 107 64 64 -15 -64 68 -4 -23 79 66 -109 6 56 -84 -61 66 46 124 -59 74 -37 104 -89 -91 -53 4 -127 12 15 -9 28 -82 33 9 -40 -115 90 -17 108 69 -46 -39 -44 -12 10 -112 34 73 105 36 17 
41 -2 -75 -29 31 23 -20 42 120 -83 -58 37 -94 12 -64 -28 102 18 -20 77 126 -74 -24 -60 -12 -93 118 74 -75 -35 101 3 -4 109 -106 59 97 0 -89 97 -81 -97 -99 106 89 -66 42 -127 74 -66 -9 125 12 115 20 -6 -58 69 -26 7 -109 -120 -27 59 -30 -120 -69 -46 -38 70 23 83 -30 52 -49 -9 47 78 -17 62 -111 -91 87 113 70 -92 -32 13 72 64 104 62 -71 -85 62 121 -50 -94 -119 73 29 -115 -113 -107 83 48 -36 36 -118 -87 67 77 -118 69 -23 55 -40 109 -41 -101 63 101 59 -19 -16 26 96 86 
-88 -88 20 107 39 -36 125 -88 58 -65 -66 -68 84 68 3 83 68 61 -75 -17 -29 -28 -19 -88 56 84 -99 48 -106 42 39 89 -60 18 115 -107 -28 36 -94 8 -109 -30 -15 51 96 -104 -98 120 -107 28 -103 70 41 -118 70 -52 102 17 52 -123 -53 36 -44 125 -79 -92 116 5 8 90 -51 -72 -92 -40 52 -93 93 61 -38 13 74 124 -61 -35 107 -117 126 -102 118 98 15 75 8 -65 -81 16 69 30 59 -21 60 -33 -55 31 50 -36 -17 108 54 -22 92 115 -55 -4 -17 98 0 110 14 87 18 -13 110 -104 -83 -120 -41 -114 
69 16 -59 -67 80 -29 -121 -26 9 20 80 -94 -76 19 5 -82 -117 125 -24 -20 0 0 4 -12 118 -67 113 63 49 12 5 23 -83 -67 14 5 -125 77 109 88 -36 -105 87 -63 22 122 -120 -72 59 -38 -118 47 85 88 -66 -86 -24 -123 53 53 -40 -50 -11 -104 -2 117 -31 43 -88 -2 81 -36 -2 -27 -61 -111 23 72 -81 -78 86 35 -46 -17 115 12 -44 15 2 41 101 -104 53 71 -62 -111 74 35 10 -34 -21 -104 91 -122 60 14 -124 47 -9 115 92 -80 -72 91 -122 -112 124 32 11 -62 33 13 -19 3 73 13 77 -114 
-42 41 -82 -115 88 85 -85 82 86 -18 121 -91 -115 48 76 10 -106 106 41 -50 104 61 65 33 -108 -36 127 21 116 -121 88 49 -114 64 67 67 76 104 -123 -47 24 96 90 -99 -103 68 39 -11 -124 90 -115 63 21 100 -50 -121 -123 0 126 2 -108 111 29 82 2 84 13 30 18 -72 0 -12 32 -120 106 -110 25 -33 -79 -49 -9 -77 -108 52 -124 4 80 110 0 -60 76 76 -61 -42 73 112 84 -57 27 -31 94 52 63 -46 -76 -126 -5 3 -119 32 -44 104 59 -30 122 -25 -127 73 -120 -64 44 -82 63 67 45 76 51 24 
-51 41 -69 120 39 -65 58 -106 100 -92 11 -115 -14 -41 -5 -24 -48 -15 -69 13 20 -93 -39 15 -88 54 101 -29 4 75 -75 -99 71 120 -44 38 -19 -113 50 -25 88 59 15 120 43 -2 -104 -66 5 69 105 23 52 -32 49 19 -56 64 -98 -4 -69 18 24 -70 102 -4 -12 29 -76 44 75 -114 114 -57 -36 45 -80 7 -40 80 -55 83 -5 -102 -77 21 -101 -81 64 26 -123 122 115 -11 84 -85 104 -42 10 37 27 56 -105 77 -99 102 -9 -73 -43 9 -99 -16 -16 50 -41 -97 -59 -37 24 91 -43 81 -45 -43 -14 118 -28 -81 
-6 4 109 66 34 50 82 -76 8 73 -1 127 40 -85 -7 76 105 -125 74 118 105 -127 -44 -12 -63 -45 -97 -34 -34 47 -21 86 -9 -84 -98 106 -36 -40 71 -28 72 -24 120 -51 -20 -91 1 -111 -96 75 -64 111 53 -1 -69 121 -97 100 -41 -17 23 -109 -81 122 -26 -113 -75 22 70 83 105 -61 103 61 15 -21 99 79 -97 91 -52 -121 -98 -119 -95 -9 58 54 86 -114 -11 106 73 -39 31 -34 43 13 -6 34 -121 11 69 73 -5 98 71 49 28 -48 -7 67 -100 22 102 110 -119 73 -103 -102 -41 -9 -59 70 4 -75 -87 -56 
70 -88 -47 -63 -104 -38 -59 -8 -35 84 70 -113 -84 -74 -57 13 68 -39 23 120 -1 -90 -84 -125 -47 -104 -16 3 -75 59 89 67 52 47 -92 52 118 -24 -80 -84 -104 19 101 -20 32 -102 64 -89 -24 35 -18 25 16 -57 -72 -99 117 -94 -113 27 -9 -88 -54 29 -119 -32 -57 -15 112 34 123 -29 53 -81 -111 -71 -99 98 12 95 61 -30 -115 83 127 35 -50 118 1 -38 10 -77 12 118 -10 -91 -45 -97 118 82 126 -13 -19 -47 -62 -47 -103 -104 35 -21 -56 -39 38 -116 -84 -70 122 29 -3 -103 67 112 38 77 61 27 21 -24 
44 55 112 96 -120 28 -111 -77 14 -54 -19 84 30 72 -14 -29 124 -57 21 97 -73 57 -22 55 68 101 -122 88 -86 -15 -60 -23 104 120 -115 103 -80 -41 14 -37 -104 102 -13 42 80 78 -85 -106 1 28 17 -35 -67 -118 -59 74 -7 -125 -27 -107 -68 -106 61 -59 -81 99 42 40 22 -49 -97 107 90 113 -105 9 102 62 -11 -96 8 100 -104 -50 71 -83 -121 -87 18 -65 -11 -23 -80 102 -99 -121 -36 22 -123 -100 101 -20 -21 -115 -113 -32 79 82 111 48 -63 -69 -19 35 -121 18 -54 4 51 70 -93 92 -80 -56 -6 -46 -11 -111 
-50 99 -117 3 -126 111 -27 33 -72 74 -82 104 99 -75 -69 56 -125 23 -121 -24 106 -105 -17 89 46 -40 -50 -22 -110 10 124 -86 -120 7 14 61 106 46 -9 57 -27 75 90 -101 -48 -112 125 61 -86 2 -89 89 22 -124 -73 122 2 88 -35 -13 -111 -25 45 56 -102 -23 -12 -94 -60 -123 -51 102 -113 61 -19 -84 103 35 -5 -126 -28 -76 -18 -72 37 98 101 1 -75 -109 -50 75 -34 -45 -39 60 116 -126 39 45 23 50 39 -62 37 -52 -48 -50 -18 120 20 11 81 18 38 98 -75 126 -41 -102 -103 57 -75 8 127 -111 -47 -77 
-93 112 -36 44 105 -117 75 108 82 -74 -91 81 36 21 113 -36 32 -75 -25 41 -2 -98 -90 5 35 -116 -27 -44 72 45 85 -7 -81 -16 58 -83 51 -104 -55 96 -103 16 113 56 -127 -40 91 54 73 -64 -70 93 44 75 -32 26 77 -81 -123 -38 50 75 -81 100 -67 -118 -43 -104 43 52 -96 71 120 -35 -15 -34 -61 -31 -126 127 7 115 33 85 47 -94 -125 -74 -61 -49 7 44 7 -29 -127 -42 -91 101 -25 -125 114 22 -25 76 -121 -105 23 92 -59 4 -30 75 44 -58 -91 -106 -124 28 89 113 -38 -77 -127 -79 68 118 122 71 
55 14 -116 15 -109 -122 83 -78 -60 -119 -36 -59 34 88 -86 117 11 -44 103 74 67 121 39 48 -58 59 7 14 105 -65 -60 69 93 122 50 73 32 113 -112 -124 88 -9 69 5 -54 7 -108 -121 -114 17 114 -118 -47 64 45 -60 74 -72 36 117 -108 -91 -104 -20 -99 -23 107 55 -98 91 11 -12 -59 89 93 73 25 6 64 -114 -113 34 -55 -111 89 -7 -126 -23 -8 -36 -18 -40 25 112 -69 -19 73 -41 48 63 103 -86 125 -50 -92 82 105 -4 -52 -22 -78 99 76 34 88 -121 -79 88 49 31 84 100 119 -17 34 -117 99 -120 
-39 49 -110 -69 -96 90 -35 39 4 -126 -27 -89 -84 -37 102 -71 -59 73 -96 -58 96 -40 -127 52 47 8 70 27 79 37 -118 72 53 -44 2 9 -46 101 9 43 51 16 78 -101 112 -19 34 -34 -16 46 -106 -102 77 -107 105 -47 -12 -90 115 97 -34 -27 -3 69 85 3 -15 68 48 48 53 -15 -66 29 83 -94 70 98 -21 -10 -104 66 -62 125 -95 99 -2 98 45 125 -59 -68 10 -86 -41 38 -73 21 95 -119 -35 -64 36 -16 -111 -125 102 -120 1 -98 67 38 118 53 92 -81 -22 0 28 -40 123 -28 79 -46 -1 16 110 35 
-17 -95 25 -90 -36 62 95 -44 4 21 8 -96 -102 -96 -100 81 -68 4 -75 -33 -118 106 87 -117 -16 -3 95 114 -105 36 -109 106 37 116 -106 -38 -6 -8 -91 53 78 91 87 121 -87 100 -45 -117 -15 -6 22 -47 -17 32 -8 -96 34 -110 -82 118 -28 -110 -29 81 96 111 84 -125 20 -54 -71 -40 -70 123 87 -27 115 16 109 -81 -25 103 30 -42 53 -108 119 4 69 53 38 57 -87 91 -17 101 -110 31 107 73 -85 23 34 -71 -8 -1 -51 101 89 52 49 34 123 70 -85 106 -19 78 78 65 113 8 71 -45 -20 -16 -66 50 
79 103 125 -25 -59 96 0 -69 107 35 -78 13 -75 -115 100 32 66 118 126 15 -40 -66 99 -65 -47 45 -93 73 12 64 12 39 -7 62 -21 120 -17 105 36 -31 121 27 35 -41 -39 -120 55 -42 98 -36 54 9 66 -37 -99 -5 -126 -113 125 84 -75 20 36 -112 -10 -73 -52 43 -34 54 33 -61 33 2 -32 -91 112 -100 15 119 -122 10 -5 -92 -45 84 -17 64 13 116 -46 -84 -48 -1 41 -31 31 90 77 -81 123 118 43 -122 124 115 -25 8 17 -127 -103 107 -26 14 -111 -9 107 51 -121 65 -40 -63 -9 -75 -30 124 -39 50 
127 -28 58 -10 80 77 -41 -113 52 -107 8 -20 119 93 -17 -110 -47 97 110 75 -25 -39 -26 19 -40 -3 -94 -114 -38 115 16 -39 3 -115 -3 37 85 -71 -41 125 -95 84 126 34 110 122 93 -59 -78 -80 33 125 -7 108 37 19 73 -29 125 16 -86 -28 -73 35 -6 12 -35 -13 -87 33 121 32 -5 -20 14 -106 -98 29 109 57 -65 18 -72 -99 50 94 -114 -47 -89 -115 -66 -30 66 -120 44 -77 15 -82 62 -7 -87 -74 96 -83 -28 -92 27 -77 -114 -121 87 110 10 66 -69 79 -62 62 8 38 20 118 -9 -43 -70 -32 92 -12 
-45 1 2 -66 -30 -117 68 -111 -108 1 -23 -46 -109 -40 36 27 23 3 -69 19 -127 114 0 84 47 -106 1 -43 52 -65 26 50 19 -72 -55 -32 114 -117 -77 -59 -33 -75 -70 47 -124 103 10 -28 -13 -102 117 11 -90 76 5 -64 95 66 27 12 -90 98 19 64 -51 -98 -117 118 30 80 -62 69 55 -41 -39 26 114 98 78 25 -38 38 -64 90 -82 104 -55 36 68 16 -64 -49 -95 83 30 -54 -36 15 -71 25 45 56 106 -95 -3 72 34 -105 -109 -65 120 -3 -22 -75 82 -97 103 -69 -88 -28 -57 -80 64 -61 -27 74 -78 -16 
113 -117 35 -27 -100 -36 -32 15 -122 87 119 98 120 54 66 -54 -103 -74 116 -7 61 -108 126 -90 10 -104 -98 61 -64 45 -127 -8 54 -33 -119 -92 9 34 79 -24 70 85 -33 -65 -31 75 -32 -27 126 67 56 -116 84 68 -28 56 -105 -34 6 64 45 -77 -15 -58 85 57 -52 -5 59 -98 -66 109 -9 42 119 -29 -33 -81 -80 -100 59 48 -24 10 3 116 -42 39 -10 125 115 104 117 -26 3 -101 -51 19 -14 -102 -53 3 80 -100 -121 5 -81 127 -31 -76 -2 -84 125 -31 -7 37 84 126 33 -17 34 110 121 -63 -21 -37 116 98 
-92 119 -56 24 -83 -103 108 -74 -120 -64 121 19 -3 120 92 33 -33 94 84 66 49 -73 -31 94 -66 -93 -46 109 -84 -52 -105 80 -62 73 -36 -75 103 -109 27 126 90 54 97 127 54 14 78 -99 -31 -36 -124 -6 73 119 -95 9 111 58 -78 42 -102 113 43 39 -30 39 40 -111 -41 6 62 -9 -47 -106 -42 74 -103 39 -72 -81 74 -73 -14 4 50 23 61 -50 31 77 -38 108 -50 -103 -116 91 -86 4 -46 23 -57 -103 -107 123 -22 88 4 -43 46 -44 42 -14 -125 -22 -59 105 32 62 33 -38 77 -73 -50 -64 0 -109 55 -67 
-1 111 124 -2 -51 -32 -96 66 123 -87 -43 9 -109 -9 26 -6 -59 -63 7 38 67 -86 -100 -81 -60 -9 -8 110 69 -66 -22 -68 64 -40 121 32 -22 -50 -93 92 -103 124 97 31 40 124 -117 50 -38 25 -52 17 -77 15 65 77 -69 -60 -26 -71 -124 -67 -21 -26 -125 -60 99 -92 -66 -117 42 56 -87 -111 106 49 56 -72 78 -106 81 -51 21 -20 60 -113 60 115 -95 75 -124 -110 121 9 56 -33 45 -20 109 -100 81 68 124 104 79 -71 5 -66 -60 32 99 16 53 -72 57 126 106 112 -93 -47 55 22 -105 -93 127 -64 -36 -108 
3 51 24 -56 74 -35 -100 -111 0 -30 -97 56 -45 -34 -117 -114 21 -119 -82 -18 -82 -3 94 -68 91 113 103 13 18 109 57 28 -111 -17 46 28 111 -26 121 3 -100 60 -25 68 17 -11 106 44 90 -81 -76 -13 82 -34 51 -80 81 77 60 -112 -77 111 -19 14 38 -57 -49 110 -117 -36 -93 -52 33 -49 -37 -49 51 -84 3 118 37 -22 50 -74 79 66 12 -41 -10 50 116 -52 -44 11 123 80 103 24 -44 -97 -51 103 123 1 -95 -117 -99 -3 106 103 -73 9 49 -74 102 119 106 -17 -58 1 35 70 -127 87 -10 21 89 33 
35 27 90 51 -75 -71 -95 -44 -42 -116 59 -42 -31 51 74 -17 -116 84 71 113 35 26 -108 124 -118 -87 108 -64 -51 15 -80 -126 82 41 115 43 -9 70 5 23 -125 51 -63 -1 -79 -44 -105 -119 -20 -64 39 -49 -18 -114 45 -103 -108 10 44 -45 -10 -45 11 -114 127 -103 117 44 55 -29 -40 -92 31 -99 66 -111 124 1 -29 -97 -84 -111 32 -90 47 122 30 24 -53 125 -108 -89 18 25 -103 -124 -19 96 101 -71 -61 -53 109 32 -104 -64 -52 107 21 78 111 -54 60 33 52 3 -117 -76 -91 98 -44 67 50 -64 -122 80 112 19 
64 109 -17 -85 -8 86 -61 94 -53 -5 -75 29 -21 72 -90 28 30 101 29 59 -97 -79 105 -1 1 36 55 21 -96 -125 -91 36 -127 -75 51 -103 30 56 34 -92 114 82 95 113 82 -45 121 0 -30 41 -45 86 -58 94 -110 -63 13 -31 -72 119 -95 108 -27 121 81 -95 -50 -92 116 102 50 -19 68 -47 39 101 -123 -65 -62 -73 -88 -112 92 -14 33 102 -109 -122 91 111 -22 -26 -100 92 34 107 -46 99 5 49 75 -110 103 51 -50 40 -79 -23 -116 -32 -119 -109 -122 -21 -91 120 -94 -39 6 97 -56 -28 -36 94 -80 -34 -34 -126 
-102 107 100 60 -112 118 71 -102 100 -29 46 112 110 -125 -107 108 104 -23 -90 27 16 78 59 84 -15 39 -10 -98 -85 110 100 98 -97 38 96 -44 30 57 35 58 28 -15 -96 56 -26 8 22 18 49 111 31 108 61 -59 9 101 -38 114 -16 59 -58 -87 118 -31 -107 -89 -37 -113 83 68 34 66 20 -121 27 13 -58 -122 -47 100 -43 21 -95 7 -12 -41 -23 -29 -35 -44 122 -32 51 -99 36 -91 -35 68 -127 1 108 -124 -104 -62 27 -95 -39 -124 106 -45 107 118 75 0 -86 17 -78 127 86 -84 -70 -123 88 1 -19 -54 102 -59 
108 -2 -105 -126 93 76 -43 19 74 78 12 39 -75 -116 61 -122 118 42 -28 28 -56 -65 76 30 18 -98 126 126 -60 112 3 -18 104 10 -46 110 45 -97 113 41 1 37 -20 87 76 64 98 -70 101 102 -56 30 -14 -100 10 40 100 -76 82 50 -126 14 64 94 54 -76 10 109 86 -29 6 -102 127 -49 -124 114 -24 -127 74 -92 91 -123 41 67 114 -80 106 -14 -28 -69 -120 14 122 102 -12 109 -34 83 -92 -38 9 -49 80 -45 -91 1 81 69 -79 -34 89 100 -52 -79 63 -64 44 -107 -31 -101 105 -49 123 72 18 23 -70 -65 
-53 -19 116 41 -6 -85 63 -24 -19 87 -97 48 45 -68 52 120 99 13 -104 -116 -117 -3 119 -96 47 -1 -108 -77 -44 -49 119 104 -100 -7 108 -98 -1 113 29 -32 13 40 -85 -33 -14 71 -108 55 45 83 -63 -121 13 101 -45 18 -33 -94 -38 126 -127 -61 24 43 -89 15 82 -20 -68 45 50 -89 73 13 -9 -24 116 -30 -99 -57 -72 50 90 -108 -100 90 -51 -48 102 11 51 -73 -95 80 -103 -93 -100 114 100 -94 42 -69 75 127 23 -37 -122 -81 26 84 -30 -18 -106 -57 6 119 -88 93 63 -15 -113 28 -121 -17 -21 -55 -88 84 
-75 -39 -23 56 -70 123 -21 119 -112 -48 107 70 9 10 4 1 6 125 110 -42 105 48 -57 -126 -74 -39 -117 79 -86 -64 -49 -93 117 -56 108 -84 48 24 20 125 14 61 13 105 -18 111 80 -16 65 -53 14 11 102 31 -107 -11 43 -6 114 -14 -78 -62 -119 -100 15 91 101 126 -12 32 -60 69 -40 64 42 73 49 32 106 81 54 -17 67 -64 48 50 51 -5 2 -91 -102 82 24 17 -97 34 -98 75 -123 56 77 97 -108 49 65 -36 72 99 -110 -19 25 89 103 122 27 47 39 -97 -97 86 -64 71 104 -88 -97 70 -40 -46 
-108 -66 11 83 -88 46 -76 -29 82 11 68 -107 123 -63 -15 -119 28 -124 -38 7 -57 75 23 -71 85 94 -89 44 -106 -76 125 -15 -108 -15 -107 64 -63 9 107 -69 -32 81 -111 -102 -61 49 -96 49 -53 -42 110 44 -126 -85 71 -75 -108 54 -48 82 98 -40 -89 51 28 74 -38 -92 22 51 102 60 -90 68 -37 73 40 122 90 62 29 0 37 44 -30 -117 -89 75 -77 26 17 -53 -48 -126 -48 -93 -5 4 112 34 -118 -51 112 22 -45 -83 44 112 31 -78 -71 87 -120 -39 -20 62 -41 -34 41 17 50 -76 -94 -104 121 5 2 105 
29 6 -61 113 -116 126 -79 -18 -88 25 87 -78 42 122 111 -5 -41 -63 -69 -36 58 -38 87 -87 -63 0 41 43 118 61 78 23 -64 41 -92 60 6 8 16 -61 -37 -30 30 58 80 -62 81 -87 7 -83 -76 93 -29 -30 -34 33 8 4 -108 73 74 -12 -114 113 -29 13 81 100 -81 59 -65 -12 -9 -94 -102 91 -36 79 -3 116 22 54 78 -62 -19 -127 54 -107 2 89 -35 -102 -35 -27 84 -69 -96 -55 -44 -66 104 -84 33 9 31 -45 16 56 44 -124 -40 -126 -107 18 21 -36 -88 -38 92 54 53 -30 118 121 114 -42 4 -87 
-65 -70 70 13 65 -83 -120 72 -54 122 77 -91 -71 124 -4 -35 -110 -34 -27 39 -63 48 5 -1 -83 27 82 5 114 93 26 77 -97 -81 -92 -102 117 61 -57 84 126 -20 104 -103 -73 114 45 112 90 96 44 15 -19 78 -109 37 125 -34 26 40 48 52 -79 77 -18 -13 40 -119 42 -87 87 26 20 -71 102 47 122 72 80 -39 -95 59 98 15 14 114 0 80 5 25 53 76 -62 115 36 95 -63 85 81 -2 -75 108 -32 -28 -64 -39 -72 -116 60 -19 -95 -6 -72 -116 -14 -20 110 36 -103 -109 28 -89 91 6 -121 98 39 59 
14 -104 -8 -115 -46 106 -21 -105 68 39 -26 34 -29 -45 -2 -106 97 -30 -32 21 4 -96 6 44 -50 -63 -37 -11 79 75 107 107 62 -64 -14 -37 -87 -29 -105 109 -29 -75 69 87 -7 -81 0 -9 -78 -48 -4 8 -3 -59 27 -46 -59 -2 -25 -19 -112 112 42 -80 -73 -93 84 -51 -114 16 -40 -97 -110 102 22 6 -4 -99 -24 91 83 -9 -86 43 -79 102 -72 60 -70 86 77 -116 45 45 -79 25 -19 26 -72 -22 102 -114 14 90 8 13 24 26 125 61 -3 51 -89 -90 -118 -65 -40 -65 -46 -62 -55 18 102 -102 123 117 37 -29 
-24 -92 -121 -84 28 -102 -116 -13 19 -88 -80 -120 67 91 49 -124 13 -125 -65 -123 -80 25 0 -38 25 36 -35 -58 -11 -89 73 -120 -94 -28 86 -41 113 -109 98 -11 -74 62 -101 -99 -87 -111 22 99 -69 -41 28 28 103 -7 -1 90 6 4 88 10 112 12 91 -107 68 -46 87 84 -9 -59 -109 24 -77 -117 -18 -36 -120 93 114 -117 4 4 40 -83 -80 -61 0 48 66 54 101 10 47 19 68 -83 119 104 53 -58 -110 59 28 -103 -32 -15 -17 15 -4 -46 13 -103 -123 94 45 47 50 61 -4 30 34 -104 -53 49 83 123 54 -104 
77 -16 56 -38 92 19 15 47 102 92 -113 -69 70 -81 33 -84 -53 -103 64 -20 -116 -93 -10 78 -26 41 24 -78 -80 -113 32 -50 -21 4 88 76 -119 -85 99 -89 -42 -124 -95 -119 37 -72 40 96 -51 53 -93 -78 -53 -121 -89 -58 86 -124 23 -23 51 34 -81 -124 -90 51 25 40 49 -111 118 -90 -62 68 14 -22 -52 -118 43 -82 -6 88 -78 124 61 74 -27 -122 -109 10 72 -80 81 -97 14 -87 -3 -64 -17 -7 124 -117 -85 -110 -127 -122 -59 -100 -14 66 80 97 19 -49 -50 17 86 105 -26 -42 -70 45 -124 -127 79 -34 91 -37 
-44 78 -94 -21 -99 -12 -7 48 24 90 90 116 39 -11 -50 0 119 -10 6 -2 47 -119 -40 31 54 54 57 -56 -28 -22 -10 60 100 70 -75 -4 101 3 46 32 -57 -50 81 -39 115 -28 -87 -121 58 26 -59 105 -94 -78 -114 -118 -126 -20 105 101 -60 61 -66 126 116 -74 22 122 20 -103 -25 -99 -26 -122 -55 -121 -103 -7 -56 16 -76 11 -40 68 -80 -37 23 -76 -115 -123 44 -72 -8 123 -95 -66 3 10 -1 44 110 69 -33 57 -4 -39 -15 94 7 -17 85 -1 8 99 23 126 -57 -26 28 18 -8 17 -93 -34 -78 30 -106 59 
-92 35 42 -51 -29 -18 5 -16 -76 -32 -108 111 -19 -119 112 79 101 106 59 25 -48 -15 0 47 126 -124 -71 12 -34 -110 105 -64 31 -87 62 -57 89 64 -81 -15 -112 -55 55 -42 -74 45 -4 103 28 -21 64 -92 -26 54 -82 52 64 125 70 123 82 -93 -69 56 68 -53 36 -38 95 98 -53 -117 -106 -8 -56 84 92 16 96 -47 -43 92 -2 61 -77 102 -83 8 -80 32 -67 97 99 83 93 -61 29 69 -57 -56 89 -53 20 -54 -29 -40 61 100 -72 -80 30 55 -86 2 -19 92 5 58 79 -114 15 -35 -70 1 -95 -87 -22 72 
71 -95 -4 -65 -80 73 49 55 78 -84 25 103 -100 -43 66 2 48 65 70 124 -77 -57 85 -71 -6 -4 -34 -20 -9 -46 76 20 -102 -40 79 77 -110 93 80 77 -26 -1 85 -119 -21 -86 -55 43 -60 59 -22 -17 5 -8 -50 -98 73 -34 2 123 -34 -14 117 -4 25 5 -77 39 48 92 96 -45 -35 -6 -52 75 -124 -97 92 126 -78 119 -58 6 44 -47 -1 122 -114 24 -78 -84 120 76 103 26 -5 -114 -55 90 117 103 -17 87 67 -64 -50 41 -45 34 78 -30 125 -94 -82 -96 -78 -16 -87 40 -87 10 -42 -79 44 -113 35 33 
44 48 -69 -32 81 -27 116 43 117 26 -26 -60 105 70 89 -75 -9 -36 11 -15 126 -4 -102 -113 96 79 -100 -45 43 -18 -1 -9 -48 91 -126 -42 85 9 65 -98 -109 -51 -93 9 87 99 26 -55 -4 -124 -87 -83 103 -46 -63 54 43 16 -26 124 -98 -43 -21 -29 15 -72 84 -16 57 87 4 -48 -126 35 27 -29 -66 82 67 82 57 -1 -18 9 -47 100 -90 59 92 77 39 16 -91 -20 122 -63 -28 73 58 127 -69 42 89 -118 -29 -15 -107 114 25 98 -18 99 28 53 114 62 -91 89 103 -46 60 73 66 -96 -111 75 -88 -76 
-22 -23 125 -102 106 -76 -38 -119 -122 -62 106 -60 -24 -85 72 39 -102 -35 120 -83 73 55 -102 96 28 -51 -74 4 53 54 -41 114 117 -44 -61 -72 114 -47 -50 16 63 37 101 -71 -85 -100 40 19 100 3 -107 -72 -114 -78 -18 -76 75 43 -16 -17 -43 2 72 -13 126 -102 30 50 17 -54 84 2 93 -67 84 124 -90 67 -101 -10 64 94 -53 45 59 -15 123 -113 -3 -122 -16 105 -108 -70 97 -69 27 -104 -88 -51 -67 -79 -93 93 27 -29 -34 72 27 123 -78 14 99 -27 -36 20 -46 24 -64 -102 116 -13 -40 86 -114 77 -122 -89 
75 -121 32 -92 -106 -32 52 -51 -44 -92 25 -26 56 -88 -65 110 -14 -110 6 90 -46 103 78 48 -123 87 -1 18 -101 -11 100 -116 102 63 -61 -81 126 -54 52 65 -19 30 -75 -93 107 94 -66 117 74 -118 100 -41 -45 -52 2 -61 -77 -73 -23 117 44 95 -96 21 -125 -16 -19 70 37 46 -92 -101 61 -117 72 -118 -73 -112 108 20 -116 -80 43 49 110 94 -67 112 77 87 42 84 -77 -49 -97 58 4 -40 51 -42 114 -120 121 -54 104 -95 105 21 -35 -111 30 -83 56 -105 1 -47 29 72 24 59 -125 61 -120 -74 -7 102 93 102 
-110 -96 -24 -26 54 50 81 100 -103 -126 4 90 79 16 -49 -15 73 -26 73 101 61 -21 22 111 2 -84 24 119 -97 95 36 -100 17 66 12 -47 102 125 55 15 26 55 -15 -86 114 -52 35 109 -19 75 108 34 7 19 3 85 -84 85 -76 108 -104 -109 89 -89 -105 -26 114 -52 120 84 -81 -12 -114 86 -61 -7 35 64 16 -18 -75 119 47 -52 57 59 -100 30 125 -27 -37 115 -29 -60 9 65 -120 -18 52 9 124 24 62 76 -19 56 -9 -26 11 -93 0 -62 0 75 114 56 18 58 -110 -76 71 -79 125 -53 104 -10 116 102 
32 6 18 -53 -94 68 116 78 70 -63 116 -22 -69 99 -113 22 -47 -61 -125 105 -123 -105 23 58 75 -32 30 62 -6 -4 -115 71 120 -5 32 32 18 -67 44 58 -62 86 -31 125 73 71 -52 122 -82 100 -17 117 96 97 -116 -103 118 62 -54 -64 19 -95 -122 -81 -31 81 41 38 -51 88 87 -40 99 120 -26 115 -36 45 17 113 -25 -36 -79 -49 107 49 70 31 -122 3 -45 -72 47 -99 44 106 104 13 83 -63 88 85 -110 27 -43 -92 121 43 -84 -22 -61 62 -118 -10 106 29 -24 4 53 118 -113 -122 -5 68 9 -34 -56 -121 
64 60 -27 89 -118 -4 -108 -113 22 13 54 -108 -99 -58 109 -112 -59 98 -101 54 -116 0 -101 -12 105 -88 113 119 27 99 78 48 115 -117 75 -32 -97 -96 -49 74 63 -8 -105 -83 -84 26 57 -112 45 49 46 -67 -81 64 -110 -76 -109 -73 -87 6 -56 105 23 16 -84 -123 77 -36 122 -39 -120 76 -46 -107 -26 46 -46 -99 66 47 122 -111 -20 80 -81 93 3 6 -54 123 102 81 -62 50 2 93 -26 -125 102 -112 -59 -4 70 -113 -28 -61 26 90 109 -14 35 -65 23 77 -43 60 -73 111 55 -123 -95 -88 -23 120 -123 -44 -55 81 
-50 -75 -67 -45 119 -126 -57 -31 44 -89 125 114 108 102 -44 -2 -43 -43 107 -29 26 -125 64 99 -47 -115 -108 121 -9 6 58 94 88 59 -92 -43 54 24 -7 -20 11 107 62 -12 5 54 -72 -6 -54 -112 -2 35 3 115 45 68 -92 -114 -37 -30 -38 92 117 45 1 12 2 91 81 -75 -127 -5 10 96 72 -51 -120 96 50 -82 -62 1 -89 112 -97 44 -59 -22 79 73 -60 24 -96 42 -80 -83 22 125 68 72 -109 104 10 106 103 -91 -121 6 -110 -19 -66 -59 -101 38 108 -66 -99 9 86 -8 42 77 36 -75 60 3 105 -88 
-11 -44 -17 -59 104 37 86 112 -113 98 -75 -87 72 99 121 -16 -117 -67 -111 -83 77 11 -1 103 19 40 -76 -38 79 10 124 -116 -4 20 -31 -55 -108 43 -97 61 78 -70 120 -14 13 -33 -25 19 85 -42 -75 19 -19 22 -53 -127 78 -15 50 65 1 -72 -73 91 118 61 124 59 -66 112 -6 120 -126 55 119 22 65 -25 62 77 6 -79 35 -40 125 11 -66 -73 65 96 -104 -20 -98 -104 -30 -103 -99 7 -122 20 -29 -123 86 119 114 67 109 -63 -54 -12 -92 102 -41 -50 53 -118 -73 68 44 64 -18 10 -61 -72 107 -3 -126 3 
-110 -15 92 -59 78 71 127 69 15 30 -89 -105 -61 46 -22 101 -88 3 116 85 67 110 87 99 -76 -66 21 52 94 34 -108 49 -6 4 -75 -45 -101 -3 -50 -45 -84 -96 69 25 -100 84 -9 -25 56 65 38 9 -103 66 -117 117 30 -126 -117 78 -9 107 97 89 19 -88 39 -44 -70 -73 43 -84 127 -5 -8 -12 98 -26 4 91 -66 81 75 108 35 121 -42 -69 27 -28 -22 62 -72 -81 111 -14 -10 -20 -75 122 -66 -76 -85 -21 12 -73 -10 -22 40 68 9 -74 -74 53 13 0 106 2 -8 39 48 66 57 61 110 82 124 -25 
-42 -116 17 -13 2 20 -22 -99 105 -30 -46 77 69 106 -62 76 -102 -65 -48 25 3 -9 -54 -93 -15 41 -95 100 -2 -125 82 6 26 113 63 122 22 -34 109 89 46 -2 80 62 -39 -94 -103 82 32 -72 66 103 56 118 -44 -54 -57 -60 41 -86 9 81 -12 -1 -113 46 122 16 -23 43 -57 -95 116 -69 -48 -56 -43 -120 -81 53 -25 -118 50 -123 41 17 -55 7 118 57 110 -84 -91 29 117 125 -61 25 94 52 -22 -43 118 96 -2 -75 124 -30 -53 88 -105 -125 -35 -35 103 74 -16 -21 108 18 2 -12 109 -36 27 -13 28 -27 
-86 116 91 -81 94 37 32 -122 80 15 67 127 -93 101 -52 74 122 103 -66 79 -112 98 89 -28 -116 -31 44 80 -4 -99 -114 121 -126 -69 47 88 -75 -66 -116 -89 -124 -116 -92 10 -45 -21 33 71 -94 90 0 103 -18 80 40 126 -109 111 93 -60 -25 95 -24 101 -45 -64 61 9 -22 76 18 -1 8 110 -22 6 80 94 43 99 -47 45 -111 -104 110 39 34 -40 -94 124 100 -1 -57 72 34 30 -119 4 18 40 125 -72 64 120 -82 24 -21 54 76 35 115 75 117 63 -26 60 -105 123 61 -51 25 60 -121 -29 41 114 -69 36 
36 -35 -64 -40 22 30 64 37 27 -79 -37 -40 -84 9 -87 81 29 39 -20 -113 25 43 -48 -78 65 -106 -73 77 49 -118 -13 118 91 100 0 -120 120 -46 -79 29 116 21 -101 -69 -18 29 106 77 56 14 80 -52 97 23 79 106 16 6 -32 25 -99 40 -107 19 -108 38 -37 106 115 -108 81 -75 -123 46 85 49 -118 114 -99 -55 43 -116 -27 109 -37 -32 -31 38 -121 60 -115 -40 76 -63 -71 -93 -80 -31 -101 -81 -28 69 -104 19 -32 14 -57 15 -18 33 82 55 103 -85 117 99 66 -70 -51 -4 35 -8 40 111 81 83 -10 51 
-96 31 -110 73 48 45 -1 -54 -92 -86 92 -89 63 59 -48 -62 48 96 -33 -114 12 87 -126 -123 -41 111 -12 -82 104 29 43 74 26 -18 64 127 19 57 73 -119 24 -71 89 -89 81 -77 32 -117 56 65 -60 -58 -127 65 -93 126 118 103 103 7 -90 -23 7 97 -81 125 -97 -19 11 22 -26 79 -91 -18 109 19 -38 -71 -94 89 -95 -43 -83 -74 86 -31 40 57 -21 -84 -89 109 -94 121 -12 -10 -71 -99 29 -85 -75 -71 -120 -119 68 63 -48 50 -87 75 24 -121 -29 121 12 -94 -31 21 88 -110 -119 -21 90 61 70 -112 127 119 
-19 49 -67 55 -49 0 -78 -63 -81 -71 51 9 -46 -78 5 30 -61 -118 -6 -8 -59 5 -47 -1 3 89 46 -88 -125 85 -82 35 -56 82 -91 -100 116 53 -28 -87 70 -17 -92 73 59 119 -43 -84 -115 39 -110 77 57 72 114 117 -87 -60 -97 67 -22 -16 -125 -78 43 -29 41 74 126 -72 122 -95 -68 26 86 95 -110 39 -18 5 17 -88 102 -110 -90 -11 125 -127 -106 -66 103 36 35 -39 67 -15 -71 -68 113 76 8 -93 -82 -103 11 -58 69 100 -53 -14 42 47 -74 96 22 -101 74 86 116 66 -74 100 -113 -5 -35 59 120 124 
27 26 -37 88 -55 -3 35 -112 -37 85 75 73 -44 84 -123 106 -3 51 -46 -45 -22 40 0 -72 120 33 93 -24 -13 -91 64 52 37 -119 -28 69 -81 -30 -64 84 -11 63 31 11 13 -12 2 106 96 41 113 127 22 -19 -126 -36 27 -97 102 -8 -33 -91 124 -79 15 -105 -75 66 -82 -66 -19 85 -50 50 29 -26 -27 19 40 22 -57 -108 65 -126 56 15 -26 48 5 83 117 -84 -59 87 -112 110 -41 61 -26 48 27 96 94 80 -105 -83 20 94 111 31 3 97 -18 -53 -2 -24 -118 -68 -9 -69 104 33 -72 -69 -54 100 -61 -111 
109 74 26 -100 -106 -48 -23 78 -57 92 -76 19 45 42 80 49 -19 66 28 41 59 23 -35 -58 64 -100 16 -96 -13 116 91 -90 -98 -57 97 -15 -41 36 -117 38 25 99 35 47 -18 -110 -77 55 -40 119 31 112 78 108 -94 -125 9 112 24 48 -52 -50 34 -29 -75 -98 46 1 -29 45 13 31 -94 11 11 -94 -19 -86 67 -119 -96 -25 -74 34 109 -55 112 53 -96 -32 -30 36 -119 62 72 124 -31 117 125 34 29 98 33 43 32 107 -30 -109 23 -56 113 -64 35 -66 -37 24 59 -95 12 -54 -69 -96 -85 124 127 83 -23 -21 
-13 -120 14 -46 -99 23 -11 33 49 123 -31 -101 -15 -101 64 67 35 -61 -82 67 -103 -93 108 -12 94 45 -69 -61 52 -16 -66 122 -116 77 -54 -42 124 52 -29 119 66 -100 -62 13 -14 0 -92 -22 -12 -85 -27 91 96 -93 -42 -54 56 -6 -99 -95 -112 111 112 106 -12 -93 -37 5 27 13 90 -16 125 115 -52 126 -9 106 93 -16 60 108 -97 -12 -120 -22 -24 112 65 44 -80 13 -94 126 70 16 -9 -44 20 -127 -127 83 -19 -47 28 -26 114 -31 111 98 -70 45 -127 119 -60 -90 -47 -52 -22 2 53 94 -28 9 -123 -72 -82 121 
-118 11 -107 -32 -42 34 93 87 -111 -62 -28 68 94 -99 63 -31 30 -85 120 -123 40 9 25 78 -61 104 -104 -4 112 51 -88 112 92 -115 101 65 -125 97 62 -127 71 -86 -8 -92 -85 -28 -56 -121 -69 43 88 -25 124 -122 50 82 121 125 -35 -36 -92 -35 -32 80 -39 48 -112 88 48 -100 54 -126 -1 89 55 -92 8 -72 -93 65 -97 77 127 -35 56 -107 119 94 30 62 -115 -25 -72 53 -7 -6 -108 -122 118 -115 123 -9 -65 -118 24 93 56 43 -117 -116 116 -1 -32 69 -102 -41 11 41 -76 10 -37 -89 125 -120 -19 75 -87 119 
43 105 45 121 -67 77 98 -81 41 47 -57 -120 120 -72 -55 -78 75 73 -82 10 52 -71 98 -46 -30 53 -56 71 96 -57 -37 127 102 -126 -105 51 -22 -86 -72 -64 -57 -119 -93 63 -14 2 21 39 -5 31 -110 -62 106 81 86 -127 -47 40 -78 92 -59 23 67 -19 -73 101 -98 -18 -22 56 31 -100 -1 -7 103 78 -124 -19 107 20 -98 17 95 89 77 112 -123 11 112 -6 -67 86 -111 -19 -74 -6 -89 -82 96 86 49 91 44 -92 82 21 123 31 22 -40 30 -19 67 -33 11 84 53 28 -117 2 55 81 97 -85 43 -82 -31 32 
-111 -127 101 20 29 42 27 -125 54 15 -111 -31 32 -57 81 -97 52 -43 -90 35 100 -55 -30 -116 102 -75 -39 -15 102 -119 -29 63 12 -107 13 84 5 -11 32 -93 30 -117 116 -5 32 -13 -59 -71 43 -56 -84 91 -85 -5 -124 13 -127 61 27 109 -104 -72 55 83 -107 59 -14 -19 -86 124 39 58 85 69 -12 116 -31 82 11 -80 50 -22 20 -40 72 -33 -111 33 24 38 61 91 93 -58 -126 -45 -92 72 11 -114 -4 -60 -13 -120 76 36 4 0 -118 105 61 -68 40 -70 -22 33 -55 -50 1 95 -124 95 22 -96 -98 72 -108 -33 
112 -12 36 -85 -34 -55 22 -72 -13 115 80 10 29 -33 -8 -75 -34 21 -37 -13 100 79 -76 91 86 -24 73 -64 104 97 -101 11 6 -119 -49 -46 69 13 -44 -65 -105 -120 124 -20 60 67 -18 6 75 -16 -126 90 4 -120 65 79 -87 -95 -94 -120 92 1 19 106 1 -117 -97 10 76 -17 -18 -122 55 -82 -39 12 -38 122 9 19 34 66 113 88 -73 -104 -119 -74 -106 38 -63 50 1 -118 -11 19 98 108 29 -13 -19 -85 15 -93 21 117 -94 126 13 -112 44 -96 19 -73 89 124 83 -116 -77 34 73 116 -65 -118 -114 -64 109 123 
-20 84 16 -58 17 113 -88 -106 78 91 -91 80 -84 -78 106 -17 -37 20 96 -79 105 -17 -123 -29 124 -114 114 -44 14 63 -83 102 49 98 65 -80 -65 77 -8 -13 -104 -87 53 18 -56 -18 86 47 -99 -49 -70 83 -55 -27 -77 -119 56 -75 -28 107 51 -19 49 -82 126 117 95 -63 90 94 -97 -84 18 26 -16 -72 -10 17 108 -26 82 -1 68 -38 -34 -9 89 7 21 117 88 40 83 -80 101 118 72 22 17 91 54 -61 -114 -88 36 77 -13 -24 -5 -120 -7 -8 77 -26 15 6 22 113 45 -69 -86 -46 38 -28 93 -31 112 -80 
-14 124 65 -14 76 2 46 -75 70 6 -99 50 -114 119 -3 99 24 -16 109 86 -43 23 -35 -56 9 100 28 -67 101 -34 70 -103 45 -49 88 -94 40 -71 -80 -8 16 69 -17 -88 -74 -13 -36 9 50 114 58 -5 99 -44 -32 -54 112 93 46 -95 -114 -52 124 41 72 126 119 79 9 46 -59 47 116 35 -35 -44 -6 75 17 -97 50 -50 98 -92 -37 -118 -89 119 35 -32 -85 47 73 118 -107 78 -102 -7 94 -118 -16 -10 -85 86 90 76 -97 59 122 54 -81 48 5 -124 81 -40 55 -37 82 -72 103 -45 -6 -55 -109 79 74 76 
101 -96 90 21 96 -106 40 32 126 60 -34 -3 -119 -92 -50 62 -59 -118 18 72 -8 -46 -101 -87 21 55 -73 -52 82 -54 31 -115 106 126 -82 -25 96 -63 19 -80 -118 57 -37 37 30 96 -71 -99 106 -69 -5 -63 -11 -117 90 90 -30 114 -77 126 -1 127 89 79 109 -29 11 -41 0 -32 63 110 36 -55 1 -76 -10 -14 30 2 -116 1 41 -38 -102 56 23 -28 67 35 -43 55 -41 115 44 127 -49 83 124 93 16 -59 59 49 99 118 99 100 27 -79 -32 78 58 -98 44 6 39 30 -81 -101 100 103 123 59 60 -90 -125 -10 
66 -75 -71 14 -95 -86 -8 -29 -83 36 33 116 51 -50 27 -73 23 2 -48 105 -25 -99 -48 -96 -108 -115 16 -121 31 39 -45 73 -49 106 -121 33 -68 -98 -28 -12 -101 -74 24 -38 48 -111 47 -100 -32 21 -65 105 -26 -74 -125 -98 33 27 -41 3 -93 1 42 12 -96 53 -88 -27 -70 123 15 -74 -122 15 32 74 -56 106 -83 -61 30 83 -126 -116 -123 -89 -56 -27 83 19 -124 69 69 -10 111 27 -64 -76 74 -38 -117 94 -68 33 88 -116 -19 22 -63 106 55 -32 -38 -22 0 95 12 -75 84 -106 84 -12 -28 -120 78 27 -17 49 
-26 73 7 -55 103 -87 91 -45 -14 -56 25 13 38 -40 52 100 -91 -4 23 -42 125 -59 -88 -66 -6 -84 -94 -83 -118 126 -127 -27 18 124 27 107 -58 -52 -103 -102 -67 -95 34 98 -45 73 5 -7 7 123 21 -124 126 -121 -79 22 -107 100 51 -58 -115 -2 117 -31 41 -125 -43 99 102 -81 97 19 12 77 -7 -110 -66 103 -64 96 -111 -85 102 94 -29 -6 21 14 116 -83 -92 -55 27 25 99 22 -51 -50 102 -57 -23 -49 38 -56 103 17 98 32 -28 -56 -91 -91 -75 -107 92 -102 -8 52 83 -38 55 3 -99 -52 -56 -118 -74 -86 
-82 -82 24 -49 113 -115 5 -27 80 88 13 -60 58 85 -6 102 -64 80 -87 46 -42 70 -28 127 -55 -19 109 -97 -124 -78 -36 57 -114 -16 -30 -51 -43 -105 125 -80 87 86 -26 -5 89 -100 -26 -23 -113 56 0 -43 69 -46 -98 21 55 -71 120 -76 -1 -17 40 -64 123 42 -99 -36 -60 117 25 37 -9 7 -39 41 -62 -43 41 7 -47 72 -124 8 11 38 3 33 -97 28 43 -59 110 70 -58 -73 -31 -46 -31 11 -92 38 95 60 -52 -41 -117 -104 31 86 -100 -42 71 -125 72 -68 6 38 6 -119 21 122 10 87 -100 24 -3 -84 
-93 -1 -108 -117 -26 2 120 6 124 69 44 -119 118 -79 4 -50 -75 -74 -116 36 56 58 98 -77 -24 -54 -62 -59 -29 -66 12 122 -85 -97 -86 -102 123 8 -2 70 -79 60 -81 15 11 69 56 17 -112 -73 -56 121 92 -77 -67 -29 -57 -93 31 -54 117 13 -29 7 30 -44 -51 -105 -97 44 82 -2 101 -5 -46 117 35 -124 56 -92 6 108 -39 4 -108 115 127 82 73 24 69 -84 102 34 -92 -51 105 -52 44 24 5 -93 8 119 -109 114 10 71 -19 24 33 3 -75 87 -125 89 -111 -12 -104 -23 11 -18 100 -54 -125 91 104 -15 
-100 8 -119 119 5 -88 -85 -49 -12 57 94 113 -14 -9 115 72 10 10 -17 -28 -19 70 -104 3 36 -71 95 -122 119 -8 -2 -34 -12 124 -13 -111 36 -47 -65 -93 -112 -59 28 125 97 83 -127 -93 -17 20 -55 33 -101 -65 35 30 64 45 -33 73 58 2 87 113 -113 49 98 97 -112 92 -5 100 -17 -14 -65 84 -69 -103 -120 4 -34 -52 -12 0 52 107 -114 -117 8 81 -107 30 -36 113 -87 -125 -11 38 -75 -65 23 0 86 -37 122 -127 -104 -1 44 -74 36 65 -22 49 111 4 -50 -16 44 101 -14 42 -22 -3 35 -70 -122 -101 
-39 -54 -11 56 26 10 97 -80 -91 2 -111 -42 17 16 -83 8 -15 44 -121 100 95 104 -33 106 -89 10 -69 64 28 -93 -95 64 37 21 -97 1 -26 -59 -99 14 -97 -103 16 46 -126 -87 106 57 98 -86 94 45 -3 12 100 -79 11 43 109 -84 -110 -28 105 17 67 127 53 -56 -14 -96 124 -65 -104 -95 93 35 28 43 -56 -49 44 4 91 -62 68 -118 -6 44 -101 -82 -94 -118 -97 53 -71 -118 16 -51 -98 91 7 99 -56 64 38 -47 75 -37 12 -2 -85 81 92 72 -10 101 -127 -1 114 41 -41 -123 99 -125 42 -26 -8 -103 
30 28 43 -77 -114 -118 -6 122 -40 -24 90 -69 -63 -37 -118 -96 79 -30 -5 -18 6 63 -75 90 100 -71 103 8 40 -13 -8 123 -37 120 -2 -122 89 -91 0 -15 22 101 77 -36 124 3 9 71 54 -14 -101 107 47 36 117 -58 13 -118 -59 -30 -21 -101 20 8 -71 -39 -19 110 -80 125 -47 -112 8 -52 71 18 -19 12 72 102 -101 -123 50 -31 -36 56 40 -43 94 -5 102 17 -41 60 61 24 -5 104 -29 -93 -83 -69 -26 3 -41 -83 -105 123 -83 -103 100 92 -72 110 -107 -5 -58 125 87 -80 54 -80 -37 -45 -65 -4 64 -69 
-122 125 -112 60 -98 -71 -126 -50 -1 94 -37 37 1 24 -32 -34 114 -21 29 5 78 45 28 19 46 52 37 -100 -13 110 79 114 73 -17 75 74 92 120 17 -126 68 -27 55 -97 45 -39 -33 104 -122 91 -87 -29 35 -116 11 99 9 11 82 -22 65 -30 85 -88 -122 -54 23 12 -23 86 109 18 -8 -81 -67 -78 -38 45 119 -25 12 13 32 -24 127 -1 107 23 -44 75 -40 114 67 -114 69 93 73 36 -17 55 88 -49 -76 67 18 111 112 -40 64 89 82 -1 -48 -14 65 -85 96 90 77 -62 -47 -96 -32 102 78 -2 -21 -124 
-126 -74 83 75 -50 120 26 76 -96 -103 -86 -73 47 -93 96 -86 -84 111 -107 124 2 31 47 36 -57 107 -78 -5 121 110 -56 -102 94 -95 -38 -114 -14 -97 77 52 43 -121 66 81 119 103 116 -7 83 41 -77 -110 81 -70 41 -65 -57 -117 58 107 -54 -10 125 -87 -19 74 -30 -1 54 107 -63 -32 6 74 -124 -54 14 49 62 45 -38 8 -104 102 -103 35 30 53 61 59 -116 -97 -98 43 -68 -79 77 -61 5 57 17 99 -79 108 19 -127 -15 5 -20 123 -18 -127 43 -99 -26 43 126 94 -109 -42 -122 -56 -114 -64 -36 -31 -26 -32 
23 71 -15 99 -99 114 -70 -58 46 -122 -90 32 31 26 3 48 16 -78 -26 -41 -95 29 85 107 56 1 -53 68 -81 -84 -124 -47 -88 -42 -109 56 45 -121 89 -10 -6 31 109 84 -38 11 69 111 -126 57 -124 86 -47 58 -3 63 103 101 -91 97 -38 -115 -95 91 118 -87 -57 38 42 -40 -3 75 83 126 -76 94 -43 -114 -57 80 114 -79 89 -71 31 99 119 21 112 70 -45 -71 111 10 39 -63 70 1 -65 23 -102 45 -108 50 47 111 14 -100 106 42 -115 -89 -118 -28 21 108 -103 -31 29 1 98 -17 -61 -109 78 -116 2 39 
66 -25 -126 119 -12 -100 14 -30 112 63 -34 20 -5 54 71 -57 -67 -112 84 -9 23 71 -42 23 6 26 -108 -4 61 -5 -76 36 45 59 -98 -50 29 -12 50 43 47 100 71 -127 -44 49 -86 6 37 -66 -48 34 40 -107 -26 -89 70 -109 66 -123 -93 60 -106 -100 -67 -37 -90 66 -91 -19 45 -4 -31 -58 2 89 -39 -112 88 92 -13 -63 11 -85 51 18 86 59 -1 -98 24 -70 -40 -43 13 68 -82 26 40 -105 -125 54 50 -41 -27 -22 -111 -12 -80 -33 -116 -120 -114 118 -9 -8 -10 -113 -5 -14 -121 -10 35 67 -54 58 -33 93 
-121 45 100 -127 -115 -19 85 -45 79 106 119 14 68 60 35 62 34 -54 -43 117 31 44 59 -114 -63 -67 64 82 24 110 59 117 -26 54 86 -32 -84 29 -125 -14 -66 111 60 -40 -125 44 118 51 22 -92 -63 8 13 98 -37 -127 42 -111 -17 -58 93 3 -54 -26 101 26 -39 127 69 -63 -96 14 -88 88 -118 63 63 -75 112 -54 101 109 -72 -52 81 46 33 -82 7 127 -91 85 40 126 -65 -40 112 33 16 -87 -66 90 -61 37 -13 -71 -117 51 13 65 96 6 -107 54 -81 -117 18 100 116 117 93 96 -91 76 118 79 2 -80 
51 90 6 -63 -102 -92 36 38 -102 -113 106 72 -88 -59 78 47 26 -6 -114 -89 -51 23 -77 43 70 2 -29 40 -92 67 -55 -75 100 9 -62 82 -41 59 -120 28 51 -19 -47 92 -30 119 80 52 57 110 105 92 -125 71 57 52 -51 -96 -40 23 22 -76 -12 -9 15 43 -22 -17 11 33 -84 -114 42 -31 -103 -15 77 4 112 -122 -117 27 6 -58 100 -35 -122 103 104 32 -44 101 22 101 17 62 -121 -9 -50 -122 89 -38 19 123 3 111 20 -87 39 105 127 100 45 73 72 -99 -95 90 -86 21 37 -5 -24 -120 18 5 -68 -103 
-45 60 120 75 -8 -50 127 -111 123 -11 -44 -74 23 -94 -78 53 40 -4 10 45 79 124 -85 79 105 47 14 -61 -103 29 100 88 38 -115 75 34 13 85 69 -28 2 -37 -126 32 -99 123 76 75 -121 -79 -50 59 17 6 64 -67 111 -121 100 94 -94 -32 -93 6 44 18 63 78 64 12 -11 -85 -88 -119 -61 -74 -63 100 44 65 11 -125 -30 -40 53 -99 -66 2 -121 -77 123 -38 124 -34 115 117 -63 -34 23 86 93 -115 100 25 -10 116 6 -107 -118 115 -94 -88 63 -64 -77 -76 -55 -110 88 84 -55 -44 77 -80 -87 101 -71 -118 
-91 53 -1 -72 -44 30 35 30 30 73 4 -57 105 -119 -74 67 -97 -2 -34 -39 -43 7 -17 -51 -98 -91 -69 -113 -101 -9 83 87 108 19 -82 38 115 83 1 61 40 24 16 3 90 59 -4 78 -127 63 71 83 14 125 15 125 -126 -123 16 -40 71 94 19 -103 -6 -105 23 38 -23 -110 66 65 3 83 97 -61 87 -99 -23 92 71 68 -71 112 -102 18 9 38 -1 -118 -93 -78 -65 43 15 -1 85 60 -79 47 -117 -54 51 74 -61 -79 -54 -27 -12 -14 91 94 113 38 51 126 45 -81 22 79 64 -60 84 -21 65 68 -107 -1 
-93 -121 -119 71 -113 74 -117 25 -54 24 22 126 -54 -81 90 44 71 -11 -80 -28 -19 100 57 104 42 -102 -73 -123 28 -35 -83 -17 -80 -76 23 105 51 -116 74 15 126 46 -53 7 -11 -14 87 98 -79 78 98 58 -116 -102 -75 111 -71 -44 42 50 -97 -86 -125 -14 104 -45 -5 109 -110 -7 -73 -125 18 -47 -104 127 -108 72 119 -40 48 -98 -89 -44 16 97 -71 105 65 121 64 107 88 -5 -94 -80 26 122 -107 -52 7 31 -81 17 -42 119 11 109 109 -72 -121 -108 80 -66 45 6 25 -110 57 91 27 -44 116 59 -24 -25 -94 -37 
21 -127 25 32 26 -114 -83 45 45 -87 29 -26 65 -56 92 41 -74 30 -57 96 35 123 7 42 64 -49 -35 64 44 8 81 -23 -45 102 -61 -25 -15 -70 -37 56 104 54 12 92 34 80 -53 -55 -32 16 -80 -35 73 62 35 52 -9 86 -115 49 -45 -81 76 116 106 65 51 100 -41 95 -3 86 -7 -118 -108 -18 -28 59 12 -96 -4 -102 50 110 -18 81 -67 89 -67 -101 -78 100 113 -91 -85 96 -65 -42 -56 53 106 10 17 -113 85 90 121 40 58 74 81 32 37 -92 49 37 72 -91 -90 124 126 121 27 47 -110 -61 -99 -99 
79 -31 59 122 -86 -108 106 -93 7 -71 29 116 -102 -100 64 21 102 34 -13 63 -10 -20 127 94 14 73 124 -118 84 111 77 26 70 28 -119 -52 -41 -96 36 -56 58 -28 -2 49 117 3 30 -11 -6 40 56 -35 -106 -101 29 66 2 41 -120 -89 69 84 8 -24 -54 41 76 120 95 -116 -112 98 84 51 -36 27 -62 -94 -120 35 -48 -77 -70 120 32 59 85 48 120 -63 -115 109 -3 -116 -94 21 -93 80 93 -69 -86 -2 -95 31 -101 58 -67 -61 -113 -100 60 29 -26 84 61 117 -83 -44 46 23 82 28 -95 -48 112 -127 15 -114 
68 12 -122 -16 -45 102 1 -104 -56 117 -10 -66 -15 -121 -77 -91 103 85 -58 78 112 -111 -43 -26 -25 101 -89 23 69 -58 77 -104 88 87 58 122 -25 -105 88 -57 127 -124 112 -69 63 80 102 -71 -93 -61 11 -76 88 78 -81 18 121 76 -104 47 -83 -111 -27 -76 -28 -5 -109 -33 74 -62 -52 -25 125 78 -16 78 9 -119 -102 -47 -89 -42 23 115 -69 92 37 -3 -73 -1 12 -2 97 105 119 -122 -66 91 65 83 26 -4 3 -9 -82 -9 -108 24 -77 110 -118 -99 -79 -86 -77 -35 32 41 64 -45 23 -112 63 -37 -2 81 21 40 
45 123 28 122 61 118 35 72 -16 4 109 18 113 106 33 -69 29 -120 80 -96 -23 27 -9 -85 -49 21 -121 32 -60 78 -10 -82 -74 -74 103 -67 -111 -55 -107 125 12 113 94 3 -88 -103 104 -115 -15 92 85 -108 -122 -14 31 -104 -16 126 4 -34 80 65 23 18 3 30 -53 -89 89 60 44 36 79 -54 -106 -40 -81 11 93 27 -101 -67 31 45 -26 98 60 54 59 83 -91 -66 69 121 -56 66 -81 1 13 50 -127 6 -52 0 -101 -85 97 -99 -43 -65 46 127 -117 -100 -106 -123 38 101 -100 121 -43 -28 79 37 13 18 7 -113 
95 -5 15 -81 48 -50 24 -83 -41 -7 -102 -24 58 44 -118 50 54 -89 -101 -115 42 34 -119 -64 -53 65 20 64 -102 -16 16 93 60 -20 1 94 -71 -57 47 5 -5 8 -24 8 -77 -98 -91 -73 -73 -1 -80 46 14 -51 -95 39 69 -22 102 44 77 5 0 -17 -77 -38 -24 -16 20 -51 126 83 -112 -78 25 -57 118 87 3 75 79 63 -45 24 40 -80 113 -61 -32 -16 33 -77 -63 100 105 -84 57 -109 -42 45 -114 19 -49 81 43 -44 66 112 -86 0 107 57 -18 92 73 126 -72 126 124 125 -9 52 3 72 11 103 -86 -44 
-127 42 -49 -120 85 20 -30 120 -39 -49 -64 43 -81 123 75 54 123 -33 61 -115 29 -18 -81 94 -74 -72 35 87 101 -90 19 -80 11 -100 13 100 9 124 -33 83 37 -66 -69 125 -64 -117 -34 -43 -12 13 -84 -97 34 -24 22 84 -22 27 -89 -21 49 67 -54 74 -112 32 127 -26 -101 -12 -3 -124 -20 -45 98 95 103 -15 -21 124 -117 -10 -115 30 107 -25 -83 -1 -91 -77 82 -45 95 97 -127 -91 75 53 -73 81 -31 81 58 -60 -28 102 78 107 -39 125 54 40 -46 -35 -15 122 33 125 69 -43 -37 35 21 97 -19 44 66 68 
41 -31 24 56 -111 5 -97 -54 71 -79 -116 -34 121 -126 -37 -4 -9 35 -40 -50 -95 57 100 -58 4 82 -43 -107 20 -13 -17 -42 74 39 -113 -48 -63 -23 79 -125 71 -90 -24 13 -11 -66 52 38 14 -16 -115 66 33 -63 69 22 123 124 33 78 4 52 127 -23 -82 83 14 -119 37 -101 60 -71 -47 -59 -32 -126 -8 -5 -83 63 60 -33 -68 -89 -44 87 102 -76 93 -9 -47 1 -81 -24 -75 90 120 -65 48 -89 6 55 -115 95 -2 -86 31 108 -70 78 -57 -39 -53 4 -109 -123 32 20 30 -11 109 6 123 64 45 52 -116 -37 
58 22 -21 -112 97 -9 28 0 125 5 53 -22 30 -62 -72 -67 -110 -91 -10 97 65 93 -43 106 -8 -16 108 2 52 27 28 90 6 -115 95 77 15 4 -27 19 -43 -35 32 116 119 -75 -106 -116 41 -113 -35 -32 55 -28 -98 -107 -7 -68 121 -121 65 -22 16 23 41 4 -107 75 -86 -99 -102 -99 -86 51 34 76 -99 96 -21 -56 126 80 -21 38 -78 -113 -121 91 -13 59 15 57 8 -73 126 -94 62 83 -54 -32 11 -40 35 79 92 79 96 -30 -11 -103 59 -121 90 102 113 -61 -11 62 30 68 74 15 5 16 25 -36 -8 125 
-123 119 -15 -40 48 -65 -53 112 -11 99 84 103 52 -120 67 38 91 84 98 6 -52 -25 94 -64 70 110 107 -6 68 -24 -110 35 -3 20 -103 24 -44 -107 -83 -29 -38 57 -118 -76 -55 104 43 -92 -115 9 -53 71 -53 -1 110 14 98 16 0 -5 92 -61 -111 116 52 -107 20 121 38 9 19 57 40 33 114 -28 61 -55 -93 -45 -102 -117 -56 50 110 124 -25 100 122 -33 21 5 -65 -6 -116 99 102 84 -18 33 63 68 -113 -49 -9 78 114 82 106 22 95 42 55 124 -76 -72 -37 -42 23 1 -51 -36 122 45 -71 0 -67 110 
104 -21 -123 46 66 -102 117 -13 -8 -52 42 -85 -78 12 8 -65 84 -8 -9 57 82 62 -119 101 45 88 98 -87 91 -68 75 -117 28 -99 64 -116 -122 -91 -32 -17 46 -62 -28 -78 -31 -32 56 37 -37 -41 64 -120 -111 -51 -56 -98 -106 -2 -77 -65 28 127 -66 7 -28 -48 -107 -27 -63 -41 37 -112 101 17 -59 32 95 65 95 -26 87 -108 -8 60 98 -4 -65 -75 109 -121 116 -105 12 94 80 -67 10 59 -98 -112 -124 108 -11 -51 -52 -119 38 -34 31 47 -32 -56 73 -38 -21 -22 -103 -90 -18 80 36 -31 69 -85 91 -40 -57 112 
34 -19 70 56 -86 11 11 28 16 -50 -49 -110 89 94 122 26 -97 22 -8 54 42 41 18 -122 14 -25 13 119 -35 100 0 -93 120 96 94 96 123 -63 -36 -61 49 83 16 83 -106 124 -42 32 7 21 67 -2 -84 29 104 -12 -83 -63 84 62 93 91 50 6 66 -53 -71 125 75 -125 -67 51 79 -81 -117 -10 -125 87 120 49 -96 -109 73 10 -6 42 21 -9 -45 -6 -88 -118 -12 71 56 -85 93 92 -16 -76 81 71 -127 115 78 -94 -68 58 -62 113 18 111 112 -73 -14 -33 -73 -65 -24 101 -107 -46 -85 77 67 -24 19 125 
-101 103 -66 -14 47 112 -61 -64 -109 -94 -27 49 -67 -78 60 -42 87 -49 -124 -74 -22 77 116 -88 11 -30 -87 113 -22 70 -3 -1 -100 -118 -32 101 32 -127 93 -7 21 -34 -5 125 -41 30 -13 39 53 -78 9 88 88 -112 -4 20 -73 89 21 -103 -31 -29 38 -57 -30 -41 -92 93 3 111 117 106 87 -17 10 -67 116 -12 -80 -4 5 -53 54 -50 -30 31 -72 10 16 46 47 41 -66 -74 76 -121 -29 -69 -79 -3 -79 -10 102 -101 -77 7 31 -123 -33 12 59 58 -123 111 36 -120 -121 32 -60 -94 44 89 -92 39 41 -3 100 30 
43 -122 -20 -51 118 -50 -1 -82 4 -62 -100 -62 49 6 -121 -33 50 -13 -8 -80 46 117 79 -104 51 -115 -95 -34 105 -39 -41 99 49 68 50 -43 86 89 94 112 16 27 -9 28 -81 108 34 -39 -114 -90 -80 -79 96 107 95 -115 8 88 127 114 22 24 -50 -86 51 -45 -20 21 -63 -119 -42 -55 63 101 -75 123 119 -83 -84 39 -78 -89 62 7 -52 -59 73 48 93 58 -122 -44 -88 -17 -109 -109 -70 64 51 8 40 -72 -78 64 17 23 123 -48 -45 98 -101 93 80 96 -115 -20 -127 26 -5 -43 -126 84 98 -118 19 12 43 -31 
34 21 7 -54 60 -106 107 61 95 98 31 119 95 -9 23 91 68 -51 -55 -74 31 -53 -81 -33 -89 -106 19 122 102 -4 -104 -82 -9 62 57 103 -1 57 101 -71 -50 -80 45 92 17 -50 -69 -94 -82 -112 -51 74 -95 37 -23 -93 -16 -50 -113 -92 -6 104 7 -42 105 78 -81 -24 -38 -7 -116 26 18 -57 22 63 -12 105 19 113 48 17 -51 -120 -37 -123 56 -43 -110 -85 -110 -127 106 -3 101 -101 -105 39 38 -11 88 -60 -71 74 -54 105 -22 102 95 -35 -14 -105 -2 -53 -127 117 -96 86 17 120 -96 -53 91 40 29 -122 59 -90 
7 -48 103 -50 -74 -11 122 9 100 35 65 51 -90 111 113 -40 64 -32 20 107 112 -111 -117 -10 41 77 -12 -116 48 -99 80 -100 86 -122 -16 13 1 110 24 -45 -66 104 70 -42 68 89 -62 -25 -7 96 -127 80 94 73 124 -123 29 122 -52 60 38 112 -84 14 72 -113 119 106 -92 83 8 69 -101 23 81 -45 58 -73 -49 24 -64 -80 104 -12 -76 8 105 0 82 -3 -111 -33 -118 19 -53 15 -53 123 -13 35 60 38 1 -103 52 102 -37 62 57 -35 -71 -91 -2 -94 36 17 19 -6 -57 17 105 -106 -20 -23 68 -99 99 -103 
-116 -30 51 -79 -106 -81 -63 115 -88 91 82 90 40 2 104 56 -58 2 -69 28 -75 -103 124 -122 80 103 -23 104 36 -59 48 104 -32 -114 110 73 30 -39 120 118 -55 66 -38 -91 -105 -78 -63 -41 -12 103 -79 55 114 -18 117 55 -41 91 -84 73 115 9 31 92 127 -61 -51 80 35 -105 125 124 79 -40 -101 65 -13 -5 -48 119 -36 -105 17 -45 39 81 -109 -57 122 -86 24 89 42 57 82 88 -66 99 -82 120 -8 -115 -51 -103 92 87 56 -67 107 87 -69 68 63 93 -16 3 120 -3 -60 105 93 -101 -107 68 9 -42 -19 75 
5 -63 -13 53 8 26 -16 72 -114 60 -62 88 91 71 5 -17 -13 -92 97 -61 -36 -1 -111 110 -58 -42 31 69 -76 102 65 67 -14 67 101 -13 -117 126 11 -99 -50 -24 19 43 72 30 97 -27 102 -113 42 11 -106 50 12 -100 -51 -28 -121 -103 24 51 -106 92 -69 -74 71 -50 -116 -46 56 -68 -127 2 -76 -21 95 -68 18 63 24 36 85 -127 -113 89 -37 81 -59 -64 -70 95 58 -104 78 121 -81 59 114 -13 103 -80 124 -126 19 11 78 34 54 -6 37 -17 -30 -88 -60 40 115 -86 -66 4 119 -35 -27 51 10 -18 -115 55 
-103 -59 33 36 12 21 51 117 -54 102 -11 62 86 14 34 64 -116 -16 84 -4 13 -112 -67 -11 -114 81 119 127 97 103 -53 85 -121 122 -19 -98 60 -14 6 -111 -104 -11 105 -10 -33 -18 70 -59 -89 44 53 -25 -17 -89 78 35 -111 -99 -36 45 62 81 -36 116 -81 -9 116 -11 91 81 -109 -1 81 40 68 86 92 112 125 -61 53 36 -97 -12 52 25 -62 28 0 -31 69 62 107 -36 -34 -105 -62 -122 -103 113 -81 -122 -69 -36 -104 44 103 97 50 92 -97 72 -17 -65 -31 -127 72 -32 89 104 -61 116 92 -98 16 -65 -42 -59 
-108 -22 -112 -81 33 -77 13 44 85 -32 -23 84 -119 -85 14 -86 71 112 -70 -67 23 -10 -71 23 56 119 -34 25 126 -93 19 -32 32 -84 -77 -50 -85 -57 -126 70 42 -99 115 64 46 53 106 40 78 86 -79 -20 -88 76 -108 -116 111 -17 -55 81 -62 -96 -24 4 -44 -11 79 -44 -74 33 -77 52 103 -70 -122 -2 -91 75 45 -81 122 99 -70 -72 53 29 27 -19 60 8 -125 90 9 92 -14 89 31 -122 -12 39 -79 85 -109 91 -8 -90 76 -118 36 100 81 100 112 -117 1 95 -32 -2 -46 95 68 -36 60 4 92 -28 -52 76 
79 30 0 -71 37 33 -116 -88 -66 105 13 -51 20 -67 -93 72 106 22 24 56 -114 -50 36 123 100 -120 -95 -41 8 -47 111 -33 123 76 6 -65 -73 45 17 54 101 -103 75 69 126 16 -84 99 -38 45 -23 0 59 30 -122 -43 5 63 0 -18 51 -44 -120 -20 94 88 121 -113 -78 -29 23 115 -124 115 53 -3 -62 -27 -6 83 70 51 -100 82 -2 -87 1 56 65 -43 0 -123 11 -15 116 -81 122 27 45 -21 -121 -98 94 58 -109 102 -51 -22 -118 99 32 -59 103 99 15 48 66 -96 -81 -126 -92 76 -3 11 -95 91 98 27 
-8 115 114 -126 -46 70 21 106 7 126 -36 -38 -86 108 -48 -1 54 18 -104 -15 64 -116 -30 88 67 80 85 -102 -2 -12 2 -30 -47 68 61 98 8 -68 -25 -22 13 13 74 23 17 -31 8 -80 -39 83 40 -48 55 -95 -81 48 87 20 -93 -67 45 96 13 -13 -108 62 58 -100 0 -25 107 -111 -115 -34 68 -17 -93 -74 -21 -55 -60 11 -96 4 -121 -126 108 -117 39 12 -26 -7 99 71 88 -13 98 -71 -4 7 -100 -55 89 -78 -40 109 124 104 26 -40 -10 -68 75 72 53 117 29 -120 54 37 -100 -98 -10 125 -53 71 15 -55 
87 -124 73 95 17 -71 45 -109 86 -103 -99 -10 90 -28 97 -29 68 -88 -105 -122 -55 60 97 -76 -29 11 84 105 -19 126 -77 50 52 75 -74 -60 -26 111 -73 60 68 -77 42 8 -114 88 -35 103 -84 113 -31 -27 -118 24 -56 -52 116 112 -83 83 -76 -119 -101 90 -1 101 116 -27 -52 -29 71 106 59 -117 26 -47 -70 -113 11 13 39 -95 18 -112 -99 74 -9 -58 -30 -91 -85 -33 -4 -2 -50 52 -62 95 4 67 48 -48 -9 3 -66 50 -43 -33 -17 73 4 39 -121 -97 88 37 -85 120 -45 -92 -82 48 121 112 85 -42 -121 -58 
72 -27 23 -120 28 115 -125 43 58 37 108 58 -87 80 -49 -69 -45 -115 -99 36 -110 18 40 50 93 32 -89 2 -94 127 115 -36 100 -34 -31 -93 -82 -34 -62 120 -115 97 -2 50 -78 -37 -99 -44 91 -54 94 10 -15 -99 13 -103 23 -99 12 12 17 15 69 -1 -105 21 59 -51 87 -80 -58 -65 30 -38 119 42 112 -90 21 93 -108 -25 20 115 -30 -76 -117 -91 -58 -21 51 30 -36 39 18 -57 -2 -41 50 -91 23 35 -87 109 -13 -6 -115 110 66 -92 -59 -97 88 44 5 107 -57 90 -91 114 47 -33 -100 -94 23 12 96 -26 
-86 -111 73 124 -37 -74 -94 -9 93 87 -106 43 41 45 26 7 91 -93 26 -112 122 -120 94 -115 -80 -30 91 46 -2 -10 82 58 -101 -69 -71 99 -22 45 59 86 -81 80 -123 -122 -20 122 80 -11 36 -13 61 66 57 -56 101 13 -20 9 115 -39 39 -58 -4 39 118 104 46 -7 39 -45 -113 12 -10 47 83 62 -4 -78 95 -21 23 -34 -38 -53 -84 -72 68 11 127 -1 -57 0 -72 -45 -125 -125 -34 -117 -68 113 -33 0 121 -37 -9 -102 -105 -111 53 -100 73 62 -31 54 4 -74 22 42 -37 -26 127 76 -71 -88 26 81 -107 -53 
-13 -68 72 -6 121 -35 20 107 -88 118 -42 -25 -118 -71 -98 -74 -83 42 14 50 118 68 64 -6 54 7 15 9 73 -119 17 -37 2 29 47 -2 76 41 -83 -101 1 73 -123 2 87 -107 1 29 112 -85 -30 110 85 -67 -103 -99 5 110 116 -98 32 4 -22 97 -41 -13 124 38 21 36 30 -121 37 31 5 -89 -82 46 96 -35 -37 0 -90 3 -16 44 77 -8 -9 17 -5 -68 2 -58 36 -24 -36 46 78 78 -38 -76 24 -74 -122 117 118 33 102 -90 118 97 -2 -44 29 15 -80 29 -9 114 -2 24 -113 46 30 88 -38 50 
-104 -78 11 -16 36 -115 69 18 -104 -110 -38 -53 -93 38 -41 -46 81 -92 -91 -83 33 -102 -32 -107 -74 -122 -35 57 79 -3 119 -72 -95 -51 -96 86 -73 -24 -85 -70 -71 -121 -10 -127 -38 -66 -104 -85 74 47 -98 65 -110 119 93 -72 21 -75 -104 65 -106 -91 -68 74 -6 51 0 -20 57 -70 27 -32 -8 -14 -2 -116 11 -35 115 40 79 -69 11 31 -39 -3 88 -122 72 -51 62 123 -123 81 -38 1 112 -72 -99 44 -112 -79 -22 120 50 -50 63 100 -45 -97 -44 -13 127 -61 21 36 -109 120 -106 -42 -51 -121 -120 36 -78 85 2 45 
44 73 79 -35 -33 25 -115 51 40 -95 105 103 27 39 -79 17 126 36 94 78 -115 78 112 -57 -106 87 114 -71 42 81 42 12 -57 -96 -108 -69 72 11 -111 113 -127 42 -62 32 5 83 56 96 -61 47 -38 94 8 30 125 29 0 87 65 113 -47 89 -76 81 47 -50 -100 -70 -5 24 38 108 -68 51 62 30 -99 -113 -121 86 -41 -94 9 8 -110 -95 104 51 -1 17 -109 -62 107 61 29 -95 112 116 96 43 -123 19 -96 -110 66 10 -111 -6 44 76 -14 124 -57 -121 102 53 77 21 -112 -39 -54 103 114 109 -34 27 16 43 
-98 74 -46 33 61 93 -96 113 -89 -71 67 25 -18 71 -17 -17 25 20 -99 41 84 -57 4 -49 23 -5 -38 101 21 -82 -119 39 71 91 119 107 52 3 -11 35 -114 101 96 -63 17 123 21 -50 40 121 90 112 -40 65 103 51 21 71 78 113 88 19 51 -114 -109 -47 -20 10 -125 -92 46 -88 85 21 101 -115 85 -13 2 120 -80 -119 114 -54 -16 -60 80 117 -71 59 81 59 66 -111 -51 66 -101 -111 25 -33 -117 12 -86 -66 -18 37 -80 24 -70 -65 17 -28 -113 11 106 -81 42 114 -6 -42 54 -111 -27 11 -59 -103 -33 83 
-49 7 -37 3 105 -87 61 100 26 -39 -121 -59 22 65 115 52 27 -126 -23 73 -103 -54 2 53 27 9 6 -40 91 20 -40 -30 -86 40 94 -63 8 -9 -76 72 -85 100 -52 -118 -123 53 -44 -1 46 86 -45 121 -10 -86 -84 109 8 -121 65 -110 -48 -40 -97 27 -126 120 4 107 47 -33 -81 68 62 -90 21 88 28 47 -118 -26 75 4 30 -16 -81 -34 -34 -87 39 33 64 110 -3 -7 91 -12 30 -95 -36 75 101 -56 108 -85 -50 19 -107 -47 108 -92 53 7 -42 32 -120 44 -66 1 -77 -84 -118 31 2 103 -21 -115 -111 -119 
81 112 -2 -117 -82 113 -10 -48 15 -67 101 63 -13 -70 123 36 -94 30 87 -120 109 -47 75 36 -94 -52 54 101 -13 64 98 122 -5 -43 -91 45 -65 45 -13 -96 -62 25 51 -99 -41 21 -100 10 -111 -101 18 -9 -34 -77 53 -71 110 -94 -47 127 106 -10 92 -21 -83 122 -21 94 103 -116 10 -60 -115 0 48 -98 -75 71 98 -69 90 65 -32 56 -110 -10 -81 -106 -93 -101 75 5 117 32 52 -46 95 47 22 -45 63 117 99 75 9 118 -96 -11 55 36 44 70 113 -77 -52 7 35 49 98 -68 -21 94 30 -112 83 10 -102 -56 
-44 13 27 55 -45 10 -101 126 0 -75 95 -2 93 82 -113 90 -94 62 -9 4 -1 -66 16 -16 63 4 -121 -44 2 39 -50 127 -78 93 -95 -120 113 -31 -60 -60 98 -85 -31 -116 58 110 -27 -112 41 8 -28 113 0 89 118 114 -41 -9 -49 -124 112 -127 -98 66 7 77 -62 42 35 -11 118 13 -22 -2 -55 21 89 101 21 -64 38 -15 -46 -45 -37 -25 110 -8 116 56 119 -79 77 58 108 -26 46 -61 80 15 -23 -43 76 11 -82 23 -101 -102 83 113 5 -27 -110 50 53 56 111 -46 8 -67 55 5 -25 -117 -65 119 -117 -26 
70 -89 38 -78 -93 -117 -35 39 -49 -76 72 -73 -31 -60 107 -63 -12 -48 31 95 -25 -124 -24 -30 -115 -5 -110 55 105 51 88 69 81 -12 87 -104 3 49 55 98 28 6 84 -106 89 -105 -2 27 -126 115 37 41 103 121 -61 -108 -113 -36 -58 -27 -126 -73 -9 -34 -21 -121 -2 -105 -111 -96 -113 -88 -101 126 -10 -118 47 -115 72 115 -65 83 -87 -118 72 -86 75 97 117 -55 -112 113 -124 -29 27 48 -21 95 -17 21 -53 -42 -92 51 -13 -84 0 -63 39 31 8 -62 -36 -77 -3 -127 116 -98 98 -36 -107 94 45 -43 -83 32 42 -51 
93 -4 73 -107 20 30 -56 -91 103 -72 -78 -62 66 -125 -2 37 102 -109 -24 85 0 3 -97 32 2 123 -87 -50 -46 -1 108 70 67 44 35 81 -107 -74 -34 48 66 97 -108 -94 29 -14 -94 -119 64 -87 117 -60 -68 54 33 31 -43 61 66 -75 -109 -55 84 59 -1 104 -61 18 -127 -106 -45 91 -81 94 -93 -118 56 -20 -87 -12 78 100 -104 -3 -14 -94 96 -18 -89 -14 64 120 -118 -13 -104 114 52 -45 -66 121 63 -4 79 9 -51 79 58 106 -84 -33 39 -109 -39 -51 120 -52 -1 -60 125 -44 90 -76 -84 99 -59 -38 18 12 
-44 -70 -118 45 -59 -41 51 51 -55 125 -114 33 -96 6 -33 67 13 76 13 14 -111 -111 85 72 12 21 84 -95 -71 -101 -23 66 98 -30 -88 105 91 -126 56 63 87 -36 -113 -122 -82 -105 -36 115 39 -4 122 49 92 -113 -62 71 102 94 -109 46 -60 5 -43 34 82 61 106 23 -81 2 118 -10 -110 -70 -104 -75 -36 -124 6 97 3 26 -96 77 82 -124 44 21 118 69 -27 42 -94 -98 43 -84 73 -126 65 70 121 -96 30 36 45 -22 -71 -87 3 75 109 50 -111 -31 83 109 75 -26 -54 78 24 -94 96 34 21 76 -51 -28 
-4 -70 106 -117 -108 -123 98 27 -116 -83 0 41 7 78 -93 -99 118 37 -115 -22 -87 28 5 20 76 -127 67 -60 24 73 -28 32 -16 -83 -95 -126 38 -105 -68 69 22 -30 -22 69 -106 -54 3 -30 -109 -12 14 -26 -37 -30 -82 -100 16 38 -35 -56 47 -38 -121 48 -116 -21 19 -1 -52 57 26 -104 -117 18 72 84 -4 -127 -100 -100 37 -83 -14 82 -33 7 -9 41 -64 43 -9 127 97 -9 -91 -96 10 86 -56 -75 -50 70 -14 -8 99 59 64 19 -23 82 -73 110 -119 -118 -58 -33 120 105 119 -56 -69 84 54 -116 -66 -71 -114 36 
-122 94 39 93 -107 10 74 -94 67 -3 9 -4 86 -86 -122 46 -27 127 -102 -54 79 66 -103 86 -45 123 12 28 1 62 42 66 70 -97 -30 44 -80 -58 -77 109 -62 26 73 -13 -46 -21 -12 -56 94 49 -37 -76 50 17 -66 -36 -44 105 91 50 19 95 -118 -35 -42 109 -112 -80 -64 26 103 112 55 86 -125 -15 -57 -61 62 115 -41 11 114 38 -93 92 -8 110 -83 -4 -17 23 104 -74 67 -91 -28 77 -4 -89 -115 -124 60 -92 43 -60 -5 88 35 124 47 -17 97 58 35 -71 3 50 -126 -52 67 67 50 7 -15 -124 -42 3 
39 -63 90 -47 -116 -5 -66 84 73 59 119 74 -32 -82 89 -99 70 -109 55 -74 94 15 -33 123 9 -18 -3 117 100 -21 -122 -50 -91 -118 -51 103 -84 -78 117 -103 34 79 -114 -93 -91 -123 70 107 -28 67 126 109 -101 -11 102 -47 -30 7 -55 -15 97 91 31 83 -124 71 -34 82 -33 126 -10 -41 -125 -68 22 69 -105 54 39 34 -8 -86 105 -102 -49 93 62 -28 84 35 108 5 -57 11 92 -118 -49 -7 -48 115 38 36 29 -47 -117 84 72 87 -49 11 -39 -68 -88 -26 24 94 32 92 -6 -52 -36 59 93 75 90 121 -76 92 
46 122 -23 7 -94 -57 -49 -101 -96 -60 -23 6 -60 1 -71 71 -32 -119 -109 -55 -17 82 -21 -81 105 40 105 -122 24 -65 -14 16 -71 -26 -4 -51 -124 41 -119 58 89 -30 97 104 -120 49 -102 -44 -66 89 20 -87 102 -123 19 36 1 120 -108 -53 -42 24 38 64 16 66 33 56 -121 -61 115 26 61 123 -11 122 51 123 88 -63 3 10 106 18 -1 -71 109 -66 24 124 -109 -127 -98 44 -103 56 -50 -2 89 52 104 86 75 46 -59 -106 -29 -89 114 -5 -3 -97 -20 80 37 -16 -16 -9 -68 31 34 -48 82 120 118 78 82 26 
88 28 2 -81 -60 -34 -91 68 -1 -12 105 12 -94 -49 1 32 -56 25 -110 -57 -100 57 -83 94 -39 118 -76 118 -27 31 16 -43 -84 -44 118 66 -75 -78 83 -82 -27 -31 -75 -18 11 -104 -79 58 -114 78 -119 17 7 -54 -28 -127 41 -91 -32 -16 -66 -103 70 -126 -126 -105 89 45 79 59 -19 94 -31 -120 71 -97 2 -113 70 -114 15 68 -4 -114 41 -41 103 -113 101 67 -106 -65 89 -109 -17 -74 -85 113 21 89 29 104 13 10 -17 74 44 78 80 -83 112 51 39 63 -124 -96 -61 -35 -119 103 20 -14 119 -50 98 -107 16 109 
109 43 109 109 -106 -76 20 73 -104 53 -3 73 -40 14 -87 55 -15 72 95 -3 16 -6 -40 -10 115 -29 -35 88 -12 15 -16 -107 75 -5 59 18 -76 -9 49 80 -11 77 -81 92 32 43 92 -39 97 33 42 -38 -122 83 -93 15 -60 -53 39 -104 -15 5 -33 -1 93 -23 -8 -26 -103 16 -20 57 -101 61 101 126 -25 -101 -40 1 -94 13 -11 36 108 -119 39 -4 -76 -37 80 -73 66 83 -46 -6 6 77 94 108 -11 65 -54 -7 14 47 -3 -111 73 -112 -69 -8 44 43 115 -14 -6 59 -115 -62 -81 47 -52 -117 47 -114 -33 99 
17 -33 -89 -47 6 -6 48 -121 -25 101 -97 -3 126 -54 91 75 45 36 -119 -122 55 -61 -2 42 -22 -52 -24 -44 109 -71 -71 50 71 3 -38 103 30 -82 90 -31 93 -118 -78 -39 23 -66 0 83 64 46 14 -117 120 95 119 -29 37 -86 -37 4 -110 117 83 -55 -62 97 81 23 -100 -116 13 -16 -27 -1 -33 -62 -118 -61 55 -55 -111 -108 109 -127 70 35 -28 111 -125 49 31 -123 -86 -5 -65 62 -83 -16 21 -45 77 2 -9 -22 -113 -97 -22 71 -10 49 114 -122 36 -32 -29 -76 -37 -5 21 -48 -26 -100 -103 14 49 -92 -67 -85 
-70 55 -74 -112 47 36 65 120 -74 -119 -38 -1 -96 23 -10 -102 -108 -116 10 13 -21 115 70 109 -61 -35 -113 19 -34 17 -83 -21 64 -13 -78 92 -25 19 -33 -58 -117 21 81 -54 57 -35 -65 39 10 40 87 -70 42 -60 -108 62 106 36 -88 27 68 97 47 8 -33 -45 52 80 -103 0 -77 43 -83 -20 -119 96 -66 -63 -96 11 -21 69 -72 75 18 -38 49 -51 -105 41 -87 83 -63 -85 -108 92 -113 -77 -72 23 -105 119 -82 -16 -101 -120 84 -5 26 63 -113 24 -96 -45 36 -127 -80 -99 76 -31 -9 -101 47 24 121 -41 72 -105 
-71 -87 -20 -39 101 59 -1 -121 -102 -80 70 -47 12 -72 75 -107 53 -101 -78 35 -94 -69 88 -83 -105 76 -23 -124 77 -34 -54 0 90 -83 75 -116 -73 -39 -100 121 91 0 -65 -41 127 -1 40 -78 17 74 53 -35 23 55 -112 -22 44 92 -36 -94 48 86 -98 -68 -37 -12 17 -4 35 92 -39 105 -124 90 17 47 3 -22 27 57 -29 -4 122 -89 -100 -41 101 -94 -16 -30 -55 -21 -79 36 -51 -56 61 20 -14 -122 6 25 -33 31 13 -73 55 -82 -22 -109 111 -95 86 -61 106 49 -86 -123 32 -96 41 -5 101 -40 79 -54 52 90 
95 -74 -114 42 25 -10 101 -120 -79 -98 123 81 -14 53 -94 -105 88 116 -96 18 57 -14 -8 -83 -31 -83 105 -77 122 -51 -20 12 14 -48 74 121 107 116 57 77 108 122 -38 -5 -123 124 -123 -109 -114 1 -1 121 118 -51 -17 116 103 64 -92 75 3 46 3 127 52 -18 -73 58 7 120 -60 80 -7 85 -77 -19 90 -17 5 99 -102 58 3 84 -34 52 125 84 103 -65 -115 54 -71 -74 -84 -44 -45 5 -54 -1 -121 122 76 -118 2 90 33 -111 52 -19 50 -120 -34 61 50 37 124 115 17 -37 111 -49 -71 88 -9 -44 67 66 
-93 65 -126 0 -104 -97 -120 -48 -2 -20 35 17 7 17 -65 -29 82 -86 -95 36 -44 -115 110 -107 -60 72 -57 100 -51 -65 26 15 56 45 -61 26 -86 121 -123 0 -25 5 -64 -15 -13 -119 -57 -98 92 -59 45 -65 12 38 74 102 33 43 105 45 92 -60 100 102 40 -101 81 111 -25 -39 -99 108 28 81 67 -111 116 -123 92 -21 30 58 -40 54 69 -56 -14 55 0 84 111 26 111 -49 -31 41 20 -48 -2 62 12 -30 18 37 17 -66 -103 -43 55 -119 22 107 -56 48 -124 -44 -26 -121 28 63 1 -24 -27 -58 11 -99 -6 64 
20 -43 20 24 -45 16 65 51 -106 16 -16 76 57 -76 74 104 -127 -34 -89 36 -22 43 -9 10 38 -63 -4 -85 -119 -40 56 38 -39 -83 109 -31 -67 -3 57 -118 -34 -50 101 -20 -11 81 14 112 33 -8 -48 -4 97 -67 99 42 -98 99 -98 -28 18 98 -86 -51 67 -109 -15 115 107 61 43 4 -73 98 88 106 90 125 -106 -9 78 115 -71 -86 -51 -63 -12 -42 98 -116 -87 52 102 -108 41 51 -83 89 -29 93 -6 31 -27 -101 -123 110 -28 -95 -59 90 -3 123 -99 -46 31 121 70 126 -30 90 80 49 -117 56 37 89 79 33 
-104 -46 106 76 -63 -14 101 77 -122 -14 -41 87 -117 -86 101 -83 -36 31 83 -89 -81 -100 12 -43 -79 8 56 21 -108 -89 104 -37 112 79 84 110 109 69 110 -99 61 2 -124 114 -18 -85 -77 10 71 -3 -95 75 -99 58 -38 -96 -126 22 -59 94 -121 57 -34 -37 -59 64 -75 -69 -41 113 111 37 75 -122 -71 -20 23 114 -71 -116 75 -91 10 -99 53 -65 27 76 -104 83 -23 -11 -6 65 7 -7 40 -26 24 -34 27 -40 -110 57 90 103 -107 -48 114 -54 107 -21 -125 62 -104 -113 72 -16 -58 -57 92 -38 -79 -119 62 27 3 122 
118 65 -84 10 26 -6 -49 -38 31 76 -75 20 -86 126 14 -37 105 67 59 101 -109 19 9 -52 2 -38 -101 34 45 -52 37 56 -100 -18 -80 -113 -117 -81 69 88 -120 60 117 -93 -20 42 -55 -40 -71 -18 42 -65 56 -127 -108 -79 -106 -17 63 -27 8 -20 -79 -116 -71 -47 105 -124 -108 -79 -25 -28 -19 60 79 -56 105 -27 54 6 -59 36 -28 -22 113 -126 39 108 89 -107 -7 105 127 -23 -9 -117 -15 -6 -8 -52 45 120 11 82 54 23 -25 46 114 2 -81 13 -14 10 -123 113 -43 -12 51 -103 87 -46 9 -63 -63 97 39 84 
-4 -70 -26 -93 -8 55 -53 -52 44 -48 126 30 96 80 72 106 119 -7 -47 58 -68 -38 -17 -88 8 -51 -12 -57 -11 26 -75 109 2 84 121 -124 -118 50 -14 -48 105 -114 -79 -26 -16 -102 52 -73 81 -40 110 -127 -18 38 100 -24 -40 124 126 2 -10 47 49 -64 -10 -37 -57 -23 73 4 -36 -76 -77 87 -86 -10 23 43 52 -50 72 59 30 43 -8 117 5 -96 -24 -78 -57 -20 30 -88 45 -90 -64 107 110 -74 74 -102 -62 32 45 74 69 40 -3 101 35 9 -40 4 -125 -112 106 0 -72 91 84 -55 124 1 53 17 89 3 
-57 -12 -16 113 -16 -116 86 46 86 13 75 70 -92 55 -35 -1 97 85 -113 97 -9 88 119 41 116 -16 -83 42 81 -33 80 -6 -5 -52 124 41 -98 123 40 -59 35 -106 -34 -26 11 126 51 0 -89 -64 70 98 -127 53 122 20 -107 69 95 -102 -43 17 47 77 -47 22 -17 99 82 -43 72 -4 -45 60 30 56 113 12 70 -77 49 118 -87 -105 -121 -123 120 53 57 75 63 -122 48 57 18 -21 -39 -124 1 -76 -107 -29 59 -1 57 -78 -43 18 62 111 112 -26 89 38 110 94 -10 -49 61 -107 114 -38 -100 -82 -15 -43 -123 -3 
90 9 -89 -68 39 -20 64 58 -7 81 -80 -120 109 71 -60 0 -42 54 62 -33 -86 35 -52 65 110 -37 82 -32 -109 -11 -68 -19 -79 -119 52 44 24 16 93 -116 110 38 -89 -20 65 29 48 36 -20 51 108 -76 116 -70 82 46 91 18 127 82 57 125 -37 -31 105 -20 60 9 -34 41 54 39 -61 18 53 -51 -72 65 -58 93 -9 23 97 29 117 -90 -83 124 -106 -31 17 -86 61 -32 -16 4 39 -29 114 -109 95 -75 73 111 93 -45 -119 -81 76 -113 94 121 -20 11 86 -26 -23 11 6 -120 103 78 110 -111 -4 -120 -53 -57 
-96 -37 121 21 43 -82 28 -88 -65 -81 106 45 -36 -14 -117 -91 122 48 -40 57 -47 -105 119 -57 -51 118 -25 52 24 -80 117 76 11 49 90 18 -53 -122 -102 -117 -23 -97 118 -39 1 27 35 39 -75 -109 -109 35 36 -105 23 43 99 -107 58 126 75 3 104 23 -30 98 -86 87 94 72 -52 -73 42 83 -35 13 -33 -101 95 -115 -7 52 126 -103 101 27 -45 -105 77 -68 -112 -57 80 -18 -95 -124 118 15 -70 47 -9 30 40 10 68 0 54 -41 -57 -37 93 -26 47 -74 73 85 17 112 31 78 81 14 -75 -55 -121 31 -98 91 
-15 16 -91 -68 63 -46 -87 -115 -14 -80 -41 -86 94 124 -123 -1 -77 25 73 -92 -127 28 -76 -112 53 -64 -77 42 -23 64 64 32 -87 58 84 -125 -66 -54 27 39 6 -43 -56 1 -32 90 33 77 -4 6 -70 -2 38 95 -71 -69 -87 44 83 -105 125 86 58 -70 109 125 99 28 90 -120 86 -45 -104 110 -9 -14 75 -101 -118 -90 -40 -23 75 -43 -91 107 58 23 13 -108 -16 21 127 63 94 104 -64 78 -63 -22 -10 -118 49 116 17 57 3 2 -56 19 75 -75 -86 12 97 -34 66 -73 -44 4 -56 -16 -31 -22 115 -68 -37 55 
68 30 50 -116 -50 93 119 -56 97 -113 17 124 -122 33 -119 106 -105 75 65 6 88 -55 37 111 100 94 87 -58 55 -100 72 81 -50 -57 -35 -47 106 -41 -39 112 83 -65 -5 -70 30 87 4 4 -20 -21 -70 11 -42 31 10 -5 -43 104 33 -73 -52 -33 114 -123 -84 26 55 50 -101 -66 21 -40 -90 43 92 123 -97 40 82 90 91 37 -20 15 -1 15 -64 -57 -88 11 56 50 119 30 52 -83 -78 -86 -110 111 31 -57 95 98 -8 -28 -78 -13 88 110 91 96 59 -57 112 -10 -9 109 -116 56 54 61 36 -47 24 95 94 84 
-4 9 97 -115 -9 -47 6 49 -34 89 31 68 -126 28 61 122 46 27 -82 95 57 -2 -86 -46 91 -1 -8 -28 -64 90 115 -77 -7 103 20 -23 -15 14 -98 -122 28 4 103 -2 51 -70 89 -117 74 11 -32 -7 106 -104 -94 15 -127 -98 20 36 -64 -69 32 -71 -29 -38 -3 -65 -91 33 42 3 81 -37 -61 18 -92 91 -83 -42 -88 -72 -92 -96 -81 96 -43 45 45 26 -112 -59 56 91 115 -72 4 61 -40 -3 50 -115 -45 39 60 96 122 -126 -93 25 20 120 50 56 51 58 -65 57 -43 19 -104 23 -104 2 75 -86 41 -125 
-21 -111 90 82 -93 59 10 -17 84 -107 -108 118 17 -29 91 -64 -66 -123 94 32 106 -23 -118 84 55 93 -8 -78 74 -110 46 96 -68 81 88 -62 -114 -33 -86 -48 -91 -55 118 27 96 48 -12 -95 -107 61 -123 32 18 -26 -9 17 120 -103 49 46 108 -24 -54 25 105 -82 61 42 -2 -65 -116 -5 66 68 -70 106 45 6 -49 122 -59 76 -119 -74 83 120 81 -50 76 99 -106 78 -10 82 -83 -12 -118 13 -82 -114 -52 -87 45 -1 -114 11 49 55 61 59 52 22 84 -65 -42 -52 -91 -10 116 -44 -85 -69 87 -30 -54 104 82 32 
-59 -4 44 -22 -87 81 18 0 -16 -23 -102 31 -100 -81 -33 119 37 -60 39 -109 19 80 30 -126 107 -31 83 -74 -110 -93 115 -99 120 -62 44 -109 90 36 62 32 -28 16 61 78 -9 -90 -126 -112 -84 -76 -22 -29 -113 32 -43 -27 -104 41 10 74 28 17 -75 52 89 92 91 72 -42 -49 21 123 31 -113 -77 -124 19 -79 46 36 93 102 -32 -37 -73 32 -49 -51 111 115 16 -53 -102 127 1 86 -41 -37 8 -29 -69 110 -51 82 61 1 71 -60 14 66 -9 -41 -18 -52 -69 15 45 71 110 -38 -40 -91 -111 45 -93 28 -106 -121 
-49 89 -86 -54 102 11 -71 45 111 -71 58 -36 21 -115 -99 67 -58 35 -30 94 -73 -5 88 127 -7 99 -124 -2 -5 64 -109 -57 -35 -44 87 -29 38 -33 63 126 84 -62 41 -19 43 -18 55 -116 -98 50 64 88 -1 -68 84 -100 -3 -81 31 5 -105 -118 126 42 -96 -74 -93 -13 55 -61 -19 19 -116 15 32 35 -109 45 15 -95 15 2 -1 63 -22 -73 60 14 -64 65 -47 -57 -125 -23 -42 -25 -103 97 -52 65 1 -77 -28 -56 -76 70 -52 7 -65 -42 -66 22 -39 -123 -34 25 -33 -91 -53 64 -109 -122 -93 -4 -33 59 -96 76 
-6 -21 -38 4 -79 -91 -46 72 -86 55 123 -17 109 -104 -71 67 117 96 -31 -63 -31 100 113 69 35 -2 58 117 -4 30 -110 -80 62 101 16 -79 87 -55 119 92 104 -71 108 10 -32 -60 -52 10 10 -125 53 -88 -99 115 6 106 77 -50 0 30 108 -108 6 15 -72 -69 94 -38 89 -115 88 99 34 -52 82 5 8 -44 76 -39 113 -125 94 10 -103 -116 64 4 -17 36 -87 -127 39 67 -10 -65 -78 123 79 -67 -70 -118 127 23 103 -83 -74 121 102 81 66 80 32 35 88 36 127 -124 70 52 -107 55 -99 47 -38 -53 -42 -101 
123 -54 -126 94 -46 124 92 36 -78 30 -89 -68 10 21 -102 -51 39 74 -24 124 -75 -101 24 -116 -47 100 -2 -71 -47 -29 86 -100 -22 -92 -12 11 -104 -114 -48 -9 -68 34 -116 5 93 -38 75 78 30 2 1 -24 53 52 116 -8 -87 114 -5 61 81 -31 -57 59 -59 84 -108 -62 -60 -6 -42 -13 -30 79 3 -45 -92 -2 100 -53 114 -74 -11 -59 20 -17 104 -1 -27 124 -17 108 -14 77 -35 68 118 -29 -34 19 79 -80 13 -88 120 116 44 12 114 -81 89 53 107 118 -75 -11 -56 -67 -66 101 -34 74 -17 38 95 10 -39 81 
14 15 -111 115 94 18 -100 -109 -77 94 -89 66 3 46 42 97 -36 -32 -46 119 -94 -51 -27 46 -14 -3 49 84 65 -45 46 -109 -41 -108 79 -74 -94 -24 116 46 -80 -54 -70 -1 -72 -53 64 111 -82 89 79 -113 -21 21 38 117 -16 -126 80 -109 -12 79 -53 -17 -125 -87 -89 76 -15 119 -21 -4 -61 -125 -72 101 -23 -48 41 59 4 -6 -8 22 80 42 55 -13 -20 113 -116 3 -115 126 -114 -24 28 55 -109 -97 -93 89 -107 97 -12 -28 59 -6 -57 -76 122 74 122 -110 -66 9 117 71 -21 -26 -69 47 -51 91 50 64 19 103 
106 9 111 -17 120 106 -61 92 120 78 110 -37 -97 54 117 123 -28 -108 -11 -75 -80 91 126 116 -87 39 -121 -54 -49 -125 19 83 93 55 -20 -57 51 122 -92 51 5 -81 100 -122 -52 -111 77 28 105 -113 -87 -103 -21 95 -27 -21 58 -74 -127 -92 121 -43 -3 -124 -23 -94 -51 24 -127 86 -43 101 123 -45 -55 50 65 91 -37 117 52 50 -41 120 92 127 64 56 92 75 118 -54 -107 103 -83 124 -24 -2 -49 -65 -94 51 88 50 3 18 102 -117 19 -121 -21 69 97 -87 20 -56 -94 -97 117 -113 -121 -109 30 88 86 -43 -87 -114 
-108 36 118 121 0 -98 -111 -66 -61 -36 -1 116 81 -66 83 95 -81 40 111 -86 -51 -119 113 86 3 -32 29 -38 -76 1 -82 55 -123 118 -47 -11 44 -2 -13 47 -45 24 61 87 -126 102 10 -37 -28 -30 -43 -24 98 97 -113 -38 -14 -54 24 -31 24 17 -106 -11 48 -2 119 49 -24 121 59 -9 -104 -104 91 2 -50 -52 -119 -97 31 89 -112 40 49 93 89 108 67 -91 64 85 41 -5 -118 -27 126 -95 -71 -20 -36 22 14 -72 -99 22 112 -114 -14 61 -92 116 34 25 41 -125 69 48 83 -21 -118 -20 -74 -82 37 -40 -6 -63 
-24 1 34 -20 19 96 68 -18 5 66 -38 20 -103 -17 -10 -37 87 -27 -125 52 -71 10 15 -24 58 5 83 -107 83 47 -115 19 -106 -48 21 -4 -97 13 -106 38 -39 98 47 46 97 33 114 20 81 -64 -92 18 4 -76 -32 115 111 115 75 -34 -60 18 1 -115 -94 116 123 -9 13 118 34 96 -21 60 64 -108 -46 60 45 0 -64 110 10 -117 11 81 72 27 15 -117 -7 117 -35 -102 121 0 -104 20 124 74 -72 -89 -50 122 125 -119 -2 26 29 21 63 -66 -85 -15 -102 28 87 -55 118 40 91 -74 6 88 -67 -115 -86 -83 
-35 60 5 -72 70 89 -44 -85 31 5 33 -103 -79 -119 -121 111 -75 -5 -19 -3 0 55 -26 61 26 2 107 -78 -116 -65 1 91 3 76 32 84 -21 -69 -123 -111 -29 -115 -123 -54 -45 -83 16 -78 6 126 110 40 16 81 24 92 36 98 54 -117 123 76 90 -27 -2 -71 20 -104 123 76 -69 -123 124 -12 -15 -17 14 35 -74 81 -72 61 38 60 52 -47 101 -93 -114 -107 66 68 -21 -1 122 -126 -44 -126 81 -89 123 -39 -49 -24 96 -78 -71 -13 66 -1 37 66 71 26 125 102 37 -77 21 105 -17 21 -122 -33 78 -127 49 40 
-92 -14 -101 -79 68 98 89 -68 11 -44 -87 -103 120 -119 -73 107 3 -12 52 -126 63 -114 -30 -84 12 47 49 21 -74 51 125 20 100 65 -72 24 96 69 91 -29 -39 -97 -125 88 123 12 59 51 -72 64 111 -75 -73 -4 -102 -56 -44 -103 -22 27 -24 -46 -96 -126 -85 -86 -72 -48 49 -48 109 123 52 92 -64 -37 115 19 -1 59 -3 126 -69 81 102 23 -124 -78 -10 -37 124 49 27 -24 77 -31 97 36 -37 -57 109 75 -89 85 35 96 -65 15 -88 -46 92 -126 40 60 54 33 -127 20 -32 -40 8 21 51 -96 -24 14 63 75 
-47 65 73 -19 -123 6 -95 73 -88 -57 64 80 -78 -19 -43 86 70 0 47 -71 -39 -95 -75 76 -59 -88 20 -108 104 94 14 69 -124 101 -16 -9 105 25 -17 -124 -120 126 127 38 126 0 117 -64 -108 -88 107 7 -47 -60 -102 -112 -69 111 115 59 93 92 92 -45 36 -48 88 -126 -24 0 -83 35 -104 91 -125 37 17 46 30 14 115 40 -13 -119 -77 0 -74 -1 78 -107 -34 88 -76 3 -2 19 81 83 88 -8 106 72 -98 -9 -80 -15 -74 37 13 98 -102 33 -121 -8 47 -55 -112 57 -20 41 4 98 -17 -11 74 64 -57 -122 
48 41 1 55 -108 75 98 62 -93 -100 123 15 50 54 75 -2 43 86 -8 -127 -79 84 -26 -122 71 -88 0 12 -39 37 -127 -34 -120 -77 73 -102 -93 62 39 56 52 -43 -67 -17 -14 68 12 59 -4 125 23 113 -118 -53 77 51 120 -30 68 -41 -93 -84 -52 97 97 -74 64 58 119 52 82 -90 79 -37 -47 9 10 43 125 -43 -30 -8 -27 95 -51 -44 -86 20 -24 -29 -5 124 127 -86 -127 -107 88 -121 26 -43 5 -98 -100 -83 -90 -42 -83 -25 12 112 -65 -121 123 -60 59 118 111 38 0 -48 82 124 -40 -97 22 -1 -110 3 
63 81 -46 23 -35 -15 -10 81 -73 73 63 92 65 -7 58 -121 -88 -123 -113 -17 -5 100 121 53 -36 -56 55 -52 26 91 126 92 -125 -122 78 76 44 -109 -126 -87 -30 -118 -9 -114 -102 -120 -115 -57 41 36 -97 66 112 -103 102 -75 21 58 -29 -123 98 -120 -109 105 16 -109 -66 -16 -43 28 56 2 -33 60 126 46 75 110 -33 -77 11 126 11 76 28 -106 -20 77 -117 36 113 -84 44 90 86 -126 -31 89 -77 -88 11 94 -127 -64 -105 119 92 -22 115 80 21 -76 82 23 -7 -35 -94 100 114 -104 50 -6 -13 -125 101 -13 -90 -79 
63 79 122 -5 121 16 -102 -74 57 116 112 51 57 -56 -47 -87 -112 7 -45 -27 -20 -59 92 -61 58 -5 77 -33 60 83 -79 -7 -95 40 38 -67 26 -13 -9 124 73 18 94 58 -120 -40 46 6 -56 -70 -21 -33 21 41 -84 -119 23 38 -99 -52 72 -60 -54 -99 -55 -45 -6 -110 116 37 12 -15 -71 -79 -94 -97 114 30 5 -102 -40 64 -82 75 66 100 122 -37 -82 99 59 -123 36 -15 29 17 -94 -47 -41 59 -125 -1 9 0 102 -118 -41 -81 45 -27 -64 -55 -78 71 -33 17 -119 96 -47 30 -21 -103 66 18 -127 -104 101 26 
-63 33 -74 -116 96 -54 95 -8 54 -9 23 -24 -8 -33 123 124 -108 -66 -20 -94 -17 -40 -55 100 -108 -121 -63 -40 -38 -6 48 -118 -93 95 124 -9 -83 116 -50 110 8 30 -79 2 -5 55 -62 -93 48 -7 -61 -127 -49 2 18 43 81 122 -63 55 51 -46 33 49 4 -47 -111 21 -32 79 112 -116 96 -68 15 -23 28 24 -112 -85 41 11 -126 2 16 -120 -72 -23 19 28 -73 77 -3 -77 54 103 -73 -71 -19 -82 122 -19 113 45 49 -13 80 -60 52 -4 113 17 -52 -22 15 60 85 -84 125 0 -46 -31 88 -32 27 22 75 86 
-72 28 117 123 14 84 22 55 56 16 44 -115 65 -50 -61 54 -122 -85 126 115 -104 -62 87 -98 21 -62 82 -92 113 127 117 -94 120 -95 -110 99 -12 78 -105 -112 -122 -49 72 66 50 -120 16 0 -103 46 -121 90 -84 -11 19 91 98 43 -85 -55 -94 82 -73 16 74 107 -46 -69 -67 125 46 -27 69 96 118 -68 25 -8 96 -119 -20 111 16 -123 46 98 52 -126 -126 98 -36 45 43 -112 100 26 -87 80 51 -112 74 7 -86 44 -35 121 33 -50 33 58 -93 -22 103 -100 20 89 -91 66 -12 78 98 74 34 -30 -64 -65 2 8 
-100 -64 110 -29 -23 -115 -83 57 30 103 -106 -9 -122 -10 60 -14 59 -79 114 31 31 89 -66 58 8 31 56 -9 -62 -83 -14 80 122 53 -102 54 -97 -87 15 108 -100 59 116 74 -77 72 -75 -107 -97 -28 -88 -55 -13 -90 17 -41 -104 -66 -8 -19 31 -15 -44 -35 80 69 66 100 -58 33 97 52 103 77 -63 -80 -99 -121 -7 24 -5 -119 -95 36 23 -50 -100 4 122 -96 34 -27 33 -30 38 -93 -115 93 83 -52 -33 75 66 -103 33 50 126 -27 -52 -21 -90 -60 -38 88 26 62 34 -76 118 -114 43 -108 64 -110 104 15 -77 -54 
85 37 -77 40 -77 -112 -84 -116 34 108 -75 -114 70 107 -116 -52 57 3 86 -108 -51 35 -116 -123 104 122 84 45 -79 29 -104 -44 -37 -87 71 127 21 3 120 117 106 94 -22 -100 50 -57 -84 58 10 10 -75 6 16 -42 20 -125 99 45 19 54 18 105 7 -24 90 31 -127 28 122 3 76 71 65 57 20 22 -120 -25 -5 -45 -68 38 60 7 -14 89 23 105 -33 -94 79 -52 94 64 -91 -55 24 -51 113 -1 17 121 -24 79 -97 67 -51 -96 -77 -102 71 -82 76 74 -28 -102 -15 -105 -21 117 -19 -6 -52 -23 -71 -2 24 7 
6 -94 -35 33 87 55 -47 -13 23 70 -69 3 57 71 -31 -96 -27 112 121 -107 -30 50 -103 19 36 107 -31 59 95 -103 -81 96 -19 109 89 -61 -99 -39 6 -99 125 52 -100 82 8 6 -14 100 -127 -49 -33 -21 -72 63 -42 7 25 -126 55 -16 -112 0 -64 95 -86 29 108 -116 -92 -123 106 -50 119 106 126 -24 82 114 73 -98 33 103 30 -23 68 52 66 -78 119 -53 74 -47 -34 91 -2 -120 36 28 -76 -88 -78 -81 -45 -122 61 28 -102 51 118 -58 3 -35 61 -60 -109 -65 -88 85 113 110 -125 123 -51 30 66 70 52 -54 
-71 -10 79 -14 -98 106 -99 -119 38 54 -70 97 2 21 112 -65 -31 -65 -100 -24 -11 -15 55 53 -80 11 -70 106 -99 -64 -103 -33 34 31 -109 -92 105 33 51 0 -48 -100 65 -72 31 4 -89 52 -79 -94 -106 74 22 5 63 -15 -64 -36 38 29 -109 28 -78 -36 24 71 -120 -24 78 84 45 23 -109 61 44 1 -9 127 -92 -57 51 63 -108 101 35 -76 4 -13 -48 45 -1 23 -14 -65 -101 -16 105 59 75 57 98 -124 -102 70 27 59 47 -77 86 34 -45 1 29 -54 -122 124 13 -51 -39 40 -43 -18 -28 -1 17 37 -75 83 
-14 -112 127 20 -74 91 52 18 -76 -6 72 -60 14 127 115 49 81 28 -30 47 -62 -97 123 -126 -16 88 -82 -109 -29 -3 125 16 -63 -93 -82 -91 -85 93 107 -87 -28 81 61 18 18 81 -23 126 -127 36 48 82 99 61 -71 44 101 64 -57 80 123 119 -70 -100 -117 -120 7 85 10 -73 -41 81 -47 28 107 -112 -93 -39 31 -34 -29 77 -74 14 -95 -56 -120 -113 -73 -51 26 -43 -124 39 -8 94 -16 78 71 110 16 -110 -67 117 -74 -91 0 -68 118 89 -83 114 80 100 -34 22 -67 25 -78 -126 54 34 -39 100 123 66 61 45 
5 -36 8 -122 70 105 -15 -31 124 -122 -8 58 112 83 -97 93 -61 39 94 50 -109 20 -37 82 -79 -21 -121 90 30 41 -102 91 -94 -29 -73 -126 -19 51 123 -117 -9 3 -32 116 56 26 -94 -5 -69 72 -6 117 19 -20 -32 100 -61 54 90 25 -110 81 65 72 -118 56 -105 -21 -25 82 -77 61 -105 -40 -44 -19 68 65 -18 -4 6 -34 -64 -57 -20 49 -74 -126 56 43 -110 -67 9 -119 -64 63 -36 101 58 -65 -118 95 -43 -103 -50 34 -102 15 102 -29 -4 -99 -6 -113 -66 126 -83 124 7 -52 -111 29 -21 93 47 -115 98 -2 
-4 116 -90 -111 109 -45 29 -95 18 92 109 82 29 -9 42 -6 -31 -33 -123 56 -60 -75 -42 30 5 97 -23 -95 1 74 24 -56 71 -6 -99 -47 -52 -83 -126 122 5 -102 112 -78 -28 16 50 109 45 41 21 -26 -56 -69 -121 60 112 49 38 -39 48 -66 -25 -88 119 125 121 -72 -48 -49 40 15 -18 -54 90 -116 100 72 -81 111 -41 -24 93 -90 0 119 -93 -62 -10 -86 -11 69 65 -23 71 -51 -51 23 -125 -96 -74 72 -10 124 1 72 55 -72 -75 61 -74 16 116 -85 -15 19 61 105 39 127 12 25 81 114 39 -104 -67 -43 
44 -98 73 20 10 -55 105 -109 113 63 24 -17 102 -85 -19 -4 -25 -1 83 59 -21 -82 -24 81 117 -108 -47 117 110 34 72 -12 -13 74 -66 -84 56 45 -2 -96 -12 15 -126 26 51 125 -98 64 -115 100 92 17 -52 -54 38 4 62 -2 -21 26 -93 121 -25 30 98 30 -53 62 -79 -70 69 -97 117 -103 73 71 59 85 27 -26 126 100 -88 61 31 -126 44 -100 5 -108 -87 -10 4 36 42 49 68 98 28 59 35 -93 127 -28 31 -72 88 -30 -93 -89 -58 25 -70 72 82 -121 -59 -106 -33 76 -121 98 77 85 -8 123 -35 -100 
125 -107 -42 -79 88 104 -39 11 -61 -69 80 -10 84 -79 50 -63 4 -44 -38 55 -52 -47 81 -61 46 -104 -50 -101 -127 -93 51 91 -43 -66 -18 -86 -8 79 40 -8 18 -90 -31 16 53 -90 42 64 79 -89 1 -60 -63 104 29 125 -6 25 89 19 125 36 -70 -20 99 76 -94 74 58 -71 -111 -65 -55 23 111 109 39 78 15 -66 -60 -62 3 -81 26 9 83 23 -50 14 -123 -62 120 -82 3 -10 27 3 -78 117 24 8 8 -53 1 -34 51 -28 10 32 79 3 98 -106 88 88 27 -70 105 63 -39 -50 -92 116 -115 -75 95 25 
-35 26 95 77 49 -4 90 13 -103 -24 92 -83 92 124 -93 -40 -32 90 45 126 22 83 -13 37 -40 10 87 -109 31 6 -95 6 41 64 32 59 -102 -19 114 -43 88 32 122 32 -105 -101 89 -124 32 29 88 17 -64 -99 -108 -120 31 -35 89 -70 50 -10 65 -1 -118 -58 -77 52 118 105 110 59 -88 -5 7 -37 3 62 -13 51 -38 -43 87 20 -2 74 -6 -27 -56 -58 69 -120 -98 -14 -41 -11 43 59 36 -51 -24 -3 114 24 -24 -17 40 98 71 104 1 -84 -109 -86 109 58 0 -49 -104 105 -18 -28 -25 58 109 76 -62 -11 
-91 37 27 -125 101 -35 29 11 -94 -1 -15 -98 7 52 62 -86 -84 14 5 99 -15 -105 27 -85 81 -84 -114 102 -110 91 -34 -127 -118 60 105 15 5 106 -13 79 -88 -55 43 17 -112 -124 89 -72 -76 -95 89 -116 116 -104 -68 -18 -68 120 27 -116 -1 -6 -18 111 14 -38 -108 26 105 95 -5 29 116 2 121 -30 13 -49 -96 -3 84 41 104 -50 100 -100 80 -68 -13 1 -9 88 -85 -110 -124 117 20 114 -63 -124 23 77 -58 -76 113 99 -47 114 -82 -126 -121 -14 25 123 -53 33 -9 73 -54 1 97 -89 -42 24 63 44 40 90 
-86 66 26 -41 110 -113 -18 23 126 88 63 27 -50 34 55 -110 106 -37 -117 82 65 -126 -75 -31 112 -32 -91 114 -50 -78 -38 -31 19 -43 -74 23 -95 127 -115 -105 -56 -36 -79 -100 -91 76 -6 -95 64 -113 -49 53 47 75 -111 -56 -123 97 -28 -93 57 113 -122 -32 -101 11 -102 15 24 -3 -91 -10 117 -116 -64 -117 28 115 37 87 -106 7 -114 100 -12 -109 106 34 80 34 28 -60 -71 -114 76 -95 -72 -91 116 -29 -24 28 -92 57 43 -119 64 -118 75 -120 76 56 -26 110 -61 -91 -50 -19 -84 -88 74 -73 96 112 -114 126 -98 125 
6 -39 70 23 -123 44 -30 80 71 14 10 25 107 -61 -114 -91 56 95 -67 54 86 -85 -9 -22 -112 11 40 -103 -88 -87 44 -53 -33 -72 9 29 72 -5 -48 -50 53 -61 104 35 46 -87 90 44 -7 88 -62 -26 83 93 -45 -61 127 -25 -3 103 -115 -38 -68 110 -55 -65 -13 8 -29 85 -63 126 31 -70 76 45 48 -119 -78 -83 -116 96 -83 -62 -108 101 112 116 65 -61 44 -35 -82 -5 5 58 -125 -118 -19 116 -104 111 78 118 -70 -58 -105 125 113 -25 -72 80 27 31 -111 65 121 -22 75 42 56 -18 -61 96 90 33 -5 91 
5 -64 0 -72 22 56 9 96 -70 -18 -48 -40 -49 18 105 -88 112 -117 -55 -95 95 76 -14 -34 82 64 74 42 94 -31 -9 35 60 40 2 -108 98 89 11 -116 -96 -106 34 66 -109 -6 -42 -85 -57 -68 -63 -18 -74 44 106 -54 75 -71 47 106 -119 32 124 14 44 13 -83 -117 63 18 68 17 -104 -119 70 91 76 71 26 -70 -106 20 52 -117 8 43 49 -30 76 -20 -3 69 70 -125 11 71 59 -124 58 94 -48 64 81 -27 38 -77 65 89 -9 50 43 88 44 116 -34 59 74 -84 91 -50 121 103 -97 -103 -90 -14 -36 -3 
-72 13 -61 86 -19 -50 109 -109 -56 -79 -91 -98 -63 37 32 79 -121 30 65 114 -24 50 -119 41 -1 -19 -117 17 40 64 -30 121 1 104 -48 -65 13 76 5 30 -59 -64 72 -121 -5 -21 -26 -125 -41 -21 -50 55 17 -70 12 49 -39 -118 -28 78 80 38 -108 94 15 25 104 85 -4 -117 31 -34 -93 -70 -56 -18 66 81 5 90 -90 23 -41 -117 24 24 110 -59 3 -96 -5 122 -126 -77 -13 -16 -70 2 82 119 5 -116 67 89 -79 -11 93 99 41 62 89 -9 -63 -89 -23 64 127 -50 -127 24 -93 -11 62 -66 40 44 76 68 
-29 79 22 -85 -115 99 14 -89 -26 120 90 -56 117 -62 -45 -105 16 47 63 113 -78 114 -116 -3 26 -15 -12 43 -75 -103 -18 -63 -30 -114 -82 -65 126 44 -85 -31 -78 113 102 -110 93 -8 -39 -29 109 -15 -88 35 120 -96 -104 54 -90 -80 -47 41 61 -5 100 -25 -71 42 66 31 -65 -34 50 -24 73 97 -87 -13 -2 89 69 -41 77 -112 66 -109 -62 -75 -87 -108 50 -120 97 -97 -93 35 73 40 -39 71 -109 72 -115 -24 90 63 59 -57 -35 -90 88 106 -19 8 -75 41 -106 27 22 -87 -113 20 -26 3 98 13 52 54 -95 -106 
-2 41 82 -74 -8 115 -101 13 4 -83 7 107 94 -83 90 25 14 4 -103 2 -37 41 77 -49 -83 -123 24 4 -88 82 -91 -21 109 -103 -82 -97 -41 73 -89 6 108 34 107 -58 -63 -113 73 -82 107 3 91 -4 -4 -86 -118 -103 2 115 84 123 12 7 -15 -109 101 -99 77 45 50 -85 18 110 -69 -85 -107 56 -16 -42 52 -119 -106 -92 62 -92 -18 -81 57 75 -30 -122 -115 27 92 19 -126 56 -18 119 -5 84 -30 -80 26 -111 106 23 -63 5 -46 6 52 97 58 22 39 3 -113 108 -37 25 -16 -49 127 102 -44 -28 45 -54 
-48 109 -115 -86 -79 -11 -116 -87 -40 -114 64 78 101 -28 -90 43 -73 51 29 -97 -99 119 62 -84 0 114 -42 24 87 0 47 47 34 -77 35 -9 76 -101 92 -124 73 6 -67 -18 105 58 -83 110 -11 -107 -68 -23 -38 -113 -31 -55 23 125 -8 -92 -38 76 -62 -5 -31 71 -10 79 -33 58 -85 20 -9 72 -63 -102 33 -55 -96 -67 88 -29 75 -57 45 -98 65 -48 -47 33 121 -50 42 43 -15 -89 20 117 -115 52 -109 25 60 -81 121 -35 -63 -80 -27 17 80 -17 58 -61 8 48 9 96 -51 -75 -8 -39 26 -72 52 -124 -78 47 
-46 65 0 92 -107 74 5 -121 -76 -43 5 48 -41 -26 -11 100 -64 -112 61 0 -69 -124 -108 -22 -96 -97 50 -21 116 3 -88 -3 125 114 -82 -108 95 114 35 121 85 10 53 -124 24 -85 77 -76 -1 -79 92 -23 97 -120 -120 -57 -13 -97 -50 -121 -74 24 35 -51 -120 46 28 -19 41 -14 -10 -20 -57 64 85 -53 -37 -94 118 11 -92 -70 24 -7 27 -112 5 -83 -22 89 -17 101 117 -57 81 87 -88 -72 48 38 -63 -25 -42 44 6 66 23 -28 -87 -20 3 -123 58 40 -28 -74 -66 53 117 -9 13 -85 -88 67 60 99 87 -16 
68 -52 -23 76 -50 -69 124 24 93 -73 -79 -117 103 59 -67 -102 5 -29 -33 31 72 33 -19 -81 -33 -90 60 39 -11 -60 -43 -22 102 104 119 -106 -120 -119 14 -35 -1 92 53 51 -46 -75 46 8 -90 -37 80 117 73 48 50 -18 -122 26 50 54 -72 45 -13 -36 68 126 11 -29 72 -22 -45 -12 -76 93 61 -98 -90 86 93 -120 36 -11 -2 -72 65 -3 -102 -57 117 -123 -64 -60 -102 25 -79 -109 66 65 -118 -31 -125 69 54 123 126 95 -68 113 -25 83 -53 -5 76 -118 83 61 78 27 -36 5 -3 -44 44 -94 107 89 -87 -44 
60 -73 26 79 -26 -16 -82 49 -50 118 -70 -28 -81 -73 -11 -127 -35 69 95 11 86 -6 97 46 -49 -18 13 -2 -36 -6 97 -83 97 -98 -82 56 -125 86 -25 41 -38 32 -112 -110 -15 53 -58 2 -19 -66 -87 53 38 -115 93 104 -27 113 -111 82 -75 -36 0 -34 -88 -38 49 118 38 35 9 -46 -85 -100 -62 -116 46 109 63 -46 49 -65 111 -9 -97 22 -2 6 19 -107 -5 -72 -77 21 -116 -6 -94 125 -123 18 69 32 36 -83 25 -54 -49 124 67 94 114 -67 101 110 50 111 -39 55 2 106 -38 -104 -60 12 -32 65 106 123 
