-115 -65 -118 -87 -70 -66 -56 32 6 65 110 46 115 2 110 98 57 114 49 8 96 43 -42 81 77 -52 118 25 23 81 -99 -38 -102 -94 15 91 123 10 -53 -57 56 52 0 -22 -12 105 35 72 -118 123 -41 -26 11 -31 7 11 110 -108 100 -40 -9 35 45 -96 -84 -90 -55 -68 23 -124 -83 36 71 35 53 108 105 -124 -109 -30 96 7 81 -34 -29 9 -9 20 55 25 36 -23 -55 54 97 21 -58 15 -59 119 70 -127 99 46 85 -56 -20 32 10 37 84 50 36 52 113 -74 16 -62 93 37 64 42 64 -16 -124 10 79 87 -17 1 -8 8 -88 60 77 19 -113 -96 67 56 34 83 -107 -50 -67 -15 -74 49 -24 26 -14 126 112 -117 87 -16 -53 -14 60 106 -38 -82 -23 -10 -112 -94 24 -115 -46 8 107 82 -21 -54 28 98 -42 -119 -122 88 -118 -70 106 115 21 127 4 -120 12 25 23 48 29 67 124 113 -120 32 -68 4 -18 99 -42 101 -115 -84 -48 -66 77 101 47 121 -41 -110 -70 103 -106 11 -58 62 107 82 0 50 26 102 17 -61 -31 15 -91 -119 -62 35 -51 -42 10 -68 49 32 2 -81 76 -43 92 -83 22 -63 70 -10 88 117 -56 93 -45 94 75 36 -69 15 -38 -110 15 -77 118 43 -117 104 -127 -73 21 -15 -70 2 -68 87 -127 -75 -13 -24 123 111 69 -22 -90 99 22 4 58 -127 -84 24 39 -92 35 12 -6 17 13 -83 13 -100 -95 121 -73 -78 -23 -109 33 14 118 -63 61 110 -86 73 11 20 -50 126 -66 87 -2 60 -34 61 39 -118 -124 16 -87 -52 20 18 4 -104 77 -15 -68 90 59 117 101 9 -117 7 94 -66 53 -24 -26 19 63 -42 127 -26 -5 -45 -112 98 -76 -72 17 88 -106 83 55 79 -45 58 41 86 71 120 66 -59 7 -118 -65 -6 -118 -10 -121 29 -79 -2 23 -57 -27 65 -125 30 80 84 97 -11 88 88 -47 -6 -77 -54 -90 93 9 58 -27 -108 86 114 -89 -123 -58 -107 113 69 -25 121 21 -124 -27 -81 19 -23 99 -43 39 21 51 2 -4 -38 -126 -19 95 -8 21 87 19 -48 68 52 -77 -69 -36 -118 84 76 -119 -74 64 4 102 4 32 -120 -120 90 1 77 121 41 6 -114 -17 -37 122 44 -58 86 13 -97 -85 110 -31 -107 15 -12 -102 125 13 14 -21 -72 57 77 -66 -84 -24 -102 -33 -65 -88 -32 27 100 114 -104 -43 63 -103 -49 72 -90 -23 -85 -93 96 63 98 -61 42 -29 -127 -98 -74 -75 120 88 68 -11 67 -114 20 -27 -37 -47 -28 -39 -44 102 117 -83 -32 72 -15 9 -99 7 51 42 -81 -48 -90 49 -90 65 -17 123 56 63 43 -60 41 37 87 -107 91 80 -76 -89 106 101 118 -65 40 -62 125 109 -66 -91 -44 113 -86 -51 125 -34 46 85 26 77 -50 24 -101 44 66 -50 -105 -34 26 79 -115 -85 -80 -75 83 -25 5 -107 78 -95 76 -97 90 -33 59 -89 -65 -125 17 -40 -8 -36 -84 -22 89 -20 0 -85 -116 -92 -8 -117 -118 44 106 121 76 -98 35 35 -7 -112 -112 -116 -121 -52 -61 -42 91 -28 -44 -102 55 -47 88 66 -79 -125 27 124 100 -64 66 -6 -104 -70 -81 -21 -84 -123 -90 -94 -31 -50 67 109 -6 -19 40 28 -28 7 58 112 9 9 -54 -69 -85 77 -31 37 -26 65 35 -91 -20 -15 -114 115 -45 -74 104 -102 5 -39 48 -64 -62 -40 -22 86 -117 60 92 -91 -125 -49 -66 -16 -100 39 7 96 -34 125 -34 -59 105 -104 -38 -36 -105 71 -81 -85 -75 -73 -10 -106 -83 74 10 -64 0 108 -94 -98 -76 -110 23 -104 9 39 -85 -59 113 -81 12 -17 69 30 107 45 50 79 -60 122 -27 114 -29 122 -86 -13 -105 49 -122 -67 43 69 100 -61 16 -11 -84 -100 -21 -119 110 -83 -65 38 55 63 -70 108 -104 59 -99 -70 -11 45 113 46 31 -43 38 -14 58 66 -36 -109 -3 -14 -8 125 -66 -98 101 -56 -87 -104 111 83 -18 55 -29 -40 113 -82 -68 33 29 -24 84 -38 80 -71 -80 117 28 63 -117 -18 79 44 66 -73 -7 -32 -18 -92 -29 67 -58 76 3 -28 -40 90 20 -95 93 -18 -72 31 10 76 -11 35 114 -9 -73 12 -58 28 108 -88 -99 -120 -72 -106 122 -59 -81 60 13 -100 -118 -43 70 37 22 81 86 -30 35 -119 51 -78 -32 8 -61 -29 -51 -42 -18 60 28 -95 15 44 21 120 -1 110 105 71 127 -49 116 -102 -101 -126 -76 -78 -37 -121 -117 31 107 58 -84 -78 114 22 3 -28 1 -97 -23 104 -37 -14 7 108 1 -55 -37 126 -13 -63 -91 -79 -123 -115 53 21 24 0 -127 25 77 -125 -123 118 -25 120 14 -71 1 24 -66 43 -83 -46 33 48 -21 -70 24 41 -99 82 84 34 -40 66 -123 -93 -43 -105 -84 -55 -65 -49 2 67 -7 22 79 -32 2 110 104 -106 104 -116 34 -108 -87 21 68 127 8 -65 -44 -9 82 -19 -46 26 -111 48 -103 102 68 -120 -90 109 69 101 -119 
35 23 -69 105 -66 82 -57 14 87 -103 54 31 -117 123 43 -36 52 81 -53 20 -13 33 125 -96 -123 126 91 66 -118 68 54 83 -55 82 84 -11 -88 118 11 -109 10 37 111 109 -112 -103 94 -67 42 60 93 91 85 65 -19 73 -106 111 -5 -91 -55 -38 -107 -85 -76 -95 -43 40 -22 41 125 -76 70 95 -57 -111 -31 -88 118 57 119 104 -58 -59 35 -126 9 30 62 89 42 26 -115 -2 4 -64 127 -70 111 -108 -97 59 -31 -13 -83 -124 -16 57 -105 -113 9 -110 -49 -82 -74 -119 120 12 48 -60 -39 -36 -58 82 -119 10 -69 -54 65 -77 56 -122 26 -48 -73 -123 -55 76 -126 104 -88 -81 74 19 108 19 -108 -6 -94 -105 -15 125 65 -3 18 61 -126 41 -23 90 -64 -15 28 -71 85 -116 -63 25 124 64 -53 -61 16 -64 -26 -72 -100 -16 36 -49 117 -97 -36 113 -47 -121 0 -101 -111 39 117 49 -65 27 -89 95 -4 -110 -93 60 -38 109 -106 -40 -115 -120 -105 -24 -105 120 115 -90 -15 100 85 -69 -82 4 16 88 4 -50 -72 127 -55 -24 -70 -89 50 30 39 72 -118 -19 42 -61 115 -57 -34 102 44 -104 1 -26 -121 -6 -101 89 15 -117 -39 80 63 88 -68 -40 47 106 93 112 90 62 118 -97 114 -66 97 -49 12 39 95 -8 -14 89 -79 -37 -35 -105 23 -116 -68 29 73 8 -123 120 -76 -19 85 51 -8 52 -18 -59 69 -52 -88 44 -66 68 -69 -105 -90 -90 -43 94 91 -107 107 17 -116 52 120 10 -4 80 -74 65 107 -63 0 13 -34 63 -123 105 6 61 71 112 -79 -122 44 126 33 22 -93 -20 -117 -18 119 84 109 -85 60 62 24 -92 -112 126 15 122 -50 17 36 -6 -122 -42 -1 110 -74 -22 122 -104 4 -117 24 45 -124 -72 120 -10 -49 -125 -79 -94 53 106 16 65 -39 -94 -56 -34 -58 -90 -51 -76 -44 -115 110 -110 -3 78 92 -96 -4 -90 -120 -14 -117 -104 30 13 14 100 98 -62 -107 75 -78 -100 -80 -35 -101 38 5 -7 -78 49 -94 -106 7 -105 124 114 -111 -114 -45 59 -34 -125 -83 34 56 71 3 -50 -69 -20 -34 80 -93 -98 -48 32 104 116 17 33 -110 -123 109 6 106 -113 6 48 -112 -113 91 -103 -41 -107 96 68 -2 12 -53 -18 4 -115 95 -86 8 51 55 -97 -55 32 10 96 -3 -3 61 10 -36 94 110 78 -34 12 -84 68 -33 22 -8 -83 -74 -69 25 25 -48 -36 -1 -71 90 -77 -63 76 -24 -21 -68 85 -79 -15 -40 -72 -86 77 64 -12 125 70 -7 45 -82 56 117 -103 -89 -5 -39 -72 -41 0 39 -20 5 84 5 103 101 123 43 34 50 84 -75 7 69 -107 72 -25 98 11 108 73 66 -67 0 -108 74 23 -5 -9 -41 103 -107 121 86 123 -122 -8 115 67 -19 3 4 115 24 19 -30 57 64 -119 32 -66 -8 109 -79 -27 31 81 45 -19 -91 -15 75 -105 -60 64 -19 69 -28 99 19 5 -63 -77 120 -83 112 -119 73 -126 -125 107 103 13 126 74 -17 51 4 -26 37 -106 -122 -74 41 -17 105 -31 63 -64 14 112 82 -20 -11 -18 34 44 26 66 -87 37 -29 108 -10 -24 98 -79 68 82 -45 39 -24 51 -121 105 -41 123 -107 109 74 38 122 34 -37 109 34 39 68 119 -91 123 47 90 -17 113 -39 -50 126 -19 -78 -27 69 65 22 82 6 2 -42 123 -25 -37 20 70 -107 -36 -112 66 110 16 -44 -20 73 -79 100 -17 -116 -106 -83 -55 -86 13 84 72 94 -116 -27 27 -126 36 -33 -46 -96 -37 119 112 51 83 60 16 -18 102 -32 45 -92 -47 80 41 -9 -5 -96 -8 -26 117 50 101 -61 23 -54 -38 -15 -127 -93 -60 -46 -24 102 64 -9 89 64 -98 95 -33 -101 -63 -105 -91 123 -108 110 -85 -93 16 -111 124 10 -68 -97 13 -123 28 13 51 71 -90 71 91 -100 40 105 23 -23 38 -27 22 -39 -98 -43 39 58 -125 -55 -30 -54 50 -4 -41 3 -50 79 -114 79 -123 87 -49 -84 63 26 -35 -86 -56 94 -80 -87 66 94 -59 24 94 -112 96 -85 -92 -61 68 85 -78 70 -42 28 -126 -6 -16 7 12 -117 54 -56 72 119 41 -91 -26 -97 40 -10 -80 43 -18 -63 -24 109 -19 124 -115 -75 90 -69 -84 59 -67 111 -114 -76 114 68 99 31 -89 40 -26 -99 -94 -53 -117 -32 -44 -106 96 104 20 -103 70 -34 87 -117 -86 -52 54 -106 63 26 -90 97 97 113 -83 -36 -113 85 47 -14 20 92 76 62 120 81 -87 -91 -51 -53 44 122 64 -47 -43 66 -78 91 -51 73 21 0 -32 -118 85 42 -62 6 -48 77 53 -34 -49 105 -33 -15 -81 26 -99 -12 -74 106 113 -76 78 29 53 -7 4 -19 5 -57 103 -19 32 42 91 -95 -125 77 41 -103 112 -48 -102 75 46 -17 -43 -87 -50 -71 74 71 -13 -68 81 -121 56 -77 -113 21 -40 -60 3 44 -63 -97 -86 38 -48 41 -14 6 -82 -56 63 -8 70 16 -112 79 -113 75 -120 
-31 -89 58 -67 -86 18 73 0 -117 -58 -34 -93 -124 42 113 -125 -27 7 15 78 49 36 -109 -78 -7 -65 126 35 -95 111 -96 -84 12 112 -10 118 -47 -7 -86 109 -92 -18 9 124 -34 118 17 68 90 2 75 85 -110 115 78 -4 17 48 10 30 28 44 -110 24 -25 102 -32 -91 14 -90 -120 0 -33 -32 -4 84 -123 72 -59 -101 -35 35 -54 -70 32 83 18 15 -40 11 -53 -75 -8 -62 114 96 -61 14 -122 -70 -17 103 52 -91 -28 58 -123 24 -98 29 -17 84 -72 12 27 -37 -90 115 -93 76 -120 -3 -8 64 -94 125 90 -40 -10 -112 -30 -14 2 -116 44 15 83 -31 -16 71 72 -112 91 21 86 -91 3 -15 1 -69 -2 84 69 23 -41 24 46 1 -57 -43 -116 50 -124 32 0 -98 14 89 124 91 -83 69 -10 -71 33 97 72 -9 72 -71 -76 33 2 53 -48 125 -11 48 76 115 -113 -105 105 44 -72 23 93 -12 -41 60 71 -112 -32 -8 3 62 -75 -124 97 57 37 40 -84 73 -64 60 41 -95 69 -42 -27 -47 60 -90 -114 93 52 80 -104 -52 -26 -116 73 -1 55 -35 -87 -109 69 -38 60 -7 112 -36 74 24 97 -87 -3 -115 75 -78 90 10 -114 -54 -91 -114 -113 95 121 70 116 -5 97 42 96 -92 76 65 1 -114 -21 33 70 110 119 70 -29 97 125 -73 -47 -113 47 -34 -119 24 -93 12 -4 -32 -6 -72 111 -73 -29 116 6 11 -68 -61 -29 -20 110 -92 6 -26 0 -36 126 -100 -36 -67 -66 -103 40 -85 114 -53 -100 -123 -112 3 29 -65 -36 -68 118 -14 -98 40 -25 -111 -104 118 -98 -121 10 -40 86 25 -81 -42 -114 -9 119 76 -65 24 93 9 17 86 38 24 121 -25 40 -117 41 -107 -116 -41 51 48 49 -62 54 70 63 111 10 125 -67 -11 102 72 -15 46 -126 -61 107 -58 -91 -41 92 13 -37 60 -21 79 -70 47 98 -111 -62 42 105 77 -18 -39 -96 112 -43 68 81 -106 -64 -77 43 69 -18 -23 -25 -61 -77 4 24 50 13 12 102 125 100 104 -84 -84 111 27 68 18 7 -122 -7 53 -9 95 12 25 -22 38 88 56 61 -45 8 -54 -76 113 108 -82 -37 -92 -73 35 -1 110 -50 -31 -93 17 -108 -105 -103 -30 13 -14 -93 88 33 -69 -17 109 15 -120 -62 57 -26 -36 70 -2 31 -1 42 86 41 -111 -95 -17 -119 -14 19 25 -45 22 -16 -76 76 -4 60 78 -54 34 -8 60 73 123 52 -58 82 10 18 8 -106 112 -10 80 -13 -90 60 -52 -50 80 79 -53 127 -14 -69 92 -58 -91 67 98 122 -26 107 -102 -96 62 -64 59 52 -113 21 9 19 -37 56 112 -40 55 102 -94 100 -2 10 -114 71 -63 -76 -95 -81 -17 -127 56 114 102 2 -32 -2 30 -50 -6 72 80 -2 73 -46 110 103 98 -110 47 92 96 73 -42 -34 -107 74 74 -21 -101 7 31 -71 19 -60 -4 -103 61 72 60 -45 69 -45 122 -34 37 -66 55 77 49 -56 -102 -51 -14 101 13 125 8 45 106 24 -125 -38 41 -2 -84 0 101 -22 -45 19 -84 -107 -69 59 -82 16 -115 -22 -122 -4 -48 103 -45 -56 -47 78 119 69 66 64 -88 -2 116 -92 -9 22 38 93 -96 10 -117 -109 12 43 33 125 22 116 -26 71 -126 -49 -11 -36 51 -113 117 -56 -116 -118 -61 98 -92 93 -86 -58 -30 -42 -110 70 10 41 -18 87 44 97 45 -104 -46 49 -101 100 13 77 30 66 -3 32 -111 -69 -12 -32 -91 82 38 105 45 115 120 75 -43 97 119 -77 105 70 78 98 -41 49 -84 -84 -54 -64 35 -105 -108 66 89 -86 62 60 26 -115 -52 -62 84 -88 16 -68 -76 76 62 -103 -70 116 -47 96 -37 90 -36 95 95 123 73 -124 57 -36 -101 73 -1 -61 92 -7 -53 -47 80 -70 -20 -20 105 -71 -13 -4 -93 71 78 29 -9 -6 -106 -121 -74 -10 -77 23 -89 75 80 9 57 111 11 -28 -52 105 78 69 122 94 2 -43 -116 -10 13 -28 77 -96 -22 -60 64 -103 26 -28 -73 -39 -72 -63 66 -54 43 83 -74 -22 -86 68 99 -97 23 -43 64 -126 127 -38 -91 -107 22 2 -117 -111 94 108 -27 85 -117 49 -80 9 -60 98 -30 75 -79 92 -63 26 41 55 -77 106 5 -11 -1 -77 28 -42 -113 -113 78 -94 -106 -51 110 30 -43 -24 125 -75 -52 39 -40 54 78 74 42 47 30 -61 16 64 -67 61 -32 -44 95 24 -104 -123 -3 -124 -8 41 -41 54 115 0 74 12 -84 -10 102 96 10 -52 63 81 28 30 67 -67 42 92 105 64 -38 68 -60 -22 91 -26 61 -92 -89 90 -84 86 96 -89 77 -101 -80 87 -52 8 63 -48 -108 -117 87 -85 73 -127 -71 87 -65 33 -73 104 -38 -7 34 32 22 52 29 87 1 -36 -58 123 6 -74 -69 120 94 34 34 -66 40 -18 97 123 -2 -58 -30 22 93 -54 -114 -117 67 97 -8 -96 75 -51 -124 -113 55 126 -21 -26 22 35 -45 78 -45 124 -16 
18 10 14 68 -87 51 -123 -116 110 118 -21 -88 -69 -95 -39 -30 -45 -118 -89 -89 -70 85 -10 23 6 -68 126 -11 111 48 -72 43 -44 -79 -92 -102 -125 29 -119 5 65 11 118 108 24 -81 116 71 -104 22 112 -82 -29 -15 -42 125 123 -31 0 47 -67 0 -42 46 -54 -6 28 97 -33 23 -35 -94 68 -24 -108 10 22 -7 101 124 -119 25 -116 10 25 -42 -112 92 101 -55 -10 101 -125 116 -125 -101 109 -46 18 -53 -47 75 -10 91 29 65 -79 94 99 -48 -101 -58 51 -26 122 -58 125 -37 122 97 110 -44 84 -85 96 -16 -15 82 33 49 97 32 23 -86 14 73 18 9 13 0 124 87 -51 12 114 34 47 -90 -85 -4 -106 6 17 40 24 -19 -36 -58 -9 -64 -11 27 -6 -82 73 -19 -77 -28 -124 9 107 -76 127 -13 -14 -110 -6 93 20 108 -49 102 120 48 65 -98 22 51 -115 -23 -65 -3 31 116 83 95 113 126 27 -107 -20 33 35 -36 -6 -91 -111 98 79 68 -32 -12 18 -45 103 1 98 16 -40 -24 76 37 -96 -118 83 -42 112 -11 -11 3 -114 -61 -27 110 -114 -61 -73 31 -14 -114 107 -59 -117 23 -91 -53 94 -77 73 -96 34 99 -100 82 -82 27 101 -48 86 88 -64 -23 7 89 -66 113 -74 -82 110 16 -75 -41 -65 -125 -89 -81 100 -82 36 -30 -59 -38 120 -89 -80 -58 -95 -66 122 -66 -97 -22 15 7 -85 -80 -15 33 -12 -127 101 70 -107 -93 -65 -51 43 -37 122 -27 -123 -40 -99 87 -62 -27 115 83 -2 39 -36 97 -28 89 -39 -10 18 -98 -103 -117 16 108 8 48 107 52 -70 19 -109 -103 63 106 -14 -66 122 -42 -7 26 119 52 -9 19 -121 114 1 107 36 -58 -22 -44 -61 -108 -88 2 -6 -84 71 109 -91 -27 42 76 -49 17 92 -32 -92 -30 51 65 -43 94 -60 -5 -46 108 35 -68 26 -107 -109 -108 107 124 -40 -120 -125 -15 50 123 118 107 -67 -55 -13 104 -15 -104 14 90 4 18 28 -14 84 92 -21 95 -40 123 -22 77 -51 -52 59 -79 -52 94 -48 -37 -100 83 31 113 -103 -9 -116 -89 -77 -59 -52 101 -14 -120 -72 -15 13 91 67 46 -127 -50 66 -22 -13 -71 106 7 89 19 2 91 -71 -127 2 21 -29 55 57 -94 -95 37 75 23 -93 110 -27 -73 75 -36 97 -56 -103 37 -44 37 9 118 123 -91 118 -87 -112 -4 47 120 -9 -25 -24 34 20 -34 -41 15 -88 -117 -116 126 21 91 9 79 43 -49 -101 115 -38 -90 8 122 111 -67 70 58 52 2 45 96 -24 77 126 15 115 4 127 117 -37 -89 42 -123 122 101 -52 33 119 41 5 15 50 19 -86 -68 -14 -111 -90 29 23 -101 109 -49 74 -55 -59 -55 35 -46 78 -44 113 3 119 37 -105 127 88 -20 -113 -109 34 6 79 -58 -105 126 117 52 97 -1 48 -120 18 33 -120 61 -97 39 -50 -2 24 11 36 93 -47 38 -65 -18 -49 31 -81 -93 12 -122 65 35 -79 21 -82 -76 -39 -3 -48 124 -30 -7 98 -126 -96 -46 23 -89 13 62 30 20 29 -66 87 99 -2 -35 63 -66 -71 -35 -52 109 -103 77 -1 -30 -94 11 100 102 -12 -45 67 53 -99 23 -109 67 -10 -108 88 45 -5 75 21 -24 -99 120 68 111 104 -55 37 -113 -35 -21 111 70 87 -121 -48 72 -94 -110 0 -2 51 -82 90 -111 -31 51 47 -125 -15 -52 -69 105 -113 74 -36 -33 -17 -75 -86 59 -46 -104 78 -111 -79 -38 90 -11 -42 -1 -18 76 97 63 -35 78 -77 -12 -84 118 45 107 -83 46 20 -104 16 119 -49 113 98 -53 118 -73 -45 4 -116 100 22 -123 -46 -45 51 -2 36 87 70 11 -26 54 72 31 105 68 120 112 -90 -76 -70 88 28 66 -98 -119 -60 -89 -96 122 96 -46 4 58 80 -101 76 -111 -61 -95 -60 -64 -12 113 -18 109 -5 -109 -30 94 -62 -55 -30 6 24 111 -39 111 5 -123 123 11 70 46 -35 81 -108 70 -66 10 20 100 -119 -21 -85 39 -88 88 -2 -99 39 116 32 -102 -32 -58 -120 -9 -105 107 103 -48 92 26 -71 10 -127 68 21 -33 104 28 -83 -115 -24 -9 -107 -51 -109 -59 118 -72 66 43 -35 -126 45 77 -82 -33 -77 29 -126 -121 109 69 -35 -69 79 60 101 34 81 102 -86 -96 -7 -77 -119 -107 -26 -17 -127 -97 -46 112 38 -90 68 -105 107 -111 -115 -3 124 65 -75 -120 44 -69 46 10 -54 16 24 89 -5 54 12 -110 -75 47 26 112 40 -100 -67 -32 83 44 -114 -36 92 -118 -49 -21 0 -75 -112 -100 -30 -15 87 16 -28 74 51 81 66 -98 -61 1 18 -101 -84 54 36 73 -89 18 66 -85 58 38 -126 -14 -82 -78 19 97 26 112 -1 110 -105 -99 9 -80 -34 84 -118 1 27 105 -117 119 23 -60 -68 -124 -112 68 4 -126 -49 -83 -102 72 21 -22 82 23 -103 22 87 89 26 96 -126 -1 -77 90 -44 -98 -13 68 101 -125 42 -68 -17 89 43 79 85 -61 
-81 88 -83 13 -77 87 50 84 -98 66 47 10 9 107 -78 -123 -17 73 50 1 -37 -77 119 9 -5 79 52 31 64 94 -121 -94 11 15 66 62 15 -36 2 108 17 -8 81 -127 -47 -73 112 -117 42 -120 -3 -124 71 -95 -79 1 23 -108 -46 -43 -11 43 -120 110 18 -84 3 -41 111 -1 101 26 84 93 78 -51 109 -15 84 -83 46 59 -81 -31 127 -92 7 -44 -59 80 17 -110 -55 -40 14 -125 -14 41 -113 108 47 111 -51 118 -34 -56 6 30 -18 93 -109 -109 -96 -16 3 -24 -64 -38 11 1 -84 -32 -56 -16 12 -7 47 106 -18 -74 -101 103 -5 -28 1 92 -91 119 -17 -75 -42 -106 5 -93 102 114 -42 -127 5 -66 88 106 -80 119 -61 -71 -41 -79 -80 -111 -53 10 14 5 111 14 -122 -42 14 -45 117 75 42 -59 -99 -109 118 6 -62 101 51 38 113 85 41 54 -53 -72 79 -73 -47 -3 61 59 56 -99 -8 60 8 19 10 92 80 68 -2 98 -124 -38 -15 111 53 58 100 -76 -78 -21 -114 -102 8 -99 86 91 -10 83 -85 -93 -11 19 -43 -33 75 50 -84 -19 -35 109 -106 -115 11 62 -31 -43 -83 -68 -28 64 -109 -81 16 89 -125 105 -85 -66 97 -33 124 -125 -56 -109 12 -119 -74 91 -87 88 -52 -40 10 77 -68 25 112 75 108 -115 52 -108 44 -60 -8 -126 -13 109 122 -74 10 120 62 -96 123 93 47 58 75 125 -87 -118 67 -125 -57 -6 4 -87 -16 -127 23 -123 49 -127 -113 -53 85 -7 -83 -10 76 -74 67 89 3 117 17 -114 124 -2 79 -100 -125 -57 -13 88 -16 -88 -119 -40 58 -48 -84 -66 23 58 46 -121 93 56 -26 112 108 -21 -81 -25 -1 23 25 -9 -45 -19 -58 88 -102 32 -104 -56 28 -44 2 -126 -127 41 28 65 28 104 31 125 50 -11 123 -109 33 82 -73 72 87 -33 20 69 -5 110 81 -56 -88 -98 -108 -28 105 66 118 93 -101 -37 0 -118 50 124 -96 120 68 21 -7 87 39 79 30 -114 2 87 64 90 -22 82 9 61 -29 -21 -105 -71 73 81 -94 -36 11 -16 -81 35 97 42 -14 118 -23 125 66 36 70 40 63 -1 100 -68 -11 -101 114 69 99 97 76 14 34 115 -115 -102 33 1 -48 12 -74 107 55 15 -32 -81 -7 87 10 -48 -13 -5 -85 -76 20 -37 40 107 36 67 -101 124 -72 -105 -81 21 26 -57 -65 -78 125 62 -127 118 67 27 -89 -38 -80 -25 71 -27 50 -58 51 103 -114 -48 40 -44 8 18 -71 9 -63 -95 1 -41 -125 8 -42 -61 23 87 -122 120 -76 121 -76 15 13 -51 121 36 55 -47 86 52 40 -92 -8 -102 -14 51 -7 20 45 -58 -18 91 -43 -40 51 8 56 -62 -60 100 -63 -36 64 -78 126 -2 -24 -79 120 83 -23 53 34 -65 -77 84 45 -72 -49 94 -99 42 1 120 -76 -106 67 36 104 -114 3 73 81 -65 101 -11 -14 99 -70 -125 -66 63 69 -112 119 57 84 -64 -31 -39 10 49 -75 -99 -63 -48 112 89 76 -29 36 -72 -74 -43 126 -4 21 77 125 -39 -84 36 96 -75 -45 -22 -61 -49 101 -56 -39 118 -113 124 -4 -94 -19 19 -96 50 -66 -7 124 -3 127 98 86 -64 -14 70 92 -16 -68 61 -20 37 71 15 3 51 -4 -10 79 -67 86 49 94 85 -88 93 98 -55 -85 42 -21 -118 -64 77 79 -16 -49 -61 -20 -110 27 53 -39 123 16 6 32 14 -108 67 14 -101 21 -93 -25 -60 -9 64 64 -10 -3 -44 -108 -106 97 103 18 4 102 115 68 108 14 48 14 107 -46 -44 122 125 -75 89 108 -14 38 -98 -7 97 25 23 101 -35 113 -46 41 114 7 -66 -124 89 -40 122 -27 -14 -60 -42 -69 49 24 -124 -48 17 101 74 78 -60 82 49 118 -26 96 -95 -116 -100 -47 -106 112 -20 -46 87 -84 97 -5 -44 -55 97 -51 72 42 -5 102 97 -46 -121 34 -25 6 122 -6 -105 -26 -24 121 -78 -65 113 38 79 -123 48 -56 99 56 -107 -64 -105 83 -109 -7 -83 -82 -116 -58 -77 -12 15 124 92 93 -6 -100 -108 -94 42 60 112 -45 30 -48 -11 45 -63 -119 32 -5 -15 96 -89 -104 -107 20 -52 -110 12 -30 -74 -65 -55 71 -3 -114 -111 -41 112 -42 40 -1 -92 95 37 71 81 60 31 122 100 81 -52 38 44 39 -45 47 9 55 58 81 101 -31 32 68 88 84 26 -119 59 6 -18 9 -104 -32 18 -55 -66 58 -121 -39 -85 -34 -70 -12 -79 -71 88 80 32 -42 -3 -87 -77 37 70 -31 -39 -116 35 -91 48 97 15 -20 46 -106 80 -5 6 2 -82 82 50 -28 124 -61 71 15 -63 -53 76 17 83 55 -113 110 122 -66 -42 58 13 20 74 7 -16 -87 -6 -52 92 19 -76 19 95 -115 -98 107 74 49 -47 8 -98 -53 2 45 26 34 -57 20 -33 109 124 -123 78 -109 28 -122 55 72 -58 -118 -115 118 -7 -61 -117 52 -66 -33 101 71 84 -88 47 96 46 39 -16 -61 48 
-83 -127 -91 60 1 -118 31 -67 22 31 -101 -35 -121 66 -100 51 -37 -14 -42 39 -53 -53 53 -59 37 82 -39 -12 -4 14 -32 62 -31 -60 -28 -10 -114 -108 -56 40 -23 25 -44 -13 55 -109 114 -104 -31 -85 62 -39 22 -98 93 -89 -25 -127 79 -41 79 -26 -99 44 -4 -31 -62 -8 31 60 -79 60 49 -108 -65 93 -108 14 81 27 47 83 125 -23 33 34 8 -116 -76 -122 -90 101 92 -29 -59 -105 -58 112 52 -119 -116 -68 44 -70 43 37 16 -67 32 -87 92 84 22 -90 -119 -53 -11 -24 100 -98 66 53 85 -113 27 54 112 -126 -58 -26 93 10 71 -45 62 -78 -21 67 101 42 -44 -20 61 -51 122 -2 -95 -124 21 -121 -45 -73 103 13 -29 -67 -75 108 -104 -43 110 -103 -101 19 98 64 18 49 49 -127 -60 84 -56 88 -5 -127 -43 -121 41 -32 -72 -105 39 -51 -73 114 71 -103 39 63 -30 -127 119 -28 125 53 -89 58 109 57 16 -61 16 -96 -35 86 -83 -54 -16 25 99 111 -112 -122 -106 50 78 -22 80 118 -42 15 124 34 56 109 125 118 54 72 -23 33 -80 119 29 115 -121 11 -69 -15 -111 48 48 88 -74 -61 24 -73 16 8 -4 -81 18 -119 -11 -104 -16 62 101 11 78 -39 43 108 -36 -115 -104 36 51 86 108 -38 -62 -7 -24 -8 -69 115 -19 -126 2 25 85 -42 84 -31 76 98 -124 57 60 9 -45 64 26 119 96 -86 59 28 -125 69 114 -1 -112 35 -107 17 68 45 -53 -51 -17 29 76 77 109 16 121 -106 -92 -60 112 126 27 30 75 35 -119 111 -111 -13 -6 -42 -116 92 109 -6 -99 57 23 39 13 -51 52 -71 125 120 -23 -46 -16 -69 -115 -80 -107 25 0 -59 91 50 -49 56 -10 -98 -63 72 -124 -126 -47 -79 -1 -30 -32 11 -89 -77 -112 29 -49 91 -17 -63 99 22 -125 -14 -116 113 -18 -55 53 4 23 19 13 -73 -11 102 46 86 120 73 -12 -25 -33 -86 -93 -124 35 104 83 48 49 14 -96 19 121 39 105 -11 106 -79 -76 -71 -10 -29 -85 19 78 -29 -106 40 -35 -18 52 -26 -27 -22 127 -75 -62 -47 -116 -124 -119 -84 0 -78 -43 -36 42 -32 71 87 92 127 109 -100 12 89 74 -28 28 102 -79 60 -124 -93 71 60 77 2 -95 66 -103 -78 33 -95 -123 -115 -82 93 -25 80 -119 124 -117 16 115 -109 71 115 91 -103 -39 -28 -2 -77 -104 121 112 -109 19 61 78 -73 -21 101 -112 40 -37 113 -97 52 -115 104 -95 123 78 -114 -38 -57 -91 80 -106 -19 76 43 62 105 -48 53 -86 -99 -126 -36 -60 40 23 -119 -68 -1 -73 30 -96 -74 -38 66 92 -73 -1 16 40 -1 104 -118 102 -33 71 103 -124 108 -35 39 127 59 -43 119 -90 108 84 92 55 -119 -73 -65 -97 9 -76 -81 -67 -56 -59 -121 -79 114 99 -32 44 -35 -11 -10 87 25 76 -121 55 -31 113 -10 123 12 68 -10 47 -59 -55 70 -88 50 64 52 55 44 32 118 -123 -12 41 121 -22 -123 -9 -70 118 79 100 32 48 -42 -35 -81 -100 111 89 -33 -48 81 117 2 87 49 -37 -56 54 -98 45 -74 -93 -39 -110 105 21 -102 52 -103 48 30 87 15 5 104 -47 66 59 -15 29 -107 -66 -115 113 -52 -23 116 57 112 6 -94 83 -28 -27 104 45 -122 109 72 -87 -120 112 -83 54 26 -48 52 -79 -39 -44 -22 -42 9 -37 -103 -99 93 103 101 -106 32 -94 84 62 -19 74 99 6 106 -62 50 -126 90 -88 83 -63 -91 63 48 12 37 81 17 127 118 15 68 -57 83 -88 -78 11 62 93 -114 82 18 74 -46 22 104 22 -116 -48 96 -103 -127 16 -72 -75 51 -110 -114 -80 16 -17 63 -125 34 -88 25 96 13 54 30 -24 72 -42 82 -108 127 -29 -110 -82 51 37 -61 60 95 100 -25 -72 103 -50 -42 111 66 -127 -106 66 69 -60 -4 110 12 -57 -72 119 -5 53 -39 -30 28 -47 -60 81 113 -33 104 48 62 12 26 -39 55 25 -37 90 -103 45 -58 53 -87 -69 -5 17 127 -36 -22 -92 -46 -101 101 19 13 115 -6 7 78 -86 -88 -3 121 56 119 -65 57 24 -19 76 -10 109 -11 110 34 -79 -103 27 3 26 -22 -69 -56 -33 -53 69 -49 56 -7 116 -77 -119 46 -110 114 102 -95 22 88 -99 38 107 86 7 52 29 92 20 85 -111 -24 -4 6 -74 -87 -64 -77 81 8 -2 59 86 126 -20 -83 10 -32 113 57 38 5 -39 31 67 -67 62 113 45 -15 -35 98 83 12 -23 -11 -48 110 22 -32 -32 -64 -90 34 -28 -33 96 88 4 99 -119 114 21 -51 -113 -113 -127 -24 -4 76 34 80 70 -82 19 8 10 119 122 -118 58 37 -69 -98 113 -76 -115 -85 -100 -97 89 71 -30 -126 -13 -70 21 -122 -126 -83 51 -16 -123 -65 11 10 76 -122 -114 16 0 -20 54 111 77 0 -26 125 -49 95 71 15 90 84 56 105 44 35 66 -27 -58 -45 -73 73 49 -68 122 91 
-45 46 -107 95 -83 118 -32 -49 39 -68 70 38 119 -20 39 -51 -103 80 -25 -48 -44 77 9 -119 -7 82 46 -64 125 76 36 -57 -58 -10 -125 -91 -9 -121 14 74 25 79 62 -96 -42 -22 -86 -83 13 115 99 67 -85 125 -79 31 -116 -100 -74 -30 89 3 123 -83 74 89 84 -77 -114 24 23 24 -75 -30 -60 22 75 91 82 -100 -53 68 -11 -13 -99 60 110 -46 -87 -102 76 19 -77 45 -68 -79 47 -70 -115 -118 -83 86 -62 61 -70 122 71 102 -110 -69 -62 -75 2 -20 40 20 60 -10 -66 124 12 105 125 45 97 -41 -53 123 -124 -52 -72 -38 -125 82 -97 -2 21 1 -125 -76 38 -22 103 0 -39 56 42 -92 88 82 112 -8 5 90 -111 5 115 -71 -114 1 -33 -12 125 38 -25 110 77 -125 32 41 -109 -66 -103 72 -40 90 -4 104 123 -30 66 5 71 -13 65 72 54 -115 127 6 -121 76 -54 -34 83 65 -97 75 -52 -75 -24 -100 -95 74 -24 60 49 -2 71 7 107 52 92 -124 36 -116 122 -123 70 -24 -115 -99 116 -43 92 -120 111 -94 7 -50 -17 -97 -64 -10 118 94 107 88 18 77 -37 97 -59 103 11 -41 -87 -107 118 52 12 94 15 56 71 37 -15 -69 109 108 -111 106 16 51 104 89 -113 2 -118 -90 -80 -29 13 37 -65 23 -120 -23 -123 59 -55 96 21 109 32 -42 65 8 84 35 28 -71 -59 -64 -74 84 -3 93 -62 -69 -125 11 77 38 109 -34 47 120 -26 -43 38 85 80 118 66 -72 83 -115 -92 48 62 14 109 -100 47 -81 -46 -36 -39 -29 59 59 -80 -22 -53 78 63 127 -52 81 12 86 69 74 59 110 -45 62 -120 -121 70 58 74 11 34 -65 31 -78 -97 96 45 -14 27 11 -58 26 -101 32 100 32 -38 126 83 29 126 -124 29 -7 37 -41 24 52 49 7 -109 45 -118 24 91 13 -12 -26 37 21 -7 -90 74 -18 -16 31 55 -89 -8 -104 -121 -124 -60 69 104 30 -82 94 95 -77 88 -121 10 -112 -60 15 -59 100 78 94 18 70 -37 3 -122 -97 62 -66 37 121 -86 -124 100 119 -85 44 -29 -64 107 -55 7 20 -36 13 97 -62 5 -37 -2 67 -38 -74 99 -26 -30 37 30 96 -91 -61 11 -91 -28 9 -60 -12 8 -106 -98 -46 69 27 -5 -11 23 -16 58 126 -43 38 82 91 -71 -47 75 18 -77 37 -28 -69 107 -86 -5 57 -83 -62 119 -29 10 100 -101 -51 15 1 50 -55 109 -93 40 62 -95 -12 -9 -42 98 -107 -114 -90 -68 7 -16 -42 52 80 122 7 8 -40 39 21 118 73 -122 -73 -92 -67 83 51 -117 49 60 -113 -99 44 21 123 -46 -37 126 39 -72 14 -67 5 66 120 83 87 5 40 66 50 6 65 -50 20 105 -33 -123 123 -75 111 -70 -97 73 -28 52 23 69 -72 2 -104 -1 48 -82 -80 94 -109 23 -39 43 -55 108 0 11 14 43 31 77 24 126 96 11 -66 93 84 -122 -121 120 -34 2 53 42 11 127 -10 -12 125 -69 -42 -42 0 77 -68 -81 87 -3 24 35 -24 -36 104 6 -8 7 -122 7 71 101 87 70 -56 26 -5 -36 -30 4 31 -10 117 -79 -45 -12 -103 65 -76 -7 121 -26 -17 -86 -122 -78 52 -73 -51 14 79 32 90 -82 25 -32 108 -103 30 -57 -50 -84 115 4 -42 -78 33 70 -51 -108 106 28 97 14 43 -103 -118 -29 -84 -91 127 76 53 95 112 -23 6 117 41 112 -2 -27 -5 -120 -70 22 -48 -80 72 94 -35 -54 -120 32 -63 -111 93 -99 39 76 83 -113 85 -83 33 -64 26 -111 -26 52 -28 -55 -106 92 -112 51 4 53 -1 65 -18 -68 -38 2 -50 101 -89 97 43 22 6 120 14 -59 21 -69 61 16 -29 -95 -59 81 -108 -50 94 14 67 -43 -47 -55 0 118 33 76 -56 -41 -40 -17 -23 -14 81 119 15 -59 124 12 103 -90 -2 3 73 -124 91 -72 53 8 -79 122 40 -18 -30 124 -82 93 35 4 89 -68 -42 -19 -98 -36 -51 -67 112 104 -70 -87 -14 76 -43 -14 -61 -78 -20 75 -5 -17 6 114 -63 123 127 88 -49 -20 -21 -124 -61 3 -100 6 -103 -11 66 116 -112 30 29 -123 -78 -54 -73 63 -63 69 -96 -118 99 -91 77 88 -107 -19 -20 71 -95 -9 -107 -50 118 -62 3 -119 7 -58 77 -68 88 -11 102 -25 -68 34 95 3 -21 -95 32 -34 -69 -112 -29 -10 11 -73 -92 64 105 123 86 -27 -97 -98 27 115 -117 57 -81 6 -31 37 -91 105 -12 -14 -6 -53 118 -8 16 -125 -16 51 87 89 -56 -116 74 79 -7 -104 -9 -104 -121 87 -117 126 50 -11 -84 3 -22 -48 120 -116 122 -105 -122 -119 -71 103 77 6 27 32 4 -112 38 110 60 11 -113 -32 110 -10 74 52 -109 -65 -78 -52 31 -82 -10 50 102 -3 43 -62 37 -120 4 -1 6 -44 -110 60 -118 -74 -76 73 -12 -117 -104 -16 18 0 120 80 102 -1 16 22 -100 -27 1 123 -105 -121 -106 -75 33 
-118 -103 65 119 -19 -99 94 -48 -69 100 64 -70 -21 -101 93 -103 13 87 59 -26 52 17 2 -46 -91 7 39 -80 6 88 -112 -38 21 37 -90 43 -41 -72 -54 -72 54 1 -121 36 115 -99 -12 -58 35 -30 33 -25 21 -127 90 -76 -61 7 60 -61 115 -26 78 13 13 -18 66 -104 127 -60 -92 70 29 -104 -41 118 76 68 57 47 96 -40 -34 -12 -72 -17 101 21 77 53 107 50 107 -89 -36 70 -123 -9 79 -25 1 -41 -39 110 103 22 -53 -36 55 108 -5 -14 103 -97 -113 -94 6 64 1 35 -88 -89 -4 50 -78 71 1 30 -90 -113 62 -112 0 -27 -50 -40 -49 127 104 10 -103 79 69 84 -23 -37 -19 -98 -17 81 -37 -28 -124 -33 4 -113 -3 102 91 -104 -41 66 4 -80 -34 10 1 -9 103 102 -113 57 -29 94 -127 18 19 -66 -42 -85 9 10 76 124 -118 -17 -37 97 62 4 -80 -53 -46 -17 -13 -107 59 -30 26 29 -55 29 -74 68 -52 99 -15 -52 -26 -72 10 -112 117 71 -82 22 -82 -8 -91 9 111 -114 21 52 -15 95 120 -44 98 30 92 -121 86 110 111 1 103 -6 51 56 80 -79 -28 70 -51 -11 106 59 26 25 -33 -33 -94 -12 -32 -72 101 115 3 33 80 3 74 -114 -25 -106 97 15 -23 -33 109 18 19 -116 -4 -15 -61 0 120 -43 -23 122 -12 93 76 2 114 -21 -55 -123 72 -113 87 0 36 -94 89 11 13 120 -95 -94 75 79 16 7 -45 85 -71 10 52 -29 -107 89 0 125 2 125 110 -41 76 95 113 71 -110 81 -85 -126 105 76 -40 -76 -31 81 77 37 7 69 39 -56 105 -121 -11 -105 -16 -88 -106 -79 65 -116 65 -92 -45 -18 15 -21 46 -12 -98 91 121 82 27 -39 19 -88 -67 99 72 -39 -98 -15 -100 -13 105 61 -20 -76 114 -37 -40 -48 -89 -84 -120 109 97 -89 46 -92 91 55 -48 73 -80 19 -16 -39 82 44 -94 70 -105 31 -113 102 -124 65 76 -75 100 118 19 50 -102 106 -45 -75 96 38 26 -106 28 66 -32 -91 -81 69 -45 -23 56 40 108 21 -16 104 -43 60 53 -16 -7 119 -3 73 92 -127 123 17 -41 -82 97 -103 83 -60 -7 37 77 -77 22 103 54 126 -35 96 -26 1 -36 123 85 38 0 31 79 -62 94 99 -1 106 -126 73 -75 119 23 -116 70 -35 -92 -74 -10 -18 73 -84 -24 33 -38 -89 -113 48 10 -45 -14 -30 49 -41 50 96 -22 23 77 -125 121 -120 94 59 -115 -108 99 -88 106 68 51 -22 23 67 -76 71 111 -45 39 88 -118 -56 98 84 -9 -74 -104 89 32 104 -62 -65 -32 -15 4 110 -7 -46 76 56 107 99 94 43 91 -84 -7 90 -93 16 -30 123 -21 55 81 47 115 91 6 -97 108 -57 78 -52 -115 7 75 28 -36 83 -91 18 72 53 -46 112 -3 15 -109 10 25 -67 -39 22 -112 -80 82 -14 6 70 -75 -6 74 -82 1 -18 62 118 -65 -15 -75 -42 -73 74 -71 23 -57 61 8 73 -86 -61 -15 -51 109 -99 -63 -91 -31 60 122 62 -103 9 -31 57 -53 -27 16 38 44 76 25 -89 17 -27 -28 110 22 127 101 50 -55 -21 -87 -91 -117 124 101 13 -79 -35 13 15 -78 -100 91 67 -34 61 70 21 -3 124 -16 23 -14 -125 -27 -44 115 48 59 -114 83 -79 -108 -47 -41 15 118 71 -60 -66 8 -50 -125 72 13 -12 6 -16 -116 -34 -15 83 -55 122 -99 27 -20 -102 115 27 34 -32 -59 -118 64 75 97 -48 13 -68 -77 64 6 -54 82 21 5 56 -13 -69 123 68 -123 -15 1 -124 39 -75 -113 122 18 -119 -51 -117 81 -102 124 68 -97 97 79 -105 84 -2 -52 -20 -57 -114 103 108 -75 116 -98 -106 -43 122 -92 -54 -69 -60 61 43 27 70 22 67 70 100 61 122 -109 54 -80 -115 -26 -35 38 124 96 -116 103 -3 105 42 -47 20 29 65 35 120 54 -39 -56 -102 71 -16 121 34 65 69 57 -101 23 -114 24 57 120 -125 -118 -107 70 -10 14 -74 90 78 110 5 -4 -17 -84 -80 82 38 95 16 -122 -83 -101 99 -111 114 93 -3 -20 89 68 -5 72 -57 1 78 41 25 24 44 97 122 21 97 -117 20 122 -96 89 -52 5 113 -95 14 -17 -114 42 -40 107 -19 38 2 -96 -9 97 1 53 -36 68 65 110 108 106 -78 4 71 45 -63 -57 91 2 43 67 66 -117 122 64 100 -123 -118 -5 -13 125 -64 -77 73 -86 114 123 -61 108 113 15 15 -85 25 -117 2 -87 54 -52 51 -101 -36 41 -80 73 -78 -65 30 116 22 -51 89 77 -92 64 -19 116 67 18 78 -115 -101 -64 22 -68 -53 -108 -23 6 -68 100 -92 -9 35 62 91 -82 87 62 -111 86 -48 -118 51 -112 45 116 6 17 -52 -55 125 57 75 -110 -46 25 100 107 -12 118 80 8 -104 -87 -6 -58 -122 -51 -71 -95 123 53 -5 107 54 2 -48 91 -86 46 -34 112 40 -44 108 -43 -82 70 89 15 -81 
-41 22 99 -34 -103 15 69 99 -39 37 -88 75 -121 -27 58 -98 117 115 -57 -105 -82 -98 65 25 27 32 17 -10 95 42 -64 126 65 -3 52 97 124 -73 76 -19 -81 -11 54 -118 79 -12 56 118 91 57 115 54 106 97 -35 -61 -76 -48 65 55 33 53 -111 97 -85 -72 -84 67 -72 -65 106 -42 -53 -118 -96 58 38 74 92 70 0 -22 41 -3 -99 -74 -118 -36 80 107 -75 126 50 89 56 32 -100 82 -17 49 29 119 98 2 7 14 -70 -58 97 -35 12 -7 -12 98 54 26 90 -13 -37 55 -100 94 -9 72 64 37 109 -30 -20 25 103 -10 54 29 95 94 -104 -94 67 -123 -97 71 -69 48 -39 126 -112 74 93 122 30 18 -56 -74 -109 91 -97 71 -26 15 -19 68 -105 105 99 16 76 6 117 -99 38 -50 -23 -84 119 -125 89 81 -75 20 -28 45 39 -61 -119 32 114 -125 75 71 -101 3 -106 97 43 114 52 -35 61 70 47 -44 103 101 -126 110 -75 118 -25 70 -117 -68 65 -48 81 40 -38 3 -61 23 7 -31 -101 -2 -107 -60 35 43 1 111 -58 20 -113 -58 -39 29 12 -27 -110 -21 -109 -32 -75 84 -14 -17 7 49 20 23 49 85 -24 66 -115 -46 -32 -94 97 -61 82 -117 -104 -9 -93 51 58 119 10 99 -65 -32 -123 -44 -4 -26 -99 -25 21 -91 -104 106 29 -34 30 81 90 -27 -75 -85 95 55 -92 -123 -54 -11 -82 -37 -106 34 -37 38 -31 -71 -36 -15 -76 29 -46 -22 0 -20 43 123 -9 100 0 -74 80 31 -104 42 -50 -86 7 39 62 55 99 121 -37 40 41 -85 88 -88 12 79 78 37 124 -107 -44 65 -39 18 -1 15 85 -38 -82 93 -99 62 -7 92 -67 -103 -71 68 -110 -98 88 -39 -32 82 -118 -55 -50 -71 124 1 127 103 72 -41 -39 94 46 73 -79 -31 34 37 -50 -73 -16 -125 119 13 96 -97 3 -23 -5 1 2 57 86 -103 103 5 36 -86 16 44 -26 70 14 -15 -24 6 50 -79 11 110 -105 -101 -114 61 4 -81 -8 109 -58 -74 27 84 -115 -64 -79 -49 115 -103 -99 4 16 19 23 79 -58 -124 103 106 81 -95 -28 10 96 53 -15 -96 -112 -32 -63 39 47 54 10 -3 -67 35 -56 -2 20 110 72 -58 -118 59 -117 -73 -102 -43 -6 80 64 -89 -79 -83 8 -76 -63 82 32 -86 -6 -77 -93 -89 51 -66 -94 -112 -116 -54 -92 -127 49 -10 70 -66 19 -84 -92 99 -126 77 99 -69 69 -53 113 98 -110 -108 91 69 -24 112 20 105 39 78 -109 100 -7 -115 -96 -95 30 24 -104 95 109 -79 41 -63 18 -24 -66 17 -91 49 -101 12 22 63 -125 -122 27 102 -76 -61 -21 122 79 46 -40 -4 74 108 -99 -111 40 47 94 -19 112 -30 -78 -28 -82 -36 27 -51 -18 -41 115 -51 -33 118 108 -77 15 110 8 119 -10 46 4 98 82 -109 83 -79 64 -66 62 -7 110 -85 32 -62 55 2 -44 97 30 -75 -117 72 117 52 11 49 -95 -49 66 32 -101 -53 -64 -108 60 -65 -21 -18 28 -59 2 -79 28 -111 -13 110 62 -32 -52 45 -95 74 62 78 40 -50 -6 -18 115 61 12 -89 -108 -93 -85 108 -7 -112 -16 -95 9 25 124 -71 -2 -76 124 29 -79 23 93 78 32 -72 -125 13 -54 48 -91 -56 -17 -17 126 -110 99 79 41 -31 -6 -79 121 53 -111 79 14 127 97 14 24 121 -48 50 -11 113 -49 38 -62 -95 -100 -23 105 -90 95 -14 -78 -45 -42 117 -83 -42 11 -109 -62 21 63 59 17 -50 43 -41 126 -109 -42 8 -77 -34 -120 -64 45 108 22 89 62 117 -70 -53 -118 51 32 -89 43 -31 83 57 -28 -92 -65 -52 -89 66 103 48 -7 -21 38 -25 -28 -26 -102 96 23 -42 -115 -89 -96 -66 81 -4 103 -16 -74 -113 25 29 -43 -26 103 21 -32 -13 -118 -22 72 -40 43 -106 -103 41 -16 -32 81 61 75 107 6 91 -21 -102 17 42 30 29 -79 -94 -17 -3 120 -92 -117 43 -8 -114 -96 37 41 -116 -120 11 110 73 -60 -7 110 121 -77 -85 73 -81 -82 12 39 -31 -52 -125 59 25 2 -57 41 -42 109 109 -18 48 -121 100 -87 -111 -47 2 -10 -38 31 -62 -16 106 -56 -97 -62 74 -108 -68 0 96 -117 -7 -104 86 -82 -12 80 30 -84 -85 32 111 6 -116 -44 -12 -13 46 -35 58 -71 113 94 117 42 -70 51 105 -71 -113 -108 -113 -102 119 -20 26 2 123 -96 63 -114 63 -127 86 -54 -36 122 67 -108 106 18 50 125 -27 -8 -106 -110 -48 117 75 -12 -123 79 111 82 -88 -14 -31 -23 -103 -121 -112 59 -33 81 125 71 20 98 105 -65 43 -103 -108 32 61 -114 -44 53 -76 20 22 125 -72 14 -90 -37 -84 84 -106 125 28 81 -63 -50 -14 -8 80 118 21 -32 -125 127 -49 13 -54 92 38 -118 40 -4 -19 32 -98 -7 -126 -43 -75 99 -58 -40 17 -104 -22 46 76 -10 -15 -66 -37 64 -38 14 -108 91 122 -8 -122 -13 -8 
124 -68 84 -37 -105 2 113 -42 -16 61 -116 113 -70 -81 10 -10 65 -113 -108 -35 -8 91 91 35 -56 -105 55 15 110 111 98 124 111 -68 23 -113 0 59 31 118 -92 36 41 -37 -21 -30 98 -29 -124 -116 -78 88 -84 122 -70 -75 -40 12 -60 -42 -68 126 -24 73 -64 -2 91 -108 80 104 112 -11 33 42 31 46 115 -74 97 39 45 13 -37 115 -119 74 69 74 -102 92 -117 71 -114 10 37 -126 12 -3 15 85 -94 77 -47 88 119 113 39 -113 -17 88 37 -43 17 -2 26 -76 -121 31 -102 6 103 -77 41 46 61 112 -71 104 -79 -19 9 80 -7 -75 104 -103 -15 16 -96 -50 88 27 103 106 53 -106 -30 1 -6 79 -81 -32 -127 -110 122 -122 -75 -124 96 -113 119 -4 25 8 109 54 -79 -60 -40 -104 -72 64 92 68 -37 10 100 23 94 -117 -31 -70 105 111 88 -123 121 -12 27 -84 -125 51 5 117 72 126 56 -42 -125 57 -105 -51 -109 -4 98 -83 72 54 10 9 125 -114 -24 103 81 -5 24 74 -41 -45 57 95 -80 121 -37 52 -63 -122 104 -38 -123 -11 0 97 -68 -95 30 -51 -4 91 -41 37 -119 -93 64 4 -85 -11 -3 -111 -90 -105 9 42 -9 -112 -84 -11 23 82 -14 52 -115 -25 77 30 -57 -57 14 -64 44 -97 16 -82 66 47 -51 68 -39 -95 -99 47 94 -101 11 54 -68 69 -126 4 112 -55 9 -23 116 6 -115 10 110 -31 3 -63 26 7 -29 -8 -46 -123 124 109 -71 79 15 30 48 24 106 67 -90 -24 120 125 -90 -35 45 62 -11 -10 35 84 -92 -122 76 51 126 -65 61 -112 -29 112 38 -29 -127 122 -82 -70 -123 110 -108 -81 -11 -52 40 -19 -7 -89 109 37 24 52 -67 -87 77 -6 101 3 -74 -39 -31 -100 94 83 -77 84 102 -88 7 -97 29 76 124 110 54 25 -49 -76 -89 -33 -48 2 45 12 -43 -93 -50 49 -12 -3 103 -34 64 -46 57 65 87 -121 -102 -102 96 -30 23 66 -3 -72 -85 105 -66 95 22 116 -114 -77 -62 96 120 -34 -32 -9 -20 35 80 -115 -83 -114 -26 -7 -31 -55 54 84 -7 28 -61 -86 -96 83 52 -24 -117 -56 -120 -31 -70 -84 109 -10 -119 -18 127 -47 -96 -46 84 100 -73 14 10 50 63 126 30 -83 -75 -36 -65 61 -102 116 -2 84 120 -12 -37 -34 65 70 105 -4 73 -27 7 0 82 -70 53 -74 -10 -59 -92 51 -28 8 -56 48 -22 -4 -9 45 -37 72 -23 -5 -80 38 -14 17 -95 37 1 120 -74 106 -56 94 19 -98 -98 -57 87 -47 1 -38 31 -77 -71 -54 -3 -38 -124 25 95 -101 -50 -67 107 -59 -21 -108 44 -26 39 -81 -96 -58 66 20 70 114 -84 90 -87 -43 -19 -28 -41 -100 71 72 94 112 56 -18 -15 -67 80 92 0 25 110 52 -29 -70 22 38 -84 23 13 -30 -56 -84 16 97 -58 75 -44 -67 96 -46 8 -91 41 -124 37 -5 55 -8 -5 -84 84 40 19 -13 -114 63 -116 77 83 123 18 59 -7 -27 -66 -82 -50 -114 -22 109 -62 -84 -67 -80 -50 -69 -92 -103 -42 -118 119 -27 77 81 -103 11 38 -4 2 107 66 -75 52 -89 24 35 -101 -97 55 -72 -17 -19 -19 43 -28 -54 13 116 17 -105 -60 -9 -76 -37 10 38 46 -89 7 87 83 88 -63 -56 -18 -52 95 43 72 117 -9 -5 61 2 -15 92 103 -122 -59 65 17 -95 15 99 2 -85 121 -24 -21 -109 -98 94 32 95 34 -126 -124 -80 116 22 62 15 93 107 -96 -28 30 18 29 -121 79 122 104 -64 -60 2 -113 -30 -110 36 -18 109 32 116 39 38 33 -23 119 -72 40 20 115 -20 111 122 -11 -32 102 91 41 85 -67 6 -88 -84 -43 51 111 60 34 -64 44 -53 -52 -31 -53 11 -4 -101 60 88 -36 -79 -94 93 -127 -27 56 -60 112 24 -100 82 81 -21 -36 10 -47 92 -4 91 108 84 111 -103 107 -58 -98 103 -106 89 -7 12 -33 122 -36 -101 66 -104 49 127 15 56 11 -91 -96 -5 79 0 71 -57 85 -47 28 -67 104 -69 -36 -97 -82 117 -83 -11 66 -113 -26 -124 -14 -8 -48 -68 7 81 32 35 15 89 105 -127 55 86 92 -89 110 78 -47 106 -10 -95 -77 34 -21 -22 75 52 112 -100 -27 110 -69 11 -29 -115 -6 -108 38 29 7 -104 117 70 40 -122 81 108 -12 71 -108 -31 -90 76 64 34 -19 30 -97 -101 -8 -116 39 -45 82 14 -81 -127 21 -48 27 56 57 -107 43 124 104 -43 91 -117 -34 12 -77 116 101 2 -64 102 91 94 120 -112 -68 63 -117 51 -36 -84 -63 93 53 -107 -10 23 -33 19 8 -41 -81 -119 26 28 -90 -61 50 20 53 -27 72 -83 -36 118 -69 112 3 -35 39 -23 14 -81 32 -18 -49 -44 61 111 -29 92 68 -36 -49 -56 -112 -84 55 82 -106 121 -96 -3 77 -61 9 -116 76 -29 -91 -122 -103 -14 58 59 91 -121 -118 -100 -56 115 21 106 116 -44 -10 -65 -26 -38 113 -28 
60 41 88 -30 -15 -94 119 12 -24 -37 -67 116 -51 -28 13 -44 -110 -78 64 51 -58 117 77 -70 73 -70 127 116 -95 120 105 74 54 6 -26 9 -80 -93 -124 4 -8 -62 45 -113 -10 107 125 75 44 56 -54 -126 100 85 80 -23 -37 6 -116 70 -83 -65 -86 -86 -9 90 -111 -16 54 -121 70 94 80 127 -125 -102 -1 53 -16 18 -93 124 -21 48 -11 -75 -39 -71 126 26 -107 -38 0 63 31 -45 36 59 8 75 -93 -118 -114 -101 -91 27 -28 -126 -73 74 108 -85 -16 111 36 -94 -90 111 99 -102 0 -117 89 -38 10 116 -107 -1 -12 30 67 -43 -124 9 102 105 102 30 4 107 -111 -46 77 -112 24 6 -45 -54 -99 -71 74 -1 -77 -111 -59 -25 7 -59 -57 -101 58 -49 -88 16 -42 55 -19 25 -54 85 30 93 105 79 59 49 -30 2 114 56 -8 -28 55 124 -2 -50 -38 120 -82 -71 118 -55 -54 -88 -31 -18 -116 9 -23 118 4 0 -78 -34 49 115 -92 51 -2 19 -104 104 103 68 23 80 27 -78 6 10 -107 -32 -35 -109 113 -96 109 75 73 -59 -63 25 -17 -122 82 97 125 -61 -94 -104 11 118 -37 12 -90 9 101 -3 109 72 9 -121 -121 -28 1 107 51 3 68 23 122 -95 102 78 68 -95 -12 62 44 -91 -14 -92 80 13 13 85 66 -24 -77 36 88 121 84 -10 -102 103 94 115 -120 80 115 17 78 -53 -6 41 -113 -44 87 -75 108 81 125 -73 -28 105 48 67 12 -28 -74 -68 -14 59 -5 -15 -116 0 -107 -96 55 47 -6 27 47 103 68 43 56 -22 -122 -123 68 73 -98 -84 -48 -124 81 110 -118 -69 -123 -78 -23 23 125 -40 21 127 126 -38 26 123 31 54 -103 -50 -84 -49 -67 28 -58 52 -47 51 26 81 -88 80 -60 -95 -100 66 59 115 -7 53 91 110 34 -19 118 -53 58 -84 49 127 33 -69 127 -125 126 54 60 -77 53 -117 0 56 108 -91 -65 19 80 -30 90 -20 -18 -60 -10 106 -111 -50 123 -8 -42 -124 -90 102 -82 -32 52 119 -55 89 -74 -16 -90 125 -124 123 4 -20 116 12 -114 -83 -106 -42 -96 -25 83 70 112 71 18 -42 -29 19 80 96 109 41 77 105 62 83 72 -13 48 21 39 -11 -88 4 -80 -74 -102 94 55 -75 -63 -17 -103 75 29 70 -14 105 121 -66 50 126 -108 -13 62 106 89 -44 -103 -106 -13 5 -14 -105 -92 7 -28 29 -46 -8 -3 117 36 -34 27 21 -30 -96 -95 -116 -70 77 -78 -14 121 98 -54 65 -15 27 69 58 57 22 16 -85 0 -52 -58 6 -52 8 115 -124 -14 30 -97 46 47 112 17 -99 -55 24 -106 19 50 -61 82 -36 61 -105 104 114 81 29 52 -7 37 110 39 -71 9 65 84 -56 -122 -58 91 115 40 106 22 -98 51 46 100 25 -79 56 -34 62 75 83 110 -82 123 8 107 -10 -84 -20 95 -68 -69 114 -110 -62 -15 -126 42 34 60 45 -87 -115 -7 59 87 -111 21 68 117 66 106 76 104 -8 70 -86 17 -125 -105 112 79 111 -102 28 122 -46 31 118 -6 -73 -37 39 -97 -98 -66 -5 32 -31 101 15 -47 -100 -46 -107 -40 -56 51 100 37 -69 47 59 -92 -25 121 -95 31 74 -32 -115 35 32 -2 65 5 -79 -11 45 105 39 -115 59 -5 -79 68 61 91 123 -11 18 117 35 59 65 -94 -126 -77 9 -114 -71 -34 -76 15 -107 -9 -114 19 -71 121 -101 -5 -75 -29 113 -122 106 119 -117 -58 -82 63 47 -84 -47 62 17 97 66 1 77 5 17 88 -94 123 -23 57 100 -122 127 0 61 88 -109 79 -7 73 -75 121 -88 -63 91 52 59 -99 43 -82 126 -5 -117 11 35 -70 109 87 110 44 -29 -101 -68 -52 82 70 108 5 -56 47 -115 86 -60 -63 5 -78 -109 15 -22 -74 41 -27 40 48 48 47 125 -35 23 -4 34 107 -63 123 -112 92 -12 -115 -79 -94 115 77 -103 -94 97 -95 -54 -35 -19 -39 70 64 90 92 47 122 45 34 31 64 29 24 -29 44 -22 107 -12 81 30 -56 79 -83 -114 -32 -11 72 -60 118 -125 -101 60 76 96 -11 104 -19 -73 -20 -11 -5 -56 -106 -125 -66 -89 -49 -98 83 4 21 -32 -3 2 -83 -11 -68 47 97 -81 -19 37 -56 -120 10 -120 -38 112 -29 -9 96 50 51 65 13 -111 -107 121 -109 38 -100 -122 -114 -117 110 0 65 27 -64 -66 2 -4 -40 113 -114 109 -117 -52 33 81 6 117 82 -44 29 11 -50 118 -4 59 69 -29 25 -110 63 -34 118 62 46 -94 80 15 100 97 74 97 54 6 -77 112 -80 -4 -75 -113 -90 91 -43 -52 -58 -21 -38 44 -43 18 98 121 -95 -125 57 16 -29 -110 8 -26 72 33 106 89 122 -20 -104 80 -85 -110 48 -104 110 -122 62 127 11 108 -63 105 -99 34 -94 31 15 -119 -93 71 -27 105 -10 41 -86 66 60 2 -37 -53 -5 121 -51 -38 31 12 6 124 -97 108 -91 9 112 102 -71 66 -72 64 90 -59 
-76 -42 -82 18 45 60 -82 -10 102 -18 -81 114 7 28 56 -85 102 54 18 55 126 9 36 16 31 6 -23 12 -42 -117 -69 -39 -49 29 85 125 -43 -111 -43 3 127 -94 55 -68 -11 -37 43 66 -27 45 126 -26 -71 79 -87 -48 62 -105 63 125 90 -68 53 -86 -123 -7 -36 -83 43 85 -69 -119 41 36 69 -99 -43 -16 64 -73 -11 -45 -83 62 58 49 109 -48 -79 -19 -11 -56 52 -28 -41 -63 -126 80 -14 -41 -11 -100 -113 -88 -36 46 -89 -109 -114 121 -100 -73 101 -111 104 70 -1 75 22 8 15 83 52 90 121 75 -115 -122 -37 110 126 -15 8 -76 -19 118 -44 44 61 86 49 -105 5 12 -69 4 31 74 -61 32 -42 -94 -50 93 -68 127 -23 -126 90 -18 27 -7 -68 3 113 65 -4 24 -89 72 30 -29 111 -66 126 -122 81 -25 -63 65 -63 54 -68 78 96 -117 -89 -30 -90 65 -78 -9 -33 -41 34 125 -105 -83 25 55 18 82 27 -77 21 -124 4 -29 6 44 114 114 -32 88 99 115 -111 24 42 108 68 127 -28 -67 -115 -127 -70 -95 97 0 119 0 104 -62 49 -112 38 -30 -46 -87 81 -71 38 -17 124 117 91 44 -62 39 -18 -95 54 126 -87 -119 38 8 73 -80 5 113 42 20 49 -98 -100 33 -84 63 -74 80 90 37 89 82 -14 106 -127 -51 -70 96 -19 -12 21 -102 3 -57 -99 -80 -46 -11 -85 24 -102 41 -30 -17 78 54 -81 -28 67 -105 -78 -112 -19 -32 -57 12 35 31 84 -41 -24 47 -98 88 -49 34 38 3 -88 11 52 78 17 106 124 -86 -103 26 -79 -49 -79 125 109 -60 -125 112 82 -18 -26 115 -44 41 -101 12 127 17 -124 -5 -91 115 74 23 -87 121 -12 17 -34 -28 82 -121 41 71 -115 63 -20 -113 76 115 52 -62 70 -70 9 -18 71 83 79 -38 -48 56 51 70 40 -27 103 112 47 55 121 -79 -91 -71 -34 -78 -71 -45 -108 9 87 -70 -107 82 122 -11 38 122 92 3 10 -65 -90 64 38 -84 84 -46 -9 104 -48 85 -37 -69 -40 -60 -51 126 -113 71 127 96 -51 -79 -60 21 -62 84 -70 -121 54 1 115 95 16 17 5 115 58 9 12 -57 55 3 123 87 -16 -16 115 84 36 -126 -31 83 -51 2 -74 49 -108 90 6 74 -26 -39 34 -45 98 -12 -64 86 82 -101 45 118 102 88 -79 101 -53 68 126 98 67 -35 18 -123 113 -100 39 42 -116 78 97 82 -55 39 28 -108 4 -49 113 -58 93 -105 65 61 -112 63 25 -72 -60 -104 63 114 -68 -15 -121 -77 -12 -115 10 44 -57 -80 -92 14 -107 -69 -16 -52 28 25 61 -89 -26 14 44 -125 -59 -66 -47 31 31 -91 -119 113 -34 98 83 90 -18 109 92 39 113 -82 77 47 41 -54 -89 42 -16 -56 113 -121 72 106 -86 11 -76 61 28 2 124 -85 117 -108 37 -94 66 17 -17 96 26 -6 71 72 -47 14 -20 -41 46 81 51 26 -42 -51 -18 112 122 -30 37 -14 -73 -36 126 -2 52 -73 122 -66 -35 -111 -60 -125 -43 -43 19 47 -12 91 -102 34 49 95 -117 -114 115 37 -38 94 -108 30 -58 98 -32 -3 55 66 -92 -43 -67 -92 9 9 27 -49 -118 46 -109 -21 95 -88 -81 64 121 79 -25 82 -62 -1 -95 -20 67 -79 67 -30 -59 -113 84 12 -40 125 -86 -25 -31 -98 -124 -6 69 104 -37 -34 27 65 50 -61 -48 -54 114 -23 126 -102 -92 -99 -69 12 44 98 -96 58 -86 98 0 40 115 117 -116 1 67 -109 -101 89 -57 -58 93 1 -78 55 82 24 -78 72 112 46 72 64 -41 120 -119 95 120 -69 40 77 -24 -127 -23 -14 -48 81 31 -9 52 -111 11 112 30 -122 -50 47 -122 -124 86 70 26 -3 98 108 -11 -7 -15 78 -125 -22 81 82 92 3 114 85 -115 49 7 -25 84 -97 -9 -63 -87 114 57 -48 55 40 -55 54 -31 64 2 112 -120 -3 -6 37 96 -1 -97 81 -27 11 -49 122 -21 29 22 -106 33 114 -125 -2 99 80 -1 -127 33 47 -97 -112 106 -3 -56 91 -35 71 -78 -35 -21 -82 55 -34 55 72 -127 89 90 -25 95 -55 -3 28 0 9 -65 40 -27 7 -113 -103 -13 -76 -11 -84 92 -114 -68 -90 -57 4 46 -105 118 127 126 -117 -16 -10 -120 -63 -3 117 -119 -26 -55 91 41 71 -75 4 57 36 127 65 71 94 -53 98 -76 -65 40 38 6 -21 32 48 -37 -21 104 -30 -63 -48 -21 58 75 24 -90 38 91 -52 98 101 -3 -90 37 -115 7 100 30 -114 8 -56 6 26 -114 12 -124 7 69 -112 -96 -45 -16 5 -98 120 9 -35 82 76 117 121 113 -13 -1 70 28 116 85 -36 120 76 -13 -90 -84 -116 -29 90 27 96 -30 -32 118 -60 -66 61 -80 73 3 -83 1 -121 57 68 65 49 70 113 71 69 -72 95 -55 -116 -8 -96 -107 -120 117 84 -47 8 -102 -11 113 -16 -16 32 86 77 -58 -12 -105 25 110 75 29 -118 51 -48 71 -57 
47 114 85 -68 73 -122 67 80 -93 1 121 -43 -57 -22 -88 48 111 -97 73 -56 25 -104 47 51 -47 -119 -102 108 -59 31 64 -58 54 3 112 38 -121 -98 -8 -122 31 122 109 71 -92 89 79 119 -94 -42 -94 68 -2 -98 104 126 -21 77 -35 -104 -48 95 -94 -15 -102 119 99 -119 0 -9 -108 16 85 25 -87 52 -69 -127 -84 -68 -70 -18 -123 7 107 -18 118 30 127 -36 -35 -29 -45 -35 42 -69 49 -29 -117 8 -36 93 16 100 15 -100 -97 -77 -76 -60 -50 59 -117 108 -82 63 102 49 98 29 7 13 -75 47 -25 -74 77 -63 -68 -63 -51 -41 123 31 -85 -59 -93 -17 53 87 45 55 -88 53 -26 75 121 100 -86 114 -97 -90 122 -89 57 -26 89 68 76 -24 36 21 68 8 92 35 93 -24 -16 -64 118 66 111 -47 -35 -125 -26 -75 -4 -12 -39 -116 58 -65 9 -20 -49 100 94 91 60 -111 59 -96 122 -102 -104 -104 -48 43 -114 87 -10 45 9 25 -86 -75 45 28 58 -2 94 42 28 46 24 -9 -94 -89 -60 13 75 -117 -30 97 -93 -51 -6 -120 -98 41 -123 85 46 -61 -81 111 -96 -87 65 -83 -127 -29 -110 21 -25 -15 71 -69 110 -110 88 41 -48 53 -52 2 69 -27 -77 126 85 -78 33 101 112 -32 -87 30 6 52 -111 36 6 -41 -93 -73 107 -6 114 55 -119 -77 -50 -109 58 80 48 17 28 -6 -116 -31 -65 43 11 -95 30 89 47 68 -28 -112 -122 -26 -9 112 40 67 -79 -37 23 -86 63 -106 114 -113 -4 -92 -107 -77 39 -19 91 -26 62 22 -94 -72 96 -70 36 3 25 48 -4 66 -71 -34 92 23 84 73 124 -73 -87 -24 -119 23 -35 -64 84 102 -89 -118 57 -98 37 -119 28 32 119 -17 -35 -49 19 -17 116 91 -93 -79 95 -127 -34 -119 116 105 -59 -86 -90 56 35 -38 -116 109 92 51 13 87 -111 85 42 41 30 58 109 -1 -23 -32 -111 -65 -113 30 93 34 50 106 -37 -4 -49 -20 -19 -121 4 -63 40 28 110 -26 39 -30 -7 113 -104 -19 -73 88 -26 -76 -112 29 -42 20 -64 77 -8 -5 88 20 115 -54 75 21 -10 -39 -105 -32 -44 65 113 35 -73 6 -32 42 -91 70 -42 -126 -53 66 -10 -31 -68 -90 -65 -89 56 -3 96 66 51 -112 36 113 43 -117 66 126 -71 93 27 -24 -43 -60 -4 50 -90 -87 -125 19 17 -79 -43 116 66 -94 -34 -121 79 -39 70 81 26 -21 -12 15 5 62 -13 47 -75 -70 -21 -47 96 -9 90 113 74 108 82 88 9 105 -89 -104 -29 -22 122 -30 -98 -82 110 -122 19 -122 33 17 -89 -19 -90 -95 -20 105 16 110 99 -69 -2 100 63 -1 -13 -57 -120 -119 46 -127 -62 -22 -36 -41 -87 -16 -81 -64 -101 43 -74 115 -60 -1 118 14 15 47 -118 -24 -113 -118 96 89 17 -120 82 110 -5 29 123 -109 -98 84 -89 -37 115 -47 62 53 -59 44 -9 92 124 -50 0 -111 3 -55 86 -34 -96 121 -103 12 -110 -17 -84 -67 68 18 53 75 -60 -125 -18 111 35 -103 92 9 63 -59 48 20 38 -84 36 2 -120 41 -18 86 -97 22 -19 -118 -42 -104 38 -66 44 7 -65 89 -35 9 122 -68 88 79 46 1 41 -47 81 104 -4 -1 -66 95 -43 -83 -6 -29 -110 -114 61 -24 52 -92 -4 42 -58 36 122 26 -53 9 -15 -102 -22 19 120 -26 26 83 -52 32 -12 -117 18 124 19 -23 -27 -48 35 22 -120 99 34 -104 111 -7 -70 35 64 -46 -120 76 96 58 65 116 -107 -47 -113 65 -33 15 90 -3 96 123 62 -72 -125 77 8 53 85 -25 -34 17 57 17 -116 94 122 -106 59 -124 -47 -39 5 110 -70 13 -12 -30 -40 21 -9 3 50 62 -46 113 75 114 102 -85 5 -96 54 -3 44 -71 43 59 32 81 42 -56 37 -55 118 -109 -68 58 40 29 17 19 -126 102 -107 -91 80 107 -90 -79 37 40 -1 -105 -32 43 -54 -120 108 -95 -126 90 120 -9 77 33 122 -42 -36 -8 -25 -32 33 26 124 56 93 55 95 54 -79 52 -53 105 57 15 -57 49 -13 -93 12 -109 78 -70 110 -119 -27 119 -25 58 71 94 94 54 55 -103 -72 0 113 -24 -27 43 127 -107 35 -99 -56 124 -24 -59 31 103 -75 -57 101 -57 41 29 -66 89 96 34 -71 -31 92 70 115 -51 -99 -62 -28 81 29 122 -3 -82 -90 72 -36 89 95 46 -81 99 -95 -18 17 29 91 59 91 79 100 -121 -59 -45 103 55 -2 115 71 75 47 42 11 16 100 59 -106 105 -57 -125 113 106 -75 -62 -52 -49 106 -44 64 -59 -64 -101 -74 -79 54 -44 91 44 69 0 111 -66 99 -116 -68 102 15 104 -115 32 14 -71 -80 70 -19 49 74 9 -100 20 66 -41 -123 -119 -117 -76 62 -43 89 -85 -28 -86 34 -27 15 96 -118 64 27 122 59 -116 52 -82 -22 43 39 -77 103 -65 -68 41 32 8 117 65 -45 125 -1 -64 -106 -31 -11 -79 40 22 127 -69 
-96 101 -99 -88 124 -35 -88 -99 -30 -59 72 -16 -107 -118 81 -52 71 -40 -6 70 109 -126 -47 -54 -79 -123 48 -85 -59 62 48 -57 -34 -69 37 -108 -103 66 -63 -110 -102 -16 98 45 -113 123 -6 16 14 100 68 15 -60 -79 -34 -91 84 -86 73 74 5 -68 27 125 -43 -1 89 -106 -36 -40 -80 -75 103 -17 37 23 83 -2 71 -3 60 92 -16 -123 -84 -100 51 71 -112 117 22 29 -78 -89 -39 -25 -33 105 -12 -121 -18 -85 5 -75 52 6 -127 6 87 57 116 115 96 120 110 -104 -101 -68 -33 40 -125 108 76 -51 66 -8 13 124 112 41 -15 -25 114 -74 58 93 111 -126 14 26 -42 -25 1 94 19 74 91 -49 -117 -103 -95 86 67 117 -65 27 -104 -57 12 -23 -34 -109 114 -31 -37 -112 46 87 88 116 -10 39 -17 56 -108 125 -3 -12 -33 -60 25 -90 89 -11 41 36 71 118 103 75 -52 101 25 52 0 8 -1 108 56 -84 -4 69 -50 -25 -59 87 -19 41 50 67 -112 83 33 67 94 40 -90 -26 113 -73 -126 92 104 93 84 16 96 30 -39 15 -31 -51 1 -112 -99 98 -9 50 -8 -24 -65 16 109 123 -98 35 95 19 -72 55 -62 8 87 126 26 115 -7 -68 115 43 62 116 73 50 64 122 17 25 43 50 -35 -113 -38 21 8 66 2 108 -17 -22 -56 24 13 93 -87 64 -93 0 -111 57 62 9 2 -3 23 -122 43 97 -60 -51 -6 23 51 116 -28 82 43 30 -7 78 -125 83 -93 -43 72 7 110 20 92 -77 32 81 -80 -106 -48 -35 -4 112 -72 -54 -23 -86 72 27 103 109 85 56 28 27 50 -57 47 -1 -118 10 97 44 -107 18 -26 81 -64 -45 55 -96 87 7 -67 -85 -29 -29 -115 -20 -60 -43 -40 22 94 -97 -124 -55 -113 -119 -20 119 54 -101 69 -69 -13 -108 -49 30 -122 -118 -24 -6 -9 124 -56 28 98 -85 -96 -28 42 70 41 -23 -78 11 -122 -121 27 20 -83 41 -83 -39 1 64 -89 12 -36 102 -66 108 -90 -36 -95 -26 114 64 6 -81 80 -33 9 87 127 -67 -37 102 97 48 66 -112 -41 -43 -48 -105 73 -125 41 -30 -2 34 62 -66 -49 -107 34 53 119 -91 -86 -24 47 -97 83 -35 -3 -122 -122 113 -2 46 92 102 -10 55 96 105 -12 71 106 -42 -92 119 115 -51 92 122 123 27 37 -79 -111 58 17 103 58 -28 61 -86 -74 59 -88 26 -54 101 -40 75 -48 -24 27 -57 -64 47 -2 -4 16 75 -74 -80 82 -124 45 56 127 -124 -127 43 -110 -35 -117 -69 -95 -81 7 122 -43 -108 -67 -65 108 3 53 15 -88 -65 65 -107 75 69 -122 123 -99 26 20 18 62 91 16 -122 -42 -24 -27 -19 42 77 102 99 -40 -67 47 -101 -100 -21 107 -51 -27 89 104 -119 48 118 -102 -106 -46 -50 -16 -41 91 95 -27 121 28 -12 -24 103 -25 125 119 113 85 -48 106 24 -98 -36 -93 -2 108 96 10 -28 -55 87 -57 -120 -62 110 93 94 55 4 -3 -62 -32 -105 111 -127 6 -15 7 -22 10 19 -18 83 20 101 109 73 78 83 17 76 119 -7 83 67 82 -54 58 25 82 55 24 19 -56 -45 70 63 62 89 6 -37 -54 123 118 57 -10 2 55 -15 -126 -108 119 -107 -27 36 -114 -91 76 86 -42 -94 -54 -69 -40 -58 -108 -102 -123 -1 -35 103 -7 -44 29 43 -110 -9 -4 55 -5 -21 -8 44 -13 58 -107 -94 -105 3 -15 -97 65 69 109 -44 -25 -15 109 -65 116 107 -77 -76 21 -116 55 -58 -17 -61 -102 62 -6 3 -15 20 -56 43 -50 -45 -12 69 67 30 112 -99 6 -68 5 -61 71 26 122 -57 -73 -115 49 -50 44 25 -99 -98 -106 86 -35 96 96 -3 0 19 13 96 -80 -98 82 -117 107 -68 37 37 -95 -58 20 -36 109 -98 -26 123 98 -105 -110 66 -111 90 27 24 44 68 -20 112 -5 -83 -94 -86 -98 -53 -121 -123 -111 26 53 -12 33 -101 -14 8 -15 -47 -124 -99 -44 -50 -88 -7 112 -99 -75 101 33 86 -61 -59 -104 43 62 27 106 -102 -76 -4 -74 124 69 -23 58 -43 91 102 79 -67 -29 -52 54 -49 -88 -59 -67 -30 -69 60 -45 -63 13 0 -5 -125 102 -2 56 -29 -57 106 36 -60 -14 -92 23 115 7 -78 57 -116 -86 -93 -37 -36 -52 7 -86 20 -12 -8 16 82 -105 3 84 53 -95 79 120 -105 103 53 -99 2 -71 108 -21 -33 106 -117 90 96 -4 -101 -61 -38 25 -116 -117 -68 14 -76 -29 -9 104 -8 127 -55 -72 -66 -55 -26 -49 93 -31 -20 114 -61 -25 87 43 -73 109 -113 118 -25 -66 -110 98 105 -10 -81 -90 68 6 71 47 -116 -93 -99 114 -22 -53 96 -20 119 -54 -21 -83 -27 4 -77 40 38 107 -7 7 34 -119 -9 -70 25 86 -37 100 -87 -113 -65 8 -109 126 105 43 37 8 60 -122 -62 87 -97 111 30 76 -32 2 116 -12 65 -80 9 35 70 95 -1 56 46 -23 -38 85 -96 -11 119 -118 72 
-32 -60 66 84 94 96 -98 -60 -88 71 123 -8 80 -116 -40 59 26 -98 14 -30 -77 -82 -68 12 -95 77 107 -48 -125 -39 -15 -80 3 -45 -86 -81 -126 114 -56 -111 25 -108 -2 24 -46 -122 99 -91 45 -17 41 19 -29 110 42 102 -70 80 -81 -58 30 10 -61 -87 -99 24 -68 16 89 -32 50 -95 -59 -91 -15 17 -23 0 -76 28 -19 -114 24 48 38 -15 -123 -48 -108 -32 -84 -19 -82 98 56 77 -126 -36 27 36 -1 -68 55 126 -59 -77 -105 127 3 -116 -83 14 -99 -122 87 -119 -112 -63 80 110 5 -24 103 98 -117 39 112 11 75 82 -68 -69 -53 6 -32 76 -124 76 110 15 59 -68 50 -34 114 126 -87 110 28 -126 127 81 29 -24 -21 100 -101 -39 27 109 -31 -95 68 123 -90 -122 38 -29 -25 -63 79 -41 -114 -118 -123 34 12 63 -59 -113 -48 122 17 47 -106 -68 69 -30 -100 -75 55 -62 -1 81 -38 -100 -92 66 105 -35 62 -73 -55 14 -13 80 57 95 -62 81 -82 21 62 -35 -115 22 -33 -5 26 -34 -85 -84 -25 36 78 -37 20 -110 -58 65 -76 63 -26 102 -45 62 -104 -16 116 -9 73 -109 -18 -16 -20 -11 63 98 -118 -121 118 108 100 -21 91 -70 -9 -7 -41 -19 -46 127 -98 4 36 8 -61 16 43 -86 103 51 -29 69 119 -41 -86 76 -60 112 88 -123 -113 12 -94 -121 -30 110 49 -23 76 21 -96 -31 25 109 -45 11 26 112 121 -116 21 48 -118 -111 83 92 17 -59 -113 -108 -84 3 26 -86 -125 -74 81 -14 -4 -38 -39 -94 104 -76 29 -109 -6 83 -63 -32 -78 17 115 76 -68 -110 -2 -95 -36 120 106 -94 46 -87 101 37 84 75 -2 -69 -1 100 -58 91 -110 -17 126 78 124 -8 39 -7 -34 -65 -33 126 -99 -104 -50 -2 63 102 -57 37 -13 102 36 -103 93 109 -127 -29 -83 -82 124 -40 113 -111 -86 -58 -11 7 -10 88 4 74 19 118 19 115 52 33 -41 -74 56 -112 -57 115 -80 -10 99 111 -102 23 117 -42 -64 1 -68 87 -105 57 -23 -111 99 -71 -1 -99 -40 89 -24 -14 -108 -102 -41 -64 71 34 29 7 -25 60 79 -6 -6 -51 82 40 -112 -101 -29 -118 -75 8 -43 94 -46 120 -100 -8 -113 -88 -34 2 124 49 48 -97 -59 -112 78 -20 -13 -37 -77 -11 117 7 3 95 20 -26 49 -15 -38 22 100 106 30 -46 -17 -119 -9 -120 93 -111 77 -60 -84 -103 49 25 -50 34 55 33 64 -27 98 -119 125 -103 109 17 -34 -10 -112 21 38 106 -68 -19 92 65 -42 24 78 125 14 -39 24 -57 -91 -57 -59 3 48 18 -3 19 -45 -100 114 -54 54 -30 -69 -10 -102 17 -115 84 -65 24 38 68 11 90 -81 91 91 -125 54 18 125 63 -56 75 -106 114 40 27 81 -6 67 18 -78 72 28 50 47 -78 89 -42 -84 48 -45 -116 31 122 -9 119 -18 7 -5 100 91 -64 52 52 94 91 -45 -68 -71 54 71 43 -61 -44 -121 -73 117 -97 -55 -23 32 69 32 -46 -79 -80 78 43 -6 -50 64 -122 -104 46 125 -122 -102 32 32 -52 102 -35 117 -71 -86 -121 26 42 116 -77 4 108 -89 -11 -85 55 -75 -124 -103 -110 33 114 103 13 121 38 103 -55 109 -30 99 48 30 76 80 -83 126 91 -25 -109 -94 25 -10 -107 29 -29 -39 32 -29 64 19 72 76 -72 93 103 -105 -30 -1 -25 -80 22 120 3 -12 -86 -119 -19 100 127 11 2 83 -92 35 -91 -112 43 121 121 127 46 -92 80 69 17 102 -22 7 125 -127 -113 -75 107 78 -127 -67 -21 -43 -63 -100 -33 29 -86 -21 110 -7 44 12 74 106 -116 52 -50 13 91 127 -8 56 65 -3 20 101 -78 -75 35 105 -114 -4 72 -84 -109 -87 -107 86 83 -25 91 113 -119 -26 34 29 20 65 -38 32 -8 -104 -107 -9 77 -54 -79 -100 105 -82 -91 -94 104 -50 89 -98 -29 47 4 45 -66 -124 -9 83 -30 73 -125 3 101 -51 -54 119 -1 45 -64 62 27 12 103 84 -14 -52 -60 -99 110 34 115 38 -53 -80 -88 79 113 -75 -106 80 -41 -57 43 116 73 -95 67 -126 -8 39 62 36 -43 -85 -126 -22 120 -53 -87 -113 3 123 -97 85 80 -77 -51 5 92 -81 57 23 -60 -60 -86 -119 72 -1 125 116 -70 54 13 19 -43 79 -26 -9 22 -56 -74 -107 -98 -33 -99 30 71 -115 111 -82 -101 -71 99 -103 -28 -31 4 -102 98 94 22 -11 -87 -119 -13 103 44 -19 98 88 4 80 -127 -45 82 101 -125 -64 -74 38 60 39 106 -70 21 -30 84 4 10 110 80 23 115 -57 -94 -40 98 -54 86 -19 -121 -41 66 -44 110 -62 -47 94 -57 28 7 91 -76 99 -40 -88 82 16 14 -12 88 -71 -13 -23 58 -101 88 17 -73 -89 -100 120 -99 -81 111 50 114 110 36 -25 -97 47 -19 -99 33 -76 -68 -24 39 107 56 110 125 -78 -78 85 -52 95 107 -64 34 -31 -16 99 -23 -115 29 57 -64 89 121 -78 78 
-84 47 -100 22 -83 -118 -40 -9 87 62 -46 -77 -110 63 -104 2 1 -45 -82 -116 -2 -62 117 122 -6 115 38 -18 114 37 91 -13 60 -54 -41 79 1 -5 -36 114 0 19 -69 69 -108 -92 -63 29 126 5 90 -53 -61 121 114 112 -78 -86 119 41 -91 103 62 82 22 58 71 -116 125 -59 -62 -72 -25 127 -28 100 25 -82 40 42 -18 -65 59 81 -68 7 32 -59 -87 60 -67 -67 -1 22 87 -121 -85 -10 87 -45 90 7 107 89 45 61 -43 88 76 116 15 -81 -14 61 -106 -118 -100 122 65 -66 122 53 -82 -119 99 26 21 115 90 98 -104 0 103 -99 -20 102 -23 67 -60 -97 -53 -88 -72 32 6 33 -26 -7 95 -57 55 -14 -1 -113 -120 124 -27 -24 24 -96 -75 -124 109 3 31 -13 -66 19 97 10 -11 -46 -62 94 -110 35 49 -66 21 -114 -86 -95 -26 -81 -101 -30 -86 -111 -106 -55 113 94 24 -16 -85 65 -117 101 -35 -70 126 -64 -34 -21 -18 109 16 80 68 -64 -36 6 -3 5 -94 -26 -126 97 -118 -93 -42 -46 -109 5 70 127 -127 101 23 -77 -50 33 -38 60 -90 21 -68 68 -36 -38 52 103 23 -1 109 113 -26 -19 89 64 111 -89 -28 28 60 82 -21 92 88 115 -119 112 -20 25 -105 69 25 109 82 4 -21 -117 -102 73 -119 60 -84 -95 18 -19 36 36 63 10 94 90 -83 -71 39 -75 -17 -103 7 -66 -45 46 45 -39 -109 28 -64 -117 -14 127 25 40 71 -5 -70 -52 -26 -125 -34 41 -57 108 114 5 114 -4 126 71 -83 -80 48 -48 -56 61 -40 123 -21 4 -62 66 -13 -123 -88 -56 64 60 125 -49 -100 29 29 49 31 25 -22 98 50 -56 -125 59 -11 42 -3 -34 -7 -127 17 8 -97 67 123 -9 -22 -83 37 75 83 43 -47 -40 45 59 17 103 -38 83 -85 118 11 -49 32 -61 68 -100 -18 37 99 -119 -39 -55 69 -112 89 120 -121 -34 74 -124 -7 -101 -63 51 -102 -58 -84 47 -36 -73 -104 57 40 -43 -79 -86 -58 79 114 108 -51 -39 -95 39 -95 -75 -39 81 1 47 -123 -6 -3 38 101 38 -108 68 -43 -12 -29 -18 41 -17 45 43 1 21 43 47 114 -9 2 46 -101 4 55 -71 -35 -68 -122 5 29 64 -87 -66 110 -56 114 -123 -79 102 43 114 89 -6 99 37 -97 -14 -26 -57 -20 59 -10 -60 22 -107 28 -119 -59 65 -42 -38 -21 -44 75 -47 122 120 14 -47 23 -121 -88 -96 -86 -39 -77 -10 61 124 -122 -53 78 -103 -50 -106 59 -5 34 51 74 -60 -101 -47 -114 65 -116 83 -100 92 106 26 -38 -119 3 -124 6 -90 6 -2 -21 97 -68 99 13 -84 42 70 -26 -67 115 -31 -82 56 20 44 -98 -87 92 21 124 -23 115 -114 -35 80 39 -31 56 -45 2 -97 80 81 -60 65 -19 -46 -87 -54 -110 -48 74 127 -121 -27 89 -27 96 -60 43 108 -69 -26 48 -111 -48 -84 -106 -1 46 -100 120 -98 -108 -12 -68 -124 -96 -73 96 -21 97 77 38 13 -89 0 -39 33 -118 66 30 -19 -62 64 7 -18 -53 51 67 -47 -61 -74 11 92 -101 -12 -23 41 110 -109 13 49 -98 48 -9 124 -27 -18 -8 80 15 108 -117 83 -113 -31 -8 123 40 -68 -37 -97 -15 -35 -43 112 32 -103 114 -17 105 14 35 56 -3 -93 -33 -32 -58 22 -38 -80 -8 -75 -98 69 7 -84 -31 1 7 25 -127 -79 -33 99 93 -24 -35 50 -54 -97 -46 -27 30 -44 -54 -22 30 10 50 -85 59 -27 -2 23 12 95 -24 -113 -22 -109 -58 -78 -113 118 -88 -84 115 95 -10 -114 40 -79 -97 -121 -97 -38 -96 -116 -17 87 80 -74 40 -30 51 -46 -45 110 53 96 69 47 -14 44 -22 12 122 125 -23 56 113 -49 -22 92 -49 -89 -96 -96 40 -27 72 79 6 105 -80 11 7 76 0 89 -57 -100 -45 -53 -42 20 -23 68 -59 60 -102 126 68 19 -30 67 -107 61 50 -28 26 51 124 61 -96 -6 -39 23 22 117 67 -80 75 -48 78 -4 -28 62 -99 -76 47 -111 -67 12 35 -18 61 -63 67 63 127 48 -80 -70 62 -115 78 -54 -57 28 109 61 -68 -108 98 89 -125 -118 121 -11 71 26 -96 17 26 -80 99 73 66 -7 -61 82 109 -70 50 113 87 -105 126 -30 90 -110 -83 -92 -53 68 -5 -81 102 -32 -70 -68 5 98 102 37 -126 24 63 -1 -111 -77 119 -66 8 90 -59 -62 -5 67 115 -36 -14 104 18 15 -24 37 -47 97 -69 91 -62 123 125 -116 83 -120 45 76 55 -86 -121 118 75 109 -56 44 -111 -52 -41 22 44 -16 98 -49 -89 -99 -26 110 -66 -13 -70 -28 25 14 69 -45 -2 -78 -49 -26 -64 -49 118 72 35 96 77 116 -2 98 108 -69 -86 -42 -97 116 -83 -72 27 64 -83 82 -11 23 -108 42 73 116 56 60 80 65 -64 -113 57 45 -86 75 122 125 -47 -115 -98 79 5 -75 -84 113 -21 -32 -3 -53 -62 -11 87 61 100 -102 -13 80 -120 37 57 -103 
65 -75 69 -111 -112 -95 -116 116 -86 71 122 100 61 -38 -93 -69 -28 -57 -127 49 -62 -55 89 -101 56 -13 43 122 96 -44 -5 -123 -57 21 -114 -94 26 -123 -105 -45 76 124 119 0 -94 -100 72 -88 -41 -60 -43 -82 -20 74 -23 -90 33 34 -32 26 -70 -73 36 -117 30 -59 8 -76 -49 -83 82 106 -87 -22 35 96 95 -76 77 49 49 -20 -41 102 -84 58 -57 -25 20 127 -75 -66 67 98 41 7 -53 74 -15 -80 96 -61 -21 -114 88 -104 -60 29 2 103 -75 -54 25 122 -103 -68 -127 15 -100 -111 50 100 75 13 31 -103 -34 52 -93 15 -72 -107 -115 93 98 -57 -28 24 114 88 118 -113 -9 -75 59 72 54 -38 -108 105 -13 120 -102 -15 -71 -66 5 -22 -54 -52 65 122 80 55 1 46 -65 -68 7 -26 -73 45 -20 -51 -72 89 -106 -72 12 0 -65 101 34 -125 108 38 58 105 5 -64 -16 -63 -91 3 11 29 -77 91 99 -85 -44 119 -118 -81 -60 82 -56 -70 -51 79 -80 -121 61 -15 -62 -97 -103 32 107 59 13 33 60 6 36 -41 -8 -20 59 -29 -84 46 -23 -89 -2 118 -78 -77 -117 62 31 101 68 88 17 39 -47 -8 48 -90 -19 -66 48 95 108 34 -126 81 -37 -3 101 85 -6 -67 -82 -54 121 94 -104 -119 53 45 -114 105 37 20 99 69 60 -25 20 22 -124 -26 43 85 97 32 -37 -41 -83 -74 69 20 -105 62 77 61 -90 -53 72 53 43 45 81 -23 22 122 82 -113 -16 -18 -35 95 41 97 82 93 75 -10 57 65 -46 6 -5 77 87 -37 -113 -7 -68 60 65 -74 -82 -12 69 -98 31 -24 -116 103 83 108 -127 -101 -116 98 -14 39 -67 -5 -69 59 -83 -80 -26 -21 71 -61 -109 19 9 29 -91 -114 121 -50 25 -66 -123 -102 -49 -50 -70 -36 -13 -78 52 -28 4 -13 -6 -114 53 -66 -38 -21 -5 73 -26 -53 33 -16 45 88 -101 -122 -106 -23 83 21 -120 66 -28 -1 117 76 -88 109 55 -113 30 12 -12 -78 -64 -66 27 -68 110 -70 89 125 -16 -74 -86 -27 -119 -80 82 29 -77 -43 31 -103 123 125 45 13 26 44 -73 38 43 -121 -16 102 -40 109 -17 1 31 -109 96 51 9 -126 -19 -113 -75 -125 -29 117 19 -24 59 121 -1 -83 91 -113 31 99 78 20 -94 2 -83 89 90 82 33 117 15 -11 -125 28 -66 -117 44 -44 -43 -55 -39 -42 119 103 -109 116 57 54 -120 1 120 33 -7 5 62 98 125 66 -24 59 -31 -80 83 -119 -46 -101 -96 108 -8 -41 88 -13 -88 -64 -80 -12 -87 -81 119 -101 5 59 105 -110 -52 -24 -76 -7 -85 -37 108 -18 -54 -110 79 -48 18 80 14 60 -58 44 16 42 63 94 -127 63 -66 84 -112 41 -29 75 56 -5 80 15 35 55 81 -48 -3 13 104 -6 93 37 -42 78 -74 -12 37 -84 31 -86 79 61 -98 118 -115 -92 -4 -109 30 84 11 3 -90 55 87 -22 -13 78 -77 -55 118 65 -87 -89 86 64 4 31 112 -96 -118 83 46 -93 -4 92 7 -41 -89 -116 -12 116 104 119 98 55 85 32 107 119 -94 -27 -63 24 -12 -55 -127 -84 99 30 -67 67 96 75 86 5 5 30 -57 -100 -45 33 -53 -52 25 -39 -4 11 -61 32 42 -91 110 -82 -55 56 -97 55 -99 -29 124 90 -76 -124 -127 -97 99 122 -119 -16 88 122 30 91 -69 -2 20 9 122 -114 -8 51 16 -18 -31 -91 1 61 -17 93 -78 -4 9 -49 35 65 56 80 18 -81 -113 -81 -88 -60 -28 -39 54 39 34 127 108 86 -93 -122 58 122 123 85 2 -26 -73 89 -49 112 -115 -88 83 112 -121 49 -108 -125 43 55 86 -50 -48 71 -81 -79 80 43 49 27 57 -64 -23 -84 -23 -34 73 120 39 65 76 26 100 -118 -95 -10 38 -78 22 -68 -60 8 117 58 -44 56 43 -50 125 -55 -70 -3 -72 -65 127 58 -79 -124 -36 93 97 -55 -24 -121 -9 87 65 98 66 -77 80 95 58 3 4 113 -91 67 37 -77 83 -51 104 -24 -36 50 23 -118 26 -14 109 -72 -122 32 -81 -52 25 18 -81 77 12 -117 113 119 -105 112 0 33 32 120 64 34 22 -40 122 -45 -70 34 75 32 119 -70 53 -76 -58 -80 -119 -108 14 66 52 -93 62 -79 0 -45 73 73 -25 2 -72 -78 82 111 -43 87 88 116 -101 -60 -33 -61 44 -52 -73 94 -11 108 -113 -25 3 64 113 115 53 -1 91 -105 109 -67 20 -5 -59 104 -12 -4 63 -107 -54 115 -73 125 9 -48 81 117 103 -54 -93 -125 10 34 52 87 -18 -61 126 -1 42 112 -35 127 115 -93 103 -42 -99 118 21 97 -3 -64 117 -107 -73 68 -67 104 -24 81 -106 12 -127 71 57 -15 15 89 -62 8 73 -32 -104 -115 -46 -124 -55 -82 -91 -22 96 -116 51 -36 28 10 -9 104 -71 -7 -20 -86 91 -78 83 -7 12 53 -93 -123 19 94 -32 57 -117 93 -15 30 63 -122 16 83 53 -82 76 -43 14 62 -116 115 
-63 -89 65 -15 75 -95 114 -56 -33 -90 -50 10 -31 -61 -85 46 -112 -10 -7 -23 9 90 72 -99 115 11 -123 35 103 2 110 69 -118 -92 71 37 93 28 116 -100 -118 76 100 -47 -60 -43 20 115 101 -69 104 -114 19 124 -53 60 43 -67 -62 34 77 70 -101 -57 100 -20 62 42 45 123 -37 90 -93 -113 -102 20 28 86 92 -30 -7 29 -17 63 122 86 109 118 -126 -57 -39 -82 50 53 94 -57 84 55 76 41 -96 83 -111 8 7 88 -36 50 -25 -76 74 -106 -39 46 -96 -100 62 14 84 52 -88 -55 -105 97 -43 91 -118 -112 -113 -38 37 127 -1 -31 -47 67 9 -93 37 -71 64 -7 -23 -29 6 107 123 -10 117 6 -84 -74 -87 49 -109 -106 -78 84 88 14 58 73 74 72 105 88 11 -24 -66 55 6 -78 84 -104 42 -115 72 42 111 -81 9 56 126 -96 -25 -77 55 -123 102 -71 18 -66 -45 -102 -115 44 44 -44 -11 -101 24 89 -99 -93 48 6 -95 113 94 93 -65 113 22 114 64 -91 108 67 84 -61 74 -97 -66 -98 -21 59 54 90 7 16 25 20 46 14 -108 116 -81 110 104 4 69 -101 -73 -107 -8 42 23 -11 -23 75 7 73 -55 31 31 -91 119 -12 20 -22 -1 91 80 12 -67 -33 5 33 87 9 113 126 84 2 -116 -20 4 -42 67 39 -68 82 106 17 25 51 -105 76 -48 102 -50 34 34 126 72 58 34 -50 0 7 -27 -114 103 43 -7 69 88 75 -62 28 -67 21 -65 24 86 31 -115 62 27 -49 -60 -71 -80 -103 -103 -39 -38 3 -93 -86 34 -80 -80 98 -10 -112 21 63 -108 -2 104 93 -86 -121 -120 -108 34 124 -23 -12 99 116 6 6 -123 -97 24 114 -3 -85 47 -77 90 -96 -77 -44 -77 102 -46 -29 -45 22 102 -10 106 -126 89 85 -54 -47 -116 -118 -125 -45 -11 -27 -11 51 80 -32 -100 2 -100 40 -35 118 28 74 12 91 33 1 -35 -14 11 -84 88 -33 112 -121 112 4 43 95 61 -114 -25 109 -42 55 70 104 -83 65 -10 103 -78 94 110 51 -5 89 -57 -4 -26 -2 0 16 9 37 75 119 -88 23 -125 -126 -107 -44 73 3 -61 16 117 65 125 -23 -75 -108 7 -127 -75 82 121 22 4 124 -52 -37 -98 -95 69 33 -105 -21 107 -108 124 -16 -82 -56 26 -93 98 -95 1 92 23 -126 100 -5 -12 24 -34 14 -11 64 -62 -87 80 -46 103 56 -122 64 -105 53 107 -15 -24 -35 -21 -72 -3 22 33 47 -53 -67 24 7 -55 -17 -20 -75 -10 -122 53 87 -114 32 -37 -89 21 -114 5 51 -78 -55 40 79 124 114 35 35 9 22 112 -111 -85 -16 -33 3 58 119 -91 -3 -46 -79 -17 -63 121 40 -87 -100 -12 19 35 119 56 52 -112 75 102 -6 110 67 -114 -112 97 47 -96 39 69 -3 -110 -59 19 84 107 -55 7 -8 -67 35 20 103 9 -95 -29 -54 55 17 70 32 -76 45 120 24 83 -46 -34 -57 77 -96 -85 60 93 -66 -24 123 22 -120 -126 -45 112 47 -93 27 25 42 119 39 10 -68 110 101 -13 102 37 15 -50 -105 5 -122 -61 -25 34 61 30 109 64 -6 6 -88 -9 -40 92 72 -13 -106 -24 4 -48 72 -60 51 20 22 24 -4 -85 -24 108 -114 91 -110 75 120 -42 -126 100 -47 -10 -80 98 8 118 -9 40 48 -61 -120 70 -127 20 116 -67 -72 -114 -107 69 -91 9 -104 -80 41 35 38 12 48 -91 46 122 93 95 -35 -88 9 -88 92 -9 79 42 58 -84 -119 -117 -85 116 121 -26 -73 43 -86 123 78 -49 -112 -118 89 5 -80 -77 -105 -74 96 -73 -42 -11 -105 -8 91 -116 -24 -48 33 28 54 86 -32 60 92 70 -120 58 83 -11 115 -95 26 6 -65 4 -91 -66 75 33 -58 72 -14 -82 103 -67 0 53 62 -62 -79 100 -81 0 -103 114 37 -117 -81 54 29 89 -24 34 -63 -16 -62 92 40 -61 -5 -13 60 -96 -122 1 -108 85 -122 100 -98 1 109 -125 64 -123 -80 -12 42 -99 92 88 105 29 78 102 -73 -72 -34 -124 -13 89 -3 -9 -103 -68 -124 -80 21 -124 -35 108 -78 101 90 48 -95 -25 32 -100 -117 102 21 121 38 -43 -29 13 -4 -1 27 45 -23 -95 -113 -65 -5 -59 -95 -125 -27 16 69 10 42 69 77 -109 -20 -5 -61 28 122 -124 28 -122 -87 107 -54 -88 -33 -122 56 67 -58 94 -12 89 -98 -2 115 -102 -53 7 40 -54 -86 87 95 -29 89 48 -80 -113 -68 -20 -35 57 -119 47 32 6 44 -55 51 -116 -44 -47 -4 -67 -84 -8 -81 -1 94 38 -48 20 -70 -15 96 -67 29 -54 -18 35 -50 84 -50 75 -110 28 -48 28 -44 -30 44 100 15 103 -124 -119 -7 -103 5 -114 29 -46 -9 -100 -31 -121 -60 2 -110 -78 -100 -126 -50 39 11 -1 -37 89 -19 -64 11 4 -80 103 55 107 53 0 -37 12 -64 -109 -85 119 57 39 -36 -61 -29 -101 -33 -17 -40 -96 70 -46 96 113 97 -7 -87 
-66 103 -29 114 36 114 -65 -18 -57 18 87 -17 -100 96 -60 125 -102 45 -91 -64 69 -102 -23 94 73 90 -100 -119 46 -97 59 -35 -12 -83 -11 -23 33 -95 -12 -57 -44 123 -3 43 -24 79 -48 -45 4 9 -19 22 44 104 -46 54 95 50 -13 7 99 106 -95 105 -34 99 -43 113 -111 4 100 94 -34 -16 72 -113 13 30 46 52 85 -66 33 -92 100 -15 -88 14 85 -44 -42 101 103 46 46 58 -29 64 -86 -33 -117 -3 -4 -68 -4 28 -67 124 49 77 -76 -46 1 -23 -102 26 5 -17 -109 -104 -23 -118 -114 -48 123 -88 -124 34 -115 92 -100 113 -21 102 77 59 -32 4 -2 -39 12 -36 99 -84 113 42 45 35 43 -44 -114 -40 -14 2 -96 79 -91 49 -119 -59 14 15 -48 -99 -42 43 16 -107 43 34 68 -80 -87 81 -11 -93 110 87 -109 -93 -110 102 25 31 -3 -82 27 33 -23 -73 -114 36 -81 -89 -57 120 -118 22 57 -115 -44 -65 -44 88 23 117 -95 -28 97 -108 117 4 -20 123 7 14 -79 -124 1 92 103 38 -1 -108 -106 100 -46 24 69 37 -64 11 -56 -33 -95 -3 -70 44 3 -60 -54 -14 -54 -16 126 -31 122 -35 -34 123 -10 -66 -110 -72 63 -53 -16 52 64 33 -63 -12 92 15 -53 99 13 -76 -27 100 -92 -56 -127 -122 47 -118 113 62 -101 79 77 -76 38 108 -58 124 115 19 -117 -48 66 92 110 -66 -77 87 11 -37 -1 -92 -119 63 -50 -124 -113 4 -119 -75 124 69 -97 83 -63 56 18 -116 92 23 78 21 62 90 -63 115 59 -37 -124 53 -42 -63 -47 -3 -121 17 -125 121 5 108 -118 -6 38 8 46 -71 -69 50 -37 -116 13 25 2 117 28 -54 -53 -26 93 25 -117 -44 -54 -20 70 -7 89 23 -4 -67 -98 75 13 119 92 83 120 -92 -26 26 5 33 -86 52 -3 -92 45 -18 118 -23 -42 -72 -124 -8 124 38 -113 90 103 119 90 97 -37 -1 -110 -18 -103 -47 47 23 -106 30 47 21 -74 19 -86 -8 5 -73 109 18 -57 -47 7 -62 126 -78 85 7 71 -35 -110 121 124 78 -38 -87 1 -44 88 -108 99 107 -119 -68 -72 -79 -9 36 127 54 -8 -61 -38 117 -21 -25 -127 -121 59 -17 -23 6 114 -15 106 44 98 5 -78 -104 7 -44 -64 -17 77 82 116 -38 89 17 95 43 24 -84 2 1 -24 10 -52 71 98 41 12 -36 -88 16 29 66 71 103 77 21 106 54 96 -111 -105 82 -36 102 -96 92 -38 40 48 60 -54 -61 7 111 49 -85 30 -10 27 -91 -123 94 -80 88 37 117 55 -47 -2 -81 117 38 -78 53 -72 23 -28 -20 -102 80 -23 -119 124 -81 -94 81 21 126 37 -123 -43 -20 -99 -60 9 -97 -46 -77 -73 -95 124 -126 -31 121 -36 0 8 80 -57 -51 61 -91 -93 87 78 123 -5 111 69 -57 44 63 91 5 -88 105 66 -23 -71 -80 33 118 -19 -95 -43 119 -125 11 -51 15 -3 9 -54 67 -123 62 16 -54 -14 -115 33 -96 39 -4 -108 -45 49 12 -96 -79 -40 -126 104 -46 107 67 -84 48 76 73 98 -20 -58 -42 19 2 13 -56 57 63 -117 -23 -72 -48 -13 -70 83 101 -69 -16 -55 112 -36 29 70 21 -84 20 113 -64 -90 -26 -25 52 81 -30 -104 41 125 77 -112 -60 -127 -67 -8 -127 52 -6 -126 -63 53 15 -115 113 109 80 91 60 -25 -124 -89 98 -94 46 -84 26 -87 -79 -70 -86 92 68 55 58 40 99 62 -57 29 -17 -93 -11 69 -24 -5 -54 -102 -77 120 26 90 120 -33 71 -21 -40 85 13 76 40 -60 -11 -81 -65 -26 28 16 108 -48 -78 36 -83 52 -80 35 6 29 127 -86 69 98 -11 126 -124 -30 43 70 94 -127 124 -88 -55 -102 -23 100 -90 58 -82 -121 93 -47 22 80 -50 61 -20 123 93 -29 -114 -28 16 4 36 -97 -69 25 -89 104 73 125 11 -77 107 -36 -39 -44 -117 26 118 -67 -90 -68 58 32 46 -69 -76 -109 -107 -57 88 -5 110 37 -48 75 74 -25 -41 84 101 78 67 -66 95 37 68 65 100 -5 55 -68 -89 -105 119 -79 108 -49 83 -69 -90 -117 62 -85 -123 7 -66 -30 1 -7 -62 77 -99 -111 -59 -58 -115 4 -60 -6 -80 -22 85 -121 -80 -92 117 -69 66 -105 -111 83 105 -44 115 -67 100 40 -50 -125 -48 8 -101 108 113 122 -102 -63 -117 -9 -65 -99 -89 76 -44 -4 7 16 19 4 -51 101 -94 -100 53 86 30 84 -108 49 99 -68 106 26 -53 -122 -34 -54 -53 35 -26 -103 -110 74 66 -67 4 56 126 -76 10 27 81 105 72 -72 -87 -95 76 -38 -103 -10 -50 113 24 -46 -61 80 -75 -81 90 115 113 -98 90 -54 -80 91 53 -115 -27 -110 17 112 -124 120 -92 51 -25 9 38 -7 -92 -38 99 -64 -49 -48 -35 -87 102 33 37 122 -73 -16 -117 -14 -110 -30 -73 -34 -111 -4 108 -104 23 38 47 36 -107 95 -19 -92 0 92 -69 -119 17 22 73 70 -123 112 109 -112 35 
-63 33 9 -90 73 126 -111 33 115 -98 34 63 54 80 -111 -113 -121 47 -104 91 62 -91 -119 67 -7 68 53 18 -9 64 85 11 -80 -122 -19 123 -62 -47 117 -113 -73 97 11 78 -116 35 -32 122 -83 116 -23 12 40 -10 -64 98 -101 -73 -114 33 52 4 10 -61 -71 40 14 69 34 41 125 29 10 -119 -48 -21 -80 -50 -83 -40 22 84 107 16 112 -25 -113 -56 126 -18 -49 16 -43 -85 117 58 -100 38 -109 -67 69 -93 33 44 -17 18 -102 -3 -23 86 112 3 -3 23 97 39 -9 -90 -64 -6 -67 1 -75 -5 70 -40 29 1 72 23 78 96 30 -83 90 79 93 14 106 -56 -84 -101 -75 -95 61 24 123 -69 -40 120 125 10 -39 -39 65 37 71 -124 74 -127 -62 108 26 100 127 -75 -25 72 -55 26 -10 -104 40 50 -119 34 -106 1 -49 121 -44 52 115 -77 -109 81 -58 -41 -42 50 -33 98 117 -19 37 57 -30 1 -51 111 120 -97 -70 -9 -112 -79 38 81 110 52 41 99 -11 -86 21 -45 62 -26 53 -59 -31 -47 72 -68 -83 44 -121 75 119 -20 66 -93 26 -94 -26 109 47 -119 -40 64 97 52 -109 -105 102 -27 -56 -72 57 -39 -99 60 -113 -6 82 107 -96 59 -121 -45 16 -74 98 78 -4 47 106 -22 111 -30 63 7 70 24 -103 48 -2 50 121 -14 -109 -67 83 46 -13 34 -19 -62 63 5 -74 72 36 -77 -69 -49 -56 -72 53 17 -49 40 112 95 70 119 -82 56 33 -76 24 -118 -74 -3 -101 -111 6 86 -40 21 -99 67 -56 -119 -39 123 102 -58 -119 -84 -79 -6 30 -62 118 7 3 7 -87 -7 -52 104 -28 -50 101 120 87 -87 -61 92 -43 3 -39 103 16 -22 30 10 17 28 126 -68 -45 72 -25 -34 -14 15 -106 5 28 8 97 126 30 23 -80 6 -90 -60 -107 -36 -120 106 34 -6 22 -71 -41 60 -116 -15 -84 67 107 110 -71 -93 81 -100 87 101 78 106 -22 -124 46 83 -59 59 10 -117 106 -2 -73 -63 -74 -23 -122 -2 -114 -27 41 -64 0 -82 -92 -28 21 -21 -8 -109 55 -126 53 2 -58 64 -117 114 16 -2 5 110 -88 -70 -93 57 -122 119 -49 -99 10 -59 -62 126 -63 -59 -31 9 81 117 41 77 -22 89 72 73 31 95 16 -64 56 84 53 25 -125 -109 -47 -69 32 83 -83 -89 118 6 -100 4 -4 34 -41 -14 22 -11 -70 63 88 -23 8 -38 -11 -62 -75 -109 -10 -16 -23 -80 4 103 16 -113 -79 -112 10 77 -64 79 124 -41 -13 -88 -37 -54 85 -39 -61 -39 76 -121 -103 41 78 -45 -102 -122 97 -10 93 50 -27 -90 -126 15 -45 -104 27 -8 105 -104 28 -114 43 95 -47 -108 110 -18 36 50 -100 84 112 75 94 47 -79 -99 -82 -7 -7 -97 -89 102 31 -24 -21 39 8 -122 1 -124 -24 -24 89 43 60 -18 -10 54 -17 -19 6 -70 70 110 -31 56 -9 -6 -104 -11 12 107 -37 -19 47 -69 20 94 -81 102 -79 -47 -39 -118 109 -6 47 -89 -72 -43 72 56 52 7 -56 23 76 74 65 122 -45 50 -23 -26 -73 -27 24 -58 -45 17 17 113 91 -22 91 87 98 -124 -27 -58 -62 72 49 -99 -1 -122 -93 8 -65 -72 -9 -36 -71 -37 -57 -28 104 -49 -31 99 45 90 91 27 25 -61 -95 87 -32 -69 -18 44 -81 60 -66 59 13 -76 -14 -40 74 93 9 49 63 -115 69 -115 -85 -19 -111 87 -117 111 103 -7 -92 -123 -112 13 127 -71 70 -56 -46 -64 -41 121 -66 20 -111 -80 45 -30 29 77 -49 35 81 73 -55 -62 111 -69 -10 -53 -39 -121 25 -38 -38 118 -28 -18 33 -59 37 117 47 83 -4 -100 -4 -52 127 89 61 -77 23 125 107 89 -65 -21 -60 -73 49 97 -121 -101 -84 -12 -103 26 -122 104 -35 -25 16 123 -101 52 127 64 -115 -64 -100 0 31 80 99 -93 39 -63 77 -84 -112 2 25 -123 85 -32 84 -65 -92 103 95 48 -66 -58 110 -77 20 61 119 -84 61 -41 -117 -69 101 -81 -126 -70 -33 18 100 -124 -12 -107 66 61 -111 -88 -10 16 12 -53 -21 -77 -37 -75 20 -69 75 -33 -13 1 -90 70 -69 -45 -29 -120 -57 6 20 26 -6 112 17 -39 -40 -35 108 40 -121 35 -127 -121 -44 84 40 117 -58 77 -65 125 -104 -45 -71 124 25 121 -99 28 57 19 37 -125 -59 -90 -102 53 118 -20 21 21 -124 -28 112 -69 44 -94 -22 65 -78 -75 34 17 -65 96 -30 50 62 99 27 71 33 55 58 -22 -109 -107 -48 89 -119 10 -43 -102 -76 -21 123 101 69 22 -102 118 23 4 109 61 -30 -12 61 77 92 114 81 -83 26 -102 -90 75 76 127 -125 15 -86 -73 85 40 14 -121 -83 -45 33 -33 119 116 -7 -3 41 -94 27 -16 -107 8 111 -24 -55 -126 -109 -36 27 -105 26 46 73 127 103 101 -105 -88 -61 9 -42 71 -11 32 82 -105 -6 43 39 -35 -38 -114 -52 43 45 68 98 27 123 -25 -25 -29 -69 63 -44 -25 
84 -116 -99 73 98 58 -78 -19 122 -71 -110 124 -72 -25 -83 112 109 55 95 11 113 80 -34 -27 -32 17 -48 56 51 111 -71 123 10 58 110 85 -58 -35 -21 -46 -110 -33 -68 98 61 56 100 -85 -66 50 -21 -92 76 121 106 115 -125 20 120 36 97 -96 59 18 15 82 -35 -73 102 94 91 -119 -115 -11 1 -32 -96 -76 14 84 120 123 -58 -127 -110 -72 19 -17 -97 96 32 47 64 -98 -104 82 120 -102 51 115 91 -40 45 71 116 -38 63 13 72 67 64 -39 -112 -120 -36 118 -79 -92 86 -127 -80 -93 -85 59 69 -79 -11 -11 -38 -108 69 -81 -56 -125 -10 114 -123 -85 105 -55 85 -118 -89 46 114 60 -115 -55 9 -120 -110 59 -93 126 -54 -76 22 -98 -116 26 74 53 91 114 -27 -28 114 -47 125 -75 99 4 -72 -109 67 -125 79 -103 -30 87 -73 97 -7 27 72 -66 23 94 -117 117 78 -53 -99 -72 -97 121 -7 38 15 1 71 71 81 -3 -62 -93 110 -56 -125 74 84 22 124 84 51 -30 -109 85 123 9 50 -78 54 1 33 3 -117 41 -71 -47 -49 -124 -17 -54 82 79 14 -85 -100 121 -104 -112 -54 -86 94 -123 94 -114 16 100 -37 -60 -121 102 -13 -80 -11 -72 69 24 -23 40 -9 29 126 -2 -100 -105 -31 -35 -108 110 98 -107 18 29 111 -60 -72 73 -63 -31 -111 22 -89 108 -15 73 -32 -71 120 46 74 -11 62 108 89 -50 13 -2 12 -112 40 104 127 -122 77 112 49 58 34 95 -4 26 27 -108 -61 104 -33 -121 -7 -86 -27 112 -56 -29 17 124 -22 -37 63 -87 36 -51 -75 83 -115 -84 -66 -98 79 38 -92 -39 123 -102 76 -110 106 -71 -37 -22 -76 -64 -117 105 -90 51 -79 -68 83 103 99 58 75 86 -70 -77 84 0 11 36 -32 -120 90 -116 37 73 55 90 19 -10 18 103 34 -111 -120 -17 -69 26 -9 -48 18 -32 -62 43 72 -10 -97 -45 -6 12 -22 -7 94 -53 113 -6 -50 -24 -120 -117 -116 13 74 10 -121 -30 -36 -74 -45 39 36 83 -23 20 -84 -116 109 -22 -89 37 -39 -116 -13 21 122 49 54 -124 -115 67 57 119 107 60 127 52 -38 67 -112 -78 116 -52 -39 -107 -31 39 104 -23 -28 -116 -17 -116 23 -58 -76 102 67 47 61 8 57 -56 57 117 -10 8 -51 -70 -51 12 95 -84 -94 127 110 120 82 30 113 42 -11 -84 -117 -64 -50 -73 74 -105 32 73 30 21 97 -53 32 -67 22 -15 -67 -28 -35 -24 -6 -1 49 83 -65 125 -66 -21 -78 39 -114 105 28 -77 109 -85 78 31 65 6 -52 110 4 126 -69 114 106 115 -122 3 51 -49 68 44 -94 46 74 -84 -117 -37 -94 -91 -86 -68 -27 -26 20 -42 -30 45 -96 125 18 -81 -58 -56 -75 101 -14 70 -31 77 91 80 49 -52 -30 -48 31 -124 45 -36 61 -43 -62 79 109 -67 -121 -111 11 24 -94 -115 42 -127 -54 -124 99 106 -23 -120 -111 2 -64 -111 110 125 -111 -10 89 93 120 85 121 16 40 -6 90 15 -97 -107 -43 -83 -33 111 29 101 -98 127 97 -94 13 -33 43 -115 -112 106 18 67 -110 105 31 57 -95 -37 93 -2 -81 -60 -76 23 -89 90 -88 -70 11 81 -49 10 -23 -12 -38 91 -65 83 -67 103 -2 -62 1 -103 -30 -5 -30 -42 -68 78 9 -102 -10 70 43 -29 19 -58 18 -126 -50 67 -109 81 -107 91 -111 13 -116 -66 98 -85 -43 -103 17 -4 105 47 -26 74 17 -90 68 76 -32 -97 -7 -86 -100 -37 69 26 -102 7 122 -92 -114 123 123 65 7 -78 -37 93 56 -42 0 -65 100 63 -120 -48 -83 -56 -125 68 -29 4 -63 -111 29 -112 1 -57 69 -107 -62 7 117 -116 -40 11 52 -58 -23 -100 -127 -116 115 -58 -90 38 -127 10 -53 23 -28 -111 105 -117 111 -103 -124 111 9 -80 84 -123 62 -95 30 -103 -30 -127 112 -76 21 -30 -29 -11 96 118 99 108 -114 -101 -59 96 -96 -30 -120 -12 -7 115 -105 -19 -18 -95 92 -112 -73 -66 44 81 -35 98 -105 -24 18 88 53 38 57 -54 124 -59 -111 -120 20 35 -57 98 86 25 -34 26 -2 -95 11 -21 52 -119 48 95 -20 -8 -60 -48 -19 121 63 -113 -125 -116 108 23 -75 -1 -96 -104 -59 -117 -60 -116 -17 104 110 120 47 81 72 45 49 41 -78 -57 -127 89 29 -116 63 -111 26 58 127 -51 118 -84 28 64 -49 78 89 109 -4 -29 -64 -97 3 85 113 93 120 63 62 83 44 -126 -64 31 59 123 89 -12 -127 126 -78 92 -13 -83 -98 80 -109 -6 -121 65 -100 109 55 88 -77 -77 123 -52 -82 -38 -69 -38 -102 -65 -14 -69 -100 99 113 51 50 124 -116 19 -90 45 27 -25 -6 80 1 -69 -2 84 76 -40 63 6 20 51 118 -35 62 -45 113 55 -21 -80 -99 102 30 69 105 30 -70 -45 -72 -79 94 30 -82 31 117 121 -51 -12 -77 127 -106 125 60 112 96 -69 110 11 30 -63 -49 96 -64 -18 -97 77 90 101 
-86 -101 -29 -97 57 -109 108 100 113 -84 11 -116 -54 99 -84 114 -94 -90 111 4 30 39 -46 -85 20 -98 -95 0 118 -103 109 -89 114 2 -68 -57 119 -31 -30 10 -47 -65 15 -90 -93 58 108 45 73 87 -21 102 -83 74 95 8 98 96 -2 95 42 -112 47 10 -24 5 -27 -85 110 121 -51 26 16 83 -32 117 -94 -44 -96 4 5 84 -46 -29 -121 112 -64 78 28 75 -56 94 -51 115 105 6 20 -74 -84 17 -116 -54 -12 -6 68 73 74 31 36 -71 45 24 -10 -62 -106 88 76 -1 45 100 107 2 -7 112 51 -99 -13 54 -20 54 2 -71 -32 18 58 -4 -7 43 48 -88 -6 106 -27 -93 -96 13 -95 -117 37 -12 47 37 -39 -76 17 -106 -84 -38 117 -105 36 9 -81 -40 120 87 126 30 88 -123 -31 13 84 87 31 -28 -95 -1 30 -36 -110 -106 121 -80 33 -31 -61 -67 48 -68 35 -115 71 97 -93 -67 41 -95 -108 81 -71 -120 -12 79 67 -32 -40 -117 31 -35 114 -10 96 -25 -43 -117 111 -24 -112 93 49 7 -8 -43 -61 15 23 86 -14 -97 -113 -107 103 20 37 59 55 -74 -12 -38 -46 3 12 -53 -7 65 -71 34 -33 103 11 -67 19 96 -115 18 60 77 84 -73 30 63 76 48 12 98 68 67 97 -98 -87 26 49 119 -101 60 -51 -4 -1 -119 86 6 88 41 116 47 97 -38 -42 72 -41 -65 103 -98 117 3 -1 -92 99 -31 -21 33 -106 58 -17 105 -96 78 -68 120 9 -106 -46 -58 -78 110 -121 28 96 -81 37 19 -123 126 -42 -30 62 125 47 45 -69 -68 117 -34 65 118 52 -14 119 -29 70 85 34 99 -44 -76 1 70 127 -119 91 -75 -97 -54 63 32 -86 48 110 -71 -76 -119 -11 116 -59 111 -50 -109 17 -85 -65 -42 -106 -118 -57 -39 -80 -66 -97 49 6 38 -37 -115 73 -44 122 -101 -87 76 121 69 -34 -98 30 73 25 -47 -85 -107 26 117 12 -45 -102 -101 34 -97 -116 -4 -85 -4 41 -29 114 -48 -65 18 46 -8 2 41 125 20 127 -49 -42 49 10 -60 7 110 -100 -98 92 -16 -18 -16 40 39 124 117 109 -75 11 127 -3 24 -8 119 0 -115 88 67 113 95 121 -71 87 -104 -120 67 -17 108 2 -119 -47 8 -15 -55 35 124 37 -94 -108 -13 42 11 -41 -2 4 28 60 66 15 -90 52 -27 -102 -6 -44 -38 -110 124 -47 -19 110 -105 -61 -25 61 54 -80 9 -74 78 15 -44 -66 105 82 -55 66 -9 -29 107 -32 -86 -21 -116 96 8 -114 -63 -103 -92 31 17 105 -50 -24 -100 40 -29 37 1 107 77 35 46 11 -123 -99 -90 29 15 -40 -20 44 -5 -10 -126 61 121 -13 -46 68 -95 -118 -63 86 10 63 10 7 123 -53 -73 107 -125 -108 32 -4 -52 57 -34 -86 -73 -105 -87 19 -107 -3 -91 -36 20 -58 106 -100 28 -55 -86 -20 55 107 2 86 -58 67 33 65 71 -73 34 -102 -67 -48 -99 23 -111 -51 80 69 50 -67 40 -37 32 38 -78 -113 -87 18 39 -89 19 3 -7 -65 116 32 -38 82 41 -67 -12 104 49 9 -109 8 10 61 -113 -29 -6 -84 -59 -69 91 55 121 102 87 -19 97 70 87 -72 -77 35 -35 -124 -45 1 70 118 -39 69 106 -127 -46 32 22 85 89 -77 40 70 -22 -25 71 34 -86 37 -10 -47 47 26 115 -83 -75 -30 81 62 -37 -94 -20 -37 -9 86 96 -43 -36 60 -100 37 39 24 57 -31 -114 13 127 71 -105 103 71 -111 107 -1 -30 -78 -29 6 125 -56 -18 127 119 -25 -28 41 56 -108 55 78 -109 52 44 126 -19 25 74 38 88 -113 -90 -54 102 100 -126 -73 34 -5 -61 65 92 -15 50 -115 86 54 19 -2 -84 24 -61 -20 -61 -125 -17 -46 97 -116 39 -49 49 116 -62 -116 118 113 51 125 -122 -9 124 -99 96 40 3 -21 -66 43 75 -119 116 33 -7 -8 -88 -20 127 25 2 -123 -2 9 47 -74 -49 -24 -125 43 10 90 124 -126 -50 71 52 33 -34 -58 115 119 -46 91 110 -60 -45 77 -91 -116 67 2 39 23 73 -122 -86 -99 -40 -72 3 -84 -109 -62 -90 17 16 100 21 109 -13 -126 -124 -120 62 -105 -105 62 41 -23 -4 -7 -113 -70 -58 -112 55 -87 94 -73 -87 -60 75 82 -86 70 -87 97 -86 -64 17 53 108 -74 48 38 115 68 126 45 9 66 -26 -67 29 -67 24 -61 -15 -100 109 -104 -65 -10 -48 -99 84 -94 36 126 121 85 81 31 73 113 86 -76 60 -33 11 -24 -58 122 65 -109 -75 57 98 -109 22 -58 100 -39 8 11 -125 110 -88 -52 97 -11 -40 -88 -85 -116 13 73 106 -2 101 1 124 120 -18 15 -59 -16 -75 -79 -71 73 85 18 80 -99 -89 -55 -7 29 -56 42 9 17 -104 101 89 93 50 -4 -23 -62 -42 -69 31 47 126 -70 -126 -20 -118 -87 -101 -90 -64 -101 12 115 76 -17 21 76 -91 69 47 -54 -35 2 17 41 -16 -18 -99 -44 -75 112 -32 -8 -112 
-93 -10 -86 71 -1 83 -45 -91 -107 -3 42 51 -17 70 81 121 -50 -11 89 -106 93 -82 24 -57 99 -109 58 65 -26 21 76 -78 -43 -79 56 68 -110 8 -68 -9 67 -45 90 -123 32 -103 44 54 122 59 80 69 -109 54 -20 118 -66 24 105 -39 62 90 39 81 101 1 33 -44 -122 119 -122 -121 -90 69 65 16 -127 -33 -112 -76 48 45 -2 31 -123 -75 90 17 -2 93 126 -9 52 -44 66 42 113 46 -73 -106 87 -30 69 22 -121 16 -17 18 75 16 -19 -111 121 59 97 -13 68 25 105 45 -30 -12 14 -38 -23 -10 47 -56 36 -16 -100 9 -117 108 82 -3 -87 122 -48 71 -54 -48 -109 -11 105 6 27 -81 106 -104 53 -126 29 44 121 -26 34 -34 85 -98 106 -31 -7 -38 25 22 63 -59 95 112 -80 47 -74 2 11 80 58 23 -107 -43 -100 -81 59 97 43 20 -102 -27 -81 78 -89 86 11 53 56 -64 -74 59 -7 -3 52 100 -50 99 71 35 112 -65 -90 -17 -81 -9 95 -38 100 18 5 -10 90 111 -6 -67 -71 -37 -29 41 -40 -22 -110 84 120 28 33 1 44 115 49 28 104 74 23 75 -29 -3 -99 25 43 38 -51 -121 -62 -25 16 -118 -115 -21 63 9 50 89 109 -112 74 88 4 -117 -103 94 -46 -122 -106 44 -48 71 -6 -16 -59 23 36 61 65 -103 -111 26 -97 91 -19 78 -34 103 -84 -126 -41 -60 47 -127 47 78 17 55 -66 -51 -40 46 -102 -11 -80 37 -26 -56 -104 -70 65 -19 -58 -87 -122 16 -51 47 -101 -3 80 81 -51 97 -122 122 26 -97 -103 106 103 90 54 111 109 12 75 -7 68 97 81 -35 76 -68 -126 -13 -93 -40 62 -18 -81 -81 -102 124 26 -80 117 -48 -37 73 59 62 0 -99 -39 64 -98 -110 28 -72 40 -4 14 -117 -89 -52 -93 120 -82 -42 76 113 40 83 -47 -75 86 90 20 -10 -14 111 96 122 -20 91 95 113 83 -112 -33 48 -70 -107 38 110 34 -24 95 75 -98 -77 3 24 81 69 -117 98 -112 -70 -51 -44 -96 64 -18 1 -53 95 -94 -39 37 -61 106 17 125 15 64 -111 -109 37 88 32 41 -118 25 -5 -120 -94 -45 103 -108 -72 -75 -106 -79 -34 9 -106 88 -105 68 -8 64 -38 50 -119 -116 83 -33 99 16 38 20 10 103 82 67 124 123 -37 59 -106 -100 -36 47 25 16 -104 111 -41 -69 116 -85 121 123 51 34 -71 29 -14 82 100 52 -77 100 44 -25 85 18 102 -125 -44 -79 30 56 -122 -29 107 -3 74 112 -82 -54 95 106 62 35 26 91 -28 -81 -40 -34 116 -16 -109 -123 -53 -9 -84 -48 65 -34 -51 36 -33 1 91 -44 12 72 77 92 -36 -53 55 -110 -103 -102 -17 109 84 -47 -45 -81 109 -80 -117 -51 -37 -57 82 88 98 38 -26 85 -80 -75 -54 86 32 -90 -76 64 -58 -92 54 59 96 -7 91 116 15 -9 53 26 101 -84 66 -19 -71 105 -16 -17 -92 83 19 62 -98 -121 -66 109 121 122 9 -86 -84 61 60 -126 70 10 -68 -10 107 58 -46 117 49 110 31 -8 -27 93 -105 -68 102 -86 -20 -48 76 119 87 66 -86 71 -117 119 70 80 81 -85 -77 105 -24 -24 -106 79 -98 -40 -25 116 85 111 -47 58 20 98 48 29 -117 66 -121 103 -31 -52 -122 -62 17 -89 54 8 127 83 24 117 8 -2 -51 123 -3 -110 26 8 69 -30 -127 10 -118 -53 99 -112 94 -23 -81 -12 -25 -1 82 -42 -97 75 -65 21 31 65 -56 -85 118 71 9 -93 -9 110 73 66 25 50 -123 -6 90 -50 94 42 24 123 39 46 32 71 102 -47 -79 21 -45 18 -30 28 52 103 119 81 -98 48 78 -75 82 -35 -93 56 -106 116 -91 27 26 -78 67 103 7 119 -96 23 -85 43 21 55 -78 6 -83 -89 55 -94 39 51 13 8 -118 94 23 4 -4 -9 -12 97 27 60 100 9 63 40 78 -102 10 -7 -57 10 -89 105 31 44 -41 -74 116 27 -111 -81 -53 96 -40 -88 57 -108 109 -84 114 -36 65 44 114 -23 86 71 107 -114 -98 91 -109 36 -97 114 20 -27 25 -25 34 39 56 80 57 64 114 -106 -56 89 -5 50 -26 68 -22 28 -118 46 94 -56 -12 -107 79 76 -94 -106 0 -38 -94 -22 -59 85 -32 67 -73 99 94 -37 74 -45 -83 112 -7 -98 -53 65 -87 -34 61 -88 -109 70 -39 58 -120 -102 36 -84 -72 58 87 78 -31 -127 1 21 -6 -112 -19 -4 -37 -122 -92 -42 -51 -124 -16 103 -92 -101 -86 36 -78 -55 -43 -19 -104 -11 43 54 61 67 108 -11 -71 -126 67 -47 -49 -99 11 -104 94 -27 120 3 -125 -22 42 95 32 -107 -127 -43 -10 -1 26 75 -126 107 -92 105 -118 116 -17 85 -126 -115 127 7 -33 -109 -29 -78 -60 -83 99 36 -12 -113 81 118 -35 -26 92 57 123 28 42 90 -38 -18 -93 -71 38 83 15 103 -14 43 -48 -17 38 40 121 -28 -54 -13 -53 11 -92 81 33 43 -88 -115 -107 
-103 62 -16 -95 -61 53 -124 73 44 68 -126 -123 -59 70 60 -85 -35 -101 61 115 -126 -97 107 55 1 -85 -61 107 -41 77 -83 -49 -94 -118 -86 47 10 -53 42 125 -25 -90 118 -116 -100 -78 120 -116 124 -46 -92 -35 -67 111 -10 50 -64 -26 30 100 -123 109 -104 92 -118 2 -9 -29 -10 59 30 -76 27 -49 -18 -104 18 124 -84 -12 -63 -18 -33 93 99 8 -24 2 -16 -99 21 -84 72 28 -10 -18 -41 -114 13 -73 19 -67 45 -4 -72 112 57 -9 98 -8 -55 43 13 126 100 -12 -42 29 110 -78 110 56 20 -67 73 -25 -89 123 127 -15 -32 8 -59 -37 -41 125 59 -123 -107 56 77 120 93 110 -44 -58 -7 -104 -97 -121 -5 -82 -9 -38 -54 90 7 3 -3 -33 96 73 -104 11 54 -21 -88 93 -76 -54 -84 -33 27 36 -50 99 36 68 -48 -32 48 -90 124 -90 77 -60 101 -50 -8 35 -57 -109 -2 -107 46 68 -127 2 52 91 40 -86 13 -108 -49 -39 103 -108 109 23 80 6 18 -100 125 -117 -38 23 -59 -23 67 15 85 -57 -86 49 -8 -126 -36 -34 104 -26 79 46 -58 106 104 60 -4 -24 -79 -35 -77 108 -51 40 12 126 -6 -122 -81 37 -25 100 -57 -90 83 -126 -108 -116 113 57 -40 2 116 -40 -69 109 -49 -5 20 -20 -47 27 107 -65 -106 -102 80 10 -58 -99 -88 -45 -55 -113 19 -64 -13 -124 -41 121 122 -75 -68 70 -120 -53 -36 70 -66 26 -80 29 7 -124 53 9 -4 -55 -83 -49 -122 -24 107 79 110 90 -8 76 -84 -112 79 34 116 -109 -75 50 -57 91 74 52 -91 67 -25 -92 -52 81 97 41 30 -6 -45 64 -54 -64 23 -15 -127 -98 -25 64 55 -83 32 -50 -3 55 97 -1 -59 75 78 109 -38 -105 39 -103 69 97 116 -11 67 113 -102 -127 119 82 -56 110 -13 71 -108 -66 84 113 -80 -77 -111 70 33 109 -101 30 127 -121 -46 69 110 -43 -83 9 62 127 73 58 0 100 -124 -30 35 71 12 -59 -59 -67 -108 -111 40 -57 115 40 -73 86 19 -67 43 30 -109 -37 -31 -45 -59 -45 53 97 7 72 29 -90 40 -67 -55 7 -87 37 62 -98 69 -121 70 17 57 95 -30 43 71 28 -123 120 27 -25 9 58 -117 -50 100 117 -20 1 -39 33 -43 -57 2 104 -109 -39 75 -4 11 94 93 -95 67 -70 121 -103 -127 -31 -77 -34 -90 -1 99 -37 -123 113 109 -122 -80 127 47 59 -84 54 -32 11 -112 13 2 7 -43 -56 68 -49 -89 60 57 90 102 55 98 -53 99 -12 57 35 -123 33 38 17 85 93 126 46 79 -124 20 116 -12 -35 -95 -25 -33 19 77 -37 108 -55 23 116 116 -123 -58 114 -26 -95 5 91 -28 -71 -50 -7 82 -72 23 48 -80 -29 7 -112 -45 -14 -80 -10 7 66 106 34 -66 104 -65 -41 -71 -50 79 -16 126 76 60 -116 78 122 -112 47 -81 -35 65 -123 66 103 63 -118 50 -51 -36 -91 -69 75 -2 -51 46 3 86 -124 116 -43 115 83 -50 -67 101 41 11 -61 -61 61 -26 -64 65 51 41 19 -102 23 123 -44 -61 -40 -109 92 -24 -102 107 -86 -58 -101 -42 88 -8 -95 46 -63 19 26 -107 20 -35 -89 -101 74 89 127 12 104 -91 35 87 74 97 60 82 85 9 93 31 38 -85 67 36 -58 76 97 60 29 55 -25 -24 -39 27 -36 -50 -59 126 121 -103 -68 85 -56 -96 13 -83 69 -41 -76 58 -98 -121 -1 -98 24 98 92 -110 92 17 6 -1 -92 58 -2 -94 -54 30 90 121 -99 -27 -94 28 30 -72 112 -110 -81 -42 68 30 62 113 32 124 -18 102 39 33 77 -45 52 -98 -35 48 -21 -39 -5 -11 -8 106 96 -16 -14 43 -31 -87 76 69 -50 87 -85 51 91 -99 89 58 -27 -46 -74 -20 120 -46 -73 -109 -78 -85 106 12 127 110 109 103 102 4 51 -65 -68 -117 113 -92 34 114 -8 -125 101 -103 -56 43 -80 21 70 35 106 -38 -104 -50 -44 -21 -91 -123 11 8 100 -118 -35 -107 65 -105 -100 -61 38 -34 -79 -77 40 91 23 74 79 -98 53 -84 80 86 -79 56 -10 -52 54 52 19 25 -93 -53 -53 0 62 -79 16 -90 -35 52 -121 -61 -38 -1 16 113 -116 21 -7 -80 -118 117 29 94 -78 -121 -43 -103 -94 -103 -114 -36 98 125 -34 -56 -116 -10 -89 24 -10 22 -95 -5 -92 62 -88 -64 58 -9 79 -7 -3 43 -9 -96 13 -66 26 -3 66 -43 47 -36 20 -113 99 -57 69 20 71 50 -26 20 -124 82 -9 74 104 30 -95 124 101 117 28 -1 75 -26 75 30 29 -117 -5 -32 -116 30 109 -41 91 -125 -94 89 85 40 40 -112 107 91 106 -89 101 108 102 2 5 -120 99 -71 -101 126 22 -85 83 55 -83 -71 -58 -15 -99 31 -33 74 65 24 99 -77 -4 -90 -79 28 43 41 -45 2 -38 -88 119 -58 36 0 -117 3 17 -63 62 -101 74 16 -8 105 85 81 -115 120 -88 -121 85 -9 -2 104 -107 83 75 
98 -8 -12 -19 -75 -97 -112 -2 33 113 71 -107 121 -15 116 -39 88 -100 5 -23 92 -42 -97 68 122 24 -46 -15 -73 85 -27 30 123 92 -126 -116 -123 54 -23 -65 1 107 23 -109 42 -30 -105 -111 96 -23 2 -79 71 -9 -70 -56 97 72 13 54 47 -27 92 98 -2 -43 -30 37 -30 61 -27 -31 116 -100 -120 -53 16 -25 14 -65 62 38 -2 64 81 -72 64 50 -70 -57 84 -42 93 -32 90 -23 26 -89 59 69 1 112 18 62 16 65 -39 59 30 126 -110 56 50 66 127 -87 51 -102 43 52 -37 39 -41 -94 -83 35 105 126 -23 -13 -61 -96 -32 -126 12 100 -37 -121 11 -64 -100 -6 114 -3 47 -5 -75 40 118 109 33 123 50 -105 -86 12 -36 12 -2 10 65 -94 -75 47 71 -57 -36 127 -100 -86 19 -109 -10 90 57 -84 -127 120 -20 40 27 -95 86 -117 78 85 82 -75 41 -63 -114 -14 -84 124 100 81 62 79 83 52 117 75 79 -5 21 77 67 -7 -46 83 -125 38 -86 38 13 52 -60 12 38 121 -6 15 85 -47 -105 24 119 -25 72 87 103 13 91 83 -103 -70 -123 82 44 97 105 53 30 -79 -74 28 -123 -23 -77 -37 -94 -126 43 -81 -117 42 82 -94 71 -63 87 109 22 -81 -114 -116 -5 -26 -77 67 -98 125 41 -59 -99 -87 112 -35 112 -21 -87 -91 -64 -69 71 47 75 48 83 70 78 124 39 -40 100 -115 -6 -8 89 14 48 38 86 1 21 -7 -23 9 -32 -59 99 105 87 121 40 123 -36 119 25 -52 119 89 94 -74 31 -26 123 42 0 49 115 -91 116 -51 -64 -33 95 58 116 3 -58 -86 -17 -100 120 2 106 100 59 96 62 -42 -118 -106 24 -74 -100 -93 -11 50 25 -57 -119 127 -57 -1 123 -40 -13 25 47 102 31 117 118 -87 -68 35 -45 -6 26 25 56 94 124 -85 117 64 98 105 71 -6 -115 36 -58 66 -7 54 77 -104 -20 44 -91 -14 -68 79 110 -25 -57 -125 -9 14 84 -58 115 -100 -18 -40 -72 -23 -1 114 -123 -9 121 -34 -110 88 66 73 12 -91 -60 -116 86 82 -116 -9 20 83 -38 -85 11 37 41 31 9 -46 89 -65 -68 20 -100 -5 -119 -109 -9 -102 3 -91 -113 85 22 -34 104 -127 107 42 25 59 11 116 -114 97 62 -106 51 -41 47 -49 -108 -13 45 66 -7 126 83 61 -114 -64 -29 -115 -63 -55 115 13 -68 -122 8 -120 24 48 -100 68 121 24 -84 10 33 38 -89 -1 -119 -41 98 -5 58 -65 39 -61 86 109 -96 -123 -89 -42 -92 112 -127 105 124 -61 -76 13 -101 -120 -15 109 -51 4 -7 8 -24 19 -14 -107 -16 6 -11 -62 -50 -85 93 -21 126 -42 -38 -119 70 -74 122 -13 113 -18 5 -11 -119 70 25 -30 35 -16 -55 13 -95 34 22 -19 -24 -74 90 -19 84 -75 110 70 -36 44 -19 -22 -18 17 38 -89 124 -126 95 -62 -117 76 46 37 97 -94 46 -122 85 -123 -98 118 -59 28 4 -103 -114 44 17 -109 -111 -3 116 -74 51 46 -30 6 102 -18 34 83 68 -84 83 77 19 12 125 108 -55 -5 -20 109 78 127 75 -47 36 -114 62 118 44 67 -64 36 58 10 -112 93 -106 61 13 123 -35 -75 -114 -19 -19 39 75 46 -83 10 103 -5 80 91 33 -10 -48 30 44 -92 64 -99 37 29 52 49 121 -11 2 -108 -12 -95 104 -103 -13 -60 61 -97 -82 -91 86 79 -126 14 -97 28 -15 54 120 -117 66 37 46 52 29 113 -51 -23 58 -48 -48 82 -69 -8 108 -44 -97 82 -91 -62 -33 -117 -10 -117 60 82 63 -10 61 105 25 -80 -9 62 -34 -13 44 20 -83 -9 -25 -62 -50 -91 -1 -90 -4 -23 12 -95 -81 12 6 61 -30 126 -58 64 88 -64 -109 -2 36 -53 -67 -10 71 -8 -107 88 47 109 50 -28 -44 -77 -118 12 -49 -127 126 56 -104 -89 -31 12 6 10 -108 -51 64 -9 -94 -85 93 34 78 90 29 -18 -87 63 -47 -61 -1 13 80 -77 -117 -47 118 -62 57 81 -3 68 -71 113 -96 -86 96 56 -77 -86 -80 -3 84 109 30 -44 30 91 36 59 -107 -96 40 93 -73 -75 52 66 101 -72 8 69 -97 53 76 67 38 -58 94 5 54 73 14 -110 -94 -53 -91 -12 -88 -4 18 -126 112 -88 -73 -12 -78 31 -21 -96 53 126 77 44 18 104 2 123 51 91 1 -34 -90 -72 40 109 93 37 11 -80 114 86 -13 -30 -71 64 70 -83 -68 -107 -12 56 55 12 84 35 1 -36 24 56 48 82 37 -74 -96 -37 127 119 19 64 10 -81 87 -82 16 -119 -15 53 -88 -1 46 93 -49 66 -34 107 -63 61 31 65 19 -121 -20 57 61 18 -37 -115 22 100 25 116 -8 -38 103 59 7 -97 -87 -23 -85 -37 8 -59 59 -89 102 -25 -40 118 -4 -78 -67 101 67 -87 -32 -83 -56 77 -48 112 -96 118 70 -15 121 96 88 -37 -51 22 -50 -93 86 -30 110 28 50 -52 55 -32 50 34 68 -57 -9 115 
43 96 66 16 108 -111 43 -42 112 76 -99 125 -88 -91 94 101 -21 6 -96 64 -12 63 -120 -85 100 67 -62 -37 90 -75 -63 -59 2 -68 107 55 -31 1 -66 -28 -62 -111 78 -51 23 -109 -61 -51 76 -2 -5 -32 -40 -106 93 5 78 -14 105 14 -116 62 35 73 65 91 -89 -100 -113 88 -29 -58 -65 11 -23 -63 30 9 -41 -80 -86 -112 66 -69 -2 42 26 98 -73 49 19 -104 -52 -49 -42 -4 -11 98 45 -6 86 -57 -19 57 -15 -99 49 -80 -45 -56 -57 26 -100 43 112 55 -108 116 47 20 124 -18 -56 73 5 -8 -89 76 116 12 -61 103 -30 83 -35 35 9 -13 123 -102 -18 -85 16 -23 -13 8 118 33 -91 -86 0 -67 -89 -70 51 99 75 -16 23 90 -13 -74 -108 111 -91 19 40 -125 8 43 -78 -31 117 -92 -49 56 -83 19 -117 13 -114 34 104 31 17 13 -75 53 -79 20 21 87 -116 69 97 -57 119 -127 -17 15 114 70 -96 -36 10 -51 11 -116 -2 -64 2 97 -8 6 59 -101 -15 -42 -48 9 111 -68 93 -29 68 42 111 -27 -8 -33 -28 -95 89 -119 -57 6 61 -59 -103 -29 89 24 -28 -18 -78 76 17 -25 -104 104 -53 100 28 -85 -13 -22 123 -28 92 -67 -125 79 118 -83 -105 28 106 -15 61 -110 44 106 -58 48 34 61 75 112 -3 126 14 -126 28 -124 -78 37 12 60 -35 -116 101 120 73 -22 -115 -98 6 -105 -101 96 116 124 98 -24 123 28 85 -28 -114 88 0 -8 38 5 41 124 -121 97 -96 -85 20 -51 111 -61 55 6 -14 -45 82 99 11 19 117 -27 -50 -1 40 -108 -120 93 -60 -37 -53 55 -106 -76 40 31 -55 -8 -50 107 -20 -60 -122 75 -125 47 29 -127 64 -21 91 -83 92 -18 60 -84 83 -69 -106 124 -99 100 -127 -98 -88 -61 -49 -88 49 50 116 78 63 -11 -103 -17 -77 113 38 -69 109 96 98 -12 -81 61 124 89 61 51 7 -85 53 107 12 46 53 -55 116 -50 6 40 -104 24 82 -119 8 67 -71 -116 -15 -34 63 -10 -123 -42 -70 -42 90 -35 -50 -65 105 -64 45 27 -84 -99 112 -67 -4 60 -11 -12 -4 -26 89 -99 89 15 -119 -10 -50 24 -18 105 121 -93 -123 -110 87 34 -7 27 65 52 63 121 -64 89 -18 -115 25 12 118 28 127 124 126 -8 115 -97 80 79 34 -83 37 -84 106 -50 124 23 9 10 77 28 91 -68 124 96 -86 -106 77 -116 -80 -103 -56 118 -69 -106 108 39 -24 120 2 30 116 16 122 -20 -6 -87 -69 -73 -2 72 -110 -58 8 -49 -109 117 45 22 65 -38 -29 89 78 103 -91 -48 -63 -12 -111 -49 -19 45 102 -83 -118 45 6 -17 -63 -63 110 -101 118 54 120 54 103 -125 -5 -77 48 17 -21 48 17 -19 -126 -63 -75 -53 -14 -45 -112 -99 33 -68 -47 -6 98 38 -98 -56 17 103 77 116 -9 -25 105 77 67 -19 -19 -87 92 -54 11 -20 -83 80 97 80 -41 92 31 15 -17 53 -35 -96 -120 -15 -119 45 -120 -117 41 122 -38 -92 -39 -109 37 -62 -49 -15 9 -102 -67 -71 -19 -30 -101 114 -54 69 -87 106 115 -93 -11 -103 59 -109 93 -8 26 32 -98 -101 117 88 93 -34 -5 19 -112 30 72 -100 -59 5 76 -5 111 -15 96 -100 57 -22 126 0 -17 -103 51 107 -30 -26 68 24 47 -12 20 -113 -69 -78 118 -19 -94 -39 -49 -92 -57 104 15 36 114 -87 39 -35 -21 4 8 82 117 73 -15 -29 66 51 -41 -108 -22 -1 69 9 -92 -2 -65 -34 15 44 -111 72 15 26 1 -9 -116 95 -95 31 72 63 -78 74 96 91 9 24 10 -33 -69 -118 -109 53 121 24 -61 109 65 30 -27 68 112 47 -96 -112 70 -124 107 107 -19 3 92 -121 119 11 -27 46 -117 127 41 56 -80 -14 30 -38 -124 -74 64 112 -90 37 49 -62 83 -124 47 -76 5 91 -33 -2 89 -126 84 121 28 96 82 3 32 -84 -103 73 -71 82 98 -57 47 -61 -89 -26 -126 -103 -46 -31 45 124 -20 33 124 -91 1 99 -39 28 122 117 -53 56 72 -116 -22 -84 -59 21 -70 -40 11 -18 78 -78 83 40 -100 93 83 44 -28 30 109 20 -117 22 -43 85 -121 127 -5 -51 7 -51 -115 105 8 -90 74 -86 33 -35 -67 -12 -76 -65 103 55 64 -94 26 109 -114 32 -119 49 -97 114 -105 -115 -4 84 30 81 -111 -81 17 100 28 110 58 -74 86 -72 62 8 59 62 -102 -42 -113 -113 121 120 115 93 -58 -88 -42 63 -50 -127 -64 -18 -54 -52 -32 -6 -69 52 40 64 -43 95 112 -37 -29 67 -23 -51 -76 24 59 58 116 93 -60 -28 108 50 -25 73 9 32 -94 -33 50 6 66 -113 41 108 -60 -68 39 -6 -117 -114 -71 115 -11 -93 125 80 104 -55 -28 -124 -120 103 -18 98 95 -51 -83 -26 -110 44 65 -37 20 67 90 121 -86 122 62 -29 -10 126 68 103 -11 -45 -117 94 -69 -31 -122 2 -57 -10 99 -114 -5 31 
