-26 -108 63 -19 55 -37 98 -95 92 -86 65 -1 79 86 35 55 126 70 59 -101 -11 -56 -70 -121 1 -98 124 -82 -51 -59 102 -4 -75 -64 79 35 -36 -11 -103 -93 -85 -10 40 22 125 -53 114 74 20 24 -60 -16 -43 101 -75 -123 104 -96 109 -67 122 26 126 -1 59 105 -63 87 105 113 116 29 -118 39 -16 -72 -8 -64 -118 45 94 34 -36 8 73 1 1 19 -82 12 1 29 72 -108 36 -124 39 6 -85 -4 -127 3 -105 61 81 -25 77 -116 -60 36 -50 -49 12 127 94 -79 -52 118 12 -101 -14 -90 -12 -46 -73 -109 -120 -16 74 -26 -38 74 107 -19 -80 105 -4 -71 -122 104 -52 74 95 -18 -75 -105 52 -85 22 -124 -37 105 -28 -48 -86 -51 72 118 85 122 30 0 -84 -31 58 85 -35 -29 -24 -3 -24 61 -25 1 22 101 13 84 47 106 -92 -29 -72 15 69 -17 -51 -66 71 -68 -92 22 123 -90 -11 -51 -50 53 -17 79 -3 20 -105 97 12 -92 43 -111 99 88 9 82 -24 -14 55 77 -23 65 -25 -3 -14 12 114 -86 9 -12 -113 -23 101 85 30 -85 -116 127 22 84 -71 11 -96 18 83 -42 126 126 -114 -41 -105 66 31 -90 21 -86 22 -88 -24 102 61 -87 -33 -84 79 97 -35 -24 13 66 -118 -92 -19 105 -61 5 -126 -6 -97 33 80 -21 -33 -40 -119 16 76 37 127 -117 -101 7 -58 104 -89 21 -76 93 75 94 -55 -95 90 -49 -62 -18 12 -127 113 91 -21 32 -71 -98 -97 -34 28 11 -56 31 -61 16 -122 -30 -72 51 -14 110 63 -105 94 -34 -5 122 60 111 -114 -74 -122 -53 -54 113 104 -68 -117 64 -64 -48 -50 -68 93 -53 -77 -91 121 -126 46 -64 18 104 82 -76 115 -67 124 102 14 -118 95 -22 -67 -13 -126 84 98 -91 30 66 35 -106 -54 67 62 -93 -44 91 -69 -41 104 114 64 -64 72 -34 -126 49 10 -60 73 95 -105 -101 73 64 -2 1 24 12 104 114 -14 67 4 104 -87 29 -6 3 -82 -60 -12 -103 97 26 -97 -55 81 120 38 40 -112 51 77 -30 -97 20 -124 -14 21 -43 53 -51 -112 39 12 -73 115 20 34 104 77 106 -45 60 -96 -118 -127 -47 -5 120 -83 39 11 -86 104 -67 -34 -59 17 -34 -88 -59 40 -32 19 -114 -82 3 58 47 73 -6 -16 115 55 -121 34 108 41 -97 -116 -105 7 122 85 -97 3 -105 39 118 108 -1 123 3 -1 -100 81 -25 25 110 111 -125 -42 51 45 -77 121 -16 -94 -61 8 127 126 -51 1 61 -15 -114 -59 71 -22 4 122 70 -42 -55 31 26 -47 -45 9 -60 -115 -101 101 35 -85 71 122 103 109 46 -46 83 54 -107 -96 -26 122 -88 -13 -17 56 -52 86 39 65 81 -109 74 -121 119 79 -44 4 -105 -42 -124 -8 80 70 -8 123 -100 -64 -85 -36 89 24 -73 10 42 -53 -96 -9 -114 -114 48 -99 -3 -105 -25 100 -115 -36 -102 118 38 -35 85 100 -16 -27 -67 -108 90 -23 68 82 22 -83 -31 97 -99 35 -19 -126 45 -6 67 46 -54 58 110 68 -94 -38 58 -78 -127 -92 -23 -29 -69 -100 -104 -115 82 -101 51 -61 -33 -39 -97 -8 -31 116 -96 100 -86 -16 92 -105 -66 -114 -54 -78 -121 94 15 -115 -90 76 49 -69 55 9 126 120 -120 -13 -5 -42 -23 -25 -97 -22 32 -1 -49 -121 108 0 -78 82 -124 2 -8 69 -18 -70 1 105 -85 17 98 105 96 -62 28 -117 -92 -46 -95 28 -43 -94 77 -60 -16 22 107 -24 -9 -45 118 6 -114 -16 -31 88 -20 -1 35 120 -70 125 -34 82 4 -42 -102 -71 37 -66 112 95 89 28 96 -14 -114 -13 -109 -75 110 58 23 -29 103 75 77 -62 49 24 88 117 127 -116 88 115 -120 87 61 101 30 110 119 101 73 -118 118 -5 -34 86 -72 -75 39 -15 -61 24 43 108 101 57 -109 21 -99 119 -49 -18 83 67 -4 119 106 116 -96 31 -7 -70 62 -87 16 104 -104 -7 66 120 -48 44 120 70 31 -20 -61 -109 -97 115 106 -30 4 -31 -72 -78 77 -54 59 -99 38 51 79 -115 -21 -104 59 -85 11 111 45 -15 -3 45 -95 -66 127 60 99 -61 113 -51 -40 -100 35 20 -118 99 62 105 13 45 -23 -72 -21 -31 73 120 45 -49 77 -7 40 41 -72 50 23 73 103 71 -72 9 106 -122 -35 44 -7 -93 5 44 70 -13 108 -63 65 59 16 83 29 4 -25 -103 122 37 -80 14 -5 89 -73 -88 12 -92 -105 -35 -51 -50 -14 71 20 -43 -13 -57 99 -115 116 -82 86 116 -70 30 -85 48 97 -1 78 0 67 93 -25 -86 -7 44 -8 77 111 -42 116 27 1 -46 -19 44 29 94 -91 40 53 65 18 -3 110 -81 51 -73 -83 -64 -120 56 -32 -74 -71 -20 48 -107 27 -49 -54 78 11 20 73 69 9 119 -77 -117 -34 -59 108 -86 52 26 111 -118 -18 65 -71 -62 -37 104 96 127 97 57 84 56 -18 26 -31 70 81 85 20 -114 -125 -64 -23 9 69 
-60 53 11 -27 -76 -72 63 -82 126 116 -111 24 2 -67 -100 109 21 12 -117 48 -63 -126 -51 76 13 71 -1 -11 -62 67 -6 102 13 2 46 74 -66 86 -41 100 5 -67 94 -125 126 -73 -30 -84 7 -98 -127 8 -93 53 -14 -79 37 73 -48 -56 48 102 30 -14 -92 -83 -125 -96 -36 16 -44 55 79 109 -15 51 56 -94 113 1 48 -79 68 -71 -82 80 91 109 -121 -88 -41 -124 -125 -122 22 -103 -7 18 109 126 -62 -37 -126 -103 -58 76 -119 0 119 45 -115 -21 106 66 -46 23 -1 -111 32 32 116 -71 62 102 -111 106 -87 0 113 -121 24 42 -50 -98 -57 0 -6 20 84 -118 -98 -102 -121 34 68 21 -38 -14 -6 109 -19 93 51 110 -64 43 -26 107 54 -100 -19 121 18 -83 -19 25 93 32 -28 -91 64 -111 28 -84 -4 -1 36 109 -75 113 45 -62 116 112 78 -50 -97 110 -120 -56 66 -89 -117 -122 -80 13 -38 -59 45 56 14 39 53 8 73 -76 -53 103 49 -107 -60 60 -48 -16 -37 58 47 -118 96 -49 15 81 85 72 76 9 56 78 -76 -115 -75 -52 12 -100 85 93 -50 28 80 -6 -42 2 61 41 14 -78 29 95 -104 116 69 -42 -45 7 -107 -94 81 90 -33 20 41 -112 -48 -4 43 -19 108 -14 -64 108 -63 76 117 -22 22 48 -67 -51 115 22 72 -111 4 21 -101 52 75 7 -17 91 96 -105 31 91 -127 72 -8 -82 5 -97 77 97 -113 -53 69 52 91 -94 38 108 26 81 100 -118 26 110 -21 -106 126 -115 125 39 -28 -113 67 27 -117 87 -101 50 -9 72 13 -64 -64 -31 32 116 70 -106 -93 30 5 106 32 28 14 -91 8 53 1 52 -42 19 -25 68 39 120 -98 -106 -39 -109 -113 -29 71 -18 100 1 -103 34 -27 14 -118 -91 -15 58 94 -119 -67 -13 -92 -100 75 -83 69 61 -26 11 -113 -118 -63 24 -69 48 94 -62 18 -101 7 -41 -123 -120 50 110 106 -77 67 38 75 53 18 58 25 107 121 -51 -98 -44 -5 110 12 43 -63 22 23 11 118 -3 17 -5 93 -105 69 -78 -61 39 -17 -100 96 -67 -104 76 115 -43 -75 -61 -78 53 71 -127 94 49 -13 -37 92 115 116 -52 -67 54 118 -115 48 -13 -3 53 19 -104 20 108 107 -113 -35 80 -87 20 -101 9 -106 113 103 64 -47 125 -115 15 59 47 8 -54 -101 119 -102 44 38 -32 107 29 -99 112 -124 63 -47 -84 -102 83 12 9 -112 63 -36 26 102 40 15 71 -72 -48 -4 -22 57 62 70 78 -39 -12 113 -116 103 93 9 100 117 -13 114 93 -4 -43 -119 -7 93 91 97 45 -1 -12 11 -53 -57 69 -38 90 -123 79 93 -95 -116 43 -112 -107 58 4 -39 104 -64 85 -37 58 86 -123 103 -70 -44 -87 25 -9 -56 69 -97 -71 43 117 2 -93 -89 -14 -28 99 -13 89 -53 48 72 -117 82 94 -47 -90 15 -121 40 -76 -93 -4 116 90 -41 -97 46 -79 109 -48 29 -58 -73 89 49 -116 48 -43 46 70 -63 -71 -51 -13 28 116 103 23 54 -36 -96 5 -61 -75 -56 -44 7 -104 -14 117 32 102 -19 -88 -39 -34 -42 -115 16 104 -61 87 -99 61 -29 -116 118 67 94 51 -103 7 41 120 10 -62 66 35 0 -82 -72 -28 77 -55 -21 -45 118 44 -6 -120 62 16 -26 -78 44 -51 -25 -122 -86 -57 -77 24 44 -110 -12 17 125 -101 -17 -80 -124 124 88 24 31 -97 -91 -78 -26 120 -127 30 -49 87 76 124 87 -86 12 72 114 13 44 20 -78 71 -96 93 -80 6 -15 -69 -26 -125 28 76 -49 106 53 22 -107 -118 -65 121 -123 64 92 57 17 116 -106 113 39 -44 22 78 84 51 58 84 -101 -39 31 55 -93 -78 59 -113 -126 -17 -87 -102 60 -86 -90 69 -68 20 -116 -46 89 108 118 13 -2 -61 -82 9 104 -73 -119 -90 -109 119 92 -55 -124 -62 -42 119 -3 -5 24 -68 126 -3 -97 -121 -66 -75 -27 110 -97 94 -116 -38 123 11 -122 87 97 49 -124 -34 82 -35 51 -35 -109 -75 -84 -61 -68 -31 43 44 -62 -42 -5 -36 -58 114 86 -83 -111 -2 104 -88 -18 20 86 70 -51 -15 -13 -10 -18 96 -77 -15 29 -105 -77 120 74 -80 -113 22 -102 34 83 25 115 -12 -80 -41 16 23 55 0 98 53 -8 -67 67 -121 -47 73 -92 -28 46 83 -39 65 -41 -13 -40 -69 -88 25 -96 121 110 -43 -84 123 25 102 0 59 16 -121 -43 44 -43 38 86 -49 32 -67 -3 -92 -69 114 15 -114 115 110 94 116 -116 15 125 -126 82 -48 16 -25 101 16 -30 -92 -73 -24 -56 -1 -45 64 -27 -118 38 26 -1 -23 24 -24 83 91 64 -54 111 43 96 -45 7 -39 75 84 -35 -56 -25 107 -51 -36 28 58 32 -119 -106 51 -78 -61 103 67 -81 67 117 -123 -124 -47 27 -23 54 84 -25 35 -45 37 -17 90 -61 -44 -122 -24 92 86 95 43 -102 -21 -31 -60 -116 -55 13 -23 -11 41 -34 -82 18 63 
-97 -61 -4 61 21 -105 52 -105 -86 22 -19 3 -72 108 -21 -100 71 29 -104 -27 -43 -6 39 -105 -84 71 -21 -15 6 -112 87 -34 17 -104 -48 -83 -5 84 -87 -38 91 -84 -57 1 -79 40 -41 -9 75 67 -124 -121 72 104 83 64 95 117 -84 -56 -67 -15 -93 -58 -41 -116 26 -15 93 -76 9 -97 2 126 19 60 121 -37 70 29 -44 3 -36 -117 102 59 -42 -6 -34 8 114 66 101 69 126 -6 -51 29 15 -25 -64 93 117 91 93 112 -18 49 -94 -41 -117 -26 104 -83 98 61 21 28 122 -56 -125 -105 -53 -66 -77 -17 -100 113 69 117 -102 83 88 5 -8 -12 9 27 -24 -16 44 83 -127 -69 -69 24 64 -99 -73 -14 78 -78 -79 117 32 -110 -121 -11 17 83 90 32 122 -34 -60 -121 -121 -41 -118 -49 40 -26 3 -66 -122 -98 -117 -80 -47 123 -67 -56 -23 26 36 -41 94 48 -126 -62 101 48 28 96 21 -53 34 94 118 29 -33 -104 -114 41 -7 32 -70 -54 -99 7 -7 107 9 -74 75 -101 102 -99 87 -99 17 -73 -12 -2 -35 55 67 31 -109 -22 101 119 19 -29 60 -93 39 18 -29 -123 5 -64 61 83 92 -76 -79 -75 -22 105 -77 -115 -94 14 -29 35 19 -105 79 -71 105 -100 87 18 -14 63 48 -69 -59 10 -45 -83 -105 22 -46 27 21 84 -80 72 -38 106 -33 -122 -78 54 -42 -51 -84 -54 -16 -85 126 117 126 -80 30 -50 -27 -62 36 47 -41 -124 86 75 -3 -110 15 112 14 4 99 6 -69 11 19 -124 -126 6 68 -66 82 -28 60 -33 17 -61 -39 85 38 26 56 -103 -91 31 -47 -26 71 81 -99 -31 -63 -4 36 -123 -17 -13 81 -64 -62 109 -107 33 78 4 94 -28 -63 65 -78 -103 65 -44 115 -86 55 21 94 111 82 94 69 -65 120 105 -39 -116 95 80 -38 -95 -89 -7 86 -35 5 45 17 -111 -22 -51 -26 107 -68 -1 -30 32 68 -104 6 -72 -53 -98 -95 36 27 -77 -127 5 74 -64 -44 16 -88 -2 38 90 -66 17 -127 109 -15 -106 81 96 -108 -112 24 49 -44 -17 -6 -40 -45 -19 107 -88 -5 91 30 -115 -109 43 10 -88 109 54 125 110 10 68 8 -74 9 79 -100 10 97 27 17 67 105 -102 -24 41 85 -1 86 96 -18 -11 65 13 -98 -30 50 -61 112 113 -33 -61 -22 82 -21 0 -61 122 45 -125 -73 32 -105 125 90 99 116 57 106 35 121 -38 55 -102 55 21 -47 114 -61 124 123 -44 -66 -52 71 -17 -20 97 104 -9 57 -31 117 -5 112 -3 -46 -88 -119 27 -127 -70 -47 -104 -90 -125 -99 -39 17 -55 16 -80 -50 49 126 -59 -5 41 -53 84 -91 -109 57 24 112 7 -29 -111 -123 64 29 -84 -89 103 53 77 123 -30 63 72 63 -39 -25 -68 -110 -7 -33 107 123 -53 -73 53 -126 -21 8 -85 -4 -81 -67 -6 88 113 -103 -33 43 -77 -125 -36 25 -67 -90 -125 50 51 -26 2 -109 -13 99 125 105 49 -107 88 53 -86 -52 69 -35 0 25 -69 122 25 -100 63 -104 123 25 -110 95 -61 -71 72 76 -87 53 98 -65 100 -61 64 125 50 -64 -54 -93 -82 33 -110 -111 103 -31 83 95 94 -105 -84 11 125 -49 49 -108 60 47 -59 100 -127 -80 52 -68 125 107 88 -30 1 -12 89 63 -53 -83 7 8 28 -8 -83 -126 110 -47 -108 99 120 -77 97 65 101 -49 74 105 63 -125 -47 -114 102 -29 -42 -73 -67 -91 127 -45 82 -105 79 113 -17 40 -100 87 77 121 46 6 13 -29 -112 89 -110 -122 44 -41 33 124 -82 -3 116 -69 -34 16 -49 1 -105 10 124 65 -49 3 -45 -82 110 -62 -50 -34 78 112 -121 -38 42 -109 -94 -101 58 -15 -49 -108 -9 21 19 -90 18 -116 -119 107 -79 -12 -7 110 -9 22 29 -31 -83 -76 -43 115 -75 87 -76 77 70 -23 -111 110 -75 -126 95 -109 45 -110 48 127 -125 79 126 -113 68 -70 39 4 -88 -34 96 -4 -39 34 -19 13 38 94 69 -73 85 -69 76 -34 120 -4 -89 88 8 -119 -81 89 -49 17 -72 96 -64 50 -74 31 -85 34 -99 70 39 63 -78 -13 61 -123 -45 -13 18 -103 -87 -121 -111 101 55 108 -17 -83 70 -8 -27 -13 -89 -113 -122 124 -79 107 43 20 50 107 -18 -79 21 -37 -93 -41 14 59 -101 -41 92 117 -16 35 127 11 80 -12 -45 -87 -108 -125 -24 107 -73 39 83 86 -85 25 -118 -122 103 69 45 40 -9 10 44 29 -11 35 -87 -4 -23 120 69 -75 121 54 103 71 37 82 62 86 -80 -25 -35 26 -75 -20 -109 -50 7 -59 69 74 -91 -74 -48 -102 53 102 20 117 71 -26 30 -102 -22 -120 -42 50 -31 -59 -24 -45 -111 -41 -31 -87 85 -53 -19 -33 4 6 -102 -14 37 -51 -76 -82 5 1 -108 -65 -35 118 -99 -5 -73 -28 97 97 -52 94 84 32 103 111 122 124 -99 55 11 -21 -56 65 125 -18 25 -21 -54 32 -1 -3 -6 -28 -122 -119 61 115 41 -36 91 
-120 -74 13 43 22 82 -54 -122 -23 -29 98 61 -83 28 -5 -48 68 52 5 73 -60 119 117 125 -123 -55 111 -51 106 -4 -75 -4 69 -101 -11 99 -56 84 7 -100 -56 -111 70 118 -99 41 45 -81 69 -109 87 91 -69 63 -110 6 -22 -29 -76 -58 38 -120 123 -107 74 -99 55 -85 106 17 -113 46 -90 -82 -68 125 27 -99 -26 -99 -123 -56 6 46 67 -14 16 -98 -101 -34 -118 64 -65 34 82 32 94 -20 -5 102 -94 -127 67 -5 114 126 -76 -98 -57 52 78 -33 13 46 92 55 -54 29 93 -79 -120 86 45 17 12 -55 118 -88 23 -67 -84 -24 -96 101 -74 50 33 2 -71 -114 -22 -45 2 101 -25 -107 -57 54 23 -2 35 -58 61 -27 60 92 95 70 -32 41 -12 -107 57 6 64 -36 -23 -18 106 52 -110 83 17 59 59 37 -74 -38 87 -87 -27 -72 58 80 126 65 -106 -110 6 98 -82 -94 59 -77 17 -102 12 91 14 -104 97 108 -56 -38 -28 -124 -104 -119 90 117 -48 91 43 -31 -118 -94 11 116 -40 69 56 123 -16 -19 72 50 -33 -60 -38 96 58 -61 2 -59 -38 92 79 -114 103 7 113 61 -62 -127 -61 75 -116 26 -108 -50 59 73 84 69 -119 57 31 -109 -35 -15 -86 12 103 39 -34 103 116 -115 -99 -25 78 -4 19 80 -37 106 -44 -36 1 -65 -106 86 73 -63 -103 37 91 -60 -5 -13 -59 -7 57 126 97 81 90 -48 -44 -31 -76 74 -53 -10 91 63 -88 7 28 90 -48 49 -88 72 -42 -117 27 -99 -49 48 22 45 51 8 5 94 0 -9 6 15 32 84 2 2 -11 -122 -123 45 23 14 -87 91 69 -120 14 -40 -35 1 79 48 -122 25 61 95 -17 50 -116 -41 68 -30 -97 -62 83 108 -73 0 -61 115 54 -105 84 87 92 -28 -89 -49 14 72 50 -118 99 -116 37 -105 -52 -80 -71 -55 86 -22 109 -82 -19 -123 -63 8 -46 46 1 -76 -114 67 -43 -22 71 -20 -52 102 -12 -79 -68 -55 110 -47 -64 -12 -56 78 52 31 50 68 89 96 16 11 68 -14 -68 6 -9 80 -56 -49 -57 22 -47 -124 102 -66 -33 7 34 -64 85 -20 -67 33 -7 33 -127 61 39 87 75 -89 -64 -10 33 -122 -99 -31 119 -99 -82 -67 -21 65 109 36 -11 -48 -30 -17 -33 35 -18 -127 -29 -49 93 -13 25 61 -48 43 -123 -7 -94 -27 -105 17 96 12 25 41 121 -67 -7 -99 58 -103 -54 -73 -98 -86 20 100 62 -120 35 -117 2 -103 18 123 91 37 64 -56 56 -92 -12 45 -110 116 47 79 -118 100 -66 13 78 -18 -59 72 67 -86 1 -44 -124 -52 28 5 11 -19 87 29 -36 -101 108 41 -77 3 58 -91 -35 -21 -122 80 11 80 -30 22 19 -48 -75 26 44 34 -9 -78 90 -110 90 -5 -52 91 91 44 -13 -56 120 68 10 -73 50 13 -47 120 -48 96 32 118 6 -9 -119 35 100 44 -105 26 107 -42 -86 -18 -42 48 -39 124 -17 7 -127 58 70 -6 -43 101 -96 -75 -107 59 91 114 -92 1 -20 92 -50 -121 -58 63 67 83 -5 -106 15 -99 36 35 41 125 -56 126 -72 86 94 118 -19 -115 -122 18 -102 101 9 40 -109 -43 84 76 34 123 -95 -91 19 119 6 -15 104 -78 -45 -111 -3 39 95 -50 88 70 43 49 66 -49 91 107 -31 79 4 77 60 50 -65 -127 126 -1 -111 84 -61 125 -81 -18 46 26 -78 18 81 107 -62 99 63 62 124 -5 119 -78 -8 124 79 1 -89 107 -16 35 -108 46 -53 -25 107 110 75 -4 26 53 -91 28 -115 -17 89 113 38 -127 27 -82 67 17 -11 -4 122 85 6 71 5 -19 60 54 31 -108 -80 8 -103 -89 -107 -121 31 83 -8 -70 -83 12 -28 112 -75 -40 60 -63 -86 -59 -47 107 -126 -76 -102 -73 27 -63 65 -122 19 85 -96 82 -121 -70 -29 -21 -102 -95 11 -62 -116 99 119 41 -104 -17 121 81 -100 44 126 -53 -49 -22 76 -7 114 113 3 -95 -100 -62 -95 -2 -92 -79 -14 -5 -76 -106 -13 -11 -98 86 -115 71 -103 -91 -32 -54 -100 -103 71 -21 -24 51 -39 -15 22 63 90 104 -15 -50 53 -39 -16 31 47 100 -51 32 61 -11 15 -108 38 -125 15 -57 -42 35 -54 77 51 -47 -78 16 -111 -91 56 -83 -50 -20 70 123 -22 -12 65 104 105 22 -62 86 -80 -95 10 22 51 -44 65 123 -80 -72 118 67 -56 5 -20 -91 118 35 98 -10 -5 -37 0 97 112 3 -3 -96 -80 -83 -13 49 -77 5 -48 -57 -98 -101 -17 -92 -59 16 43 119 -25 65 85 -50 -9 -56 28 30 96 -26 -30 9 42 102 96 -95 124 -73 109 -69 -82 19 125 78 -25 -13 86 -12 42 40 31 66 64 -110 -114 -31 84 30 -69 45 -45 -65 5 -68 -9 86 -29 -2 -92 -85 -49 67 59 64 -91 -116 30 -87 36 69 -85 112 0 103 67 36 119 -2 125 -12 -89 66 -98 -24 -36 28 124 115 64 43 76 -72 77 -24 35 60 90 -103 
-11 35 -11 33 93 -71 -53 -87 -12 -100 -61 -36 77 85 -44 -1 -61 -94 -106 -64 108 85 89 21 95 -120 -57 82 -101 -112 -94 54 94 5 119 -122 -17 78 -106 -7 -57 -115 35 40 -16 -61 33 -45 111 -67 -105 19 105 -108 -46 -49 126 88 -44 -51 93 126 26 -17 112 106 -17 -105 -63 119 -8 76 -23 -6 78 -17 62 1 5 48 -97 105 -15 101 -8 121 34 90 78 55 51 53 -13 33 -56 -27 122 -39 -6 82 103 -118 111 -59 60 -82 -79 -65 75 120 -82 -106 115 -105 70 41 -116 69 -3 -35 119 -51 -51 -74 -113 -92 94 -117 99 -60 118 120 39 -14 107 55 -59 31 31 -20 -44 78 11 9 61 -1 124 22 -27 -109 -26 66 84 -54 86 -1 -46 -19 19 -62 50 -108 -20 16 58 -40 73 -120 -46 42 64 -45 27 41 -38 88 -116 113 -46 105 -11 -44 90 15 -5 -68 -58 62 -119 -23 110 31 32 111 -4 -99 -70 -66 -39 22 -95 -46 -127 97 -55 62 87 -22 -19 -100 61 0 2 -54 -4 -27 76 5 54 83 80 83 118 20 88 75 9 -82 35 -48 4 84 -127 119 102 -39 40 43 65 -15 36 -119 98 -88 73 -45 89 -66 -45 44 26 61 -122 125 82 -80 84 -8 118 67 101 -81 67 87 -58 -122 36 19 118 -59 68 -113 -110 -36 -72 110 29 125 25 -114 -73 5 76 -44 15 -64 107 90 -13 43 -81 90 -96 43 4 -115 44 84 87 -20 17 -119 85 -9 92 -12 -86 8 121 -38 89 17 -77 -100 -65 101 -82 -56 -67 43 -91 106 82 15 104 35 19 -120 -15 -58 5 24 -46 -81 -93 68 -124 73 0 9 -46 73 -11 -68 -95 -60 71 37 -69 36 26 25 34 21 5 -119 -45 11 -109 57 55 -42 54 -54 34 -16 -59 98 -36 25 -70 52 23 -63 -23 -7 100 -112 -56 64 -38 49 -73 54 51 1 -89 -4 6 10 7 -12 -46 49 83 -57 -122 -13 48 11 19 -21 -52 17 22 -73 69 56 -55 -58 67 31 116 -8 0 -121 -99 -37 -105 -96 127 -74 108 -99 -90 66 30 -120 -71 -91 10 -72 -28 -5 7 93 17 31 -104 -62 42 48 -41 -56 -3 27 104 -43 -69 26 87 60 18 -12 31 52 -18 -125 -93 69 -42 7 38 -54 55 65 -103 91 127 -69 -126 99 58 101 79 78 -73 90 110 11 123 118 96 -64 -92 69 -9 91 1 0 68 -66 -7 -49 -27 -127 84 -98 14 13 -85 -114 107 47 -67 -122 0 68 111 120 38 89 -110 8 8 92 125 119 64 -9 -26 -51 25 91 -8 17 88 -118 112 -62 74 77 9 -83 48 -76 -11 -123 -9 -36 28 -16 14 -16 17 -116 -115 -92 1 118 -65 -52 71 -59 54 -71 88 -104 -120 90 -3 -107 -115 37 -32 31 -13 -76 48 -76 -3 -73 -115 25 -119 100 -55 31 -36 35 46 97 -32 112 -82 -11 -112 10 104 -39 -71 62 -96 54 -38 -48 -83 -96 76 41 -126 -49 -4 106 119 -21 -96 87 -57 -42 109 -69 127 100 -96 1 52 -23 -69 69 4 119 -103 11 -29 -110 99 -13 123 16 26 -93 90 -91 12 4 -120 -99 -83 -9 104 81 -23 0 -66 107 2 107 -97 -18 -47 -2 29 24 12 -69 95 38 -63 -121 -45 51 -107 10 -84 -18 -2 -35 30 -92 82 -93 22 -79 -105 88 -83 -52 -63 -7 26 98 19 9 50 29 78 12 -93 -93 -86 -59 23 103 -46 34 -5 104 75 85 -110 -58 46 12 32 125 34 -65 -4 -108 21 42 48 -6 -102 -113 -54 -108 126 -102 6 -11 -87 50 71 -114 86 -47 -89 94 -88 64 -94 -68 59 101 95 -90 37 -72 31 76 4 -93 -63 -32 -26 118 -106 28 -119 127 34 51 -46 53 70 -7 119 -73 -70 40 82 -52 123 -118 -126 89 126 -52 64 -62 85 -97 -50 114 -117 22 -68 94 -51 74 -55 31 87 75 -40 55 6 88 52 50 116 64 121 25 8 -98 -118 126 -126 -102 121 72 -62 123 -19 73 87 127 -84 11 71 0 125 72 -65 99 -51 80 -11 -8 127 -119 57 105 119 109 98 121 -60 26 31 109 -78 9 79 106 63 62 -38 32 -22 -50 -112 -98 109 93 -11 121 106 14 -110 -95 2 61 -101 -117 -28 107 120 -91 -34 -94 2 -70 -110 -43 -3 90 -41 90 -109 101 -27 34 53 31 3 29 102 25 -96 -62 33 11 -22 -88 -46 118 -86 -116 -26 101 -106 116 -32 66 88 113 98 71 105 53 -24 -14 -68 43 -36 44 -107 -80 122 11 -90 -18 -21 98 -53 127 82 -113 -52 79 23 -24 79 5 -28 40 -27 58 -118 -74 -53 34 55 7 38 -49 0 80 3 113 -109 -11 -104 14 48 -69 85 -100 84 97 -11 64 -77 -25 105 70 -1 -77 -107 -101 123 -82 105 -37 51 -90 -91 -41 -9 1 -92 52 107 -83 -32 61 92 -64 -1 82 37 63 11 88 -83 7 65 0 99 -120 32 -15 -18 -107 82 -64 31 10 -103 -99 -54 -95 24 -118 77 -28 -73 -115 -30 -62 68 -61 28 114 13 -13 -86 -92 45 28 
-5 -53 30 -23 -58 -77 65 -113 107 19 -62 33 -66 -97 -93 7 -38 59 23 84 104 57 87 4 62 -23 37 -70 -14 32 -86 -109 20 -83 91 121 -122 -14 89 100 -10 -18 80 15 -36 -43 3 -10 58 -22 -114 49 -43 -64 -66 1 17 -110 -122 -76 24 -76 67 -61 -70 -82 -127 87 -78 -95 -47 -8 32 95 -51 -86 -39 -1 -78 54 83 70 -34 5 127 -127 -72 63 20 -74 -13 21 84 -109 15 57 -68 -102 15 -8 -75 84 124 -103 113 100 73 -125 -54 101 -61 17 -61 -46 -64 -3 20 127 -64 47 -113 -72 27 97 123 97 -87 0 126 -7 80 -37 -113 88 -100 -126 36 -60 113 -26 58 -123 -95 84 70 -72 17 -98 101 -55 94 -90 9 83 102 -97 21 -12 -61 59 -102 -69 60 -46 46 -103 114 -77 10 -18 -31 -5 -46 99 68 -125 -16 -37 -3 -31 89 -3 115 -84 75 97 -43 -34 18 79 -94 76 -125 55 125 114 71 37 95 -59 14 18 104 104 -17 -90 33 100 -50 -45 -37 25 26 21 118 -79 -29 -98 78 69 32 -117 -49 18 -52 122 -47 -82 66 86 -48 -7 35 25 -6 97 117 122 -57 125 113 -49 -50 20 -35 -38 -76 -89 67 -44 -94 -110 -74 -82 -71 11 -26 -69 -47 90 -3 -118 -76 100 -97 -113 -116 -113 7 -40 -55 42 72 63 25 77 85 67 14 125 -126 -125 -12 86 60 -62 -50 -106 91 78 113 -62 50 -38 -49 44 10 -115 -115 -29 115 44 79 -115 -9 92 57 49 -113 -25 71 8 -67 -108 -97 -48 -45 70 37 -65 20 -11 -5 -59 73 -125 -57 49 -32 -66 -109 -59 112 98 -97 106 -56 0 -125 -16 127 -50 -59 57 92 -113 27 -88 -124 -79 26 81 30 -10 -124 -106 112 -87 -37 39 -39 101 -114 107 -59 112 -45 5 -82 36 -79 16 -83 117 117 106 -10 19 119 -104 -81 4 35 -23 110 -13 -3 86 -1 4 11 -54 -88 -103 48 93 31 34 27 -46 -34 -75 84 64 123 7 -63 99 9 80 -82 -64 -13 -92 101 -29 -23 109 7 91 27 52 46 26 -5 6 17 81 96 -1 78 -81 95 -37 33 123 -65 -22 -122 -113 -73 78 -123 -97 -60 65 -25 15 36 -109 122 -60 102 -4 -107 18 86 -54 59 5 -16 -74 126 67 -110 101 -95 -117 88 -65 73 116 64 89 -114 -122 -120 64 82 -56 104 70 -102 -125 37 100 101 -9 -72 78 -80 16 -64 -76 82 22 -88 9 34 -121 -59 125 -71 -68 32 91 -1 -56 -94 68 -52 -60 -41 121 -122 -9 86 -46 57 22 119 -56 -81 -26 16 42 23 -50 87 76 -115 26 -111 80 74 73 97 -64 -77 70 -7 -108 -35 -127 25 0 113 10 -98 -41 -101 31 -2 -36 88 -67 -53 -110 60 -7 36 -77 -90 97 -37 17 39 4 36 -28 -107 100 21 -22 -89 99 98 38 -88 95 30 91 -74 -103 95 49 -122 95 -126 -1 -13 -11 105 -122 27 -70 119 -17 61 102 36 -124 57 -95 15 -68 -21 78 -32 -98 15 94 82 -30 28 28 48 67 -41 111 -9 8 101 -73 115 -86 5 -80 85 95 -76 -121 64 -94 111 121 -75 104 53 96 112 64 37 84 -125 126 -44 -87 -61 -14 -102 72 -96 115 -52 -122 124 -52 99 -47 -101 74 -10 102 -72 -66 68 -36 65 14 17 14 25 -114 109 -27 -39 93 65 -44 120 -66 123 29 99 92 -61 -109 83 -43 -21 115 20 9 -48 119 38 9 -116 36 -62 -71 121 110 -125 69 1 35 66 69 -37 -114 56 96 107 -105 -45 -40 -32 14 -77 -60 -49 6 -109 -119 81 -33 107 -51 -44 -72 -110 -97 -14 -103 39 -32 105 101 -27 69 103 78 -16 -100 -20 116 -28 72 15 17 2 120 -26 53 -73 -22 -28 94 62 99 -53 -88 121 96 -9 -44 85 -108 -34 -118 3 47 -71 -76 -126 42 120 -65 -10 -92 16 51 -9 -125 61 84 -9 -126 -41 -44 -90 90 77 53 -34 -64 58 -5 110 -90 110 122 2 -102 -49 64 -107 -75 -83 -116 2 49 125 111 -81 105 121 79 -48 108 73 -124 -92 32 -6 42 -92 -26 64 98 70 -49 42 51 -46 -15 -29 -47 31 50 112 1 -5 68 -56 -38 -49 62 -69 24 89 -58 -86 120 -4 67 -89 -11 -78 38 111 36 -85 -8 24 -11 30 -11 -1 -95 -19 113 -68 60 103 86 34 37 98 21 48 -41 93 -75 19 -15 -78 109 71 -75 111 -28 -32 115 83 79 21 -58 -39 86 -4 -53 -21 -30 89 86 94 -55 -103 -26 -44 13 -83 127 -125 -78 -113 46 9 -116 -38 -36 27 -85 63 117 -51 -83 119 -120 124 -39 93 -38 -91 116 -23 -75 -63 78 -95 105 78 120 45 -124 45 111 -57 91 -91 -27 -62 2 127 14 -80 -27 -109 125 -16 81 -79 -22 48 14 -92 14 -10 -76 27 117 -26 -36 -54 -103 -87 -6 51 98 -102 84 78 -104 118 -21 -122 -36 108 69 -67 118 66 22 101 -2 -113 -117 -99 24 49 103 109 -98 113 -70 -4 106 -117 97 80 -111 8 -51 -117 116 -96 12 -48 25 -37 -102 
-50 88 110 -16 -7 -76 120 -107 -47 -70 11 101 -99 -100 88 -111 -16 15 121 14 110 -72 10 4 35 0 92 6 75 113 14 77 -85 111 72 -35 43 -96 -63 -25 -108 -119 -38 81 -57 -21 56 22 -39 22 90 99 37 119 113 -90 -17 113 75 -79 -58 -14 28 -92 -52 18 48 125 -37 19 73 -103 -122 98 68 34 88 -105 90 -5 81 -38 -31 47 23 -28 -19 -38 -79 94 -39 4 86 86 -68 -28 84 -27 37 2 -104 -34 43 87 -73 -83 -108 96 32 14 -126 -78 -4 -77 122 -46 47 62 -93 9 -74 84 -10 2 122 -79 -43 -102 26 110 -22 -66 -72 -44 -6 1 -37 -105 -46 -63 -87 -93 22 97 -13 -100 -75 109 127 -55 83 82 -16 67 120 110 -58 -34 -74 27 57 70 98 -51 73 3 -12 -24 -101 125 36 123 -106 -81 113 117 81 -55 -25 96 -122 103 -68 62 56 -18 -55 -123 -100 -31 93 59 -81 -44 119 10 -97 -92 16 124 125 -67 113 32 50 37 -90 -53 26 -70 13 25 102 -65 97 -80 -98 104 99 8 64 -102 -119 -11 52 -50 11 -72 -37 120 -93 -21 99 75 1 -117 93 -57 37 91 101 60 -86 115 79 -80 -91 112 57 -93 14 -73 -119 -34 -120 4 -89 -89 26 100 -98 24 -24 -31 -99 -55 93 -87 -71 5 -15 45 57 61 -108 30 1 -38 -105 77 -27 28 64 91 -120 81 98 44 -9 24 118 -18 96 -57 -123 53 32 -98 67 15 90 28 42 103 -16 27 -104 -108 -108 44 -32 30 62 11 -9 114 -125 -85 -78 -108 -127 -69 -41 123 54 -114 71 12 -13 -108 -113 93 16 82 -8 -14 27 65 -82 -66 46 74 -1 49 45 -63 -106 23 -49 -46 -95 37 124 28 -40 92 87 51 22 64 58 -22 122 -88 -100 -77 1 -28 100 56 83 76 -102 29 -62 52 -38 -64 60 -76 -13 -69 -14 -70 4 75 120 120 -70 2 -23 125 -54 92 49 77 110 -116 -102 -121 53 -58 80 26 -113 126 123 -94 -107 -77 -112 95 -50 99 -52 127 -68 56 -24 -113 108 -92 106 96 113 4 -127 -95 59 46 -56 -75 41 115 65 16 32 121 -38 99 -113 -45 -116 -100 -127 30 -109 7 -44 53 79 57 86 -108 -113 75 46 52 -5 10 -34 125 14 -116 114 -122 -92 122 93 -104 -55 23 83 -104 45 59 -68 -2 -113 -56 -116 5 -127 126 81 -89 -110 28 29 39 107 14 61 -52 -36 20 -119 -117 -40 65 -98 -98 31 -75 74 9 15 -119 77 -29 -27 109 -120 106 69 -57 87 1 -50 70 -105 123 -26 -100 27 -9 93 -65 -103 44 -39 -62 -92 -64 26 8 -112 -43 -58 47 122 -56 46 50 -19 -24 -90 33 -21 64 15 110 -73 111 -111 -38 -31 81 -52 124 -35 -123 64 97 125 49 -114 79 -50 88 119 -123 -14 72 125 -41 -18 45 -57 -8 -92 -31 -61 -125 13 32 114 -86 -117 -89 -7 -30 114 -112 -119 -73 111 -109 43 124 72 -69 -75 -118 -91 47 -105 37 -83 77 66 -84 2 10 -92 -59 61 -48 -71 -42 -114 108 6 -99 127 -15 -25 6 0 75 105 -114 -27 -44 -8 69 125 -106 -23 -8 124 86 -89 120 0 -116 70 35 116 -19 58 -74 49 57 -118 45 52 -40 -59 84 -61 -83 61 11 -62 -81 121 46 -21 96 -4 88 8 39 -32 -67 -88 31 -81 -84 -17 38 -31 -70 -12 -120 -105 110 30 108 35 18 -23 -3 68 -34 -48 -87 24 107 13 -71 -102 99 62 -43 112 -63 63 -37 107 -81 58 -50 110 116 53 -46 -30 86 -97 126 28 109 -65 94 103 -67 47 127 49 -124 103 -125 -2 105 -71 -127 28 -17 -76 0 126 -68 83 71 15 55 -110 -43 31 107 59 48 52 -55 43 -43 45 -60 6 -42 124 121 91 -34 -109 37 48 -6 54 -96 40 94 34 -60 30 -65 -6 120 92 64 -40 -41 -86 -107 -30 -49 -18 39 24 -110 60 -36 110 -39 -35 -79 -14 -21 90 -42 42 108 63 -27 111 57 26 42 65 77 82 46 107 39 -45 103 110 16 12 30 -123 37 67 100 94 22 1 112 61 89 8 73 96 16 -56 -10 -42 -25 -88 -96 116 -20 -83 84 -93 21 34 -72 12 -46 13 -63 99 73 -48 17 -68 15 66 81 -46 108 -120 68 -13 -17 101 114 66 66 2 -97 85 83 94 -15 126 -126 -97 115 -43 -83 -93 -35 -48 52 -13 56 87 114 94 -127 -74 78 120 -5 -91 -124 -119 116 -44 -103 101 85 -85 29 -108 11 61 91 32 3 -114 -65 105 124 35 -14 60 -76 -79 30 85 -49 -86 40 -12 10 -70 82 62 63 -11 -17 -51 -3 -102 -106 -96 116 -4 -89 44 86 61 -69 -104 -10 -23 -25 -110 24 -40 -112 -18 33 -118 -18 -25 -117 110 13 33 -96 92 74 -56 79 13 74 50 -49 -65 32 -87 -23 45 66 57 36 102 68 -35 49 -23 84 -67 23 -6 6 -96 -114 116 56 21 -44 -34 -45 -41 -33 -38 39 -52 -18 25 89 21 5 47 -118 -83 -43 99 -49 99 -90 -109 33 -12 -76 74 90 
3 98 122 73 -121 53 -71 -1 121 -91 116 -121 64 -73 -7 7 100 -75 69 -116 -31 -71 115 -4 39 94 -83 117 -107 -76 73 87 -47 126 50 -46 -72 -50 54 115 45 46 -96 -82 -94 -35 80 -85 81 61 123 15 -5 28 84 -45 72 29 32 -24 101 -1 37 -119 85 88 -67 -24 111 50 95 -107 44 -81 -32 -6 -22 3 -3 -68 -45 111 -100 51 -65 -36 55 125 -125 -16 92 52 -118 41 -88 -35 53 -76 72 -8 2 -15 -101 9 15 28 107 23 -37 -126 -56 103 -27 -63 -104 -86 74 -107 -126 -27 -21 -21 44 -16 120 -77 -126 -113 -101 -68 -105 99 101 27 34 51 -22 73 107 -111 -93 -93 -34 -115 -125 66 7 6 54 -54 2 66 102 -98 -73 103 -106 120 23 40 -26 46 -23 51 49 -117 36 -33 -120 58 -32 84 35 103 -7 -24 74 16 -101 -59 55 21 -10 15 -27 104 52 109 30 20 15 -124 89 -95 121 -81 -90 83 -81 122 30 -71 -118 72 105 -7 -127 109 119 -43 109 12 65 110 -44 89 125 118 -121 51 -96 -98 -122 -16 -23 -95 -79 -54 36 115 -120 124 105 52 30 -26 66 -91 74 -104 112 -2 -73 -72 10 -19 94 -102 54 55 -68 10 -15 88 -27 -92 45 23 47 -51 12 63 -64 -105 90 32 -33 120 108 31 -95 -53 79 32 94 -6 46 -115 110 125 83 69 -62 -123 60 -62 90 -93 -64 92 48 -6 -14 110 81 -96 -52 -4 75 -126 100 -81 1 -106 -106 -50 109 -94 -18 11 -82 -92 -53 -45 -38 25 88 -30 104 102 37 56 32 -47 -70 116 -105 4 121 -25 106 97 -122 77 -121 -62 7 17 -29 -9 -121 71 -39 -123 -87 111 -98 -91 29 -101 57 -61 113 15 -125 -29 -6 -3 45 112 9 3 -95 42 -23 103 1 3 64 23 -24 -42 120 67 121 4 86 -32 -86 -57 -102 -85 -110 32 85 -116 -43 72 -46 -90 78 -11 -119 -44 113 90 -8 -43 91 -97 63 -95 2 -104 58 34 -5 -41 17 18 -13 31 -127 87 -84 122 -36 91 -89 -86 18 -28 -119 13 -80 -79 -97 67 -7 3 -105 78 58 -76 -62 103 -38 -69 81 -82 -34 58 48 -77 108 100 0 84 17 -45 -48 66 -56 -78 -77 1 34 122 107 117 -77 -35 74 28 -73 -49 94 62 -113 -83 -122 -93 -35 -100 -72 114 -40 -59 -124 21 -54 -76 103 -125 40 -39 -88 -54 -118 -64 35 -115 48 -92 36 -21 35 120 20 0 55 -51 0 -77 -10 25 -113 -46 -101 92 -81 45 50 -10 -8 -96 91 107 76 100 90 -66 -75 69 -71 55 4 -84 -80 -101 -75 105 72 -38 -126 -36 -38 -6 13 38 90 -81 -78 -52 -42 -11 -16 102 6 6 45 -90 35 -123 -109 -127 -15 -30 3 103 109 -41 7 -118 89 -14 82 -50 115 -45 123 51 -60 67 -59 87 -23 119 -124 121 -51 33 -111 22 -43 -20 -88 95 19 -86 124 -1 89 72 60 -78 48 1 2 -45 119 8 -72 43 -55 59 125 -95 92 5 88 -124 -98 109 122 123 44 -114 23 74 119 30 33 -11 -11 -111 -108 34 24 93 -89 33 -76 -101 -69 125 -114 39 35 68 -86 1 -19 -52 81 82 63 -77 -75 -111 70 -81 -56 -79 -47 59 -105 -6 41 7 -59 23 -125 120 -49 74 -50 20 19 117 52 13 -32 114 35 -16 -13 -119 -17 -115 18 23 120 -57 20 57 -25 -57 -126 39 124 35 110 49 101 -125 -50 2 -3 -69 78 -124 115 48 8 -48 -28 -85 -63 -39 -81 4 4 52 -114 63 -95 66 25 -100 -58 -39 60 -15 78 -50 111 20 -50 61 -53 26 9 -123 103 -95 5 77 107 -41 107 15 6 -8 104 -124 -44 127 -106 -96 -119 -7 124 -64 -30 -107 -95 -93 73 -48 -42 35 34 8 36 -43 -66 36 -72 -49 100 -68 -58 35 -23 111 43 119 57 36 -102 -28 -73 45 -108 77 104 43 7 40 11 -41 71 -113 97 -59 112 9 -57 -70 -42 -84 120 -103 86 -24 45 11 80 38 -126 -24 71 16 -36 20 65 0 -104 -90 -68 85 57 41 51 42 51 -7 -5 33 -6 -125 -25 -35 -83 -24 118 -35 40 -83 33 98 -111 -60 -39 -109 104 64 -105 -85 -117 -6 39 -59 -22 37 -78 -105 122 12 14 -15 -88 -30 95 -11 -125 68 -44 -30 116 -24 118 47 -14 -28 62 82 51 8 37 92 22 31 -88 -62 -36 -48 4 -94 -88 15 126 -23 -6 6 27 123 -114 77 103 16 -124 17 -44 38 38 -73 -89 -29 11 73 -62 8 4 -14 -69 -48 -39 10 -7 12 54 34 8 101 -73 -117 -106 -89 -3 -76 -60 119 66 -33 28 6 -62 -38 -64 2 -96 -108 109 -1 -124 -34 27 35 -8 67 124 -97 -77 22 48 -46 -5 -100 -56 2 -116 -31 -59 -107 105 84 84 28 122 -15 26 13 9 81 90 -106 44 -55 -25 -113 -93 43 -120 29 -83 18 -78 85 -123 -47 44 23 11 -113 107 -101 38 -19 53 -16 -99 48 26 -126 -76 -6 90 -96 -54 -49 71 15 -94 66 13 -5 37 57 -57 70 100 19 
-48 77 114 -126 12 118 15 -123 -99 -7 -71 -27 -44 41 -66 -75 -111 -2 -43 1 -99 -28 -23 104 -98 48 -113 47 115 53 -76 -64 -62 -123 -99 92 49 -45 -52 -6 119 55 -98 29 -118 4 64 -122 69 -9 20 10 -40 58 -71 -56 125 16 -41 -34 -38 15 105 -124 30 -5 44 -15 72 -107 95 85 12 -32 64 -105 -46 11 -59 -69 -93 59 72 43 70 36 -23 -26 -122 -3 13 -29 32 -106 26 94 47 -88 -20 -83 30 79 4 -86 -101 -55 95 -112 -102 109 116 -6 13 44 -104 -1 -34 -42 -26 -78 112 19 41 101 -46 87 -75 -54 78 -80 112 63 -70 126 31 45 61 82 120 -75 -5 89 -46 15 -105 -87 35 -17 19 43 103 81 10 99 -5 50 -78 -17 78 68 35 51 86 125 -92 -41 -84 -116 3 16 -27 65 -67 25 -111 16 127 74 -110 59 20 -74 -21 103 63 -94 68 110 -63 118 -22 -65 -87 -3 -61 -98 -116 -101 -103 84 -71 67 -36 -106 53 38 -79 -109 -101 109 -107 -69 86 -94 23 37 -10 -21 117 -35 43 -29 -96 -109 116 18 88 127 92 -7 124 53 45 -34 -101 69 2 39 51 -31 7 83 -45 -126 -117 64 -66 -8 15 -91 78 12 89 101 39 -64 17 51 123 37 8 -97 -29 -122 -78 -36 -10 86 -62 -94 117 -2 -51 -98 -91 38 122 83 57 78 89 -108 -117 64 -124 -34 -31 -13 100 -108 -75 47 102 -62 48 -19 -116 -54 -99 39 65 101 -64 53 109 11 36 -123 -97 47 -50 110 97 43 -124 58 55 -60 105 27 -109 -106 -63 -6 -125 83 58 8 25 -3 -107 82 119 35 -14 62 -62 -13 -123 -49 76 78 -101 78 -106 -56 79 -120 101 44 104 -106 76 16 -75 -25 -9 33 -99 -102 -126 120 -77 -117 -109 -93 19 82 4 122 59 -45 -103 -118 -86 118 106 -75 89 52 53 -80 -65 48 12 -81 -14 125 84 84 82 -71 127 -30 -101 -22 56 -74 -45 -70 23 60 -115 122 -51 89 -41 -54 -11 103 -61 69 11 58 -1 -74 -96 -28 97 75 3 47 -109 127 73 -76 20 -63 76 -87 -4 28 -54 -124 44 101 71 91 -4 119 -72 -49 15 43 -93 -103 -2 -38 -48 32 -72 86 121 71 -7 60 37 -5 50 -10 53 -23 107 -115 54 -33 -112 42 -19 90 -90 83 -34 9 -24 103 -45 127 98 -29 -71 -51 -102 -40 127 -36 32 -15 -112 -113 102 -99 -127 -56 39 50 -37 -20 -6 19 -4 108 18 67 93 104 17 93 -5 -73 -73 -46 -8 -84 6 -1 44 -120 -110 -127 -20 -19 81 -25 41 -86 -85 -15 73 14 47 90 -14 -101 -51 70 36 -80 -54 -23 92 -47 42 -52 -120 93 11 -53 1 -114 3 -75 87 -118 -7 13 -79 82 38 51 112 -110 43 -25 -66 -72 -118 -68 34 -68 -41 75 81 -39 18 72 54 -77 65 25 -63 69 -120 55 -114 121 26 10 90 -33 46 2 35 46 -127 41 114 65 -29 -110 -108 25 -108 -72 -26 -63 114 82 -73 80 -6 -62 -54 -108 71 98 -96 -45 25 -52 -109 45 72 115 90 57 20 88 127 -66 -6 -36 -72 92 62 -7 -59 49 124 86 -82 -81 107 19 -113 32 40 -84 -119 52 83 127 -83 -40 73 -76 -74 -26 118 -42 -127 23 7 -33 97 83 98 73 110 -2 -121 46 -104 -46 -105 56 -120 53 42 33 -37 85 -83 -80 55 -18 -72 -56 -61 -32 72 46 -21 -79 34 67 94 -58 -26 -48 100 65 -4 114 -22 105 115 42 31 -82 -5 -91 -125 -89 122 56 -24 61 -33 -31 54 -6 -108 60 -109 19 -94 -45 -46 -45 113 -31 -1 -60 -93 71 -54 105 -5 -63 -45 108 50 -118 83 -106 -106 97 -1 78 -109 -45 76 20 -74 96 -48 -55 -54 -76 -62 -54 -17 124 27 44 81 -100 -38 -55 -110 27 7 -7 76 -99 4 -120 -111 -126 -15 110 -53 58 6 96 -16 -61 24 78 -105 51 13 -74 29 -65 -127 114 -108 -120 -12 70 22 6 8 -100 -7 10 41 -43 7 42 110 66 45 86 124 101 57 17 -19 -33 -2 20 110 23 56 -98 40 50 -21 -25 54 -79 6 96 47 43 -42 55 15 -78 -50 82 81 115 0 43 -85 20 -72 -12 -6 85 97 -97 59 -55 -91 -68 -71 -119 -11 -62 -55 9 -16 -37 18 44 18 0 -101 33 81 -54 -95 -96 60 -83 66 92 -80 75 -76 60 41 48 79 -105 -85 110 -106 -94 77 -90 33 -46 121 5 -79 -73 89 -57 -61 -43 65 -69 78 71 80 50 -112 28 -10 -100 -78 -79 -79 43 80 -119 -49 -5 121 113 -126 88 21 75 -112 -110 104 -82 71 8 94 6 41 66 -15 -48 116 6 -25 -102 -31 -113 -35 114 -31 116 39 -110 100 -34 -60 -83 -57 85 46 26 -104 -83 8 -30 125 -90 -12 27 -107 86 -44 90 107 -48 -54 -51 87 -123 -62 38 7 19 118 107 -30 37 -11 -42 42 38 -76 -72 -89 -118 -17 33 -36 56 76 49 -83 -21 -99 -4 -42 -3 -49 127 -36 18 -33 -92 89 37 -102 -101 -59 -27 35 -10 -124 89 
-73 -75 -67 47 48 -100 -69 37 -85 -71 14 -55 -105 32 33 -85 61 -9 111 -127 -1 90 -35 -45 -48 114 103 -98 -77 -31 52 -85 68 -77 -47 51 91 123 53 107 96 20 -41 -10 -52 -113 27 7 -111 -54 19 -49 -57 -127 -18 90 13 31 15 -104 43 119 -93 -89 101 -90 -18 -78 -121 -73 -126 85 13 124 68 -10 -66 117 -40 104 85 27 -111 -119 -112 -127 -67 -30 21 -8 118 -86 -94 -52 -107 11 -123 65 -47 -73 82 -20 96 -126 -37 -118 30 32 61 -49 -50 -4 13 -123 -41 125 -36 -49 13 19 -23 38 -10 -39 32 27 -121 38 -109 35 -91 -9 103 -62 123 70 4 79 53 -17 112 -37 -45 115 -37 -127 54 -100 -124 -92 47 -55 18 119 50 -24 54 -41 109 -102 -70 -2 -27 -108 119 -85 -2 -70 -15 73 124 102 44 59 -99 73 95 -127 57 72 116 -38 -95 24 -54 108 78 -109 18 68 -81 94 -48 -102 -42 31 60 41 -73 -47 96 -25 -53 -52 92 -3 18 71 106 -104 22 11 97 -82 55 67 92 -19 33 14 88 89 -80 -32 -56 104 124 -62 -118 -65 98 81 -1 -74 -26 8 -20 -28 -95 -75 -11 121 92 4 121 71 -70 11 93 111 32 46 -24 25 80 -62 -108 66 9 -32 64 -114 -77 73 14 -18 -127 -75 16 -46 -101 58 124 -103 50 44 45 101 -84 64 -59 122 88 64 21 -16 45 -60 46 120 -53 102 -110 -120 -65 -29 -33 -85 45 -69 61 112 -71 -40 21 -65 66 34 54 -118 53 15 -55 -117 62 -74 98 -11 -31 11 -95 50 -4 101 -43 0 78 71 -84 5 22 -24 -42 125 9 25 -2 -3 -89 73 -102 -38 58 -38 50 -20 34 -103 97 105 21 107 15 -75 73 -97 -48 1 119 115 106 85 -22 -73 109 -68 54 -81 -54 36 35 -116 63 -31 43 -94 4 2 41 76 -26 78 -18 80 64 -77 11 -116 -41 -50 105 -40 121 -55 51 50 -124 82 27 76 -83 105 -6 -55 -7 -20 69 20 116 0 30 -103 -56 95 -3 112 -96 59 69 -85 -91 120 87 -51 9 -71 27 -8 80 -85 -53 -110 -64 69 -94 11 24 59 -46 118 71 -3 -45 -68 65 47 -98 -34 -79 -6 -38 107 -112 70 -49 21 110 -31 -53 -41 -117 -17 77 -111 -123 -35 -8 48 -103 16 62 35 67 102 102 48 -60 72 67 60 -33 -31 13 -31 127 104 24 98 116 63 102 49 -18 -31 -117 44 61 75 -78 -43 39 1 -99 -37 -110 62 91 16 -27 -60 -47 96 -47 -6 1 -97 -8 -89 -14 104 78 -43 112 11 -54 66 -26 -77 -88 -126 57 -123 121 -122 -99 110 -114 -18 27 54 -20 -119 102 32 -30 49 -53 -82 -55 -73 -17 -51 64 -117 -107 -101 123 106 -90 -39 -95 34 81 36 -38 108 -52 -27 101 32 -4 112 123 46 113 -56 -74 95 122 99 -18 7 2 -118 -65 -77 77 -56 -48 -96 34 -36 -18 16 -36 109 -78 120 10 -106 114 114 119 -60 62 -39 89 -11 115 -44 102 -70 14 105 -73 -23 -112 -77 -65 52 98 38 -81 3 85 -111 -68 103 104 -34 92 49 9 102 -29 -58 96 84 -26 -67 -7 115 59 27 -127 -84 -8 -112 -77 101 38 7 -122 -61 -58 -116 57 43 116 -31 -111 -89 -79 -68 -96 42 80 110 -52 -50 -109 99 32 101 29 -65 107 8 -100 127 102 122 70 24 6 96 126 114 -3 -33 13 44 14 16 -14 -21 65 -76 -58 48 55 -5 -88 -99 120 65 -80 86 34 -42 80 -83 -96 -50 15 27 -32 123 -105 104 49 66 22 -112 -40 33 110 -85 48 54 31 -10 16 32 8 97 113 122 88 50 84 13 -123 47 -87 114 -38 -65 -117 68 -6 -75 15 -110 -117 108 -78 -63 -57 94 -30 -32 102 -53 82 -3 76 -37 -64 -57 -40 48 -6 -95 -16 74 31 -112 -53 126 106 95 62 -95 -109 -112 -54 -50 -52 -83 60 8 30 -1 117 -115 127 57 -87 76 53 57 -84 -120 -19 -59 -34 71 56 -47 106 51 -7 -57 -24 -24 -100 -53 -123 -48 0 -126 16 80 72 126 -21 -70 61 -100 -24 -77 -40 -111 29 -65 74 55 -107 122 -52 111 -87 123 -23 108 32 102 52 -29 69 67 25 -78 -35 -78 -90 -37 122 90 5 16 -86 -40 -64 24 1 -25 -60 112 76 106 -74 108 -121 81 103 4 126 -105 -30 25 -38 -87 70 -81 14 79 58 109 -115 15 -31 82 -50 -26 93 13 -56 -3 -117 -44 22 -37 -115 -96 18 -112 -26 52 -44 -3 53 71 -54 -116 -37 -52 119 -122 -74 78 -67 -108 44 12 34 -102 -107 -94 104 75 -18 76 29 -74 -120 58 53 25 3 9 -52 -37 120 34 -108 -70 115 -24 57 75 -2 37 58 71 50 -116 25 -87 -11 -93 122 17 -100 -64 -10 -53 -109 -26 51 9 108 85 -63 -45 -104 100 -20 72 107 3 84 60 27 37 -13 35 -78 18 59 -52 9 -22 121 -18 59 -37 -31 -37 -95 84 127 124 -113 -120 45 127 -5 11 -16 -123 58 -49 -7 -3 72 2 -119 -98 95 -79 -118 -26 
86 -95 100 70 -99 121 -35 -6 -5 -118 98 88 -66 116 86 16 -46 -81 -122 -82 -93 -73 36 78 -57 -65 -39 -40 88 124 -26 24 19 52 -87 117 123 -113 -56 48 -56 21 125 -110 -7 -23 -79 -36 -43 6 -26 -120 -126 -125 -36 -84 -32 -44 -49 91 -46 86 68 20 -86 -122 -21 -111 94 -33 10 -36 -69 86 37 19 78 -92 122 -102 105 -112 -42 -69 -53 -13 -100 -11 76 66 104 117 18 77 117 -54 -120 -63 -34 9 -55 -103 76 52 -122 -105 -110 -29 -11 -64 -38 -108 -127 59 75 66 36 -80 -24 -59 -11 -41 109 -98 32 -107 -46 39 -99 34 34 -99 -33 3 -80 -81 -40 75 96 67 20 -89 -119 -99 102 -28 -115 119 -23 24 -66 -71 86 24 -80 36 29 23 62 -91 -102 -38 93 -67 -15 -7 88 -115 62 96 -115 -16 -28 22 -41 26 106 126 -16 31 -83 19 -9 -84 -85 -124 -117 -28 -87 21 102 85 -77 98 -114 -68 -104 -96 66 -103 75 119 -96 -2 47 -91 -126 -124 30 -15 -47 94 5 -95 103 4 5 -46 -59 27 -112 -2 3 -39 -91 -121 -36 -126 57 15 101 54 -101 -105 30 70 127 92 73 96 111 -56 -74 -51 -73 100 -5 43 50 25 -31 -119 77 -74 -18 -97 5 -15 -43 -63 -62 1 85 120 12 22 22 69 24 -26 -99 -102 -86 115 80 -38 19 14 61 32 -55 -117 -96 -40 122 74 -11 -98 23 4 -74 -13 0 -23 76 -8 -126 -42 11 66 37 -124 -123 -90 -64 -38 6 -122 41 -14 94 49 67 22 44 -80 69 -112 -37 -46 23 -57 -21 43 -6 -118 -124 62 81 23 64 -35 50 -56 13 -25 -55 106 -81 102 12 -29 113 107 120 104 -119 -2 -19 -49 13 -28 107 125 -101 -82 39 56 67 -36 -85 -123 11 -64 68 -72 2 89 91 -84 -125 -106 -22 104 84 -34 -10 23 117 43 -24 105 66 81 105 -54 34 -53 -46 108 38 -109 90 -124 119 -13 -110 -64 92 -25 -101 -56 -68 -121 -45 34 -31 -106 2 -23 31 79 -33 52 80 105 -26 -86 47 -64 -45 -94 -61 125 28 -22 -108 90 93 104 17 66 -25 -127 118 59 -59 -46 -34 50 -30 -29 -66 -63 117 -89 27 0 105 123 -31 83 -127 82 -57 92 -12 -24 70 -84 -9 92 -96 67 -48 -107 11 64 95 -27 -49 -45 5 84 97 -59 14 100 10 -67 -2 58 -9 26 22 87 -40 39 106 -61 -43 -55 -66 -25 114 -34 -49 89 -98 74 84 -55 88 -13 109 27 -52 69 10 6 -120 -64 88 -88 -91 126 94 7 62 86 37 -23 -14 -8 -41 18 -91 -114 121 -24 36 41 39 122 32 38 6 80 -64 4 57 120 -120 120 -75 116 87 60 76 42 107 13 -47 -15 85 -80 42 -105 29 -33 111 -97 30 -2 89 52 -36 -69 117 48 -20 4 -35 15 49 57 62 -117 78 65 50 61 102 -84 -84 -99 -24 -112 26 -47 -107 56 -18 -29 53 -100 -40 42 -60 30 113 0 67 -87 -13 124 117 10 44 -90 -95 116 0 -26 -54 86 81 -65 34 42 10 -108 91 -42 -107 -107 -100 101 -65 120 23 -14 94 100 8 -9 -53 4 53 15 -107 -24 -127 -108 111 -29 -74 -2 -83 -108 -68 -23 90 -5 88 59 2 41 -104 18 -26 53 -39 -31 -8 79 78 33 -54 -52 1 -36 36 -94 -117 -91 -78 86 -55 16 -121 -117 68 -35 -41 -110 -82 -84 -47 -29 12 -60 51 -46 54 -85 -54 -34 -19 96 14 -57 54 30 -51 9 65 -87 -24 -118 -60 91 -105 4 74 110 95 62 69 27 -5 -48 5 -124 -11 -37 34 98 106 -24 20 119 113 23 8 84 -33 65 28 42 111 1 -40 102 117 102 -67 127 89 87 58 77 73 -38 124 -82 -40 -80 -24 111 -67 -72 79 -119 124 -12 33 40 -111 -69 -59 13 -57 52 -58 32 -2 71 -44 -52 19 -3 -27 118 85 -107 93 36 38 1 51 28 -125 57 -61 54 8 -42 -3 -90 -123 38 38 45 -35 101 100 53 -16 -74 -24 17 74 -40 31 91 122 56 105 -113 90 63 -121 -60 -107 -84 55 125 -4 -48 80 -64 7 18 53 90 77 -127 -5 83 -125 -56 14 -92 -81 39 24 -28 122 -85 -18 -19 122 -89 8 75 71 32 37 5 -39 -117 -43 -7 -118 -115 118 118 27 -87 -64 43 -41 86 -85 92 16 -65 62 -84 -43 -124 82 22 -93 110 108 -10 91 -30 -8 9 127 6 -49 -43 50 61 117 67 55 -8 -2 77 90 -94 -71 36 43 46 -94 79 -99 103 84 -9 25 108 -75 -75 63 38 87 -115 124 115 -95 84 -126 91 -123 85 94 126 115 12 123 16 -123 38 -25 -111 18 21 92 -73 -117 -67 -106 -51 39 65 -82 4 62 -62 -86 -1 75 88 26 7 106 -64 92 16 72 99 -46 37 11 103 100 -103 69 101 102 -24 56 -116 -115 22 78 -55 -21 0 -3 -84 54 -94 48 -92 -37 55 110 19 -116 -31 30 -13 41 -69 -39 -69 110 45 54 93 -98 -116 -9 2 73 -114 -3 -84 -102 85 5 -89 20 -53 -114 124 
122 -114 -50 -118 66 70 -74 38 1 -50 -96 -119 19 -33 83 -79 -23 44 -33 -59 98 26 -50 102 110 93 95 -66 127 58 -82 66 -5 -65 -49 -21 28 74 43 29 1 55 -120 51 59 -121 -26 65 97 -103 105 -9 67 92 -100 -28 66 45 -15 21 -89 -106 -59 -94 -107 -26 88 -126 31 68 0 -34 -89 -127 75 -61 52 -121 -48 -35 -102 100 19 -127 4 -67 37 -80 -27 23 -58 106 -118 -95 32 99 45 65 -36 -13 -124 52 -49 72 22 51 59 -100 -14 -36 -16 -49 101 80 64 -45 -112 20 78 20 -105 107 -59 -6 -91 25 -75 -99 -7 34 7 -87 43 125 5 87 11 -9 -49 -51 114 -109 -57 -31 -23 125 69 106 122 17 -104 -105 42 -119 -51 109 -98 31 -3 -76 109 -119 41 6 -14 -74 -99 -58 29 123 10 30 -68 16 -102 -40 -2 34 20 -113 -34 -83 84 90 -89 72 31 -39 -125 -47 46 -23 -42 14 -65 -101 -69 73 99 33 -77 75 -41 -23 -70 -108 85 112 -66 -35 57 117 60 95 -12 24 1 5 104 -48 -7 -109 14 -44 -101 -19 -15 -38 -56 76 -116 19 -43 109 -7 100 18 -85 -126 -65 47 -1 -121 -13 112 34 62 -124 -91 7 -8 -127 -113 -3 8 39 127 62 -93 123 118 94 48 15 45 55 -36 38 109 -114 -59 -28 -10 46 -22 34 -44 21 77 37 -110 -117 -90 -28 84 72 85 14 86 78 -15 -93 74 86 36 47 117 123 -20 119 -99 -126 6 -11 63 99 -68 95 56 9 -48 59 -45 -8 -15 125 -14 -1 66 -97 26 -26 123 125 72 -7 -123 -70 -59 -107 -103 -78 110 -25 -106 86 -40 -3 55 87 -6 22 82 -66 7 -42 87 -127 87 76 1 -20 -58 123 29 -61 -52 -88 23 -62 33 5 -18 -93 -46 -43 115 -77 101 50 -13 -52 50 -59 -20 119 122 -113 51 -124 -104 27 73 34 -77 52 33 -126 15 -10 102 9 -81 1 104 -110 45 -68 -15 2 -44 14 32 -37 32 -96 -102 -61 55 -4 101 34 -25 117 100 -10 -12 7 22 95 102 -109 21 108 43 95 58 -110 -89 113 -17 67 30 35 -118 90 66 -102 -49 -20 26 57 6 48 -95 56 78 17 88 -13 -57 91 89 65 119 -69 81 -7 -20 -92 51 66 69 81 -50 111 -55 -4 -69 35 6 100 115 -102 46 -10 -77 -34 28 70 53 116 44 -33 9 79 120 54 -120 -70 52 30 32 -116 -31 85 83 54 19 28 -30 0 -80 -6 81 -67 71 118 -26 -122 -45 -6 -38 3 2 26 66 85 -114 126 -84 106 12 2 54 90 -113 73 -56 109 49 -41 11 -84 62 50 38 65 -127 71 3 7 22 86 -33 -124 117 79 88 16 -8 82 20 62 -64 -5 -55 31 -83 107 46 48 -31 -118 -122 32 107 -43 25 -64 115 -4 -97 13 -80 -101 77 -16 -18 -11 -24 -126 13 -96 105 52 33 7 95 84 58 87 -95 72 -31 30 -75 -126 -74 64 -42 78 54 -118 80 24 -72 -63 -67 -78 -69 57 115 -2 120 -71 69 2 -75 -95 -49 -106 -11 82 -35 54 -17 91 -116 -3 29 18 -123 -58 -102 116 -28 20 -116 27 5 -24 -56 104 -108 75 34 63 -103 -5 -126 47 -101 -24 -8 12 70 35 47 -103 8 57 9 5 125 67 99 -110 -117 60 -41 57 -14 84 -37 17 28 38 86 37 4 -69 -93 5 74 -31 -71 19 -91 -87 20 29 18 92 -22 -65 117 -29 99 63 -73 10 -76 -116 -101 -63 70 -31 -12 96 72 69 89 -49 125 47 -10 -13 -95 124 70 56 -41 -77 -120 -34 73 42 -11 -81 22 55 -63 -107 -47 82 -87 13 45 88 -27 23 -18 -35 55 31 -33 -12 -12 -5 5 -71 -63 43 -72 108 93 43 -52 13 -112 -97 19 -23 -123 -7 -127 -88 73 29 77 -25 -98 2 -117 109 28 92 -48 -18 -14 52 92 83 14 -117 -14 64 123 20 46 101 -20 28 -81 -18 117 -35 -53 118 -73 35 109 -38 -29 56 -105 -78 -125 113 -79 100 -76 -22 -90 119 5 -60 47 92 -27 90 -66 -124 34 -30 -7 -50 34 21 24 -73 -119 -26 -127 -77 48 -63 72 23 -52 99 99 74 -41 0 -103 95 98 -9 3 85 -86 -104 63 55 116 -35 -17 79 61 48 -2 -85 -96 88 -113 -17 67 -44 -53 -26 33 109 -53 20 61 -48 -68 -23 -91 114 12 76 -109 -9 -34 44 114 -77 28 58 16 -99 -89 -39 30 -101 -100 -57 4 -43 32 -28 -59 83 -18 41 -59 -1 3 102 102 -114 -66 -20 112 36 -14 -61 -127 -84 -42 117 -37 105 -16 15 120 73 47 -55 -68 -9 -121 -5 -107 -66 -70 42 19 12 27 -53 -8 50 -41 -67 -74 124 18 -38 99 -121 -126 -87 22 111 50 77 -1 1 104 60 89 -7 0 -78 33 127 -53 -89 6 34 -78 82 -37 24 5 124 112 41 -93 111 -9 99 95 92 -72 9 101 70 -79 -5 -51 -88 60 84 5 26 74 -65 -6 6 14 46 2 103 -27 -42 -102 -54 -79 127 87 105 -39 -94 -61 60 11 33 3 51 
-14 -49 -17 8 -3 -95 97 -121 -10 -34 115 73 37 34 -40 65 62 -58 -118 93 100 -37 43 80 -4 -78 44 -94 -41 -127 109 114 55 40 -103 -115 121 -38 -107 -8 10 -68 39 -8 -123 -117 30 -119 -73 -117 -122 -88 71 60 103 57 79 -44 119 -12 -104 -77 -93 -57 8 -41 -110 52 -99 46 15 -90 124 -116 87 -69 -44 9 -41 40 -7 74 -19 -55 -1 87 108 127 26 -100 -2 -119 115 -115 104 109 -112 -119 -111 84 45 115 -74 -41 1 -96 -47 -36 124 -41 -3 62 -19 51 88 83 49 -73 -126 -100 119 107 -53 -52 61 -83 7 -18 23 -85 6 -41 13 -33 -17 -104 57 52 -71 -21 -50 -19 -99 -24 28 -29 -98 78 -58 -120 111 -110 73 -112 82 -92 -107 -62 64 72 96 127 -95 -47 98 40 41 9 -3 -69 52 6 -13 -7 -34 -97 8 69 33 59 61 -56 -92 62 -15 46 74 121 79 -122 4 22 -24 -79 -26 -114 75 79 -18 -85 16 24 -51 86 -48 -58 -73 -24 92 3 -114 -45 24 -34 -117 -25 44 -4 99 -11 99 -24 -121 46 -33 56 121 82 -80 -98 83 4 123 -11 -26 33 101 -124 116 -75 -39 -122 82 89 15 114 -56 -36 -76 -96 -108 118 -4 92 -76 -87 25 78 -50 8 -20 -73 60 99 -106 36 -103 95 8 30 97 -51 -115 -107 86 -17 -13 84 9 27 -60 38 -78 -66 -52 74 -54 -96 57 -33 58 33 69 108 105 -16 -79 -29 -11 -8 -41 -44 -75 -37 -2 -58 -103 -25 -29 -45 -126 58 54 109 -104 -70 -115 -115 -72 -83 -54 110 73 -89 -126 63 99 -97 -78 -28 -123 -63 66 -119 -62 108 45 54 75 -65 65 -100 -26 -98 83 122 -104 -92 118 -114 -125 88 -72 -17 -54 1 42 58 21 -4 29 -28 101 -76 -59 -120 105 -116 23 -88 119 -110 -45 -2 -40 0 64 -29 114 47 40 -55 24 49 -39 112 88 -71 -80 108 97 -32 -125 -22 -40 121 77 83 33 15 126 -107 -81 -6 -90 -94 38 -125 34 23 -113 62 101 98 48 -74 -19 -7 -19 78 -44 -67 2 113 124 105 93 17 -28 117 -14 -114 -46 -2 -85 117 34 91 9 4 120 79 123 -63 -24 43 109 104 80 31 90 -17 111 126 93 -126 57 10 -55 -47 -126 14 -26 125 99 29 127 126 63 -91 -10 58 -73 49 68 -32 -126 -115 -72 44 -8 99 -83 86 -126 -127 -96 -83 -16 -40 118 23 -5 52 -60 -6 27 -84 102 -104 -111 68 60 -81 -85 -93 -106 69 100 0 117 -81 44 -44 -10 105 -76 12 21 -12 123 -31 35 5 -96 94 -125 81 85 70 -83 -49 127 97 68 -105 29 40 -104 90 -60 29 63 -29 83 4 22 -48 94 -108 -115 24 -83 18 88 -24 50 -75 17 91 24 19 68 91 -38 -59 123 127 -34 -82 74 2 44 -13 -45 85 -63 -61 101 -21 -24 10 27 123 -49 -117 112 10 54 65 57 -11 61 72 86 -55 -105 -40 115 -65 4 63 -41 110 -55 -33 32 -74 102 24 -8 -126 80 97 -90 -85 -27 -55 -119 16 -6 -29 5 54 -9 41 -86 -75 -107 -63 -46 6 104 127 40 -126 -51 -27 -14 -77 -124 -64 47 -93 24 -21 13 102 -103 122 64 -94 -30 96 98 24 -13 101 -35 75 -33 108 98 16 117 114 56 -29 -6 -120 -109 -81 41 50 -8 103 -18 -67 70 29 25 -120 69 6 -89 8 84 -50 -74 -127 36 -83 -119 18 -114 35 -29 -68 46 -18 -12 107 93 -78 27 -48 4 47 -53 -36 -89 3 -34 43 -46 -80 -101 43 -86 -13 -100 45 86 -43 115 26 114 22 -39 44 36 -11 75 -39 -123 -86 -16 -61 108 -103 98 44 -9 97 113 -53 82 -115 -29 8 -8 -53 -91 33 79 -19 88 111 57 52 99 -74 127 -80 -43 -15 -15 105 44 16 103 25 -15 -49 -114 79 -102 -40 -87 -104 94 85 65 -127 -64 56 34 98 118 37 97 40 -15 -100 57 -6 -59 52 -103 -69 11 -119 29 -105 109 -38 -44 -41 47 -52 24 -127 -45 -68 55 108 34 10 43 123 112 4 -75 13 0 9 1 92 -81 45 -74 6 -11 108 -88 -18 39 82 26 83 -28 -106 45 -56 23 -25 11 8 41 -77 25 -101 98 -122 125 92 119 -93 40 67 -115 56 73 -110 -82 58 79 -50 72 -84 -26 -104 91 114 114 30 82 -100 46 -77 -96 110 -73 34 125 -8 -48 55 39 -29 -94 56 81 -78 9 49 -115 -8 -64 -45 115 68 67 -7 78 5 -13 81 4 -107 -21 79 -33 9 -2 102 -33 91 -77 29 -124 25 109 -111 -125 41 120 92 31 -96 81 -31 -59 -112 -23 -60 -63 -69 -48 -56 118 -27 102 -16 -91 19 73 -19 84 -26 -60 97 14 81 -41 82 -81 49 119 -81 -122 -49 -24 -78 120 -118 -77 101 110 24 -22 4 72 -5 88 -90 23 72 -57 25 115 -4 106 -38 -25 31 60 43 112 -120 127 -56 -1 54 -50 127 80 28 116 -77 -40 109 -5 47 -127 118 -74 95 93 61 -66 13 76 -6 -67 106 -84 -34 -22 -23 29 -33 -50 -97 
-77 39 25 25 -127 112 3 71 -82 -85 22 69 -85 94 0 -36 49 -56 95 53 -94 84 48 -35 -23 47 92 -60 -28 -78 49 14 -16 86 26 -72 94 -72 -62 9 86 36 -14 -27 -108 -116 -115 -116 -112 60 -6 -104 -47 -119 49 92 38 18 105 52 106 -70 -64 -31 91 104 108 83 15 8 87 77 -52 108 74 121 79 32 -28 -90 -59 -93 58 -69 -3 51 0 -89 94 55 62 72 105 27 -45 31 33 -124 -42 113 117 -27 -120 -125 -125 6 -96 37 -85 -112 -98 -35 -100 -61 24 -74 51 -49 14 -99 -101 127 94 15 -19 77 -123 -47 -46 40 11 29 -9 57 -68 26 -14 12 -27 -70 10 -120 -11 -5 12 99 13 -39 14 111 -91 -80 115 43 -13 -59 -57 -63 -38 105 -56 -91 43 -95 -101 -46 117 110 -4 69 116 -90 38 -124 -20 69 85 94 10 -94 -25 81 -82 113 54 95 -77 -3 104 -113 -69 60 92 13 96 -44 -103 -93 -63 -100 -108 -24 -100 -45 -105 -6 -33 34 -117 38 15 32 37 5 53 -41 70 114 113 -114 29 119 -122 -43 53 -24 -122 121 -67 93 -76 111 -121 5 -48 0 47 18 -115 48 -50 60 53 -98 -22 31 -89 -80 -120 100 -111 74 -47 -109 -68 46 -19 -126 77 -116 61 -41 -34 89 -89 122 -82 -91 -44 110 69 94 -86 -102 77 74 8 -45 78 -109 17 99 -12 73 -44 -73 26 87 10 80 118 126 118 51 119 -94 -7 51 81 -4 -26 92 -61 -5 -68 -87 -64 -58 108 -60 21 -1 -76 67 83 76 75 -54 -110 30 64 2 -94 -69 13 19 64 -5 9 39 -35 -16 6 36 71 10 73 66 -122 60 71 -68 -82 117 -72 16 -91 39 90 90 -109 78 62 -83 -111 -16 -80 99 48 89 46 106 -38 -47 71 -52 67 -71 -72 87 74 23 78 97 -64 -79 -117 123 -65 -12 -49 -91 120 106 -50 65 20 45 35 -74 0 -104 -112 -17 -109 54 104 -103 9 97 65 -116 18 6 85 112 -4 -121 -124 105 -98 54 71 -10 107 36 -85 47 -3 -50 56 123 5 12 66 -79 -78 109 -62 33 -28 -117 -118 113 -101 94 -32 79 71 -111 0 69 -47 72 -41 -92 19 -112 59 97 -6 -121 -29 -100 -64 102 114 -99 -101 91 7 106 -60 -116 -64 -16 -18 -109 110 82 -6 -63 -80 -65 9 57 76 -12 33 -69 23 73 -120 -6 108 -75 75 71 -60 7 71 103 17 -70 63 124 -43 -76 81 82 -106 104 -66 -97 80 94 77 12 -13 33 -40 -127 -11 -2 -99 102 89 -125 -10 98 43 -33 -1 45 -63 107 -6 -3 45 -34 -5 -55 -31 55 -82 -52 31 -106 78 50 -5 30 -39 15 -7 73 -65 -25 31 -27 49 -59 106 -120 115 66 -40 -79 -123 65 123 -34 -103 -39 -3 -108 61 -86 58 6 -81 -71 -108 68 -79 38 -42 105 -77 -121 3 103 -45 120 -11 8 25 -26 -79 -123 43 121 19 44 -103 44 100 -66 109 -80 -117 38 -105 -33 -43 83 74 -15 -119 -46 -27 2 -14 31 102 -97 94 125 69 -35 123 -107 71 -74 77 43 29 -37 -48 69 -44 102 92 127 -58 -92 26 16 -3 -112 43 53 38 76 -14 -94 60 115 -29 82 -22 -53 66 -65 87 -7 109 65 -113 110 -80 -40 -43 -121 103 40 -75 -93 -101 89 18 104 31 107 63 29 26 -88 42 104 84 -126 15 34 -72 42 -1 -3 21 -13 73 -35 29 -51 114 127 -59 -70 84 -30 -77 -117 -78 50 84 60 109 15 39 51 39 -7 -72 -111 -68 -69 95 67 -98 79 -1 -35 58 38 -21 82 83 48 82 9 68 6 81 30 -99 -16 31 114 -93 -91 21 -41 -50 23 -64 12 16 -88 -75 -37 122 0 1 -95 -11 96 -71 -64 31 -97 25 -75 -38 116 -127 -37 44 -104 8 65 -115 43 110 -39 80 -109 -47 41 19 66 124 85 18 5 89 4 -89 122 -42 -107 -74 -98 95 62 37 -116 -121 85 -61 85 -48 14 109 64 -90 100 50 -90 -11 -54 -121 -100 66 -55 48 -102 5 -52 48 -43 34 105 -76 -121 121 -127 106 117 -108 -122 77 -114 93 73 78 -6 -61 -74 0 83 -57 93 -99 -45 -88 -67 -90 -89 86 70 114 -3 -78 102 26 73 113 125 -55 -43 -1 -87 -88 -47 3 1 -25 -120 33 115 -102 -69 -48 -98 23 -17 65 -33 39 119 5 75 46 -38 74 -3 -40 118 -89 41 -70 100 -11 126 68 100 20 -123 -102 53 110 -96 -13 50 -9 -9 46 -96 86 11 125 113 -15 1 -41 1 66 -108 -51 18 -93 -14 -120 45 -125 4 61 38 -37 3 100 -116 -22 -52 74 47 22 -69 -49 30 52 -9 80 102 7 -66 -102 97 -22 -39 -80 -62 -64 103 -111 2 108 36 124 -69 -10 97 -24 9 32 28 11 -21 -38 -79 -67 -123 -110 34 -48 119 57 36 -124 2 49 -124 86 -94 -63 -21 59 -89 111 -78 -6 -65 75 -125 -121 -56 112 -120 -117 -112 126 -22 99 -102 61 52 67 -55 -107 1 -22 103 22 -98 -23 105 61 99 -74 -48 -113 96 18 83 
29 -77 50 70 -72 6 -116 91 -54 27 -9 61 113 -38 116 25 -6 22 -75 -98 -126 67 -1 39 70 63 -14 126 -51 23 -82 -101 93 116 96 -11 -16 35 114 -80 121 108 109 -21 -18 9 -28 31 -27 106 -104 -62 3 -118 -96 21 -8 76 -7 57 48 -57 23 81 -41 113 -42 23 51 -58 -12 88 -75 -120 -120 121 56 125 -54 -14 -24 -21 31 119 109 -119 105 27 53 76 -102 46 82 -78 -78 76 -115 -56 81 -73 -117 -28 -40 26 -26 -102 -95 70 -21 -55 -9 -24 -78 -71 36 27 -120 29 24 -50 -13 90 107 -84 -2 79 -86 -109 -72 61 -46 -115 -115 -112 94 -89 -87 83 -101 -73 -82 -6 -24 -114 112 16 32 91 -32 81 104 -11 35 124 -104 93 -117 90 -87 111 -5 -101 26 55 -21 82 -83 70 -44 -47 97 -95 20 94 -28 -38 63 33 -91 0 3 70 -107 67 12 30 123 -45 -67 106 123 -107 16 81 7 -12 22 -6 37 90 -57 -94 46 -17 -91 -5 -64 -39 -118 -109 -88 49 -38 -43 -4 127 56 66 -82 -3 118 56 43 -41 -27 77 -21 87 47 3 -84 104 14 93 -9 -19 -32 31 -6 -124 112 -68 -11 -18 51 9 12 -99 1 51 7 18 -49 -75 -8 12 -59 14 -126 -110 -2 -73 -112 -42 -14 77 4 -112 74 110 -17 -38 96 58 -118 -69 37 -57 121 46 -93 -75 -87 4 54 95 39 57 -89 75 -2 115 87 -2 -5 2 19 -39 85 101 26 -10 48 -123 17 -118 89 -77 99 -28 -97 -12 12 2 -42 93 -68 -110 86 122 -7 61 -76 7 -107 88 -90 77 -108 86 -88 89 -20 95 105 114 -117 -39 -28 -22 -51 -80 -103 54 -127 -69 105 -118 65 -111 -81 16 36 -4 85 13 12 -43 49 89 -6 117 -47 32 115 -104 24 38 -35 -23 60 41 -88 101 115 -109 62 47 113 -28 75 -59 84 94 -91 -46 6 -26 9 -27 -3 -119 42 -14 -122 8 3 40 75 -51 22 71 -63 121 -14 29 46 59 52 123 109 -68 -27 96 9 11 79 54 -95 -56 -114 7 99 77 3 57 74 67 16 -68 55 104 -53 -24 -60 115 -4 121 -96 -16 -15 39 -40 -118 44 31 109 -124 41 56 -3 21 89 -54 14 121 119 -104 -52 60 51 -40 113 92 -104 -25 -114 -125 -42 -127 -54 -81 -83 -24 -4 52 -7 -50 120 -23 87 -124 -27 -81 109 -115 69 -95 -114 51 -40 102 114 67 32 52 -66 -16 -34 60 36 87 -94 89 -104 76 -99 -127 24 26 -8 -52 -10 -1 127 -115 -12 70 4 -50 -25 79 -119 92 -56 -1 87 22 -51 -54 -106 1 -60 -51 96 -45 -62 35 -46 53 -84 69 -10 -65 26 -47 40 34 -62 -28 80 -123 -41 56 125 -84 -40 25 109 48 -10 -11 32 89 -24 -2 -97 81 -77 43 -99 33 -64 -91 113 39 -74 -35 31 -66 111 -73 -39 -69 64 93 86 6 -113 40 -38 4 -49 -37 56 121 100 -27 29 98 -18 -74 -78 -121 103 39 81 19 -110 101 124 119 -95 -3 -112 126 87 -96 112 75 -50 -80 -64 3 -33 112 -52 -10 10 29 -17 -66 -14 -13 44 -59 -66 49 -34 -59 53 46 -5 3 -75 50 69 -62 51 -110 -34 91 35 -109 63 20 124 -45 -12 112 124 -37 100 -110 116 -93 -69 -68 -47 90 85 113 123 -38 -106 86 -59 33 86 -11 -44 107 -14 78 -56 -101 -56 25 78 16 90 -52 8 93 7 -39 -86 87 -17 75 1 -124 -3 48 54 110 -115 104 -5 105 99 56 5 -63 93 17 -24 -7 92 -99 31 30 -43 -39 -110 -60 -41 61 84 84 -125 64 -81 -122 37 115 -111 -64 -71 -108 114 68 126 -89 11 31 -31 -34 -68 21 -32 95 38 -6 74 76 61 6 18 -7 -55 39 118 88 49 -1 57 -105 126 7 68 122 -15 25 101 -48 -85 -81 -119 -77 -110 108 124 89 -81 -120 122 96 -88 -64 116 77 9 41 -73 -114 -76 -37 70 64 -7 108 -88 -4 124 51 -124 116 -12 48 -126 -119 -12 -37 -82 10 -24 46 -19 16 93 -64 -67 75 -3 -74 -71 33 -17 -12 -70 93 -40 -57 -113 -79 49 -113 -21 -125 6 16 65 -82 -24 -83 -9 41 98 46 95 -58 27 3 -48 102 -51 -66 -49 8 -53 -15 46 -78 121 -116 -115 35 -118 39 -66 8 127 42 10 -10 22 113 41 104 32 -108 -114 -25 -32 -22 35 75 8 96 106 19 -20 3 -87 -56 -113 -32 -98 119 -114 -23 -37 -112 17 -19 47 32 25 55 4 -103 10 75 117 -41 2 -61 -84 96 -42 -90 5 65 63 31 22 122 -48 55 -80 -36 105 105 67 47 -111 -118 -82 110 -107 49 24 -74 -100 -79 31 68 -75 45 -91 -105 113 52 113 -64 -18 -94 124 20 -37 112 107 50 1 -3 8 -120 -81 -35 6 -84 -12 108 61 116 -66 -121 104 -18 28 -1 -34 30 6 117 84 -36 -122 52 117 82 10 -19 -19 -90 -33 -85 9 60 105 13 -89 -61 74 -31 8 73 -8 -115 -108 61 -103 -80 -115 111 -101 111 -17 -63 -48 121 -127 75 
-44 115 -20 127 111 -114 -16 21 -54 11 -74 -52 -118 -49 86 -30 15 30 105 -108 -12 -95 87 -84 112 54 97 103 -110 83 -52 106 -40 112 60 53 94 110 -20 93 89 -22 21 46 -5 -89 -4 -12 -78 -103 79 -34 123 -126 -105 81 63 -35 -33 112 -9 43 -62 25 117 109 -50 10 71 -79 15 39 55 -56 42 109 -86 -122 90 77 -53 -106 -69 20 63 62 -92 40 111 -115 -120 -1 -92 -1 -21 -47 -86 -52 117 -73 -121 -96 34 112 -107 66 4 54 -110 114 -62 -26 70 -96 -119 -99 65 89 -33 78 -62 -102 -110 -4 -125 -8 -13 101 -85 106 -68 -82 57 -115 23 23 -123 -101 -23 -68 -10 105 -22 -89 -61 -80 -93 8 -20 9 61 -2 -8 -108 -118 6 -16 57 112 -99 -8 -64 52 -15 -32 -33 126 -120 58 -76 14 -86 -112 -91 48 -25 -52 87 -16 -13 68 20 -121 127 -8 55 -3 115 119 71 -74 16 120 -72 38 -72 90 -41 77 -39 86 -31 -7 -110 34 46 -39 121 -65 -50 -86 92 -113 92 -124 -19 -88 -113 12 41 108 -122 -27 105 32 122 85 95 -20 30 10 108 -70 -101 114 7 -49 49 44 77 -29 94 -124 -43 34 111 123 -101 -27 123 -79 -41 4 -62 11 1 -25 -91 -63 37 -70 116 -118 -85 -24 -106 64 78 -34 -41 -90 -40 64 62 -118 -63 9 90 23 -54 -94 95 102 -5 -126 -126 4 -116 3 -42 7 -63 26 -57 95 -54 35 -79 75 -93 -91 3 116 -100 90 52 -40 39 -13 -11 -64 79 104 22 69 -23 9 110 69 39 29 55 -42 15 -79 -73 -90 -103 -61 -75 64 100 105 -2 68 115 111 68 7 -2 -124 67 -90 -13 68 -63 -29 90 -113 95 13 -67 78 124 54 99 -126 -60 35 40 -37 30 109 124 36 -54 17 -8 -18 82 -53 20 42 -97 2 31 -92 51 -89 64 106 -99 86 84 37 -56 -75 -117 -42 -14 -49 100 74 -71 124 -119 -31 -28 -59 107 104 -68 48 -52 13 -77 29 -80 84 60 118 -69 13 67 -49 115 -41 -7 -27 106 -6 33 -76 50 -100 -72 -45 14 -76 48 -14 1 88 6 44 118 -80 102 -104 -63 -29 56 -31 -49 -20 -35 -82 53 62 -25 1 -33 -14 123 41 73 -64 34 79 -96 -47 10 52 -103 -88 -59 105 -28 36 -56 -48 -125 33 -11 -33 -80 -96 1 85 44 50 112 -15 58 -89 5 62 81 36 -25 -99 45 -66 -79 92 -116 -59 -84 119 -17 -115 -61 -58 37 41 -125 91 120 -127 -82 109 -47 -5 63 -93 102 102 12 51 -23 64 -20 108 -95 -94 -22 19 49 97 13 -105 112 -37 87 -79 -46 3 102 -18 -66 83 -123 19 -105 58 -61 53 -106 -123 -2 123 9 109 94 89 91 92 90 -68 -72 102 -63 49 -100 21 -109 -68 24 23 -24 123 16 -75 -58 -47 -63 53 -53 122 -14 31 52 44 -18 -108 -59 -20 16 41 116 -104 -62 88 -72 -99 -93 51 28 -69 45 19 -74 31 -92 127 85 -4 3 -114 -13 31 -91 90 115 -5 -102 -73 51 -52 -84 61 -89 -94 120 43 14 -119 80 110 -45 72 -51 66 8 63 -104 61 18 -53 80 1 12 91 -123 42 -9 -18 -32 -32 -83 -106 -2 90 -100 18 -29 -50 89 93 -78 23 99 33 30 -124 119 -15 -99 57 72 -79 -76 76 73 105 43 -55 127 111 -49 -85 -23 -84 -113 84 57 97 29 33 92 -17 -104 85 13 -19 2 -64 -25 -114 -117 -31 -64 -66 70 -103 -66 -85 -44 -79 97 21 -81 29 36 52 -83 -77 65 -44 -77 126 9 53 -19 65 -30 -63 -16 118 60 -75 9 -81 105 -85 -105 102 -44 56 -17 101 2 -126 -46 -42 -41 69 3 -103 54 -111 -101 107 116 -28 45 -76 -30 48 -59 121 66 95 -44 -35 -83 -101 -29 -58 106 94 -3 68 -25 -122 -127 51 -36 -20 121 40 -108 60 -39 -75 -123 -39 -72 -24 127 -116 99 6 73 -127 -25 127 24 -21 -59 -87 54 -7 32 126 99 37 -57 5 115 -40 -96 68 69 5 -90 90 26 114 13 -24 110 -97 3 105 -47 100 119 -46 -29 11 72 104 118 72 -27 -12 1 -9 -40 24 -106 -28 61 15 -105 -32 94 -77 10 -100 68 29 -102 -100 71 -84 -77 -99 118 109 -89 -67 100 17 -95 44 76 -15 -60 -29 -1 -93 -5 -20 31 30 -92 -12 42 2 117 -88 48 -13 -49 -103 -43 26 -54 -49 36 98 -113 91 22 119 104 -34 -90 50 -25 -63 -95 -122 -102 -76 61 36 83 -51 -13 -58 26 122 116 -44 121 23 -88 70 60 90 107 -29 29 -10 -111 105 47 3 85 -42 -114 65 -12 28 -83 -48 -72 -109 -69 58 -97 -33 52 -15 -51 -59 119 -78 87 -85 -107 -60 59 58 10 6 26 39 91 -32 -99 46 -86 -115 85 34 -88 -36 85 113 50 -31 113 -8 -14 76 -88 -2 -119 24 27 -81 6 1 107 119 95 -22 59 78 -41 -43 17 56 44 63 82 -53 -47 -4 -88 38 -119 -32 -115 -113 -40 -51 35 115 116 76 -42 102 -121 73 -55 105 111 -111 -71 
-65 -74 35 45 -7 91 101 51 96 -89 20 23 -56 33 115 16 123 -45 70 -16 34 -21 -73 -29 32 -19 83 12 -101 -1 -18 2 114 -47 -50 -39 -86 42 80 -121 116 -82 -38 74 16 103 -60 -1 91 -21 -35 -24 -75 92 -110 -127 51 28 -57 -56 107 102 102 -105 74 -28 113 123 -77 -123 24 -67 65 -38 -47 94 -25 11 89 106 -78 118 97 -30 -69 -109 -117 -99 127 24 -86 35 34 -113 -10 -104 -106 -43 62 -116 60 -115 55 -9 17 -82 -22 -57 -49 -72 83 34 17 -34 118 -51 73 79 -18 -94 -93 -57 -118 108 4 117 108 -105 81 -3 -12 49 79 33 20 -64 123 29 -32 -74 -54 63 -50 99 -59 74 122 106 87 -38 115 -4 9 126 95 -75 -60 -25 -15 -106 104 9 -126 108 -2 -53 27 91 89 -62 6 35 85 54 -31 -77 68 -18 108 38 -42 -71 105 104 -45 -31 71 -64 -15 27 64 97 -9 35 21 -80 7 -8 79 -63 -42 -99 101 15 120 21 -54 59 -104 40 60 39 -40 32 115 94 39 -118 127 -76 79 88 -62 -54 -108 30 27 13 -54 -119 -56 122 67 -31 118 115 -116 -80 94 36 122 -62 -119 -79 80 81 74 103 124 -61 95 -37 -97 19 -73 97 1 60 -93 -55 -7 19 -10 -113 -24 103 23 -36 89 20 53 -121 -8 124 39 91 24 62 -100 -69 103 -71 78 112 102 47 -93 -119 84 -10 74 11 43 -65 -65 -121 -91 -114 96 -17 -103 61 76 94 -106 85 -51 124 121 -50 -99 75 123 -122 -111 103 -105 109 -102 -127 51 -21 97 -49 123 -8 -12 1 -82 -60 -13 26 -51 29 117 61 68 123 -71 -109 4 29 -84 76 59 120 -25 -53 91 73 -105 24 -83 -10 119 113 -44 -60 -110 -15 -45 -84 -15 -94 -63 -67 -62 36 73 27 -46 116 66 -88 -28 46 59 -88 63 -104 -90 119 -59 61 125 -119 120 -46 -55 88 -88 90 79 -46 -21 -72 -43 -68 -68 -107 97 108 -45 80 -12 43 95 92 1 117 61 107 -8 -60 -103 5 81 -4 -104 -95 -9 15 -63 -40 32 6 51 48 -91 9 -32 87 40 36 30 93 49 -23 -110 -69 -41 55 113 5 77 -107 -37 100 -92 82 -121 -14 -59 -49 -46 37 17 102 -40 -77 -4 83 -43 -36 -82 -25 6 -110 58 53 81 -55 17 -19 20 -26 109 106 25 26 -117 49 59 -33 4 -91 126 75 15 16 10 65 -83 127 96 109 51 -10 26 -52 -17 127 105 99 127 -3 120 97 63 21 -45 112 -87 -31 16 113 115 -57 -85 -93 122 65 -23 -125 -103 98 -46 -6 18 -6 -2 32 110 110 -19 -50 -119 -9 21 77 -118 -31 27 -73 53 37 -16 116 -124 -80 -78 30 -106 13 116 113 93 41 116 24 -16 45 -54 -112 -70 -114 -78 96 -109 -1 42 -4 -40 -104 104 -69 114 -85 29 43 -127 -44 -60 -120 53 -5 105 -56 45 85 15 -8 98 116 105 68 125 -116 -18 -70 108 10 1 4 58 38 125 -85 2 -60 11 -127 107 115 56 97 -50 40 -57 84 -63 -56 -109 -43 34 -63 -4 109 -77 -28 -45 -9 -44 -120 -40 69 -54 60 29 -81 -121 67 -109 80 -23 -4 -83 -75 93 93 -119 -124 -43 6 31 -109 3 20 -27 35 -32 31 11 117 -112 76 125 8 7 -103 19 103 51 24 -70 -99 68 -16 -44 22 -9 -36 -15 86 -16 99 -87 33 -11 -46 4 -16 -52 98 105 -68 -90 24 25 75 -66 -60 18 -61 106 27 114 -88 5 -112 57 118 60 -26 96 -45 94 -127 -114 90 63 24 -26 -111 -96 -97 -15 107 18 14 -40 -82 -46 62 34 -1 -85 -74 -7 46 13 -94 -51 -65 -39 -39 127 103 -123 38 44 -81 98 0 -30 110 32 101 9 89 69 -108 75 16 -127 -77 10 8 -30 122 15 117 120 37 52 94 12 126 67 -109 67 34 78 -54 35 44 -52 -86 89 -106 74 -119 75 56 54 15 116 124 -98 -13 -70 51 -42 -119 109 109 34 48 64 -84 -92 98 85 4 -23 -21 25 44 -16 -38 -31 -30 -8 65 -2 -18 -70 -92 -11 116 82 46 -45 -25 -61 -31 28 42 14 4 -118 45 37 -57 -71 88 -83 38 -53 -12 97 -81 49 -92 124 -36 -38 -19 -112 -94 104 -13 -97 101 -9 -42 -9 -90 -34 9 -61 28 -124 -50 99 87 -72 32 -106 109 78 81 -61 -121 -74 29 115 -102 -74 -91 -97 -66 -36 64 18 -122 -57 47 -26 30 -43 -67 -20 10 60 12 -5 -115 -1 126 57 127 45 -23 19 -33 85 -62 74 94 32 99 10 -11 -45 -78 -92 -80 -88 59 -6 -121 -58 97 -106 90 -59 -4 -42 41 126 86 8 33 -49 -56 20 -23 -3 8 14 4 -8 -94 -78 107 -103 -122 -87 -127 71 -85 -109 120 -20 122 83 -72 -57 -92 -21 35 -49 -23 -122 22 -43 21 108 38 32 -64 -90 -101 -11 65 17 -77 33 -99 84 -65 -32 35 -73 12 25 52 -96 69 21 67 -13 -87 125 24 -120 -28 -5 -80 50 43 4 100 -82 -76 117 -49 59 59 -41 -44 120 -65 
77 -1 -115 -33 -127 -42 -48 15 -11 -61 110 -76 -125 -3 76 -47 -42 -32 66 -61 -53 -95 -80 47 -121 116 112 -103 -104 110 9 93 47 -46 -13 -51 -15 -107 114 -15 -62 -36 -46 -101 5 -23 -13 -53 -73 40 51 -40 -109 69 -22 -19 83 127 -84 62 57 113 43 10 -81 -84 -104 88 -48 -21 98 32 93 56 -63 104 -101 117 32 74 -40 83 -109 59 95 126 -13 -93 18 -1 -59 17 116 72 -93 121 -106 29 120 36 -107 93 -61 59 100 -60 110 -47 -50 -121 -104 -81 80 40 19 -79 113 -86 -56 43 78 -43 -26 -52 110 -90 110 55 -35 -6 111 63 -11 81 -12 58 9 82 62 -44 21 15 -107 -120 21 89 -95 -6 -17 115 -2 69 -25 89 -121 78 -71 95 -38 -27 -16 6 0 -46 -115 -41 -99 5 -101 -84 102 81 21 0 111 -115 -110 25 71 97 -118 92 1 96 -2 -66 120 79 -97 -98 -34 -99 -38 -38 39 -18 -69 88 -83 72 -82 32 -92 47 121 92 86 -116 39 -19 28 -83 -4 35 -47 94 -70 -83 -61 31 -40 -55 43 71 -123 -14 -62 -41 -2 -79 -54 8 72 -93 34 113 -127 -39 84 105 1 44 78 -26 -95 -43 67 26 -8 108 -123 90 -118 121 -83 0 -85 -89 -9 -12 -72 -30 12 -61 92 -50 -62 -81 126 108 52 -101 -37 111 -48 -39 -7 14 56 14 79 -110 69 -83 -121 -79 22 103 76 65 118 -4 5 18 -36 13 -93 -5 97 29 97 -125 30 81 -81 119 38 -81 -55 -87 -4 126 17 126 100 -65 81 101 45 68 -109 10 -24 22 -59 35 87 17 18 113 114 -49 108 -4 2 -101 -81 99 -43 74 -1 -80 -124 -17 -69 -80 -20 54 95 -63 -102 -36 -77 -9 -101 11 -125 31 -80 -87 45 94 106 -66 -101 -44 -50 95 17 109 115 -68 -45 -4 16 1 -124 -43 57 109 74 -8 -15 49 11 61 0 71 81 34 74 99 -123 -82 61 -71 -58 -49 -103 -18 114 49 12 -77 -81 -52 -119 -52 -100 -27 -45 -19 -52 -126 -93 -13 -16 49 103 118 -52 96 19 -65 -112 102 -113 -38 54 -112 23 -17 -118 79 -95 -8 67 -69 -46 47 108 -114 -54 111 62 68 11 -47 68 26 -4 -23 5 -87 122 -65 99 0 -92 60 79 108 -73 30 49 113 -74 -9 -57 0 -70 115 -63 14 11 -64 48 105 72 54 -73 22 -1 -81 -9 125 47 -10 35 -70 -12 -51 -127 115 -8 -69 -28 7 -25 85 -85 -20 -95 -111 -25 -91 73 -10 100 19 -75 28 92 -102 -96 123 -92 -88 -96 18 81 -118 -13 60 -103 -78 99 127 89 38 -31 54 49 123 -26 8 76 9 -18 -63 -38 -99 -84 74 122 -28 98 72 -83 -93 -12 34 29 46 -4 -105 -62 72 44 104 -56 -96 -68 -66 123 39 11 -82 47 53 2 -46 8 70 40 -98 -45 -33 60 8 15 -69 107 72 -54 9 48 -47 72 -24 44 -17 -46 80 20 -54 96 -71 -76 -22 25 -77 -9 89 -48 72 47 19 -56 49 111 78 -35 23 -12 -127 23 68 -112 55 -48 -66 -13 126 -79 -4 -125 32 117 41 -4 -75 57 19 -105 99 -21 64 -70 -56 99 -79 -48 100 -110 -91 -107 37 91 32 -9 -90 -56 73 35 -53 -26 41 -1 13 -110 -74 -45 -60 -85 -90 -93 16 -35 118 -86 -108 30 -48 91 -98 98 98 74 60 69 76 -42 104 -102 37 -111 -38 119 -31 107 -35 86 -121 121 124 112 102 57 66 -1 69 -12 50 -19 106 41 -115 -45 -52 38 41 -27 89 -99 -19 -57 -112 -50 -109 -5 125 108 -106 -64 24 -55 -21 -64 119 -9 -61 -73 -65 114 27 83 -72 52 44 106 37 -90 97 -121 29 -32 89 -37 124 58 24 -48 77 114 52 1 12 -59 -88 75 44 65 32 -127 33 -20 22 -93 -60 95 -32 45 44 -117 -44 -14 35 -90 101 -4 81 39 87 102 -40 100 21 56 -79 2 -25 65 15 67 96 86 -111 1 13 -106 -64 51 119 -13 59 27 30 90 -53 6 27 -40 -13 2 10 53 -8 25 65 127 83 -20 -5 96 -30 -42 -78 116 56 -115 -17 48 79 -127 126 -123 82 96 54 94 -124 36 -73 80 12 115 20 -85 15 45 -96 122 127 60 -25 -11 -83 21 51 -9 -72 107 99 -99 122 86 118 11 -118 40 30 19 -73 61 117 -60 111 -82 -18 89 -11 107 -76 31 -46 -121 57 -8 -100 108 -71 115 -10 107 9 -37 -18 96 70 -45 20 2 20 -70 90 -22 123 -29 -24 30 81 83 118 21 14 -12 -5 15 -92 2 -95 -52 50 91 -81 4 7 12 -58 75 -28 -85 -42 40 98 63 112 67 -44 -115 68 -30 0 -82 93 -47 -107 24 -96 -10 -31 -58 -33 80 59 -111 81 -74 17 100 102 -78 123 -97 -20 62 -75 -89 -36 71 -30 17 -41 88 -20 4 -45 85 -112 -125 106 -87 68 -78 -111 105 -8 -126 9 -25 -7 -9 63 -90 57 2 -44 45 -4 -77 4 -126 -34 5 -32 -58 -111 21 -84 33 -98 -92 17 -124 111 -78 40 0 118 44 -33 32 -54 
-11 113 -88 -29 94 -98 -28 117 61 126 -116 46 -47 104 39 70 117 83 72 110 113 -68 -13 -7 -67 5 91 58 88 -88 -69 -38 -29 26 -25 -71 125 -109 2 39 -42 -20 -65 -26 -20 -52 -30 -67 -121 87 -9 -64 45 29 -23 93 7 23 103 42 72 -9 85 -47 -48 47 119 53 25 53 -22 103 -73 -57 -33 114 -38 71 -62 25 -106 105 -99 -97 -9 -73 77 -71 -28 14 2 -28 -73 66 -102 23 71 91 27 -31 0 -34 -22 -91 97 4 -12 -100 -116 24 -48 95 16 48 104 77 -63 39 51 63 65 -99 -81 32 -79 104 82 -60 -37 -105 73 -26 56 112 -110 -57 -123 -125 61 -54 -97 -5 6 -81 87 -53 -94 16 108 -44 -119 -50 -38 36 84 -120 -35 -19 58 -50 110 -107 -57 -51 81 22 -46 -67 -105 106 -27 -1 -17 -77 -45 88 25 -38 78 -43 27 104 63 -40 55 79 -28 58 68 -60 -7 -73 -55 36 115 79 43 -100 62 -113 -77 -96 72 -54 -111 -9 -23 -12 59 48 -34 1 74 -34 -84 -108 -14 51 123 92 122 44 39 108 -50 118 72 -102 -9 6 22 75 37 -55 -104 -73 50 25 71 65 52 -3 65 44 -104 54 -96 -50 -42 15 -102 -101 54 -49 -127 -87 118 24 -16 -72 37 107 -21 50 84 -53 105 17 -41 71 102 -36 19 14 86 -118 -31 -48 6 106 -3 -57 -98 99 -127 54 42 110 -9 90 -99 -107 -87 35 7 -2 107 120 67 112 19 78 48 85 -48 25 -13 -72 122 -11 100 -92 50 48 24 -94 -24 -113 -98 59 117 -93 -71 123 119 -92 102 -21 -120 -76 116 41 -20 -10 71 -48 -88 -87 59 -51 62 79 113 2 -88 59 -53 -22 -117 88 -127 125 -36 118 -61 -63 20 -124 -47 34 83 63 -20 -127 -118 -76 -90 32 95 -96 48 34 73 25 -75 24 -84 73 37 110 22 -2 8 -28 60 59 36 86 0 -51 -82 -76 -41 -17 -11 94 -75 -56 84 -92 -10 -83 -60 44 28 75 58 -107 -110 30 -21 46 -63 25 63 -3 91 -56 -68 -65 -98 11 68 55 -124 72 8 8 23 -48 81 13 52 115 -120 -103 116 8 -73 99 18 -19 -69 85 -25 99 -98 62 82 -48 -40 -21 -80 -44 -34 37 27 89 -69 119 104 125 -6 -47 -102 66 -116 -18 -6 -3 126 16 -33 78 26 47 122 95 -61 -15 -73 -11 -20 -100 -82 88 -16 123 102 -10 22 -99 -76 53 33 54 49 95 -94 80 125 -95 110 83 42 93 94 -63 2 -127 22 -122 -118 -119 -26 25 -49 4 -121 -36 -2 -92 75 -66 -66 -24 74 80 27 -12 -102 -73 -21 -19 -53 -104 -66 -79 -5 24 -29 -123 54 115 -25 -108 -11 -104 -73 -60 57 -50 -123 78 12 -28 -44 -117 84 127 -6 12 -71 67 116 -56 1 72 126 40 17 47 85 -127 -89 -33 84 -117 122 27 42 -121 -103 111 -36 -10 37 43 -83 72 29 100 -99 118 85 115 117 125 89 120 64 -2 -93 114 4 63 -125 108 -84 43 13 36 69 -71 -113 -15 -37 -67 83 3 -91 -55 7 -48 -15 85 -80 -114 11 121 40 64 37 -66 44 28 76 21 72 -29 -106 87 116 6 -49 -47 86 -105 103 21 98 90 7 -40 62 13 -12 -77 124 -81 94 -73 -89 36 -114 -8 51 55 116 98 7 67 42 34 78 -127 52 -2 122 62 -91 63 -110 66 127 -118 122 -125 19 100 53 -98 109 86 64 -84 13 -49 108 -73 -45 117 -35 -106 125 92 24 124 -56 -41 111 -60 -101 60 -75 -48 -3 117 -119 -81 -89 -7 120 50 -61 -108 18 53 72 -110 -80 -36 123 112 -3 61 34 -117 -91 11 -31 -84 2 -30 118 -47 42 -1 -18 114 -6 -8 -73 -30 49 77 52 6 -22 16 80 101 57 -24 -115 27 -18 -111 -72 44 -80 31 -81 -15 -113 42 -4 117 118 21 49 -70 -68 112 -118 -61 42 50 60 125 3 123 -38 -39 102 -31 99 -15 -116 -54 120 106 -44 79 -113 -74 -98 31 -101 116 -23 -61 -119 87 82 -45 -120 102 -118 7 41 65 62 -81 13 42 -104 -50 -108 20 -40 122 127 91 -45 -20 37 -15 110 -117 31 -100 101 -72 55 90 7 -16 29 118 -88 111 95 -98 -68 -37 31 -127 101 -48 110 -127 -105 -117 -71 48 -9 -24 112 11 -20 90 -113 47 83 -67 28 -6 -47 108 -67 91 -97 -57 79 116 49 77 3 -22 127 -76 63 -113 -57 124 75 -40 54 75 -12 -79 56 121 -38 -40 38 -33 97 25 0 33 -73 -12 -80 79 -85 120 -70 -14 47 -110 53 15 -122 5 19 124 106 -75 60 104 -84 -52 -117 113 -117 24 -67 13 -65 -94 -85 86 59 -96 -3 -119 -109 -84 102 54 28 -47 -37 33 -86 -6 -36 67 -82 28 107 26 6 75 82 -94 39 -91 -107 42 -48 -34 -119 68 -49 -39 58 127 51 104 4 54 -4 30 119 -10 -104 -47 109 -40 62 67 98 -3 -20 -53 82 74 -101 74 -69 -94 -92 17 -99 -14 -51 28 -75 82 6 -7 -18 -9 -92 -6 -102 34 48 -35 -125 -41 
-6 -30 3 -96 58 16 87 71 28 49 114 1 -75 -15 -79 -12 -9 -127 99 90 -41 9 -111 18 51 -3 123 68 123 -99 -86 109 75 83 -87 2 -30 21 51 -120 -89 -113 -111 19 87 -127 94 -73 -35 -15 35 45 -5 65 82 -12 8 -97 -39 -118 -97 -125 -15 -83 -96 12 28 -125 107 32 -125 -121 -104 80 56 46 -124 -8 117 5 110 52 96 125 -72 76 53 121 68 68 -51 14 -28 -88 30 29 -125 98 114 -68 -71 63 -122 48 -112 4 -53 117 48 -7 -85 38 88 2 -26 -127 9 -51 -35 -34 108 62 -97 74 -94 -76 -81 50 104 19 -120 -59 -75 -80 -65 -80 121 -125 65 96 33 58 -93 75 -2 124 -53 90 -104 48 63 36 54 -73 65 116 -65 82 61 32 -88 -20 -86 36 -23 -117 17 -41 -65 7 87 -9 -83 36 -89 115 -40 -16 -72 -63 -78 -126 34 -55 -35 117 104 33 -29 -20 -13 -25 -39 -123 -126 10 -119 76 -39 -24 -36 53 60 -2 -124 -99 -6 30 81 82 -107 -37 126 -38 -109 59 -1 59 39 -79 0 106 21 78 -17 -12 0 -83 50 96 -72 86 47 64 -84 2 -4 -11 90 104 -103 27 -105 55 -89 29 56 116 -77 -47 9 67 103 -101 -126 38 86 68 45 47 97 6 -117 -2 -42 92 -64 125 83 121 110 57 0 -90 113 -75 29 -38 -18 84 -42 -100 -112 -109 94 -68 92 63 87 -119 -100 -127 -92 -32 -49 -72 -63 104 -62 -19 88 114 -88 21 -22 59 88 -78 -21 87 52 -124 -84 59 -12 7 11 58 44 -81 95 -71 45 15 87 -127 41 80 -88 20 23 55 23 65 -87 -117 43 11 -75 104 -73 86 9 80 112 -122 -70 9 13 24 60 -8 79 -22 -71 -4 -44 -38 6 41 80 113 25 -109 -117 61 87 112 93 -4 -40 104 15 88 -113 -7 16 -73 -43 -1 66 68 18 23 -56 73 45 -124 -27 26 84 -95 -19 -117 -74 44 106 -53 -2 -17 -73 106 92 -100 36 83 109 57 -116 -27 -9 0 -28 -35 40 -97 82 1 58 -4 -27 12 -86 106 -79 -75 9 -77 70 27 -57 53 -120 19 97 86 52 100 70 -3 -51 -106 -70 91 106 -109 -50 -126 -33 71 67 -63 36 -122 -73 -82 64 -7 -84 -98 -102 49 -44 -38 -122 -77 109 101 -82 -107 -33 1 86 83 19 -42 4 -119 -2 52 -97 39 119 59 -62 -58 -67 -122 52 38 64 84 59 -30 -3 -69 -98 114 -122 40 106 31 -49 -96 -40 -14 122 100 86 -62 69 49 1 -12 -119 31 -11 50 120 -62 111 -123 67 10 27 52 93 -29 36 120 -104 110 -27 28 -30 -77 125 -111 -42 -49 -74 -97 20 -98 27 37 29 63 -84 -126 51 -74 -126 31 44 16 -53 77 -4 -120 74 45 102 23 -28 94 46 -63 101 116 -59 -48 -67 -65 -76 -61 98 -98 -125 -101 66 40 113 59 31 76 -9 81 -3 -122 -77 -116 51 15 116 -83 -51 45 59 23 -3 50 53 -97 97 66 -39 13 -33 93 -12 -126 54 -28 46 122 23 -16 55 -23 116 95 24 103 97 -127 86 -8 -13 -64 -66 -35 -76 -36 -124 78 64 -78 89 -101 82 -51 2 115 -104 40 -45 5 30 21 -94 109 -33 127 -33 102 127 -127 22 76 -89 39 -120 -51 -84 50 25 17 3 -78 72 -9 105 -83 19 122 61 -42 -72 -127 107 -101 50 -64 75 57 125 3 12 22 71 -85 96 -98 25 42 -53 -4 -115 30 -119 22 -22 95 -108 -119 7 -49 -76 28 -36 -23 116 -15 -111 118 109 -100 21 -82 15 41 127 29 -45 19 -52 110 97 -36 -94 26 -76 -99 43 -73 65 -7 -49 41 113 112 84 -118 -74 96 100 -13 -14 88 -103 -39 70 73 2 25 -16 102 67 126 22 -50 72 -97 -120 -65 -72 -123 -123 -77 -4 27 106 -56 -126 96 -126 82 -21 100 62 15 -75 122 86 97 -77 113 -17 73 -64 31 91 -9 52 -97 112 -78 -126 -2 111 -14 -89 60 -100 46 5 63 -117 -97 -57 85 -74 -42 -57 7 30 -40 -68 80 51 -100 -39 -21 -96 -83 85 -20 76 -97 -85 102 28 23 -42 -106 -24 89 70 -27 -102 -1 70 -52 -29 -17 -20 -62 -15 -3 43 -29 34 24 48 44 64 -116 -50 35 107 -122 -121 82 76 83 94 125 -13 -46 110 -110 -92 84 -5 125 -31 32 5 38 37 90 22 21 3 -104 46 -50 -88 75 -24 127 -61 -67 -8 88 2 -38 -9 30 67 -116 92 65 71 31 -126 -87 -118 -49 21 16 -103 7 -40 97 11 -78 48 -27 -73 -31 2 -124 -72 0 -5 -123 112 110 -29 62 22 39 108 42 89 -23 42 68 -84 1 -106 102 -119 49 -104 -33 -94 88 70 7 40 -78 114 60 -31 -19 35 -60 55 121 -110 91 33 -111 80 41 -17 -28 -29 61 -79 83 -79 122 -95 115 75 24 -28 -108 -32 -38 -38 68 93 95 -28 106 39 36 -25 -23 -6 -6 -10 109 102 0 100 -6 94 65 -71 -102 -61 70 115 -53 11 19 127 95 11 80 108 -1 58 14 -72 -117 -63 -8 
-126 -9 -89 110 101 -114 114 69 101 63 -68 14 -75 104 -8 57 45 -102 2 -79 59 -33 80 33 -124 18 73 -87 -49 -58 46 -57 -44 78 -46 -41 87 19 79 -46 -34 -16 2 -76 -64 -32 -81 -111 -4 -15 -60 -104 29 -31 40 123 96 13 3 86 24 -118 -52 26 -32 -105 -95 1 -120 31 101 -48 -10 -83 39 -113 80 90 -67 62 -94 31 12 -42 -57 122 36 -27 -104 -52 -6 -20 -52 33 -41 67 -43 -104 125 2 -48 27 -39 117 101 -8 -7 61 23 90 119 -32 84 -62 -81 -95 -97 -38 65 -87 -105 61 -81 -97 7 29 19 99 87 -90 5 -47 39 -69 8 -68 -107 53 30 -1 -33 126 73 -17 122 -96 -26 -122 -25 -44 -119 78 -4 40 -38 -120 -50 -79 -114 67 0 94 -87 -112 -88 36 -50 30 -105 -35 111 -125 -33 47 -38 -40 -49 -48 -23 20 126 -41 4 80 -45 -91 107 -96 6 -28 -26 84 40 63 122 43 63 103 28 -15 41 93 95 -119 38 46 9 77 36 -6 20 88 81 115 -118 -89 -25 -70 -24 118 76 -21 34 -11 -88 -117 108 -41 40 102 -122 93 -72 53 29 105 -63 92 106 99 103 -29 29 6 -45 -81 -81 72 73 82 117 99 -79 108 -12 -27 -126 54 -90 88 67 -81 4 35 -28 -123 50 -119 1 -64 -7 -102 80 -17 36 82 -69 -22 97 -107 2 -72 87 -87 -26 -76 -60 41 15 -91 91 -118 -14 87 68 -46 64 38 16 -7 20 -102 -53 88 121 -83 68 -26 -14 119 -85 93 85 117 -25 117 -70 48 22 -21 125 -16 -69 -25 33 40 -94 -9 -86 -34 -125 53 -52 65 101 -52 4 21 18 -90 36 111 88 47 -40 89 22 -49 -89 19 -14 62 6 -40 -65 -60 -121 56 58 -115 -58 18 43 2 44 -32 36 -1 -12 26 98 -16 -8 -28 -15 78 -57 2 83 116 125 10 108 -70 48 -17 19 126 -87 -95 33 47 -61 -100 -88 115 -87 -42 -65 30 -114 -24 89 -62 16 -72 14 100 75 54 -59 -90 -96 -20 44 -4 -65 -53 12 -34 54 38 22 -83 57 82 48 -123 -97 -31 117 -16 41 -124 -59 14 127 -83 -114 33 -54 83 109 -104 -120 82 17 46 72 -21 126 75 39 -69 63 82 -120 -107 -90 -108 53 101 15 -5 -120 36 -72 -82 -70 81 27 -83 -12 -99 38 12 110 -87 -111 23 -68 59 63 -83 -67 34 124 72 -122 -12 -54 -58 47 117 46 -99 -69 -80 113 -24 -119 -75 45 10 -103 58 70 108 -81 8 -30 31 108 127 99 -79 71 49 64 -28 -79 -52 84 50 -39 -40 -11 66 -82 56 105 59 102 -16 66 72 -45 59 61 11 -76 -5 6 -45 -71 -80 -14 -65 -20 99 -30 32 -88 -43 -123 46 -59 108 -6 88 51 43 -62 -94 127 -88 26 21 -110 -63 -67 94 81 12 48 -62 -107 -66 -13 116 -87 109 118 -61 -71 -28 61 42 107 -59 -95 44 -69 63 54 -119 125 66 -122 -28 -86 -35 107 59 12 4 -72 -39 -125 27 -120 -16 -20 22 -63 102 -124 109 65 -19 -72 103 -122 -72 88 57 -98 78 -66 -74 114 68 0 -101 -32 -84 35 84 115 -59 -48 -4 65 -93 -97 63 29 82 41 -40 85 -114 -23 69 100 34 81 -16 31 -108 113 112 -127 -119 84 -30 25 -127 -118 -68 -56 33 101 31 -43 -18 -93 33 84 -106 28 -46 49 74 -78 85 -77 -13 15 -68 -14 30 -72 -7 105 82 54 -13 54 -18 35 103 -98 2 71 38 -48 108 69 -40 94 29 60 -64 38 45 99 -103 72 122 98 -15 -66 -116 -74 36 86 -74 -13 4 73 114 71 -43 -118 50 30 26 37 -53 -37 41 -74 73 -37 126 96 51 -71 122 -65 -93 16 122 -52 40 -104 -127 -23 108 51 29 -35 -28 45 -26 127 -98 -16 -36 118 -120 -67 127 -107 -68 65 3 23 -15 99 -81 52 82 -34 43 -34 -79 12 -58 -24 117 -47 -123 72 74 72 -97 -83 -89 -3 105 79 -10 69 -58 120 -96 -116 -114 28 6 38 -17 -28 -68 -12 57 -125 -57 27 6 -87 -105 -18 -101 -16 -65 15 -24 -82 -58 -66 -115 85 26 -50 -77 51 39 121 25 61 52 -120 54 22 120 -122 -116 -86 -21 -20 -56 -92 68 120 12 13 68 80 11 80 -78 -32 -59 -54 -77 78 -94 111 -119 -123 118 -41 -64 46 -81 -117 98 -28 92 84 -32 -12 90 -45 -56 37 34 -119 -6 -16 54 -12 38 86 5 -88 46 -1 114 7 88 -87 89 9 70 2 84 103 -84 88 108 -45 -77 28 -62 64 -50 86 -20 -98 -76 -45 -98 88 -70 95 -1 70 -56 65 50 -16 -87 -24 101 -105 34 -8 6 68 111 -101 -22 31 111 -51 -121 -51 114 -85 45 -95 -109 -109 -76 46 -88 -114 74 108 -65 85 16 -29 -101 117 -71 -89 26 32 114 14 115 -26 72 109 -86 -25 -52 29 -110 -18 41 75 27 -96 -1 -116 86 59 -49 71 50 -114 -70 -96 100 -94 92 -120 87 -117 -33 -43 54 1 -59 -125 -92 58 107 -34 72 86 -27 -87 15 -79 -6 73 82 
36 -32 -21 -8 50 -87 -75 -17 -114 74 -41 56 65 -99 44 67 -8 53 -70 75 -29 116 -58 -70 94 62 -95 123 119 89 87 -5 -17 -2 -58 -59 63 42 -52 126 -29 111 75 111 86 89 13 -67 -73 -9 13 13 -45 -122 33 87 -71 -50 116 18 -74 19 -118 52 -110 -124 -80 89 -112 56 20 35 54 -127 45 -12 75 40 -126 26 117 119 126 85 74 1 -98 102 5 20 -123 92 12 87 121 -79 46 -2 47 -50 -5 38 93 -63 97 -9 25 -3 31 74 59 -118 45 81 -26 -10 84 67 -21 -24 -125 0 51 -19 -87 79 32 -24 -119 49 89 121 -25 -99 98 121 7 -90 39 -33 124 48 -48 61 -119 68 124 39 -28 -97 0 7 37 -93 15 101 82 113 29 -65 -78 97 -95 73 -2 -11 -121 1 76 36 -40 15 112 51 -102 -116 -124 6 119 -106 -16 16 -93 0 29 95 -105 17 46 -84 -95 52 50 27 43 -36 25 89 76 66 79 -16 -112 93 89 -52 -14 18 1 115 -17 -55 56 -80 35 -24 -22 53 38 94 34 -26 -55 -79 -123 -68 -18 -84 96 11 88 -86 -32 -120 -55 -13 1 26 -113 -33 -38 113 -40 -51 -107 -67 64 -61 104 60 -42 60 83 65 -46 125 65 -16 6 -62 -101 87 11 -35 -121 -31 122 73 40 -66 46 -80 44 40 117 73 -101 -13 35 -93 -50 25 -14 83 -68 -59 -6 -66 -98 51 43 -66 -105 99 44 -49 74 -1 110 -51 -34 1 -40 -20 -17 -55 -58 -45 -40 102 58 -59 23 -14 36 -107 106 -106 -43 94 83 92 -22 107 -64 65 5 -39 -42 -76 -110 -83 -37 -51 108 31 27 -106 -62 -94 110 -58 96 35 96 -10 -10 109 17 49 28 71 7 15 -57 113 8 -33 -79 96 -22 -35 49 -108 -14 79 -119 16 -100 -53 14 62 -43 -113 -96 -102 -83 -21 59 76 -107 -57 43 -64 93 85 19 -23 126 -93 -64 43 40 79 107 42 -23 29 52 26 -16 100 85 -69 -17 19 24 76 -52 -9 -107 81 -55 6 -19 26 -92 -97 -104 71 94 -47 12 -14 45 10 114 11 -44 -93 -8 43 -31 19 54 -71 20 -78 -51 -88 -15 -89 -29 108 76 2 78 43 40 84 97 101 90 -115 3 -110 -86 -31 -58 -72 -15 -64 -86 -63 104 94 -104 -22 -90 75 -35 61 -60 -82 -99 111 54 96 -25 42 -74 108 120 -114 12 113 -48 -11 -116 46 -11 34 -84 117 -57 90 100 -121 11 70 88 -58 -127 37 -52 34 -85 -56 51 -65 28 63 90 -125 -62 25 117 40 -95 -74 -95 -32 -98 -32 -43 4 46 -99 32 -36 -113 101 -63 -111 51 31 -30 55 -51 4 -69 116 73 -41 -29 67 66 15 -110 -11 -14 111 -36 127 71 126 -32 115 -29 -117 114 -127 20 -18 114 3 111 -48 4 98 121 15 -29 114 -74 -63 -106 45 59 3 -62 34 -7 -99 70 -37 -11 122 51 -3 75 -70 -120 28 -112 -111 -115 -55 111 46 112 112 3 80 124 30 -27 -74 4 107 80 -34 -18 -119 -101 -84 -90 -75 106 101 -113 -53 4 113 73 -4 -89 -84 -25 6 74 118 -79 55 79 -75 39 81 -77 -81 -66 78 57 116 -92 -51 2 -1 60 -5 32 -61 -119 115 126 93 16 23 105 -65 1 -49 17 -22 -119 94 -54 -103 20 34 -84 -5 -112 -117 117 -28 -48 -65 92 113 -76 38 57 50 -72 7 98 15 -55 -53 44 53 4 -79 120 -36 9 -62 52 -125 -32 13 33 68 -112 1 37 -70 65 29 -47 14 -120 74 -93 -21 87 121 0 -41 -1 -86 -87 13 65 -107 91 -107 -98 118 -65 -106 -119 107 97 -88 119 -118 127 24 -126 102 39 11 -57 -23 -106 4 -5 -29 120 112 103 81 -19 27 95 -95 -74 -111 54 95 -59 -1 -105 78 92 5 122 -88 -114 -84 94 65 13 -43 36 -4 80 43 -49 115 117 13 57 76 43 -121 -16 118 -38 58 11 33 -8 53 -93 118 -51 98 -17 -116 118 -36 37 -52 -74 51 -34 97 30 45 -107 -30 106 -9 26 124 -22 87 84 73 -15 -13 -10 117 59 1 64 42 6 -83 117 -105 41 105 37 71 -118 100 115 21 -111 10 -96 -76 -39 -7 -2 18 45 6 -123 86 121 -71 -33 37 52 -40 78 -11 116 49 40 -51 -10 -63 -76 -2 19 38 -25 96 -101 10 -44 29 0 -125 -101 -80 -87 -6 -26 -12 -74 -95 103 107 -104 58 88 -120 49 14 118 -30 -41 -112 50 -77 57 -98 28 -109 88 -47 110 71 -107 76 78 45 -16 87 -50 104 80 60 -62 64 56 -10 -42 -98 -40 -36 -53 -51 -76 85 123 -62 115 -40 120 47 -78 88 -55 -99 -69 21 21 -37 121 -38 82 12 -113 -62 -56 -120 -111 -95 -54 52 33 78 37 76 102 33 -84 17 63 36 -39 -81 4 -87 -118 -67 22 0 -97 9 -15 34 -14 124 78 22 -65 -47 -66 102 74 -90 32 65 -50 4 -15 39 -76 4 127 -16 -67 -113 -4 -54 -85 118 -115 67 114 -68 -61 122 -51 -25 -2 124 103 124 -66 -48 -104 -26 -41 19 
0 50 -53 72 -30 55 -28 -99 1 8 59 122 112 99 -74 -100 -77 -43 15 77 50 -18 107 41 93 36 -29 -4 97 -32 4 -110 17 -15 -40 59 63 38 -36 49 -63 -80 -64 -11 -98 127 -57 92 114 -105 -106 -59 109 -50 79 -32 -98 122 -75 31 -93 -94 -73 42 -7 43 60 -121 -40 3 79 74 35 -94 -112 -64 30 47 123 -5 36 67 55 -54 88 -93 36 -115 -7 -23 74 -80 -45 123 39 118 40 -79 -14 -66 -13 89 -99 -120 39 -58 40 119 -88 -14 -101 105 -111 6 -80 -37 -59 -6 -125 104 5 80 -81 -45 17 -99 53 -96 79 73 87 -39 -28 72 115 2 92 -97 -126 55 -16 -96 -51 -13 -115 -81 22 -109 39 -17 -97 -40 -99 -106 28 56 99 28 -86 14 92 -40 39 72 -95 -43 -44 -121 67 67 30 -19 106 -41 66 4 60 96 23 55 -45 -86 -73 4 -16 -25 -118 -55 73 -58 107 78 -48 52 1 -18 -114 56 -28 -26 -106 -52 18 53 96 -122 53 -35 -41 -70 28 127 7 47 113 -100 71 117 100 -7 -117 -68 123 48 89 95 -80 -122 123 116 -57 60 -5 -48 64 -70 -46 -12 35 62 -10 -114 73 99 10 86 24 -112 103 88 -35 69 -80 70 4 -7 98 63 115 122 -10 58 34 -61 127 112 -112 81 3 16 -3 -28 -97 -62 15 51 32 49 119 103 -22 102 -24 99 -112 -56 -73 127 106 82 48 104 66 -22 -12 21 -14 -94 19 54 9 121 84 93 80 92 9 107 98 90 -38 100 80 18 -93 11 85 50 99 -76 -105 91 16 44 -47 -32 -65 -92 -8 111 45 -33 -48 -88 23 51 127 29 -11 80 -1 104 52 -115 -98 -73 65 -3 -48 60 36 86 -14 58 50 73 -91 118 -106 83 -1 63 -79 -112 -24 43 73 27 109 49 -102 -119 69 -127 -26 101 85 15 6 -98 39 68 -64 -124 88 -77 -36 30 -32 85 -84 124 -11 -82 -6 -108 -63 99 -33 -103 -16 49 -97 118 116 67 -114 24 107 7 -100 101 -76 117 3 87 11 123 41 39 94 -88 -124 97 29 92 -3 82 107 62 -28 104 58 -100 -70 11 96 -127 33 3 87 100 -31 -59 61 127 108 -4 18 13 -94 26 96 -9 -33 -112 34 89 -102 -96 59 -91 57 93 -34 64 30 74 6 -74 -98 73 67 -109 95 -76 14 57 -35 -35 -86 -69 113 -78 -4 -43 68 45 -109 82 -26 122 -54 119 3 -120 4 49 -44 -60 -64 26 -112 112 -50 109 -16 -34 44 43 -19 18 -73 82 -11 -69 58 -21 44 -37 -96 -47 95 18 -62 37 -99 24 24 -7 -88 91 55 35 -110 28 -62 41 101 61 104 61 101 3 123 11 -29 -65 -99 -24 75 18 -98 -20 -79 -110 -8 -62 -94 49 -38 73 -125 -127 -70 -39 -23 69 -53 98 -113 98 32 -23 -87 -106 58 -88 -1 43 -92 -125 73 6 -46 -127 -85 88 -40 -50 91 -70 17 -126 -58 25 -106 -127 85 -101 63 -47 63 -96 -99 -16 26 18 -65 -115 -56 -89 51 -79 86 -120 79 -73 57 1 0 105 76 98 -89 54 66 121 -48 -108 -34 -69 51 -18 -107 -70 88 10 122 -79 92 21 -101 -117 11 7 -55 5 -9 59 -7 -60 19 -6 104 -118 70 -23 41 51 77 110 -103 -68 -70 -91 80 -55 -72 -15 -55 22 -52 -46 -73 -101 -77 39 70 -1 81 18 -25 -43 -20 15 -29 -5 94 108 103 -3 -64 22 7 15 -84 -35 -41 52 -5 37 88 -44 -85 -4 7 90 -12 89 96 88 55 -25 120 23 -22 -109 -115 108 -57 52 95 14 63 18 65 -4 -34 -94 -101 110 59 82 40 20 22 -43 3 -68 73 -57 30 46 -68 96 108 71 -7 -67 91 16 84 -38 -21 -19 109 -87 127 -18 -31 -8 104 -75 11 103 -25 -118 -26 123 -127 95 -100 -77 -17 44 -46 -75 37 125 88 12 -40 96 -80 -25 50 -47 -110 96 -37 -22 -70 -31 -69 79 -56 -3 107 -125 93 -69 44 -7 86 27 -45 39 -104 -51 -68 123 20 126 -24 -51 -68 -123 79 108 54 -102 -2 64 71 -123 -79 109 103 -87 -92 99 66 92 -80 -108 -35 -48 -80 1 -88 -65 -95 -30 21 23 -44 114 96 -90 -21 -32 34 100 -84 -49 102 9 0 -60 -89 -11 -113 116 25 -84 -18 -104 37 37 -80 113 81 -120 126 104 -26 77 -96 -30 54 -105 121 89 12 -1 -8 -127 -127 -110 27 -98 -101 26 18 57 -56 37 44 -106 -11 -117 65 -88 17 -43 -49 75 -14 -50 -66 39 -98 -115 -107 -92 105 100 87 61 -89 -41 -116 74 25 61 -122 18 14 80 53 -97 9 -47 -71 4 13 60 -53 -68 69 26 -3 65 59 -75 90 17 -82 -74 7 -35 -68 -50 53 86 -66 -31 110 -52 17 23 23 -125 -73 -51 -57 19 27 -64 11 9 -76 66 5 -114 -14 83 105 -92 -82 -21 117 103 -123 -54 40 -58 -41 -23 -76 10 -48 -122 -19 -110 37 34 66 26 70 39 127 115 19 -58 63 96 -119 -67 53 -66 102 -78 55 18 91 8 -20 21 44 -47 56 113 
119 -51 52 -125 116 -22 -67 85 100 -96 117 99 -45 -116 110 107 -121 107 68 68 9 -5 -8 77 -63 77 -91 -70 -10 -2 72 -106 114 -79 -91 -2 -109 -24 -24 111 7 -37 -63 -34 127 78 91 97 -105 -9 -34 101 -127 44 93 1 24 -73 28 23 -92 98 9 -67 -95 -86 -35 -73 37 -14 -39 -81 -4 -43 119 51 24 104 -6 125 92 -97 -111 -65 14 -32 116 59 51 -14 -34 72 29 15 86 67 -107 -102 -27 114 -121 -4 88 10 50 -53 57 -39 -80 88 -118 14 -58 -34 -7 12 28 62 45 108 -75 -16 -116 21 25 35 20 52 -99 100 -81 9 120 96 44 -123 -15 50 15 -4 124 -11 -79 -26 -26 -2 55 -82 -34 -91 -18 -80 61 77 92 89 69 116 31 -71 73 -68 97 -70 -63 90 -108 -61 23 79 34 109 -35 15 -97 -53 56 62 -16 83 -15 126 -78 -48 127 104 -118 -2 16 9 -110 41 14 117 -18 -13 -40 53 -45 -78 103 13 -9 58 10 95 -110 86 42 -27 -95 -89 74 99 -61 70 121 103 -6 113 9 107 -58 -4 -31 -14 99 -71 -6 -7 -72 94 9 65 116 57 -38 -119 -113 -52 -2 -85 -123 98 -3 1 125 -93 51 5 -56 90 55 36 -116 -31 -55 -93 -122 6 -63 -63 -51 -96 -56 -54 -90 25 -29 66 52 -33 20 -29 68 2 -7 -126 75 87 -61 -119 1 109 56 -112 -110 121 102 92 3 -3 56 123 111 17 29 9 48 -64 -9 -27 6 -23 23 117 23 60 -23 76 16 104 -59 -114 36 3 25 55 -54 6 -28 -48 64 -105 62 -41 44 -95 81 -14 -10 39 109 34 -69 -5 86 -5 -101 41 116 -108 42 -61 -57 13 49 -7 92 92 11 113 -72 -92 82 -42 24 -42 -86 -71 83 -63 19 45 38 -6 -16 -7 127 84 15 48 70 -57 15 -103 -95 -53 76 83 94 44 -7 47 -27 -52 29 120 71 52 -75 -105 -100 83 -83 -117 -38 -33 -114 61 -40 -8 113 79 60 -54 -68 41 79 -118 9 -75 -109 -79 56 7 -35 85 27 51 -52 -30 59 39 69 -83 82 -20 -59 117 28 -121 -26 -10 40 1 64 -12 -75 -114 88 44 92 95 -79 -14 33 -68 -25 10 96 51 -44 107 117 -69 105 3 -28 -88 124 102 -5 66 -106 -86 -114 -124 13 -107 18 -70 -6 -8 -25 -82 -65 -91 -3 -5 62 -121 98 86 3 18 -90 -40 -90 16 -2 30 -53 -117 -85 -20 -93 -75 28 25 6 47 123 18 -25 14 5 -15 -33 -109 -122 -52 61 3 -4 28 -94 60 28 97 -30 114 -67 -80 36 97 96 -112 -57 23 52 -11 57 9 -87 104 -103 31 64 19 -34 -49 -43 -60 -66 49 97 -87 -21 55 -9 19 92 -82 85 64 -41 -57 -30 -100 -18 -79 -99 -19 109 -105 23 -12 -13 48 96 105 -60 95 70 -11 -13 -36 -127 -23 -76 -114 56 18 115 3 -4 70 16 12 -16 41 39 94 -61 -109 -10 104 68 58 -127 14 21 -16 -86 104 4 66 5 -113 64 -5 17 -16 82 116 -6 -7 68 -124 -50 -90 -116 120 -5 78 86 -97 -115 75 23 -2 -48 79 72 30 -78 13 11 17 64 -77 56 64 -85 -67 -23 39 120 -38 -126 -41 -83 -117 -115 120 80 -57 96 2 -7 -46 112 -30 54 -103 15 2 -56 -98 94 -75 -60 -108 38 9 -27 -10 84 -72 -54 -116 -61 105 -109 33 -86 90 -13 -74 38 -9 96 -126 36 62 -25 16 -75 9 -126 108 -94 -53 -20 39 87 13 54 -53 -54 -51 -28 122 113 33 5 87 11 -94 -110 -68 -68 21 -12 52 50 14 -85 -92 9 67 79 -62 32 103 -68 -105 117 -30 8 -5 -39 18 -112 -19 56 -118 89 -73 -79 -57 35 6 -44 18 71 74 99 -21 120 21 37 -42 -123 11 2 -13 -58 88 39 127 -7 -79 55 -41 116 -120 87 -12 -116 -99 75 -76 7 -127 -72 55 -61 108 -31 -70 98 -18 2 7 -112 -53 -63 -32 -10 40 11 -43 124 19 -32 48 -33 -95 -25 -21 -61 77 53 -93 6 -16 -124 -126 -12 40 -120 127 -84 -35 106 -60 123 -81 -35 104 73 69 25 126 -69 -93 -114 5 -78 -42 -88 14 75 -40 -99 -102 12 1 -17 106 -64 107 83 88 -71 -67 4 -96 111 51 121 11 44 27 33 -100 58 59 80 85 78 89 -8 126 55 -92 29 -110 -26 57 -22 13 74 90 75 -95 106 124 115 -22 20 10 -104 32 -113 80 -42 -54 30 -5 -85 127 41 -84 -11 -2 -86 73 -21 -97 -98 110 100 -21 115 -112 105 -85 87 -116 -66 -113 30 -103 -8 36 100 -92 67 37 3 -54 100 -87 62 103 105 44 -114 -21 -71 -27 95 9 123 -77 -73 98 34 -81 -34 111 -57 -101 -87 -14 -26 -2 -85 -101 -99 -106 74 37 -1 -102 23 -78 -105 36 -16 31 -124 -66 -1 21 26 60 89 -109 -117 -29 41 -33 -37 20 21 121 56 59 -99 49 -44 -16 -71 121 -108 -59 -105 -111 -57 -126 -7 31 22 115 91 -60 23 82 -15 -66 3 -44 -103 88 -60 65 -57 -6 54 -85 
109 -78 -104 34 -25 58 -84 -7 36 -111 -26 -107 23 29 67 12 124 -73 20 72 42 62 -42 -56 85 -56 -94 16 81 111 -119 110 92 91 -55 126 -24 -75 -69 -74 -74 102 59 -125 -89 51 -49 15 124 -62 88 -15 116 69 -91 -80 -99 11 16 -37 -49 -49 -120 50 -122 56 -113 69 13 65 122 84 -121 -70 -94 -11 -46 -98 -112 98 107 54 -45 -87 -6 81 -88 -25 84 32 -79 -90 -110 -45 105 89 93 28 -97 91 33 -90 -112 -4 -85 59 -114 -85 106 92 -60 -124 60 -91 -64 -23 18 1 36 84 -126 -86 19 28 71 9 -32 108 25 -61 110 -38 116 -19 81 -7 -107 15 -75 116 -8 41 -62 77 -55 -26 37 -63 -11 46 93 3 96 24 -97 18 -2 -1 -47 -68 -86 96 75 -121 35 126 -81 -22 -101 112 45 45 102 122 71 -90 -40 -87 -34 18 -8 102 65 95 6 16 -123 48 -57 91 43 -71 -54 -68 -122 63 -24 110 -114 92 -32 -72 87 84 -109 26 27 110 14 -109 85 -111 49 -85 38 -112 -104 -43 -41 -103 87 49 -61 -53 125 -74 100 54 59 -53 -108 100 21 -50 -123 -102 87 -2 120 105 -12 112 116 119 -95 101 -58 -38 -50 80 -92 22 -108 13 20 -76 101 4 -88 -103 -106 116 -45 -103 -56 -119 76 106 -33 29 -93 22 -32 -115 99 107 -93 -34 12 -61 -63 32 -62 -81 16 -41 -98 117 84 14 -47 12 -18 42 117 -89 101 71 0 -13 -3 -3 39 2 -63 88 -46 108 -118 -8 101 -42 29 -26 41 106 -48 -11 94 -4 -42 -118 56 -61 -23 -48 -21 46 -2 -33 -66 -115 -15 125 71 120 35 86 95 30 -84 -71 104 -54 -43 59 49 -124 75 71 32 16 -77 64 -47 -3 -126 -29 23 -74 -21 49 -120 -105 11 45 121 -116 -25 -80 82 104 -109 88 -104 -95 82 23 -86 18 -91 -76 51 -79 -66 44 124 108 -52 -4 -41 84 -67 -91 -13 -5 -95 58 -88 -123 -99 77 -36 -114 -59 -123 3 127 -104 -7 -42 75 101 -75 -114 50 -103 -10 -98 72 73 78 -45 32 12 60 55 -100 84 -106 -11 -62 111 75 35 -115 -25 -91 -81 91 -6 -9 -53 4 -82 37 -50 71 127 -112 -122 49 -58 51 118 -88 48 -84 -18 -65 -97 74 -124 -38 -43 108 76 -50 47 115 -60 -73 -125 69 -16 25 72 103 42 67 89 -32 74 118 -93 48 -29 -51 -43 42 110 -10 62 8 -4 -114 -5 -119 51 97 -101 -78 50 60 43 -19 -74 109 -10 46 -124 -46 -125 123 -112 -90 -113 74 64 -113 31 -44 75 36 -114 -41 -36 -75 61 -82 127 37 60 127 -44 110 26 -76 -90 30 55 -95 80 -123 -98 -85 69 -91 -77 72 -59 17 4 -44 -115 -31 126 28 -40 -30 80 83 -12 75 4 104 -52 -32 -24 -114 8 115 104 -41 -4 19 -127 47 118 -42 -82 40 81 115 -104 -117 67 -90 -28 93 -32 58 51 -92 -48 -73 -26 -12 -40 -86 -117 46 -7 4 105 55 8 82 43 115 -11 -14 77 67 3 -81 70 -15 86 -80 -62 -106 -3 121 -66 40 42 103 -37 -116 4 -26 -45 49 -50 -90 -121 12 -50 -38 -60 -64 115 92 119 125 -34 -35 -121 -88 102 -104 10 -55 97 11 41 92 -49 -71 70 3 48 114 33 44 86 -38 22 74 -114 -2 -96 -2 126 38 55 -22 56 46 122 -119 53 -43 -34 99 104 64 104 30 -18 107 9 -108 -63 36 112 -60 8 -70 12 -9 62 34 -43 -69 80 104 23 -66 -11 -116 -112 -52 -79 97 -107 -91 57 87 60 -120 85 30 108 50 -87 -87 78 -86 -52 -121 -25 -3 -121 7 67 -93 61 74 -18 -108 111 25 -73 -30 32 43 -40 99 -82 -95 -1 81 84 90 57 93 -116 5 101 -64 -5 -97 109 98 114 -24 -47 118 64 88 94 4 -19 -42 -63 73 9 -65 -18 -1 -124 -83 32 8 94 -127 -116 -96 33 116 120 -36 99 -100 -98 66 -30 -42 49 47 18 -102 -5 -91 -104 -24 120 -52 110 -13 -93 109 -28 -104 -80 -96 93 97 -126 -36 -89 -62 107 17 71 -75 -119 92 -89 83 -90 -67 98 -115 121 -34 -43 86 80 24 121 -39 -23 102 -20 -43 75 -32 20 81 44 42 -94 -9 -24 -98 64 -25 -50 18 61 -79 81 123 73 126 2 70 -56 113 36 1 -20 73 114 38 92 88 -110 -77 -79 115 -76 113 -48 -41 -12 -51 28 0 -52 101 -112 81 -70 -19 -30 11 -87 126 -32 95 1 46 -87 -27 97 105 -53 -17 117 54 96 -57 58 -20 -74 -111 65 118 -39 -117 28 -55 99 -20 19 -108 93 -80 22 -115 -22 33 -120 39 -3 36 80 -39 37 -20 1 18 -95 40 -60 -89 16 118 -81 29 -126 -13 -113 -31 56 118 -13 98 42 -50 62 97 -66 -77 -38 -80 -66 92 -51 -18 41 -50 -100 -34 50 -24 97 78 -44 -32 -111 80 -70 -60 -24 87 88 -115 -38 32 -93 98 49 -93 -12 19 -37 5 -29 88 -76 48 121 -102 23 11 59 -96 82 111 -98 109 -46 -69 125 -43 -73 125 -88 100 
-19 -102 96 -98 -27 -118 -93 -115 90 115 -121 83 87 29 14 26 -96 -102 -98 -16 -30 -84 -21 29 -68 -122 104 120 44 -106 13 -85 111 -23 -76 65 20 99 -48 -63 63 -58 -126 -29 50 125 -5 -103 -68 -25 38 68 26 -6 -79 -13 113 51 -63 37 -78 7 -46 89 46 1 9 -71 -35 -47 105 39 -45 -23 58 -126 83 97 -100 23 32 95 69 -122 -16 39 -124 55 62 78 -48 -76 -115 50 57 15 102 24 5 58 -87 -77 -117 26 -120 20 -26 123 51 -25 52 -12 -33 -110 52 -66 -95 92 -112 121 103 -24 -97 -10 31 85 66 4 -65 17 -125 49 -32 45 124 10 -32 -42 59 67 3 21 -76 -57 78 -5 115 -93 70 9 -54 73 -9 55 113 -122 -13 125 -15 -61 -12 27 69 17 24 -68 -105 112 120 93 87 -84 83 -55 54 17 4 82 85 -71 25 73 -99 94 -86 -53 11 64 36 20 -64 -20 -83 110 -76 -21 -2 -82 -10 7 1 85 126 77 -97 81 -69 75 116 -35 -103 -127 -18 -83 -112 -21 -65 -25 81 -104 27 -14 103 17 43 -87 -116 42 -97 25 40 122 -82 -94 -76 121 -114 -126 -38 38 127 23 -49 -41 59 -17 4 65 81 115 112 27 52 -42 45 95 100 48 -95 -5 -84 8 -14 -80 32 -101 -56 3 80 -99 104 -24 82 114 36 115 -111 53 -84 20 -47 87 -83 117 95 -34 119 14 -20 74 -86 114 -80 1 12 -23 73 -16 -59 -87 -86 105 -71 -32 -70 -29 127 45 -65 -88 -110 -75 -9 -43 125 46 61 -60 50 45 -94 -118 109 -40 31 79 98 -75 -127 40 25 -70 -63 43 -44 -98 59 6 -44 -73 80 -62 -47 -43 19 -19 27 87 -33 42 -69 83 38 37 -51 -32 -125 -78 14 55 -40 -4 98 -10 -106 55 -121 -96 -88 -31 36 112 71 88 -126 -18 18 79 17 -32 -63 -50 -69 120 -101 -55 -45 113 -98 -83 72 124 -59 -31 33 27 109 -36 100 83 85 32 -11 -125 113 -27 79 84 77 104 -21 60 -31 111 72 20 -82 -50 -127 22 -21 47 -23 -92 85 96 63 50 7 21 47 -1 120 46 26 33 -104 3 -48 -40 2 90 100 -93 37 74 -36 -87 120 83 -36 35 -27 -71 75 -68 -6 -90 -122 -100 -33 -48 -71 -71 37 19 79 -3 12 42 -82 13 -46 41 95 -48 -77 -85 83 -49 106 -74 25 -106 -75 127 12 84 57 -27 -94 -73 -76 78 -106 -107 -9 -50 67 -35 -87 -36 -65 69 -100 -60 -2 -118 40 -62 96 -116 127 114 -40 84 -108 -70 95 -21 0 -73 92 85 -15 48 127 62 -117 -33 65 38 91 -50 9 81 -1 126 125 -83 -73 99 -57 -92 -52 -17 33 -51 -43 55 -60 83 -81 -121 -49 -66 -52 24 88 38 59 -6 73 52 -93 94 118 -95 68 -72 59 -60 -14 -18 -86 76 126 62 117 70 -9 -29 4 -80 -73 -13 -108 6 -49 -74 -50 -89 10 105 -84 -34 72 -84 -56 66 -70 101 105 -101 -20 -3 99 -31 -96 41 -113 45 82 -98 7 -34 112 102 59 -56 -123 -31 -51 118 -85 -105 -81 4 55 16 -123 76 104 -82 74 90 19 42 35 -72 111 -85 -110 -48 49 39 -18 86 107 -68 20 4 104 9 36 -75 98 -11 123 -24 -31 87 -90 -16 43 54 36 14 1 -3 -44 -65 -100 112 -100 -69 86 77 -12 69 54 35 -1 27 93 92 51 -32 75 -118 -55 46 -62 21 65 -2 -49 -20 -28 100 39 -108 106 72 -82 -39 90 103 24 45 60 67 107 -60 111 39 -95 -118 -64 -32 27 23 16 -13 -37 10 -62 96 -5 96 125 -8 -123 108 60 -13 52 -118 -85 -104 21 -118 9 -4 -73 -7 -49 4 -126 38 -36 38 55 -118 12 99 102 -89 -119 -21 10 72 83 79 -120 -105 36 -72 124 -24 -91 22 -60 35 -109 40 35 114 -59 -75 -122 -22 -1 107 57 -99 125 65 -26 24 -35 -21 -64 -38 -79 53 22 -101 -123 33 123 -19 -80 -99 -105 -80 91 48 78 12 112 104 -17 -109 -115 -59 -87 20 78 58 63 61 -32 100 -107 -74 -67 127 37 85 105 -39 64 -117 123 -1 -5 80 126 -68 117 -24 103 8 -63 31 -103 3 119 -1 -37 69 -43 -42 -126 -64 51 65 -47 117 -61 -114 16 123 39 -104 5 72 -57 40 -125 96 48 122 116 118 117 38 12 123 -54 125 -2 -34 -89 -103 6 92 0 105 30 101 -63 -119 52 59 -55 -58 -104 47 -7 53 17 -39 -106 6 6 -118 16 -80 101 -64 -15 -60 100 82 -121 -47 -75 -117 -88 68 22 -43 15 119 55 101 90 -14 16 36 69 -59 110 122 73 67 -53 33 70 -97 -21 -48 119 -1 -119 -80 -106 -24 106 -88 105 -106 -66 13 52 106 -43 32 106 105 -89 -38 48 -92 -100 60 -65 -37 122 104 3 -59 -113 -46 -48 80 112 -15 -102 66 105 108 -11 -37 85 -125 -2 -117 -23 -4 -87 15 -73 86 23 104 -47 104 8 25 -83 54 109 31 93 -70 22 -105 22 -122 103 -69 -89 -18 -77 5 -101 -79 73 36 -106 -64 
